{"num_workers": 25, "num_roles": 4, "num_nodes": 30, "w": [[0, 0], [403.81121015728627, 430.29623499324657], [88.81968468517252, 116.96686667881252], [252.21908081836906, 287.7967606087739], [118.25073864183888, 150.83665143635716], [368.5913003432746, 408.0544147305185], [184.7252402160827, 224.0012532182887], [204.65535008860806, 243.39710816173059], [226.40426578078515, 256.1455549849831], [184.85553223922005, 214.0171554562655], [201.45404946277978, 232.8654540254565], [160.0523006496609, 196.69668139048161], [12.251914103540818, 37.68040211894086], [167.4808998964314, 199.4015609921299], [249.1559711253724, 288.47050339822204], [338.13395134822895, 376.21692627353633], [274.8764232466477, 300.5959808791974], [200.90470769964455, 237.76411467230753], [381.1126156745204, 415.97571803311837], [133.21478951102213, 168.35807812235487], [321.29879131758497, 353.8837462989218], [46.286712945088965, 77.09594571503011], [42.5824581504336, 76.46814647201715], [195.4220461789268, 229.03031626095373], [63.191046115239715, 89.0872582297776], [94.50455832267113, 120.52920267760979], [131.03621308957833, 156.76406914300372], [363.3113269065959, 394.87075997770995], [67.7059202072427, 99.66058002077567], [0, 450]], "p": [0, 8.33575285116656, 7.229492236905873, 12.545926520084658, 15.318333664456658, 17.932608322349544, 21.1238126518304, 19.718078985362897, 19.323265194093793, 9.531156941625198, 8.255085399436394, 19.179172652055886, 16.30744570597615, 12.516007306237443, 22.998873562453955, 23.270840911388458, 14.506790868541453, 19.244710294015817, 17.661810728284834, 9.884856007109722, 12.977849402152366, 19.734301348705248, 17.789270721245856, 21.280255027271213, 13.88123671059995, 14.34965166007896, 14.712809055004609, 10.641951375176365, 17.531086326057665, 0], "e": [[1, 1, 0, 0], [1, 0, 1, 0], [1, 1, 0, 0], [0, 1, 0, 1], [1, 0, 0, 1], [1, 0, 1, 0], [1, 0, 0, 1], [0, 1, 1, 0], [0, 1, 0, 1], [0, 0, 1, 1], [0, 0, 1, 1], [0, 0, 1, 1], [0, 1, 0, 1], [0, 1, 1, 0], [1, 0, 1, 0], [0, 0, 0, 1], [1, 0, 0, 0], [1, 0, 0, 0], [0, 0, 0, 1], [0, 0, 1, 0], [1, 0, 0, 0], [0, 1, 0, 0], [0, 0, 1, 0], [0, 1, 0, 0], [0, 1, 0, 0]], "d": [[2, 4, 2, 1, 2, 1, 2, 2, 1, 4, 0, 1, 1, 3, 0, 1, 3, 2, 3, 0, 0, 1, 2, 1, 0, 3, 3, 1], [0, 2, 0, 1, 2, 0, 1, 2, 2, 1, 1, 2, 1, 2, 2, 1, 2, 1, 2, 2, 2, 1, 1, 1, 1, 2, 0, 1], [2, 0, 3, 2, 2, 2, 2, 1, 1, 1, 2, 1, 0, 2, 1, 5, 2, 0, 1, 1, 1, 1, 1, 1, 4, 1, 4, 1], [1, 1, 1, 3, 0, 3, 1, 1, 1, 1, 3, 2, 2, 0, 2, 1, 0, 0, 0, 1, 0, 2, 3, 1, 2, 2, 1, 0]], "r": [126.18467686566639, 113.52815103275691, 85.26157740163222, 134.74280623125338, 174.94329377987907, 96.56032962437226, 77.6750481644035, 94.74945138136583, 144.4425060545043, 77.7144234206512, 169.02453297739606, 188.9388927845009, 51.220462404712585, 127.8912174198584, 129.01176692283826, 127.32840391050344, 62.38849276114501, 75.47825396438144, 62.87739677331743, 70.21381537580248, 53.76335801884651, 193.85911836690732, 148.71328865744348, 140.53369409498652, 85.25079617804509, 191.32948426264758, 168.1625844128722, 95.98828824637206], "b": [[[-2.6984577815051, 1.2257233023279257, 0.8856846246112022, 1.381860756166728, 2.463373663840672, -0.6499902939376536, 2.5123638539979307, -1.689407446942627, -2.2158900214606403, 0.43146456704498615, 1.364447739244472, -2.8967438078688943, 0.9250627264819862, 0.5543753137698562, 2.7243396132948376, 2.380265457594554, 1.6245748591612328, 0.39674989092406676, 2.929706530790275, 0.5567521690710109, 1.6249654792407915, 1.12017408292128, -2.7116289580982134, -0.7385789342281468, 2.334787452320289, -0.0433191864265674, -1.5604887891721586, 2.7409321644216815], [0.9117487883730444, 2.920464300647664, 0.21288085007582858, 1.4525845041116394, 1.7116208259529433, 1.6642007092078392, 2.4683677643780033, -1.4204763893385535, -2.1525304434358357, 0.7525979136650287, -0.6184535128088213, 0.5196091546675436, 2.0223956565918915, 0.7283005122432051, 0.36123191884272643, -1.3053427243535864, 1.106205525658413, 2.4704999685536526, -0.15858220800065848, -0.7693278336139922, -1.1323788395672845, 1.5128823832042162, 2.6420789766460295, 0.7907215354475414, 1.8441581349177207, 2.8324899650979347, -2.616478957921321, -2.28745608453093], [-1.9741557103813165, -1.812277855954573, 1.2514446659564467, 2.780275333389704, 0.6025775065373526, 1.567614469760258, -1.3131552239579691, -1.8169400406785305, 1.7251374532662513, -1.9196486236009387, 2.037845231051006, 0.8314949392198008, -0.08858038689302816, 0.43230759191594004, 1.1737346852727057, 2.7348139639445606, -1.7541000178825128, 2.8483313165266644, 1.2294935455767204, -1.3255279790393453, -2.641038840340932, -1.7839007573558174, 2.354671327233252, 2.7167792317365844, -1.7967546641144276, 1.9920395361924959, -2.5619936211889405, 0.20712072528098124], [-0.5523233829392469, 2.398247910881013, -1.5427870876348355, 2.1257485302437544, 1.8375907396571147, 1.9264542703495735, 0.3910317856474981, -2.7722896858158146, -0.21231056442712948, 0.49289576491557696, -2.767297096265602, -0.10155624657132867, -1.049567190408791, 1.6850231379526717, 1.6046630271713287, 0.8498901936386107, 2.071365310972112, 0.06693871062474965, -0.3353576373800342, -1.9512160674246237, -2.4538766108477548, -2.6834774736093534, 0.6071328795666515, -1.7660099725107319, 0.9942589198671694, -0.09884220417217371, -1.6895650611330262, 0.7221396124227004]], [[1.32661873552287, 2.9421335624882854, 0.06812561916560433, 2.738907442725653, -2.942084148541177, 2.7096689074540983, 2.7569446400133657, -1.8227649181007148, 0.08624660878636492, 0.9991230489916245, 2.8997257859920644, 2.169610990752405, -2.1418152462692053, -2.6737496152218387, -1.9165138855383306, -0.9938261053732655, 1.5245693707351817, -0.09721312220979339, 1.2915154445805141, -0.7500491692776681, -1.8700401861751341, -2.6217271887101345, 1.359711547378959, 0.43794771163863633, 1.3571973520377894, -2.4000342816503046, -0.22724162626015376, 2.4922395967425057], [-0.6677222491509482, -0.5951919344824015, -1.0105926533838012, -2.900019962706774, -1.6724422992230932, -0.7877856320333949, 0.5336639892684718, 0.21060497775962395, 0.796716880580004, -2.2465210223472734, -0.04497731049599185, -2.574971763399965, -1.5781237032223796, -0.3774726899759542, 0.43320818569676733, 2.9852574711441893, 2.9290635528878406, 2.9398107519754255, 1.7757437995416963, 1.3927819637701866, -2.562267883675862, 0.2430144871028319, 0.310624917044537, 2.5232031517620364, -2.375270919547728, 0.504610861564307, -0.833426763526826, -0.6606770153841337], [1.7710354059537394, 2.0718523231922745, -0.7879332460135626, -1.7862598537744365, 0.7982193601613732, 0.6122019990314111, 2.6149847153455825, 2.012335355359773, 2.518580526375425, -2.4812604573566155, 1.8120015568049848, 0.9831299556157873, -2.0310532360124824, 1.7767977661395626, -2.8550785591689616, -0.030064249703672274, -1.5626513597216594, -2.4428175188540324, -0.02181952850886315, -2.2878392418440634, 1.5518191839309017, -2.3158613835560384, -2.070680957473532, -1.1570412470968625, 0.2823512661732597, -0.5151508655325561, -2.6658907651646686, -0.740487425184142], [2.699282246500734, 2.4203056136980843, 1.1404940879742238, 0.8595730162866371, -2.629539877713202, 0.7198102694668083, 0.6020348801520883, -1.9156446522502901, -2.3609580370110193, 1.866059717762492, 2.6780912086869275, -1.1185035640237855, -2.5070595132080413, -2.9753590249888773, 1.9357372743388144, -1.689063295855644, -1.500340385835268, 0.3091121644766117, -2.5463543513033464, 1.7670159590617462, -0.7679574779709055, -2.1696927833179815, -1.7019637665569445, -1.8742413786677363, 2.52145418917772, -0.826946347885559, 0.8175665884048549, -2.262616636338719]], [[-0.522141191262322, -0.9059787361769462, 1.2130784308912244, -1.090056809438925, 2.400229838144538, 2.476407002036612, 0.05995609839228777, 1.1775250172978948, -2.0745226989467676, -0.2305161573015293, -1.803576699467665, 2.916511703596001, -2.1559155367031457, 0.45902401235867174, 0.011426182334821622, -0.30552461469557723, 2.74343741193878, 0.5015963337841969, -1.6242075446417643, -1.680391294036873, 2.6887659031977975, -1.8161493274446907, 1.3141651914622239, 2.987073654119839, -1.186077881325759, -1.431981774008123, 2.7689679271443612, 2.2640990280724616], [2.1635334226354317, -2.8971637168659043, -1.43254932191703, 1.1281679278498302, 1.7643210717623496, 1.4615717785080156, 2.554383927858752, 1.2647565912399328, 1.837864461155588, -1.2191411383531836, 0.15826707588611466, 0.47151494587118403, -2.1212315698029602, 1.9059425620578203, -1.6344338174293966, 2.8956842065378128, -0.39154830536850493, -2.7032907335467478, 1.1653323140550302, 0.26359722920296935, -0.7929115772571773, 0.6741291346707001, -1.4361869344006133, 0.07026101345416347, 0.1766887267881856, 0.614208779846166, 0.6742359404362457, 2.024279548986245], [-2.9330308022744243, -2.378258373509758, 0.30272408834119036, 0.20976534212047726, -1.9463823865377174, 1.9252555619682337, -2.5097423169164137, -2.7285134887937925, -0.7239393469897606, 2.277133970874451, -1.0446973874046028, 1.9447273275287218, -1.3807236305657906, 0.11070770599527568, -2.364266797919924, 1.8846207384627487, -0.6036573937809475, 2.6562717849634305, -1.4039233158706894, 2.729222455945358, 2.7626512293640273, -0.8577655404462119, -2.6090361856072546, -0.6013741881923442, -2.1249187293678884, 2.6478526459947727, -1.5334086638931859, -2.4954521001181007], [-0.24268331958115308, -0.7901002384407834, 1.0213732585270607, -1.5187544269336752, -1.4478546686678317, -2.4375729169549754, 2.780028088450928, -0.668705336979337, -2.575139719670309, 1.6137842512770177, 0.9755292538875975, -2.6442173475043793, -2.445309716875763, 0.6283605236203362, -1.7953546305226464, 0.9138483718244932, -2.0814328345713333, 2.047493883908756, -2.8940907356479864, -1.8051115740649435, -0.7820415799793263, 0.16471292790052194, -2.463436849358435, 2.3660502371368226, 1.109730727923651, -2.2701199005177948, -1.7983408334865358, 2.12725194978324]], [[1.7465982678473182, 1.9497279305293533, -1.8033861577906471, 1.6345186249680639, -1.8652519619570522, 0.0961695900593007, 1.3718923029332695, 0.3734839961632703, -0.013300765424772543, -1.4103951695549992, -0.6232901832686748, -0.7317493380189832, 2.6984006818191686, -0.7118871966643967, 1.3371309797087267, 1.3144235080989768, 1.451183132634827, -0.0987663965038319, 0.4841893452903463, 0.47458159005210643, -2.864734675826445, -2.9234265129045043, -0.23355563731354323, -1.0862638870462369, -0.18997325935144005, 0.6594970910631526, -0.381360983110798, 1.6493277470853407], [-0.21701515796007342, -1.0512130701935376, 0.4170418863359777, -0.6284301087620419, -2.481144794400737, 0.7162362634766839, 2.830447818747535, 1.9021448646157353, 1.2967403405024704, -0.05141469778150354, 2.2658616766359048, 2.274276233472124, 2.4315025226186577, 1.5364883064371009, 0.5464099434374838, 0.05206715601027767, -1.76258320367027, -2.3644295631681023, 2.942543193345866, 1.1817020493411183, -1.7624885777082573, -0.36551117010508705, 0.09778052211827681, 2.697427957083101, 0.384996288209587, 1.6666097784894447, -1.4845281161392279, 1.3228754220635661], [0.6564355569856821, 2.030873660654617, -2.8806818367877067, -0.009963038759026155, 0.1298491527143506, -2.722909239465783, 2.664849065122797, -1.9178123250693957, -2.3812560742008175, 2.661229406208103, -0.45608264789479147, 0.7753640588897452, -1.079401820672286, -2.379200570916133, 0.6253062343297158, -0.17297186454170177, -2.9111852291648486, -1.3267406341032293, 2.775146048554827, -1.6415994471362856, -0.9217208753381825, -2.986914932713448, -2.7363449516183627, -0.7980620671248864, 0.7263683181127636, -2.417687028022823, -0.984256789778843, 0.9365587269787734], [0.2275020466049975, -0.5277102556520328, 2.6213033513078914, -1.9617782377639412, 2.234143307572449, -2.8585112874159737, 2.420889265945151, -2.2152061613282905, -2.817203675850344, 0.9384147460940149, 1.2417471397573898, -0.054076525092106476, -2.1919713495412436, 2.153057028427548, -0.6637175826991752, -0.23053513917772417, 0.1812493981823442, -1.4365686558341069, -1.107563656982212, -2.109780040075433, -0.5426391125770613, -0.566188583953187, -1.6042686831947628, -1.5307959201308714, 0.8154925168463976, 0.03534190423959638, -1.5684733596565785, -1.7980085007958764]], [[-2.0247522602107577, 1.7513582338609393, -0.40428539401598496, 0.32819993502191913, 1.6176165279865033, -0.029087522930391962, 2.748274359232189, 1.214047374837918, 0.2772340010087646, 0.824545664300596, 0.946799998601008, 0.7151239649502683, 0.5412460892873003, -0.21575973061955178, -1.9254377791485886, 0.6382508906771993, 2.04303260451183, -0.1960295109029433, 0.5558318893468677, 0.6533989323998775, 2.5021186263339086, -2.3634439402074943, 1.2175437741561135, -0.854279248998453, 0.7422273734529266, -0.17457654412105228, -1.0700246474265038, -2.4888265216104983], [-0.05930740269942447, -2.3698634405231176, 1.4652799660352462, -0.028536446950030214, 1.4767451465855785, -2.8749017953001843, -0.8575832942583914, 2.9018621676818928, -1.1644830988503472, -2.0985857725760337, -0.4661196150764564, 0.9269386738543535, -0.5480655691532266, -2.4234640275812325, -0.8746265257557115, -2.273253536726112, 1.815451389405931, 0.958369515757842, 0.24471477627932892, -2.3958515114348433, 0.9275778570889823, 1.5962971926257712, -1.1958799024770563, -2.1531104226690996, -2.9506460318853893, -2.0578160912817576, 2.058795922332356, 2.3948571679194313], [-0.6524204284531061, -0.1041153724049928, -2.0623963902649964, 1.3231659502580797, -0.6143016927612805, -1.3591691265373824, -2.0743438567345445, 2.0568027994599456, 2.1018729842411226, 2.990117231744513, -2.012026857802348, 0.5064828006550295, 1.6822696027949808, 0.6871984444877057, -0.1522946471576745, -1.490337074523435, 2.5330277190433055, -2.3368975193441806, 1.650768421325309, 2.229050391262547, -0.5058651219980401, -2.0939388541697106, 1.0234148072142721, 0.43769493195407483, 2.7672613647295012, -1.4920582872908954, -1.678832552446614, 1.919212021314416], [-0.4353800959898768, -1.2941799383516301, 2.335940421073901, -0.5451881471202968, 1.070078933732872, -1.7482659758634838, -2.570227560381336, 2.4762361397559953, -1.440283184083779, 1.3434893457660317, 1.4580431189113972, 1.6732760881897093, 0.5654788727866746, 1.9325817931417841, 1.4667751235043784, 2.2894202357415336, 2.4249779619697946, -2.1024348641814847, 2.6712622375669124, -0.3734744222856845, 0.15907220221895146, 0.40069638353036385, -0.24014688166208753, -2.5283245725777475, 0.8207913377346592, 1.624827047138691, 1.775482989200861, -2.0255221930672107]], [[-1.613316730640384, -0.42735003095011637, -0.2876416644138349, 2.687454542726811, -2.6742333917397563, -1.5941666178113223, -0.5989000391285373, 1.6261980248886694, -1.4890619609380982, 0.4943663220945673, -2.392206406581671, 2.955553955322456, 1.3598389084704117, -0.6898217873212822, 2.6602926604157062, -1.7126886489508912, 1.9693521238872957, -0.6034490034554456, -2.799781003993493, -2.3765114081564755, 2.112683748127912, 0.63456775367876, -0.7577073241534795, -2.387157525805536, -1.2391013629072445, 2.250925232775467, 0.8054646990342489, -1.8558519256594097], [1.842092051872374, -1.948025950362173, -0.5730674611136894, -1.2598992529488882, 1.594234928337734, -0.279654733233468, 0.6516249595997481, -2.215372676770259, 1.6552517014606751, 2.2772354149674747, 2.796751053339051, 2.2571025237909437, 0.19709622682353967, 2.561988484510154, -2.586029829289097, -0.6030607720372587, -2.339094262057629, 1.5377249611096806, 1.142338149571918, -2.066504476438567, 2.052032066879594, -1.6668348862924445, -0.7735119197374187, -0.1628336196396507, -2.897982746442379, 2.889955450753689, 2.5515216499337576, 1.1902914338029387], [-0.8696576837972549, 0.012007673974618438, 0.24520137238973572, -2.1129076995845124, -2.1598785191349306, -0.5118436864177625, 2.3595163469529954, 2.704487121193507, -2.47367818175952, 1.7284812909582659, -1.0891466026264158, -2.0195393875674124, -2.892990539731903, -0.11503988856349778, 0.528534859342972, -2.403312158975117, 0.362048775215869, 0.7823245613672247, 0.8478407474475254, 1.2622306023104706, 0.5255670579680558, -0.889841253349112, 0.054863375341570375, 0.9974238762392624, 2.823165455248291, 0.997555262335438, 2.2857491095955513, -0.5341453621878238], [-1.9744275322481217, -1.6125223349395927, -1.655276546499727, 0.8231677649791886, 2.796813677847873, 2.57293673683297, -2.3234274629654514, -0.9217965641931318, -0.14060616162542372, 1.4376111891741088, 2.5363955989145737, -0.5681894940198591, -2.5878984350384178, -1.2962655337431772, -2.855759849151177, 1.580254621332208, 0.24674029995992441, -2.263748382760689, -1.7134053379215326, -2.0383821671264784, 0.4450002278895089, 0.509594617773554, -1.831850798842693, -2.2729711088380093, -1.6853302656977116, -2.6868059374487125, 0.23773033732242732, 0.4664638847510365]], [[2.0420605896765487, 2.090020129918173, 1.4657820512153785, -1.8307750581277247, -2.794861850723075, -1.2179525643349738, -0.6889324289635361, -2.065732496717346, -1.2816646458498906, 2.0412535774047784, 1.2795600240167158, 0.6021949019019193, -2.6159210070778802, 0.211506871169318, 1.3708287568908366, -1.9205794445808235, 0.29639719443938617, -1.1602288614348142, 2.611077402760589, -1.877222254071057, -0.5789188498106945, 0.3541024068676175, 1.6799948177684074, 2.5068213350681168, 1.2158536246013316, -1.0247758790730033, -2.430301841467258, -1.5399832854890037], [0.6724152757904771, -2.614798468280026, -1.2795642060105392, -0.04293672910416291, 0.6485497053333877, 0.19667942510008318, 2.953853205384287, -1.2463203042401192, 1.4052503776180254, -0.40516168911919825, 0.8769781938315653, -0.422449507507177, -2.600096272096367, -1.332074974175272, -1.051547510321138, -1.6398347696251137, -1.6474025684213733, -1.7562502731310412, -0.9809703951180211, -2.5428077947195558, -2.437708474034163, 0.40850248907789144, -0.8184426635839794, -2.9332117137462497, 1.932500327421618, 2.06684666198226, 2.0660068428845486, -2.662162811980363], [2.2775683445171904, 1.1620538341456834, 1.7792291910131937, -2.620475373772206, 2.2202397715685755, -0.08611368817653808, 0.6790822133942669, -0.5067681816751808, 1.7533923750094171, 0.18139077200431686, -1.4774104094000957, 0.3980876600634149, -1.3482224114024293, 2.615924835869409, -1.4815526539530024, -0.21648695997826906, -2.830903744668164, 2.8651311824411803, 2.2227438697108486, 1.0667606437895758, -1.4274245739176148, 2.0154544706675717, -2.725672497820873, -2.6977339019357114, 0.4884738815232863, 1.493691967428454, -1.995941597219108, 1.0884518893643103], [1.4718227327735445, -1.4802241194332102, -2.6374166361843745, 0.4282403637819847, 2.2364644126217836, 2.8869820910250326, -2.644437955027154, 1.3015358056098867, -0.6242178975379788, -2.270446163267553, 0.9911602297332003, 0.16576988977091167, -0.5734161798274569, -1.287404584150538, -0.018672534918494854, -2.575178019363248, -2.7136300850983917, -0.3613082988490781, 1.358391322175473, 0.605354163174801, -1.005436532114093, 0.005172694208295248, -2.891301499498809, 1.6608725390088122, 0.991750758526968, 2.9882055418507685, 0.1563019705030988, -2.8179445917107353]], [[0.9218424842624651, 2.118454875986349, 1.3600200769231483, -0.7393198915339321, 0.8167566555544385, 1.061749579552913, 2.897974593146883, -2.934067804906367, 2.8019062133507804, -0.6018176592372528, 1.2671535232899123, 1.4607882236353174, 0.13698354894805043, -0.42211897667247733, -2.0074580496296273, 1.1496438707811123, -1.6995980762954743, -2.786752967903462, 1.9890406334766348, 0.18798951491765514, 2.0219965284314885, 1.4417479656924863, -0.877600575371841, 1.4964559820856218, -2.8826153342737806, -0.3752793024960632, 1.3624925171643163, 1.6571089175720761], [0.021253991061910504, 2.577750050227298, -1.2381679385590554, -2.702460452684889, 2.3326694364014084, 1.3648136344674153, -0.8836296663994649, -0.37308660192121845, 2.775215388599973, -1.1345406494593981, 1.6677395007177207, -0.08199194750903605, 2.3918069772164703, -1.0552390793953181, -0.27559726951285857, -1.5556494808284898, -0.7545981881985631, 2.1335567409375304, -1.5967933715482805, 2.581022599716034, -2.6027382175990175, -0.9216838999367551, 0.19601633064979396, -1.6374797301516424, 1.0320554361767789, 0.2979219368627035, -1.943915866722138, -1.9239157374095754], [-2.9259871195033083, 1.900497207345949, 0.5001290708375299, 1.2864019161799742, -0.8765510894516657, -1.0173851950826085, 0.7582873495175191, 1.8454338379895452, -0.9971143013646913, 0.45636396322375994, 0.8033159096356153, -0.04108596295784128, 0.34651801119990866, 1.7013960964491028, -2.674551330076033, 0.470199966833889, 2.3875193256188867, 0.18872264995670385, -2.1425453284404057, 1.7877641813623386, -2.6121104187651847, 0.599972926626954, 1.5274249893512364, -1.5260874325100777, -2.4365896913814287, -0.10645770741950322, -2.5398515328247813, -0.6338636127342157], [2.589394252927404, -2.449945710438642, -1.4533305052791072, 1.1971888193663576, -2.855269030602013, -2.6686843564857, -0.7427025183002627, 1.1687207709801761, 2.9661549323792533, 2.6281529404120647, -2.86727244134099, 0.9310245148681209, -0.2937513599267936, -2.166232233075618, 1.728996553792121, 0.3345151795387111, -2.4032196885923276, -0.015873400979872443, 2.2770392167423523, -0.4082892174815145, 0.965198420943298, -1.0108854762946862, 0.6610250421158694, 2.250412466900441, -2.554716139795536, 1.9700812788631374, 0.6656531629451701, -0.012160269204919416]], [[1.4882608035709186, -0.6195593150998748, 2.8608650060289804, -2.2719363106242048, 0.8577267462929932, 1.8442357235528082, -2.240392151941651, 1.8431430845901549, 2.6197828206061686, -2.8637070113185885, 0.013782608900190674, 2.6821490731558395, 1.1799326530421794, 1.2676692962545903, -2.646243989601765, -2.7029487707768567, -2.7430571557026457, 2.60951037562047, 2.971751979611276, 0.4511367557667798, 0.5974985592382756, -1.6391702492866644, -1.7498959041313642, -0.907676821071624, 2.532265127389252, 1.4435374766552656, 2.9245967907805746, -0.6943980528666396], [-2.6238024333630436, -1.2789346744382224, 2.6953496915352577, 1.3428959221591583, 1.1337547988213839, -0.8890082508454453, 2.9014340472639937, 2.3420987620903704, -0.5979906949215872, 0.5999162076783366, -2.794662081401722, 0.8032511047610877, -1.038687792701798, -2.5090642717580414, 2.8162681452751066, 2.397957579567823, -2.7431633926311685, -0.21738720597873895, 1.5161461747469893, -0.023980464310101368, 0.4303654804569992, -0.17492900311922543, -0.669347183216388, -1.5502173046445291, -2.751082373225775, -1.2228395111709789, 2.8327255283605046, 2.9515085693738214], [1.826220176621078, 2.1743671902662705, 0.26603628852103167, 0.6654067432722615, -2.0724521916423058, 1.224971052028259, 2.605780973008584, -1.0429510271184184, -0.8088291266880856, -1.1653672815510627, -1.9263226616622704, 0.7141976021072214, -1.9297260082793555, 1.7747842829340161, 2.2041694678558352, 2.8322827748103423, 0.9779673916370486, 2.8748247312988573, 0.034218489827336995, -2.689837439581412, 2.9303076072212546, 1.5116146684224354, -2.0156747809488387, 0.9988295518812178, 2.7570810509071118, 1.3586775453372164, 2.60792850866744, 0.22285852747640167], [1.7125918652474965, 2.7378293356776098, -1.8759681469517595, 1.3039256378470707, -1.9703923664302512, 0.6547829495653241, -0.6616397623451231, 2.9785771407976203, -2.3110320566598457, -1.841202029251897, -0.3865613121439426, 2.3168358355741647, 0.4242808275597856, -1.8566470170235412, -2.1535226938052228, 2.2207958643567576, 1.5955301605340182, -1.2740889645011995, 0.046282666668830075, 2.1565811961504764, -2.455725676311928, 1.6420240208747376, 2.8169083173319036, -2.249400123055728, 1.7678510541706194, 1.8922264080550182, -1.2395503504103997, 0.44393795924872137]], [[-2.056285190305876, 2.028478204424772, -0.03702164187075674, 1.3027258936943156, 2.44452799824676, -1.4367086826861484, 0.8206356622339381, 2.322348680621052, -2.974099876118311, -1.9157018306380027, 0.5680627028268814, 1.3852625647293113, -0.7967261396666228, 1.4144837368327021, -2.532432239023381, 0.9562371946464294, -1.3394903122702826, -0.2468791939168371, -1.988836254086573, 2.9651305278726054, -2.4450438766236653, -2.909772402392173, 1.199222737294411, -0.16802492795917434, -0.90115314331908, -1.9114648547198125, -0.04310554790398147, 2.2427769139733167], [-2.0769872207528195, -2.668505971690194, -0.9592269856533191, 2.143783621428982, 0.6293499510196985, -1.1357422405179676, 2.694573576323135, 0.7456585864900465, -2.508487672406643, -0.07710765934501751, -0.6087616141653474, -1.2922103246269876, 1.6619748730121735, -1.769836610595219, 1.7890163008674067, -1.0134724104159196, 0.39975580610107153, -0.0006282428683217489, 2.6102373955678324, -0.9118473727350316, 2.157453087346955, -2.4935299022286532, -0.42154035106217913, -1.9128245516298457, 2.627866374136536, 2.7840278198850665, -1.6407860475707359, -2.0335193498867143], [0.7612540003384596, 0.06559331666877277, -2.999656143081224, -2.360992865701553, -2.5145998524632835, 0.13615276364763274, 0.21749141466098232, -2.31324291591058, -0.7360552686113335, 2.890398530004914, -0.17358228188683622, -2.3378711474877343, 1.429224613718561, 2.0981684100992126, -2.9952350531566054, 2.224749940557289, -1.5162595767374116, 0.9596833472831943, 2.9282720030175016, -2.4729480092927396, -2.7425085010909287, -0.9261519447032951, 0.4530428841059555, -1.0656231107270486, -2.133996417039236, -0.666948598795349, 0.7926221231286545, 0.26572450025830285], [2.9494551486289797, 0.9676455157780333, -0.6420208418844289, 1.3640913867925502, 1.1210290452914329, 2.5707680950458442, -1.8175707994352241, -1.575412940015997, 1.7551389395346497, 0.5032103508272585, -1.1573729770112804, 1.8689027136412397, 1.045549517383364, 1.9636880460564434, -1.3462180696914308, -1.9675357033649024, 0.7778294374006416, 2.352834957886972, -2.1405678701141353, 2.4078551663145573, 0.6373177687557905, -1.7076128634609236, 2.731347631597605, 1.9937806662963142, 0.15288889200326583, 0.9451698779950775, 2.4695829870819885, 0.152381614255634]], [[0.6966636167787845, -2.287769628661353, -2.5283935699973323, 1.7216143391943604, -2.1939850204825024, 1.7457228013524624, 2.9385064960927423, 0.08841961998073877, -0.07713566887502665, -0.21732933735513793, 1.5186924957846752, -2.93484431274659, -0.38935649073258016, 1.113159569783722, -2.4276661274846623, 2.8189801222724267, 1.6068691788717198, 1.4073069274198176, 2.939437181515551, -2.109290797945859, -2.4749011664111755, 0.41727764613790175, -0.4830075255712645, 0.5927154497931584, -0.18395000054474364, -1.8857724258006503, 0.82242412815644, 0.47556992636075446], [-1.3595097042633997, 2.903134283260405, 0.44703732119852546, -0.02012195706227704, 1.1141129360445436, 1.3801460236141825, -2.1836901189241846, 0.08873335053825748, -0.9355818549124804, 2.09148638598868, -0.10814262166765598, -0.509893726712388, 0.4355802931781949, -1.6517154672215268, 1.2671347772180974, -2.3793301213823606, 0.39891701862312523, -2.3966482225458687, 0.17272945436807152, -0.7374664429525226, -2.6362222886558806, 1.0341163985418227, -1.1531097677854707, 0.13596763318327554, -0.3899061847332139, -2.4454517248061842, -1.0294162306576378, -1.0064085990977856], [-1.661735271567323, -2.7449670067819985, 1.4004987013001413, -2.896306313558947, -1.8497069177059582, -2.6901032734874324, -1.3934065991725841, -0.4132217599816519, -0.2649279778957334, -2.722533751032012, 1.8292297814697323, 0.8034315761945079, 0.5999171180443801, 2.0769675890443313, 1.574701623559692, 1.3829041478725914, 0.9403248363993422, -2.6562971202359273, -2.6221151129846527, -1.5405854494467732, -2.9472059948078213, -2.329952033062696, 2.2609041664807448, -1.2361594562441505, -1.3386747385241267, -1.5593466329192556, 2.0280467361104195, -0.457419718158369], [-2.634626028706902, -1.805799605699077, -2.491341449865691, 2.698396116886335, -0.6061375580941055, -1.4151892359586578, 1.444636815821739, -1.861045840779785, 1.8503884917778768, -2.017614024507172, 1.9544637286014446, -2.2421894213629283, 1.0333669716777996, 0.29148871851404223, -0.4845749947636566, 1.3057019431546317, -0.3862924833982091, 2.4777621059966988, -0.8831113643627808, -2.543001972456297, -2.5218000902264563, 2.349423037309097, -2.3174897959191894, -2.7762183778276386, -1.8279902293904324, 2.72030466656365, -2.1836367447863188, 1.3861877852591835]], [[1.986998900472443, -0.9233949138217383, 2.7139828223390774, -1.507373435325208, 1.6509456205108268, 2.8077111691666445, 1.9925252192542668, -0.6625220302087222, -1.7646222448280358, -1.7542226174379372, 0.5825937904802689, 0.07725373806589131, 0.21577107123281802, 2.407407900647608, -0.5961495252000093, -2.3085372469957495, 1.252168197345969, 2.0264854115692135, 1.222844925973324, -1.9098785269502578, 1.8573112119384438, 0.3380250743050226, 0.9591045655750854, 1.080690254792252, -2.0855849610698955, 1.940922788419508, 2.316849507297148, 0.18061592630757684], [-0.897392483413407, 0.31698542053944223, -0.4352770877166514, -1.6190333855788936, 0.6522737765124624, 2.8290352233978675, 1.6811802374060605, 2.523697417180868, 2.03363277831777, -2.0185851562270014, 2.9951334293779537, -2.4427996072476814, -2.175102808807606, 2.8584508133986306, -1.4405473909215856, -1.427298966255075, 2.001996264368283, 2.974026256947705, 0.976819951265659, -1.7829662431138198, -0.5346323066404688, -1.489977488465079, -1.5683198417150248, -1.5081404703063572, -1.5429701077271096, -2.7898921346500476, 0.7768921753118909, -0.036826778116806125], [-0.9547891842929346, 2.4735537502819627, -1.7041792631928308, 2.5626109396399093, -1.1491014507248982, 1.6209753800370654, -0.21798958640792865, 0.07819461520132975, -1.4968955101206733, 2.7019580356500636, 1.160180740072069, 2.803012487460066, -2.6065469683185114, -2.636694178650164, -1.7272767262438447, -1.210466136878593, 2.0003570071188426, 0.20996486607903986, -0.19773704753848342, 1.622958091771185, -2.6209999453625628, 1.6135777094904604, -2.4689179926179374, -2.3793981405615585, 2.5098133497114175, 2.583692564630903, 2.676601363830125, -0.6554752782320996], [2.4955874457855503, -2.888863099940605, 0.49732774070938834, 2.759095052802836, 0.9315923442464435, -1.3256127159104858, 1.712387196703598, -0.39319655122610886, -0.1541422619187225, -2.7824728721520815, -0.7883525734086962, 2.965140280777474, -1.6567836506888538, -0.6657906418359305, 2.430095513972164, -2.3375176289361526, 0.358874082585368, -1.0199829937599727, -2.7457848203559316, -1.503055621555284, 2.4662620990857826, -2.9079198099072805, 1.27215693082276, 0.7695494965794336, -1.819554842283025, 1.3638906982310077, 0.5655093677135188, 1.3967747566796822]], [[2.708332293628434, -2.792398147172312, 0.681365729387549, 2.067617331750805, -1.2994351419870398, 0.769619631902092, 0.275050726986656, 2.7971348494052535, -2.221713653871448, 0.13691071553542145, 2.202078780361008, -0.23688855764273553, -0.1302155419604989, -0.5762471201201516, 0.5866213892557166, 1.5723457357912647, -1.1463989205158656, -0.20878501523441662, -1.3985371427948237, -1.4702401156637335, 0.17344658251398215, -0.5923160796974818, 1.070732870512126, -0.2836957007959011, -1.3746770174781542, 2.3484351983159693, -0.5019543200089025, -0.3892878205793884], [-2.348161287816461, 1.1658561072008027, 0.6269327773834616, 2.020311420324628, -0.34924552627801964, -0.5486659974332682, 1.0454119568290219, -0.4285144779765391, 2.25158713134243, 0.11058493060484054, -0.7495952624202675, -0.9201307219898207, -1.7588096903659731, 1.716985701775159, 2.709089654604716, -2.248705697743765, 0.2318391977595029, -0.35423168584804277, 1.9084014138847722, -1.8289974829347835, -1.8840242044663076, -1.4809991559240177, -1.0389944215234708, 2.602127869119892, 0.7902513613578783, -1.8907992669820226, -1.2365529818104593, -1.6231531147536384], [0.5548893971085684, -1.3800364666104146, -1.4116009388922284, 0.10768050349135105, 0.06765963293327548, -2.6478396383983087, -0.5373317943721272, 1.6027995829837662, 1.1523150931442911, 1.5083731311618758, 2.655816053508273, 1.4841582278747012, 0.5382252069265743, 0.5829320381500622, 1.7830863800829881, 1.1597574587078947, -1.5987069982003683, 0.14045240658566982, 2.60922165932938, 2.3508225565757463, -2.9372905150685966, 0.09162125401087806, 2.4066111040700555, 0.8432862034450985, 0.8563231502284188, -0.05149375503986464, -0.7473134725104309, 0.2301457443274515], [-2.378659158612115, 1.028289333419944, 0.12856085324337085, 2.6615281083670155, 0.3690118215023759, 2.8181148751006715, 1.7099704687457304, 2.2083817573521376, -1.6003479432725976, -0.33800856780397304, -2.4817348126714887, -0.7933842739457582, 0.47785708931535353, -0.8469527277035667, -1.128097883859816, 0.8432205535404407, 0.007520172026667549, -1.6174916297576591, -0.2752009998471281, -1.1698967508465907, 1.6614244069855424, 1.5437731256901914, 0.41039108158248805, 2.358484273589929, -2.738335778241071, -1.2416386187385096, 0.6754338425191309, 0.20154062020309738]], [[-0.941858389451391, 0.8641781131427662, -0.3632004870816141, 1.5954326317659033, -2.4231903142057716, -2.395100359612039, -2.6159065764309046, -2.2304257589094956, -1.90473048485635, -2.8617131757614724, 1.4752804826820132, -2.759153875829937, -1.7419159591055757, -1.3899356331810393, -1.8625808022281491, -0.9714379632184773, -0.4204690238350741, -2.50451844579356, 1.033802492290377, 1.0128428654674595, -2.9252850811230897, 0.4105046587612078, -0.5116654556776443, 1.4982900894047262, 2.8975693996244534, 2.4271654796554927, 0.9713378555623065, 0.8643052913130003], [-2.1159682039258425, -1.49228726800478, 0.5491810287362742, -0.11558783043033127, -0.9177732635777494, -1.2642511208890046, -1.124776227778632, 2.9064154924608694, -0.6380821974411539, 0.959088135086041, -0.0013598280036797306, 2.5122134522145876, 2.8875914881860343, -1.222149501316675, -1.7648484307287176, -1.1317271127302728, -2.241957554772788, 0.8157536942325372, 0.46881621548287367, 0.4364500218891889, 2.8737481837683356, -1.1022440623422487, 1.7458709105637382, 1.2846224733041804, 1.000275747533431, -2.670454994567154, -0.6054052916541144, -2.2806860117088954], [0.6092174284880296, 1.7246686565621259, -0.6057638777470116, -0.21372303554159977, 1.9126938557186408, 1.217042861729536, 1.1618542046684812, -0.3526962062191945, -2.3431711376887607, 1.4150025492154592, -0.6926937131779107, 0.9193413744227272, 1.91921355251241, -2.6054271251665178, -1.8318117770364681, -0.5262181433333857, 0.6601478833627192, -2.8466598449292713, 2.459003044004378, 0.9458971400553162, 0.13370773359777743, 2.755759025622406, 2.392288107062403, -1.8602822758683373, -0.7225686007800451, 2.2612725512709986, -0.6063292049970084, 2.039619110982515], [1.3958535956603946, 0.7368465814795004, -0.4609872157676129, -0.550159947980954, 2.3387400488865113, 1.7185775008097393, -0.3534330147165434, 2.6132980314717145, 1.3127377051563283, -0.7630507258083283, 0.6809269027286247, 1.9776181642680166, -0.9765647490992886, 2.0594034049922776, -1.8649576116464326, 2.265628128452242, 2.773480797307564, 1.295143515916557, 1.0388507377172758, -0.5410056328337505, 1.4357226283248599, 1.2384134193760516, -0.6454827276994757, -0.3033549670835711, -0.5067068419105389, -2.678676263978464, 2.9058180874867965, -0.3643182857022955]], [[-1.6077198931766294, 2.6465560758196967, 2.3753371490405604, -0.03617397012853463, -0.6558972490793304, -1.4039568584376554, -1.2351830337368481, -0.40885418583252164, -2.3869124058900297, -2.0137459020324138, -0.31179745348268284, -0.03864317165782882, 2.5974021396024938, -1.6430086333489207, -1.3939975459838547, -1.024503095606389, -2.7159019477998303, -2.013011229824592, 2.5697725314775406, -0.21999470216747952, 1.9615311843694672, -2.433454238507449, -1.2682546177606684, -1.8806278776482792, 0.6666458757703584, -0.503488367002614, -0.9327633955508361, -0.6706750583641461], [1.686091016696171, 2.461873714999628, 2.810278887924385, -1.6415706074506786, 2.9228909198297117, 1.040853127286204, -2.8425219308036986, 1.4307792170348677, -1.5485180386933943, -0.9529705383724076, -2.0417891585371115, -2.1666046163192876, -2.2074822887745063, -2.8217970289273433, 1.7813448630648043, 2.0095488756100313, -1.7105280145323654, -1.2641427956822946, 1.5634531979057247, -0.31424030854514573, 1.9328737954060191, -2.8951704063996324, -0.1910254459322016, 0.4072790629704022, -2.820465765064041, -0.7457117463050524, 0.06340650037767581, -1.535051880754909], [2.996554041820146, -0.6188012323729155, 1.2010628079934573, 2.052122468483974, 1.870050100447699, 0.49575900248627924, 2.5169475442738056, -0.9820842511189474, -2.677412137702871, 0.41584937787000076, -2.2413096825562855, 0.2666886474937642, -2.244776381044055, -0.9176257393264882, 1.2468301918033768, 1.6567590609668805, 0.5239726982962649, 1.3256992700863073, -0.32193320420883875, 0.871883353412386, -0.49913581478223445, 0.6812387811324241, -1.9090996174182973, 1.692128019314862, -2.075635807956426, 0.8277420549629513, 1.932071915442731, -2.271511840785026], [-2.5383052884695108, 2.6954341692373296, 0.055038916703596286, -2.549685707370097, 2.5262681156997377, -0.08852080123945161, -2.1113410518341373, 0.27323020066171466, 0.948714193773152, -2.216472050016005, 0.34154889889934914, 2.6402952380964297, -0.9738271781899437, 2.5916124830476193, 0.6921563130289954, -1.9874496523710123, 0.07894406599220982, 0.33400278917924453, 1.39263857822346, -2.1805236418316447, 2.0660155066263712, 0.5456423412294744, 2.7344214277520837, -2.9467541560520933, 0.5163174401007025, -0.007735264931123531, 1.7254430984544422, -1.0517980793147272]], [[-1.5904418979450867, 2.811926724256594, 2.648083191544485, 2.987619954378694, 0.04801113052550132, -0.09373314743081007, 0.641038294136322, 0.35887348782774264, -1.6965351679849665, 1.7630552745045076, 0.07182764651171425, -0.321128341252229, 1.611489886667755, -0.7949297078454158, 1.693660470085148, -1.3841971969063516, 1.9370020276700641, 2.0114374261904455, -2.0375955847842295, -0.7978401041078027, 0.5993724390473485, -0.20461510279315576, -0.7352042283568565, 1.7397946732103264, -2.645463125517188, -2.7141938126065357, 0.5803925128238232, 1.9852942622866419], [-0.7717863991559586, -2.544571966275815, -0.11137278731936417, -0.6236581327746755, -1.0689263118075842, -0.3942239226504851, -2.926304233912578, -0.6835314611457792, 2.385627885371279, 0.2996568395864645, -0.4954074659798726, -0.09079171095199001, -1.8388047903125326, 1.9527117516634398, -2.5644198063208936, 0.9625944074732624, -1.24304772680982, -1.45697064485486, 2.2382522851787163, 1.1815072307197276, 1.1037675064235097, -2.466462566431309, -2.3127266058722036, -2.662082275303293, -2.3760873230249304, -1.3424857221135962, -1.2474560831770303, 0.0018247160839122145], [1.4676940495427422, -2.049439369548635, 1.9994821522449149, 1.4820056182641324, 1.0964893202251833, 0.01032599318706584, -0.8002286013797955, -0.8108348430936396, -2.2947348085766937, 1.9561264219390235, 0.27386798010810054, -2.4948671819764625, -2.648500019914249, -2.402511746584884, -2.447709198745119, -1.3185638359299647, -1.809210987741362, 2.06269334854394, -1.537882049074631, 0.9486708128690431, -1.8107221574064873, 2.2308010876554016, -1.285408873913022, -0.5295555116307704, -0.9952975991663764, -0.029544542303021615, -0.7634845327332007, -2.426868671428714], [-0.01655277804953137, -2.041319484787992, -1.8651588231532568, -0.5760970016883542, -1.350908592601935, 0.9193688566844895, 1.9325864820321215, -0.07371264110138043, 1.8078005457659572, -0.6787769357897631, 2.9756432501351924, 1.3258214230691934, -0.45922846341735024, -0.03584565157212971, 0.7894161138514861, -0.35857391105533987, 0.3886043352842341, 2.4975540457896095, 1.4100828066190676, -1.1055213507731203, 1.7761276739750667, 1.6516404338536859, 2.290320428113893, -2.726409800102817, 1.584686878238526, -1.1144734937695453, -2.5845121432716063, 0.7785734372846278]], [[0.14026684740925077, -0.5606154593362511, -2.0563309641000274, 1.548258017444554, 0.29521143202546174, 0.7872873537094023, 1.4345682217494327, -2.918785091168245, 2.2101610585279587, -1.902758033599509, 2.744907576036571, -1.6738531332208033, 0.5131779964415051, -1.8399106679761084, -1.4280075429353496, -0.9817225430518546, 2.9978686735933637, -0.035335886077648926, 2.6566509939102776, -0.4018522671640872, -0.3968316768523259, 1.2156565559410826, -1.1377481026690712, 0.07114443937099457, 0.7808630184008916, -0.9765806892089541, 2.7044940316245505, 2.2133905483102563], [2.8514372394826424, 2.605637376756065, -1.35303276175387, 0.20932119390703097, -3.407448498204957e-05, 2.943314369059987, -0.2733939699531538, -1.328859332776345, -2.315765267228649, -0.2791498963894661, -0.8120123192170556, -1.1031165044288247, 1.658170305846708, -1.2018465579440043, 2.6685858023056523, 2.874420368262548, -1.8988049361962291, -2.235387465831817, -2.6206662094257895, -0.631170589200269, 2.4053368328867464, -0.03639865883547522, 1.9133824026392716, -0.19876642243836162, 2.792521635050555, 0.0017443828356027424, -0.32113507447979917, -1.4521512487937966], [-0.5615470186133376, -1.7698951357872996, -2.1252659143989705, -2.567667958544755, -2.4920738922359127, 0.9637427871018716, -2.316727562450065, 2.611623391984055, -2.1785906625485456, 0.3162914515693602, 0.2687047823348694, -1.2704342701014686, 1.783585512017142, 1.857870053689724, -2.559561262375896, -2.716097917982238, -2.877128634553232, 0.46275261840255233, -0.055183444450532804, -0.6428233845340383, 1.7378708442534094, -1.0876309269355287, -1.9059827317203624, 2.2182076902651318, 2.6983889822724105, 2.1963528699711903, -2.404201642285103, 2.7912414857172374], [0.6595373730470389, -0.8931464607691395, -2.1662208308826907, 1.119088460087574, 0.7799892192856044, -0.7769320617250575, 0.8783538550048231, -2.8168745428041397, -2.649441865250073, -1.5924267489973276, -2.545771310172272, -1.2547999275183264, 2.287052842091385, -1.9483544622503841, -0.32630580361856154, 0.901743711023359, 0.9226144350680165, 1.9428647922635633, -2.1494581415987852, 0.8096718382141508, 0.9352613831679215, -0.38290676470935736, -2.584732657436123, -0.13933273279741787, 0.9405289145846698, -0.8135502738202551, -1.8404964439771703, 0.5176475978989563]], [[-1.779591648152098, 2.815961399377425, 2.542121457763592, 0.9723020714082313, 1.5461431930402965, -0.9858460001812515, -1.1909985503240055, 2.2111278663571854, 0.7743909581515052, -1.5667128960796415, -1.443592916437992, -2.177835629145477, -0.5371947382418192, 1.6960280689723293, -0.4425441431908985, -0.5192145139834472, 2.0348939122526515, -1.1096688907651848, 1.4755802083370693, 0.7767173198737511, -2.0595125337076805, 1.5258513726752625, 1.5977583649389198, 0.37132753104699656, -1.0218568104706778, -1.5872418807407698, -1.0978316891077016, 1.6917971476293507], [-2.9411353302712318, 2.567736281786491, 0.9731917063087496, 1.3094856217538595, -0.06616298161501799, 0.6424049968584828, -1.0436881004941663, -0.5054258911119307, 2.05875654245422, 0.024015109976631255, -0.8819050611423425, -2.752705951022737, -1.4743858747805227, -1.9143069192788769, -0.9958573424542339, 0.4120289094491394, 2.505426375533114, -0.4355505401794364, -2.5790204531671983, -2.5736181394127353, 1.0451110748604524, 0.5559964304489435, 2.9785966004137094, -2.8680857378813442, 2.6524681807939245, 0.9482809604588631, -0.396556714325933, 0.3642116197876595], [1.1592073938373595, 1.530358369388109, 1.6465158199567238, 0.563237547738026, -0.6171657927048573, 0.27809350226208274, -0.363282902149491, 1.9519076319833584, 2.2241305428517, -0.1085796584906813, 0.22351325477858142, 0.41081172539524013, -0.7851648074652005, -1.168765092473998, -2.0813858168154775, 0.47685846674642773, 1.2984730255391446, 1.0519377758388186, 1.594443906465023, 0.28489190938235165, -0.7676691037429739, 0.6983207409836094, 0.04818285302701675, 2.3548944479096177, -1.6268602921426738, 1.7676174986226316, 0.571423336224635, -0.8210452154372239], [-0.2969659731997578, 0.48134961871019577, 2.3902525409616047, 2.980129506530351, -1.830729118474739, 1.069869413025252, -1.4271693287893301, -0.4121634709078297, 1.4647975474764738, 1.0873263643743094, -1.824981581831671, -2.1474030302932676, -1.6432198958720001, 1.3807862864357707, -2.4529501188103255, -2.629019221081589, -2.507648232465171, -2.3487047684878597, -0.016291943568902845, 1.0807404938511587, 2.784687470559904, 0.1676335247305989, 2.553671712143464, -2.8603829758213966, 2.0197211122626255, 2.106722702801342, 2.1763226812045104, -2.429361997134131]], [[0.44814059289396635, 1.714009103754874, -2.529955116085098, -1.4168595725044553, 1.9123887561912252, -1.7475034404801069, -0.3292838068452233, -0.7795588228931591, -2.392393667795427, 2.7306490911468355, -2.682718892429374, -2.6297013973940353, 2.4211613255219895, 2.0403955791209176, 2.964049759805489, -1.7788544281039285, -0.6738422482324862, 0.8995843963177359, -0.3658411997661828, 2.8861601901108216, 2.3941659232671295, 1.4100417956334068, -1.7404613760274745, 1.0091410346144016, -1.8177523028769804, 0.7545131973626233, 0.8283241000221779, -2.540562838613864], [-1.090297602427558, -1.9303887341112627, -0.8693718824349164, 2.2399825863068727, -2.3331662303317118, -1.4251094490007867, 2.286748026379067, -2.0972168437705285, -0.12538109327786096, -0.9946241777202474, -1.5894529330737597, 2.201721703938814, 2.7776437166985932, 1.7278846044532887, -1.2612071514878496, 1.1546682255412364, 0.887083554264783, -2.9681547535430104, -0.7009590909985057, 2.1906151384040484, 1.7321776181682633, 0.6647160169880393, -2.944182944343397, 1.1099583633366148, 2.6630320945053816, -1.8457611411128438, -2.8075241894427028, 1.9518228427573376], [-2.9273310125059187, -1.4645038885379342, 0.42140894129915596, 0.8341241781779889, 0.5376708880648282, -2.3552517682871645, -2.0988311668971185, 1.0390370970418363, 0.01386775353855274, -1.5893450733508911, 2.290114936759334, 2.1379016615226982, -1.146351351601536, 2.051617769564867, 1.952038520632584, 1.1537329563614875, 0.7412735716711443, -1.6392975167763626, -2.057821773537655, -2.1149436655452174, -0.01675291351103958, -1.5716374860511306, 1.2448299439578863, -2.835493650086371, 2.328615024519606, -1.7869134325424427, -2.6937868499214583, -0.5936347973177778], [0.0651759569658692, 0.5219209354440775, 2.013940230760057, 0.4846701068839865, -2.975540902602175, 1.9203680936262124, -1.9626012951286727, 0.6187578843176476, 1.60850168173166, 0.418399460437036, 2.949739681826439, 2.2914685226403986, -1.3607135521437699, -2.8677566835445836, 0.6011082996115906, 0.15067018787730468, 1.4303786380512609, -0.2830317446424031, 2.632069632267883, -0.14400612136849578, -1.5773135228728217, 0.3695152970320619, -0.974591683976846, 2.6146310227032625, 0.7147763972075056, 1.3799550544591783, -2.685344707648171, -1.6407527381681077]], [[0.5754797194182917, 0.1874393672812702, -2.832357783023015, 1.862800990703379, -2.2603860048221756, 0.22896738789675908, 1.710784805488185, 0.23213619342749592, 0.33882695723352274, -1.5911773100802362, -2.3104282282184476, 0.9978857906831942, 2.3591969762430667, 0.4094934581092664, -1.0773433927597926, -1.8125481463362068, -0.48587652291877603, -1.596445983455881, -1.3278454283810819, 2.665248454807184, 0.9321872313297122, -1.061405819626916, -2.9655550537850575, 1.4828283474388346, -2.410854671361411, -0.0047274844436095975, 2.2178942882740404, 1.0127489295102325], [0.3484475461377232, -1.185648930713078, 2.4179997571838214, 0.3201570690890483, -1.614722567895882, 1.4994297100582203, 0.7933103096758858, 1.1966794473008253, 1.767249807976878, 0.8212219215021861, -2.253318086077737, 1.9021764084060422, 1.115395589685508, 2.4409923121670225, -1.0972058148227783, -1.7069379651587906, -0.9776501518176328, 2.6001492990534993, 2.107340667924446, 1.4445606765436487, -1.7783984922915446, 2.0371318265430673, -2.13744957234789, 0.4565550765795914, 2.036678677907431, -2.372601285987119, 0.8605083703640339, 2.2985871357604433], [2.6972766314499985, -0.45566242890621167, -1.980515285158556, -0.08891927158156854, 1.8818124141773698, 1.0883361777353464, -0.04457620618769731, -0.025933937484793557, 0.005105382906787526, 1.1723210992207065, -1.0029598966031588, 0.14086102156982516, -2.3241252161152897, -1.274311825108526, 1.7615137298700532, -0.3846528001620628, -2.899059255132316, 2.5183882044291366, 2.720140306148574, -1.9569569906883741, -2.173810918701229, -0.7195738915698557, -2.6946205142872066, -2.6995217670569005, 2.99319783290626, 2.348209137711928, 2.5370139867410293, 2.390853557098839], [2.2691364530009785, -2.398974562825688, 0.20225419163203018, -2.7887460308715863, -2.922064445770557, -1.2880160633619893, 2.0051805525671176, 1.2927727697481384, 1.109145195869071, 0.7710643103270267, 0.4490770700959916, 0.6779358413220766, 2.7892403030120487, -0.24608489132577827, 0.5901640136014574, -1.5687107263697435, -2.0213700439929263, 0.6583163270511854, 2.7558806545787515, -2.0836235613968555, 0.46863864750618056, 1.7959839642995856, -1.9722289065104885, 2.4829448002531844, 2.4575606465484006, -2.300343845387446, -0.31807150491363156, 0.5279294000699606]], [[1.2388744661267515, 0.5903215224611627, -0.4312533315209768, -2.642329172239842, 1.6902369250854008, 0.23585631579697441, 0.6918077950792898, -1.9261528073038707, 0.419309131882164, -2.4608950231580122, -1.0564243841816114, 0.9974375254627628, -2.7018970277384717, -1.7305168506081468, -0.25042941596503443, -1.9225845066707872, 1.088389185690053, -2.7383330107671213, 0.6458755009412465, -2.7696523535115434, -1.9160846479333828, 0.8218699467882535, -2.3843397225408847, 0.5278377646533405, -0.09164349207185296, 0.7280320773336868, 2.3381765201463223, -2.9313124589607433], [-0.6720417537427226, 0.056442020387518, 1.4531481441764331, 0.9036533059168761, 1.7808276521275932, -1.6785607158581108, -2.625552022943233, 1.7361881493990463, -1.3043923547311203, -0.7752838507954416, 2.185112015795638, -1.5805226756384734, -2.2163244728442812, -0.032723465754039616, -1.2051002357718998, 0.1520283320081326, 0.653487983532095, 1.7690357952687634, -1.9740634237455266, -0.7966924658647239, 2.4804122178172214, 1.0019822470472128, 2.7412486648816197, -2.7741069170714914, -0.7050653269612828, 2.005815523738015, -1.445326582232372, -1.3343747269601354], [-1.6568770912573352, 0.24446371289145397, -0.16711915390134102, -1.8612410645496575, -1.8518056312417674, 0.7985358181385793, 1.3399793322387286, 0.3248982886021321, 2.978583094525667, -1.0975391160184513, 0.9070032589416033, 0.001594678739944122, -1.4243721615328329, 0.6983674745944057, -0.32512144617385497, 2.7215158943131934, 2.5361245306589852, -2.11130043927564, -2.0247155621352277, 1.8081008755068062, 2.856634648627778, -1.8940185601911752, 1.2346320244752773, 2.7802622178238057, 2.513551038582391, 2.1175273012519344, -1.7370974268719206, -1.2480036012675533], [-1.7964573350746946, -1.1887195893895535, 2.681882933280325, -1.2370273013063886, 2.48431995617668, -0.6431861208693936, -1.5508125447034538, 0.10373467043636575, 0.12989050177693828, -2.4351187721506276, -2.8703871118200377, -1.3936060676726514, 2.5596798902421654, 0.006490804364832847, -0.4686807840140026, 0.7351733535027529, -0.7428426449668901, -0.6290009727867045, 2.7420687124057226, -1.8818978759971103, 2.7106118543440205, -1.6377045892678652, 1.5223335812641503, 0.7561349290219668, -1.6874074556974654, 2.0223173709771665, -2.268162645548614, -1.1912907634558958]], [[-1.3128871378564317, 2.419305398023017, 2.882223003906568, -2.6453914049740708, 1.378197068434841, -2.202047061086599, -0.05029711993190222, 2.2677607010765417, -2.100500361865455, -2.2495157091323463, -0.15958678566268736, -1.0231333293358877, 2.9670681814784894, -2.061684115483446, 2.902993982174027, -2.103184451141183, -2.1220173566987737, 2.0574079231557976, -1.2627894109126525, -0.09522429871148974, -2.575782257632842, 1.6774129472719892, -0.043916117970023816, 0.8570055222097057, 1.962651201279078, 1.3673721599869557, 2.8291842100577522, 1.716676190851441], [2.447273254010889, -2.4332405785679905, -0.8981188604123878, -1.8959908587659287, 1.297960853242924, -2.3035997371582044, 2.64405551374894, -0.12819867697894427, 0.5639059308171817, 2.8144088206718356, 2.292499714317235, 1.2202640775133133, -0.9135827251827386, -2.480927801098275, -1.5842181348046134, 0.6436896584810681, -0.9395370839894026, -1.378176660233087, 1.8921386292577376, 0.4188866179668955, 2.0638570092323505, -2.22227552196638, 0.11752343949073207, 1.9383727003810742, -1.8952635851991178, -2.3634639872049354, 1.3085079184307373, 2.09059591749406], [1.2729695081865753, -1.1034224287830112, 0.0024029711102553364, -1.619672128789799, -2.8520437438839648, 0.9201066032650589, 2.171966801744338, 1.9408173487743028, 2.355553340739001, 0.8806875188302938, -1.6875111633152482, 2.052731619729876, -0.10837804553897801, 2.2980084212444307, 0.37400274693564395, 1.757202747379111, 0.9171529230845663, 1.292392653420543, 1.3573555663820578, 2.5213838961412467, -2.3630560492027013, 0.2977722321369596, -1.3625213994294496, 0.22026504833293536, -1.9860914045715974, 1.573276487706397, -1.6695342919350649, 2.6413654448445483], [-0.04400622943002297, -0.6503014922814381, -2.525229505319518, -1.8124334121341543, -0.6308606984254856, -1.6297659930768489, -0.7363176300179655, 2.4839163145665104, -2.2688058917783764, 2.7199368533408714, 2.804353424374245, -2.6135074356002823, -1.5866281547613195, -1.7759076752030594, 2.9739645305872555, -1.484071539740105, -1.0795451518913082, 2.700193721343739, -0.8911987399108128, 2.0745313972972017, -2.554291565244305, 0.7711573770616607, -1.653029137431223, -2.9372828834257687, 1.5210361786526008, 1.228330283032383, -0.8162845545160726, -2.839824732000639]], [[0.19141260172340147, -2.2891561509525027, -0.6536449978766061, 1.369892621164536, -2.317189425407584, 0.8458473268251057, 0.3862830754718436, -2.2237170597919187, 0.48314155577332407, -2.536550618034351, 2.495030621765747, -0.03257642171999464, -2.608419630752798, 0.6530640698323675, -1.8817779547048292, 2.726654631487497, -0.39671632895275355, 1.2269185120163195, 0.1733040260495411, 2.5773658522205736, -1.061514452419604, 0.8427464867519108, 2.6315920915086357, -2.0246075906476513, -0.6944580263887015, -2.9497005399344216, -2.3511893833773483, 0.963591996747537], [-0.6291598261707758, -1.914571192130276, 1.7862466130829873, 1.6588526365003018, 1.0097554997301366, -1.0430828022364904, 0.8230035315663127, 1.9341756651561948, -2.2985333726302453, -0.7909477838366819, 0.4798380616741973, 1.6344561899884749, 2.269053349527315, -1.9732098887135392, -1.5887941415899884, 2.434978456831267, 0.6137130683217205, -0.5648309543932948, -2.8218013004188096, 1.2404933954151787, -0.09873274509333019, 1.6056658450263495, 2.36826590600897, -2.2266905723771337, 0.5439612817670341, 1.0854661454774206, -2.2682245340361975, -0.8955538022733984], [0.5906897428052127, -1.3578341109230638, 2.388883245560665, -2.8293930223311055, -0.6858280800402627, 1.427726557841515, 2.471122626176922, 1.5968822029321377, 1.594219078238896, -1.4554251690032785, 1.8808221309629474, 1.2989966953406293, -1.839263024310433, 1.7937379382089533, -1.3512941973580055, -1.134748320856623, -2.5750588228330566, 0.8712582392697081, -0.5193287052948214, 2.8304890197214876, -0.8266093460219119, -0.42961759215741546, 0.4956620691047786, -0.5242841294041587, -0.920234117033889, 2.0385518077114746, -2.236931008880214, 2.4441855558964978], [-1.9777325478013315, 2.1113929207510003, -1.0116255394513902, 1.4977111213270504, 2.371067339121023, -1.2899441291531089, -0.5131568026493456, -2.0712670255943646, -0.020407107337991448, 2.4194607607162553, 2.221783831577719, -0.8377588681385881, 2.3322854297578797, -0.7427255259174919, -2.5325477465815647, -2.533180628385591, -1.1604446254914682, 0.41592081049548213, -2.8761128356532972, -2.8352870176764737, 1.880735344446169, 1.5406978224775418, 2.199600484886955, 1.159503967526855, -2.4733809778999576, -2.273204746994399, -2.7189195959238743, -2.7481576271853694]], [[-0.614364227169915, -0.07186209855121106, 2.5406722991778583, -1.0711597051806507, 1.1673116019004937, 2.387134898570948, -1.5608762714449584, -1.5094202556630472, -2.0106646176339353, 0.8647757276261046, 0.565246536915303, -2.3864578620355115, 1.4489248061749347, 0.24457316378968486, 1.9063178662400064, -1.9721153003144567, -0.018500365826298548, 2.015869656310599, 1.3755694111568149, -1.8807579642790566, 0.26021584422129074, 2.336600827981509, 0.07477293147233244, -0.9084142498557539, -1.4018677531217985, 0.27836772223863226, -0.7156834258165619, 2.065650128404738], [1.3735654545576805, 1.5306395748671715, -2.361316254340122, -1.1407166908526283, 0.5982036230326186, -2.4018930101599363, -1.2106419491888685, -0.8605883371974352, -0.8968785001854211, 2.3655644600959613, -2.547603956903901, 0.8091545266744657, 2.1452117053137734, -2.980110692119197, 0.4720734871276564, 2.705319616428091, -1.8458301383517455, -0.7771426607027472, -1.5730504889713817, 1.1536499191574414, -0.5050884776362583, 1.4279199672367726, 2.150780220284844, -0.2990229268912419, 2.7867295341226788, 1.87792627583676, -2.2023712272850666, -1.570571112422215], [2.4468455018683946, 2.742832800235612, 0.9837614170164564, -2.021034749309165, -1.591696758219334, 1.0470359849987956, -1.3751972812274913, -0.04367879800440022, -2.807097351829232, -2.210035231107922, 2.7492350545418756, 0.3369124144564202, 0.8302072045285969, 2.702049646678656, -2.6862968770671216, -2.5264595467877595, 1.1087588888703142, -1.3404815135141455, 0.788771398021912, 1.586625922223468, 1.187685032119587, 2.5423875790509793, -0.0868346703170575, 0.9960660566425013, 1.4860905217578964, 1.9291119621557389, -0.8061037121893682, -0.2388435426275235], [0.24715244893842137, -1.7188104499967525, 1.7369600462628592, 1.8912213579703891, 0.30279612513474063, 0.4914194781575496, -2.838622438223969, 1.7168600427670606, 0.3255807151827632, -2.0723458130414443, -1.8844116132810158, 0.20381967059499395, 2.1469240554405706, -0.47734398436169156, 2.7959302498589658, -2.132355853184629, -1.8168617357832872, -0.012719130698307879, -2.0308344265725276, -1.8151075194046262, -2.721177405201529, 0.37079417805870074, -2.817740281435463, 2.9803596314010488, -1.5627805710916043, -0.781386236389694, 1.8242759488612208, 1.6465038757109616]], [[1.4023265083722967, -0.3808060508826743, -2.93415667534972, 0.3032357115908617, 1.06125282738242, 2.6454960484105703, -1.1458893538814823, -2.4586567160253727, -0.3495060461673978, -1.9295714593156967, 2.430047344781258, 2.6076811839849903, -0.12736397574372305, -0.5781081357099973, 1.2475757469777262, -1.0438362413750213, 1.0500807156535252, 1.1269276499784366, 2.3049516511536075, 2.199463246316885, 2.8549741109173947, 0.8973495994524434, 2.4193296514839604, 1.410179683132676, 2.422923466706635, -0.4677761567326906, -1.6134366013076848, 0.6674255398640652], [-2.316939724880049, 2.2969359773851883, -0.3593991793111524, 0.9439217089304539, -1.830091498027126, 2.690769597428586, -2.50847388285295, -2.8857229261644495, -2.3869214502060183, -0.10482982408881103, 2.8785676944108713, 1.1203137008236066, -0.5684028011369726, -2.7135095823103317, -0.8348949673179984, -0.8435738147718794, -0.2320166715161891, -0.4716168446360802, 2.770692373554338, -1.2450380453561896, 1.7159226733548874, -0.3108151261653376, 2.618784141620403, 2.9166193627235595, 1.523287187123886, 2.511320656376313, 2.1764964576756647, 0.2275497168399352], [1.8809191819178057, 1.0010341698891958, 2.960598973313691, -0.34192018337889873, 0.22749583451289634, -2.025288774433729, -1.8925275828243466, -2.3287742768689537, -0.7814328472808745, -0.42338438219663654, -0.7591203733095613, -0.19521011515796438, -0.13902025973477716, 2.029633664933754, 1.5949139051658925, 0.08226161655280029, -1.9408936511080992, 0.9740542603486908, -1.4364674029428794, 2.455277618383607, -0.22232400700371446, 2.175462965894795, 2.4722159172794314, 2.15434143430815, -1.071798246920389, 2.3238321753227176, -0.09719518619030643, -0.8724784748669316], [-0.5560566154427722, -0.11756235209306887, -2.986826319745786, -2.0108700127322505, -1.7170548024133527, 1.2678890873644963, 2.2232712593362685, -0.9573048518755884, 0.15246133096092773, 1.6374542112809296, -1.0838881040794692, 0.33278212889222836, 0.3327110193110707, -1.309968192603752, -2.5358028663332806, 0.894061134229621, -0.5865495551539253, -2.1509874573013366, -2.114793410290014, -0.23771102628938667, -2.9873646372217517, 0.7374114509351983, 2.1388663280384765, -1.9856360785421117, -0.23006480928257567, 2.1440035358289675, 2.111912002002671, -2.4096201762286356]]], "t": [[99999999.0, 11.89779027573288, 11.597832113893745, 8.818651516726359, 5.009595770854757, 12.437832658689873, 12.168830185550746, 8.33524049000972, 8.882325366474795, 5.706028193486365, 14.319959519705407, 8.509382823107753, 10.290902389593105, 11.494482011198636, 8.41043274023086, 13.916423933836358, 13.383075993006832, 12.824556208334416, 10.528305931412936, 5.886242810391283, 7.529812590543954, 5.8237524598209625, 5.549990736923736, 10.606358927299409, 12.667273375765834, 7.6065043415103695, 6.010604197782884, 6.853659628447218, 13.46356799364824, 11.29844576317123], [11.89779027573288, 99999999.0, 12.072603947546073, 6.337539215789595, 14.873528582819503, 7.559345537256588, 8.356113785767345, 12.244159767391976, 10.588163817452552, 7.352718634906809, 6.954506913472977, 8.458470036624917, 8.720196025245905, 11.158978129619767, 13.526618642813371, 12.938031212906962, 10.52906615460931, 12.64784788532083, 12.640130174732674, 8.681466287516795, 11.482075434837988, 14.01993241611208, 10.360198103671898, 7.929798531500777, 6.481384108167814, 14.732534243492438, 9.355286115258583, 7.994927627591109, 11.147909963065395, 12.781200398445481], [11.597832113893745, 12.072603947546073, 99999999.0, 11.044690950250162, 8.253620639564986, 5.953098322436623, 11.080035106754677, 9.299317880165626, 11.691050725245644, 14.599211014457655, 5.856893675708427, 11.211936901026641, 7.001851962874948, 14.925483217979105, 12.802512322698675, 5.174484930887515, 11.210716748951016, 8.540806996826944, 5.770741613026816, 10.635653175599082, 13.293051474915421, 14.372234404983859, 8.27609242199561, 11.172482320450394, 12.407831798848374, 11.315159301098948, 7.957966161789396, 5.282922496908938, 9.468881083883069, 5.210416285798849], [8.818651516726359, 6.337539215789595, 11.044690950250162, 99999999.0, 11.605406813938693, 12.421909423103475, 10.17177050266564, 10.880318068569498, 11.555420206298605, 13.513806033051702, 8.153845589946144, 5.459042676555367, 13.748242451551233, 9.806014048580746, 8.330471793218667, 8.642406260561058, 8.47631908290745, 13.047680288847324, 5.871462387931884, 7.459357583174341, 14.232226339212422, 9.504744643319723, 5.379251572391725, 6.856916666358039, 6.497951232019319, 7.067480467814896, 5.262779318165584, 14.354151853846274, 7.4038847984723475, 13.837076039476015], [5.009595770854757, 14.873528582819503, 8.253620639564986, 11.605406813938693, 99999999.0, 13.679362872230115, 7.322297921988758, 8.263366164115787, 7.020029259425539, 14.479221608947478, 11.245833566142654, 5.555752519348661, 11.709476437169922, 13.73316578265191, 13.89613558369336, 7.4960318876826015, 8.045612131471898, 12.260072418970267, 14.312123756797599, 12.449515826006795, 5.152913973076046, 10.592269449837012, 9.702092866573107, 8.686465161088794, 13.425895829167649, 7.676837954021677, 13.24371568365754, 7.7984823247406325, 9.908314792397075, 13.851541689397791], [12.437832658689873, 7.559345537256588, 5.953098322436623, 12.421909423103475, 13.679362872230115, 99999999.0, 13.205244242987838, 8.815917999639211, 13.37007629571054, 9.691718910376037, 6.305325473427771, 12.377182120095977, 6.194158037151328, 11.096856211430222, 5.699092163255644, 8.717039061854955, 11.866166819883366, 14.857454924181846, 7.433300388106995, 6.847409554753986, 6.047917495090105, 5.751428807970167, 7.6121220398087965, 9.223492451513218, 11.73374234938786, 13.267104777968571, 13.212090322327716, 6.9453456749065134, 8.08704643430384, 8.097148440779684], [12.168830185550746, 8.356113785767345, 11.080035106754677, 10.17177050266564, 7.322297921988758, 13.205244242987838, 99999999.0, 10.54304348430922, 6.454020425586842, 14.402814603895278, 7.452752181217226, 11.389650515671788, 6.1422958858313255, 6.129296444772634, 10.195374967942936, 6.527512820686892, 8.478555529646908, 14.685424178549747, 10.505998910471991, 13.325774052097104, 6.2612108710357015, 7.600190829610977, 14.230650059103443, 5.6796855749488815, 13.456034238972016, 10.316851505672378, 10.23762391549679, 8.914313651388753, 13.424129853911888, 13.54099645841586], [8.33524049000972, 12.244159767391976, 9.299317880165626, 10.880318068569498, 8.263366164115787, 8.815917999639211, 10.54304348430922, 99999999.0, 13.125482305281439, 11.213775881276547, 7.684536016956302, 8.469084280163548, 13.478475501699332, 5.2457895446092575, 14.034945121906773, 6.7125134124116, 8.658079163125914, 12.75963982721904, 14.356880094846966, 8.368384725974849, 12.528187781324515, 6.100439641853079, 9.010014183147685, 14.657063733638232, 5.687308974190812, 5.399481453655249, 9.491255178984666, 13.285906997856971, 12.146436625725698, 13.185993729924775], [8.882325366474795, 10.588163817452552, 11.691050725245644, 11.555420206298605, 7.020029259425539, 13.37007629571054, 6.454020425586842, 13.125482305281439, 99999999.0, 14.595879832844814, 5.148060080384362, 12.917240078014768, 9.87688388589354, 14.07658004671552, 11.427581491721613, 14.026683441076184, 13.860820737696544, 13.828566579706633, 13.32521859151289, 10.812901962843313, 10.655577194620875, 14.529204824743937, 11.103048306664054, 13.768588227802644, 10.025098544061247, 5.09341292521452, 13.505578360379605, 12.389118932197931, 13.060185389881445, 6.280103144587289], [5.706028193486365, 7.352718634906809, 14.599211014457655, 13.513806033051702, 14.479221608947478, 9.691718910376037, 14.402814603895278, 11.213775881276547, 14.595879832844814, 99999999.0, 8.528944523764379, 9.233532820193785, 6.898182563075432, 12.637866386444134, 6.149071748949466, 12.3968484534991, 11.698673534029167, 8.392588707142892, 13.502677878750792, 9.038772560328876, 11.879668114666757, 12.372834905455056, 12.216632432075471, 9.667256083177357, 6.923532360171078, 13.86691532233933, 11.596335105407963, 9.839317194199348, 10.252351138432221, 9.00756094183275], [14.319959519705407, 6.954506913472977, 5.856893675708427, 8.153845589946144, 11.245833566142654, 6.305325473427771, 7.452752181217226, 7.684536016956302, 5.148060080384362, 8.528944523764379, 99999999.0, 10.703844453458636, 7.875978322931974, 5.1662874980848015, 9.075535441969578, 10.581645946464038, 6.22147211422778, 12.665124618888386, 11.773337212256315, 11.936105269503518, 14.302729983662681, 7.480194925207168, 8.246784078524453, 5.068975012471696, 11.679140568790356, 10.257445906219749, 9.117163120685554, 13.956946787736651, 5.206901933455277, 7.962266398591524], [8.509382823107753, 8.458470036624917, 11.211936901026641, 5.459042676555367, 5.555752519348661, 12.377182120095977, 11.389650515671788, 8.469084280163548, 12.917240078014768, 9.233532820193785, 10.703844453458636, 99999999.0, 11.28334459232054, 7.81971001540021, 10.759966152633684, 12.309773719391291, 11.2168878281194, 13.820881550820785, 9.109986859896257, 9.155615073686729, 13.436703246408161, 11.760078752317071, 7.94236325417061, 7.188513057334058, 6.868606042889204, 9.953705007499952, 9.77675163584755, 13.536595614147421, 12.222316744734387, 14.622031546687694], [10.290902389593105, 8.720196025245905, 7.001851962874948, 13.748242451551233, 11.709476437169922, 6.194158037151328, 6.1422958858313255, 13.478475501699332, 9.87688388589354, 6.898182563075432, 7.875978322931974, 11.28334459232054, 99999999.0, 6.025748817778048, 11.230102674164872, 9.629578810825155, 7.853612822986275, 9.125101541617713, 14.36587267323015, 12.796908600579567, 10.235477698481889, 11.99607569216734, 13.787771838914955, 12.008768132844043, 11.545738395904223, 7.724772138059549, 12.85082482428021, 11.68184060025542, 8.83091421852401, 11.781180669314043], [11.494482011198636, 11.158978129619767, 14.925483217979105, 9.806014048580746, 13.73316578265191, 11.096856211430222, 6.129296444772634, 5.2457895446092575, 14.07658004671552, 12.637866386444134, 5.1662874980848015, 7.81971001540021, 6.025748817778048, 99999999.0, 11.748471682960348, 11.194364436770542, 7.914834805745131, 9.669429154114995, 6.618327107239857, 11.038566442639734, 9.130098655339998, 9.405510628957416, 9.817953340443584, 6.158154421117258, 9.071348697617374, 8.70552373044432, 6.510372019868421, 10.086550679761453, 13.82070930793264, 12.637575057817616], [8.41043274023086, 13.526618642813371, 12.802512322698675, 8.330471793218667, 13.89613558369336, 5.699092163255644, 10.195374967942936, 14.034945121906773, 11.427581491721613, 6.149071748949466, 9.075535441969578, 10.759966152633684, 11.230102674164872, 11.748471682960348, 99999999.0, 9.23257312037322, 9.530055276452975, 7.9390930229368815, 10.010048306144162, 14.747941657002062, 6.18770442671104, 9.103537975222665, 13.09027157488678, 6.727768559509059, 11.553120111568603, 6.980605058986136, 9.04446849293912, 14.708559037972009, 11.990220474363166, 8.196147162274745], [13.916423933836358, 12.938031212906962, 5.174484930887515, 8.642406260561058, 7.4960318876826015, 8.717039061854955, 6.527512820686892, 6.7125134124116, 14.026683441076184, 12.3968484534991, 10.581645946464038, 12.309773719391291, 9.629578810825155, 11.194364436770542, 9.23257312037322, 99999999.0, 9.17394632675154, 8.795535837796152, 6.028988918145063, 9.80416973066594, 13.71956773555577, 14.557463917621325, 14.430016284091497, 12.842465724565653, 9.642049196247601, 12.553615344668508, 14.424489853180999, 9.406192408993046, 6.628213737867935, 6.004029910866034], [13.383075993006832, 10.52906615460931, 11.210716748951016, 8.47631908290745, 8.045612131471898, 11.866166819883366, 8.478555529646908, 8.658079163125914, 13.860820737696544, 11.698673534029167, 6.22147211422778, 11.2168878281194, 7.853612822986275, 7.914834805745131, 9.530055276452975, 9.17394632675154, 99999999.0, 9.763568895996304, 10.778048375988888, 11.197967263072641, 8.879522560708967, 8.724377543837033, 7.626874501829008, 5.7286365894845, 12.906765348408275, 10.679369107499346, 6.159922849359897, 8.572283777080663, 11.985343027605012, 10.264043272585132], [12.824556208334416, 12.64784788532083, 8.540806996826944, 13.047680288847324, 12.260072418970267, 14.857454924181846, 14.685424178549747, 12.75963982721904, 13.828566579706633, 8.392588707142892, 12.665124618888386, 13.820881550820785, 9.125101541617713, 9.669429154114995, 7.9390930229368815, 8.795535837796152, 9.763568895996304, 99999999.0, 12.339854684877434, 14.881476662537889, 5.9673540641308005, 14.822865141134153, 14.011297935236813, 12.35648170031672, 8.122036508520512, 10.498467693552708, 13.688321288342228, 7.080288122733842, 6.853647838264494, 13.389430472589423], [10.528305931412936, 12.640130174732674, 5.770741613026816, 5.871462387931884, 14.312123756797599, 7.433300388106995, 10.505998910471991, 14.356880094846966, 13.32521859151289, 13.502677878750792, 11.773337212256315, 9.109986859896257, 14.36587267323015, 6.618327107239857, 10.010048306144162, 6.028988918145063, 10.778048375988888, 12.339854684877434, 99999999.0, 14.256759099491205, 14.14194203209301, 11.916879529031098, 11.671087412249655, 11.618347043170193, 11.911894785823414, 8.50862196967182, 7.94468112743318, 8.640513086321628, 7.938670092817701, 14.206124885915001], [5.886242810391283, 8.681466287516795, 10.635653175599082, 7.459357583174341, 12.449515826006795, 6.847409554753986, 13.325774052097104, 8.368384725974849, 10.812901962843313, 9.038772560328876, 11.936105269503518, 9.155615073686729, 12.796908600579567, 11.038566442639734, 14.747941657002062, 9.80416973066594, 11.197967263072641, 14.881476662537889, 14.256759099491205, 99999999.0, 5.301021713187936, 9.327007141325721, 5.427147637750602, 8.173285940417614, 9.627088495214984, 5.448707374466676, 14.98504148807196, 11.92703410225108, 14.514500813048091, 8.383201659034327], [7.529812590543954, 11.482075434837988, 13.293051474915421, 14.232226339212422, 5.152913973076046, 6.047917495090105, 6.2612108710357015, 12.528187781324515, 10.655577194620875, 11.879668114666757, 14.302729983662681, 13.436703246408161, 10.235477698481889, 9.130098655339998, 6.18770442671104, 13.71956773555577, 8.879522560708967, 5.9673540641308005, 14.14194203209301, 5.301021713187936, 99999999.0, 7.75411229774675, 6.164732651424652, 10.21462639816809, 12.933117077392811, 7.902075774173323, 13.492979750656374, 10.426157132768193, 9.992027201644365, 9.711951511228136], [5.8237524598209625, 14.01993241611208, 14.372234404983859, 9.504744643319723, 10.592269449837012, 5.751428807970167, 7.600190829610977, 6.100439641853079, 14.529204824743937, 12.372834905455056, 7.480194925207168, 11.760078752317071, 11.99607569216734, 9.405510628957416, 9.103537975222665, 14.557463917621325, 8.724377543837033, 14.822865141134153, 11.916879529031098, 9.327007141325721, 7.75411229774675, 99999999.0, 14.182230275273568, 5.659769416741483, 13.834838653451959, 8.526820134743076, 14.974614094393514, 5.988026712862907, 6.6897541614628375, 7.317126262941931], [5.549990736923736, 10.360198103671898, 8.27609242199561, 5.379251572391725, 9.702092866573107, 7.6121220398087965, 14.230650059103443, 9.010014183147685, 11.103048306664054, 12.216632432075471, 8.246784078524453, 7.94236325417061, 13.787771838914955, 9.817953340443584, 13.09027157488678, 14.430016284091497, 7.626874501829008, 14.011297935236813, 11.671087412249655, 5.427147637750602, 6.164732651424652, 14.182230275273568, 99999999.0, 9.13281015948753, 5.3276585472072, 10.219454907016932, 7.5843467235810795, 7.640892777433556, 13.402864796983462, 9.929166221741122], [10.606358927299409, 7.929798531500777, 11.172482320450394, 6.856916666358039, 8.686465161088794, 9.223492451513218, 5.6796855749488815, 14.657063733638232, 13.768588227802644, 9.667256083177357, 5.068975012471696, 7.188513057334058, 12.008768132844043, 6.158154421117258, 6.727768559509059, 12.842465724565653, 5.7286365894845, 12.35648170031672, 11.618347043170193, 8.173285940417614, 10.21462639816809, 5.659769416741483, 9.13281015948753, 99999999.0, 5.413436249613651, 9.867880601600241, 10.88382268071577, 13.87747333630399, 12.552175400391974, 14.5320080142461], [12.667273375765834, 6.481384108167814, 12.407831798848374, 6.497951232019319, 13.425895829167649, 11.73374234938786, 13.456034238972016, 5.687308974190812, 10.025098544061247, 6.923532360171078, 11.679140568790356, 6.868606042889204, 11.545738395904223, 9.071348697617374, 11.553120111568603, 9.642049196247601, 12.906765348408275, 8.122036508520512, 11.911894785823414, 9.627088495214984, 12.933117077392811, 13.834838653451959, 5.3276585472072, 5.413436249613651, 99999999.0, 5.554576139453631, 8.149398922374207, 11.621970145338416, 9.429931642869226, 8.734326669234925], [7.6065043415103695, 14.732534243492438, 11.315159301098948, 7.067480467814896, 7.676837954021677, 13.267104777968571, 10.316851505672378, 5.399481453655249, 5.09341292521452, 13.86691532233933, 10.257445906219749, 9.953705007499952, 7.724772138059549, 8.70552373044432, 6.980605058986136, 12.553615344668508, 10.679369107499346, 10.498467693552708, 8.50862196967182, 5.448707374466676, 7.902075774173323, 8.526820134743076, 10.219454907016932, 9.867880601600241, 5.554576139453631, 99999999.0, 9.852593977015886, 13.403763844555929, 12.39641006599674, 10.436283007810108], [6.010604197782884, 9.355286115258583, 7.957966161789396, 5.262779318165584, 13.24371568365754, 13.212090322327716, 10.23762391549679, 9.491255178984666, 13.505578360379605, 11.596335105407963, 9.117163120685554, 9.77675163584755, 12.85082482428021, 6.510372019868421, 9.04446849293912, 14.424489853180999, 6.159922849359897, 13.688321288342228, 7.94468112743318, 14.98504148807196, 13.492979750656374, 14.974614094393514, 7.5843467235810795, 10.88382268071577, 8.149398922374207, 9.852593977015886, 99999999.0, 8.363282970780697, 12.694885895868689, 13.484867714453218], [6.853659628447218, 7.994927627591109, 5.282922496908938, 14.354151853846274, 7.7984823247406325, 6.9453456749065134, 8.914313651388753, 13.285906997856971, 12.389118932197931, 9.839317194199348, 13.956946787736651, 13.536595614147421, 11.68184060025542, 10.086550679761453, 14.708559037972009, 9.406192408993046, 8.572283777080663, 7.080288122733842, 8.640513086321628, 11.92703410225108, 10.426157132768193, 5.988026712862907, 7.640892777433556, 13.87747333630399, 11.621970145338416, 13.403763844555929, 8.363282970780697, 99999999.0, 9.91163163852329, 7.610011483589808], [13.46356799364824, 11.147909963065395, 9.468881083883069, 7.4038847984723475, 9.908314792397075, 8.08704643430384, 13.424129853911888, 12.146436625725698, 13.060185389881445, 10.252351138432221, 5.206901933455277, 12.222316744734387, 8.83091421852401, 13.82070930793264, 11.990220474363166, 6.628213737867935, 11.985343027605012, 6.853647838264494, 7.938670092817701, 14.514500813048091, 9.992027201644365, 6.6897541614628375, 13.402864796983462, 12.552175400391974, 9.429931642869226, 12.39641006599674, 12.694885895868689, 9.91163163852329, 99999999.0, 6.159120634786386], [11.29844576317123, 12.781200398445481, 5.210416285798849, 13.837076039476015, 13.851541689397791, 8.097148440779684, 13.54099645841586, 13.185993729924775, 6.280103144587289, 9.00756094183275, 7.962266398591524, 14.622031546687694, 11.781180669314043, 12.637575057817616, 8.196147162274745, 6.004029910866034, 10.264043272585132, 13.389430472589423, 14.206124885915001, 8.383201659034327, 9.711951511228136, 7.317126262941931, 9.929166221741122, 14.5320080142461, 8.734326669234925, 10.436283007810108, 13.484867714453218, 7.610011483589808, 6.159120634786386, 99999999.0]], "M": 99999999.0}