{"num_workers": 25, "num_roles": 4, "num_nodes": 30, "w": [[0, 0], [163.47600223966052, 202.89701766651194], [373.7743204240663, 406.05267037723644], [393.56545381334973, 433.3835713226376], [166.72260882331983, 192.6352595660004], [15.72133953739784, 48.928534068221396], [339.67631039243645, 373.4880333112819], [40.7185883313998, 66.9301111961002], [410.57417582572367, 441.8199089977633], [336.32233986081013, 363.4627046344831], [75.78641827502379, 109.66646001965188], [414.123570908071, 444.7642207400936], [397.5830089847264, 431.9873784331757], [91.8088826644069, 120.29304666983752], [291.0539786903904, 317.6897939003628], [294.3508196459313, 319.81707696611505], [12.029062018130373, 46.61963296762983], [149.21278313578995, 180.19449902645664], [5.30712454447033, 44.54495888547699], [164.47138914488033, 189.81305952935938], [327.0304293048604, 357.1229988136542], [87.63948444114801, 123.80760233596888], [209.72055369283342, 249.03012737553826], [24.269932918966592, 60.17122698534499], [242.14547745541114, 278.36750981438695], [38.99440267195802, 78.00263925695955], [88.26160634256065, 115.87131893026515], [342.02990524057486, 380.6962432973553], [112.84750475948196, 148.79298892974336], [0, 450]], "p": [0, 23.934622371545235, 20.96714910817621, 16.319626116924926, 14.703259718871434, 10.726017191466125, 18.298251510181238, 7.3364416877817655, 11.906167961514054, 15.53743669206094, 10.702289717709274, 8.370941255288212, 9.777474025398647, 11.45777594214216, 8.30214412260538, 11.935905994286484, 12.767242371480778, 19.063655041630092, 20.577242511383652, 15.887181999871087, 11.578895081731478, 21.862835743810304, 25.314955726356676, 20.764558336119208, 16.10252909472807, 22.02737523848087, 14.438337466836433, 23.85347927824519, 15.382592164585116, 0], "e": [[1, 1, 0, 0], [0, 0, 1, 1], [0, 1, 1, 0], [0, 1, 0, 1], [0, 0, 1, 1], [0, 1, 0, 1], [1, 1, 0, 0], [1, 1, 0, 0], [0, 0, 1, 1], [1, 0, 1, 0], [1, 0, 0, 1], [1, 0, 1, 0], [0, 1, 0, 1], [0, 1, 1, 0], [0, 1, 1, 0], [0, 0, 1, 0], [1, 0, 0, 0], [0, 0, 0, 1], [0, 0, 1, 0], [0, 0, 0, 1], [0, 1, 0, 0], [1, 0, 0, 0], [1, 0, 0, 0], [0, 0, 0, 1], [1, 0, 0, 0]], "d": [[3, 3, 3, 0, 2, 0, 1, 3, 3, 3, 2, 3, 4, 1, 1, 1, 1, 1, 3, 2, 2, 1, 2, 0, 3, 1, 1, 1], [0, 3, 0, 2, 1, 2, 2, 0, 1, 2, 2, 0, 4, 0, 1, 2, 1, 0, 0, 0, 1, 2, 0, 1, 2, 2, 1, 0], [1, 1, 0, 3, 2, 1, 2, 2, 1, 1, 3, 1, 0, 2, 1, 1, 0, 0, 2, 1, 0, 0, 0, 1, 2, 2, 1, 1], [1, 1, 2, 1, 3, 3, 2, 2, 3, 1, 1, 0, 0, 1, 1, 2, 2, 3, 2, 0, 1, 0, 1, 5, 1, 3, 1, 2]], "r": [193.0826983249344, 175.27216075411056, 173.53155560616312, 112.38613129732866, 86.55308003802823, 148.9100969663989, 83.52658196570754, 73.79505707107435, 97.53178425001505, 79.07209078969524, 180.1385317573798, 109.66746229483631, 114.7607808564942, 156.54543147882754, 161.37320496477233, 178.07211212083428, 70.52294534639009, 151.12268943278, 134.03523455060338, 57.1746306987595, 191.4822301192225, 126.71723467655366, 67.24425492901392, 156.82320995435074, 125.61234445525037, 64.78026970240498, 118.6384599483867, 58.1398675669179], "b": [[[2.3741149259214467, 0.2560772160976006, 2.4182611857528062, -2.9109503377010757, 1.4046586886360846, -0.10766197646700437, -0.8084224796329131, -2.420928793329261, 2.7691818568146864, -0.2288819574166867, -2.6359090546599826, -0.875829112331, 2.298644804263902, -1.3512157168131054, 1.633204705383295, -0.4895563841794668, -0.8391319985196883, 2.541682144788762, 0.7982575507908392, -0.30746857357047386, 0.837779250370688, -0.37210599231620156, -0.6051804976015505, -2.3985750197187174, -2.447220527549778, -2.8236813773443266, 1.5568695865485482, -2.261013956293226], [-2.479312591958176, 0.2194935548839796, 2.4723733128636836, -2.164459450941324, 1.5843695762600234, -1.3777603480134446, 0.47865923400610644, -2.646639693319215, 1.2121200227945161, 0.3226436226634659, 2.956245040509902, -1.847452706622646, -0.46695554414576135, 2.5479850492520777, -2.7874531398383238, 1.9650492465610405, -1.6486766938561528, -2.4561872405534686, 2.5982046612485963, 0.26931841071136287, -0.9432671805796873, 0.9411880821798153, 0.6306046058405377, -2.3758988851255047, 0.11508914857560182, 0.5637260162797819, 1.413542418280315, 1.3820839703637766], [2.678976203169035, -1.1808817123820072, 0.7545747857690417, -0.10277109540033447, -1.9332974343884817, 0.36358222103336413, -0.550952065051562, -2.7179281301453724, -2.298748599720172, 1.3240697705301976, 2.0045603365151132, -1.998917318356488, -0.7695359408212967, -0.32002675768144195, -2.052707959399129, 2.1529062953914897, 2.873169082211918, 1.7938953264977737, -0.3616831961049476, -1.720803078142226, -1.4635511241028072, -1.4122397074675004, 2.81957549256649, 1.7794488353769102, 1.9415071247749598, 0.33727729585546173, -2.5591210361619146, 2.877399510465202], [-1.5019718045175996, 1.738764025484132, -0.2061107625974703, 2.286711466808164, 2.6316664712016795, -1.5717014442812274, -0.19633348765851055, 2.742059115425313, -1.9467633717488027, -2.4521936556842885, -1.6109119690386526, 1.2048093440551533, -2.7011044102767885, -1.38875482097964, 2.487729109980023, 1.5537020852289976, 1.1731197272284364, -0.22968480939684932, -1.3742831081754254, 2.6663135443315724, -2.7908845258157973, 0.9677211015045826, -1.567276357330114, 2.834669659627224, -1.9455103484887655, -1.4647368867725683, -1.6897525992149534, 2.0805857473026217]], [[-2.9122120300979786, -0.28721228324730674, -2.9745787622092745, -1.0608472378363536, 0.43069525377389706, -1.0045954025290653, -1.9405634897978559, -1.5852769752562457, -2.34714278752122, 1.6666814253525581, -1.498351327146033, -0.4937134517342274, 2.381460630196166, 1.3051533489978766, 1.3823021751261075, 0.6286358991771537, -1.1288903045962477, 2.8911065568260064, 1.4712313770529661, -1.9558419146576038, 2.8161452729582557, -2.259516692994872, 1.3920670164974016, 0.42672289449853285, 0.11473156021185371, -2.6209200918893734, -1.6040407686390026, -2.5667346338023185], [-1.2480158053361656, -0.21795451476165173, -2.205834605887329, 2.6468057332361363, -0.1741476419529686, -0.09437471778207218, 2.7446046397130193, -0.28794224116842493, 2.1572805578200764, -2.6616367401700334, -2.497602890454128, 0.8547905024307711, -1.155723195845774, 1.9860845564918188, -1.230610589986085, -0.9621898296235267, -0.39434243690693505, -1.1981853009165762, 0.35433335060310167, -2.826394433694019, -1.8010302901606332, -1.5228180848492416, -0.6378767049151968, 1.2957672696610798, -2.2545224903951766, 1.9415287005220705, -0.2542104565829879, -0.8535515851914095], [-0.0732375774570988, 2.027598474099948, 1.4765891566735219, 1.1461184563053513, 1.7366258734012163, -2.9980239446442427, -2.4488761885344346, -1.483449149242601, -0.37814342636963705, -2.938995378667051, 1.9745759273340653, -1.2165384261799719, 1.312560536283197, -2.802637188782614, 1.3220714515773508, 2.389327227285558, -1.6100409465293157, -1.036207392424557, -2.5680757147829962, -2.6553395855634223, -1.0493033315326648, 1.6303094430960385, -1.8132422374165178, 1.5574014893312729, 0.9163318017135964, -0.6043793470097913, 0.9655059283091232, -0.5442367915010498], [-2.603396807283675, 1.5630310765771958, 2.985498931458097, 2.31748476764239, -0.07846830374800451, -2.387258033020638, 0.7015975476359202, 2.6487603005561926, -2.126881922142109, -2.326663337745644, -1.8642611226413195, -1.9124786293101421, 1.6887802192502557, 1.5494428938111682, 2.157347521087588, -0.40333278425232777, -1.4707126914731257, -0.8888714355539129, -2.6862703065262368, 0.740034116656429, -1.1010124762240818, 1.7460599550635143, 2.9956370886573405, 0.9392893421369717, 1.1095597166713747, 1.4384677456854913, -0.33724094841712127, -2.373685279219823]], [[-1.5302764268377218, 2.300600495324616, 1.8113691549393325, 0.8977440502561111, -2.5697053121784617, -1.0429506804973572, 2.6680272939246112, -0.27885696165193385, -2.160578205720734, 1.3880463798230398, -2.4848074585288824, 1.2515106920740537, 2.5690163593605533, 0.3505409631951859, -1.1080764478742042, 2.021494696767048, 2.7214674384151687, -2.195313550919344, 0.7143971604879611, -1.1350163130790305, -2.185459023242503, 0.2603770833845145, -0.47510110843649045, -1.6061058029570712, 2.0455167943049997, 1.2994863485430352, 2.697629881113829, 1.3307950215374973], [0.9131968996313149, -2.8118097283756516, 2.474009952508883, 2.145523011069594, 2.4916549405112205, 2.2821785052511334, 2.5004208602643345, -0.6833721341021493, 0.2561946196648526, -0.6026802337400361, -0.6698834968403506, 1.19470122664187, -0.2213117585680835, 0.42204694744626403, -2.0359651240564425, -0.12238842386894477, 0.8080076803877594, 2.2834541732442233, -1.0587967407868186, -0.5414000486355572, 1.2380025456705042, -2.6451283125438145, -2.3806607476480606, -0.5908132343735546, 2.192417474699435, -0.6986009782120242, 0.814658488715426, -1.272251394953987], [-0.7769395488972073, -0.9664703367706817, 2.6481837935979176, 2.424744542607856, 2.2641903288256966, 1.853565251981892, 1.0928435771390586, -1.2888203764696256, 1.2133100723033774, -2.757514878559099, 1.9092414475050035, -0.9307646857872514, -1.3940914823860568, -0.7202889922689568, -2.6069340783969337, -0.7400336430872487, -1.835509471113386, 1.0974657235379421, 1.0076281843430035, 1.5358885446929973, 2.5603841345577756, -0.7591810355025799, 1.5128391221364552, -0.46487555175276407, 1.8480020248374505, -2.501812776087227, -0.9125113533787093, 1.9911409002786078], [2.8232837664598174, -2.4634223202693026, 2.6549774763577023, -1.6126973603196613, -2.8035850341418413, 2.3946015259873503, -0.6598420715220374, 1.4863172264677793, -0.1201264268018849, -2.5905844837020178, -1.685051728610027, -2.3801358273771784, 0.43290162570274493, -0.7370385001412791, -0.8371604915857729, -1.8181566502578137, 1.4827768116673576, -2.3213124523052757, 0.4806999739365727, 2.7087468475618017, 2.014537510197, -2.2893338975341004, -0.504903338466109, 1.658862233200793, 2.6898973174064817, 1.364982732087066, 2.9529384058889754, 0.49991211532849933]], [[2.0702157146712956, -2.941892938215168, -0.4492097247260993, -2.049032912108556, 0.8138642399703819, 0.22548302744543047, 2.6486284906342243, -0.7341112395419356, 2.439062047537748, 2.3565997643533354, 1.6658427226691348, -0.10925861049596852, 2.44991264073993, -1.9142363985958724, -0.4846774722430096, 0.19771166367556559, -2.0219106363333017, 1.1654914427298975, -1.9826286234256558, -1.567053908576955, 2.6432589498394137, 1.656616700520737, 2.6630947601174455, -2.697392254394495, -0.31378844318814636, 2.5235367927467642, -0.7399248563669927, -1.7754143337626604], [0.5386391197410085, 2.267801914298791, -0.9316865360148929, 1.0511052609323688, 1.5953723335027785, -0.45967031243820244, 1.73008862812158, 0.9309872027460728, -0.3859299472830915, 2.941025871870951, 0.13638396460334645, -0.8469009902271263, 1.4662908893901303, 2.1345787536541083, 0.6940324874903459, 2.541741503656378, -2.8494021526158244, 1.3457344954976485, -1.510016613226063, 2.5248084799223927, -0.2942888095439269, 1.576428311310604, -0.5939399564346317, -0.30463761021996083, 1.3597066809005023, -0.2524684223113036, -0.005683840000249241, -1.348846638620808], [0.43487688367556565, 2.5606006174587135, 1.0193247409833646, 0.2527336408290761, 0.11594372926427488, -2.0224975133756833, 0.9385663775995479, 0.011004175480909595, -2.95279269446977, -2.9161717393755904, 0.9246772942634651, 0.25684469870153936, -1.9130205609952036, 1.673661830096746, -2.45763187105832, -1.6084260878444574, -1.218152085985687, 1.1186702908819806, -0.0055537265848530915, -1.5240888962258425, -2.063683293073436, 1.9847615012304747, -0.31106302209294867, 1.390415655516625, -1.3001125464584082, 0.6137820245907992, -0.8254760806675874, 1.069885490121825], [2.9561496783959473, 0.7847008559181603, -0.37530806525874105, -0.26814475234829827, 1.5743333879890304, 1.279237385410612, -0.5405444802222772, -1.4153217482421092, -2.5267595561388, -0.7614585849411446, -0.15833845084436637, -0.918670948379587, 2.3736249050842213, -0.7031274230339775, 1.5382663330420456, 1.522362269209161, 2.6978985916692, 1.3429973387439738, 2.685794025071779, -2.15634591785693, -1.8982279619659974, -2.191961496858692, -1.3784123588968087, -0.1501454713167618, -0.876434981271899, -2.072666571582919, -0.07254039814177515, 0.05545570575120573]], [[-1.9373941433737758, -0.9576158063920888, -2.9278451051050824, -1.0333889952947624, 2.6076225785748566, -1.5650956860073078, -2.9524266529211074, 2.8269776299934763, -1.5555246321747178, -2.3131735309248893, 2.836039412216408, -0.4800574061508902, -1.7356069634959579, 0.3475430594870508, -1.899346527003057, 1.402196474521574, -0.3371202692751285, 2.390767997742703, 0.8256980254321702, 1.9478626648502066, -2.581409184337086, 2.9939574707407344, -1.1151601678517526, -0.6781877481138672, 1.9933109998556118, -1.0757242635876758, -1.0155689953092093, 1.2004596603724451], [-1.648347467159484, 0.7880432640490849, 1.534453977085728, 0.6233385443296644, 2.6611884264347747, -1.727365802850189, -1.9018664385995736, -1.632861868830317, -2.4316472273896217, 2.559641369618128, 0.9006658268321233, -0.4331470234752186, 0.8582034164805421, 1.1272414555387291, 0.5896748087618544, 2.171625386420118, -0.7103132748564405, -0.2365882830429369, -0.3888273825165913, -0.8406088782433798, -0.41687816229945174, -0.7655339054331591, -2.8511410758773836, -2.928082550388293, 2.797575604224635, -1.8075103978882079, -2.7634216995664604, -0.6238185434318204], [2.5740234840304836, 1.0821914151388956, -0.7474081079546977, 2.0227411894358642, 0.8304342786008059, -1.2537543528743624, -2.392094148211151, 1.5649214952795782, 0.9319047940087444, 1.3363260824692578, 1.6875154937833567, 2.716609642503969, -0.7653740834547471, -2.2292181570016822, -1.3190084133406674, -0.28797938923670285, 0.6714079919766118, 1.3825061268615944, -2.1995964430248183, 1.8276011587180676, -1.1277251308918719, 0.6346964742346772, -0.13279679696626534, -0.3961912647038619, -1.9889784526429761, -0.581055903375808, 1.514461479511457, 0.8890691945154545], [1.3331901000339492, -1.66657835991036, 1.0260292753655653, 2.2707286838520977, 1.2608530799778865, -0.6926381933197883, 2.989574373418682, 0.13956199110925294, -1.8845067511589582, -0.1421383699950125, -1.0125660730689086, 2.83294918323278, -2.1672847071849874, -1.9450230403410946, -0.8530559056104652, 0.40307901189710993, 1.7398043699519823, 0.6329101766390739, -1.4765858415180264, -1.810878127100317, -2.1130777596965395, 2.5831286456548055, 1.5502126609936413, -1.883253605500313, -0.08814741474235088, 2.778475133105249, 0.8634155253521141, 1.1619902385837326]], [[-2.5792519876753124, -1.0139797631636762, -1.349209822117025, -0.654672192581975, -1.2640878297082183, 0.6515599522635336, -2.0338246505573414, 0.35787429654517044, 0.41635144020113835, -2.7548581286322307, 2.290813034351471, 0.7120865339725984, -0.7404190254697349, 1.1530131154683243, -0.03327372729231426, -0.7927290189854825, -2.4316489144964346, -2.1593579700488506, 2.5146369470848127, 1.378439141325142, -0.6575812358125441, -0.9941931792128194, -0.9793345347220708, 2.753703234850339, 0.6298723316597092, -1.2856910548212392, 2.69884463516372, 0.6811393197771438], [-0.7926517750179016, 0.6943560236759705, 1.876096259292046, -0.9782504012922573, -2.445819428537136, -2.9773057152335936, 0.6759369024692798, 2.6961813089146176, 1.0620265352941232, -2.7325515808800915, -1.9637309349605014, 2.801309897490447, -2.226657064048334, 2.5042607141404467, -2.0050419480227344, -0.1850248231343281, 2.6140273049968776, 0.9289727022321177, -2.4511831989526733, -1.2446252859764002, -2.3763527381102056, -1.5922347408680602, 1.5229380911595598, -0.1519824333691826, 0.00027041568499486246, 0.9793454692368697, 1.2285295349841512, 2.85944791262507], [-2.2185121001580708, 2.3689011955371466, 2.869181907762428, 2.469543240004727, 2.368332341294603, 1.4742549190611607, -1.412793857722096, -2.666566654970166, -0.6881170431735697, 0.15948537887145964, 1.7023601634810621, 1.2943693809751435, -2.576666498855067, -2.035676768458061, 2.140423864446472, 2.945977954697523, -0.31139310746773674, 0.1903219890963448, 0.6259431751626927, 1.8268128503541146, -2.911295729474423, 1.9736572233090017, -2.7261783497828165, -0.3972603021360648, 2.904012204129656, -1.03053303906861, -0.6396751210724134, -1.6439526992064455], [1.8732007743813162, 2.8768204147926504, 2.9573923546811303, 1.9980439413851725, -0.36377410859502524, 1.8274841647436482, -2.15907760215, -0.6294437065466703, 0.7637283779081838, 1.4057486586450452, 0.11196970029250419, 2.511462553520131, 1.840819553955253, 2.9791674870402467, 0.878310666725111, -1.9627980250217747, -0.5868100719257319, 2.9278283031727437, 1.5362752016367835, -1.0650161079587448, -2.8141701985601393, -0.892930490728447, -1.1829984034200667, -2.7168488933987915, 1.4828787119306952, 1.8507823721336756, -0.04191151646584146, 1.0362657963270072]], [[-2.2339815884862855, 2.9649478666140423, -2.1869505159467835, 0.5520000462027927, 2.6091967784030157, 1.0153513649091908, 0.05163734889861704, -2.9347935155200826, 2.7922427688709774, 0.6655151382075193, 1.9327379197259793, 2.2263483547445713, -1.7610402347979226, -0.5515202890558233, -1.0702505062048444, 2.381774124289537, -0.8845677261003981, 2.5446112265008214, -2.5233532573851063, -2.543621517394947, 1.3135540405000254, 1.4078695374987689, 1.7034762192091124, 0.26359704008193363, -0.13905956873792835, -0.7733716932864212, -2.181206106367803, -2.6580282468117122], [-1.2560510776036822, -0.34284039045174985, 1.3003194258250197, 2.6658639807041977, 2.965846018474126, 2.561314416942176, -2.139050266666353, 1.3718074745102466, -1.760010119815375, -0.9972394880969904, 2.5467964143835946, 0.9846008674465181, 0.804492674799997, -2.816008168900116, -0.029887374194626837, -1.7745282740410555, 0.33472247977567093, -0.883231760089032, -2.0017188668775536, 0.5262390676641386, 2.42364664307957, 0.009696433316906727, -2.11850909300969, 1.1894158607002403, -0.4767725068211055, -1.8796780150697991, 1.1898129457327586, 2.9477896046169985], [-2.744454703377702, -2.5694672407641175, 0.9500007368134495, -1.111271893681351, -0.0722788164171666, 0.18465080716139415, 0.8272046511698181, 1.5128103843011917, -2.1675555567272857, -2.41574814204375, -1.4236816802499994, 2.7667414967670654, -2.878178353121891, -0.3678204041333055, -2.4439669667616966, -1.7751035841627076, -1.857250898380144, 0.2702934224397864, -0.5601051882555921, -1.402256183868002, -2.251697946499621, 0.3832377757584089, -0.518998500542188, -0.9475466585072772, -0.9886523946413295, 0.4890296583245606, -2.7703435193576182, -1.1904406018588445], [-2.2551214455438364, 2.769967865138959, -0.8125655278142365, -2.4044672505536075, -1.2056447309432639, 2.3617217116507874, 0.6120001231811818, 2.8904785836481617, 0.11805572460418556, 1.5451834495521624, 2.5891951157917674, 0.5004478069970806, -1.3725691898340395, 2.035375259742599, 1.6246475411440855, -1.434499411436418, -0.48897463332461744, 0.4319515492211652, -0.7982506325412557, 1.2639777180022538, -1.5166227712733544, -1.6018557835978584, -0.0015141442708408448, 0.7257649325045623, -0.4957858354048459, 2.8407180400486265, -0.733196789110532, -2.5349564848210786]], [[-2.753805766931019, 0.26930229703291886, -2.6088964345864323, -1.4476536274686256, 2.895809351982347, -0.34931126528179846, 1.7348461026373458, 1.9857744132395032, -2.6940732590215255, 1.2822480566821453, -2.217456255802495, -1.3679613637392232, -2.5562280131872663, 1.3980010910796157, 1.7791749106707266, 2.0294672590294107, -0.7577288251456968, -1.7954671919143619, 0.010665888904213716, 0.9828114259216676, 2.428287478120051, 0.8773213891896421, -0.311120442255004, 2.160851153400202, -1.3923144102815865, -0.10451339032098961, 0.22960688045333733, 2.9732214807308734], [-0.867027056758487, 2.342508462091394, 2.1369897133102187, -2.0568443092916766, -0.16992777224182554, -1.7152178377996363, -0.3050416889875871, 2.049011969454879, -1.309047311604637, -2.4276756937276165, -0.3523855677788026, 1.898142755646477, 1.5578537923802553, 0.41095360784290147, -1.0641996802943587, -2.0139741068981767, 0.05042440889225919, 0.9613189802096551, -0.9594553648731003, -0.2549329326975478, 2.342085079444489, -1.271834378293749, -1.3325992053138283, 0.5369081115435543, 1.2572912172678992, 1.787449124139716, -2.9017451418752627, 0.20493589417814828], [-2.7589837653321583, -1.697740669153549, -1.8126034800148825, -0.6502777481902111, 1.1236496629667192, 2.553934650710481, 0.8058597420851372, 2.7122733933917367, -2.513663948087976, 2.7061441500557146, -1.5633081008863527, 0.8682845353482209, -2.1731892890877393, 1.7749995521601942, -2.7927877294899304, -0.44107560040919136, 1.3620792559193333, 0.6791964641943342, -0.7555447785843352, -0.024450762333513953, 0.12961196098651895, 1.1343438075969434, 1.5154935794811895, 0.2382807113666665, -0.03354060802974779, 1.0201699139786173, -1.4396488122408833, -0.3720226406209597], [-1.0359810889472114, -1.523995543726795, -2.0832438397546635, 1.71100821256754, 2.8809127018536733, -2.004146238791927, 1.6292731425667446, -0.45737567884305097, 2.125647153434995, 0.20936157202501615, -2.004099429684028, 0.3561019555328455, -2.5001087866329117, -0.9767350258926308, 2.350356386647709, 2.398676852516182, -1.1017190989814842, -2.9698061111757394, -0.7939678645668096, 2.4512673512052245, 2.4709736009139034, -1.7231878583922522, 0.9676901969353464, -1.95333322429979, 1.5039345884588222, -0.4363751646461358, 2.7937308429111836, 0.6642080509271917]], [[-0.6497946702509063, -1.18793505910366, 0.7473422550493813, 1.0188769636101238, -1.210735284966645, -0.6178715715506753, 1.2110347074628098, 0.5392305809873781, 0.7491015996406927, 0.46656095575970014, -2.4533334339887425, 0.8014806942436357, -0.6338210557993573, 0.7400679585412342, -1.7834529029129458, -0.9862705128218829, -1.3669652239782784, 1.8254421427440555, -0.7760210853283604, -1.6509439861334876, 1.1023441231264561, -2.005777768076804, -0.23710030384542202, -2.91790370898155, 0.18316596404035046, 0.1949375658589907, 2.3127014368778367, -2.2216089895882702], [-1.7403469579785864, 2.6210960604394646, -2.8542822814465287, -2.9562950849264737, 0.9132724567989574, 1.3429508262675043, -0.4150456642895035, 1.5888985096614237, 2.116477814436511, 0.7056810352183733, 1.110127545740621, 2.887967532756904, 0.8474626428052625, 1.887632735109853, 0.7806720996284273, 1.4791999214242768, -0.4916371798180128, 0.12751597114935453, -0.6005346619700087, 1.6024508585378427, -1.259500173084276, -0.5193704955108469, -2.7108622954482504, -1.7971202971229236, 0.2715348445364256, -2.933344450345288, 1.853361888201662, -0.11914582206725655], [0.12282296396217163, 0.5174930601348011, -1.6806532522848365, -2.5486215162589287, -1.0427853716047966, -2.5661681313281224, -2.709392443135508, 1.959960089881271, -1.6300584547239183, 1.5952430572449154, 0.38599923694630345, -2.747070580358895, -0.571798468871072, 0.8839555809578341, -2.599939083746597, -0.8673863767299537, -0.8862797084114886, -0.8488278606158284, 0.41165856154839053, 2.7209994163156477, -2.8346375614843247, 0.435343267056143, -0.1731752545591525, -2.40633288767442, -1.0192231765169806, 1.1105202897014728, -1.5358276899376149, -0.19591722774659104], [-2.097722659725097, -1.788698045952623, -1.8750320385032977, -1.9847985843515241, -2.351418956309036, 1.7025506082359207, -0.263289759486689, -2.647568926423645, -1.4394711064833874, 0.2886342534393198, -0.10453167884098358, 1.727922119647106, -1.0111644862761162, -2.849547637739967, -0.9958296984988158, 0.6360106243160435, 1.5531028972120957, -2.7408909830621675, -2.926550962801273, 1.6583921841216132, -1.434633135777064, 0.08926198742128477, -0.7792254820962659, -2.381734061188224, 2.9136941810221906, -1.8091040936868314, 1.8378962038222175, -2.0350561041536235]], [[2.698610555474697, 1.6507460982218394, 1.8780214418172996, 2.483513355401776, 1.1337863244337383, -2.0210943142577857, 2.1183277868472317, 0.12272008219907438, -0.17004398475609417, -1.6233457406741914, 0.228776886101552, 0.14215605057087455, -2.7310622833324363, 2.915126359008269, 2.778269468879773, 1.4882059152896812, 2.191983898375419, -1.2249937437852567, -1.3898778663709033, -1.4488960298018234, -1.629977518118322, 2.452343144749687, 1.3149499605360457, -1.8257579072804115, 1.569808966213306, -0.027696777352518964, 1.2761046899199142, -0.6345553303447207], [1.8316463978757387, -0.06740144383977942, -2.4999718354318077, 1.480176697391813, 1.3549731008428285, -2.0359506758035355, 1.776184786763885, 2.3339330644943486, 2.1847505229420463, -2.6957677440909515, -1.6427221453657934, 2.755412632595468, 1.417219275418752, -2.94921767576889, -2.463929788337376, -1.1302158433116753, 0.48953876234161253, 2.8287971720844958, 2.6933915225078486, -0.9163374701213858, -2.487221466835406, -1.5696441840065325, 0.2526466726244574, 1.3988380928880968, -1.4328799635214025, -2.8869633104381194, 0.6341649901940412, 0.7781049005929477], [-0.6730359140548212, 0.1044178715701376, 1.9331300090942882, 0.46855131803164385, -0.7628574822214294, 1.8311539405854536, 2.81437098180278, 1.1509855043210742, -2.1411690951776636, -0.9924306089708885, -1.1558896624268797, 0.2792972570362271, 1.0916053474900256, 0.5213542728276481, -2.5734303640294858, 0.8724641929043213, -0.7946159146193299, 1.6076637167530485, 0.2720630879666701, 0.9104124487078851, 1.8393111950608843, -2.0420946858203366, -1.756319080370851, 1.8940455946979027, 0.083699949980927, 1.3418705405371965, -0.9639408976861166, 0.23133462808523042], [-2.6731399779446634, 0.7603699025798987, 0.04569939707854154, -0.33933441389587626, 1.943780022100559, -1.6833161757931887, -2.428972853785364, 0.24273106589995397, 0.29436261004632147, -2.114414496355506, 2.0572517491834956, 1.96754938483351, 0.2630987418024038, 1.85767210892603, -0.6606104045379935, -0.08964215810674236, -2.2684559324348568, -0.4394148709555905, 1.4469551287490825, -2.3273465590690074, -2.473057446945304, 2.8079226318967088, 1.5675519881145386, -2.296972433888769, 0.9091175348793872, -0.39101871600227023, -0.7926471614263648, -2.6053919089699793]], [[-2.044521689095575, -2.468128728734637, -0.6258642854070775, 2.8976061078480084, 1.3541222717456503, 2.3491245633302986, 0.6809952726427313, 2.54662877794315, 2.3458405976801737, -2.4360558080370023, 2.391624711578749, -1.761439547315487, -1.4671279336764902, -2.9774819365958303, 2.860388579782809, -0.3332217154964603, -0.6767873080319169, 0.25747759795902336, -0.8953196168539428, -0.9455268427289987, 0.5459563112116981, 2.3776527009484427, -1.0013474196454952, 1.737617006877084, -1.0712662895661775, -1.9322586726135613, 1.23944715518223, 0.322859105796681], [-1.293024884692983, 0.014230061084481882, 1.6704314989195312, -0.8027759677117059, 1.119355002882016, 2.2454167259831506, 0.5829804573222463, 0.14194943321346631, -2.641036755178277, 1.5893161032953396, 2.9893431380356503, -0.6585127575689862, -2.8779680370486016, -2.153892687942276, 1.1843351512011768, -0.3487066559353411, 2.041569070128859, 1.6646156894041368, -0.7476682814135942, 2.771688412401784, -1.8384352316345818, 0.5973519432785821, 1.4921639743151882, -2.6591117888359297, 1.0328966037129037, -0.7494265896274745, -1.6523529561485841, -1.578146603069215], [-2.40281219692523, -2.2767105042922795, -2.0972724517631938, 1.8365023443542379, -1.499952101228315, -2.3217579684914824, 2.0203570181419703, -0.3677537211627917, -0.10666058473976658, 0.9998553641844836, 2.117865019713258, -2.5367382890884063, 0.8607229250801032, -2.073434265530592, 1.438972054589204, 0.6225274154742015, 1.7621923098050258, -1.935048436183315, -2.846834060338047, 2.2709778187684586, 2.2408505792289706, -1.7069366339915635, 1.769971960577907, 1.6357918285147264, 2.3967204280655414, 2.8716413977748747, 1.7758055134182236, 1.5814940320871376], [2.055855080189885, 1.8355747377612914, -0.005310282782664544, -1.2290983854041582, 1.391453842583009, 2.8364369198122397, -2.7599173466464046, 0.6631909238680223, -1.0960634968948606, -2.2493780058822166, 2.3221637919960783, 2.154517842339299, -0.12613862474982618, 2.2667102970711266, -0.22636830994190005, -1.9023587654861036, -2.826685275574273, 1.4278959445289132, -1.4636590818306918, -2.929914573930524, -2.925619101967942, -1.4896114264849947, 2.005579905314179, -2.73297372886426, -1.0107653071496454, 0.34282313740607595, 0.9563037610594209, 1.8362668079695927]], [[1.804945689485475, -0.20638971719303978, 0.2838704653246986, -1.5804010318261303, 2.4848344611034268, -0.1997444532160353, -0.19671911736030312, -2.5312366300845603, 2.667229169665772, 0.004239926899404889, -2.4978120616611292, 0.5061171547469518, 1.555291089871087, 0.3237256526030614, 1.3985396917493542, 2.6559744324169117, 1.299694945272714, -1.908439851242808, 2.041245005408326, 1.4626676365588995, 2.3657689245210243, -0.9077612684026795, 0.11072299211519887, 1.1618509761175613, -0.24452559511533156, -0.4348435433524278, 1.935161036484244, 0.5271770266477498], [1.0829037925781178, 0.25290139670446443, -1.1138428053469782, 0.6707009666760158, -2.3563221563461934, 0.5913010380832766, 1.7693554762752752, -1.5083701149280313, -2.6632864490436745, 0.0712143700946326, 2.441021468579252, -1.6785866173965862, -1.9986369884809105, 0.23690707806173528, -1.9953106041293827, 2.1040794667770886, 1.9158084885631048, -2.843190548990334, 0.43122456688187727, 1.172849571906208, -1.6774080101793636, 2.7095592203631638, -2.187861283322559, 0.24422520404734271, -1.899563665882262, -2.088945985211849, 2.392393576516602, 1.1449108852239256], [1.0237342875360511, -0.3887945672633406, 0.9361138385322647, -0.5955481543263543, 2.1810838802772894, -0.03238247717306164, -2.5129163342749443, -1.6041496977392864, 0.46399221106647204, -1.8459106521848108, 1.4092983035880637, 2.9540255617998685, -1.6599635539949205, 1.5136329512587343, 1.7959651101180034, 2.046853852825503, 1.3126690236735188, 2.4336610158060754, -1.889585170107942, 0.6340159912287797, 0.9918403074553388, 1.0074365945531216, 2.5332107577597736, 0.9717757777784621, 0.2930951172927143, 0.6887636908421597, 1.755517822116225, 0.5484326613232247], [-2.3008345770457224, 2.031753016292278, 0.22739723041933058, -1.7965689152476372, -0.8724220735558617, -0.6169218507558001, 2.082291783304864, 1.5536425311048818, -2.0673865642783142, 2.1102217447824305, -2.188968351526442, -1.332812635902197, 2.1621609478821044, -2.6023915342806263, 0.9772674574509628, 2.7233313157585677, 0.03668451517626892, -2.2440111320559564, 2.427033601615074, -2.942856900827146, 1.6247082887215845, 0.3767124603939398, -1.578792163045759, -2.4303773471753227, 2.1203748640482587, 0.07854404276036409, -1.856299268052734, -2.602754718305667]], [[-0.8123806812635124, -2.1262666041688005, 0.5077016766625015, -0.7568631300265256, -2.9194564358698596, -0.19688243094532698, -2.6931999038483125, 2.493770943385501, -2.261196511823415, 2.2564258883717176, -0.9558168521147961, 0.782955490293598, -0.15184313747326783, -0.4530145196705053, 0.7515281530576123, 1.7591629462562048, 0.6622218884694675, 1.2533502019413607, -0.2035674067372688, 0.04023236720858847, -0.9018484596466974, 0.8375739574418422, 0.41546606273118103, 0.5441783896353902, 0.41821369409439857, -2.0272239182197107, -2.3928728354100484, 1.134159972683733], [0.22329934343667102, -1.4778689412254828, 1.8982017945602756, -1.0303815000881027, 0.8873301773625211, 2.087660687943923, -2.626281658210227, -1.3226731020955238, -2.321113142318776, -1.5190038235374805, -2.169626806829485, 1.870619237572992, -2.9889046240002806, 2.4366206723412267, 0.44797192394853624, 0.30198886094425603, 0.9069207078854049, -1.8461745469220578, -0.7662509495578109, 0.3775726129808792, -0.8120912308864212, 2.532352194213747, -0.029974458671484516, -2.35819722833061, 0.05641425509106801, 2.180613232966687, 1.6954295821313252, -0.9081759122097104], [-2.9718891497721254, -1.3331106048240573, -1.3839194038163645, -2.236723314014676, 1.7322127733929022, -0.1912255370138891, 0.49270717981356693, -1.2866512619838213, -0.10018731481525389, 0.8894906287284958, 1.7419271185018177, -2.520878609263806, 0.3010385502128745, 0.3716573025425678, 2.7686726187872175, 0.45900420391749197, -0.6103402451530897, 0.98920323362616, 1.3509422635462265, 1.492104265913949, -0.4825062041148187, 0.5936847174396607, 2.4087039541833715, 0.14984416543927637, 1.2964541244142787, 1.3429884836633423, -2.8740804801016235, -1.9672865729405915], [-0.7317623744631936, 0.702363027395803, 1.3834282003063754, -0.9735633626403555, 0.6772670104736616, 1.3834936855166902, 0.7399915511145978, -1.3502656846933716, -2.4549618108766422, -2.8736417376041583, -0.04123886788853781, -0.9975854998147424, -2.286866139154313, -2.504212422979761, -0.6943485485066629, 0.797507797564398, -0.07880473727510084, -0.14131918487297224, 0.4463594897422949, 1.3099222654934186, 2.8889541625271846, -2.6631563619479732, 2.8381307879708233, 1.8276840128331866, 2.1993775812893253, -2.903666742303372, -2.397431957507584, 0.7316408810334893]], [[-0.6476943811810871, -2.7706109103371097, 2.445670226013555, -2.9840617733687393, -1.7885471860745805, 1.6085181492115552, -1.0416819165504834, -1.5692995637128766, -0.09438924976551988, 1.4432895770221172, 0.4390737412876664, 2.9184265168094505, 1.82574293156787, 1.2860209240118543, 2.69315905961162, -2.491441533223085, -2.40632386768568, -1.4673534496404566, -0.7866118744824497, -2.6633912469597307, -2.022141670936851, 1.0649239585146075, -2.969709631894687, 1.3016005549455576, -0.5590068852197967, -0.3548761119537751, 2.5298676527775896, -1.971623192934369], [2.178053531607694, -1.669883391276095, -1.3305852706986454, 1.9359141014556354, 0.9979884807911978, 0.7042458240185034, -1.5292436980211617, 0.22142744444072493, 0.0730961101706411, -2.1855798016744776, 1.6050605240866478, 2.836524092447383, -2.0958531246069496, -2.151505566245853, -1.7508483371435735, 2.574628863072663, -1.7694638891667533, 1.8633167345746724, -2.998313894782335, -1.6017792886091138, -1.7286742010491378, -2.965512354451893, -1.3809889239439148, 0.20281650457862632, -2.011861741024143, -1.6962168294428503, 2.333161704479574, -1.6405297405064287], [-0.6178076216146691, -1.6930358501961484, -2.2231486329189893, -1.043954342805799, 1.9053521049925708, 0.4218910523489914, -0.3607412012631781, -0.19605026584015306, -0.38969947349766976, -1.3552350674980973, -2.913779239014223, 0.6825467056960428, 1.916915228654477, 2.1783335229116894, 1.0166696774146233, 0.10122628675820877, 0.048612355483530933, -2.452368885320333, -2.6517435894533192, -0.5758352629820926, 0.9361906258197101, -2.391303746224313, -2.8863372575773885, 0.13850438450180125, 0.8536620816991896, -2.019334443265049, 0.294338087162612, -0.292697278034308], [-1.9788271059566551, 2.749327386859644, -0.581608569583143, 2.2105676123608315, 2.7789139735738875, 1.4564360349028647, -2.454901652847329, -2.7396949075679027, 1.6190624410547647, -1.7834102095408728, -1.3619276446332544, 1.5019562169788774, 1.6201681837528055, 1.576625992600034, 0.5882343227535394, 2.540989568907295, -0.19694766078210613, 2.3394190175677103, 2.47417078619746, -2.338265445094665, -1.2924402750704949, 2.534996135112806, 1.7565043119896329, 1.4960393211307528, 0.13668892001344668, -2.742725979227209, 1.325010124996746, 1.3466732139373274]], [[-1.85977635504537, -2.6286786675792118, 0.751021726405682, -1.1694941030398742, 1.309579111680229, -2.8528170282378937, -2.8930448611809045, -0.5756844837420214, -2.821735727946124, -0.2291194377269501, 1.9569758266419655, 2.9749868228722107, -2.5949334649242437, 0.41833038186937266, -0.8326987581289238, 0.47180257551969706, 0.8166911391436624, 1.1715073116484058, 0.5006319259961929, -0.23361706902928026, -2.5565071427148514, -1.144118730734987, 2.5617240511715247, -2.3394728198168893, 1.545680803824359, 0.33489152383933307, -1.128506702823731, 0.74147208145801], [1.7059415227124068, 0.6822998222790342, -1.3785833942434416, -2.5561068000538274, -1.8251486126917142, -2.586279957398159, 2.1927350925431126, -2.2660687773245822, -2.1131718864484075, 2.0407216262417176, -2.6847777578184835, -2.4029612177016775, 1.0161472489186263, -2.702825041175247, 2.940827643335642, 0.7483749676819937, -2.017947506241607, -0.5017586496966642, -1.4220117446632692, -1.805642760576061, -1.9878829560539044, 0.6128691182111812, 0.8142695933771291, 0.20200771958363894, -0.5299111307945568, 2.0450107219648537, -2.4340726990742976, -2.8498124881120166], [-1.775406586970923, -0.3038525799128484, -1.9419926924164377, 1.9697924170309689, -0.3514438265550517, -1.2880905863082253, 2.021605617958027, 0.8908750682207307, 1.831220470772175, -1.8182488791163973, -2.658747862014054, -1.0463083816176113, -1.36139074345681, 2.6556069881137203, 0.15474588211522455, -0.6688251116369255, -1.0168383222524133, 1.8559992420332208, 1.941987982038369, -1.9763680918632074, 2.924752515952771, 0.21276712061642877, -0.5602451743839851, -0.31492288071284946, -1.0077656617063984, -0.06205316683989581, 0.48465292185216713, 1.7893199685715944], [1.7017220461105529, 1.9962811128782523, 0.5249769911637001, -2.7020564967179874, 1.5204056943085575, 1.9138120962947225, 0.7503770415417268, -2.982631044047148, 0.0382105221601603, 1.7774982737826912, 1.001964061592993, 1.6081332134190776, -2.5108006975985573, 0.6206695245456508, -1.4750968783817928, -1.1391442175731208, -0.21346734235588638, -0.20706583214463592, -2.198402692497356, -2.8531429419076915, -0.8331916941675539, -2.922815147080573, 0.4809769406005229, 0.38855830587254925, 2.818612628296351, -0.9247911345627631, 1.886756683654621, 1.0425734302321512]], [[-1.172518207840107, 0.33020130175227713, 1.6197507826849495, -1.9584989262570982, -1.5846661546250786, 1.772125660004983, 0.5210976794198259, -0.4718444205354908, -2.48077574746004, -0.7163127663966868, 1.6082398045793438, -2.4753455277490706, 1.2610327598750866, 1.2042266721406953, 1.9754993743271072, 0.03940183420855181, 1.743624362467962, -2.853271609480151, -2.652929710811715, 2.387236984023284, -1.871642993857639, -1.5121285833402867, -1.6968084839103879, 1.644931760388741, 2.4796495630485804, 2.492025024531989, 2.378279089622466, -2.9678894986634488], [-2.344355844949318, 0.9505917562793353, -1.226178164932897, 1.436204731954268, 0.3036039766597698, 0.9522654435492317, -1.0618507398130654, -0.5053182857737397, 2.39135403361435, -0.20006190740015573, 1.0284958470632288, 2.5792359430863963, 1.8653990336538744, 1.7473342954232383, 2.5551645283707156, 2.2003155676933943, -0.058870017840896516, -0.16433796170757597, -2.7690524241806953, -2.423737874445301, 1.5287108282244999, -0.7506897025245429, -0.8651091953910894, -0.8571833989172388, -2.515946430989713, 2.3504074262892463, -2.4128510289491167, 2.697306212696918], [-2.0663593728991327, 2.318196029521279, 0.04273872727680006, -1.078855242876192, -0.6124364384261334, -0.4399555141586169, -2.4386974372584436, 0.5351719395371983, -0.09500652071304838, 1.2140256376652063, -2.168228422026328, 1.2149195984286063, -2.074579728417441, -0.9317924701002758, 2.773181574036869, -0.5499049321699703, 2.5065601976718934, 1.0040428617788137, 1.4261325427191451, -0.4621321076143503, 1.9270756001873437, 1.6539538716554647, -0.4155100448082347, 0.9319908777717618, 1.845214561121301, 0.22072206783197013, -1.701700362643104, -1.0093115461344653], [-2.095345875857064, 0.30481035388647904, 2.9400428255461097, -2.7373809178200355, 2.3691389801926928, 2.478625558904781, 0.7467276720156741, 2.620405812430697, -2.718104595027056, -1.7898050159502132, -0.29504183907323256, -0.1301838771368624, -0.9890853292007495, 1.833100075398364, -0.9389533794582858, -0.5879489715128106, -1.9897386521039482, -1.9735732056445294, -1.9228336138747204, 1.9740019033800102, 2.0016698372675643, 0.2938492151473544, 1.5228935083511477, -1.987673023806352, -0.1969446958384058, 0.2298799549932804, 0.7156835704914761, -1.1515964724476735]], [[0.6823933956998758, 0.5481173494990301, 0.0036031193874772605, 0.08467375057654358, -1.4068149429147632, -2.720495448446334, 0.7787687066954825, 1.2309204306231694, 2.397381156245017, 1.1515615360555422, 2.9931754896954628, -1.6199372779791423, 1.6315425439139872, 0.49418491843594214, -1.9697649286897516, -1.046145424868418, -2.9141478720787894, -0.11827936974268027, 2.29779222932304, -0.41135826902060835, -1.411563569623419, 0.30032981581487217, 1.989311318002069, -0.998503855318055, -2.1433959648401038, -0.7151623343733213, 2.1002064692806135, -2.8428634662589447], [-0.03908087141939687, -1.8680140274290105, -0.4444280375380112, 0.2782835395571439, 0.645962381268534, 2.051397553547723, -0.0667895067322739, 2.946730210817827, 0.6698734243267075, 2.4122935001057373, -2.1031393557251343, 0.750088456929916, 2.4450394902327695, 2.9235433270917586, 1.9607667427971212, 1.5738484479468493, 1.6039507324669646, -2.1893226509966555, -2.006519947391565, -0.6345858670263498, 0.12842398650699494, 1.2714974939442163, -1.08349924946555, -1.11062147243874, -1.4256734150103378, -1.3662698472480428, -0.6561007486703136, -0.85712211482074], [-2.865160688629108, 0.29609021776576316, -2.4783055083797505, -1.1622257151278323, -2.972218490832553, -0.4144813045595175, 1.3998964679639805, 1.4698650106730877, -2.797946772380569, -2.4231860301611086, -1.6136240126873913, -0.23625573962817104, -1.653870662757098, 1.7886903119072768, -1.2830781740325172, 2.604859454221221, 2.057539537805555, -1.9907680819850002, -1.3807325808272033, 2.4050399554861572, -2.855599270995456, 2.6239556045970325, 0.4084161800585777, -1.3259847383466128, 0.4445358659458707, -1.6118473368273383, 2.170634658933926, -0.08407295990073393], [-2.4953094343241666, -0.2511435514957894, 2.594057793105753, -0.1308090319596209, -0.8874600948644109, -2.3333075372953713, -0.8060715267748364, -2.725180318380092, -2.387800804601943, -0.5572058163643518, 1.817013356747081, 0.286187459181531, -2.3383673140226726, 2.0269381335736334, 0.8119725484391118, 1.48311141043685, -0.13594625399961613, 1.9348264579349959, -1.8757231646924928, -1.149979203310169, -0.4078505557629919, -2.143502983300222, 0.7500364110149778, -0.047041589188793864, 0.22139757773171187, -2.3707649372264257, 0.27742693164467447, 2.4958698261801695]], [[0.14692470061068885, -2.002743224558859, 1.1317779420830538, -0.7819722940860796, 1.3132245085302383, -2.766837999006193, -1.951632218179773, -1.9638198981693051, 2.1835111875756095, 1.2019493870614468, 2.6570469544176873, 0.6994141955630235, -0.2464690493017656, 1.5406542570544444, 2.8952023599348182, -0.03903533016917127, -1.1587136126647963, 2.437832269628541, 0.2228999610608291, 1.4752937537948378, 0.24792044768976318, 2.6945329452482847, 2.194469408360142, 0.6651255260712512, -0.3545723300170769, -1.7652294979616487, 1.6680097662668718, -1.4165566546408053], [-0.4703496200337858, -1.617227318529852, -2.987739785430904, 2.5623858049632897, 0.10542152108677039, -1.3627448114668324, 1.3694816788979427, -2.664165274891294, -0.565823507089434, 2.8860461637359913, 0.8697091387963272, -0.7892086597383576, 1.8851244381249366, 0.12535116009305103, -0.706134434952256, 0.310597441321371, 2.443361540245257, -1.3524227292611875, 1.1793173033763988, 0.9063022319058915, -1.8503850847176855, -0.31436726474742827, 1.200573748642281, 2.4704029394916738, -1.502913205781606, -0.6924588332044412, 1.4691905103692182, 2.4057871024501516], [1.271555567067411, -0.08023019853532531, -2.576178216881698, 2.76252526729235, 2.125514349226436, 2.117363095328905, -2.209038731533175, -2.653774138141437, 0.7903258959171797, -0.7581516961094183, 1.5074635128287053, 1.9015336920804309, 0.9158511746913947, -0.6946114433465405, -1.8654367416967408, -2.1568519510512587, 2.5635660245226317, -1.7876316240929546, 2.8316888866874503, -0.810448007971341, 0.5957988964144234, 1.19692212419708, 1.421979141618782, -2.1335034151077434, -2.649077542696486, 1.975441471546353, -1.7829929096570707, -1.3729621167671633], [2.321289781276054, 0.003812315874756944, -0.2751563009687432, 2.427524373140816, 0.8333665221547668, 1.1214791047417183, -2.874607247721179, 0.20007331518393645, 0.04383932740256169, 1.6499229710099774, -0.6780924893159845, 1.5359093645485835, -2.0543063521534, 1.2815017576815393, 1.698807185955852, 2.5364155757943827, -1.9861971307049688, -1.7194513587142826, 2.367250273244089, 0.28590509060171065, -2.9849804825437323, 1.3583350878326925, 1.9996468376988803, 2.0898666941533417, -1.9846245225564374, 2.061544476872804, -2.001288689496401, -2.496417632098571]], [[2.982254865103865, 1.9198877745623149, 2.347343627794091, -1.46338868824406, 0.8063668121526151, 1.393561363719689, 0.9246882765310005, -1.5688641678534039, -2.0814429344669394, 2.0746587533175527, -1.831823316475952, -2.62823211918934, -1.3194644480584552, 1.9927405992870435, 2.6482089214469937, 1.2904325658224813, 2.849181886279383, 1.9896499932715122, -0.7549629947235896, 1.3521433406115335, -0.36211058606940405, 1.4687164873558576, 2.5332457819242125, -1.6723295343728144, -1.1142495306426186, -0.028625803751236134, 2.345692507839817, -2.9105199702165083], [-1.9829700232584264, 1.6016307741252067, 1.7466478560723315, -1.7784755852251082, -0.4938772825429778, 1.7053804659131133, -1.6368241110237352, -2.8796991603175397, 2.256500767700868, 1.809653651129075, -0.8995507000396339, -1.4611712399148715, -1.8172750806417821, 1.5100741212418614, 0.34159790321923067, 1.966376559949766, 1.780740999589554, 1.485641171587054, 1.9667989386778908, 0.13815096788208425, -2.3875111340881596, 2.711263872232025, -2.130522464765358, -2.309141744589027, -1.3636508302869326, 0.7346397319309528, 1.0539594296516288, -2.776419066428325], [2.247238602746598, -0.13354327576718816, -1.8519623546635224, 1.1779858230053888, -1.1711198039029105, -0.4345597868681237, 0.3082434500919917, 0.20584454663581653, -0.8715161628186125, -1.1822963609826749, -2.1081866502302673, 1.5549855324524398, -2.3709382170965743, 2.570487034915679, 1.8577446774345372, 0.8144751403800217, -1.0931808772998501, -1.7903459348632997, -1.1310726189539502, 2.5329596143690356, 2.382526808482634, 2.3733524905090473, 2.160147431177071, 0.9454406112500005, -1.5509437124177046, 0.44830304839939616, -0.5829114586998685, 1.5061982292453049], [0.9535049946619818, 0.6559491312362082, 1.4936033561597357, 2.127544782148627, -2.82817857140694, 2.899904177074493, -2.778574937555808, 1.9949306201978132, 0.961345416909428, -2.609203421313586, 1.4614542564325426, -2.1240468895723925, 2.0427828936989982, -1.5063510766691715, 1.2543036383493327, 1.089539952581828, 2.4567219811533505, -1.8305576598089817, 1.376868162225251, 2.6570028859001313, -2.3048936956182646, 0.41518276390764, 1.8869826962055871, 0.9530401539853388, 1.9173541857763752, -0.34828783423908893, -1.8858564498312969, 0.5237806232338258]], [[0.7436079875151798, 0.9810619414862853, 1.324196902385494, 0.9492278231572522, 2.90853854514957, -0.16346991764786978, -1.3268916562607616, -1.3235185829807796, 0.9168193412797496, -1.6599944925144015, 0.13526333483790864, 1.584662508414043, -1.7130408583425591, 1.0248352984460434, -2.2445550375743624, -0.22458445806806893, -2.7126226361072177, 1.534323381231225, 1.6742311910423275, -2.83351684846758, 1.9974911921854552, -2.556341039663805, -2.3625971172447437, -2.4400900641293966, 2.044268284580623, -1.778578267899628, -1.0769007062500537, -2.9204500261065114], [-2.8354099802952004, -2.312115059670596, -2.866945451467796, -0.7742811709767237, -0.190579351172246, 2.8902397993682314, 1.1739737173828484, -0.7560530964049175, -0.062297323274950855, -2.451177709284572, 1.617927333653979, 0.6758258790700338, -0.3210383582573151, -0.2549400857018549, -1.8326111066406565, 2.2257723131905998, 2.996565027527952, 2.848322441881182, -2.8217276199750083, 0.5006044170681441, 2.379499166550981, 1.8166434645617837, -2.3922021490618275, 1.9675411769130413, 2.5042034756013543, -2.9260317248355214, 2.755794341411965, 1.339439888510392], [-2.52532944361963, 2.741648383539764, -1.9152113916533269, 1.5297842906284913, -1.0332671814046508, 1.8485736280801905, 1.5218730027864122, -2.1898355712157276, -2.4455228967429394, 2.9555542416498506, -0.2929717691607068, 1.4928055423709887, 1.2208731431925859, -2.1828282938373826, 1.8800755054090965, -0.9274600038573411, -2.8298525131071397, -2.6897532754665043, 2.462468446258189, -1.628507760931995, 0.6387369916537846, 0.9121773263865607, -1.8398540003116841, -2.2434994070001926, 2.0275922141213387, 0.8408018271690398, -1.7692807610037975, 0.5970809011679226], [-0.7533203267761572, 0.9304722943955932, -1.4763145912023203, 1.0253773654863423, -1.0036501394148347, -0.9355120942111945, 1.3183946716481998, 2.457373537061236, -1.3374840663404801, -1.235520484135782, -2.485346820085849, 1.4166758083179705, 2.701299173070862, 2.4273752989504187, -1.7513115475094936, -1.8891344142511972, -2.478077999707777, 2.373876168864534, 1.2286763438782256, 1.3938540695040436, -2.5859796424953494, -2.5962134152100194, -1.8507719031942034, -2.8867793904830057, -0.9788318907610396, -0.7273681286676306, -0.7946810380996432, 2.4798379083113113]], [[2.081409254058901, 2.2954139826013638, 1.076141501384229, -1.2679615998711262, -1.3933996213269955, 2.793375577219292, 0.18572566305435334, 1.6656960260032676, 0.5951087108384256, 0.35637768607505427, 1.7403879913376734, 2.4006215014988603, -1.4191788508570986, -2.207074055574205, -2.8607387135648397, 1.5406413712960294, 1.9767827648647387, -1.471346339652621, 2.02526247262018, -2.681083030618316, 0.3382009244400739, -0.6016533702962454, -2.1747597504545215, -1.506879233238554, -1.3034421565718397, 0.18005658790965384, 0.0060860506852580265, 1.9721670813823193], [-1.950404100752286, -2.292030529948975, -2.90793398567748, 0.2168851969185388, 2.472068754126788, -1.3448145594646783, 0.1963565495798738, -2.692129184840559, 0.3767742881523968, 2.5086999992771286, 2.236949456469424, -2.975257154074408, 0.07345360456822636, 1.1296394325797063, -0.45447427672942764, 2.101518641027141, -2.641078859881599, -2.1891624018910827, 2.887698137956111, -0.7230983083566418, -2.8272393513186507, -2.9900196789639626, 2.727864964362775, 0.6699821176995671, -2.5819843976324597, 1.379204904622398, -2.7844074140571493, -2.322573953350921], [0.640836416533606, -0.5194650259424041, -2.1016281597405353, -1.5916177695764175, -2.9038760092414395, -2.749813086068792, -0.002384023731997864, -1.8235844915134867, 0.14192077247891266, -0.36718955869857517, -1.8907431179581995, 0.4498483618984368, 1.4744429704637705, 2.975920067285937, -0.029968457322687936, 0.6992718800390083, 2.7805369958249173, -0.8310019230786301, 0.9175950050452819, 1.88805317572049, 1.6476541353331653, 2.236925070693621, -1.5031756781561694, -1.3182252981065417, 0.8768403519560204, 0.8195990181464214, -1.0150237893581162, -2.035447780666626], [0.11325075182197608, 1.666181645154845, -2.2440696364250177, 1.3439097801232407, -0.819863360193632, 1.316793867967549, -1.0031002616136988, -0.24994236403007353, -1.5964970218992514, 0.9082083311712932, 2.23115979184979, 1.4864719306304979, -2.258099176588259, -0.7543824095830356, -1.7746801284059102, -0.41766416886318414, -1.3598496753717328, 1.075348920731626, -1.1826495985652792, -1.1986677525473957, -0.8409038042976924, 2.786117286745556, 1.1601166051854026, 2.931788159338791, 2.8445539099343744, 0.6766249182395758, -0.017227728751721294, -0.5740495718987293]], [[0.23611131265231355, 2.5549161248706813, -1.9155366066691855, 2.199758010910913, -2.2958181617406774, 2.170174684081706, -2.330083436435527, 0.569651398887415, 2.088721175774177, -1.8096340110277966, -0.5276256311668126, 1.565430519940202, -1.2604063773350938, 2.013184329187764, 0.6155857520777515, -0.3177936692573655, 0.33523743298461195, 1.3066690122847486, 2.336724043322617, -2.255890746661803, 1.3782802271391388, -2.8919828894137, -0.9119549852018132, -0.07394160055938137, -0.4710776903503837, 0.595306049430016, 0.9221284838131338, 2.2850158165152648], [-1.4686579839746146, 0.9935594417947549, 0.3827773494180029, 0.4660043329870387, -0.11854501707995935, 0.7364373617489628, -1.966833672084775, -2.7635871753346297, -1.1313602893820354, 0.2543283876232101, -2.403783134156448, -0.7516236303730146, -2.270384923063407, 0.6587003149103778, 1.020162270560026, -0.452204275131872, 1.9931772619188575, 0.9081363425417326, -0.4559201559783115, -0.8648559495485539, 0.7119411386796379, -1.837192167979209, 1.0243781983638014, -0.7964666390964688, -0.8351975251329566, 1.7573112705552356, 2.3690526994441754, -2.13261965765804], [2.5649616032151314, -2.7800236133165597, -2.7019961143976614, 0.8778738245613731, 2.782947384370492, -1.4739728307158058, -2.342225700934296, 1.7127878030122066, -0.710925084272473, -2.5282045960294637, -1.4562052974360167, -0.6560067109821923, -0.2858023308159323, -0.9427245127493231, -1.8911458629077984, -2.6525183154724683, 0.0012907948536300395, 1.0190424057393441, 2.097424965537302, -2.814960815389849, 0.7466018438408311, -0.8892622117045779, -1.6745175428023822, 1.1145444141660796, -2.942586669950768, -2.695621115546748, -2.4911738926599005, -1.355420162811162], [-0.6450599086426902, -0.8737472750079291, -1.0448006306704614, -2.548973423452222, -0.4200212502551315, 0.8995257579737617, 2.9091658269619103, 0.6132910697003124, -2.0627091005199243, -0.2886207948868753, 1.3526387197500114, 2.601481035975037, 1.8166236016562847, -1.7659694451653376, 2.0442267610040945, -1.4928845976492953, 1.0533413692540634, -0.43354460210082424, 2.9319571677688945, 1.6040266578558615, 1.1531921394653466, -2.085116338049594, 0.6703885155239622, -2.0225631433931053, 2.717193240110733, -1.5898871757349509, -0.347593656349499, -2.715685252874534]], [[-1.2611889182276406, -0.6208443251322331, -2.127770907156129, 1.0180387171683893, 0.2349589338322673, -2.9032712591837604, 0.9301874091059461, -1.3178118394000597, -1.2367931893910442, 1.9102328182496784, 0.4706290118341525, -1.1508137726681957, -0.9506826358191134, -1.101158811723306, -1.7843280110166289, 0.7150583808474753, 1.6664425709676252, -0.30410162353473336, -0.030323974197563164, 0.19808917189629938, -1.5409502501967312, 0.05949144140220408, -0.6747680845384147, -0.4480270444518526, -2.431899864613918, -2.046824249977138, 0.08083804123636096, 1.8142866380308806], [0.21810588618615911, -0.17420751101882637, -1.444195342869431, 1.7558139744678698, -0.7874516063035228, 2.4541304433141535, 0.29539832167281777, 2.4480434554768333, 2.594310756140609, -0.35318677965167833, -2.096775669557598, -2.9102784338999097, 0.5861411553725673, -2.6904909731871287, 1.739785147179326, -2.604302030977614, -0.6557284435940045, 1.0592581558182124, -1.5576661895939254, 2.2886718088100686, 2.570397999469022, -1.325431511564551, -1.1594076399795312, -0.7653529611691345, -0.7836650350823575, 1.5963839028987614, -0.7172464244246095, 1.112659476226634], [0.05193329257023427, -0.904607459086832, -0.42234539181264363, -0.461280106271428, -2.9729296454678513, -0.35851968999038997, 0.22669078645114915, -0.34329632890989537, -1.1839310499888223, -0.613841064647489, -0.3803363131108197, 1.5436263380035742, -1.450928390493646, 1.401587211807561, -0.9297547638549877, 0.4735065308858868, 2.4376971303899335, 1.02658241345729, -1.9572796558862466, -0.45026657018177874, 2.1830176017489666, -1.21806938488991, -0.5747203437488375, -0.3715191488969052, -0.6249166495379219, -2.445652012900605, 2.5062588723970762, 2.6661351410062064], [2.4605910822057373, -2.572725535740074, 0.7699928931589133, -2.129562462594343, -0.9806998864572831, 0.8908432453004007, 1.4462885312330434, 1.9574328834030172, 0.8268847313030783, 1.2594437111864387, 2.660753768125427, -2.9453932874889954, -0.3064741481591242, -2.6136629453625795, 1.1917575946794132, 2.0903583679443427, -0.24367277292617295, 0.4129084887978456, -1.1806382522894006, -1.16215158883467, 2.398085435251515, -0.7801578453333633, 0.2185441155473744, -2.579107615999918, -0.784505425876107, 0.6438770831131118, -1.900925091544949, -0.7932531388123629]], [[0.40613334366884235, 0.0067040599667334, -2.1182442420576804, 1.3799274703488198, -0.2541547284445569, 2.6988874323377914, 2.4040897708998585, 0.9300406368001299, -2.630671378327669, -0.49607448173192026, -2.8584140412345684, 0.14364358475326977, -1.3267155767063539, 1.197657297319373, -1.821403296967102, -1.5407612656381982, 0.7775474549156387, -0.7578034266454372, -1.2411844737347724, -0.9024857039061764, 2.3873499458126544, -0.41401086922282726, -0.22674015921360224, -2.6867081323802338, -1.2491171928634413, 1.2672504953176897, 0.3127465511007763, 1.1387799848249873], [2.847146626902683, 0.012969834104159972, -0.5917907506106355, -2.266153416145789, 1.9912324677826172, -0.6591199009600635, -2.695675325011056, 2.4620255734425625, -0.3439340242548008, -2.4622610852877065, -2.0626080600688756, 0.9643041320779258, 1.5379055348675177, -2.0020361139312417, 2.671524355256711, -2.018426356233885, 0.7981041977151215, 0.10259933848149538, 0.35710890783490523, -0.8785949896028167, 1.7541091129745796, -0.9962902338921338, -2.7561096265877945, -1.1671449818055317, 1.7278352885604207, 0.36401591774803066, -0.4589245563430677, -1.2611270896171358], [1.2269833469511742, -2.7849307575083113, -0.27099904157466614, -0.9440005309581192, -0.35252378024720077, 0.9197518387059809, -1.5314383507500176, -2.2979851142359053, 0.9016001438788983, -2.421579967124051, 1.8715997390287686, 0.5177644870052598, 0.15512566287396945, 0.5790401564372321, -0.5324416825521818, 2.3228683793034506, -2.8825044103951947, -0.03231726482952357, 2.2806182751472956, -2.0580815209538073, 0.599623563286702, 0.8250535052502368, 1.1509845609029865, 0.7544884656827451, 1.117638692980072, -0.783762359931707, -0.7803838256868358, 2.495917801816155], [2.317185612478853, -2.265765283198474, -1.113486644188627, -0.028621529038711735, -2.8975642932216785, -2.1342103996730364, -0.7089950897947324, -1.2935460857981964, -1.3109862691769643, 1.6852354588300358, -1.4286640243963444, 0.5578459969298595, 1.3068263608785644, -2.503057490580165, -1.4110169193948263, 1.0368415702070388, 1.9961258090706524, 2.3842465262922916, 0.2548472310464929, -1.4978832866250609, 0.7703646472185977, -2.4241418357607216, 1.1533957116522506, 0.5697294649060902, -2.127001009742149, -1.210291770465638, 1.0182233020058158, 0.9485730869906233]], [[2.7863009141994386, 1.5988983606431137, -0.42442634739921825, -0.554700174711598, -1.2046316999247904, -1.5385365662256638, -2.9739277853710933, -1.522386998760653, 1.681609952569393, 0.07986203920718538, 0.47675106719462335, -2.0794639973432947, 2.850779608686956, 1.4104380080705088, -1.4010459514391647, 0.659919769914886, -2.8903974858950066, 1.3728014543525884, -1.157085996616419, -2.0178413808984828, 0.3827321356428586, 2.905981572635138, 1.3058816084232703, 0.8228044821483418, 1.3223602454952905, -2.5320011435315433, -1.7545212745082084, 1.285939224611342], [1.6331720387450455, -0.23547589363272348, 2.9607609876591496, 0.9685043625683885, -1.5095825444020012, 0.46519957067386875, 0.1372229234337139, -0.09456916444957297, 1.5122027014094623, 0.4712304369971143, -0.40261736519209057, -2.6013782932148906, -0.1690304361898578, -1.135049300237723, 0.3951572469941196, 2.8876589191266246, 2.05198636233294, 2.183067790111129, 0.2942357759818246, -0.40468477011685433, -0.544467434985044, 0.7485815684151391, -2.1513805443301517, 0.26030699791598355, 1.9837828203229613, 1.506050178662253, -0.3831725777833821, 2.431975643469575], [-1.9626065084750526, 0.39684195310462744, -1.2479558248402816, 1.811067257405952, 2.9206561204175374, 0.8609060339597674, 1.3042101929743666, -0.847003915923505, -2.7553055967385998, -0.9953507884492785, 1.6378457001077926, -0.7811789065202319, -2.564740549644606, -1.6167470036209306, -0.9903406587644179, 0.841037526664393, 0.9231499497027249, -0.2018920210283408, 0.9644906547755943, -0.946118010930245, -1.4665504220718668, -2.0408472913605022, 0.3938591152632145, -2.833096004253472, -1.2999489077820203, -0.6101294308897378, -2.415087898308494, -2.0530391831537407], [-1.0541608706607604, 0.7188760803439065, 2.9375278463834196, 0.2076424942957833, -0.7707424266967893, 2.040936987804801, 1.8243243181487152, -0.39887197303808186, 0.4394610574533302, -0.1959784084538585, -0.7433694201270304, -0.6220622359131935, 2.7727414178778265, -2.325361203273248, 1.2388386937038192, -0.9274273477094175, 1.8699477111876082, -0.774915372590649, -2.1290302152430143, 2.008037416281664, -1.4088671867572045, -1.8682074384981349, -0.028918935901688148, 1.7389661639680414, 2.437362216709653, -2.367586067047605, 1.09316289107114, 1.4816617946736308]]], "t": [[99999999.0, 6.747402538679289, 12.39807321536064, 14.655213608522313, 13.926763919858278, 6.6195974254950665, 9.333977016395231, 6.142793884766601, 9.071379653704263, 5.842879641193296, 8.436508274982113, 6.873231911476037, 10.724737762783839, 7.264250755848672, 14.419205431782387, 13.788063542114195, 6.738566736278524, 14.135149462228757, 14.522924595656985, 9.251038120983324, 12.787098141811938, 5.343701427426225, 8.467592323454376, 11.5701948246682, 10.265769697249063, 5.829311770003595, 9.366805988538168, 10.278623555077946, 8.360447491647482, 8.827247527172267], [6.747402538679289, 99999999.0, 6.80293672775794, 5.971373126817986, 9.134677490747618, 10.110710144201196, 8.174252083896771, 5.8159786212887985, 6.671995889192695, 14.909672564057297, 12.515172018481044, 13.653231495426413, 7.185491720244833, 8.046796485763227, 12.847882231736543, 6.5322521723904705, 9.286112009049331, 9.354237717337234, 6.00737372201783, 14.270324699937008, 7.473776515827976, 14.405451897087854, 7.869683145412981, 8.168412147364666, 12.62001903902225, 7.699141702221418, 6.174788739891241, 9.416844583385538, 11.64269628840616, 7.297527820545121], [12.39807321536064, 6.80293672775794, 99999999.0, 12.31286283157182, 10.527954842224684, 9.493569648875965, 11.296453437752302, 5.110675643266288, 6.112277237593277, 5.215171158367406, 5.086332566670057, 8.99000919655344, 8.999654112573642, 13.086699214165947, 9.316835600180987, 5.610929636747612, 7.6138207680128955, 7.592303498480914, 8.523188826353609, 11.958793354707405, 7.9280948341666075, 10.22881666597327, 11.426432331952281, 10.070344601335446, 11.299995987108336, 6.624296115176559, 9.90658811309876, 14.625257833360115, 5.029006667209696, 11.997033724504558], [14.655213608522313, 5.971373126817986, 12.31286283157182, 99999999.0, 6.038333931183936, 6.843619823963944, 8.423545372379635, 13.612624136587778, 11.403283350658787, 11.094427910729522, 5.261668081144092, 6.794859555965562, 12.027467603345018, 6.661603928911257, 14.806535388098155, 11.079660258954824, 6.283904219942836, 14.966976360612204, 6.932395576545499, 6.145653757847439, 7.131583567278041, 14.65648402950156, 13.92384433703063, 7.2514246197595265, 13.314868723441775, 6.8671466001907, 11.481038275956518, 8.354156905631841, 13.233298835969617, 13.31871143232674], [13.926763919858278, 9.134677490747618, 10.527954842224684, 6.038333931183936, 99999999.0, 6.774637333640198, 14.66284599994206, 7.972697499679202, 13.202673044837425, 12.491270719852157, 11.546229641170722, 12.819647865237258, 13.081307117253695, 7.285678808694293, 7.587878965907409, 9.35467850753345, 9.851817716058559, 5.439802174722368, 8.082778000950999, 7.9048628346590135, 8.782648424326712, 14.172310070202577, 14.247063611369486, 13.651957598750545, 10.234217314364315, 14.485347115388151, 12.154099571840167, 11.122512932792329, 12.140332752744602, 8.717475661128526], [6.6195974254950665, 10.110710144201196, 9.493569648875965, 6.843619823963944, 6.774637333640198, 99999999.0, 12.00264285828385, 8.682194111581236, 5.037676938564646, 11.63539441354692, 13.676174501854868, 5.010909963516982, 8.811166004636418, 8.452982399811145, 12.546009089425107, 6.334876116748676, 7.226139688873989, 10.09218077908655, 14.647086631095217, 10.166428089475042, 11.310419801380633, 14.661067406770416, 6.3592950619098065, 5.2691545119158825, 6.996967098018713, 9.846040626823417, 12.168592627008714, 5.693093272641879, 9.749746211372292, 13.136052511572892], [9.333977016395231, 8.174252083896771, 11.296453437752302, 8.423545372379635, 14.66284599994206, 12.00264285828385, 99999999.0, 8.665344775114109, 9.528870766766692, 7.007101216234557, 10.344426578600654, 7.692376163375129, 7.923758383074755, 12.478504111977395, 13.149597886986692, 6.640887795603212, 5.611695269518076, 6.807750852231379, 10.26375473736056, 11.37160021262429, 9.312584702692162, 9.022778580892455, 14.296180102011862, 5.554613714676639, 14.215788723040387, 11.31965417429689, 13.086442339403385, 6.908513401880709, 14.71699866271157, 5.887540266769418], [6.142793884766601, 5.8159786212887985, 5.110675643266288, 13.612624136587778, 7.972697499679202, 8.682194111581236, 8.665344775114109, 99999999.0, 7.888086324452329, 11.430261953529357, 10.955984688586595, 9.974276592285001, 9.506598340620442, 11.215883421722367, 14.788487503957649, 8.105457585825544, 11.79771684250226, 14.957587094029615, 8.298929242751004, 5.375969536167366, 8.461266628994533, 8.841315153284405, 9.55421269913884, 14.445933149632591, 14.46872497547582, 8.217907957704998, 8.02230264234392, 12.167823515553934, 9.552425105363586, 10.263320882412126], [9.071379653704263, 6.671995889192695, 6.112277237593277, 11.403283350658787, 13.202673044837425, 5.037676938564646, 9.528870766766692, 7.888086324452329, 99999999.0, 5.493100870176292, 12.700577275568975, 13.092094777769912, 11.95006588512962, 13.697118734237351, 11.471945831340804, 10.586100242847682, 7.013217964123805, 14.919633957026193, 8.734935253739614, 11.870027325012263, 8.858429537287982, 10.921126486148928, 11.242104580906188, 9.382555889414753, 13.425918853890446, 13.439435702837566, 10.418954343637244, 6.280243851412772, 13.120020267847325, 7.523467667461722], [5.842879641193296, 14.909672564057297, 5.215171158367406, 11.094427910729522, 12.491270719852157, 11.63539441354692, 7.007101216234557, 11.430261953529357, 5.493100870176292, 99999999.0, 10.88828152904451, 5.51155253276301, 7.627751822523267, 5.464217586117125, 14.193674510830977, 12.314274732047778, 8.002251536388064, 10.593603682313073, 8.629678209009123, 11.456399996764548, 8.865834017859498, 7.076357362961976, 5.099985097463248, 11.069895505227304, 10.52294902221873, 8.71403413314026, 12.196157629514001, 11.923266160857617, 5.54654897686662, 10.300612624288181], [8.436508274982113, 12.515172018481044, 5.086332566670057, 5.261668081144092, 11.546229641170722, 13.676174501854868, 10.344426578600654, 10.955984688586595, 12.700577275568975, 10.88828152904451, 99999999.0, 13.813654472701348, 10.165034189660291, 6.677626066042196, 6.557692040442008, 14.69553211804811, 9.530186341854954, 12.137588883310048, 9.365581876003542, 8.714259366374954, 6.852252870972324, 14.0319105152512, 5.842520361631692, 7.682743609613597, 7.631704963442722, 8.012308205490534, 5.31984578211243, 14.624567534631934, 9.309170468481536, 7.596502853170058], [6.873231911476037, 13.653231495426413, 8.99000919655344, 6.794859555965562, 12.819647865237258, 5.010909963516982, 7.692376163375129, 9.974276592285001, 13.092094777769912, 5.51155253276301, 13.813654472701348, 99999999.0, 10.260992561145653, 13.768750566950738, 9.629741615604697, 13.38483769521471, 7.896892439701403, 10.583823406174915, 5.402494391012142, 7.776941683967848, 7.2034906274067145, 13.031426894539726, 6.622819345859087, 7.456878628953043, 14.043737544596313, 12.046127329194753, 10.398418613692531, 9.402470753215093, 7.06911989876544, 8.555038597601866], [10.724737762783839, 7.185491720244833, 8.999654112573642, 12.027467603345018, 13.081307117253695, 8.811166004636418, 7.923758383074755, 9.506598340620442, 11.95006588512962, 7.627751822523267, 10.165034189660291, 10.260992561145653, 99999999.0, 14.456420892642571, 8.036594605529373, 7.089042900723779, 10.406241478158782, 11.246820107529864, 8.382373669464883, 13.76747847350946, 9.30346074040467, 12.755570067123815, 6.871773120997776, 6.989940029830713, 13.662157033091354, 10.723824867544694, 5.388776633670692, 8.222986140122824, 6.246875371936696, 6.761162368994596], [7.264250755848672, 8.046796485763227, 13.086699214165947, 6.661603928911257, 7.285678808694293, 8.452982399811145, 12.478504111977395, 11.215883421722367, 13.697118734237351, 5.464217586117125, 6.677626066042196, 13.768750566950738, 14.456420892642571, 99999999.0, 13.03961986192905, 10.447289877847133, 9.570488415474442, 13.089391887011125, 5.913815687819324, 12.455493162925645, 10.923615083143549, 5.8884124430147375, 6.676787186576595, 7.806547683541094, 7.069205371835794, 9.346256369348069, 12.965788132813701, 7.401389383278466, 14.071690286256239, 9.016196441090196], [14.419205431782387, 12.847882231736543, 9.316835600180987, 14.806535388098155, 7.587878965907409, 12.546009089425107, 13.149597886986692, 14.788487503957649, 11.471945831340804, 14.193674510830977, 6.557692040442008, 9.629741615604697, 8.036594605529373, 13.03961986192905, 99999999.0, 6.367340942504559, 7.132789656667199, 6.322518077094912, 10.274149717570031, 14.287012456570466, 8.756261705946228, 14.433361929259435, 10.62088400706008, 5.398296026844996, 8.461701740982896, 11.326576369687634, 8.34116581019312, 14.459561138417067, 10.322377304266933, 5.321262916044112], [13.788063542114195, 6.5322521723904705, 5.610929636747612, 11.079660258954824, 9.35467850753345, 6.334876116748676, 6.640887795603212, 8.105457585825544, 10.586100242847682, 12.314274732047778, 14.69553211804811, 13.38483769521471, 7.089042900723779, 10.447289877847133, 6.367340942504559, 99999999.0, 14.87205689167057, 11.702375397081015, 5.081408958769764, 13.56319410183456, 7.632472399957302, 6.295778565308549, 10.29120459726657, 5.671471879482271, 6.930972117855603, 14.940685378842685, 10.620610259334082, 13.263378048952076, 6.5005945782838275, 12.800193829229496], [6.738566736278524, 9.286112009049331, 7.6138207680128955, 6.283904219942836, 9.851817716058559, 7.226139688873989, 5.611695269518076, 11.79771684250226, 7.013217964123805, 8.002251536388064, 9.530186341854954, 7.896892439701403, 10.406241478158782, 9.570488415474442, 7.132789656667199, 14.87205689167057, 99999999.0, 10.289913954633125, 5.388267700581697, 12.5698156240675, 10.709408782560867, 14.124853794083439, 8.494590252274623, 12.98412665773976, 5.590170294170031, 6.58603872049577, 6.341075580742013, 14.62084927543124, 11.505263991106606, 13.069133651220845], [14.135149462228757, 9.354237717337234, 7.592303498480914, 14.966976360612204, 5.439802174722368, 10.09218077908655, 6.807750852231379, 14.957587094029615, 14.919633957026193, 10.593603682313073, 12.137588883310048, 10.583823406174915, 11.246820107529864, 13.089391887011125, 6.322518077094912, 11.702375397081015, 10.289913954633125, 99999999.0, 11.013152292356569, 14.803193953364039, 9.990712917067, 10.034704618319697, 10.574300072610432, 7.62823152551741, 11.095642982002673, 7.202683559525779, 8.14343747466729, 13.068719689368839, 7.467044244416444, 9.127342891800122], [14.522924595656985, 6.00737372201783, 8.523188826353609, 6.932395576545499, 8.082778000950999, 14.647086631095217, 10.26375473736056, 8.298929242751004, 8.734935253739614, 8.629678209009123, 9.365581876003542, 5.402494391012142, 8.382373669464883, 5.913815687819324, 10.274149717570031, 5.081408958769764, 5.388267700581697, 11.013152292356569, 99999999.0, 13.364248119605334, 7.096220225713399, 10.922003345202375, 10.941916028295493, 10.949920108169941, 9.719192611898611, 6.698153995948699, 5.241317092227135, 13.505510140709232, 11.663220109172787, 5.642203457464473], [9.251038120983324, 14.270324699937008, 11.958793354707405, 6.145653757847439, 7.9048628346590135, 10.166428089475042, 11.37160021262429, 5.375969536167366, 11.870027325012263, 11.456399996764548, 8.714259366374954, 7.776941683967848, 13.76747847350946, 12.455493162925645, 14.287012456570466, 13.56319410183456, 12.5698156240675, 14.803193953364039, 13.364248119605334, 99999999.0, 5.775264055169514, 9.368207818217133, 8.222633929926698, 8.375073810340854, 11.964822055754937, 11.110093885260735, 8.347206692933675, 12.441067370761232, 12.25955617481235, 12.143614877926431], [12.787098141811938, 7.473776515827976, 7.9280948341666075, 7.131583567278041, 8.782648424326712, 11.310419801380633, 9.312584702692162, 8.461266628994533, 8.858429537287982, 8.865834017859498, 6.852252870972324, 7.2034906274067145, 9.30346074040467, 10.923615083143549, 8.756261705946228, 7.632472399957302, 10.709408782560867, 9.990712917067, 7.096220225713399, 5.775264055169514, 99999999.0, 13.773673544997939, 9.29491793238922, 7.927971182614048, 14.851810833724068, 10.766727877086296, 7.611809192509421, 11.725847724807181, 8.603462098256685, 10.683849965140972], [5.343701427426225, 14.405451897087854, 10.22881666597327, 14.65648402950156, 14.172310070202577, 14.661067406770416, 9.022778580892455, 8.841315153284405, 10.921126486148928, 7.076357362961976, 14.0319105152512, 13.031426894539726, 12.755570067123815, 5.8884124430147375, 14.433361929259435, 6.295778565308549, 14.124853794083439, 10.034704618319697, 10.922003345202375, 9.368207818217133, 13.773673544997939, 99999999.0, 11.682372741623736, 6.9323559356494036, 14.08849539387308, 14.48989266724493, 10.085493406951144, 8.393742517730551, 9.242875473356289, 12.97612553874449], [8.467592323454376, 7.869683145412981, 11.426432331952281, 13.92384433703063, 14.247063611369486, 6.3592950619098065, 14.296180102011862, 9.55421269913884, 11.242104580906188, 5.099985097463248, 5.842520361631692, 6.622819345859087, 6.871773120997776, 6.676787186576595, 10.62088400706008, 10.29120459726657, 8.494590252274623, 10.574300072610432, 10.941916028295493, 8.222633929926698, 9.29491793238922, 11.682372741623736, 99999999.0, 12.569118938672963, 7.222537134471301, 14.43512618486212, 6.399417580043143, 12.706362556154332, 9.851763515989044, 14.853592941938757], [11.5701948246682, 8.168412147364666, 10.070344601335446, 7.2514246197595265, 13.651957598750545, 5.2691545119158825, 5.554613714676639, 14.445933149632591, 9.382555889414753, 11.069895505227304, 7.682743609613597, 7.456878628953043, 6.989940029830713, 7.806547683541094, 5.398296026844996, 5.671471879482271, 12.98412665773976, 7.62823152551741, 10.949920108169941, 8.375073810340854, 7.927971182614048, 6.9323559356494036, 12.569118938672963, 99999999.0, 8.926115171555745, 8.402415008174522, 12.25754754831377, 6.685948972094763, 14.417038463111792, 10.304995457548088], [10.265769697249063, 12.62001903902225, 11.299995987108336, 13.314868723441775, 10.234217314364315, 6.996967098018713, 14.215788723040387, 14.46872497547582, 13.425918853890446, 10.52294902221873, 7.631704963442722, 14.043737544596313, 13.662157033091354, 7.069205371835794, 8.461701740982896, 6.930972117855603, 5.590170294170031, 11.095642982002673, 9.719192611898611, 11.964822055754937, 14.851810833724068, 14.08849539387308, 7.222537134471301, 8.926115171555745, 99999999.0, 11.882383240810247, 7.273469050782801, 9.61723743855751, 12.383230128128044, 10.77860680593827], [5.829311770003595, 7.699141702221418, 6.624296115176559, 6.8671466001907, 14.485347115388151, 9.846040626823417, 11.31965417429689, 8.217907957704998, 13.439435702837566, 8.71403413314026, 8.012308205490534, 12.046127329194753, 10.723824867544694, 9.346256369348069, 11.326576369687634, 14.940685378842685, 6.58603872049577, 7.202683559525779, 6.698153995948699, 11.110093885260735, 10.766727877086296, 14.48989266724493, 14.43512618486212, 8.402415008174522, 11.882383240810247, 99999999.0, 9.14385724657837, 13.949311689717899, 7.562202275477411, 5.5306957351212755], [9.366805988538168, 6.174788739891241, 9.90658811309876, 11.481038275956518, 12.154099571840167, 12.168592627008714, 13.086442339403385, 8.02230264234392, 10.418954343637244, 12.196157629514001, 5.31984578211243, 10.398418613692531, 5.388776633670692, 12.965788132813701, 8.34116581019312, 10.620610259334082, 6.341075580742013, 8.14343747466729, 5.241317092227135, 8.347206692933675, 7.611809192509421, 10.085493406951144, 6.399417580043143, 12.25754754831377, 7.273469050782801, 9.14385724657837, 99999999.0, 8.341217700328155, 10.51620102208517, 14.214428797300583], [10.278623555077946, 9.416844583385538, 14.625257833360115, 8.354156905631841, 11.122512932792329, 5.693093272641879, 6.908513401880709, 12.167823515553934, 6.280243851412772, 11.923266160857617, 14.624567534631934, 9.402470753215093, 8.222986140122824, 7.401389383278466, 14.459561138417067, 13.263378048952076, 14.62084927543124, 13.068719689368839, 13.505510140709232, 12.441067370761232, 11.725847724807181, 8.393742517730551, 12.706362556154332, 6.685948972094763, 9.61723743855751, 13.949311689717899, 8.341217700328155, 99999999.0, 14.971938552836955, 14.359504331114994], [8.360447491647482, 11.64269628840616, 5.029006667209696, 13.233298835969617, 12.140332752744602, 9.749746211372292, 14.71699866271157, 9.552425105363586, 13.120020267847325, 5.54654897686662, 9.309170468481536, 7.06911989876544, 6.246875371936696, 14.071690286256239, 10.322377304266933, 6.5005945782838275, 11.505263991106606, 7.467044244416444, 11.663220109172787, 12.25955617481235, 8.603462098256685, 9.242875473356289, 9.851763515989044, 14.417038463111792, 12.383230128128044, 7.562202275477411, 10.51620102208517, 14.971938552836955, 99999999.0, 13.115070293932066], [8.827247527172267, 7.297527820545121, 11.997033724504558, 13.31871143232674, 8.717475661128526, 13.136052511572892, 5.887540266769418, 10.263320882412126, 7.523467667461722, 10.300612624288181, 7.596502853170058, 8.555038597601866, 6.761162368994596, 9.016196441090196, 5.321262916044112, 12.800193829229496, 13.069133651220845, 9.127342891800122, 5.642203457464473, 12.143614877926431, 10.683849965140972, 12.97612553874449, 14.853592941938757, 10.304995457548088, 10.77860680593827, 5.5306957351212755, 14.214428797300583, 14.359504331114994, 13.115070293932066, 99999999.0]], "M": 99999999.0}