{"num_workers": 25, "num_roles": 4, "num_nodes": 30, "w": [[0, 0], [299.1431828471017, 336.0116026658011], [18.116858425704063, 46.17658988087992], [48.48620562378927, 74.33941053196403], [106.38489657396428, 142.5057958269473], [361.0500478885557, 393.0737365855237], [168.81087224802897, 204.0372837626486], [157.98995012597626, 193.4627590377787], [389.15459529655124, 414.95355481074347], [358.3001495678648, 391.15672731778307], [141.81224971326498, 172.28824820840833], [250.63710780648222, 285.75256782421707], [414.10322728763487, 441.22303445199793], [170.43301137508482, 209.95143125343174], [339.11636478552566, 368.9317052379345], [21.500254843695693, 55.222710757146494], [165.10684003651443, 191.13858174836486], [116.67572737234453, 147.3470915761859], [15.939618896034364, 48.9082152363212], [371.45245390671624, 406.5303941841439], [340.56358332206645, 379.96263908922435], [156.25531990182617, 184.55856589963756], [390.3366228978412, 428.40944858340686], [224.7388172768101, 255.0370915678851], [399.09974773427996, 435.9887270825508], [239.5893447655144, 266.6521085676614], [95.47413234226995, 131.48720975946466], [246.41891962583608, 285.90710851686424], [175.83486078959845, 207.739662544988], [0, 450]], "p": [0, 16.13974764152376, 10.419123992555562, 10.069546145791513, 21.147716916873314, 15.52437815088498, 21.255372419724317, 21.619189697510677, 10.577606783079313, 16.312184851905688, 18.70565936066134, 10.914241802742582, 8.064584900312513, 20.77819945360629, 14.87371970413619, 15.48590346661363, 16.057881137450906, 17.806471780711593, 18.96742353142242, 15.550213844787578, 14.95850139765522, 11.066760779039004, 15.726139977743596, 18.471390158724258, 9.493507846496115, 14.159621871457617, 13.169495450774725, 21.399119547356122, 15.554612646843772, 0], "e": [[1, 0, 0, 1], [0, 1, 1, 0], [0, 0, 1, 1], [0, 1, 1, 0], [1, 0, 0, 1], [1, 1, 0, 0], [1, 0, 0, 1], [0, 1, 0, 1], [1, 1, 0, 0], [0, 1, 1, 0], [1, 0, 1, 0], [1, 0, 0, 1], [0, 1, 1, 0], [1, 0, 0, 1], [0, 1, 0, 1], [0, 0, 1, 0], [0, 0, 1, 0], [0, 1, 0, 0], [0, 0, 1, 0], [0, 0, 0, 1], [0, 0, 0, 1], [0, 0, 1, 0], [1, 0, 0, 0], [1, 0, 0, 0], [0, 1, 0, 0]], "d": [[0, 2, 2, 1, 0, 2, 4, 1, 1, 1, 0, 0, 1, 2, 3, 0, 2, 3, 1, 1, 1, 1, 2, 3, 2, 1, 0, 1], [0, 0, 2, 2, 2, 1, 0, 6, 0, 1, 2, 2, 1, 2, 0, 1, 1, 2, 0, 1, 1, 1, 2, 1, 1, 1, 0, 4], [2, 0, 2, 2, 2, 0, 1, 0, 2, 2, 3, 1, 1, 3, 0, 1, 1, 1, 1, 1, 0, 3, 3, 2, 1, 2, 3, 2], [4, 1, 0, 1, 4, 0, 0, 1, 1, 0, 1, 1, 1, 1, 0, 1, 1, 0, 1, 1, 1, 0, 1, 1, 4, 0, 0, 0]], "r": [144.17402852049648, 90.07517766672684, 96.82741479192384, 175.7803581278606, 149.99973144049588, 141.34746562164472, 105.30768844978974, 69.24182626250085, 164.04718383610881, 168.88617385535673, 175.19736451776595, 133.930856316737, 103.40415821926393, 111.05375312364936, 133.69867133881888, 153.3594079376926, 142.67286477011723, 115.45508418958552, 79.32649118877886, 170.60302285315254, 176.23363996434625, 144.64947846381673, 56.45553076397251, 85.51542610764076, 194.07772783615317, 114.19523828607433, 199.2505173841372, 142.71620382861022], "b": [[[0.5861927925989674, 1.313386298285848, 1.5889260876792264, 1.0868739016534557, -2.808276488762325, 2.9360498159477855, -0.028885929429079304, 1.8983698198273142, -0.4751334834956742, -2.022732980604597, 0.12232181536529074, -1.699660195278671, -1.1369677882806222, -1.882370401893271, -2.9035845946705425, -2.524779500848038, -2.3948053203880857, -2.303001284724284, -1.9726721294029863, 2.5258349113618994, 2.4353206321329175, 2.0050742105997115, -0.6795973997249072, 1.530282429001124, 0.8961312794749352, 0.9665627283866165, 0.060463106310374215, 0.38544201886654506], [1.5992943756892704, 0.6376329935627991, -2.538649825466265, -0.8858583718886939, 2.766108731863042, -1.9871120040946126, -1.2996273014262432, -1.9292767944079188, -1.753046826331547, 0.1414417319169785, -2.487109732760351, 1.5099266547388552, 2.510244699244957, -0.8784392396990466, -0.41016212007084896, 2.8279817579711164, 0.7382724131835738, 1.1072709799079465, -0.5655571024329502, -0.4155139472308029, -0.49718608234423556, 2.224511302096211, -2.816987488805986, 1.4959052630306386, -2.641946219919724, 0.7492484871789182, -2.78379994726427, -2.17478110377756], [-1.4087742193413295, -1.9796200458516724, -2.2250734846055074, -0.38101121584334496, 1.9090523336683365, 2.822265327461948, 0.347947345852361, 0.1647461136117272, 2.948691275534479, -0.5297551756779466, -2.443290564638396, 0.4582736472573621, 0.9826356805788699, -0.13690160072461754, -2.2635358302442667, 2.5713008647365747, 2.551887135804507, -0.7928196465001518, 1.5161926855655583, 1.3131096249328023, 1.557730064605387, -2.2514478798012085, 2.655276288708878, 2.930987772540698, -2.4154304475497113, 2.5542027503590647, -1.1559031475997574, -2.338383261788132], [-0.016492328457534455, -1.8484724263061627, -2.154646747600488, -1.6975499611575187, 0.7082018356090174, 1.7041417889243577, -2.9924992949500693, 2.7481868435973507, 0.1022560607709262, -2.9867281479135164, 2.4614559033523227, 1.6845406770706006, -1.1208311803227342, -0.30369997393475856, 2.8076130055356554, -0.5922723752605807, -2.4804227675463117, -1.156550555302183, -1.0704622033516142, -1.9039937969163334, 1.3493263492382717, -1.0404611563553972, -1.4290843958777921, 1.8296084439927913, 2.903868051401501, 0.19820501145026714, 2.303954722480568, -0.9636884817160558]], [[0.003840550673618992, -1.4662009199220063, -0.2169885258111428, -0.925124363212368, 0.31773636902817426, -2.1844305664563213, -0.24128364479669795, 1.6751869692140087, -2.405383773228001, -2.964512172748562, 2.7497607122652887, -2.520060487865636, -0.34568756571358517, -1.5816991269193705, 1.1439454527108452, 2.259640471052853, -0.7359933565630019, -1.9502630324080934, 1.877002522233692, 0.8496974976460177, 2.5666743293013035, -0.9871411587480408, 2.9468885308636317, 1.119279183095851, 1.988407698723222, -1.0545298984822251, 2.4791934176953863, 0.48205034416954406], [-2.7051726868378125, -2.4781209576723713, 1.0531980189985157, 1.4709633251787455, -0.42355719510667456, 2.820178119479505, -1.4446738605076495, 0.08132580984418825, -2.5523697618119305, -1.6701025974170587, 1.4150237726009163, -2.1217031697392605, -2.5417927726147482, -2.7834287865593277, -1.090669071701337, -0.10430469300450707, 1.6113539954490914, 2.5680679509105175, -0.5675926298027232, -1.2317048010178762, 0.9320792418970414, 0.6771941260594669, 1.8474709030782286, -1.3495844293800778, -1.7473213715697427, 1.3162756932838988, -2.0525433031119493, 0.6889951691273737], [-2.170617339795079, -1.5683440164272529, -1.11038514001898, 2.338377041527975, -0.08273876427686266, 0.17133680886353098, -1.33687307452133, -0.5148860236046051, 2.886404966994772, -2.550959033736663, 0.48885728431740816, -1.7597537236964542, 0.9357420813365485, -0.43469254471292196, 2.69202685271442, -1.375221980359395, -0.5218081664357475, 2.2038718512562205, 1.197165210108201, 0.8457909375174704, -1.042509965702587, -1.2839387874821173, -1.8592948554403468, -0.2995225433763844, 0.9419663263279308, -0.14089463691209136, 1.4644685851797528, 2.2506731261682864], [-2.120809879271685, 2.557861875652101, 1.4554380815485963, 1.0907634067344265, 1.4581493380568409, 1.7369027947888451, -0.5056933015818648, 1.6848644159587796, 1.115613809513805, -2.972205111265187, 2.251042584762315, -2.457453362064739, 2.9007844663282913, -1.5285794560324864, -2.9838541714675273, -2.3125825470355483, 2.461687072636126, -0.29744032232114037, -0.5485163938249693, -2.952121945048093, -1.115770449831824, 2.850598389253669, -0.6230615037149629, 2.4274005420707265, 0.4198671697299927, 1.710005890829052, 0.5381065321439804, -1.9361813763922993]], [[2.0112675187808495, 0.8674261827230705, 0.4733149675323052, 0.8763959393778649, 0.6379252666738795, -2.888177977294503, -1.1211811265614537, -2.167870013220706, 2.487533130205753, 1.635359955726421, -1.636675325175861, 2.5035489656066545, 1.7334971623356745, 0.534194304084803, 1.2398907778149129, -1.5642004187912546, 1.3234407383046936, 0.6065643887258272, -0.16136001774245923, -1.4673495637752083, 2.9126968823226296, 2.8275716640932007, -0.30956358804023854, -0.25360203536056325, 1.0155492848703966, 2.9435968366416914, 2.6356848320183044, 1.053770795576555], [-0.7734280446634023, 1.6533614766036973, 1.5516874478466374, -2.1403015356733857, 0.6914984377063154, 1.8032793415004758, 2.040505810276837, 2.550527918303705, 2.5930572876164986, -0.9956624413846225, 2.468307600252542, 2.431130993584109, 0.13811856233585296, -0.34943169384011163, -0.6764940042642351, -0.5413075740182212, -1.0820534149751244, -2.848558153937551, -2.6105273656345473, 0.296118401826325, 2.456202105764609, -0.9431904087243508, 0.13946443946971776, -0.32078538261017675, -0.12691290592118953, 2.3154828612359566, -1.2006507211181559, 0.10832375493100521], [1.5287637109725578, -0.5852864650815168, 1.6795319943444724, -2.6505359530996895, -0.2536953233974488, 0.8545355208129326, -2.273209957652642, 1.7091724648109095, -2.480622696330016, -2.4997713639323247, 1.244478665977729, -1.6930806506995748, 2.337680949779937, -1.0334589862045076, 1.4471551132717977, -1.2729327952803278, 2.664299387711675, 2.216472131883881, 1.5562690944749349, 0.17536773422232343, -2.5607439175513624, 1.048735299312507, -2.1574523671447428, 1.6075937285521684, 0.009299941333210882, 0.20754633251566812, -1.8646336978361433, -2.202309445337254], [1.104469631449371, 2.9413277837221976, 0.2073452925835797, 1.4594917657988233, -0.11017807310781969, -0.2869891613209741, 1.2666879923159788, 2.9664347407945737, 1.9339851332338762, 0.6856196658641509, 2.3765278686012987, -1.0463259848040998, 2.2973159232600224, -0.6670900492908309, -2.207086971631845, -0.0327087048827579, -1.5189335217270554, -0.7081917345897448, -1.590009228490376, 2.847257396146748, -2.4165809346614315, 2.6109839199259337, -2.6023802682852044, -0.2822759896591984, 1.7608576461662864, 2.822221794458012, 1.2948915072114353, -1.8210125707795666]], [[1.8881593775555006, -1.4332325000887902, -0.5043271421202027, 2.9030707559757207, 1.3618923056321846, -1.1077799917752655, 2.267428734505846, -2.5618508122294905, 2.9710934783495766, 2.908572998405834, 2.945609822551181, 0.7410209785266688, -1.3557057266803165, -1.4346043995570072, 0.0034848681844836804, -0.48353033293351366, 1.7702013882820413, 2.948757940416723, -1.5876109743306845, -0.7913516659513893, -2.0148411999335427, 1.070230278549487, 2.102106020578022, 2.9707080421210934, -0.41636170686967233, 0.24563192327529304, -0.16491686851634668, 1.6076293411715774], [2.306237037569092, 0.20264922113175876, -2.717050547914967, 1.7536845669442576, -0.7620470566104283, 0.8957102622660518, -1.8805412771413323, 2.6669617667419168, -1.058138340364817, -1.4067688474702071, -2.550269121170727, -2.144654147281531, 1.6156186243830728, 1.0617699177405164, -1.4523456468116671, 2.8871083791708454, 2.633468980967132, 1.7597734227289088, -2.7352412151693564, 1.5502697172814308, 2.1187051437249567, 2.2634290686470493, -0.5212102473884714, -2.774727939548801, 0.010423006520380085, -0.8066406456370094, -0.03203881730808522, -0.056296067279304474], [-1.9660904627888571, -2.8518044048641142, -0.3270710709964568, 0.9085943687120652, -0.6480914016675028, 2.7267334327067747, 1.1489349384211769, 1.3172791577983753, 1.358877649718636, 1.5843373100177462, 1.2214107868067767, -2.0763314038596152, 0.2785774939251793, -0.7633227151005615, 1.8968241633333207, -0.003952918246503678, -0.6498436144609201, 0.46185321557182135, -2.423575535358779, 0.3974699296814821, -0.8456645171237787, -0.2871555268182391, -2.0875184323754525, 0.4765132423797236, 2.5389508169275743, 2.4044977294059935, -1.898486611763366, -0.6535746934520161], [0.11500649330401558, -2.793155482101098, -0.7981175058421837, -2.512828331342364, -0.5234756880979923, 2.505211844769824, 2.6787699626198966, -2.1001992313809152, 0.9578973596380354, 1.9488407460998616, 0.5320389043063485, -2.1857075927115517, -1.88673948256591, 2.6969425173313653, -0.5877361588574876, -2.1705269963825478, 1.260439167068525, 0.6031904719842167, -1.9645868852704524, 1.8930694176535958, -0.380765758358832, -1.5131109404132759, -2.5730661676510973, 2.9473060298152873, 0.5927021824803846, -1.010484583337223, -1.7022152639623225, -2.124503599968042]], [[-1.9835422657262696, -0.9886858771064504, 2.807433262252208, 1.1132840774713344, 1.0680813023480464, 1.8284872779219805, -1.3296377282560967, 1.689823993171669, -1.392173390103555, 1.414320557790207, -1.4248104284602743, 1.8521045796768725, -1.1683371517794994, 1.3498264406349962, -1.143919194928819, -0.19264804471807206, -2.6950095896796036, 1.3074127373350528, 1.1524068136650518, 0.5240204273250444, 2.355816373874733, -0.8780662668856385, -2.1381237705102363, -0.3126116603525029, -2.742306339699529, 1.6019757839639892, -0.6999512586688432, 2.0440702933571364], [-2.897078066496336, 0.5985153201249513, 2.4388703863309322, -0.18481449108259174, 0.7917072975831485, 1.386806520625118, -0.12441361579692511, -1.557796663392446, -0.5434375968863208, 1.5726227644283899, 2.9949074767274597, 0.7036158944125659, -0.021880643067144323, -0.10790727928586286, 2.4742860242385447, 2.721999285855757, 0.29296517915240994, 1.8863299043669084, 0.1637061399640629, -0.9054957380175126, -1.707888771171223, -0.78254840677356, -2.979228970394183, -0.5578456073505524, 0.4299028227834807, 1.3873218636591043, 2.8893176314392806, -1.4977959315994045], [1.7105900592763277, -0.7830282480793387, -2.5524334237481052, -0.7927892339799252, 1.3860684114276989, -0.8080426261888425, 2.6019824633533863, -2.4712832790520993, 0.6723769833743818, 2.967197565414044, -2.394656079425901, -2.8668894433480805, 2.7620695235456934, -1.1779371280618818, -0.5350380415150973, -0.22522569077969123, 2.0541620149748656, -0.9461084788800775, -1.8831402208304246, 0.42017866624419664, -1.5492249719772646, -0.2609840884577963, -2.6489904115846334, -1.8796205414528615, -2.4527055108372977, 1.18277199312862, 0.21239719542196678, 2.3538646337605433], [0.9793309903959466, -2.238150759967671, 2.736135525781612, -0.45214785590955753, 1.091173781294021, 0.750950465903057, 1.1421476130088948, -0.6886544402235133, 1.5797134824786276, 1.9259528751158692, 2.9270595116577907, 2.6663840939392394, 0.7960264684093756, 1.3643201744152904, 1.3012125889933959, -1.2640171894407695, 0.71450758638208, -2.0892190511566846, 1.645649928214394, -1.8278268041280357, -0.26000776605472353, -1.2647794139418032, -0.8789492517470894, 0.8094633971166485, 2.3751108395884355, 2.7897069451506695, 1.1481086520588732, 2.6877096260300783]], [[2.001178239760578, -1.6044760600028172, 0.14848554716225149, -2.364752252414176, -2.1959668644494554, -2.7758822354555286, 2.482243657045598, 0.09114022934569288, -0.15473215660105621, -1.9530078115970493, 2.926206011208073, -1.192808333843815, -0.18793636176185746, -2.9398784691762834, -1.4641544452304647, 2.5668326617604613, 0.9618824827488277, 1.4455310501644068, 1.2929892993123362, 2.001143075314329, -2.534690403394282, -2.514255888196772, 1.0918772458625536, 1.5927234082196229, 1.0795703784934494, 2.604017046950853, -2.035715005792719, 2.1397845730457856], [1.3544927628501142, 2.143805319114204, -0.18698827279028674, -2.1516078058106953, 1.8497933041045975, -0.5467137731677463, -1.195847496556035, -2.2617022445768553, -0.22132195880518335, -1.109869974626644, 1.4881641208782108, 1.3238050909581647, -1.4979478379263338, -0.782105430173853, 2.274140244741293, 2.9996223986647452, 0.5833332588870315, 0.03779210014421297, 2.2172631009722945, 1.2308480608732992, -1.0735714445125097, 2.4591434655078164, 0.793480248048593, -2.0785159800213724, 1.8673606225379071, -2.9008797528759294, -1.7223764951059224, 0.4074616453951059], [-2.571105125196328, -0.8588567142895469, -2.522425977663529, 2.9702027933081663, -1.4828665053746513, 1.8064983544565694, -0.7944463248117772, -1.0291759527856275, 0.25090523903436335, -1.3911615778962894, 1.9621171566515327, -2.9285466027198677, -0.13775415825057014, -0.12410219047604532, -2.2652711919970274, 1.0132863209483114, 0.35894230659764137, 2.582631452592169, -2.83668638707568, -0.6700085817414028, 0.6795893213219735, 0.0005465306280916238, 2.664690156566383, 2.6714306935141936, -1.9066153247877373, -1.2029585675557026, 2.5298932582692526, -0.9933980502678379], [2.254914200268183, 0.5471084158611585, -2.5001893686404175, -0.7582854922866371, -2.5989673268345244, 1.7040758108731797, -0.11750850674972213, 1.119413138991936, -0.6036291203079722, 2.8383693876462583, 2.377315259134563, 2.3663519723091087, 0.2963159675525313, 1.043462338815667, -2.2981358607376268, 0.3027820431641013, 1.4094658427112048, -2.899190296454835, 1.8043174097980073, 2.092041050390554, -1.1519594503292985, -0.1989872023330781, -1.6045603732611462, -0.8745826448215306, 1.0872959822707893, -0.789400052940139, 1.361386810384305, -1.612697056022282]], [[1.1929867692638778, -2.3137064904840496, -0.5462234791781682, 0.742853079128893, 0.2880696268727272, -0.6883361378262531, 1.1990127567184086, -1.9814784243136587, 0.5170656814703802, 1.7789311315871101, -1.712050243138405, 2.2162252503341078, -0.07582867220455203, 1.5701139653225713, -1.1307886807417666, 2.6985100579815278, 1.7437014258763348, -1.6154549044665545, -1.5474530702369538, 0.9455321299410526, -1.4014215721073047, -0.31341798248325237, -0.4865228805263069, 2.516808816947382, -0.46514023856689235, -2.8050840248379965, 0.7090889222931347, -1.612265926897169], [-1.1324943336055089, 1.9122546509671148, 0.03837466282257562, 0.4198876446758426, -1.1073576322635668, -2.2906434346546156, 2.8560376062657165, -0.6096949394695401, 1.4497403322634579, 1.516321312395097, 0.09981652402887065, 1.2895521773557128, -0.42128324778890525, -2.629948364793513, -0.021896958461422145, -1.3583047051520016, 2.642083458617053, -2.125391147609777, -1.6566562223210148, 0.8825689272029917, -2.3618739888399185, 1.647649015405153, 2.357264227834471, -1.5442184913500923, 0.629161755937508, 1.8789310742638827, -1.8174068848276477, 0.4642098426494563], [-0.327371890214057, 1.2797460625039916, -0.4389262132101388, -1.8774812194764388, 1.1722578129663903, 2.6293180995098524, -1.3546499800846497, 0.5746289743375912, -1.9351634047839186, 0.9392058900578855, 0.8185562747832398, 2.3850879673601737, 2.45271598426556, -0.1911377590716299, 1.269394404263826, -1.3361764155508837, 0.6941853391140294, 2.875868937292604, 0.9830758000495026, -0.7552633172890149, -2.9947020523365193, -0.6326549350878707, 2.531705612030927, -1.943193591753184, 2.7141051197314745, -2.841682214420274, 2.5038382721625343, 2.2505249306064625], [1.8466146373756418, 0.5912568505738838, 1.759118401082679, -1.7501022290006318, 2.864881460043965, -2.946642449457709, -1.1187435276785243, 0.06923826870271554, -0.30088399134875043, -2.699703977302312, 2.277769244291896, -0.6157884448862689, 0.4715360585153676, 0.11062387924675932, -2.1912050681838213, -0.7989242717242107, 0.2639064200538197, 2.3023556041865705, -0.8580063587502837, 2.7166340977028005, -0.8224776188625356, -2.558063110057498, -0.21206527054363988, 1.2077091354958496, -0.20737353962209104, 1.47701388164689, 2.519000726368514, 0.6084106015488402]], [[-0.44290152133737415, -1.9911703799299545, 2.19717833397649, 1.4102652570957428, -1.0429582877876749, 2.9234788379213086, 1.8849396366843294, -2.7390402829093734, -2.137585364344602, -0.739551199764009, 0.3853648563212384, 2.126358989699524, -1.5518432605017551, 0.15244144049152553, -2.289957093179475, 2.001944913030899, -0.5986083558847102, -2.2263619918057986, 2.8991354297173704, 1.451770969620462, -0.23885933384071967, 2.765386612437636, -1.3523901384956738, -1.8180786291534305, -1.6016657046781984, -0.7525174046506953, -0.4906379875023479, 0.9916806658743385], [1.6649228510683596, -0.9518758925691797, 2.4541790230606164, -1.071970424275451, 2.86612899047247, -2.2018985221227556, -2.849884624456984, -2.3539336673663747, 0.46004664612333857, -2.9919998214387737, -2.373440892425208, 1.4444386169257282, -0.8186501253592611, 1.2329753222744078, -2.686812791668703, -2.3763058496451537, -2.721201159461473, 0.9466961868221047, -2.8433975253268855, 0.9125162589002578, 2.3731079043516594, 0.1826684811647934, -2.248946744363827, -0.49289870155935933, 1.3352874925519567, 1.1091660763263054, 0.5326404719116833, 0.09532845665576994], [2.432426164845422, -1.5401539257818542, 1.973276409063807, -0.23355366443420778, -2.028139762562245, -1.079695743117186, 1.5585241507996281, -2.343526685599643, 1.2387959207696184, -0.5081283226498092, -0.8153420140673049, -2.0429937048197813, 2.203073926602806, -1.3006592190097253, 0.4334391126950381, 2.863463014337544, -0.716525872768075, 2.1073872043381483, 0.8349406328691877, 2.6988642523535855, 0.5763983634364371, 2.486695620928959, -1.9267173700831475, -2.860383715623463, -0.42211841485120694, 0.42003351368675723, 2.021077624563296, 2.9697202843907444], [-0.15672980177228357, 0.08411584516236159, 1.5826161962181153, -1.3884948890977202, 1.0126427512047709, 2.385730025986536, -0.15567003696680715, 0.12514699903503734, -0.20700153697097567, 0.917858845669441, 0.9802074510286802, -2.834232707277218, 2.4178345242933386, 1.5208233826541884, 2.0188231158920873, 0.16140977357348074, -2.7007917504772867, -2.3107374257298847, -0.9754205212779903, -2.733037956616865, 2.8897644085486034, -2.579484407756913, 0.843908783663105, -1.8843323702991348, -0.6235398587436292, 0.3175836544723474, -1.300467190971474, -0.76603353616209]], [[-0.6266253762778717, 2.3391950283736325, -1.114310576809692, 1.4714055876225256, -1.626697453996893, -0.46332885183481043, -1.2978743087663838, 1.773757191656662, 0.822338214066721, -2.414544460089466, -2.681743054103226, 2.7477298930799776, -0.7865859704609806, 2.4768367087768954, 0.9616882857013653, 2.6646779553731914, 0.11411296368427015, -0.164121395815215, 1.8486913802438885, -1.4001733739452826, -2.1268539123202843, -2.802694317587999, 1.1456374462320849, 2.4319258728937285, 1.2424736386049666, -0.5550948866725314, -0.13707813098763477, 0.4329291715507173], [-1.9211273761679268, 2.0218815050133987, 1.9726851536108327, 2.210328372090408, -1.486178343412385, 0.898578671183385, 1.5989361733584015, 1.351837557213564, -1.2811575040585077, 2.888580203501797, -2.3419433049595053, 1.1227934931640302, 1.8154076677964204, 1.511457212024757, -1.1708535157219662, 0.17457513232083155, 0.9302150672214164, -2.3987003851218898, -1.1312524754743705, -0.8917881049677217, -0.00041872636037032507, -2.822316266246929, 0.8402246033838257, 1.9010219919153268, 1.7113126190383827, -0.32679205113296383, 0.5446053729404561, -1.676953760265689], [-2.622538206651596, -0.5697052773511047, 2.1975229905048623, 2.1461792772316137, -0.09731061008596598, 2.3861208357218855, 0.37416741979455725, -2.338012811082476, 2.3358194632803695, 1.1032003625592486, -0.3881294252210852, 0.021491384051402385, 2.0882668339789543, -2.4639409017165055, -2.772871148616524, 1.7598399292950724, 2.397892228729667, 2.1982965398193173, 1.7232654830802314, 0.4720780129300097, -1.984353629664422, 1.0396587374428652, 2.1970889569114513, 1.6945845107412918, -0.04918935148339676, 0.8060677703447632, 2.8815613692708677, -1.4307311863161671], [-2.0150760898934514, -1.6321962270537766, 0.1783187305922569, -1.850390060120015, 2.141183984614681, 1.8512611530933487, 2.098497827607212, -2.1888126106530015, -0.37542994895780035, -2.5006506311372796, 2.828290401861059, -0.34475507045605447, 1.6257820088415045, 0.04372624813846482, 2.9150234478263704, -2.2791353769275506, -2.685157471928817, 0.6379405207707771, 2.129043267445775, 1.2000935494241753, 1.2168360637615212, 1.6575222843325577, 1.2290972364528479, 1.6897999955194516, 1.384036703277845, 1.1305533812981388, -2.6431268202058833, -2.9440119799717155]], [[-1.3970749057172036, -0.3674320688428807, -1.3590359806601602, -0.6117335582812591, -1.8765251253415005, -2.068524370178761, 0.3210118250816305, -1.5936748175264566, -0.22790780115059572, 0.8078980049613298, 1.6269859103030164, 0.18832204735102565, -2.7134199478409187, 0.2686557397955256, -0.07808238172917914, -2.5453650963870036, -0.5308768307017302, -1.4936066250395137, 0.5092968524595021, 2.6116189688596654, 0.9927126972086189, -0.8568706918319027, -1.3577535175088729, -0.8924139368213471, 1.00218614418438, -0.2537798665383342, 1.7857670856646894, 0.49096404476461153], [1.7780176882276066, -2.0894813036897864, -2.841904827154596, -1.1735915558931835, -1.5630296156132715, 0.29120076311877163, -1.2417857956805778, 0.05127904132496619, 2.5283087034270233, -2.8318240589145063, -1.6124483155001277, 2.892463288528438, 0.013114492312061632, 0.6132026748956889, 2.731141712265744, -1.708774940230251, -1.4014936503803967, 0.398679257929309, -2.2926865293923826, 1.4384234355646814, -1.1789356358242669, 1.302852684862989, 2.4129226879093517, 2.720759632467928, -2.126285358799815, 2.437543460748671, 2.256371102364187, -2.2903448714411376], [-1.214856042106329, 0.7442805251165163, 0.1292250000623021, -1.9404088552195817, 1.9384209806703154, -0.7682330015591607, 1.6372058832904148, -2.9075256684521373, -2.3948433503418523, -0.2808168779423781, 2.9488959410607904, -2.1268555774293043, 0.03858138094864305, -2.9321600144855253, 2.321425416099758, 2.621642008725603, -1.091531716402907, 0.678025781205398, 0.6858930726964569, 1.9345440661774376, -1.0184013157520777, -1.020982779519386, -1.864645622874706, -1.3262604616539393, -1.9831807792741578, -2.657263564472964, 1.8105907523679914, 2.384017404602549], [1.9608070723652036, -1.7419482296007305, -0.6281744838181416, -1.4997515926145852, -1.8316668802042881, -0.8956157042928861, -0.32384472045127444, -2.2824418553550636, -1.6991339403234438, -2.5853723075084885, -2.716185489507123, 1.728718502573991, 0.3546132339834891, -1.938620315690337, 1.260028721659987, -0.8340135428338078, -1.3174625793902326, 1.9657479431724143, -0.9925298964598777, -1.4196943274127536, -1.0368292493936848, 1.4778253190619424, 0.03632715173511292, 1.274302758760939, 1.8264432124177343, -1.4555195442217719, -0.08505978092604938, 2.10197831504847]], [[0.26445628251240016, 2.1516256449277, -2.1166076760621393, -0.830023324699539, -1.1747805373570013, 1.2786187874046107, -1.6749270069508237, -1.7156999127352934, 0.41357605298512023, 1.611814699185361, -1.4502226861061438, -1.2606457569016494, -0.8769227459276543, 2.9748345713904794, 2.331663638834531, -0.12960095257164728, 2.6546710253909422, -0.8523341808942551, -2.1506919756878595, 2.792674147336185, -2.7130323261338845, 2.6645357525883906, 0.5201111246711285, 0.6872490325490945, 0.5348797609185141, 2.470387074275953, -2.0169795110262676, 0.08141079476475843], [1.6835494305127456, 2.6942483106779553, 1.9396001866587973, 1.0647959522399217, 2.4337116825005918, 0.10591187431348992, -0.3038590569887507, -0.7402668855848349, 2.7986721687636216, -2.9785803099942783, 0.20413297006610742, -2.60553103112004, -1.229140903242321, 2.1886468560699246, 0.12640601459009337, 2.081722992773811, -0.11904645485132193, 1.4618336580205407, 1.6819427584931521, 0.2395323947978305, 2.1550587348649026, -0.04657473861923922, -1.7166389760766063, 1.0047932669663266, -0.32082120741501674, -2.636244156978152, 0.20098037446336292, -2.137322452342447], [1.295561079538638, -1.0781667068132457, 2.6080420895303558, 2.0432192462675633, 1.382554312812272, 1.1401818704488225, 1.6546724793222367, 0.24009662558903289, 2.8982750247016833, 1.1340234283813544, -2.008087140285169, 0.5477329246915787, 0.017929402481979828, -1.444984381099777, -1.570492829424315, 2.396195646271919, 1.7155127687294502, -0.1836581575491758, 1.9202954818064404, 2.8654379645069143, -1.7375085300732889, 2.805528230150964, -0.6183192854862392, -0.6251118123103252, 1.4561059280221418, 0.7013092270727741, 0.5318156851141431, -1.1826654233649152], [-0.8146447629671765, 1.5116078923753857, 2.3609216484013746, 2.0103265264605383, 0.8721109032988741, -2.076190938008382, -0.2330699780161236, 0.8026975080406595, 1.3856487724540116, 1.396277314319728, 2.134692839881148, 0.6284737001380818, -0.5005291952095359, -2.8723263047501293, 0.7913313757158096, 0.4248638249036585, 2.017963995762001, -2.513782893331796, -1.1096617207482107, 0.715145234476374, -0.2925339374006968, 1.4215755130648962, 0.09984667558442695, -0.5917479241353996, -2.37537570568359, 1.4801350304178325, 0.2114000737265349, 2.9100179581493233]], [[0.2593610788279799, -1.16837623401168, -0.682928987692816, 1.334673458134989, 1.7265902222709704, -1.6657122938744489, 0.2241592136285142, 1.807737908190493, -2.72749232199842, -0.21678382835559695, -0.4143690357748975, 0.5799915535321887, 2.4876774347256125, 2.701801768178054, 1.1298836241687207, -2.4353936186179954, 2.609285400519931, -1.3092673735864628, -0.6111577298974118, 0.5288372871377636, -1.1357483971970181, 2.043518073248383, 2.85050833703818, 2.2747165122250603, -1.7121547420431624, -1.3036106198924577, 2.616201355820264, 2.0691987914432888], [-2.3736021466241937, 1.8496744547404926, -0.25650375408868875, -0.2914149155235002, -2.7202520427423673, 1.1207798186955298, -0.6951105492221705, -0.5826049546224841, -1.7465534081264862, -1.7851287847251027, 2.4819475635164494, 0.7256106355583167, 2.0431409513795646, -2.0507779649100626, 2.1346991436348137, -0.7385422233119994, 1.0718993929653804, -0.494673691820366, 0.30352332589405595, 0.06666546350338809, 0.6332640575180388, 2.8025501339621677, -0.356730120375214, 1.6880547169965574, -0.9964995450894172, 2.2450257441300856, 1.2857229439457694, 2.919785652231341], [-0.812423688702069, 2.8514240659020427, -2.6763355589682782, -1.0305172610561129, 0.622210303463067, -2.3630773753343606, 0.4445054906800179, 0.2304229674175784, -1.5560923175318209, -0.5881159334265433, -2.430618651499757, -2.8041536633580497, -0.9591978038686797, -1.8824933081427648, -0.25331472983776626, 0.23369341690593348, -1.827749584432212, -0.26511690067275673, -0.7018243769108068, 1.7680309006465453, -2.316962801338131, -2.1684890114657285, 0.6040224918067065, 0.843989341512339, 0.4340177611503595, -1.346476111745525, -0.6892986867633053, -1.0667260663109348], [-2.431191941333976, -1.320589243666811, 1.6555593842384138, -2.9597113509812467, -2.4919657024372537, -2.4556532811828395, 1.2064101074828972, 1.837553414128708, 0.3258546078121567, -0.43161894916438115, 1.2636347974532365, -0.5253041641548428, -0.4881736506943968, -0.13047183553240593, -1.3966228697348826, 1.7954421129338698, 2.797435095156861, -0.6002657260610689, 1.3143532640757662, -1.924755548345017, 2.6050218956320066, 0.814358338226822, -2.0396347041732676, 0.7364960541260825, -1.006766820368548, -2.3461982762941713, -2.3128374588206633, 1.3447403033813146]], [[-0.5706721290233205, 1.5224514084619098, -1.7167736592196339, -0.05150166285967961, -0.7552022995151448, -1.0070629080323037, -2.376079366792187, 2.274410946166574, -0.030917602171437686, 2.897442047760503, -1.2031387154623974, -1.855072806543383, -2.8127791280406784, -2.318891005644474, -2.4626341155622775, 1.1231886963955962, -0.9316869373855252, 2.8645044855736987, -2.509250680869105, -2.5727524109806827, 0.8791408241449101, 0.24014633235011296, -0.6789758901088794, 1.4728598425529222, -2.000504414899903, -1.5763437734773098, 0.31209241574980906, -0.008304295788532645], [-0.5844774038605633, -1.238742958442229, 0.9809155881408502, 1.7981940965691638, -2.962179555976074, 1.4538042310868438, 2.3154447870078387, 2.0591284247636885, -2.06803904230083, -1.865911983140824, -0.6743768992042387, -2.576542085210336, 0.5740243540394272, 1.739430599825046, 2.8429913364996597, 0.7587949108437653, 0.5722559636314921, 2.944878134554264, 2.1538743949328536, -0.9617473264469201, -2.644029694549893, 1.3859815614482107, 2.4270745800420137, 0.33650943581214054, 1.8627568011165252, 1.518500279275564, 1.1443525060684827, 1.095493202758564], [-1.073189985668014, 1.9174847278920852, 1.2890504856701996, -0.6368723242107728, -1.815890205125, -0.7046200449559246, -1.6127408495709468, 1.119381396657328, 0.9680121736922924, 1.2593257392133177, 1.9976856002285563, -1.427552530056817, -2.849014754909471, 2.466005291553264, 0.18611722042607326, -2.6145154396496793, -0.6791629398276209, 1.792025974513499, 2.715286389692965, -2.4131527524873477, -2.9626475070781257, 1.7388619486506256, -2.877627358939755, 2.705253701194552, 2.0284438794360327, -0.7500189088001674, 2.8181207241042907, -2.096610481873241], [0.8851537057147008, -0.8252610301460432, -0.23020388799465819, 0.7522862893076989, 1.8947655042007883, -2.033293401037569, 1.9939342960859765, -1.8696733876931164, 2.4512018694776385, 1.5936539404254209, 1.666242683087063, -0.5289543898035358, 1.147157708606306, -1.2312681030910995, -2.0165574001332676, -0.14016226421026445, -2.4912780852556975, 0.3094300421314631, -1.796786564889232, -0.4272645224491831, 1.1994022848742674, -1.0301972446609182, 1.9240953248387296, -0.6346725705042005, 0.009559160022957425, -0.6727200874358754, 1.023602400411499, -2.3419296598137183]], [[-0.7419770228502944, 2.2946483736522074, 0.768093627179967, 1.9123771437626402, -1.3230526881725724, -1.8354084422921944, -2.7923998601825, 1.2141964774331724, -0.3151063163981309, 1.5735582035421132, 2.7336957920241707, 2.510597241720806, 1.7159464033831213, 1.9379531844045292, -0.4716865130544665, -1.3581159400825502, 0.019688190661332428, 2.659175411057518, 2.6707512658661354, -1.452106402373091, 0.7157973310858523, -0.8883990875684269, 1.5793007554286254, -1.8595279918321546, 0.11949641612776407, 0.49725277754477704, 2.6048424463826025, 2.1312294477546274], [2.610076375908153, 1.1678426055485822, 1.7943299060633295, 1.6280246922372603, 0.48503056511914266, -0.6846425685096582, -2.2713550824413176, -2.0846902717121063, 0.4373726417303976, -1.806145495855817, 0.1536600924812177, 0.7489923783086154, 0.7915636997695792, -0.912584090328898, 1.1038710493265294, -0.7877342355482364, 0.2863732647306687, -0.6691698904811663, 2.3375675323242513, -0.1661164437998499, -2.1858806693403934, -2.935405750132375, 2.1042457528439504, -2.0716439265953026, -2.962483019891269, -1.7309966230222957, -0.6661503174794903, -1.7947868751632448], [-1.8113627678087616, 1.338219903092897, 2.6506454866377664, -1.5635702129897613, 2.5849017995932506, -1.8439171215177736, -0.19835192673937252, -1.9199526158110725, -1.5558809803010627, -0.8836678900745527, 0.547111221430522, -2.6823756868908823, 1.6581880269481406, -0.2908342133950077, 1.7683294339494697, -1.1373795620363298, -0.06021252324691151, -0.16633429234244623, 1.8835122031539422, -2.5738163636510105, -0.7618777073159713, 0.06008366290491374, -2.9145620292101766, 0.11958401644637195, -1.6927855825258675, 1.3332311111564428, 0.6816562108380997, 2.0505033561051684], [1.3755850743783444, 1.1982858721581158, -0.28655102906957364, -0.7369105074485951, 1.3198169503120214, 0.8349585303015301, -1.0879296378009702, 0.38826748383664444, -0.9727106663161931, 2.4819736809958544, -2.4370039541562347, -2.3463857605431366, -2.9474514994846346, 2.978204582991883, 1.5145810670573239, 1.0233013873634125, -2.8500302376230726, 0.6848744496110397, 0.19701584061680677, -1.338907606568578, -1.9198393720278244, 2.772091074168433, 0.10533569889291217, 2.6403143681476244, -2.0980767486837477, -0.31309252194714343, -1.1444110784097181, -0.5979569843792483]], [[2.427416256164287, -1.657775307361105, 2.9134122237164988, -2.8417623656427162, -2.5188065323740974, -2.592692280778778, 2.799278881561664, -1.1076202472996355, 1.0026867908661652, 1.0329129474481986, -0.19495097065972988, 1.1397809211317549, 2.5999786646131735, -2.2696222931054875, -1.261707198423858, -2.6320814927385214, 1.629670532758202, 0.7179071864442412, -0.5960194287577143, -2.911288558888227, -2.129494814246795, -1.829229987384795, -1.6188379571836717, -0.8642429451815277, 0.0679865299919502, -1.2696836470386876, 0.9430713114065559, 0.6089134619193128], [2.758879400421316, -1.5528380806440143, 0.07195359904339904, -1.7822338442531849, -0.34796181223626643, -0.6738899349742793, -1.6857140713594925, -0.6498233254901504, -0.6178358502358465, 2.6958966089409824, -1.0868278783849954, 2.532859114708872, -2.256555952406371, -0.37760355348799735, 2.144024893200428, 1.6777209047901147, 1.698827051099327, 0.6590270689987365, -2.1804928346751744, 0.7845125138952822, -1.4075587070298483, -2.5857856491985185, -0.691630205098611, -1.6644902325385582, 2.1247838241312813, -0.9835111921702535, -0.8600737257354583, -0.5530277915690331], [0.2662497341857084, 1.7750861966431035, -1.8396298283216739, 2.990192409045198, 0.24521498287994525, 1.9594686625657527, 1.2822867749813591, 0.39357003745166086, -2.7771804200792083, 0.008936216594044755, -1.0451382342363278, 1.7977086986238486, 1.6237495167713991, 0.4033375873491707, -1.2923596285486256, -1.561842251779465, 0.26750014099329267, -2.5083074438680484, -1.983238893318316, 2.730837631494717, -0.41708973599521215, -0.5040155710638801, 1.3162910899045457, 2.097183731982061, 0.30969593059162825, 2.924306112594927, -1.1168492104679182, -1.6546102049247782], [0.9083033180654416, 0.11197071282424265, -2.6607332935068815, 0.2061342932740744, 2.6253230281788946, 0.7718771486935898, 2.0611596839228596, 0.8433691053779135, -2.5231899907062463, -1.026713670512371, -1.9827212210765182, 2.6221224583147658, -1.0700316230727425, 1.7821041511285287, 0.3945547365981996, -1.8419009260396606, -0.1530314198608802, -0.7760091147586179, 1.4118065634489056, 1.203161366316385, 1.378461162695733, -0.5336563919414701, -1.3291119271874172, -0.8244174440088576, 0.7859694246399886, 2.2895631911571224, -1.4594480647282386, -2.5277555961648166]], [[1.9710695722029703, 2.5740538102161024, 1.2887163220354463, -0.6376267070460448, 1.5900842111243545, 0.9734871748319245, 0.8893766881301488, 1.8423348713691308, -0.29081139283740676, 2.4298485136535266, -2.1778233485259717, -2.001908256962741, 0.3178731204486951, -0.47500821753645006, 1.8566160571275763, 2.560480503637165, -2.150471204931577, 0.8954439938569996, -1.5428455679288422, -1.381145249280862, 2.7273747872609775, -0.6666813181858315, 0.758198428830533, -1.1860739288546853, 1.1694766352692731, -0.4570552236229739, 2.5398579153493905, -1.9510023388672342], [2.5970626500773832, 2.23808377780027, -2.9508417252743353, 0.5558594525065574, 2.2441432982962937, -1.863634514281861, 0.9801127838293429, -1.4743284832400587, -1.0671026313717502, 0.5535043027264521, -1.8508845004390546, -1.6159553257748354, 1.1617536570814337, 0.5144683050650634, -0.6524061148675875, -2.124069790056999, 2.5008455830945344, 2.7959041616351064, -0.6160941520390422, -1.8096436587308318, -2.91971541305467, -1.7505201692578922, 1.43386723999002, 0.0192983632578847, 2.3356382707140746, 1.2796389690730594, 1.537756578096669, 2.613644892260611], [2.357062715485071, 2.3138366951129585, 0.4183473460054197, -1.808464899487558, 2.960665063320339, 2.4240570518130564, 2.743868203469911, 1.7263535046929395, 0.9308815362167868, 1.1109849900004898, -0.702137293647688, -1.6350897487425908, 2.277642896146477, -0.12345508450011877, -0.7628705206213819, 0.5525457568532843, -0.9309716547574189, 2.610003319754381, -2.2624049494780647, 1.6404478168511893, -2.1617204371030683, -2.8675990768920525, 2.127101938791525, -1.1165523505649473, -2.3724152154998643, 0.808058709989373, 0.948227859596285, 0.8681186064146473], [-0.06852994632475307, 0.16505102832647545, -2.4219830994636924, -0.0798137514074444, -1.2965823130096867, -2.6297801724388803, 2.804443900045265, 2.523172379089109, 0.554828890278678, 0.5065305908103035, -2.4485678767672496, -2.4831357602383735, -0.9494841971664103, 0.20210942778294738, 1.033639932639585, 1.0396235896821873, 1.007104620250936, -1.0849663652587023, 2.7437473362212703, -1.1004511426091563, -0.5970857602198354, -2.5496982173303167, 1.9743173643062475, 2.808579733100183, -1.5116243387023063, -0.5918757290284282, 0.9421993078524205, -0.031303416680158236]], [[0.5359531550544645, 0.41118038773430987, -0.9265595114650349, -0.07153815358049842, -1.592907612100537, 1.1591884034633235, -1.324391784077559, 2.0229696519448224, -0.12711066508054003, 1.1940038472840655, -2.4552048361944983, 1.9431172040479767, 0.6951690126807395, -2.013147042937325, -0.41897984893662255, -0.9089628046810194, -2.1553929789310122, 2.563008676988688, -0.4338220312538006, 1.6901681820199066, 1.9709701635410264, 1.5000020617491359, 0.8106693138349259, -1.9982204310660854, -2.0310718710294533, 1.2157644058751957, -0.9960780830104126, 2.6393466928231986], [1.6994387492783538, -1.008156469564127, 0.5262849031365482, -0.8393068941174118, -0.11214638131382948, 0.5755767566816425, 2.089638433668588, -2.2506725706638884, -2.0260477852161545, -2.907121753383844, -0.1711883240329919, 0.5658432447065245, -2.3724045245415706, -1.640424494308239, -0.9535176456338945, -1.3139626498638979, -0.7684432601099709, 1.9870613603704346, -2.3542589250603196, 0.5529168126789261, -0.2536694203432672, 0.7233425339825117, 0.2030890182218461, -0.5958598129029458, -2.2289079225855146, 2.9942176067483084, 0.1559730477205985, 0.42331018595988557], [1.0704674718013703, -2.616820097663636, -2.796063281161314, 0.8498256165816329, -2.377461651738183, 1.557058803948272, 2.7888392877707524, 2.019677252518475, -1.924397282050579, 1.6903160466363953, 0.33822780287344134, -0.017234993898568973, 1.1356423284355683, -2.583952035584888, 2.018944209225425, -0.8391274091812275, -0.29736400936051055, 2.598668023733672, -2.010601796909027, -2.0876628755051603, -1.7013558609891748, 0.5823522070759748, -2.556591962019306, -1.7587488277077479, -1.812482961186099, 1.9492809113932719, 2.571607780698896, 0.9423365249625428], [-0.2491891766671066, -0.23127476471146124, 2.6545473939749806, 1.3275071848100568, -1.0686768615091515, -1.4594412624401945, 0.8992097235808241, -0.43750738207818385, -1.4960776491886054, -2.193813171103465, -2.312530416698463, -1.7754874238443448, 2.748739215868788, -0.003776388060380498, 0.4929223607496529, 0.5849915477723524, 0.8914162101986931, -1.269593694062412, 1.4032387983269334, -1.521644520488161, 2.6292354986103517, 2.9057022418244802, -2.2865032261047338, -2.3746726170201624, -1.8055168092446552, 2.0706929701620425, 0.9928033131564247, -0.22145276943464598]], [[1.7946536496406154, -2.624929388086138, -0.2067119481667632, -1.3895617501390816, 1.3324322948070613, -1.7596258226548231, 0.5527389425591198, 1.6636489898844706, 1.3650122460782033, -2.877438353499376, 2.0762082211444692, -1.8233344617710419, -0.24891444127512585, -2.880129183188819, -0.31843120126121605, 2.808793499799208, 0.7667799119910814, -0.08010320773909818, -0.6471898560935241, -2.8222465198237066, -2.6573332313752793, 1.6650923479068904, -1.2910657143635265, -0.5162585076272777, 1.8231772266387116, 0.9112513610940307, 0.15405589710305323, -0.30106990587102134], [-2.0385887374647487, -1.6919393947106678, 2.4984343719850006, 1.6224738594510493, -1.8874692108104714, -1.1579211979315518, -0.3060475245588852, -0.2144382268557159, 2.6539657028506465, -1.056378326076349, -2.325906830256381, -1.5259201951016128, 2.1422738436072324, 0.4878495247511716, 0.33419017194158585, 2.198431406843536, -2.359673681748636, 1.7993400643229265, -2.911357680573145, -1.005763889068161, 2.1655500092167754, 0.0777943377765089, -2.2982197542538243, 1.5843537211236, 1.6878979977595012, 0.3393609417335206, 0.1469600188773379, -0.7555270498810529], [2.850442627318176, -1.5217210986446523, -0.5475361366650935, -2.4304206312815326, -0.47725282525382884, 2.273392830113366, -1.917278724434881, -0.49996171226267494, -0.6235625389424824, -1.7452258113674937, 2.445363954048048, 1.4838360293654542, 2.6502813056802834, -0.06200658287137184, -1.7640048367006143, 1.7171400060706015, -2.377859531050254, -1.4258995180390157, -1.2257457989161844, -1.9362279900348698, 2.3852076006661775, 1.4377654263001922, 0.1272841141476322, -0.10007152013376963, 2.9974678780927633, 2.9486367838530345, -1.5638451926065506, 2.362312221066645], [1.3083070707864088, -1.2353738243856525, 1.834198104691965, 1.9916457102312357, 0.8659592382107832, -1.932898395532093, -2.709412289512496, 0.2781471169450933, 0.09253883442702815, 1.737380229990956, -2.6619453844494525, 1.3172497689762626, 1.7870611091110211, -0.145091100289525, -1.3996806537956212, -2.8241230620317164, 2.6273682390458317, 0.9103115806697231, 1.3201834324214916, -2.7757602906400987, -1.7972687231338043, -0.7773352736509826, 0.23508918405022428, -2.2511581997295136, 1.568202207428837, 0.14220924874227237, -0.07204320733151715, 1.2069592210103748]], [[-1.487477385994709, 2.848354335451912, -2.534181424780204, 0.3495057011702718, 1.8474881736708006, -0.3140576399877042, -0.8992813214144473, -2.3043335551108672, -0.8202592472721393, 1.3440271714582295, -0.2863159367943586, -1.0384912623744558, 0.8554721481072445, -1.505913108978656, 2.17737517646532, -0.10274649110621814, 0.8989457963163314, -2.7347387314322598, 0.7630757458074382, -1.3318120257118622, 1.5639177675631997, 1.2635912513846899, -2.265957656106307, -1.4322876381079135, 2.13754729846342, -1.6823669033528164, -2.2400767513247724, 0.794523048319566], [2.5150796023225332, -1.3790300802215596, -1.36693373178913, 0.32846137411605314, -2.2732006591070504, -0.5678762566890754, 0.6807574412191366, 2.723729799488739, -0.6535843783437527, -2.4087400123913953, -1.96199603623262, -1.7938336441426368, -0.3062759845708607, 1.3873742149215165, 0.46083535820137067, -1.8105056914132092, 0.8044692326719005, 0.4652782642211606, -0.41378457007058245, -1.3339872768515209, 0.5492539192258477, -2.569121063914949, -2.1988258655726747, 1.3962333568364595, 0.2390133501958216, 1.2363816741760436, -2.539145922019605, 1.725803724606365], [-2.4166830537529584, 2.409203707744024, 2.887010591125226, 0.3527141547131558, 1.7195367851704457, -2.104858632034607, 1.473605650694462, 1.391311928459726, 1.1598178516121278, -2.82283837999843, 0.2779424086043001, 2.77916410286253, -1.29085603205603, -1.4077110786999516, 0.5249648820686592, 0.6050025953694265, -1.8355084440044813, 0.715510858408849, -1.5312061495503828, -1.8932378627879842, -1.000058888420232, -2.2674895024593757, 1.284592525551071, -1.0393354934005807, -1.4795229847843807, 2.078381717871599, -0.19170630324065963, -2.8589130838671366], [-2.648438711221847, -1.74312955079781, 2.566931641905187, 2.168201135236407, -2.303190970661138, 2.4797798610320063, -1.5992940264743776, 1.5864709022996246, -2.6309595297483197, -2.8899486981405653, 2.649165603522283, -0.5019170017709365, 0.22290182621404053, -1.4526710341438802, 0.5482580103139267, 2.2883647523001143, -0.26785812615506277, -0.2745953328507227, 0.9805327006272515, 0.5112343951955274, -0.7508255124451457, 2.2578736379885704, -1.3462635523955497, -2.7697642798427573, -0.10811530648933543, -2.648296391093197, -0.1239789273480909, 2.4429055359563705]], [[0.39967878184888317, 1.6921134423256596, 1.218705902237157, 2.1269361928191985, -0.15386409944068502, -0.4238831322456913, -2.472556918983506, 2.3407193734246636, -0.20840837267623602, -2.6211058895960235, -0.2102102196032396, 1.4561731342179893, -1.0503512818707534, 0.2705961851080749, 1.3227866542222086, -1.4104298617711517, -1.1775327661262105, -0.5431743625478971, 0.423922162391035, 1.7150342129151985, -1.2821248275028136, 2.01044112924893, 1.286090100955473, 2.741696611551868, -1.3333173956859994, -2.2295939202360833, -1.568128629365131, 0.3287102932189403], [-2.922369807721151, -1.57774936841764, 0.47594859078376084, -1.3677985509252883, 1.5163345931079766, 2.8437569295236234, -2.2901020326891057, 1.273770690725403, 1.1231112694867438, 2.7197371774426573, -1.443446339273897, -2.3855522937868514, -2.358134610590806, 0.24146150350920248, 0.5095036048834536, 0.7480394217761619, 2.0512314709533417, 0.7006738980832292, 1.7286753821781664, -0.7170912513175915, 0.7828874948384579, 2.158883583902014, -1.4177037640157881, -0.49961060957056613, -1.459153696212672, 2.1092405272236103, 1.7872595431917606, 0.050039604375604174], [-1.208553087658025, 1.8993353779775877, 1.0451506458456379, -1.684131565465721, 2.186242738666099, 2.133452920958163, -2.034625051560631, -1.7571185014711421, 1.9462042512974689, -0.057840941035112614, 1.2500122845402002, 1.2308830152288381, 0.03915867285483543, -0.8553604763146172, 2.851302175056805, 1.6180063515324514, -2.428255640792483, -0.43714906388178143, -0.4897541840912156, -1.4050366652626445, -0.516678704100971, 0.45435409100044755, 0.6745515295618412, 0.032416743447596374, -2.6182418992271055, 1.8491354560620676, 2.5242387976678433, -1.8427592141136746], [0.7855460287490414, 2.9907928582820418, 0.5791833694707251, -1.8170933348815352, 0.6858423505318543, 0.8621200136146139, -1.941182414492767, -2.855553796837881, 0.36845792167603353, -1.6219251270711623, 0.15818217471631435, -2.347943760190341, -1.9463451911285015, -2.004535741911921, 1.5489933401299627, -2.9451691320339037, 0.9318335759578549, 2.1053715492049045, -0.49450101319149464, -0.6683183036769038, 2.4900277476984263, -1.8095594427893953, -1.0102988061381553, 0.9581549288203726, 2.222197846615865, -0.37903506600922254, -0.38896248671195055, -0.8420203468323546]], [[-1.554247740558561, -1.086421277068197, 2.2564899903856297, -2.755275514938264, 2.375804084053474, 0.5624999537026518, 2.929306455870841, 0.4870827443939181, 2.8573798097610297, -2.9667508296797394, -1.4019241694283215, 0.3698634496288222, 0.9628286056681992, -0.5866386890833413, -0.834635074768773, 1.1005899303642783, 2.0434099338274008, 1.1713405258953102, -2.2023178014249454, 0.4531891491646425, -1.6127280471169738, 1.7484194806856035, 0.4034812712251852, -0.07292859007502628, -1.9160808736740051, 2.273175677339763, 1.0229602985009034, 0.5175428751370834], [0.25045283550759123, 0.7010947850922653, 2.967652958352515, 2.4374562515881486, -1.460095078420551, -2.742586094760955, 2.3681150695092974, 1.7830246975458879, -2.8495477440152532, -2.924156171077925, -2.4943651604988784, -1.3441803335314109, 2.5816868243644517, -2.9892413228819343, 0.4935162037623875, 2.9530815554714156, -2.7132021722665707, 2.345701558978279, 0.8813226097797147, -2.072333143082403, 1.9091748831081023, -1.0892115682292978, -2.6610580419010375, -1.7182177273813475, -1.4842579810602534, -1.6307062091653728, -0.9946031537681161, -1.607547642783709], [-0.6476909668840034, -0.6230687326600988, 0.5324638702924736, 1.8103081216810892, 2.348571839965082, -0.6894329734695859, 0.24426536986552838, 1.1872940051174146, 1.5586632858621314, 0.4862484189587648, 2.8220495155392804, 2.370001661108934, 1.268485755955032, -1.567137898615765, 1.0413188998700385, -0.8714134075746078, -1.5449204258704308, 2.4106981163746273, 1.0061451226692242, 0.4580544767044423, -0.058907916407933136, -2.8975853260831306, -2.0951560845176367, -2.1820048280301876, 0.9983789379456915, -1.9184619778627292, -0.2124727040789729, 2.628919890883008], [-2.3623938953521675, -1.369725398017177, -2.5948643771254125, 2.476153366574737, 2.470732701747596, -2.417787614576767, 0.26366374648907964, 1.241946175264582, 0.8583972526755108, -0.031121472837209563, -1.8977630100188954, -2.8110200746748557, -1.3520909004525714, -2.851653299457697, 1.8367408369096099, 1.929968262331136, -0.9204628790742708, 0.8406141538028828, -2.7734777171361484, -2.829134642403729, -1.582038281213708, -1.7730706853648632, -2.29767803547706, -2.9650873291822255, -1.975636827168569, -1.0874137550425664, -2.325450054331, -0.4448784492634008]], [[-1.6477076467410867, -1.532050094012749, 2.329162177599139, -0.46170184702396755, 1.9237487738788195, 2.8773696485880764, -0.2649474639686087, 1.0660241371460586, -0.9955396393695164, 1.85931934185707, 0.37640450000453995, 2.429601145958384, -1.8525214845048303, 1.388951296485386, 2.9222571785728766, -1.0286054138786513, 1.8868125204708086, -2.1299015584703804, 0.8651648044288889, -0.40852228167303295, -1.906637731790063, -0.15186732110178314, -0.6388005813510089, -0.11707149334643585, -2.302295832854914, 0.5784688494727379, 2.4134379243062867, 1.450124245491324], [-1.6569702020090786, 1.8333067421157043, 2.127700299732731, -0.885536325903165, 0.3648294602825013, 0.7670476437559199, 0.7306707411906892, -1.1926086046740338, -1.8786242263155026, -0.5321974866910857, 1.4494083210391162, 1.061135163550353, 0.1296111131700366, -0.3604993775592087, 1.4484773751223035, 1.2175874682373085, 2.311412517906735, -1.5430890546904872, 1.572888792903056, -1.1934740986930432, -1.7670909053932895, 1.4226549994336963, -1.8614586357543115, -1.1454088840354757, -2.138650430563737, 0.5005898262389756, 2.320300131216108, 2.270747638914517], [-1.3403785748955703, -0.4915278209056728, 0.051713889454608974, -1.284488250056854, -1.4542309065514025, 0.7641736479677341, -1.5178923285856503, -0.1724911171791037, -1.9645758296984992, -2.696442556877199, 1.3486248294701628, -2.1569960956390264, -0.6825065438909048, 1.3036592635153905, 1.5768444768775796, -0.6978858541907305, 2.9324689226013803, 0.4211861588078851, -2.3213823503764415, -0.38628831938051444, 1.5021850128482708, -1.0112945556123791, -1.3403563213799867, -1.156841250496292, 2.115714870442103, 0.47266439465835397, 0.17874362393025311, 2.4627455116345764], [-0.16904857492679026, 0.25297069263561767, 0.46505325009132825, 2.01217448457949, 0.8250039803701705, -0.26245427972249225, 1.2720943958014486, -1.87014354062662, -2.214765959890742, 1.099702458828145, 0.5102179265058582, -2.103570293626082, -1.7170532976548103, 0.9275050246019454, 2.143883019887408, -1.0265606470845865, 2.3205772472944446, 0.8909163100619972, 2.522916663366229, -0.4138415643252644, -0.19659779306441916, 1.438757424943895, 1.0786588482924575, 0.1299674696574673, -1.228239067372379, -2.320439617039981, -1.2185266698174841, -2.957505417903949]], [[0.029707487578694458, 0.6974582612492224, -1.005494041446905, -1.0925015718266757, 1.2379503088933532, -2.419991177285331, 1.5565889739021008, 1.6931643606457554, -1.2269145347148551, 2.100233575444279, -1.2009835273098717, -0.07281498513086415, 2.474468097010213, -0.20644049931445707, 2.5910541395948794, 2.215872560112916, 2.1570086933918864, -0.02010997806793391, 2.3545307503975312, 1.7384869711882533, -1.7813347198426626, -0.6440691958779499, -2.7233078899092362, 2.6656190228206107, 1.1016298429082, -2.2981022622847966, -0.46710469057348014, 2.427573175044551], [-2.375846105468467, -0.9709752453931841, -1.5627672577524518, 2.636937159796659, 0.6421981209240473, -0.8695996451950458, 0.5911477559633092, -1.0280583379452686, 1.9422662255078462, 0.3107627070167456, -0.44710410598824746, -0.7567223545898525, -2.2732183671840662, -2.6877557014545452, 0.24119868722908855, -1.2674842277369687, -0.8470955152648827, -1.0630188817243875, -1.6579949668604774, -0.04632613532902674, 1.2949814694153998, -2.4373527302144833, -0.06891901492659347, -2.5892405300032406, 2.2774800103231883, 0.517463248615091, -0.5136306646864188, -1.964842570918757], [2.7134084991690415, -0.8257366114685256, -2.2068778075362374, 1.3825771700511034, 1.7309005214367161, 0.4748788268598183, 1.209752976528633, 0.7908062241630085, -1.6609052345944255, 1.4642743283100037, 1.3169085943965122, 2.64769557069362, 2.466102226618297, -2.023507705152019, -1.1141453723499037, 1.0312117399382368, 2.73918867608736, -1.9204142632130203, 2.0616261155815643, -1.1833092527021187, 0.6370786735868137, -0.0033096729914818823, 2.8598601538534902, -1.445263798233395, 2.5421912394232598, -1.9014623235432846, 0.3988717696224944, 0.33611964361721824], [-0.8575509697724835, -0.4784169053593157, 0.8261553642126529, 1.6239645504463702, -0.048935536966179694, -0.20450071374065804, -0.40228484439382495, 1.8335862904073528, -1.050117484008835, 1.2795951131554704, -0.002510186034145434, -0.3814392310950634, 2.1336728914564684, 1.975864067602302, 2.698071408839507, -2.2425753204065106, 2.437968759413817, -1.5095830135085795, -2.739312471368147, -2.795649251954438, 2.1744513196461055, -2.726395133604699, -1.8508088272022811, -0.8069533637634065, 1.9919616813564218, -2.5211822362095466, -2.425246040879264, 2.83257398960147]], [[0.3723314751029907, -0.9675130880662026, -2.166370256850205, -0.15029370701281675, 2.3367911600119635, -2.6633752410535534, -2.860402698656661, -1.0896533010085707, -0.37131014925424655, -1.5560703781626208, -2.781359754759891, 0.42736026721570086, -1.055863629754435, 2.8951548863244536, 0.06035215872734723, 2.3379575933424626, 0.6260468581836518, -1.7891217077881978, 1.1123269486856309, 2.773321414225812, -2.2465686778077885, 0.06911943262100406, 2.6215259079993807, 2.0784562093346937, 0.18418590617888286, 0.804750387603975, 1.0601714909204958, 1.3969197647383789], [0.39879932130339757, 0.630244383342486, -0.39126106867290567, -0.7051914087294406, 1.3007019824913586, 1.6027104372073397, -2.343251245914687, 1.5521770756831117, -2.576145765174525, -2.2631887656768734, 0.7981233124787375, -1.4984872875610313, -1.0537911089076355, -0.975359172185124, -1.5291080448513392, 0.23348382677865231, 0.3770997533046736, 2.224652018640218, -2.222437168775246, 2.8001743973193847, -2.9764145038013146, -1.9101146330009424, 2.088586855226331, 1.5126513293630053, -1.1354369298871418, -2.267919851139002, -0.5985634056339357, -2.65320660244557], [-1.1449012680426447, 2.573089440842187, -2.6498201393978826, 0.5701842871592948, -2.026048842656305, 2.3999225993260263, 0.25227463200294764, 1.9421271823608013, 0.16737658514374898, 0.5597795305173205, 1.6694366105751017, -2.0209248864670117, 1.0004166207933416, 2.761260333691787, 1.9802880740970945, 0.9206949019958057, 1.7947296003954856, 2.0268814622819438, -0.7732527116014252, -0.45100384138671945, -1.2815960736449716, -2.6929797536725166, -2.9460201871217127, -2.390917786284184, 0.3606034501504327, -1.1687387708483843, 2.236661721467537, 0.8774869550129969], [-0.33161762527928884, 2.5458275693272014, 0.3181332894381068, 2.2068835085704865, -2.698703275550728, 1.668280299086006, 0.46950717987955404, 1.5478276456200142, -1.8898203486956195, 1.4175929684978792, 1.1856147512664679, 2.669253773951617, -0.035239636673933816, -1.8738586363614418, 0.003594529254571377, 1.489793996111139, 1.8556938133946321, -2.784716728555984, 1.074709014347734, 2.2470724510750886, 2.3397454803062514, 1.782125313386624, -0.6772039095980995, 2.846508210039741, -1.1506368154796394, -1.6443165568680607, 0.7380770409094706, 0.25055364028732363]], [[-0.3789962187525733, 2.4781624420770108, 1.8565032137032684, 2.2495984422367945, -2.737790722907456, 2.691972899146463, -2.9789692197531172, -1.029166055002218, 2.546463771754061, -1.7177283077137084, -2.0818117432848657, -1.0470215755076397, 2.1744138469531817, 0.5017426325295977, -2.2505854324985712, 0.22325409367428461, -2.9185852707737983, -1.3803969604835173, -2.858372710884252, 0.13088001305105967, -1.7437318420219796, 1.2450585414468156, -0.23876441950012328, -0.37428155603199276, 0.7135581305217369, -2.0707196948118236, -0.7716067507636057, -2.337169601877531], [-0.1592634792380121, -0.4791708997372002, 0.4825452098333409, -0.5778541629314309, -0.936465206688275, 2.1949629518414673, -1.9723111423371456, 0.5872120985448941, -0.7377099956447895, -0.06340028525974617, -2.5097645776897366, 2.1576619230855707, 0.4747406810580914, 2.506762817101201, 2.623936353682967, 2.8959729522472717, 2.446059366510265, 0.8705291165510705, -1.6769917205893834, 2.612656845214638, -1.1464448059453862, 2.2213579581649414, -2.524003962146878, 0.45695931831840353, -2.589390251966475, -0.945082000837151, 1.189815666988224, -1.5851973301576374], [-0.12071639598345163, -1.2044651122074177, 1.5666647239860314, -0.2524272549909057, 2.3493357006821025, 2.030283105482143, 1.8857087259478096, -0.498884966439058, 0.015149480798897663, 0.24309836850278588, 1.7674030406210814, 1.4090043609839507, -1.607763246306544, 2.807394946787186, 1.1778356994005748, 1.5488672808978992, -0.33757397903225295, -2.329774711222928, 2.7732292914771612, 2.145873725691761, -1.433256988330811, 0.49250113891215763, 1.8341856215540346, 0.08457194528866463, -1.383695411689733, -0.34676361975506875, -1.7410697724753355, -2.6838131149015783], [-1.5037089225604214, -0.0931888870660047, 2.4343771404352985, -1.3957452629176554, -1.0267615159711845, 2.193393834176887, -2.0274369079324437, -0.3457695549601927, 2.921596459742217, 2.721832237619231, -1.97853278437415, -2.1953465744172327, -1.9720464693601765, -2.51766287816587, 1.9795021874535914, -1.5800311862705698, -2.0326825611766193, 1.653810347273768, 1.8255136704494843, -0.5925504160229105, -0.953791738298202, -1.4438805388143432, -1.4261478364853317, 0.8404268854417762, 1.4951257931010478, 1.6617047745728604, 0.9962409437087718, -1.0076580930339603]]], "t": [[99999999.0, 6.184139024389502, 12.969213404805778, 12.457516261975487, 9.267323393784965, 5.939159820094279, 14.031740584230223, 7.346167369009802, 9.656574160954536, 14.89934799321219, 10.59315257732611, 14.339457042573532, 8.613778166959285, 8.961451935261183, 7.0953141245453155, 13.999447704137799, 6.829403588578763, 10.960505428295537, 12.260655710411982, 5.587363508927758, 13.540802050563343, 7.496842919079433, 12.271673153112728, 12.064350718563453, 7.842615046888909, 7.41552447656976, 11.158195077763445, 12.974067579954244, 14.013640533942878, 6.1358649660845055], [6.184139024389502, 99999999.0, 13.581188132964908, 7.151300635907667, 12.2679493615747, 6.776540741244645, 6.663970706011215, 6.022682436354422, 13.785329936592284, 6.980425895891313, 13.419162568706252, 11.375901164504747, 10.27667307952836, 12.458791517045956, 8.262486036865024, 7.884841190317156, 10.72787907714255, 5.119582890510131, 10.669049570547543, 9.503244147394856, 8.639263543043505, 14.830104002986529, 14.983929521331579, 5.404312361238163, 14.454244345196766, 7.152479408109355, 12.808808688786764, 14.781074566583285, 6.0453092535323645, 12.652080813788587], [12.969213404805778, 13.581188132964908, 99999999.0, 5.0030909060585085, 12.201162422641854, 11.318673937792347, 11.751319208077753, 6.8096583658437755, 6.8677371689025914, 11.285007992519732, 8.724310538865527, 11.774268501653964, 8.636221249767319, 7.2036322273276205, 5.023403048975611, 14.412072252676033, 5.426683305406252, 7.346392432291992, 7.251494092964041, 13.84564282190486, 8.448278101102176, 14.182694613103289, 11.176650563069579, 12.607103828479229, 9.019345759670877, 11.247114083615966, 10.15629045020992, 11.752982721121247, 9.996215614596425, 7.689553946966785], [12.457516261975487, 7.151300635907667, 5.0030909060585085, 99999999.0, 9.639611664230708, 6.235651853852443, 8.545379588129865, 8.18914115583595, 6.363356549967117, 12.86326394063801, 5.463263408853951, 8.504230503311788, 9.33862765939975, 8.895639409231446, 9.383849261296003, 14.334149084541636, 11.229369747632004, 5.871762871204892, 7.811196849739217, 9.243002694020852, 12.546132407357817, 11.02985344499536, 6.976771522695176, 12.041739910870742, 5.427894813562179, 14.54271478796757, 8.16062521136196, 7.346803794138246, 9.214578332874586, 14.253533348667645], [9.267323393784965, 12.2679493615747, 12.201162422641854, 9.639611664230708, 99999999.0, 5.481171338066798, 7.599569682725996, 5.429853875606407, 13.643746781924591, 13.180918430956943, 6.899810830148567, 11.105895471456503, 6.035653438075941, 7.124070950074838, 14.715578410604948, 12.494136996319583, 9.861181816415012, 8.423425501700194, 13.865415168403088, 7.804231527691953, 13.108630969431227, 7.360705169469712, 13.813966729186172, 6.960334276801987, 7.879090572755777, 7.028227798233093, 6.909511613373061, 7.355531369987127, 10.851764685209135, 5.983099370540402], [5.939159820094279, 6.776540741244645, 11.318673937792347, 6.235651853852443, 5.481171338066798, 99999999.0, 13.123875493810553, 8.153570012041646, 10.039940839468418, 8.148093754076395, 8.531433724631796, 9.162820994031826, 8.883028286461208, 11.377013136165495, 12.008667955912003, 6.527898809689704, 11.872934509805027, 9.593505603229968, 8.698544469898987, 12.10352158482242, 6.373879641625951, 6.936278175831459, 10.24671923179702, 14.079266804346046, 5.264240604393003, 8.594914331817403, 11.664710837300138, 14.009514034844587, 7.547512575946824, 10.708903964949348], [14.031740584230223, 6.663970706011215, 11.751319208077753, 8.545379588129865, 7.599569682725996, 13.123875493810553, 99999999.0, 13.720680481345207, 14.687959109531688, 11.246271598921592, 9.577989274487441, 12.457394541642511, 11.9899410074257, 10.707265613095093, 11.549955311537849, 9.656867740697644, 13.190897738506942, 13.354758206396465, 6.225382976464853, 8.208541689749351, 5.230050374005772, 12.551193477847761, 12.996546011422343, 14.07639473891409, 8.05599972651718, 11.570285063037387, 9.519734851314308, 10.483207862454767, 12.466252200178875, 5.916192551832658], [7.346167369009802, 6.022682436354422, 6.8096583658437755, 8.18914115583595, 5.429853875606407, 8.153570012041646, 13.720680481345207, 99999999.0, 13.41895625398376, 14.95370082843673, 6.2921500223048294, 10.383690984779976, 14.077774088628852, 5.706748648464611, 6.895124476621955, 5.414474003706406, 13.590974723138494, 6.027571409579595, 9.729702460572462, 13.658116719855999, 7.341500387053168, 11.840117805922617, 8.067528870292632, 11.3786494818495, 5.257092933860093, 8.268699382251393, 14.875825700283851, 9.845300536040185, 14.527166073997657, 8.70098972245561], [9.656574160954536, 13.785329936592284, 6.8677371689025914, 6.363356549967117, 13.643746781924591, 10.039940839468418, 14.687959109531688, 13.41895625398376, 99999999.0, 11.05606889067582, 12.902530446175717, 11.397552641502791, 11.233191712530996, 13.765983276637547, 8.66634744233954, 6.864048540418111, 9.034609947834525, 11.19897255231228, 6.042873640491704, 14.587170571643943, 8.92948153659404, 13.408378765336732, 7.010697806652779, 5.672646496743084, 13.668652438424374, 7.391463588351163, 5.449730722533536, 8.44773244152858, 6.681012998528095, 12.528063121586719], [14.89934799321219, 6.980425895891313, 11.285007992519732, 12.86326394063801, 13.180918430956943, 8.148093754076395, 11.246271598921592, 14.95370082843673, 11.05606889067582, 99999999.0, 14.47672820264036, 9.837220217405832, 11.98601414229479, 13.883435491874094, 6.955249475616854, 9.698804550022299, 5.711452407226249, 12.205423965297342, 6.554835484376216, 9.85856558163382, 14.843321344311917, 6.562481549526929, 7.231613525849184, 5.801362566442561, 14.818821102555301, 13.154546450907642, 14.405518846886094, 14.760408792466556, 8.182032503401976, 10.125941996922345], [10.59315257732611, 13.419162568706252, 8.724310538865527, 5.463263408853951, 6.899810830148567, 8.531433724631796, 9.577989274487441, 6.2921500223048294, 12.902530446175717, 14.47672820264036, 99999999.0, 8.522988013078376, 8.460884963575142, 5.770417917701036, 11.160346260444456, 11.17073614331158, 11.431575990252977, 12.744309821061812, 14.808911470475884, 11.047708429366738, 6.6917016236849864, 13.354005860142053, 5.96756016148432, 13.7657652354907, 13.217012148864221, 5.905909615448428, 14.313010406619073, 8.827247831750373, 10.286404026751594, 14.294272435731441], [14.339457042573532, 11.375901164504747, 11.774268501653964, 8.504230503311788, 11.105895471456503, 9.162820994031826, 12.457394541642511, 10.383690984779976, 11.397552641502791, 9.837220217405832, 8.522988013078376, 99999999.0, 11.803862273555028, 7.553127945488783, 6.112952889931394, 12.045046390371951, 12.30853664984682, 11.74372144304236, 13.016054637428795, 13.576125299447488, 8.538301531440418, 14.988641728940424, 10.443201354063172, 9.33367961935878, 13.621064204527173, 11.860202539069977, 12.894286412683314, 12.687135461684797, 11.189943496356463, 10.806610043525655], [8.613778166959285, 10.27667307952836, 8.636221249767319, 9.33862765939975, 6.035653438075941, 8.883028286461208, 11.9899410074257, 14.077774088628852, 11.233191712530996, 11.98601414229479, 8.460884963575142, 11.803862273555028, 99999999.0, 12.581124361703743, 13.76627090595576, 5.118501675793146, 12.585246119964298, 8.467040729452231, 5.9412990757834985, 14.772472185280224, 14.144495086634251, 11.666708218485008, 5.901470419393137, 10.68841458684156, 5.9528172230169805, 5.410974948581816, 5.908307583665849, 10.884882098177716, 9.374281006048939, 14.985107725123196], [8.961451935261183, 12.458791517045956, 7.2036322273276205, 8.895639409231446, 7.124070950074838, 11.377013136165495, 10.707265613095093, 5.706748648464611, 13.765983276637547, 13.883435491874094, 5.770417917701036, 7.553127945488783, 12.581124361703743, 99999999.0, 8.845605590196898, 5.256679705346733, 10.4742429425467, 11.795690687427616, 6.1291953471834635, 10.026521083177917, 6.679119045709899, 9.024134071420328, 12.123245136232287, 14.774356544264343, 11.523680581853625, 6.801854617555527, 12.49224200242431, 12.702749006205229, 14.198103996714721, 7.769229872161421], [7.0953141245453155, 8.262486036865024, 5.023403048975611, 9.383849261296003, 14.715578410604948, 12.008667955912003, 11.549955311537849, 6.895124476621955, 8.66634744233954, 6.955249475616854, 11.160346260444456, 6.112952889931394, 13.76627090595576, 8.845605590196898, 99999999.0, 13.924506274760981, 9.510778498762003, 13.74889286304538, 10.582565482163368, 9.0008803061124, 14.604997488175549, 9.632039391449851, 12.616731491632994, 5.073232140715743, 6.669618398864512, 11.582185936762334, 14.14672210024033, 13.64980863678555, 10.649841170031225, 13.690741350331287], [13.999447704137799, 7.884841190317156, 14.412072252676033, 14.334149084541636, 12.494136996319583, 6.527898809689704, 9.656867740697644, 5.414474003706406, 6.864048540418111, 9.698804550022299, 11.17073614331158, 12.045046390371951, 5.118501675793146, 5.256679705346733, 13.924506274760981, 99999999.0, 5.796519345295539, 11.626000815069984, 10.425150050170867, 10.894458442880259, 10.065232590576379, 13.549143568184629, 14.244032619075169, 8.647341390297582, 6.913810574473029, 5.189442285546684, 5.462975756887282, 8.364005939665937, 8.689781756260814, 6.6461644313513695], [6.829403588578763, 10.72787907714255, 5.426683305406252, 11.229369747632004, 9.861181816415012, 11.872934509805027, 13.190897738506942, 13.590974723138494, 9.034609947834525, 5.711452407226249, 11.431575990252977, 12.30853664984682, 12.585246119964298, 10.4742429425467, 9.510778498762003, 5.796519345295539, 99999999.0, 5.252936607517325, 13.423445051301844, 14.673547972873527, 10.396360700811837, 11.780017859850567, 5.741921402662959, 14.427786228593858, 11.885104273092313, 7.275448046873375, 8.10934247912891, 11.40995371552026, 11.52795001164837, 14.09457550816468], [10.960505428295537, 5.119582890510131, 7.346392432291992, 5.871762871204892, 8.423425501700194, 9.593505603229968, 13.354758206396465, 6.027571409579595, 11.19897255231228, 12.205423965297342, 12.744309821061812, 11.74372144304236, 8.467040729452231, 11.795690687427616, 13.74889286304538, 11.626000815069984, 5.252936607517325, 99999999.0, 7.463400531943417, 13.512164664707292, 7.910437417537488, 10.258436094457807, 8.574692011813188, 11.537219682221185, 9.667672128594845, 12.017543384452086, 10.44550322488444, 11.904664978287109, 12.853087071109309, 14.886190171163552], [12.260655710411982, 10.669049570547543, 7.251494092964041, 7.811196849739217, 13.865415168403088, 8.698544469898987, 6.225382976464853, 9.729702460572462, 6.042873640491704, 6.554835484376216, 14.808911470475884, 13.016054637428795, 5.9412990757834985, 6.1291953471834635, 10.582565482163368, 10.425150050170867, 13.423445051301844, 7.463400531943417, 99999999.0, 14.109451048750154, 6.123620759174354, 7.951136500581479, 12.979955410896356, 5.66444048176394, 7.089152068485809, 8.286107219215065, 5.379864611911379, 8.922762620435723, 9.846363478225829, 13.69295390144718], [5.587363508927758, 9.503244147394856, 13.84564282190486, 9.243002694020852, 7.804231527691953, 12.10352158482242, 8.208541689749351, 13.658116719855999, 14.587170571643943, 9.85856558163382, 11.047708429366738, 13.576125299447488, 14.772472185280224, 10.026521083177917, 9.0008803061124, 10.894458442880259, 14.673547972873527, 13.512164664707292, 14.109451048750154, 99999999.0, 5.609439134070643, 9.449944225674994, 13.200847610108838, 8.665214141246977, 14.856643764186884, 11.058050150782204, 11.009266982572203, 12.629757864492042, 10.399275558565762, 13.410116891184295], [13.540802050563343, 8.639263543043505, 8.448278101102176, 12.546132407357817, 13.108630969431227, 6.373879641625951, 5.230050374005772, 7.341500387053168, 8.92948153659404, 14.843321344311917, 6.6917016236849864, 8.538301531440418, 14.144495086634251, 6.679119045709899, 14.604997488175549, 10.065232590576379, 10.396360700811837, 7.910437417537488, 6.123620759174354, 5.609439134070643, 99999999.0, 12.622714050205337, 5.618122957496352, 9.739114954504391, 10.941290294770475, 9.843845985155522, 10.452629664797657, 14.605194367876983, 11.160268381248784, 8.871818110040751], [7.496842919079433, 14.830104002986529, 14.182694613103289, 11.02985344499536, 7.360705169469712, 6.936278175831459, 12.551193477847761, 11.840117805922617, 13.408378765336732, 6.562481549526929, 13.354005860142053, 14.988641728940424, 11.666708218485008, 9.024134071420328, 9.632039391449851, 13.549143568184629, 11.780017859850567, 10.258436094457807, 7.951136500581479, 9.449944225674994, 12.622714050205337, 99999999.0, 13.309669929862226, 13.627556941804297, 14.225369702502853, 12.176768529995343, 8.571942670848687, 12.152389831862473, 11.244072195712153, 6.385241935204602], [12.271673153112728, 14.983929521331579, 11.176650563069579, 6.976771522695176, 13.813966729186172, 10.24671923179702, 12.996546011422343, 8.067528870292632, 7.010697806652779, 7.231613525849184, 5.96756016148432, 10.443201354063172, 5.901470419393137, 12.123245136232287, 12.616731491632994, 14.244032619075169, 5.741921402662959, 8.574692011813188, 12.979955410896356, 13.200847610108838, 5.618122957496352, 13.309669929862226, 99999999.0, 6.866257273564392, 9.258483247670819, 13.762009445110602, 9.449484324944937, 12.858655832441759, 5.357724552373762, 7.163794414195678], [12.064350718563453, 5.404312361238163, 12.607103828479229, 12.041739910870742, 6.960334276801987, 14.079266804346046, 14.07639473891409, 11.3786494818495, 5.672646496743084, 5.801362566442561, 13.7657652354907, 9.33367961935878, 10.68841458684156, 14.774356544264343, 5.073232140715743, 8.647341390297582, 14.427786228593858, 11.537219682221185, 5.66444048176394, 8.665214141246977, 9.739114954504391, 13.627556941804297, 6.866257273564392, 99999999.0, 7.9391899235969845, 13.474804290015053, 14.581467051297148, 12.32057793334767, 12.597278121170685, 7.006640686879892], [7.842615046888909, 14.454244345196766, 9.019345759670877, 5.427894813562179, 7.879090572755777, 5.264240604393003, 8.05599972651718, 5.257092933860093, 13.668652438424374, 14.818821102555301, 13.217012148864221, 13.621064204527173, 5.9528172230169805, 11.523680581853625, 6.669618398864512, 6.913810574473029, 11.885104273092313, 9.667672128594845, 7.089152068485809, 14.856643764186884, 10.941290294770475, 14.225369702502853, 9.258483247670819, 7.9391899235969845, 99999999.0, 6.215204739504973, 5.88420395856606, 5.448620632280781, 10.450093523486046, 5.494784850108476], [7.41552447656976, 7.152479408109355, 11.247114083615966, 14.54271478796757, 7.028227798233093, 8.594914331817403, 11.570285063037387, 8.268699382251393, 7.391463588351163, 13.154546450907642, 5.905909615448428, 11.860202539069977, 5.410974948581816, 6.801854617555527, 11.582185936762334, 5.189442285546684, 7.275448046873375, 12.017543384452086, 8.286107219215065, 11.058050150782204, 9.843845985155522, 12.176768529995343, 13.762009445110602, 13.474804290015053, 6.215204739504973, 99999999.0, 5.639393084149767, 6.995215427962252, 13.520480950057639, 6.696163217536041], [11.158195077763445, 12.808808688786764, 10.15629045020992, 8.16062521136196, 6.909511613373061, 11.664710837300138, 9.519734851314308, 14.875825700283851, 5.449730722533536, 14.405518846886094, 14.313010406619073, 12.894286412683314, 5.908307583665849, 12.49224200242431, 14.14672210024033, 5.462975756887282, 8.10934247912891, 10.44550322488444, 5.379864611911379, 11.009266982572203, 10.452629664797657, 8.571942670848687, 9.449484324944937, 14.581467051297148, 5.88420395856606, 5.639393084149767, 99999999.0, 14.636585937419708, 12.578919131586144, 10.491444416021551], [12.974067579954244, 14.781074566583285, 11.752982721121247, 7.346803794138246, 7.355531369987127, 14.009514034844587, 10.483207862454767, 9.845300536040185, 8.44773244152858, 14.760408792466556, 8.827247831750373, 12.687135461684797, 10.884882098177716, 12.702749006205229, 13.64980863678555, 8.364005939665937, 11.40995371552026, 11.904664978287109, 8.922762620435723, 12.629757864492042, 14.605194367876983, 12.152389831862473, 12.858655832441759, 12.32057793334767, 5.448620632280781, 6.995215427962252, 14.636585937419708, 99999999.0, 11.380292176768494, 9.432099735098657], [14.013640533942878, 6.0453092535323645, 9.996215614596425, 9.214578332874586, 10.851764685209135, 7.547512575946824, 12.466252200178875, 14.527166073997657, 6.681012998528095, 8.182032503401976, 10.286404026751594, 11.189943496356463, 9.374281006048939, 14.198103996714721, 10.649841170031225, 8.689781756260814, 11.52795001164837, 12.853087071109309, 9.846363478225829, 10.399275558565762, 11.160268381248784, 11.244072195712153, 5.357724552373762, 12.597278121170685, 10.450093523486046, 13.520480950057639, 12.578919131586144, 11.380292176768494, 99999999.0, 12.748502936615758], [6.1358649660845055, 12.652080813788587, 7.689553946966785, 14.253533348667645, 5.983099370540402, 10.708903964949348, 5.916192551832658, 8.70098972245561, 12.528063121586719, 10.125941996922345, 14.294272435731441, 10.806610043525655, 14.985107725123196, 7.769229872161421, 13.690741350331287, 6.6461644313513695, 14.09457550816468, 14.886190171163552, 13.69295390144718, 13.410116891184295, 8.871818110040751, 6.385241935204602, 7.163794414195678, 7.006640686879892, 5.494784850108476, 6.696163217536041, 10.491444416021551, 9.432099735098657, 12.748502936615758, 99999999.0]], "M": 99999999.0}