{"num_workers": 25, "num_roles": 4, "num_nodes": 30, "w": [[0, 0], [126.43499924889811, 157.35102329434883], [397.86632972476843, 435.3505783509384], [339.28611364597884, 369.25052687526767], [48.41075914958445, 74.21864343235578], [340.42289514576424, 374.98823655901055], [295.8448772651467, 324.3380995825389], [133.17120516380658, 166.01518520830345], [260.7660851656679, 299.8292363985661], [338.5236525986416, 364.97463698539104], [37.804049299227074, 69.15543545588315], [399.29704708903245, 425.26828403382694], [239.1585940233391, 267.60439527247183], [219.28532410835413, 257.268980958395], [336.0263448662784, 375.0536342142799], [376.38650271674925, 414.3495945789808], [144.45995707442353, 174.4229265020184], [343.8461161126714, 370.6800144473723], [205.37914329247076, 243.17220087590417], [375.71233302780007, 403.5306825677832], [217.5620478690137, 248.45526094110096], [244.08782678137678, 273.19870451123876], [238.57222006667052, 264.46136651043724], [201.2227123430701, 241.08177231912137], [345.2129909389672, 375.42090164951236], [389.0960649973862, 422.9324830324698], [403.9285735286188, 442.18073620086636], [331.19340140401806, 360.70601419544147], [160.8621002843262, 198.21826402960156], [0, 450]], "p": [0, 16.269817451378085, 9.646693838935759, 11.160889491328282, 16.39837700322318, 12.644951454336097, 11.939408275264096, 8.684640279081808, 18.448282451883966, 7.946168730795457, 7.913662342184134, 11.897140660675442, 17.358639061107393, 22.48344571146501, 13.582965375719333, 17.70209059477384, 10.764503778796794, 16.963265256933923, 17.726760835043375, 16.17759907467493, 15.085740476827677, 18.730096115375435, 12.136104398492623, 23.529428244933403, 13.280791741523643, 9.056105627798548, 9.578534617962692, 14.619392038770355, 15.313553561105739, 0], "e": [[1, 0, 1, 0], [1, 0, 1, 0], [0, 1, 0, 1], [0, 1, 0, 1], [0, 1, 1, 0], [0, 1, 1, 0], [1, 0, 1, 0], [0, 1, 0, 1], [1, 0, 1, 0], [0, 0, 1, 1], [0, 0, 1, 1], [1, 1, 0, 0], [1, 0, 1, 0], [1, 0, 0, 1], [1, 0, 0, 1], [0, 1, 0, 0], [0, 1, 0, 0], [0, 1, 0, 0], [1, 0, 0, 0], [0, 0, 0, 1], [0, 0, 1, 0], [0, 1, 0, 0], [0, 0, 0, 1], [1, 0, 0, 0], [0, 0, 0, 1]], "d": [[0, 2, 2, 4, 1, 2, 2, 2, 1, 0, 1, 0, 2, 1, 1, 1, 2, 2, 0, 4, 1, 1, 1, 2, 0, 1, 1, 1], [3, 1, 0, 1, 3, 1, 0, 1, 2, 0, 2, 0, 4, 1, 2, 2, 1, 0, 1, 1, 4, 3, 3, 4, 0, 4, 0, 0], [0, 1, 2, 2, 1, 2, 0, 0, 1, 3, 2, 0, 1, 1, 2, 1, 0, 1, 4, 0, 0, 0, 2, 1, 2, 1, 3, 0], [0, 1, 3, 1, 1, 1, 2, 2, 0, 2, 0, 3, 1, 4, 2, 0, 1, 3, 3, 3, 2, 0, 1, 0, 1, 2, 0, 2]], "r": [171.912806824564, 111.11904001063849, 125.80813759237778, 180.49239913578535, 81.11293011143819, 79.30044778660269, 101.08337230994343, 101.51115231252167, 136.0619222647824, 128.76735319248394, 92.76967523049746, 51.027885725019246, 80.86664096328794, 178.24563356695094, 114.95892272621225, 66.82107083080855, 62.318374722476264, 76.06446167432752, 161.9903730131059, 88.16481114332205, 156.4318418082431, 68.14743923165926, 85.58890192664427, 118.40456502578753, 142.10003426497894, 126.63889582935504, 113.55553630911302, 98.03257218128375], "b": [[[-0.9708182156467906, -1.600460846413123, 0.41364483465023394, 2.304001613353968, 1.9198476648589917, -2.772311706452785, -1.3642015396457818, 0.6821576146392196, -0.8447823259646063, -2.5927566482123803, 2.5550044792584385, -2.2688920172109013, -2.4962706732048963, -0.6233705083352863, 2.1939751950997675, 2.2934444655367043, 0.036577544453662014, -0.25861920379001546, -1.5694222893468293, 1.0345512266694294, -2.083306242905677, 0.19707973055647976, -2.6466542190176865, -2.914127988758982, 2.8252241675051257, -0.33950430033937185, -1.961276382359653, -1.4098213839017693], [-2.564827093502483, -1.7665736568021695, -1.549286351051986, 0.8257692335477014, 2.0720176754892314, -1.4656498368108126, -2.3935977833186217, -2.5309020339911124, 2.893853922394894, 1.011543791296913, 1.2125325608066682, -1.0911954972625761, 2.1508050617036734, -0.07455779705421106, 1.1193154041960502, 1.3229297101499302, -1.4931071727792513, 2.7912721715253745, 2.3063897637177897, 2.136384227399404, -1.7461199346715743, -0.265647813644291, -2.1568502460904737, 1.2373178352137817, -2.385356607898231, 0.9578401937725967, 0.9278874722531496, 1.6163155033955814], [-0.05515163835361214, -0.5034350089510449, -1.5753775224335202, 2.6758410217401583, 2.441175731771013, 1.9302270605781917, -2.5080500897350646, -0.7439478548641372, 2.9027558229507546, 1.2474896316850081, 2.1996048879540444, 2.340016337729055, 0.38335357511622714, 1.8614948946487093, 0.66694563073428, 2.3734325471572415, -0.8361058567412365, -0.29106679422881143, -2.180878230152973, -2.232704397666271, -2.3900061919868545, 1.1473817493797105, -2.766620684502243, -0.3601394451688753, -2.496274615306048, 2.2718176538065737, 1.0090872659506562, -2.1344983255758048], [2.6393806019917445, 0.8770809094730128, 2.0019855691161688, 2.106973232967567, -2.5669705987424853, 1.5714352325067527, 0.43318360782620724, 0.1394321794951221, -0.21141492547577467, -2.3730544345233238, -0.4370620262823106, 1.0858862085093115, 2.427159544381138, 0.8400289794737774, 0.4704286490668581, 0.40279033772671013, -0.11784923825499849, 0.07557583598043971, 2.0405196107484658, 2.46875165573635, 0.2991437922749576, 0.3306597398922788, 1.4781030291861779, 1.1815843766776108, -1.823795357534403, 2.1323457758216637, 1.86471209743494, -1.3230177127177567]], [[-2.864952333152182, -0.6858116160322965, 2.7614712529352, 1.8766999188464677, -1.0117642311033166, 2.877930596971848, 2.4480541537892506, 1.7178015064102237, -0.0024449127286141348, -1.7912069784957991, -0.4370821761350454, 2.6712515930460965, 2.087489741372191, -0.9591285423257019, 1.6651355624443127, 1.958303891356758, -0.2945228771510964, -1.2335823103299093, -1.6453006976682678, 0.6314095626586846, 0.5848933799827325, 1.980261430328948, 0.1889474681262966, -2.028063136246196, 1.3748756779907154, 0.28732566874008114, 2.1662557142377583, -1.5472699769692406], [0.4613533885560539, 2.7839158979432055, 1.8328992758380114, 1.331766296688773, 2.842179548266217, -0.7907228803543624, -2.11726848237093, -0.11246142080586496, -1.7285671247721421, 0.9976021678403479, -2.4327822259817324, 1.412830728233299, -2.194085826412174, -0.6518096549908869, -0.44584680999619763, 2.843343293580178, 2.310240660908894, -1.4271023831364635, 2.6818202017288515, 2.1038879935490566, 1.7599536735514665, -2.885760096709016, -1.8068329859147045, 2.84097319741271, -0.10248650466391673, 2.7271668681171644, 0.6649513978542254, 2.3712272885631824], [0.24432357517443704, 1.7474223888588822, -0.055090101099686706, 0.34447868769716816, -0.4096208507404504, -1.559772160541333, -2.634876244502404, 2.2270044624066214, -2.293075033063584, -1.9462090291770062, -2.2717297532100007, 0.4127765011140232, -1.849524958984548, 1.6228486018643649, 2.825204496502433, 2.9803371699713272, 2.2090205708956443, 2.799495110833501, 1.9233342440151793, 0.7815859106484933, 2.506088830144151, -1.012585563625019, -1.7446251515323246, 0.2145109995066692, -1.2398743098723801, -2.27776542815521, 0.39406867302459503, 0.8117384133332077], [0.7090724358961285, 2.4028173525880625, -0.6707443521526963, 0.17650652156632018, -2.2308955384720264, -1.9256219015627958, 2.213666140604399, 0.050811995268993826, -1.9294243658038353, 2.7124111674268487, -0.7461256215428937, 0.016527920476830715, -1.8614871287838786, 1.6677130421108997, 2.6244579541604063, 2.325721178970368, 0.006839569343844776, 1.84186269027479, -0.657270536892506, -2.4698273109165254, 1.1421239772114102, 1.8350251446510395, 0.1316512544116537, -2.271629196846103, -2.9325031580464387, 2.2746003409197755, 1.960274918251411, -2.988824431086053]], [[2.717925006627879, -1.3829893149788264, -0.29226596848511743, 1.3515054231484225, 1.6138362298364548, 0.2601528068968193, -0.8935014818505795, 2.9009602942420445, 2.7133372518253065, -1.2566543264478844, -1.7669292222531339, -0.9839717949227227, -2.164803099304357, -1.0407888668786924, -2.065662906092895, -0.9043423434098847, 0.23002084801761935, -0.058438576104557605, -2.46089677415102, 0.7109691019636162, 2.4291838915957014, 2.1827735464465086, -0.6418791908819745, 2.0538047577520455, -0.9468185790221364, 0.27520835087076856, -2.01700418419665, -1.0480766825605012], [-1.4637488088918356, -1.1511187626812858, -0.5559843558399384, -2.560107833720019, 0.5689547229397043, 1.1597191621530243, 0.02298238524043761, 1.0458398351016571, -0.4135673480949533, 1.209469177995258, -0.749143205675761, -2.3529918991826144, -2.1509074722872503, 2.288679997350439, -0.7913648749411575, 2.362141975203114, 0.7178526169883179, -0.24896159596732748, -2.983539764540847, 0.1394866314199792, 2.5525488354678956, 0.29921566276011546, -1.4800552754015035, -1.668481484141563, 2.5197531300308116, 1.045505063086222, 2.4637466604639284, 1.1581235731486617], [-1.9362979160439155, -2.224064136530143, -0.7960662359731892, -0.22014429033409044, 2.5230636805241584, -0.11828283829215813, 2.762967171181998, -0.3008123302672461, -1.8330669061863978, 2.2577312931459232, 1.9108864203610256, -1.0312616692985468, -0.4553639089119308, -1.778238461915316, -0.29413758673281265, -2.562657071732561, 1.642256052353238, -1.8393007787534177, -2.1449538445352143, 0.6572698537894821, -1.2215546034421951, -2.7800268388716334, -1.6754278970003917, 1.0450892234530027, 1.3781007544498571, 0.35129694435202996, 0.07573951193978612, 0.05448458087635144], [1.5999550011862969, -2.74499903492601, -2.8230320839730734, -2.8163209615623117, 0.9376758819346103, -1.4414649029399755, -2.5570460522295013, -2.5604406784364713, -1.2670517107363086, -1.3431461983867694, -2.3348259173174615, -0.9386230588832829, -1.2309905733874984, 0.7815816338745805, -2.590675335381365, -0.11818742593348297, -0.24738200007955413, 2.1516160539829734, 1.2730525328553837, -0.9878155424754258, -2.024540723375406, -0.08905873426182565, 0.29578185870911433, 2.572459105558605, 1.8049319132742392, 0.013942986019213066, 0.7196394798938561, -2.978491374235323]], [[-2.4081702970575183, -1.75517742690764, -0.8315650921733178, 0.864492989951128, 1.76971109965441, 0.22210223966139653, -2.7567304126048535, 1.322611598771216, -2.3090108873480553, 2.4146266929871976, 1.0662825695000588, -2.1072405179394433, -1.4423976537157728, 2.685071514956701, 2.642539542947187, -1.8247778004684825, 0.631063232549999, -1.261782509647079, -0.6695561220338906, -0.5671610088784131, 1.869339334000184, 1.1502839498579327, -2.132390712880365, 1.9496815984387892, 2.9846716096816435, -2.520646808105637, 0.25445676917088367, 1.7439972078695751], [2.4817049835079033, 0.2567639443855052, 1.5310862551986633, -0.8074224795126317, -1.6983543498889921, -0.42859554860554505, -2.7236624438677723, 2.396281900344637, 0.6212187517435579, 2.210364383676384, -2.5133198325067143, 1.6741974713870214, -1.9516053304351821, -0.2604732233599112, -1.5523489485465662, 0.12989340164246865, 2.807146796978852, -2.791003911226597, -2.6079239048925253, -2.8470896528732834, -1.3804164939564072, -2.784901093431142, 1.3306974025131524, -2.733163743990376, -0.9076361012067942, -0.44450514123501694, -2.7855173528328043, -1.5281057424788014], [1.1994770925520424, 2.1929214342998105, -2.1523617904813697, 0.5115453850731582, 1.4979616475071937, 1.840712825235304, -2.1862339979033054, 0.45326646086390276, 2.9719975816562494, -1.2467650774535999, 2.8629474835148283, 1.719076874805734, -1.050564555241514, -2.1303985273810664, -2.2149207904747055, -0.3603741398639224, -1.6576690080113892, 1.5672508908030673, -2.1865309630564056, -1.298420760085738, -1.6546832850366429, 0.15615744969668288, 2.5238023983144755, 0.39941140813483056, -0.3993950520795213, -2.9857700750037077, -2.7807568475311406, -2.424897784703284], [-1.556664857367162, 1.4455421838957356, 2.8554670159799773, -2.6383760124161992, 0.7494491147878901, 1.2570255132334491, -1.1334502127018595, -1.2266477800868245, -1.9648180059164326, 0.9813442718841889, -0.4987083105147674, 0.7134583851794725, -1.7713661192652417, 0.32095292615235005, -0.7621512173477347, -0.28546573241261086, -2.1393641969066586, 1.3887216623366507, 2.6473475428019704, -2.36191522435954, 2.1184966297961125, 1.5672714654991413, -2.2103274269447146, 0.7676482169716414, 1.743255358730499, 0.6383814038815405, 1.4114864454721125, 1.244264073305673]], [[2.624467400511584, -2.6536041998189583, -0.5190773085158864, 0.3930158068658769, -1.9712440519996808, -0.07014649936521078, 1.6456054868395675, -0.1563926489582994, 2.1097605373506383, 1.8583111702308592, 2.8562346521503077, 0.8613808029860417, 2.0007501295789005, 1.416178299204569, -0.34533891126503535, 2.534881264380262, 2.5380830556014837, 2.2114537539922194, 2.5890354555660835, 2.5828300171083445, 0.5848475385902692, 1.379525332898302, -1.0607305806194904, 0.5359421561490145, 1.4405297172912093, 0.9582489330552413, -1.0767897041837857, -2.3143213145141575], [-0.10858517435790649, 2.025088079305788, -2.4968305006483362, 1.3100749043661564, -2.7229088766597025, 0.22517835050973867, 2.739358435618853, 1.298724844108058, -1.766757675248671, -1.5883422837344687, -2.6862134562186206, -0.7708506885486832, -2.149649175230457, 1.498611150378954, 2.7662189149848633, 1.8264697670448093, -0.22685998044379874, -1.3609105703909785, -0.6688156083877859, 2.7055773850099722, 2.0622018184706485, 0.42969049257438297, -0.1866564856136801, 0.8361275629239895, -0.13242973582241913, -0.032474561488803566, 0.8838282293634081, 2.182064323946495], [-0.4351550571569196, 0.09181587893110166, 1.7598831945583013, 1.4901463738602496, -2.491125421602902, -1.7438573771805566, 2.39246425101432, -2.9484671610841904, 1.1124455803813342, -2.9977198688281663, 2.789212637363571, 2.3469523589857975, 1.7597175902055238, 1.9844022980682245, 0.1595753642475657, -2.94052212280082, -2.2011214564120904, 1.7130972210067288, 2.8522057957862392, -2.8971508102203005, -2.729397577147557, -0.5659549602751013, 0.4496524900659309, -0.6202397463063054, 1.4993785633186985, -0.33028389450033835, -1.7320930251569373, -2.0505538599873767], [0.26496868561531794, 1.1393010406671218, -0.7595179996780996, 2.3274416205119763, -2.1640082824352893, -0.7280322984195289, 0.9160269526726887, -1.6562364774394198, -1.2488654803306194, 1.065737495672976, -2.0899498838459545, 0.04435827514331203, -1.6156478398683027, 1.1673230640066627, 1.8710245919454724, 1.8217879046412442, -1.2808513753844082, 0.525466450397821, 1.8365083020080641, 1.663418349823802, -0.9754478938525404, -0.07951728494915766, 1.5327678483159657, 0.3455836380920134, -0.7194352889419746, 1.4788006448928943, 0.05612258461127784, -2.6163626027411593]], [[2.6249448173334518, 0.3454759779227712, -1.7404058467609456, 0.8880730269455013, -1.5543594112298584, -1.5138609454549732, -2.058722693620799, 2.1368016151854388, 0.41313569254148064, -2.7743930149851144, -1.1503761517231832, -0.5149513901319271, -1.081570085313425, -0.44381027083614066, 1.812284548207594, 1.818941460013055, -0.6233895583176832, 1.3878780936950124, -2.8514635008593765, -2.2283173627638897, -2.3476027697602184, 1.9592144322024625, 1.8376868322325333, -1.5837129647507737, 2.094380259950076, -2.2099311705245714, -2.3601617383693103, -2.321498589508672], [-2.884568985358695, -1.7325424188345673, 0.8999481371101647, -0.5691060209678405, -1.7643796331088133, 1.2990535009640727, -2.4566928433710724, 0.9718692340201112, -0.4917803891458261, -0.3348751313276557, -0.5499323740361781, 0.07517108261803163, 2.4014141585433855, 0.40377750390479283, 2.905886376167178, -1.4279926041588817, -2.8338672119154618, 1.848452623801844, -0.7208723243416415, -1.7721681610235434, 2.257412364816523, 1.1100131629077978, 1.9309289394580276, -2.244633168566686, 2.0117141050490357, 1.636742762188133, -0.9996429672174805, -2.6002582229528937], [0.028046905143057188, 2.9874874413903223, -1.666770370858099, 0.5972354540284979, 0.6777134099002988, -2.012598036159981, 0.05543224393492707, 0.9283377820726901, -2.881603071334707, -0.6482198372576793, -1.0810181716601588, -1.0312553427645335, -0.8164045002455169, 2.842783833379288, 0.6386100022329368, -1.8042399105793951, 2.2275916208565256, -1.8762834041478953, -1.675737777559873, 1.70353340159022, -2.1231373629812147, -0.6779826622132124, -2.1950697731202338, 0.581054112264618, 2.630577507826761, 2.6184789744602925, 0.6954796355912753, -0.3894011900112977], [-2.784965151045898, 1.1457887582702702, -2.540877787190392, -1.2936931273639145, -1.2334047189552626, -2.2416614473946943, 0.8897280695805154, 1.4501941987387532, 0.18383853120986515, 2.7078532072692907, 1.5704866103493202, 0.31126986405290324, -2.6783464543302955, -2.56018349477874, -1.1994930149510366, -2.427604286714656, 0.24122442759253016, 0.1046118847980062, 2.788564281195036, 1.5087609785847507, 2.6249010542836873, -1.449977921944028, -2.0531624489378384, -1.6166309644560064, -1.2666848288366594, -0.1408342144595247, -1.2423316383539538, 0.731901383420646]], [[2.668359577273719, 0.8689718677138516, 0.33382867992999143, 0.6875484840391355, -1.989889089584828, 0.8898228784358562, -1.9423863308435392, 2.68478463037179, 2.0910771599427225, -1.394240328237503, 0.3891125069165744, -2.348136662844883, -1.6750191203529163, 0.3627251962046243, 0.013917224798510652, -1.8874884466897695, -2.751967142042033, 2.0364709938129018, 2.963993421747465, 2.8424773936411682, 1.8455633948999406, 2.0487759225146904, -2.7325488980064296, -2.0942474650732437, 2.576268226255115, 0.6668163061432386, -0.6871278970597219, 2.423771243879006], [1.4284192228722077, 1.9309339197344748, 2.8643494979590427, 0.7352155553886384, 0.1024023612792524, -1.109952233011613, 2.327700778256757, -2.590977191807875, -0.7150593805513732, 1.821831783457382, -2.702490616374943, -2.3787955530126705, -2.7430293719547474, 2.5818505507020593, 2.4749314080376656, -1.3840361414818547, -0.6325763164461655, 2.7654366825282786, -2.176415272870852, 2.9641686651746486, -2.4933788068525695, 0.2997433611028226, 2.7883040525274803, -1.205508931274483, 0.29890157999282785, 1.6140219302006171, 1.1392756705577076, 0.6004227791602821], [-1.0164454820920306, 0.5769118380630043, -1.6402554946119663, 1.5297123831515487, 0.7531974033056423, 1.7098367811140784, 1.6407033362528214, -2.6529623854549085, 1.910233536536384, -0.28016900207930373, 1.866504512798901, 0.8680311147567359, -1.0105033307308025, -2.2728400445781984, -0.7116711300835483, -1.288469652181216, -2.4187295640445887, -0.3646629513039592, -2.7764125212293287, 0.8230078036553303, 1.1816385220642074, -2.463730743248247, -0.4084394473298296, -0.42801138212550516, 0.8847445048503189, 2.0589760211638453, 1.1578323149677994, 2.5719912356367427], [1.2548645317336753, -2.607648318588223, -1.9486823013413999, -2.802125333756477, 1.5634653029699477, 1.152760343599546, 0.34102684580738174, -1.4197969514177715, -0.09045045723091016, 2.7773194633840914, -1.7884385462769472, 0.14640903856621268, -0.08031370520942627, 2.86389862130481, 2.7506239450515757, -2.0006698834752576, 0.05482068354669156, -2.3086811780462186, -0.8633634379075739, 0.653447600145447, -2.7963961280382117, -0.8430208859533006, 1.3435196203625654, -2.593058678978614, 1.1401981630589635, 2.1101556177195038, -2.589727872557055, -0.9743448952251272]], [[-0.9354427183324772, -2.813198209916666, -0.7437180593267883, 1.73865522896826, 1.807683086012518, -2.989571683251475, -2.7799445195407455, 1.9799474066783658, 1.1716769073329338, 0.8768591789281377, 0.14346208327957077, 0.06360570638554774, -0.33602821720269604, 2.9133885326295506, 2.5557411983526688, -2.5168638819079483, -0.5778658034103659, -2.013840291115459, 0.6965210580178436, 2.9721089570652515, 1.7545067080298384, 0.9237365531428474, -2.5139185946096188, 1.9313054877020868, 0.3302027838778283, -2.410928761423907, -1.1811101502851862, -1.0674783926124498], [-0.41165678586230126, -1.0095092534751096, -0.09413773556503635, -0.5912673016907393, -2.304778429064225, -1.6386197556511903, -1.6765573794622861, 1.9305307512223413, -2.337560862702624, 0.46475042662710475, 1.2523305320406548, 2.0040164320463, -2.2020940912032207, 1.6433618275586168, -2.856607010102011, 2.194309838544009, -0.548115593548554, -1.625793895212917, 0.3608622804856023, 2.2315072174849817, 0.25668007202029264, 0.09116498556225539, 0.11666114014045492, -2.0028345395124596, 0.9053192539941151, 1.303102685642786, 2.8689265005751317, -0.37387849920822713], [-2.098307835197604, 1.621916257955034, 2.3909362554047764, -0.5782348122504084, 0.2383518975099861, -0.5238458686958984, 0.09123132166692827, 1.7102051370073656, 2.803683084661782, -2.190658638692014, -0.32169058415163043, 2.586717450650105, 1.5050980876990696, -0.6052259568229204, 1.883816079802921, -0.9829512527325304, -2.8578868287819414, 1.1737823811889276, 1.1102010179821882, 0.6083248138282089, -0.04474081339655456, 1.769348907392482, -1.2565528368484273, 1.7630592638512317, 1.7665360779377748, 0.16381786003215293, 0.7477451740812899, -0.7804372796524701], [-2.0371313838806726, 0.39915342624987193, -1.9361681285373362, -0.6015174646748811, 0.959818597088113, -0.4193845657703581, -0.9527736553884765, 0.14753712371879413, -2.6419859357453435, -1.588985928416222, 2.149003810116988, -0.2757059465079186, -1.2878663975524083, -0.5547072129691615, 0.6178150278172359, 2.4682487644353, 1.4096090539066939, -1.2880079038036083, 2.0865239226083476, -2.341508767765019, 2.917343356711509, 1.0266549488641274, 0.08512196320513121, -1.620990536751729, -0.8718142690824435, 0.25286845228969845, -2.6852217374590155, -2.5402571739635187]], [[0.387233373573018, -1.490453906103071, -0.026363239050731124, 2.810147944536154, -2.3935835030270405, 0.9848990830853213, 2.799651899473732, 1.7757522325040487, 1.934456080207358, 2.4026829014326623, 0.6714578201378494, 0.7814580196399774, 2.099057031109675, -1.976054442032545, -2.470425920979657, 0.05979952419786816, 2.8336148193545228, 2.6802636077420106, -1.0458331595283685, -0.5383612247067626, -1.782447518616659, 0.8255537870374168, 2.272824756901402, -2.9237823517903196, 2.9541727354536267, 0.6033304138481537, -2.8075176119617513, -0.31985730036637383], [-2.976040216114921, 2.6804491724040735, 1.613416482720007, -2.413772577686919, -0.9346103290918872, -0.1003209524667481, 1.379088830028345, -0.16018485605299748, 0.6707786733285492, 0.6488840191012768, -1.7470287672964004, -2.8295670554795858, 2.8550096763450457, -0.2165662625680449, 2.831115016085797, -2.004980900735777, -0.034418712862387846, -0.41322345770552804, 0.7557815942631922, -0.18582640561581076, -2.6491489489098123, 0.28001160096841726, 1.9444577668355079, -2.3502408704080255, 1.642705216155151, -2.964356865455051, 1.0796003401808143, 1.582322061290621], [-0.49069849887071104, -2.1339837240378148, -2.22097523610251, 1.304092352446169, 2.8877058026518903, -1.7562704121971986, 1.8250957811086117, -0.5283257743255683, 1.3506183592381085, -0.7376683705796951, -2.946840615421894, 0.5647592164791515, -2.993042614409747, 0.07810705367124005, -1.4189065721935923, 0.2717420276481457, 0.9116553736035939, -1.5252348396689297, -0.734169908991301, 1.3081183197752004, 2.0368302392652495, -2.0599483562205343, -1.4282739723720057, -2.9296018624299203, 1.561820529457079, -2.4765089361056756, -2.4315577102039834, -1.7618909179588553], [2.4632794407291323, 1.933040777381251, 1.2865661386953082, -1.4894364872075891, -2.782930874842082, 1.771660323631016, 2.094532620738434, -1.8817541483008524, 1.1191256629849562, -1.1194905345008481, 1.8814845260046296, 1.266555203581877, 2.3907942102608315, -2.9098496330626453, -1.7045830601917826, -2.289242850631549, -1.0128643610188348, 2.531575716205544, 2.499896833621161, 1.2921120156207255, 2.31954377432454, 2.9558455785844764, -2.5821116226556944, 2.624281763245861, 2.9068425379382123, -0.018287416081619323, 2.1570154952676877, -0.39395377304757684]], [[0.08123995182400678, 1.0225782552195621, -2.2854602827490416, 1.5303814430185643, 2.135612239441251, -0.7077354995364478, -1.9225949028286358, 1.6679977898378224, 1.7826123899486257, 2.7312203250323703, 0.23190332901602195, -1.149322277764765, 1.6177367522688693, 0.8359221367004079, -1.5521184256143938, -1.7881506854483487, -0.7096433862792741, 1.8300273729736896, -1.9499587499585318, -1.9416808218068597, 2.472734399730598, -0.9501584937899459, -1.2804325344852767, 1.9536222412699535, -0.03824703858384915, 1.5860749269540975, -2.814605254512914, -2.0360995622948614], [-0.07910068992772024, -0.5476364282751147, -2.5726196456864554, -0.6758981559258728, 1.3617175838190203, 0.6904684579182714, 1.5996585177182565, 0.19599954773789818, -0.9168103397303708, -2.939198835274823, -2.8116878812045356, 0.3585078480989905, -0.8470746604907102, 1.1258626865687296, -1.2309831011692696, 1.466087373445471, -1.0425849730677925, -1.1988530781684783, -2.200159948076693, -1.5894278551037637, 1.4654297903686473, -2.825282539105742, -0.08751784256667383, 1.3608388686376767, 0.5612766375895388, -2.1753866215027196, 1.2121774890433086, -2.3968701802845223], [-0.5323293303306262, 1.792399858918353, 2.4820838876313944, 1.0082607175757126, 2.9858185408082774, 0.09894209855348768, 2.9001112939806433, 0.7601539717435184, 1.7029684579632711, -0.3942909557588461, -2.3358689077406964, -1.592178880511749, -1.6490912805254132, -2.8407209313615462, -1.7434085630155158, 1.531117060061577, 0.8419038537979313, -1.2034554582399803, -1.6940936004422782, 1.7756237850540408, 1.5745307900437941, -1.7557490950271668, 0.03427908857924411, -0.7031310273217537, 1.8126437122086632, -0.7439752228200911, 0.4705365785403335, -2.7985406857290336], [0.11167559866977506, -2.2480024350899206, -2.890598511054212, -0.9797668895139258, 2.770079654828712, -2.3934784390826267, -0.36352696970428866, 2.1600840321105483, -2.951825540794797, 1.546846681498959, -1.0725966283457113, -2.0810763292060064, -0.15896353649649697, -1.6104862844448409, 0.6202992624198229, 2.68093291705504, 0.09911747383707903, -0.32768863655853675, -1.1334083850686285, -0.8212911042749811, -2.512854522596847, 1.2279903373176246, 2.0078837940925016, -1.0169631387323876, 2.464074065310535, 0.2846795506068247, 1.9297553830992928, -0.16584560603010612]], [[1.258868781981815, 2.878441959823313, 2.4753604828853737, 0.011022189806435101, -1.3488812954698326, 1.8239926770056174, 0.18000463305056735, -2.7590070531905435, -0.21733177725154196, -2.284274841984023, -1.6183710778248968, 0.28039199227612377, -2.331570229570319, -2.057285282152733, -0.022514668147146644, -2.87964354945788, -2.34502633544221, -0.11426017547503875, -0.6279630959712987, -2.1130905820091566, -1.459813887249119, 1.9633382656755263, 0.7247946237357166, -1.3940680886233832, 1.3093225205689025, -0.5509787690875756, -0.3417729689782245, 2.3838132925305384], [0.46544730839973036, 2.757730873436971, -1.820841365456536, -2.0476483286643443, 2.10041689227492, -2.606936703344739, -0.13829747860344588, 2.2402216946221163, 1.177688793158831, -0.6229048631497736, 2.501498389064892, 2.7032940584303162, -1.1378153849699586, -1.3106386502024068, 1.183089830838104, 2.9054728752688224, 2.717950293202227, -2.903305089783432, 1.8996974771230022, -0.6316048513933064, 2.8456477886435323, 1.6539921685700998, -1.66805274177278, 2.216603365222296, 0.4223958228691309, 0.4654369701927381, 1.7692829604102256, -2.514198521238985], [-0.651004856406276, 2.955573698499512, -1.4399924784999398, 1.5351179710418883, -2.489141752650991, -0.03982002897268089, -2.249991208034795, 1.522338712858473, -2.2546023056211606, 1.1651180912917, 0.2324292993652617, -0.4433716835100787, 1.7989341127788814, -2.790622509963768, -1.9551184360474925, 1.2635314815991006, -0.5633234763407948, 0.47926588764365796, 1.6074962754516475, -2.2630207656410306, 0.8768380766464579, 0.36293117472440084, 2.87496772611337, -0.16396023412663752, 0.465740614895072, -2.4976741846324533, -2.473729608196896, 2.6323029495351076], [-0.754410257990366, 2.4378453664199133, 1.1408783774169091, -0.5375814794039009, 1.7653956707361802, 0.35726899763400866, -0.17233099894921544, 2.1655546717771035, -2.4218935195856193, -2.3816087579016867, 2.4552821686579405, 2.5437517281216646, -0.11561659354595655, 0.12387653161464396, -0.17866361231502648, 1.150093237465808, -2.1052096348677396, -0.769551553589169, -1.6922559548867016, 1.3139208129913422, 1.7993859061799462, 1.7107864507348651, -0.22125508061291121, -1.5955324866947884, -1.1643367004103584, -1.3380470686198196, 0.21688818773625584, -1.6146953478274961]], [[-1.6396577701316664, 2.7622261634582754, -2.0663901492899046, 2.81907850326271, -0.8608899482492287, -1.928380076892477, 1.8717589785601785, -1.1637062246585324, 1.939303841776237, 0.7328875421625698, -1.6153287440572197, 1.6750886897235402, 0.3235831055041789, 1.7004359542080607, 2.516967867606331, 1.0422965903551056, 1.2703733259515584, 2.7505459907738192, -0.40353254071508005, -1.9119237983943012, -1.0992718262521275, 1.8253463763306197, -0.1094907126516107, 0.7181643091916414, -1.5453633392959245, 0.36979805137642074, -1.4447517908970637, 1.6727496922757155], [1.1278230333132555, -0.16306551479995957, 2.7881969929916846, 0.34470280610605375, -2.6040905984115925, 0.47610218677333105, 0.5326655926006096, -0.6635943645219564, 1.008805006195109, 1.3211912272755981, -2.3535267915506033, -0.18062948570637793, -2.2105344334900794, -1.754621288127612, 1.1761462223516403, 2.954682590014433, 2.991677303214386, -0.3905996045363054, -1.1940990955905757, 0.6351518230292412, 2.5540566667618183, 2.890192534940349, 1.9443780386353868, -2.8124571954252953, -1.9380767725316976, -0.7458375411046441, 0.11307462371900012, 1.2306556295425901], [0.5652524171973203, 2.937058707413586, 0.6127786880589192, -2.049809043996623, 0.4011782816899947, 2.36661513244706, -1.5351318697326863, -0.4402696020720622, 1.980983832620785, 1.9700512942495818, -1.5005589765417682, 0.7511368319385716, -1.325996885938424, -0.266674711664066, -2.9014515826804086, 0.33421089096265444, -0.921332464538366, -1.9357571406456064, -2.6384798908568805, 1.2734332027977642, -2.929721759204147, -1.258585518090914, -0.012976229293981234, 1.597371531539883, -2.7007688558773433, -2.8268143889146216, 0.0011973926880348706, 2.222578871690244], [-0.20363174132875272, 1.5895175421906167, -2.7242088015334316, -2.3055405442170915, -1.5114407280878617, -0.6505950684303423, 1.5917805217656973, -2.506780378937032, -2.620409165681835, -2.091655293596559, -0.13934950080342423, 0.33010944117421603, 0.3165385624824939, -1.0572920930065182, 2.6205687152300756, -0.5009675826559703, 0.16583400503387224, -1.6799432232614362, -2.500685028105737, 1.4069615032475404, 0.48226446113913823, -0.245537404014752, 2.0186014874940117, 2.776119935308694, 0.6752795231466879, -0.6683668802726124, 2.7715802500728604, -1.433523849158482]], [[2.410355604081521, 0.3188460772574411, -1.8833386798852891, 1.5952629691572389, 2.9028259219901305, -1.3894712429663778, 0.2826672190217563, -1.5787671914771735, -0.6695104357402943, 0.49966194920964657, 2.1217387812899533, 2.0732487550163974, 0.055431139723355116, 2.4450831072828434, 0.8562062306801952, 1.051951722970153, 0.6071251125978776, -0.9496275416961231, 1.8644624379712917, 0.351499599646929, -0.07335626710108567, -0.2981586158117988, 0.23455872865716643, -0.5696753711545766, -2.6415492517639665, -0.40602975966216626, -0.23469466332654632, 0.585541361214065], [-2.498145133781258, -2.3347087450030193, 2.8441678374895005, 1.6000082391085666, -1.3066830457299854, 2.9926595488416643, -1.6853079140737033, -0.4592179628367026, -0.6326844472040216, -1.2327836069689835, 0.2744213988914357, -2.9743716695192957, 1.8609294651775663, 1.890606199135826, -0.13924475258822788, -1.4046242152525223, -0.5553204128947788, 1.1601912384971245, -0.48473084884356243, 0.4320537244283811, -0.14548786878845288, 1.947062967331389, -0.9935396766453044, 0.2324424017878659, 1.6427853199898212, 2.361616180609003, -2.490233907278487, -2.7666161839606214], [1.194253040496882, 2.607490324478066, -0.2528422094782412, -1.7925473068854747, -2.412079178957654, 2.5767994301482853, -1.8854577182769734, -2.5505927926851335, -2.2901865901345113, 1.3126166512146584, -1.129785735840354, 1.0696075294438492, -2.0205344383936388, 1.2642064051043151, -0.9261284615580125, 1.8659434563348078, 0.4105171447859952, 1.7011864061199944, -0.7599798850767101, -1.990677215690413, 0.5074740366516046, 2.8667019178211754, 2.754200624151954, 1.1080533029116806, -0.2701262299521163, -1.7503478628048499, 1.1466188693612454, -2.342525061626773], [0.38648859969438787, 1.0286835531186327, 2.8552356617806582, -0.3727171948703365, 1.4484817879414322, -1.056739936197394, -2.2339870975362457, 1.123456247526848, -1.009603670735369, 1.57424701044512, 1.5822853412972826, 2.4879435657160336, 2.249285507713622, 0.6445120225369161, 0.00221594005450676, -1.2582922808439783, 2.7873044818758563, 0.13190571062579082, -2.2326332460846716, 1.1337079720509307, 1.7292233186669135, 1.7714694178583201, -0.9442908147451403, 0.5823993783369845, 2.3960201949305127, -2.628692501366786, -2.5528783826452788, -2.8011522229453627]], [[0.0070181680020517945, 0.798928495666269, -2.7234823896788405, 1.1034502991019322, 1.656707435344888, 2.156199684355001, -1.5821560209747507, -1.7685063655371565, -0.5198331346203715, -1.1077288052175611, 0.6538089994295402, 2.824677070697465, 1.3148173221006214, 0.7942146106828529, -1.8373678200986532, -0.9950206609704111, -0.6960395889483455, -0.2595752686603481, -1.1222115105852273, -0.7528754675202416, 2.4663256016781947, -2.5906855102347595, 1.5730068462210705, 2.1335637689843043, 2.6400925360617356, 2.790749762777631, -1.321311568289111, -0.07030866004369773], [-2.112728935544334, 0.28841644553425994, 1.1713186945075051, -0.5295646166858803, 0.5890767535518506, -0.7278945635753775, -0.9485452067991575, 2.8660882586054237, -2.1836888000789596, 2.675725148098241, -0.9521547800625028, -0.7630858166459347, 2.877821237851224, 1.368036913430851, 0.3378031409417841, -0.481534395984756, 1.3517514158867785, 1.0303121961392385, -1.5989590368438, -2.9042453230464362, -0.644710797304537, -2.055553775654289, 1.6225186675745178, -0.24123566871972324, 1.8624461341734513, -0.06683978917274658, -0.48548214144724877, -0.9211514540339598], [0.7733187041696201, -2.061309764943378, 0.38603377196257194, -2.0255404943597455, -1.0217252373336976, -0.8076977341793752, -2.9487148570201738, -1.4101980151458176, 2.0148600159870975, 2.6554796344564666, 2.997494987282195, 1.7020643156566688, 0.4501052454987078, 0.8637310557416691, -1.6798152148099748, -2.3615070226328663, -2.6641612587382006, -2.092032866508572, 1.2638712449494784, -1.813286459941882, -1.815504430371894, -1.6312819582311133, -2.561129616993278, -2.9728760653599, -2.2439094166093336, -2.6758595931181466, 1.4268896480529474, 1.8242311902079846], [-0.8340031934786731, -0.3773200524481686, 2.067989898074826, 2.690936291531912, 0.5781710117936099, -0.20527112378962364, 0.9239171139130287, -1.0963058706521769, -0.6460905758156175, -2.3947935431271103, 1.620339442491706, -1.265301796588693, -0.08753806111329743, -0.012982043419186517, -1.3394070187427327, 1.8084666617537408, -2.457163620962435, 0.27783916728217894, -1.4770230444978398, 2.981554069096674, -2.4363874043391816, 0.6020468107650627, -2.1405079693904683, -2.164954509928984, -0.4382118907200665, 1.110586396987597, 2.0195983780844973, -0.3735190575968814]], [[-0.06408854278134912, 2.4035779732839604, 2.1305126672067782, -0.5121610860867278, -1.8037200717669517, 2.503698088314848, -1.6659168893060115, -2.5664550381903632, -1.2070889322558624, -1.8156196224858374, -0.3618682889545468, 2.976961615869544, 2.4061512650182184, -1.170729579276589, -0.2883378782713204, -1.7739379459315827, 1.80248179142761, 2.607030806488827, 2.686294214422176, 0.6449001593296577, -0.6184510675799966, -1.776194743791354, 0.3338992185551257, 0.26424969965489176, 2.337175296132842, 1.7284219427490637, 2.7464320999830267, -0.3321740622024105], [0.6494067995230184, 0.7934354100771941, -1.2366554401709497, -1.1549531663232, 1.1504304279039461, 2.1207129017365753, 1.6254103693255617, -2.557673961263201, 2.8958299739749513, 0.15714378104130855, -1.2328454572744454, 1.149547670360616, 1.82055180569097, -1.3816097662992124, -0.6170537218462799, -0.03885347393667615, -2.978759090940531, -0.2906419701828753, -2.231932574518549, 2.675640948643041, -2.2865167816985403, -0.9641517489590568, 2.5473788002136892, -2.447339283347536, -2.373911956392864, -0.8360947657323567, 1.7334102375135014, -0.9229575152119134], [-1.6397783280951632, 1.585799544720607, -2.776322205253779, 2.6469007798265434, 2.9501623201436145, 2.443462382195717, -0.46538811920278356, 0.35987792674998786, 2.3899421559754686, 2.0494113211021237, 1.2875004045745477, 0.7732789186908997, 1.2963855122033063, 2.1257247935916492, 0.4273561639537693, 0.6602973863704324, 0.2430130835198301, -1.1321198458809565, -2.4236079619406485, -1.6563082555619355, -2.2753768351353623, -1.6933798085976792, -2.6800583932701825, -0.033835857734274555, -1.7312095396363394, 1.9569337140673442, -1.2171059766072996, -2.158427431775966], [-1.3158658964949677, -1.5828734052687004, 0.06078052537014411, 0.6170628542561238, -2.5195478937558713, 1.8271288171656153, -1.8044670304986081, -0.575945503341246, -2.1446597996934678, 1.1380027373394066, 0.049823565962152205, -2.27334412238074, -2.809579419944088, -2.6098647763361433, 1.8084500535909438, -1.5417339204510394, 0.7923673338923303, -2.233277414213275, 1.4733822888082528, 2.128981762577121, -0.46435986586033096, 0.32249604014718614, -0.5372254041887654, -1.8320343932465095, 1.736249997248441, -2.1202607568017777, 0.6272561507747194, 1.9341655374248727]], [[0.5460674520703472, 1.8368894749917803, 1.1203266440106932, 0.057063837152222074, -0.2982422455549547, -2.1526704778307284, -0.7860878351608678, 2.66500926944017, 1.036844960839293, 2.785054754284965, -2.7967213021424837, -1.6100864618533008, -2.5325055985424085, 0.14148335551002766, 2.1255758053739147, -2.1020964177330743, 1.744216798239849, -1.666389933470202, -1.6756025711726448, -0.7299014353896074, 1.2926287249242252, 0.006646456581163029, -0.4653010249965108, -1.3158779418342423, -2.744239195266707, 1.6676353685030474, -1.7668179148487104, 0.15297096245903008], [0.1360542872131676, -1.5700987400296729, 0.7530521194992601, 2.5414589028526864, -0.28275068432437633, 1.9915527750953093, -0.961192000209361, 2.0898862049823332, -2.3009412289883207, 1.1692486033353031, -0.8671650626736245, 2.6430360941881252, 2.03430051467394, 2.704948438354167, -1.6150409618763701, -1.2415921856960639, 2.7802862786262894, 1.8410075529004413, -1.138730692673268, 0.9595496547167537, 2.853813953963785, -2.2610240212904396, -2.6207121813038388, -2.6172513142881195, 1.0749930107260637, -0.010368165006995778, 2.485009195887974, 0.9176656249912694], [1.51592453950407, 0.8550381169887111, -0.16819947916085454, 2.3651650003995073, -1.4426145982337661, 1.9626182667040162, 0.8456016770852255, 2.2557406644474813, -1.6380524036451753, -2.1758805636386223, 1.9444293260838208, 1.1685138019856725, 2.7166240151761807, 1.3485852393025688, 2.2620622905026924, 2.220412376815978, 2.779687139404463, -2.145111710880134, -0.18920176862887494, -0.8002311862567502, -1.1690337105835604, -1.3059132152998472, 1.3464214012221296, -0.19619163876039103, -2.7403441868940184, 1.7769824032456283, -0.9305538054924805, 1.5359145595260575], [-1.5392685971434625, -2.328262548067946, -0.3275509800202441, -0.14122490610684046, -2.777976392120989, 2.1164583408271405, 2.7022984471998797, -0.9939661924424907, 0.782261129766824, 1.2155252534313936, 1.8958772414673826, 1.0065842070200528, -0.9803951056359095, -0.3549848027715248, -1.997258625490594, 2.2969027825361996, -2.9091804239811347, -0.15245014743280638, 0.9512374805069896, 1.1006767752571749, 1.304212286099033, 2.32452621796946, -2.5324599008200313, -1.844789007746007, 0.12175511272577744, -0.3822524521396655, 0.598276744272173, 0.051084671431757656]], [[2.252110854894137, 1.4508515831813806, -1.0471649076296283, 2.9565732301468364, -1.6290905597698928, -0.19632969013944734, -2.1810122307427466, -0.6918768322563107, 2.509065353605182, 1.6110539357675906, -2.5783293793685744, -1.6143763987861581, -2.7948961413609057, -2.6679404457646867, 1.5697832036461374, -0.13773492664303166, 0.40159058254952207, -0.21680666885832878, -2.4887355982551727, 1.0323378568906891, 2.1764894721742483, -2.419949777357927, -2.9610712866764635, 2.748977083973905, 1.046436837850658, -1.1954961371211494, 0.11935705312118916, -1.4552759950309004], [-2.6840934889487706, -1.2707991498774622, 0.30447796640999236, 1.3177025298846061, -2.12423102895744, 1.842570697475062, 2.8543229348607566, -2.7856246194072316, 1.7109575210939294, 2.765855046758211, -2.1178009173037324, 2.2130371786615948, 2.700984741376084, 1.1750878022539029, 0.9716569151141012, -0.9793939646946601, 2.5339824978994807, -2.4970835906889848, -2.224960914876106, -0.8081273299375651, -2.5703311975108307, 2.1045079091537335, 1.395209674527237, 1.465285788194552, 2.2278484998440486, -0.5083134179902635, -0.6500774274165178, 0.8948727473483973], [2.5713679766171067, -0.8553742061662342, -2.5167890517425633, 2.8053007495617637, 1.1990969912122846, 0.8404928976337489, -0.6659055854939524, 0.666327919480918, -2.6216215432774526, -1.7077258827537587, -2.1214827911694556, 2.5526453315520143, -0.27444566092196654, 0.7027461833288071, -1.3196199129764563, 2.583517705448301, 0.20126417776554728, -2.4083966409772746, 1.8432957374987566, -1.5857163545269553, -2.6553058112604235, 2.9447499630660268, -2.7361158697546664, -1.957880164401573, -2.0133757878540472, 2.8492267565924436, -0.3271322557510308, 2.7257760583837145], [2.401134571684307, 2.055315433841221, 0.7941556449942229, -1.2575434707893942, -1.372960342287929, -0.004868094152996605, 0.14702089149737674, 1.9516857333927256, -1.6363197980453488, 2.2848537986387463, 2.8352757507759456, -2.511584735985288, -0.506932862416531, 0.6326658358278507, -1.0720612709026054, -1.848829777683657, 0.13385234006528002, -0.3350157953832955, 0.9110671096170613, 0.12554892393016992, 0.04778626224638005, -0.04018864798874766, 1.2531426828284395, 0.6526592617491271, -2.583228463727212, 1.664971457134433, 1.4510985661688522, 2.877309968564048]], [[2.6946525996734643, 0.6682354828008767, 0.4605923717958067, -1.964748613934177, -0.5950656336102869, 0.9164133894770075, -0.051732762938714316, -0.3072334521040938, 2.371836079009718, 1.3845198920833965, -0.015333028352959577, 0.6854740362787091, -1.0623326054085633, -2.63412539590646, 2.2807548638347903, 2.0406069128713806, 0.3389857610770859, 1.997818023027924, 0.9341996349549295, 2.9476659447520026, -1.2832179586626316, -2.2064224210671, 0.14801022854597923, 2.867464244395893, -0.869982715992438, -0.7091177552287431, 1.8046304283625592, -1.8029484439757835], [-1.3183541974684119, -0.6495773040077268, -1.37014867307427, -2.943379278354107, -0.1860422804409958, 1.4586701168466654, -2.523861329753566, -1.1352558983252194, 2.058168250827597, -0.6453589795116379, -1.1082451438615821, -0.3282616499846851, -1.1206017687972178, -2.8089815845857293, 2.990984861752225, 0.8062266619017375, 1.2759192979281302, -0.505824136131451, 2.520129665750054, 1.9574388119954893, -2.494248307351436, 1.8904986621450046, -2.380853484799429, 1.2850195341439274, -1.8360494338767703, -0.720085591029858, 0.6695901906602648, -2.59757789279342], [-2.2349164413154785, -2.2703487205673367, 1.5984327176024111, 0.7710202537431305, 0.663871432816884, -0.421823630618694, -2.4958642810736023, -1.5951976733233368, 0.5859586001499109, -2.0709338163394415, 2.3481757382259687, -2.285067070376838, -2.8270772119297343, 0.5614503730501061, -0.5676222008782092, -1.5027261328183137, -1.711097769941469, -1.6949182110196828, -1.6181493649544985, -2.185805101860205, 2.0678516916586274, -0.09547758914684046, 1.619034071542254, -0.09140724853392168, -2.5410689336867183, 0.7542476708123482, -2.6810741708938326, -2.203946067431494], [1.308559726002473, -0.41486996911055973, -2.3308990880608533, -1.6030368855407444, 0.06578528051502452, -2.0084028772646514, -1.1280612670002361, 0.8414009356332999, -1.59956255825486, 1.0998192083074212, -1.9327255811178556, -1.8532901254853091, 2.414099424492086, 0.39135613511084255, -1.8973642043923296, -0.8605735581759069, -0.8394325339894024, -2.59585535077518, 1.8718600184647949, 2.313362443117933, 2.432483220666943, -0.2698555940674612, 0.9355493225287401, -1.4067688403220657, -2.172227097719044, -2.5269367605103614, -1.181476083660132, -2.564989288041306]], [[-0.5879463560287537, 0.08108405630705917, -1.7863592079584525, -2.4384612502141985, 2.338321232485998, 0.48883112233387216, -1.6871457846510252, 0.8220992442826471, -0.08258471382255905, 1.7370666672374435, 2.9112005397351286, -0.9046190545223576, -0.48103507719541483, 0.5762561236090065, -0.6357097553642381, -2.8595086108779495, 2.23439095074856, -0.7732606388560148, 1.9833381556547174, -2.200605515142003, -1.1090362553006687, 0.0878132883661018, -0.5149301261530033, -2.0187827099874776, 2.2947719968132034, 1.1812785662218337, -2.953785367145721, 0.08963596332461776], [-1.8078710790597021, -1.7945873024743766, 0.9786781460646834, -2.1400498614655437, 1.6642677000318482, -2.594163213428317, 0.7501010405748412, -0.2503552431599676, -2.4074190360754244, -1.7808963433271419, 2.449175156170951, -0.0921654250470878, -1.9057114676917049, -1.563874346120339, 2.2685687649025397, 2.058872257816997, 2.1026175311135606, 0.9952148549246411, -1.878911713737008, 0.8329347293860447, 2.1252791988477995, -1.3454240339523726, 1.8435898459587232, 2.138463005872339, -2.337796372864134, 0.05660526640604502, -1.8069109134284917, -1.1968375029012446], [2.974319445218822, -0.30056499724627095, -1.175691968803873, -0.6310785924893008, 0.09936623339352124, 0.07891706087028538, 2.4009704267713223, 1.1235988177960783, 1.4318516402006694, -2.986701408714419, 2.616024257978501, 2.3673382149540547, -2.9434824012949354, -2.487062916270242, 2.3361200259686834, -2.236334858125561, 0.2011164354668029, 0.5065423989832363, 1.3482048849354644, -0.1812794063795149, 1.7260785750822558, 1.3649268327344393, -0.26025939055047287, 2.545996358274352, -1.01810117757992, 0.9438610773213805, -0.3092365827760668, 1.4277879510834843], [2.0912766196703165, 0.9891336103327553, 2.1795707105475053, -2.3273762346487468, -2.6865466596535135, 1.518875922291258, -1.7119185800330934, 2.139148901203913, -1.305828265800545, 2.3575478672115135, -2.6630326747266686, -1.531923131840716, 2.036590479031437, 1.261149524578327, -0.4394736074656693, 1.200150777547634, 2.7742490526832073, -2.9557998773275687, -2.2780727209748477, -2.225219843927502, -0.46059755403845193, 0.8628096612832437, 1.5590294267809846, 0.8898797032160677, -2.0052885829221214, -1.9901895870913466, 0.44958540151185566, -1.0205753778036857]], [[2.2301628530266626, 1.8885761954456584, -1.3785523059982268, 0.25529298498131725, 2.4031938631903973, -1.029210698321947, -0.011347174442867036, -1.3468603798274787, -2.0312728488172267, -2.6568261952796695, -0.7073977765552133, -1.3393574432959123, 2.0546966296205103, -2.037024718932548, 2.3995329629022457, -1.7546210294469924, -2.1387423627064903, 1.5105138491972214, -0.7476723964347975, -1.9954365805310157, -1.3201003913297271, -1.190401592046528, -0.3146033469139011, -1.3097653112135763, -2.178568296041339, -1.72167464356227, -0.2004871433912161, 1.6818383989118253], [-0.09429157373986197, 1.8987125412063204, -2.679595132493742, 0.7810138778561857, -2.7137383312651924, -1.8519929154278223, -0.7833745755996429, 1.0462954156928337, 0.14562784365872083, 2.3220485904396435, -1.160251277206439, -1.2593976089487329, 2.445913705629441, -2.675586744346748, 1.8587440050135182, 0.8244185507205888, -0.527005831226409, -0.9894861338352907, -2.6437467007508966, -2.0853705301693113, 0.04508134497759908, 0.5094733548426724, 2.9611506580804265, 1.6200776687186806, 1.5679000850165474, 2.3482730673686607, 0.19919355280922701, 0.17024994775263513], [-1.1309877146429617, 0.9021420465317562, 1.8290964378207013, -0.7442655646434817, -1.3521133530264755, 1.9497648188480365, 0.38308447915139743, 2.133664428917238, -0.34528622766349937, -1.704575690080105, 2.2337691502596506, 1.5795248772902752, -2.1220432286613784, 1.7537756176644983, -1.383162997015451, -0.6057085284624932, 2.500872977852337, -0.08784469215769519, 1.3358319645337708, -2.144345309646229, -0.1379605714259231, -0.1247402907374906, 0.8822670967230106, 1.2787263411677943, 0.4055286001654421, -1.71835137444015, 2.984778395966507, 1.801723222397853], [-0.09367750137958097, 1.1989918281242211, -0.8630604628409522, 0.20957815104630528, 0.7093808329413953, 2.317741960935418, 0.2911886086086959, -2.6093999536111445, -0.5729889451362604, -0.6379558581766558, -1.5766221816947545, -2.0488901918218207, 2.296054432972717, 0.6165329240423532, 0.9567071473342299, -1.0794671604716224, -1.5634878612892777, 2.43141193703433, 0.46026572478293026, -0.193932154965462, 1.519632235006629, 2.267141754652493, 0.6880635544707205, -2.181759264653393, 2.677900984597972, 2.6912538437852653, 1.3039824929271644, -1.8524875781841905]], [[1.701470545320956, -0.11908832188374285, 0.5904208764815824, 2.878905751671912, 2.1955822185398297, 0.024590942644152847, -2.203842521111768, -1.7462238417230247, 1.8612934224252946, -2.511173257775346, -2.7140596087179922, 2.871138215053472, 0.6944697055076654, 1.132644361669076, -2.898665967193792, 1.622276198317663, 0.2778010226431098, 2.8460120711198496, -1.4960122385146961, 1.5292269783052994, -2.811216541662971, 1.262466074768775, -2.295950469198136, 0.5218874166401033, -1.912891652442779, -0.9331538382316991, -0.8202490794698685, -2.0852274099058103], [-0.3223134800356915, -1.0175000059979127, -1.1216462629617312, 0.1586793572331029, 0.129115552929977, -0.4540047595897567, 2.683846956924966, -1.2187714684162974, 0.7374849087899151, -2.3971438590461074, -1.214922363880271, 0.5866508927525587, -2.0513696523393627, 0.45268795138816387, 0.9770240254073581, 1.6285667979297314, 0.02443814628211971, 0.11222614666898822, -2.340424605679928, -2.873963949321645, 1.149640427001919, 1.510248115656517, -0.4947971167751479, -0.602510514430787, -2.0072693076851977, 0.2020736088822579, 2.2922668151539565, 2.225652001914], [-1.3413328118730121, -0.16589835068821257, 2.5399830075762004, -1.0968645397561372, 1.2504263007496288, -0.3632735620617833, 0.11952859150263251, 1.0876394447741822, 0.8167933520345141, -0.07720878392057529, -1.8305727401337806, -1.5249872215578035, 1.287093532887022, -2.5188712720784556, -1.265326361884669, -1.1827697524127048, 1.9238279526815658, -0.39948340859462395, -0.6843383132782832, 1.920267771875297, 0.4655963154410374, -2.7714635113453214, -0.49557400536786655, -1.5571506085903521, -1.5697054929302223, -1.5777836988524923, 2.1082952461049986, -0.31975130633578663], [-0.08151592907488148, -1.797120400101869, -2.0805825346080726, 0.4958194752644527, 0.1619335153355035, -2.715482094469089, 2.858553874634519, -0.3562130726254975, -2.0625363848537175, -0.7229874791758455, -0.4371456946084038, -0.5308066659450494, -1.113498965763584, 1.5819742021698406, -0.6752852628512107, -0.5596410425826663, -2.269258757394476, -2.294010210632135, 1.4993898832131887, 2.868896781669047, -2.82737646170098, -1.362281708594962, -0.687101136757132, 2.116327056687039, 1.1196943114737188, -1.5234893423585234, 1.9140220815904971, 1.7856217046182925]], [[-0.5937245291036621, 0.8800075173703878, -0.837021490443516, 1.0897002312437802, 2.900383540610772, -0.520419034548044, 1.118634209980823, -1.9602245325725747, -0.8645993670879397, -2.58293917275557, 1.9210469222111914, 0.7589346799291228, -2.112852910616909, -2.3972160912683407, 2.022877475009647, -1.9187720887440074, -2.0093380812275043, -1.3845381975624225, -1.8135679782633978, 0.4453262109284184, -0.5856034218762898, 0.4905365836910862, -0.20380022418656907, 1.9305394824228843, -0.14904144414689213, -1.8120665453715175, 1.6121458937392017, 2.3940206620481], [2.280598227804189, 1.939511942715967, 2.7092505803837668, -0.9689862903908679, -2.3000428254193506, -0.49692348347033466, 2.2332963372685484, 2.1164109398827655, -1.188921999365098, -1.3720825416570908, -0.04191506593535532, 1.5956485040512973, 1.102038837662418, -0.44179147727464985, 1.9243467283672944, 1.378414232799745, 2.6221583573987077, -1.7436168998623534, 0.007570538371783453, 0.5563754591440935, 0.37986755449171605, -0.04025360759621943, 0.4767431143091585, 2.146476874042258, -2.742526058596692, 0.4998970761097743, -2.8564299533231043, -1.5046388231066077], [1.1220666273797093, -0.5888296667138166, 1.0588273100609635, -0.3388924141850991, -2.5956235649399906, 0.16606522855652894, -0.9765167312621488, 0.1753215234058243, 2.2221848993867948, -1.915953827257532, 0.48932371212188297, -1.5050185202732698, 2.7476047190761133, -0.9390209937396392, -0.44482119156831645, 0.9481145115809557, 2.6731329410679656, 2.410942042829105, 2.700235172319541, 2.0334206709022506, 0.48901271277811764, -1.3257848379444022, 1.227401814715006, 0.5539794786691266, -2.658466489300685, -0.9352509824324988, 2.9976592335007544, 1.2341237960859202], [1.7721254045793602, -0.6996871942968825, -0.8260587018349295, -2.577861238517764, 1.266017735865617, 1.9098187500096433, -2.225606158371277, -2.2954741601545727, -0.9801350821041765, -1.9116854207801246, 0.5659909658230227, 0.17266443628586714, 1.3146149211145541, -0.6308698815680556, 1.751600299747822, -1.7678905126312692, 2.265135364802865, 0.019087567407090944, -0.22084695471250448, 2.8017491073575673, -2.1344683591920584, 0.2584322857829404, -2.9973539911698195, -1.8838373475326542, -2.244569136114306, 2.7151693448901133, 2.625587453145269, 2.9578711296726716]], [[1.5018794710513408, 2.652940373763724, -0.676637874615631, 0.135962019563026, -2.1912867853107487, 0.6389186619237082, -1.7988583602066757, 0.6093595236356402, 2.529955946985634, -1.1082357645986052, 1.8276573560854281, 1.8327074656602935, -2.7549490405380954, 0.512234309901852, -0.5863631171725396, 1.3926152290289888, 2.249101344209392, 2.9171982891064863, -2.1350459755509252, -2.6222382692907527, 0.9704573841611572, 1.0828075830580248, 2.2341623202432253, 0.3206299216551072, 1.1796832472957792, -0.25910554986609835, -0.2673122081392001, 0.7062199641253519], [0.3758419811137226, 1.4193256804052279, -2.81623112701522, -0.29222534502445763, -1.0683527289076324, -0.5204432619398305, 1.7147218953633239, -2.4531745577247936, 2.078453741015699, 2.333497052146164, 0.9115875663398239, -1.100571833254586, -1.7619871142617747, 1.8138716638055188, -2.6365553488614615, -1.7497327733368162, 1.9692070580147796, 2.228334499550818, 0.6454202919516545, -2.9809373700856527, 1.8131845887671378, 0.6915420976891573, 2.75832170015992, 1.9666815236171953, 2.947978000933743, -2.271200313606708, -0.8126071259950134, -0.9432257683301639], [-0.8025472463228676, -0.4738385153909497, 2.1821340473336575, -1.6524976659766093, -2.3202564390985065, -1.5839408100779104, 1.1992746501311586, 0.14983146119113844, 1.620929329660096, -2.5023770339883, -0.2897066299552069, 1.056541839517898, -1.4505614482864087, -2.8602551139596626, 2.3155940045639998, 2.4557719999474097, -1.4866778912900733, -1.8544275706124433, -2.301789214288048, -0.9535482361265002, -0.8675477428233789, -1.2615003377055825, 1.2231101326085092, -2.877811883367044, 0.6337683227934563, -1.3086407465374772, -2.376865133613059, -1.8893506724929408], [2.9413744464139198, 0.20490030192618125, 2.3444849091849127, 2.2614275843305087, -2.312504613017595, 0.6279398576956909, 0.3578601046502894, 0.22246690621718113, -2.4357803776091034, 0.7680904878876822, -1.5207407942712494, 0.20364432647164055, 2.630335293450461, 2.4006252579158343, -1.4441652338992739, 1.8673580302823272, 1.2904622460892377, -2.410460608720294, 0.8052463238867564, 0.964490415483783, -1.3590245668079681, 2.200397021936369, -2.1021002924301437, -0.41390852106272114, -0.4001725553166775, 2.2779049215096183, -0.991509321633238, 1.0693688579127283]], [[0.37509674367500523, -1.8189733629566498, -0.053807784907494494, -1.57818976483386, 1.0344279925084638, 0.4878315898691348, -0.09164715787503086, -0.12545956960150306, 0.3647198239508489, -2.6182608425105918, 0.7929677893060765, 1.9426236914058244, -1.4835121533408115, -0.6603987300364311, -2.409697949443797, 1.0496898979806755, 0.9344425549242028, -0.29621248491302543, 0.7425134239594069, -2.986631089085085, -2.088449550179199, 0.017637966317007425, 1.9619913771005688, 1.138254649574141, -1.7411519893921634, 0.26768257129275863, -1.3289561923622901, -0.4557151890876652], [-0.9501344328288415, -0.29543022788688855, -2.4670444530956352, 1.0007712297914697, -1.988063897761263, 0.549968671954387, 1.5144344341614566, -2.0868048222050115, 2.1173033643824084, 2.989252992285504, 0.8005368986348911, 2.284290860224445, -2.048298678386683, -2.367820095091999, 1.596792537183573, -2.71289236034006, 1.34140542818127, -2.2088361189588883, 1.6381957485470657, -2.2894577155241636, 2.83090499396915, 1.9607651260804442, -2.91254648534112, 0.73586890206799, 2.302727499141402, 2.465095242161711, -0.8427022252241985, 2.0435831707963388], [-2.828976254355717, 0.9227048363763704, -2.443678697101834, 2.6910042878166127, 1.5414543896194637, 2.785938727353604, 2.4782657583525785, 0.7305645662270237, -2.224808161991828, -1.1898814368523565, 1.8428664338160594, 1.55848339897259, -1.0585893591279665, -1.75287627411925, 0.22498560431852166, -2.8739377970517204, -0.35026573683728035, 2.4451611535113695, -1.1070735208020237, 2.3833566803735637, 1.6246452849606836, -1.8962427686130854, 0.21579470634389075, 1.5520695370324908, 2.4956032979179685, 1.1885618618297906, 1.950193901357279, 0.4374705446763558], [0.7889990700128573, -0.5365957026039871, 1.1423318013571553, -2.531302895266463, -0.7296840759079082, -1.6862403422412504, -2.2137324919037678, -2.7181634576332456, -1.358283316160561, 2.316305229709803, -0.9722933961698654, -1.6555839372390615, -0.4684375186915135, 1.5825735468289919, 1.4698950327352858, -0.06472676427604362, 2.2136882409689864, -1.901306130423386, 1.8837992177799565, -2.180594593109147, 2.577588897955879, -1.5569096805078877, -2.2345124794216167, -1.8267314634898162, -2.3085940991737526, -1.9402313924678833, 2.485813379886025, -2.732150466964831]], [[-1.02277566412673, 1.7037840044588544, -2.0015160159558265, 1.4247060703273418, -1.9262923570778892, 0.1453956005533077, 1.592128561913336, -2.1276833940854414, -1.3851197237559905, -0.1493247294585922, -0.6897067857178341, -2.0945760361304764, -0.8955008152822903, -1.2526999763200186, 0.19433955275118198, 2.686112212898058, 2.230358014580567, -2.102602717636252, 1.0515196185899356, 0.43974343671821714, 2.2047252973506275, 2.2633521067804256, 1.5657167215722998, 0.2055211616431487, -2.7863420070519735, 1.147152739657935, 1.1668404862354826, -1.0702370938441557], [-0.7198003754580573, -2.1090398596918054, 1.3383709815968228, 1.3205342680379832, -1.074761576772771, -2.716896321110923, 1.244767461321283, -1.271742971728428, 0.17027559365768274, 0.27014405341863457, -0.9226104018203376, -2.3600881064343646, -2.1605599733565803, -0.7097111016753983, 2.8730371102544527, 0.6752880335268241, 2.1381846543525604, -1.511701749837948, -0.939600761665575, 0.2946858665344374, 0.65991629851034, 1.875780049024124, 0.6264458980453167, 2.635719662668958, 2.9307436561645996, -2.892377926720788, 1.2409340562057523, -2.9933264886725275], [0.24116110780245892, -2.2538650821817603, 0.8159294702422777, 1.2989069650610938, 2.0573424894532604, 0.6880939619617221, 0.6877947886044771, 0.6855623477327004, -1.4073343509542626, 0.14208335704649766, 0.08299759539563922, -2.9011503521133597, -2.537561031201073, -1.098959250598222, 1.0012881678832688, -1.7915180251296348, 1.8167100398244296, -0.11674545253541924, 1.516744268870477, -1.690592935851343, -2.4343937766694994, 2.6514298837609527, 1.646886396529606, -2.4188865628713403, 0.43861473782032157, 2.5292644129501367, -1.362285625798123, 1.894462607607271], [2.1242184812772607, 2.305213322710147, 1.6662403591228525, -1.5309375920137618, -2.6534684070764656, -2.9920668503072467, -1.5959541545546914, 1.1886230050990942, -2.2362497019445216, 2.4936846070396523, -1.9944623821118757, 1.4060224489783266, 2.771303385890948, -0.7460892126834731, 2.33645560620261, 0.4559926429711836, 1.4591058244660502, -2.4802394303088993, 0.44796791957045246, -2.4819898138104355, -1.6024397230183547, 2.714369399930379, 2.444904917620492, -0.42181525587512425, -2.278447465221217, 0.13513425979855054, -1.7561136456176936, 0.7212418470300674]]], "t": [[99999999.0, 12.432403086908312, 5.1532246285093555, 8.5679714328793, 12.133015025018342, 10.079380017848372, 7.351181962907297, 9.850323606799368, 8.175739848037336, 5.373946919730916, 10.01906854927094, 5.425846808108933, 8.119980085946324, 6.148685206100306, 5.379898530957129, 11.710762067378205, 13.607435088592387, 9.75537445267252, 11.186414351060314, 6.4474847625741525, 10.635856140838676, 6.261575580707972, 10.336110152800277, 5.959367806156578, 9.888174150710318, 7.450049095567595, 14.533984316099609, 11.352993910613076, 10.67405871158157, 11.109438385774627], [12.432403086908312, 99999999.0, 9.548768350547988, 10.90223278170848, 5.4164044961605065, 13.813049575545724, 5.5107491397323365, 11.4748686066186, 8.491282350812746, 8.740513380215297, 11.162480700078008, 12.283881977379771, 9.311990937461777, 13.039233199297895, 12.846817697980072, 5.031816844152677, 11.622057517365693, 9.992171542620143, 7.692313325243716, 6.330585030387487, 9.683269246073083, 11.386210160878374, 9.516554595985893, 8.054330196422768, 5.721380369848916, 9.994720318497263, 10.348507149532377, 13.757976298222221, 12.45788079380882, 13.047284055827403], [5.1532246285093555, 9.548768350547988, 99999999.0, 7.401419511895394, 13.874139021887629, 5.090048960334311, 6.227387537600075, 7.290847099720236, 14.114634137921554, 8.032653015969782, 5.121819738925234, 14.175089436804098, 5.8958270112730204, 14.427262727815407, 11.354670868421778, 12.594001228094, 10.755344977582059, 7.602444584346464, 13.87755824258419, 11.178315129685979, 6.422585342189007, 8.7483076779286, 5.646071440237663, 12.933909454589692, 11.70979798688576, 12.742128430152615, 11.716203972606948, 11.22528153909639, 7.871860537270921, 8.452150993043087], [8.5679714328793, 10.90223278170848, 7.401419511895394, 99999999.0, 10.241528473647126, 12.984545730079242, 14.579023178409155, 6.621651258432482, 7.673779096577991, 8.69471256970251, 5.3597657103618825, 12.255818202086346, 7.531656173587065, 6.480385011831654, 6.88943902081947, 8.140085233709026, 12.998436042008793, 13.205023615328187, 6.334889303729247, 7.672848173072535, 11.70565836612453, 9.168723359810617, 7.808821467678959, 9.3845927793403, 6.702722112660201, 8.816420384990806, 14.735467764957464, 6.159216853624413, 8.638954542875119, 13.643238260202196], [12.133015025018342, 5.4164044961605065, 13.874139021887629, 10.241528473647126, 99999999.0, 9.065828956359312, 9.154290665674498, 8.976007695099767, 6.012241818419406, 5.2687147615452865, 8.11117186142799, 14.112947303587116, 12.676954003904616, 8.467345463303554, 12.01801940843067, 9.257261743342736, 14.822205494743256, 6.696666268661212, 7.276765669455772, 13.052381765773287, 13.319495744183769, 5.490323492644017, 9.793566054699006, 11.25384923537149, 9.160890615309977, 9.671532317235823, 13.140545697758311, 7.938505319923859, 11.40681528898067, 13.058365158698274], [10.079380017848372, 13.813049575545724, 5.090048960334311, 12.984545730079242, 9.065828956359312, 99999999.0, 6.1687382321689075, 6.043888255878339, 7.464543268961409, 13.228801860154233, 11.063215650167358, 9.250856313313605, 10.765625268337981, 9.989714127999374, 5.796089871435566, 6.203613640334735, 11.069802140780737, 6.908440085236683, 6.276479583231528, 13.764514360448864, 12.214759332285054, 5.680083856763741, 12.183424186999083, 7.231302251566827, 14.906650286479293, 6.479524362897448, 11.401996370569183, 12.56422124226884, 12.921483868969242, 5.74564337145027], [7.351181962907297, 5.5107491397323365, 6.227387537600075, 14.579023178409155, 9.154290665674498, 6.1687382321689075, 99999999.0, 12.717212562919318, 7.9873769595934885, 14.719210427201808, 14.325136794533849, 12.007412487866898, 5.705976862630916, 8.786526903964692, 6.332824394016384, 11.56949265735887, 14.685661836886105, 10.265384543127503, 14.989826146429003, 8.233474030232747, 13.319340245026154, 10.362442938334187, 6.179920367288459, 5.736965181875401, 13.465301229552606, 9.14124160982585, 9.742035537622582, 9.737580419039212, 12.469746779730443, 14.618482297962855], [9.850323606799368, 11.4748686066186, 7.290847099720236, 6.621651258432482, 8.976007695099767, 6.043888255878339, 12.717212562919318, 99999999.0, 7.803375295133308, 10.561675953707693, 8.478435545065452, 11.310427218836848, 9.497617843633058, 5.287960322701014, 9.193568080572406, 13.874196903795976, 10.641548632251943, 13.58070584744767, 11.754777719984869, 5.709579372718368, 6.754120458849181, 9.067848996453996, 9.298820107725769, 14.26875852185324, 5.5324356170563584, 5.182498596106773, 5.834124673704416, 14.780897135788804, 5.438255451680134, 7.517930314899983], [8.175739848037336, 8.491282350812746, 14.114634137921554, 7.673779096577991, 6.012241818419406, 7.464543268961409, 7.9873769595934885, 7.803375295133308, 99999999.0, 5.1802755799770726, 7.727466079252889, 7.095850348887648, 14.912770754437195, 13.085101544075457, 13.415647069904319, 14.280651082448017, 14.421369009793663, 14.74714075020066, 9.844669317291052, 14.507102569321306, 14.377740141743917, 8.925818662940705, 8.986301927244941, 6.7797977974818515, 10.935002832900658, 6.056291903268223, 5.513984054553869, 13.055265058510043, 7.977721176990537, 7.563014962542958], [5.373946919730916, 8.740513380215297, 8.032653015969782, 8.69471256970251, 5.2687147615452865, 13.228801860154233, 14.719210427201808, 10.561675953707693, 5.1802755799770726, 99999999.0, 13.849681316809821, 7.032371319186145, 7.874640766719355, 6.872003642239891, 14.768229930496693, 13.419711775599133, 10.015929361974798, 7.249820739733349, 5.819577842300189, 14.859392941976031, 14.619429795088681, 11.800889061945984, 12.942341497350878, 14.01416334172823, 14.067645078537026, 12.897223377537633, 9.58682080072461, 12.945902508866613, 8.704251450196022, 13.960879140707382], [10.01906854927094, 11.162480700078008, 5.121819738925234, 5.3597657103618825, 8.11117186142799, 11.063215650167358, 14.325136794533849, 8.478435545065452, 7.727466079252889, 13.849681316809821, 99999999.0, 6.5257727259500955, 5.21954950439738, 9.130477572071616, 11.029527612897413, 5.254443502113847, 12.947024888146606, 9.366906806067938, 9.986550527932271, 9.80552485004468, 8.676247055299191, 9.945498683529692, 7.968093239769972, 9.761078397363415, 7.158832329228691, 9.73026995671095, 9.301512153117375, 10.999636194179466, 8.987706060855004, 10.304231455035655], [5.425846808108933, 12.283881977379771, 14.175089436804098, 12.255818202086346, 14.112947303587116, 9.250856313313605, 12.007412487866898, 11.310427218836848, 7.095850348887648, 7.032371319186145, 6.5257727259500955, 99999999.0, 12.287804327729688, 10.90590377227328, 11.338965980666345, 9.373456106507199, 11.987873618279156, 13.338953941350235, 7.573573532573916, 11.337976939453641, 13.614720023751843, 7.700634803574857, 10.121963012248942, 13.672367363481223, 11.038761712628919, 9.966886900214815, 9.624472542536815, 11.358842327817792, 14.87126456876236, 10.011664469468885], [8.119980085946324, 9.311990937461777, 5.8958270112730204, 7.531656173587065, 12.676954003904616, 10.765625268337981, 5.705976862630916, 9.497617843633058, 14.912770754437195, 7.874640766719355, 5.21954950439738, 12.287804327729688, 99999999.0, 5.3954078496603755, 10.262684841738926, 14.230782876852997, 9.482709483391337, 8.842520032848242, 9.38465581672255, 7.228089958796575, 14.468221055754508, 5.906012021392729, 6.172775181875756, 7.662671051027513, 6.32606486022076, 7.574654072184302, 12.32954358185124, 8.136803912778827, 8.420241513641194, 8.704924878791493], [6.148685206100306, 13.039233199297895, 14.427262727815407, 6.480385011831654, 8.467345463303554, 9.989714127999374, 8.786526903964692, 5.287960322701014, 13.085101544075457, 6.872003642239891, 9.130477572071616, 10.90590377227328, 5.3954078496603755, 99999999.0, 12.873379431868852, 7.993544631845898, 7.5938533620719415, 9.960341545958745, 8.636663002602093, 7.433162427222011, 13.020959344588416, 7.098624931224407, 10.237991945146375, 11.805279162592281, 9.77209605496122, 10.111094536161442, 7.8440697826928885, 14.568146422283142, 12.568888927567071, 7.305830147495786], [5.379898530957129, 12.846817697980072, 11.354670868421778, 6.88943902081947, 12.01801940843067, 5.796089871435566, 6.332824394016384, 9.193568080572406, 13.415647069904319, 14.768229930496693, 11.029527612897413, 11.338965980666345, 10.262684841738926, 12.873379431868852, 99999999.0, 13.909980352074676, 14.949628306917225, 10.700246430274396, 6.173601186852521, 8.49497476859543, 8.323219438021397, 14.693774411140918, 6.397581803885915, 11.969788692470583, 14.090102922909233, 6.223090378809692, 8.880537955985506, 5.732499441764341, 14.604326958914069, 13.015078836882449], [11.710762067378205, 5.031816844152677, 12.594001228094, 8.140085233709026, 9.257261743342736, 6.203613640334735, 11.56949265735887, 13.874196903795976, 14.280651082448017, 13.419711775599133, 5.254443502113847, 9.373456106507199, 14.230782876852997, 7.993544631845898, 13.909980352074676, 99999999.0, 7.885530588749691, 12.516655694893458, 10.957863526782253, 13.207671790081998, 7.725283949014008, 9.421736050219813, 12.30534923017588, 11.721088328719539, 6.307806551431646, 11.565290443738451, 10.390008168932173, 7.6143871455828, 12.753000624594314, 12.606186487096053], [13.607435088592387, 11.622057517365693, 10.755344977582059, 12.998436042008793, 14.822205494743256, 11.069802140780737, 14.685661836886105, 10.641548632251943, 14.421369009793663, 10.015929361974798, 12.947024888146606, 11.987873618279156, 9.482709483391337, 7.5938533620719415, 14.949628306917225, 7.885530588749691, 99999999.0, 7.911434643485002, 8.214209990360914, 9.833486342966367, 12.818679802476748, 6.764581542262976, 9.251303493242858, 14.569401607464124, 14.16768314655747, 7.111237616211144, 7.642763284855807, 5.361442833250456, 7.056204610003577, 7.266692254186776], [9.75537445267252, 9.992171542620143, 7.602444584346464, 13.205023615328187, 6.696666268661212, 6.908440085236683, 10.265384543127503, 13.58070584744767, 14.74714075020066, 7.249820739733349, 9.366906806067938, 13.338953941350235, 8.842520032848242, 9.960341545958745, 10.700246430274396, 12.516655694893458, 7.911434643485002, 99999999.0, 14.611233855056199, 13.205641217751827, 14.62262383587618, 13.565019808678079, 8.911996404773777, 14.785323233945682, 9.672495982839719, 11.151491889772043, 5.560282072463433, 12.97550202006055, 9.0092928426643, 10.395132097104295], [11.186414351060314, 7.692313325243716, 13.87755824258419, 6.334889303729247, 7.276765669455772, 6.276479583231528, 14.989826146429003, 11.754777719984869, 9.844669317291052, 5.819577842300189, 9.986550527932271, 7.573573532573916, 9.38465581672255, 8.636663002602093, 6.173601186852521, 10.957863526782253, 8.214209990360914, 14.611233855056199, 99999999.0, 8.157999497615382, 9.174703349898008, 6.452047082719129, 8.18794092314486, 10.841388506215859, 10.395864235357333, 6.44418888970892, 6.048688775720915, 6.89053187092783, 11.259597447038892, 9.26428392373095], [6.4474847625741525, 6.330585030387487, 11.178315129685979, 7.672848173072535, 13.052381765773287, 13.764514360448864, 8.233474030232747, 5.709579372718368, 14.507102569321306, 14.859392941976031, 9.80552485004468, 11.337976939453641, 7.228089958796575, 7.433162427222011, 8.49497476859543, 13.207671790081998, 9.833486342966367, 13.205641217751827, 8.157999497615382, 99999999.0, 10.731454439297533, 7.491952582985897, 11.802250133683987, 12.875554100378444, 13.215358583116245, 7.777667326181809, 11.594964716863839, 6.999510054268594, 5.483105160037408, 12.552478484142863], [10.635856140838676, 9.683269246073083, 6.422585342189007, 11.70565836612453, 13.319495744183769, 12.214759332285054, 13.319340245026154, 6.754120458849181, 14.377740141743917, 14.619429795088681, 8.676247055299191, 13.614720023751843, 14.468221055754508, 13.020959344588416, 8.323219438021397, 7.725283949014008, 12.818679802476748, 14.62262383587618, 9.174703349898008, 10.731454439297533, 99999999.0, 12.398206585878029, 6.69996373369517, 8.762983264897084, 9.896648067341328, 8.31357267670154, 12.861349861581113, 14.74920354469392, 14.146544775013604, 5.827987761327661], [6.261575580707972, 11.386210160878374, 8.7483076779286, 9.168723359810617, 5.490323492644017, 5.680083856763741, 10.362442938334187, 9.067848996453996, 8.925818662940705, 11.800889061945984, 9.945498683529692, 7.700634803574857, 5.906012021392729, 7.098624931224407, 14.693774411140918, 9.421736050219813, 6.764581542262976, 13.565019808678079, 6.452047082719129, 7.491952582985897, 12.398206585878029, 99999999.0, 9.753618544471596, 14.798475035402367, 12.02866208854578, 7.277600695015427, 8.449718598517126, 8.922111705094814, 11.704438290557839, 9.561584527767028], [10.336110152800277, 9.516554595985893, 5.646071440237663, 7.808821467678959, 9.793566054699006, 12.183424186999083, 6.179920367288459, 9.298820107725769, 8.986301927244941, 12.942341497350878, 7.968093239769972, 10.121963012248942, 6.172775181875756, 10.237991945146375, 6.397581803885915, 12.30534923017588, 9.251303493242858, 8.911996404773777, 8.18794092314486, 11.802250133683987, 6.69996373369517, 9.753618544471596, 99999999.0, 14.752042389704151, 7.805387814074006, 13.637676622172993, 8.04656506484166, 9.41031079590141, 12.469178229882294, 9.363908715223722], [5.959367806156578, 8.054330196422768, 12.933909454589692, 9.3845927793403, 11.25384923537149, 7.231302251566827, 5.736965181875401, 14.26875852185324, 6.7797977974818515, 14.01416334172823, 9.761078397363415, 13.672367363481223, 7.662671051027513, 11.805279162592281, 11.969788692470583, 11.721088328719539, 14.569401607464124, 14.785323233945682, 10.841388506215859, 12.875554100378444, 8.762983264897084, 14.798475035402367, 14.752042389704151, 99999999.0, 12.251960226607695, 8.070956789849452, 5.2318564865895665, 13.095177535023602, 9.589250771132217, 5.073357608229625], [9.888174150710318, 5.721380369848916, 11.70979798688576, 6.702722112660201, 9.160890615309977, 14.906650286479293, 13.465301229552606, 5.5324356170563584, 10.935002832900658, 14.067645078537026, 7.158832329228691, 11.038761712628919, 6.32606486022076, 9.77209605496122, 14.090102922909233, 6.307806551431646, 14.16768314655747, 9.672495982839719, 10.395864235357333, 13.215358583116245, 9.896648067341328, 12.02866208854578, 7.805387814074006, 12.251960226607695, 99999999.0, 10.541373986014838, 5.20630434041082, 11.293126094775047, 5.339981780916876, 10.745618853029718], [7.450049095567595, 9.994720318497263, 12.742128430152615, 8.816420384990806, 9.671532317235823, 6.479524362897448, 9.14124160982585, 5.182498596106773, 6.056291903268223, 12.897223377537633, 9.73026995671095, 9.966886900214815, 7.574654072184302, 10.111094536161442, 6.223090378809692, 11.565290443738451, 7.111237616211144, 11.151491889772043, 6.44418888970892, 7.777667326181809, 8.31357267670154, 7.277600695015427, 13.637676622172993, 8.070956789849452, 10.541373986014838, 99999999.0, 6.143314311163346, 14.678619208119114, 10.79600524143731, 6.7271829019098215], [14.533984316099609, 10.348507149532377, 11.716203972606948, 14.735467764957464, 13.140545697758311, 11.401996370569183, 9.742035537622582, 5.834124673704416, 5.513984054553869, 9.58682080072461, 9.301512153117375, 9.624472542536815, 12.32954358185124, 7.8440697826928885, 8.880537955985506, 10.390008168932173, 7.642763284855807, 5.560282072463433, 6.048688775720915, 11.594964716863839, 12.861349861581113, 8.449718598517126, 8.04656506484166, 5.2318564865895665, 5.20630434041082, 6.143314311163346, 99999999.0, 6.101941566063742, 10.070779147304268, 5.810774497571969], [11.352993910613076, 13.757976298222221, 11.22528153909639, 6.159216853624413, 7.938505319923859, 12.56422124226884, 9.737580419039212, 14.780897135788804, 13.055265058510043, 12.945902508866613, 10.999636194179466, 11.358842327817792, 8.136803912778827, 14.568146422283142, 5.732499441764341, 7.6143871455828, 5.361442833250456, 12.97550202006055, 6.89053187092783, 6.999510054268594, 14.74920354469392, 8.922111705094814, 9.41031079590141, 13.095177535023602, 11.293126094775047, 14.678619208119114, 6.101941566063742, 99999999.0, 8.28032011241682, 14.035768694722254], [10.67405871158157, 12.45788079380882, 7.871860537270921, 8.638954542875119, 11.40681528898067, 12.921483868969242, 12.469746779730443, 5.438255451680134, 7.977721176990537, 8.704251450196022, 8.987706060855004, 14.87126456876236, 8.420241513641194, 12.568888927567071, 14.604326958914069, 12.753000624594314, 7.056204610003577, 9.0092928426643, 11.259597447038892, 5.483105160037408, 14.146544775013604, 11.704438290557839, 12.469178229882294, 9.589250771132217, 5.339981780916876, 10.79600524143731, 10.070779147304268, 8.28032011241682, 99999999.0, 13.917841614797409], [11.109438385774627, 13.047284055827403, 8.452150993043087, 13.643238260202196, 13.058365158698274, 5.74564337145027, 14.618482297962855, 7.517930314899983, 7.563014962542958, 13.960879140707382, 10.304231455035655, 10.011664469468885, 8.704924878791493, 7.305830147495786, 13.015078836882449, 12.606186487096053, 7.266692254186776, 10.395132097104295, 9.26428392373095, 12.552478484142863, 5.827987761327661, 9.561584527767028, 9.363908715223722, 5.073357608229625, 10.745618853029718, 6.7271829019098215, 5.810774497571969, 14.035768694722254, 13.917841614797409, 99999999.0]], "M": 99999999.0}