{"num_workers": 25, "num_roles": 4, "num_nodes": 30, "w": [[0, 0], [361.20023652762995, 397.39850047375796], [315.942718571451, 341.12581082814535], [57.3709309799886, 90.15805387366825], [310.1665274087493, 345.4001313301515], [227.92274473440344, 263.8073886474918], [86.51633955630203, 114.98881968514686], [141.25897466585397, 178.80524288029164], [360.4433033329325, 395.38356780141856], [363.6930385714359, 398.09712976644755], [91.37258291022503, 117.92482360204232], [2.4198720510039533, 28.356540991365293], [283.2018278110549, 318.95822911443986], [4.475382633754735, 36.31984667226101], [283.1306994754764, 311.5921065229242], [84.01840966812264, 117.46794905381037], [202.74322407687953, 239.3730481900831], [284.3066485498618, 320.6751446709188], [130.35373046723404, 157.5834287347812], [413.8405688854464, 443.7173320499377], [189.57571676608717, 215.84071090665452], [206.96393241254987, 243.56176216916666], [191.37320141566195, 229.0648616530835], [79.2108423175628, 106.48959122993415], [316.8502938187634, 344.91461440170735], [19.368477849541904, 58.49789127307096], [22.163637719783637, 57.286491546451145], [25.329796114213817, 51.35505309785496], [169.59156721207933, 209.36781219246444], [0, 450]], "p": [0, 10.453793055959242, 6.792373258438636, 14.860608525455184, 9.333189954809061, 13.148962123581839, 8.411614694568453, 20.08855628508267, 15.876357932279147, 19.68544796075467, 14.18312693423588, 15.919988618289016, 15.169800400059971, 18.27765332894404, 11.748602493640895, 18.15757319375711, 23.095269366787285, 23.55658916358537, 11.079255312649007, 8.472643537440016, 15.925787804380647, 21.01943087669211, 19.182870832393128, 9.022888888002388, 17.08318744066673, 14.296870812252568, 8.979261167001855, 7.960495490212312, 14.631564048764233, 0], "e": [[0, 1, 1, 0], [1, 0, 1, 0], [1, 0, 0, 1], [0, 0, 1, 1], [1, 0, 1, 0], [0, 1, 0, 1], [1, 1, 0, 0], [1, 0, 1, 0], [0, 1, 0, 1], [0, 1, 0, 1], [1, 1, 0, 0], [1, 1, 0, 0], [0, 1, 1, 0], [0, 1, 0, 1], [0, 1, 1, 0], [0, 0, 1, 0], [1, 0, 0, 0], [1, 0, 0, 0], [0, 0, 0, 1], [1, 0, 0, 0], [0, 0, 0, 1], [0, 0, 0, 1], [0, 0, 1, 0], [0, 0, 0, 1], [0, 0, 1, 0]], "d": [[2, 1, 0, 2, 2, 3, 1, 4, 2, 4, 3, 0, 0, 3, 1, 3, 4, 4, 1, 0, 1, 1, 3, 1, 1, 0, 1, 1], [0, 0, 1, 0, 1, 1, 1, 0, 0, 1, 2, 3, 1, 2, 2, 1, 1, 2, 2, 3, 2, 2, 1, 2, 1, 2, 1, 4], [2, 2, 1, 3, 2, 1, 0, 0, 2, 1, 1, 3, 1, 1, 1, 0, 2, 2, 0, 0, 0, 2, 0, 1, 0, 1, 0, 2], [3, 0, 2, 2, 2, 0, 1, 0, 2, 1, 1, 1, 2, 0, 2, 2, 1, 0, 1, 0, 0, 0, 2, 1, 2, 1, 2, 1]], "r": [714.7068636086876, 1016.9004465207317, 2317.4352427355334, 1014.6547498759556, 2128.795085222714, 1555.21993487244, 3343.489107934521, 1956.0438941373538, 1593.6561620164337, 974.7750817358657, 1081.8293412931068, 862.640891968261, 2409.8582154594114, 588.1384596164974, 1102.8078070320914, 2170.361797127448, 2150.1187062506438, 1186.7372261836479, 1306.8882528343659, 2465.9144328419907, 4009.6001161695235, 3166.1020346929045, 640.5221273551067, 1986.1301807631726, 819.5680905669265, 1072.467511101998, 1385.488705424021, 1470.6041962387828], "b": [[[-25.774196956568957, 4.463046156155943, 34.537268800897664, 26.189454589925713, 10.60880698331428, 20.833077370724496, -24.86091282515656, 9.570340104577161, 9.646397445946898, -29.25396896953338, 39.01638188941067, -39.68102570111387, 29.092991887583363, -15.32607330944342, 37.57132367125308, -8.362867619392768, -40.71635734759361, 15.767153599319158, -21.889078396087864, -17.163259385562245, 20.20510511152216, -47.38498678112746, -0.481118784448893, 38.17863547897457, 7.667703879301878, -14.032453441712097, 9.681448328871133, -36.60549872635957], [-4.398867568233568, 6.053620159567713, -6.077752530609379, 7.68917103382408, 38.99097305297816, 6.492209101878053, -12.87555266317891, 11.391719374260006, -11.534674707433137, 26.665253887730795, -33.08898265716772, -39.570140259322045, 40.297023207718226, 14.83772030961305, 12.348143714356821, 26.55627144398543, 39.07505068340078, 27.713907386602504, 4.540376677194707, -45.54427215815953, -12.41820781761599, -5.8791531019548176, 0.09225543504472805, -26.87234780414186, -10.67598687401301, -8.834753832510081, -13.23950761673528, -4.6713607974644145], [-1.6406204084213485, 14.63308073795046, -37.34026848649642, -9.393976258929948, 9.376579924494424, 24.686497101708326, -27.8200498645279, 17.224933332743863, 34.08166499663847, -37.36383380490854, 18.721468530468577, -29.031233011001888, 29.960094546438057, 33.884075365858784, -34.493820371165484, -65.88069774842367, 51.2296841342778, 30.842989948357705, -14.773224386509845, 44.22205405854493, 10.25977216084677, -50.18404575622419, 11.188056888040714, -37.39878384018063, -26.12498081299923, 20.16687810474934, 5.155783949740779, -18.458033410795277], [11.653439674427732, -1.191139169698874, -40.867583226222706, 27.164219777630784, -20.574701065617287, -20.860722160676993, 12.27859268950323, 31.77546136610202, -41.95219314675633, 6.553519035882901, -1.2837815191325042, 17.830553810393926, -34.51362468284495, 1.4040217945732942, 26.554856891503054, -62.43616679571655, -61.777473447850234, 13.797773236574175, 6.389694514661666, -39.14666632339526, -3.9854196261607813, 30.60754850066594, -8.573065159181061, -32.32511997358866, -33.98629840187595, -5.54879702945928, -16.23161553764321, -14.061676785169103]], [[-0.7127527775646846, -14.437896645015984, 21.107518971876136, 21.826581166966307, 20.896391556810016, 25.114516876794124, 8.079088550928011, -27.474622108160645, -37.281059731126135, 2.152996257654303, -0.3389436538476616, 16.937389327325292, 31.93559615514816, -2.9303858520069794, 41.07998713062264, -50.34201249986504, -51.917545232157885, 2.1084661022719047, 0.3484295016031613, -4.411677040893692, 41.210167097422996, 14.82472733249012, -2.6389197206014865, -36.76284611782669, 7.306140752289779, 20.17741717634729, -8.840050006143459, -0.7848343331465778], [-2.07037952544645, -11.028099136486883, -43.81944780676999, 18.801114971709442, 8.97181986685005, 24.774075921172393, 53.47463388107625, 2.26857674755392, 10.474052336971862, -8.086376507004733, -43.37868785111983, -39.6928386956738, 23.07725145960232, 25.721717913711576, -30.585006588244532, -20.731861908107348, -39.53420290598501, -25.349605967049012, -14.099860907134747, -16.232752997002365, -13.532342230362195, -36.474968783453996, -1.0344561440232016, -22.12312683235365, -28.66189707014374, 2.080764487140209, 11.517863505835917, -21.299963693417045], [-19.94447316194687, -1.7772903140072378, -34.7751663389716, -26.365995556609978, 18.69795973625222, 4.654973946898943, 31.374280939549987, -41.200127300123555, -36.073423913346, -33.62664934506671, 39.50865036575713, -43.355335034623415, 26.68440336253074, 14.676234570436051, -0.4188591100110689, 39.49305432056242, -23.637140523193107, 5.461352301156694, 12.839916120135955, 4.3279888416884145, 58.81188836797112, -2.9300582367288426, 9.4733696735797, 27.229677421134344, 26.965276645843606, 0.523375357949361, -20.299891572517605, 17.23584054406387], [6.278164169161064, 8.759610326269556, -41.02080647180467, -19.285210658724615, -17.696323268684445, -23.499481301655248, -50.06634375088346, -19.522769364725754, 43.3046228350154, -2.3717823097122275, 15.169737273490991, 29.68447281382684, 49.98806314806768, -13.719831356335625, 0.5163453237571529, -28.354210731364056, -63.39807494656047, 27.280018515765935, 21.037098601996416, -37.6326535307022, -17.27310136923077, 18.07065366731898, 6.913552974669274, -3.535398542389058, 16.694318851424228, 7.416510898568303, 4.62618001560277, 8.350903210160393]], [[-28.539543939336244, 1.3270163791940792, -42.52671414307747, -7.925041868855396, -12.897200095232336, 20.83032981572539, 46.96980488449513, -12.22614271715532, 2.2400995737767277, 21.03379227563586, 24.502470367157276, -14.48099963950768, 12.16894906706805, -13.232168780628374, 52.851067254918, -21.607870060559552, 61.389222596157175, 32.56495469890423, -7.340052791880042, -24.541784021896973, -32.76140491803934, -44.64513288768321, 0.29713724032905403, 20.613253581340157, 42.32146006926714, 19.058002141579628, 9.801544616130007, 28.575501619419676], [-6.275433598508534, -10.76426004551702, 15.421098957076866, -11.153723964070307, -39.301557481159435, -12.86796656805558, -51.41337151049448, 24.62438400636535, -43.653878361204896, -8.216998654544847, -26.36487541046843, 11.098265894481377, -27.535523302563373, 18.352395934207557, -45.87782521720589, -1.813421984213777, -15.374013195059964, 26.595077801044134, -16.20962733076016, -32.07363089538061, 7.49389903298296, -55.48967095668817, -4.277585992031356, 18.765224378874958, -30.04887245902541, -2.3723473979857297, 22.77427655608405, 31.38815499434824], [-20.799258864091236, -6.431231657342224, -3.6280719446909506, -17.012167910596826, 15.810227193628261, 17.12459520359698, -13.131722641162845, 2.572056527942416, 27.1585760721744, -20.98794087815641, 45.6408819299747, -25.76363732636485, 25.62604955695978, -26.173397312219222, 5.452781887238694, -20.306713889956235, -56.00039588615772, 8.909195014203577, -20.222714049817075, -9.471498424337039, -11.917015493355908, 11.391875415502472, -17.29366077367038, -25.828638353871572, -32.37996915073709, -22.34044869941846, -21.04402605368946, -34.12912100353393], [-22.766193228614313, 1.1724166121449386, -6.622226755288727, 27.659222724336885, -5.015573232110185, 20.06203787475771, 7.249671565030873, 10.595128448952057, -7.545559251818739, -37.1763129680103, 25.175943571620145, 33.82286227818242, -44.83560633307746, 3.0024644703195897, 16.6982073406273, 20.519368435631854, -44.79214323673514, 6.255507120580035, 20.55269140685995, -33.21370708970139, -29.80394226378463, 44.671650446038335, 0.023936424432536928, -42.48146879991988, -36.237764727221155, 18.83041956947257, 3.9920833544578898, 37.54860635817105]], [[-15.963774990062985, 5.270886424136134, 38.87873826438096, -19.518230125781585, 11.145983840448825, -13.083129719852097, 23.976927480201322, -5.141684329338743, -49.75578056003019, -40.26959855587804, -21.78681872715928, 6.813159299405811, 50.837782829637156, 18.240420729520565, -51.75945925892029, 6.356654720745717, 18.293330837548762, 1.462646244849002, 17.45691238492965, 27.810982590031404, -39.46378155960226, -48.894732101317814, 2.5146043605651487, -15.336858697304905, -2.460031968560076, 19.423702551267823, -0.934435882209859, -12.352878390008803], [5.696224234574811, 8.627634197860448, 16.684502940406958, -9.737055482455608, 3.677446917614091, 3.1242289770740004, 0.4464132559440661, 17.519777652962304, 34.368161752842695, 34.49473105798774, -46.47783827711896, -10.113526588826883, -12.963199184997368, 17.885458991106454, -15.55230728425261, 13.426995547822902, -39.96475199267465, 24.462706802023284, -22.654218463215454, -15.545266657182623, -12.012530899140533, 26.80075964810179, -16.70034359020393, 21.939218464988304, -37.050316104727585, -26.255181411765694, 14.646243059799005, 30.028600559636004], [1.0966424441877345, 8.505815476044615, -2.4722102236978105, -4.090554825495015, 35.36823350373302, 2.4959116206407943, 1.9723874940882504, 3.538854202630086, -43.06505710017064, -18.872949194280903, -0.3120491113671481, 42.53300482043902, -45.55723560343634, -16.26596734830674, -28.19392936861706, -30.007702048112336, 64.7068038008225, 9.887548908005403, 16.427100633730767, 5.884205506564567, 32.90719927417186, -8.305687604112908, 10.104726838561971, -35.40724122721564, 12.648201098966172, 24.167191205667386, 11.0391154017715, 8.673160317427183], [-27.994616453977063, -7.698144394331078, 27.522265209258133, 23.655236641325157, 9.804204699908977, -2.9431992888481946, 22.608268405593222, -33.26140000109715, -19.876907068778152, -40.78006841770718, -13.203541274327508, 27.18039446123891, -54.32286748811473, 24.45140138459679, 27.505795853232016, 0.06756216660165662, 35.989851931498514, -3.863130269745047, -10.044921677055859, -13.40535964105353, -17.052704299253264, 31.586210033455803, 23.94637509272639, -23.55808611357799, 9.154409208639452, -18.094383493341844, 17.61945638881501, -32.97606562792805]], [[12.334432910145274, -15.976479754493479, -43.34677520780037, 24.26439888610019, 13.360098560862673, -4.633259370923381, 47.57749416134696, -42.090751846267665, 33.404960035207566, 18.36509539054883, 38.890563723629, 27.957765417838335, -46.70881732727541, 15.387538534750478, -27.434890683823095, -39.70185945684021, -4.056979238210107, -1.433174623752197, 14.778154901854462, -17.689268989854845, -1.681928645213188, -50.16296973591356, -11.727382479545692, -33.8549887146278, 28.391035404230934, 23.312766128323354, -2.3897487684262146, -21.448768885408164], [-3.7644827534975644, -3.1087878289015185, -39.95644228166754, 12.493993533130656, 17.491660761118776, 16.255311026670856, 13.090246963576462, 43.495959103780564, -25.87227165300634, 3.6131659984177213, -46.68215869015063, -44.19726179649573, 44.04591505303867, 4.207024258169611, 41.840151512094536, -1.1891957367395847, 29.068530065449135, 28.083256023459036, -5.747874588969442, 39.6120659014416, -41.217903432771, -34.33480741719519, 1.5744984091561653, 35.60270828228969, -31.83161755797526, 1.8197919688506283, -7.1471182466889704, -37.499101213483826], [-15.764208033202607, 13.67232646888164, -29.991928414050385, 23.247611414827052, -28.09229767806712, 5.673988648603067, -57.34022455463427, 12.61714145591164, 55.38730545841132, -26.73672068826712, -23.000522136672522, -28.768968340090908, 4.3431377370440165, -23.508945517546856, 16.38173715536174, -61.6608545078611, -49.63413237649039, 7.0830122291678235, -5.14872338499707, -28.79689455081206, 5.683676081067848, -53.69294049413453, 17.955351439140514, -2.5137983638715995, 10.269878404008683, -26.083789684717082, -4.920950247234932, 29.670379817449543], [-9.331520496714015, -15.013099469354682, 26.911902378931977, 7.0356337152658694, 11.406820651675865, 3.13578435868119, 2.371645918384357, 4.4233802289074875, 50.304250282713134, 14.64955492075386, 37.74495173703536, -13.991214293198155, -2.588379139622524, -13.671195096092001, 53.02342813269122, 8.632490672037221, -29.8079099278417, -1.1901138453523739, 5.576007519978726, -41.83383945782058, -33.53333440379004, -1.6182018688765811, 17.66914608462344, 18.59499005835785, 5.524924359746098, 26.3727177515976, 13.028161115537936, -26.19071240013955]], [[5.3744499572308735, 13.506478443744527, 33.03711985023129, -19.11646847588982, -6.205839783204932, 1.174127404326881, 25.96427159464143, -34.44644867286017, -14.176214955961187, 27.25034988272339, -1.0394235350841612, -38.08608396974184, 36.4627724556936, 15.301497345985812, -47.78658852942393, -53.21465754499361, -4.829148636598587, 14.618498272202839, -22.917878293411288, 19.064700692853183, 9.589500547593861, -46.46017879905584, 25.081214330167395, -34.85243831125206, 13.963940879154757, -22.635384972280182, -1.1638099711726493, -18.81625422849503], [17.172800702956877, 15.085087419976158, 37.7164768135342, 25.25139190420742, 14.428368982915643, 24.69100036663261, 17.371554976190595, 13.067872083163918, -25.595555227609804, -2.4484466995163072, 39.82786243296375, -22.457245067620324, -43.653449749953474, -10.206242884498764, 51.70851015546256, 56.588221280878244, -51.83460865356925, -29.13407791856057, -7.567669025355367, -13.858661500093541, 21.273674396454147, -45.18574623932146, 4.652483906227676, -24.968634761097682, -22.27392179565965, -3.90395165737789, -8.377982998753001, -7.984483424153801], [4.539897753492828, -17.763674958873107, -24.049269117522257, 17.986319755594895, 38.08941662982279, 14.645642798761331, -47.411266437102874, 4.87340431579514, 44.075541773041905, -38.10973228981322, 5.083564417394429, 1.8627729721916515, -20.997370804287772, 5.633344298593953, 41.01786673195604, 1.3656287684017026, -7.254779763256712, -22.069429752421154, -24.68891712757838, -43.09441236142555, -9.710685702312377, 46.62633821548993, -3.919528596244763, 13.85709372803018, 13.426776505992548, -12.659375563269123, 3.6748455437624967, 27.786665590587297], [2.495581679737548, 0.08015931675325973, -28.678699863966557, 12.893842362458674, 25.978792519704147, -16.350581553997706, -20.260692975447988, 17.22395776192986, 23.730599610992073, -24.65901998733975, 6.735887692763676, 40.609130676683456, 30.330170000782886, -3.513490404063924, 51.75691759086585, -50.782473042719445, 52.48400352918343, 11.271438258643869, 2.9400099428948487, 33.81271674499441, 12.598393697657615, 10.048525607741054, 15.260381298609127, -14.058936035154412, -25.436002306472403, 3.160937369977694, -16.67078616395149, -19.51981039231357]], [[-17.096058356819746, 4.467268140790378, 23.23446228973827, -3.188513402374813, 13.38218784934629, 19.63043934935616, 14.99445804556368, -22.42089259473245, 32.8239477304543, 1.1250595690244658, 20.55462076496415, 15.831976945474645, 3.6307232917597503, -30.322562699215606, 1.2896431033244546, 35.29674639532869, 32.062316843673884, -7.029697884644211, -11.775935837296352, -25.007300044186465, 48.25687853478126, -17.09632087305526, -3.7767907056560555, -31.620900887377083, 24.649378097622712, -25.149104820864117, -17.99588237930677, -21.014981781856786], [16.627652037382454, 19.751257303639964, -29.47955260718955, 0.34924161705343537, -6.019807765467198, 2.4892640109259556, 51.1254305085695, 41.10603243545366, 8.93983424081788, -8.740227305258706, 4.964130204296622, 11.042444581299248, -48.52762048772354, 13.670033797864555, 47.263132934913344, -45.477690250864136, 67.24051568060287, 21.398864535587514, 16.56765110545899, -6.8569827915506805, 20.757402134474162, -48.514428272111736, 20.914058503255255, -37.16320636863875, 16.237205800387166, -5.944091514842437, 0.503377892301852, -5.558742548169891], [1.886885424609634, 6.7580240249276295, 35.734553742555285, -14.971493206560208, -22.031140872247377, -21.185292860275094, 28.268793218175734, 9.345405866039643, 55.80593863007612, -35.31843456008814, 29.98629359148532, 12.394950802365692, 51.952787121693696, -9.425264319324452, 22.209768898254488, -15.763065860056757, 47.91665841709333, -0.39166912623988137, -5.3129767632854685, -0.5465320858750687, 48.29070910343424, -15.121628067325075, 8.16866430149692, 39.390300601105395, -36.97516407886661, -19.78144205962233, -22.417568448356942, 6.943244621348647], [-21.99752241285174, 5.373188368243381, 11.748106783559132, -27.465040928547733, 35.229881278206946, -11.757331878046841, 46.35440279736415, -15.268221134380704, -43.30064146292938, 8.421785693089294, 8.581007048957039, -31.91152068586037, 47.50136172475477, -10.729616943467766, 50.367458265237445, 20.379323201629134, -32.52032575594324, 20.844713037189877, -2.2016004554902464, 2.86607865225342, 38.7631305836503, 12.651256083752475, -7.738962577822013, -34.79282551131571, 0.15741074837969182, -13.641402471421184, 12.255158809630041, -22.642958051917244]], [[-4.334251661435638, -17.250702166136392, -23.30493275282217, 14.998814561619364, 24.988823124963524, 16.992347125393362, -26.711664308141195, -12.358108615701479, 3.6473443820560174, 33.71371609181588, -29.792764610552002, 24.512366629316755, 7.643575980045876, 11.248940973470427, -26.48255838918413, -58.982356628087665, -11.453469099426254, 22.061913236784537, -14.73732949126692, 20.38296090732086, 42.32343059530964, 57.454690672756556, -16.211852271155273, -27.60253594733728, 13.747677978891765, 25.225336357024503, -5.750228217986757, 16.761960765140877], [4.382441605971543, 10.928242724988081, 5.732704997208493, 13.070114556057552, -19.35009688483022, 2.022412982791488, -4.61941244226548, 45.05020896222614, -3.2586184206751003, 22.69442364178797, -15.287471382097523, -17.376511412608938, -30.355403308641115, 24.105830050365434, 15.200981553054975, 15.479100166143299, 64.97505148956492, -29.584737000505402, -3.672267742495997, -23.824431358439675, -29.745700857603957, -29.260213630200685, -4.209967667308696, -40.7806583155046, -18.291266114776224, -9.420180839671287, 11.03052971279732, -25.733674671617205], [30.535070396059123, 9.065947045020181, -8.901218456645765, 10.28153476834404, 37.83751189546132, 12.264604921020108, 50.994879019121555, -12.151621811303349, -10.495645000987718, -33.90070666101364, 37.47177386125189, 17.68447629861143, 23.382196039027658, -21.735767298388748, 37.177435473254555, 2.80763918390429, -48.97817718469686, -31.960152493005793, 1.1480460511301676, 19.538056496368903, -62.64524666207836, 42.438244835161036, -13.789054092634663, -9.181365432615232, -41.66848225365772, 0.6404329317048824, 10.814893465404962, 33.84732490120106], [-10.821912949497362, 15.998541579104105, -24.065859075446713, 5.9015326565091, -12.738034280739756, 5.490033942809946, 13.052798191784833, 1.9330584028920665, 35.18422841674794, -28.134883337753685, 19.400605007994415, 44.16022501135445, 2.743454274989373, -22.31526498419313, 0.19431318411302337, 55.41498670284278, -56.067537733109454, 28.250605029155224, 3.5574229493066962, 40.10297380348866, 9.332184443438038, -16.91505981260609, -6.670709978120882, 25.862360751933302, -42.843897764412915, -11.134333521098576, -15.159399143413294, 11.742984829863474]], [[-23.282765746722685, 10.3269708957568, -44.39858671636584, 9.472036927369851, -34.28304440474723, -24.420631602458222, -38.14137669270221, -12.571228077132682, 44.62983540927203, -6.106926316340496, -2.48033385375813, 26.32425385133965, 53.634508827357955, -20.676975504706718, 16.958461587796158, 4.3121784847297295, 56.542407150743585, 10.252947029420419, -13.984586885596238, 5.089494210877595, 26.219222026901697, 27.22468562104936, 13.244740907011158, -23.246511656924923, 40.59413131739102, 11.845770867958718, -22.224678256590018, -37.88126147749182], [-6.27475628005626, 11.389718162820108, 25.889969331915985, 1.0810610309716755, 27.424720620994716, 9.457465820485131, -22.998569103852113, 4.844171402865498, -32.12083448402372, -25.352090414090718, -24.330277297561402, -12.125496588044031, 22.34050835583135, 27.966339819581634, 8.23600359967662, 22.283921279099776, -53.008567238530176, 8.529556099003232, 18.08562395370399, -1.334466202709372, 60.07390876299728, -2.0680155932133526, -11.371518665208889, -1.458286011634784, -3.8969382101136554, 15.574626041184048, 15.899592383459224, 29.474044893027724], [-12.06365897114734, 18.895903330640074, 14.33281784660062, 5.615792876539038, -1.1273888174744378, 12.13225609803578, 14.053074854795577, -20.480381105683378, 14.209393886388554, -31.408099606809134, -24.25027440406252, -4.720395334792206, 10.206329888735375, -35.20779811334389, -43.09127897294832, -43.494835114822855, -21.02985522952165, 14.528437497420276, -17.254038597043596, -16.34347893236668, -41.211492278780966, -32.25440505431408, 14.344916329367887, -21.66676502560912, -32.519781679493185, -14.337185735427802, -3.2885140031546323, -27.60068898105247], [-4.823526836329437, -19.212450553791736, 18.44345371447078, 1.9096233190543257, -21.35058285356246, 11.138260316205798, 34.02207232758666, -45.22651914039239, 19.698732449578664, 27.638092078809066, 29.109890557867924, 35.74692069141508, -25.786964523533136, -9.980974118410668, 49.91853195470996, 58.078309838342996, -47.4449271434773, -7.6093452810616045, 7.762379107694469, -44.33051285016745, 41.200776171687735, 14.959847090161709, -12.951472891016229, 34.14912615855057, 4.272815839212295, 21.174086377206745, 20.928055521447288, 21.967379910740117]], [[25.152672111152476, 11.527062222518392, -36.92125695389088, 17.392093832794554, -3.307110000628642, 24.073924950527, 18.464430731900563, 21.956232100528396, -0.4689455108278091, -6.337978880741318, 47.23274672194176, 37.21072636382474, -10.760089187440034, 9.649834709034296, -51.147551316994495, -53.93600863662039, 67.28024681967428, -2.0399932649201253, 2.7400796867492776, 9.480815347609562, 55.51600532078321, -33.915893698453104, -11.037611136769094, 30.394826970247408, -12.082280274887788, 6.833723354334911, -22.52949161592557, 18.19939879498854], [25.24284260530734, 4.437717720782077, 5.548009682030898, 18.556135660635935, -14.024930534068528, -0.7682831471516527, -40.581995900969766, -38.26602771967499, 58.44854344254131, -8.44897749924573, 0.4130486511381889, 40.11387529244126, 19.192028187617904, -2.0533930622265495, -42.56966907075219, -36.71353709179416, -53.98912310971292, 9.755848789589153, -4.401764543006032, -21.173440602156102, -58.5856792180821, -46.935560992994745, -23.852395194744243, 25.97368119030193, 41.465143327088235, -4.2397698476396695, -17.240840244844463, 30.865708568598976], [-31.331312307720648, -16.70537122547569, -15.51788362752694, -21.243081731989246, 7.340406477014592, 10.595139018684547, 32.30800148213325, 35.10946683040432, 31.21270491747889, -23.601093789207777, 47.35074870345264, 9.44791220587971, -27.247267618845807, -16.29377712584456, 36.47383616919056, -65.56823626292184, -3.243984786006123, 11.392444393776763, 9.003893383000898, -37.85886730026037, -43.72312271571756, -0.8407592364458766, 0.14532853319882533, -15.085504805191867, -28.238833634903777, 9.246071860998349, 20.264513036560803, 18.117462182854915], [-25.278021541077035, -15.705182329440804, 6.288612114061666, 12.662190618059716, 15.075977512567523, -17.71787704698706, 43.70088049196592, -17.369854710690987, -50.537705735677996, -7.8258600422986975, -36.58564361344131, -38.828484942538765, 26.76908488744098, -26.402378907224573, 29.767025019663286, -12.856466649927503, -69.95499338593045, 15.239379450662822, -11.798348056789369, -6.014404759329997, 15.093537486262695, 20.537870570903078, 7.205152049153732, -14.42910530387405, -19.84110296588639, -5.726368035613328, 2.1827825667712526, -36.91091322842065]], [[-11.935774955934123, -6.779578389213697, -5.995747541023515, 1.3419319808062666, 11.69302496849006, -1.0714291064758277, 7.324877008207699, -1.1029791471866095, 6.271185637483771, 2.4332318569219864, 8.426898393517375, 37.94724297126523, 11.37674536536232, -31.36842823833731, 22.8825350822051, 62.97106323894645, 60.94889460029386, 7.112304493441816, -15.057983693554457, -18.160705458415194, 30.03326224411433, -27.65329996673261, 10.300062355689542, -45.60204620644773, 3.274038545323918, 24.291691890197743, 12.534952670775846, -39.42209086503375], [-21.28489204165273, 20.187926576338967, -5.322441340017446, -10.497232206533429, -12.779043386316584, 14.140423420938822, -26.553673550782445, -16.504617727060808, -39.09682620938156, -25.648301818832355, -20.342383749682742, 21.803819380415735, 17.244032203590805, 17.314873097393097, 32.24494131800282, -25.653243474012456, -55.28815771241722, -15.770057089340442, 18.797061634026065, 41.39652499947712, 51.024090533752, -44.378035901458055, -7.400005770567486, -33.53532643969311, 1.1315373600236691, -20.33901656151281, 12.272862035978026, 22.524851460208133], [-8.821155614432248, 2.6579846804991987, 24.213760755500505, -14.461884651881173, -34.34373761613964, -1.8579879841683473, 12.51764907155468, -6.058474697289805, -9.265594687672035, 9.631589634275763, -4.304086911909271, -9.061983211841191, 19.959194352723383, 31.813575244614064, 8.427117009496452, 51.54857049529701, 47.58008570394052, -11.991695033738761, 17.509822137882868, -6.391458946879894, 32.043437742029646, -48.81809819259402, -24.49204358953024, -26.668880731900074, 23.17988214912062, -11.797315342468254, -2.348058457837789, 33.23418782423018], [14.724611631020517, -19.331902608090456, -30.175199396894506, 10.17687310207626, -17.24075142616654, 1.7645150205911095, -21.716054830819424, -0.06785349617701568, -45.293296298732805, 2.3029466657039195, 43.568131729860724, -0.12163200917592243, -2.6237254855876038, -7.088488258318565, 41.162078996116215, 42.278069364201805, 30.976367142124857, 2.9033788655057395, -2.1130410834256486, 23.89312626391331, 50.59316585263546, -15.803757893190971, -19.705133213715847, -47.97807718511032, 29.24480226240691, 6.438568645788915, -23.8737418086567, -17.584528279950863]], [[10.150306463515651, -18.552142517690644, 9.132657416928373, -19.314182283978187, -17.443378315157755, 23.959913179754388, 5.638586236261771, 8.767012539585924, -27.42673593494043, -35.75718834393564, 44.519236467820804, -9.752374378673279, 6.707709465146695, -12.309712680678407, 36.59018965555999, 33.81994541822733, 67.76200992396944, 11.887104285062241, -0.23114809276707918, 3.823124807987505, -54.212816025320336, -28.132624668058103, -3.7987574688143235, 18.167449895789993, 18.92768376526964, -8.066554618400854, -2.7099520603958447, 30.533416663793968], [-16.424553543773044, -15.906357876135013, -11.337550827229752, -7.32775249955779, -11.2068208991293, 4.680215430364192, 32.18632388251413, -2.541781461416724, -54.631454271066666, 0.2554945957712371, -29.951812500239107, 38.68579183274817, 7.144279795742972, 7.784258340823519, 19.041177727848773, -12.00640067309283, 65.77281883452629, -29.64345221961051, -13.859481469457792, 5.440475030277766, -23.672035686954867, -11.976032977481712, -9.84215352634965, -33.44240241172074, -33.060592610229094, -0.7475114184982894, 0.9522159604138623, 39.14633294426232], [-14.0797969471246, 2.8038698333470933, 30.427703432798754, 27.173746346400854, 9.107830210176369, 17.935332540001365, 7.566409881663589, 16.53529637691448, 16.489741315959467, 21.63963033494333, 10.92796707995085, -20.584586928750266, 1.1389680654221102, -11.512916603020349, -38.0088360512933, 32.45251706120554, -26.049353007968588, 2.0576466239644513, 16.039837780303085, -28.834198106874425, 29.712881744442544, -17.616741986407604, 23.249464789541207, 28.791890700553903, -9.074222290983618, -17.396249036531284, 21.678139104963552, 22.748503236406535], [20.597862125899177, -3.870158797756481, -10.740649819056484, -21.218850947546493, -22.562809104746368, 6.059457143321911, 39.77432453977027, -19.39798370582242, 44.188622164545464, 41.42883761197134, -2.9861158298196955, -36.93203358902341, -27.79357450550956, -32.07167131231672, 25.92731273632044, -61.12528703471256, -25.119861249618236, 10.247563895686332, -19.097917688324824, 35.8357019943663, 26.93598751049177, -35.94383772056653, -22.32538217281526, -25.223480121257715, -1.2787132763560995, 25.553328981611354, -14.724588606703687, 41.29633341832269]], [[-22.619675339534894, -14.4764183999668, -30.128191363591956, -9.730897456683829, 31.11283248643065, -11.471384188869814, 3.7591448631323097, 33.974361953765694, -25.073982892088626, -4.601822497508675, 23.252072564157235, -20.724066429426333, -10.406005836176245, 25.400625546896975, 40.87461693563343, -47.19044976720034, 37.6416843272178, -8.518263438775907, -22.50035159903509, 44.92302604760814, 53.58505719577778, -55.758184603158455, 20.341973496756175, -51.09206191772407, 22.29822301845359, -5.862584852705702, -23.02229610585278, 29.159248769576116], [19.9808399686736, 7.367579228995506, 18.027972793401, -6.90297133811247, -6.166040881620015, -13.009170178900066, 22.53104486979573, -5.405321879183077, 14.996313359956265, 3.7614695511241383, 0.8950534521831698, 31.776456975337368, -11.842930254167221, 21.583673695709603, -3.8087751936896024, 18.760620632034637, 43.83944505773952, -0.4178967946574278, -10.509383831313727, -25.455000211139033, 24.84678795858105, -35.327903154867926, 12.968195654098079, -36.60445001370452, 13.621848562652964, 7.5268688938309465, -15.403840177604488, 5.8377585605531825], [-0.092063638000372, -19.008129502961804, 4.200797500550463, 13.471537749293914, 3.188260231704091, -17.71670872213491, 11.93242598352252, 4.348088878585251, -58.335057250068616, 26.025051514208524, 39.53989301813381, -20.590783697816537, 29.892433770107534, 2.5890456625186715, 13.78755517424539, 31.031761663462213, -57.93352187099645, 20.651463438999098, 13.688630217790472, 43.59856622669685, -17.182764305070954, -25.651763016969166, 1.2359102840017988, -39.523311722381436, -16.037008572173857, 20.066487035067315, -16.401553271224824, -14.355713412762759], [0.49250226421303045, 18.859894400910925, -23.66340181071285, -13.018898872387727, -2.964501465801226, 20.75383747844348, -18.48236925603543, 0.9730914512653793, -57.20017089938769, 35.05050267892689, -20.54834530210207, -15.229970423204135, 12.637002993408872, -23.920059795139544, 25.51122128321486, 10.984165948619728, 61.13341971138565, -7.73073505475666, -9.5931561841592, -20.696589349697188, -38.61186134600556, 12.407583031662648, 9.504526821430192, 29.561820649290365, -0.08574020098329714, -15.591489750997207, -9.231669562138988, -9.380063636296919]], [[-31.33921895371401, -16.882195171294494, -18.94218412080467, 13.892659485960408, -0.9006674496651172, 22.69293030905, 48.38635320178053, -22.579472631851388, -3.6581848026196098, -28.11357507562241, 46.40884373111742, -43.75349371536079, -18.92004649549758, -1.4555907527551364, 23.504504181107407, -22.237192190572756, 32.61427026194928, -5.03797012583726, 16.109254198199533, 46.15513159798855, 45.92327873000843, 9.388364752958243, 22.382076351139418, -28.431843720743043, -22.662417628680757, 18.888710880176845, 0.951028569903448, 10.099569726337728], [1.0974577304746733, -18.251995572951813, -36.25232245367404, -25.057390559402066, 8.123305294203133, 9.82635877997222, 36.173609411350796, -29.734308469101656, -26.110585226593855, -40.704586214367666, -11.305385417387493, 23.7813575935739, 39.071810511245985, 17.665982798448578, 28.988760069154775, -33.55171642650766, 9.626705774910942, 1.093749827240923, 7.067260196932432, -6.677429963712044, -56.51174550297764, -32.09583601098668, -0.5802340805984912, -20.293007931932408, -2.1944778677055274, 2.525961902047292, 9.768916636142999, -32.48352614664524], [-15.81227896707581, -19.33760310902387, 26.16147665196838, -22.02413261322929, -5.621137353804624, -3.707434898062477, 38.486917185996695, 30.982526690269825, -5.393760507833366, 19.086622694672055, 7.871834686306955, -23.642567976678937, 49.579424787568726, 17.202721596398682, 44.13556940426798, 2.4709904324502254, 56.11437756733796, -4.242882409085109, -4.62399429190344, 1.4513174151988437, -38.57653817861154, 32.24166035295331, 9.832920556560389, 51.10797518181568, 24.394535282824506, 13.61646469363293, 8.110594470583322, -26.590498400193233], [15.601400335317258, 1.0377756767269517, 11.665104134966285, -4.300182174087904, -31.067523489810505, 6.587469427287316, 50.141497374808225, 33.2677343067258, -40.453883735938135, 11.869960234747097, -28.201854393877223, 44.18151334123973, -26.985390155707393, 19.19012957926046, -49.79175502575581, -0.8507884613735532, -55.52067338406143, -30.2913737066578, -14.867952421873197, 10.510598054621049, -53.055185649895876, -14.078801092572052, 11.594478250253351, 22.8138415737969, -38.94656212235154, -21.340521407999237, -16.295041000766485, -40.60635577809524]], [[15.085520446661793, -15.212209414941713, 21.455506013633418, -21.212875561459562, 8.801621798398774, 4.4379718935181405, -56.212004158231785, 12.398298716939022, -44.101712666753684, 40.263462689671464, 24.01602726878503, 31.0252350955896, 43.74427223017923, -34.34031131863388, -26.877814699468708, -45.85544387801532, 22.23240151165384, -1.3517886658074318, 21.1589794636774, -27.233261510962752, -31.540780664146396, -33.939664048258045, -3.505966429163392, -34.76196042052197, -26.630992464898753, 26.193663396633706, -14.342644182678194, -2.9733675505145936], [-26.77237041499554, -1.7560274793150434, 27.367356572909678, 9.590970584026875, 15.914036498286164, 7.636651372153836, -1.777412701172235, -44.80285493754387, -33.643840877820516, -39.67151466255504, -22.874262947733815, 11.20942729540689, 26.418782584651517, -5.99410818292445, -33.017000702219846, 10.31753166251842, 51.3609689680659, -26.985823635536004, 8.068812031376314, -43.97733878910206, -51.738112483267614, 31.46372118861477, 16.27953937069988, -27.71334540102911, 28.349984794180305, 17.252876821470487, 10.472316992695347, -32.450931049281714], [20.274628386342222, 7.317023554446887, -42.43920115063769, 5.086427089726315, 1.414369898588774, -0.02808633906303552, 24.727041045738275, -5.0285187110179965, -24.402638121193696, -19.180992560702204, 31.986263011025088, 29.780346969371593, 27.923818649361007, -5.840674823986625, 1.0121449074240503, 53.29948964899013, 39.07082275119431, -14.589159911712178, 4.190501307413233, 9.871474173890759, -27.051658680256317, 54.56765252520954, -10.769948722574933, 31.384852256636293, 42.76187112146499, 19.73347774038305, 23.257233955753694, -18.592345306837824], [-24.64609375667587, -0.3598487240651222, -40.36286362782327, -12.322949499487034, -30.514261227287584, -0.07171516477909357, -49.48003844447907, 23.851981604772153, -29.85804059270083, 0.9253509786664739, -11.023077755282808, -45.355537232070404, 43.45564533090115, 33.65696308819423, -44.0057772548065, -13.153241209972123, -4.6696539832005906, -23.976353586714982, 7.938923550567922, -15.313389790220139, 14.137712970790862, 44.01012345634764, 1.9025289661394191, -7.1997317807806285, 35.40523803291946, 24.848435735934707, 20.634532131482178, 38.09414764880745]], [[-30.735129141033845, 17.593390372439476, -5.031040148684975, 26.538788982627917, 29.42146168958952, -5.798370066733984, -1.8544763095847077, 12.251261129133798, -13.685140014802956, -29.940821240503787, 6.793299964877711, 42.50807123393548, 6.9202143539599374, 19.67709871964055, -43.88305616937024, 63.52439711237541, -40.60908581182253, -24.635035086413204, 17.162533613437834, 16.138446160225673, -14.018601860884653, -41.49645897381149, -0.06711402162759085, 22.7773713240368, -16.110662963263334, -18.098463337391724, 14.083158061694006, -14.714129780713694], [24.687064670778682, 17.718390731097877, 26.945708271646012, -20.80020376744091, -31.510897338123407, 2.2242027394565573, -57.6462009338925, -15.525700832225429, 23.221398418605283, 30.573356988982955, -28.29709585769386, 40.12299327960688, -54.53042320893077, 28.31055682044938, 1.2847439246853292, -35.12990813378053, -26.954762164232456, -11.798352931728061, 0.1802794186924526, -15.318120843736793, -58.5017458472681, 43.988544790826566, 18.50383341485713, 7.688756265824345, 41.27788289962615, 6.862366861243361, 5.770476873491097, 41.95641164463988], [9.953233812407962, 7.296645603230435, -24.917996687455204, 12.228104514511287, 23.825691771671906, 15.73535965777369, -37.005287987021696, -1.016067534620071, -55.528181275002126, -4.59249199090378, -4.690183264016907, -10.538898127757069, -33.446220994032956, -14.14558421732667, 2.665703611681705, -24.166775307671625, 52.85770289640654, -29.597062744179023, -3.957131141630206, -34.79756234907795, -44.86105302130432, 54.25821320864735, -17.64989617181574, 18.406168555147637, 25.016660842682775, 1.4338992882856745, -4.945724158594799, -3.3248792157088496], [17.921198629950577, 4.3458637785876375, -1.9813075611149271, -3.655584682964195, -34.821264553667774, -19.013698034421044, 4.516760427447884, -16.104945863850002, -30.385816963518327, -3.581733293298356, 37.430034402101214, -30.71776936036057, -52.87419663867909, -18.14616331693216, 7.79482014071263, -7.240904307080697, -49.39395726986171, -31.384731366446765, 5.647487668495849, 38.82038039234157, -25.406508636977673, 30.085583600994124, -8.192175178153152, -37.81467226866448, 21.441720275949688, -3.9858758493019812, 10.621085851922505, 17.723203013617507]], [[-3.361062253086417, 8.607596403642384, -37.66105398544845, 7.968392040385966, -32.37332072413323, -5.314364753892313, -28.667050975334327, -43.71131384075859, -6.961360500013577, 24.37712016640468, -25.469216404658727, 30.416005658035075, -15.411475922824637, 20.005992997448928, -39.32840091775531, 9.272976965447391, 0.8426177805794031, 19.441744849610995, -12.71503697750215, 6.412576068016944, 16.700108951163273, -28.176089851160608, 12.070816604910789, 0.603642040554835, 37.144287737880724, -18.35153263129304, -12.804834356018285, 8.680710451922796], [26.459790670278537, -6.032173874221549, 24.050722032190524, -8.066261042556926, 7.403013696244884, 20.4998244201743, -34.16178605507126, 31.707285772721928, -33.097410053989535, -36.16218589163876, 9.920774991287603, 25.967165718922914, 10.88979248240637, -3.5846671706708695, 30.955701415223796, -14.903414283574344, 13.907926616202442, 2.2172141248024317, -6.962822437483437, 2.335290844230471, -27.401025282014196, -19.475721159468367, 6.609321814962285, -28.381443075141885, -18.05075394528318, 23.674178099398418, 8.733953366598929, 33.99967022349291], [12.970926873097643, 5.373710508816906, 27.384918731037672, 10.180484273143467, 21.584677812157175, 20.872787259549593, 9.44014907111811, 10.695760374883868, -26.33954139694696, -16.299159889429433, -39.12438479027619, 8.574380668827017, -44.15062326979438, -29.326967342646483, -1.3000577981795138, 53.67009053800455, -55.11892482149421, 4.863127564214678, -16.835419354838294, 16.45324758749292, -9.087485089275521, 22.123649553586315, 24.239342259882896, -5.6771992495858505, 26.489740179780156, -12.0317092451673, 20.64059500749126, -19.538953148166744], [-18.284308315756828, -7.721104117219045, -37.65176273948821, -25.32753177979444, -34.55763221773763, 1.3435841872775263, -20.572206245466166, -41.31734979188737, -40.40176539191444, 25.831108080228333, 21.284179948499744, -37.112042890138895, -43.59116846901285, 3.722283167949502, -53.84962670589894, 7.069901464384686, 17.043042214975426, 7.01822208331936, -23.260356054954613, -2.9010343436263093, -7.002814903656169, 44.869518036885125, 3.4687416648426255, 8.037974688399142, -6.5764847110240545, 19.57744267722651, 5.226307016660436, 23.6422848558479]], [[-0.0715596245642442, 10.079366074915637, 25.22649238923038, -18.578409641674913, 17.48009313407694, -18.383125936456533, -28.214862759741848, -3.6694209391144232, 34.969526645879505, -42.39312217636236, 44.38744362378044, -8.551739866103642, -0.6563333964740758, 18.89053157674217, -5.712559424280688, 59.23797512589561, 25.15435687940059, 0.6123682096706553, -3.5143422922354426, 28.798168265957262, 31.505278289246352, 32.34483497977061, 16.12903449769476, 25.841359421965333, 21.604723803381255, 4.016630705141036, -10.245090157831905, 5.302888821281391], [-13.345525697403403, 10.136642113566873, -10.554570710826244, -18.699877420766253, -5.290368065733454, -17.273013939870783, -28.543381302455956, -16.746938026328863, 49.97649473486372, 23.767844434241333, -32.91705243792402, -2.1104448579368555, 41.00728255877411, -15.453747397186005, 43.555629670471035, -36.03397518621444, 29.073192264207446, -32.75317855495515, -15.210536462341372, -19.706467920117962, -50.055646561256, 54.19292675110517, 7.57725530818544, -9.019552111484492, 19.377937280044385, 19.663222950197987, -12.087042344796592, -29.803826732017857], [3.9181752642912353, 17.22167478391712, -41.923230248607354, 16.07894276343359, 28.135128985561412, 0.8345864916149953, -31.819825233773898, 14.812191250877461, -32.74027678906206, 32.84874179611205, 17.653020983578198, 13.26910982616461, -9.159377205175987, 1.0778261596470928, -24.053239878546172, -36.21092863724218, 43.82130957576477, 30.238632578044516, -21.47597810788337, 41.43291773277442, -26.39004207692956, -24.716398756259274, -24.789479374302907, 36.9911838347713, 22.10429600023493, 7.047725682844508, 5.737192899345329, 16.231995678476896], [-1.8886649477484763, 3.9501685573771277, -3.247223747297054, 22.33944373038685, -17.07235503831313, 17.37468775755399, 22.566686924477192, 34.19856496921327, 58.064791712478275, 31.426214253281277, -39.11779740322044, -11.3671505362352, 15.11404279178062, 34.75572457349702, 31.34953055480978, 32.06125167999795, 40.41780035187078, -31.11392486379083, -1.9126091093586068, 3.563652444057087, -52.77385335656415, 38.48442909702388, 4.552992034513575, 30.3953119581354, 6.186270991375473, -15.367229582719894, 19.81021802300573, -31.21227322572664]], [[7.243659866202874, 16.748247783517368, 1.5502949646264315, -24.12727193951054, 28.845772397621214, 9.338470801880275, 8.476271614240758, 33.608653311607235, -14.747130070241333, -27.329553126762516, 27.087047578909175, -4.34579968955457, 8.833157034908565, 18.728522095615, 51.96685813921469, 48.61460139539613, -36.22902158668888, 17.540589270576458, 0.8730625394852655, 38.31833514351488, 24.95249442598707, -0.6733725156092454, 8.595967903979943, -9.526817597515855, 28.347386714895997, -16.7242971941555, 3.9571250337830017, -24.23132495596656], [23.632161795842407, 12.3521484411429, 20.852734977305122, 1.4876095697537315, -36.95859648732685, -21.541572232254065, 36.08184946642883, -22.859551954961862, 43.920065657075014, -28.01864375264866, 12.249553068615661, -4.576514611883785, -29.526756238101523, -28.57777151008622, -21.794685152771752, -22.877141260174525, 49.797623156587505, -4.8167568313109825, 6.523880844783367, -11.699287154584505, 57.27751242175386, -18.533778076151002, 26.24799561155145, 3.7028159065576935, -31.929111357680974, -24.778904298820688, 5.940353437082975, 2.3221494897545725], [11.846557194941907, 1.4660858364267566, -43.260373509783804, 15.766574915619655, -16.7542406132393, 23.979938984189523, -5.642851910825006, -7.920319250557116, -39.11498124482822, -36.341558045704886, 11.756906467166019, -31.619536363901837, 33.49090202497221, 31.729433640724007, 13.857377721823772, 34.664293372896445, -49.865600511995275, -13.23250806723811, 5.035397709931695, 8.58490321319068, 21.905938165172113, -5.793830837883031, 11.219265664719616, 3.988099413587449, -17.52573765658789, 4.7066636299228515, -0.45349225171780133, 26.879431447929804], [-13.65376865947822, 19.00801635064609, 7.433684127675478, 14.72201416775789, 4.765761205551515, -8.663873950150464, -35.062062408952436, 37.637064286031645, -13.03840619741635, -26.73518629211278, -16.511362508237585, -24.646914181666556, 8.98158570461288, 14.522372855158645, -12.23496297451913, -31.4469120449711, 63.345143737645785, -31.63759349142837, 24.43078801115937, 38.697213087464796, -19.192053398749923, 50.439086399470504, 18.56938779565406, -9.270322906738311, -2.2625490179055125, 10.334016423770889, -11.353413199657338, -17.712170021802006]], [[0.3815112358378856, 5.6925895146686525, -22.32029175214858, -1.409498831257193, -31.066562182808838, 12.695333481269456, -59.80681150768438, 41.180167693934905, -30.644793927956517, 11.95047619983966, -29.464315828779064, 1.8226369980293535, -42.24926256805044, 19.32751438983343, -38.69292709910509, 36.60168123201286, -16.614264169314968, 15.6611430435937, -3.854052430473738, -7.522647141970658, 37.28926920254745, 27.40777159115315, 3.04117734218553, -14.253446442556944, 13.936447927325357, -17.049164537264108, 7.952103016949654, 6.234243243069848], [-23.579057176271117, 13.028052051782005, 7.118469620079668, 26.589124522359587, 7.747500512498705, -4.94892615878089, 37.3556236379252, -41.12078008578594, -44.79079214621024, 7.886688253114466, 45.18929084052946, -19.292365343391985, -24.64028271324279, -7.380121915425592, 36.77164004885443, -15.45846798783695, -39.89109074340797, -9.293488425573804, -1.5704375805535695, 29.144582878594807, -22.2942062162725, -6.2141724489807135, 13.032330633091355, 26.119726813255284, 3.781403093333543, 9.468280677047652, -1.7247696313606198, 41.44275918203258], [-20.7185503817856, -16.563791855214994, 10.112894206520938, 18.13032813772181, -5.39186523289239, 7.28423151505627, -23.23710924561396, -12.197608995814996, 21.09604299119837, -22.701716125400484, 21.200021083807357, 36.7875393196818, 38.30843387959316, 29.29844305149513, 19.500379394607993, -19.121771244772134, 67.86389674714592, -13.792589438191678, 0.70287325976345, -41.30864012386535, -6.177072366044672, 29.3759114650718, -4.549965246444348, 14.973491704882255, -6.165859686254864, -15.228948735300522, -18.028382516765447, -30.63306322953396], [-27.439454410799954, 1.8060135140985625, -18.396134164312393, 7.659308829201824, -14.565063829809661, 0.24527353097520557, -15.717727918478507, -35.16146931805218, 21.048439085989273, 34.675012900965754, -38.837540218734226, 35.80104951834488, -1.5592940982027166, 26.808770723416686, -4.976197470861241, 34.53308681649412, -69.55262781648422, -24.802370260981505, -6.145310371853817, -21.429927370397678, -43.41077292843392, 4.412633123195813, -4.745941454972774, -37.22588161254563, 27.54402305777972, 26.728109306667122, 2.9221371427496727, 22.997860484373277]], [[4.71114668605797, 18.86062361531885, -34.273222408914364, -21.0886355942802, 21.388084827675534, 13.219383179331635, -36.17417577702487, -22.45618117255972, -21.974894767691897, -6.076546206551348, -36.2138743554741, 41.930592833577315, -9.010311931052046, 10.461325268024533, 15.732497828331775, 50.216988784024686, 35.34272515284038, -3.3363246419460424, -21.075541902846254, 35.56991359549414, -62.956999584993206, 11.404428350484842, -1.2129142999555969, -23.700653319208513, 9.597562483491446, 24.794914848891345, 21.480319841418847, 29.570962787580484], [-6.078156868635894, -11.608335159708131, 13.119107929189944, -4.813701775969409, -25.788585744608532, 15.681447891434512, 41.533383087371185, 21.191310040305456, 8.792093513325902, 10.51304255100251, 45.76303924795217, -7.04343843441726, -45.153971509668914, -21.216723953041537, 41.86961795365383, 61.002317491724774, 26.47749669373447, -12.1688400836456, 5.836046900268437, 40.87634330044852, -40.87273494493304, 23.466933538038727, -2.9905400755058404, -49.14868770013525, -24.471081307960695, -24.830716789053, 10.91114072288508, -39.13452727659618], [12.040701842994935, 15.966463383520306, 31.005637480694947, -0.8329028639477551, 2.336051301858802, -4.673840258881766, 11.670422442174473, 9.406637826864289, -32.94540036231051, -39.585076274923246, -7.58276023572557, -42.18017031236256, 13.12838007669572, -15.996960954947074, -9.95772766995177, -13.102374809447205, -35.105377568093246, 25.6488422136558, -25.35501359749196, 17.847025425364105, -20.08408778711384, -22.500021639374534, -14.442975820912984, 22.411251011995144, -25.53566814088447, 6.100603799201895, -2.691548112693562, 19.023005126476416], [6.120051530161805, -8.45047670336591, -20.887967118091094, -14.92055796482645, 34.210611086488534, -23.00702580354649, -5.460648213469085, -13.719137914752846, -19.56053543358337, 0.25703470605388984, 43.12672417309769, 1.4589102100832105, -1.0441292734012997, -20.281513466726814, -50.10046188435698, -59.51116631916549, 42.32189517445159, 14.834072712779061, -15.544157395878829, -40.50332692851854, -28.97191259290655, -27.317259083664823, 22.137859878985257, 21.70727951783588, 31.64449693116913, 19.95682566085576, -16.60477135974026, 31.15901085970683]], [[-12.838694279085164, 9.506167705031821, -31.59080572500323, -8.66609351641178, -11.923672126917664, 0.18730192776936724, -16.501569263782564, -4.526920213917929, 16.985864104510743, 30.233729843843232, -1.9621297939835995, 37.85571764608234, -54.35795220583798, 17.427677767391547, -23.664138163110195, 7.020376386516494, 48.13431996405028, 33.07335239429462, 13.48622790214572, 4.218192153417624, 31.482721413954728, -54.1105623060531, 26.377751888475153, -7.619984681548696, -17.310092427567465, 12.910196198278982, -14.957250010193611, 29.2604027625428], [-28.04602224687122, -14.668320238561972, 43.73088384766109, -14.673735151353478, -25.029595809196863, -7.1244995725511595, 45.52153350986951, 42.22508550269129, 37.37844134132326, -27.204751965108038, 46.07548877700336, 16.509475261840578, 25.43769298306583, 22.656460342753693, -39.50515237553296, 30.566580942343904, -9.675884284428628, 29.882178433942244, 19.216433006344552, -32.372175648014945, 24.60187752897768, -44.118534174319144, -8.161363250761688, -1.907014711470875, 34.05634623013476, 23.413655681366304, -17.87687251034817, -19.5586919222418], [28.03017202456774, 10.62972205798934, -30.91920612106035, -10.686786502528971, -36.65251339969804, 19.050791474419043, 34.38130907182061, -42.107496219458476, -30.163516116077922, -32.110970392205346, 3.9374622701552746, -40.97967524405054, 21.895935914731556, -4.128687979112571, 12.364063134702352, 56.545721209959986, 27.5967394309197, 7.538609714724052, -0.22317135327886622, -41.8299433876926, -59.81347150849704, 38.41485195987634, -4.800183147650185, -29.384002823492434, 31.506856951481875, 12.055928550770886, 3.7384069174282075, -0.41286741215039735], [5.619718996586542, 9.898435820328743, 7.7640613966769685, 14.160009386037137, 38.96006323221562, 1.846715714234013, -12.581110047789794, -13.740519562438163, -46.05770133386451, 14.5691101520917, -0.7064321082917625, -9.135492648074147, -38.27052374640557, -8.2753374790118, -38.249580583732325, 1.217808899010745, 5.734517940796137, 4.080505824928094, -21.99543622601671, -36.63089628573247, -39.74213335901892, -56.424362280258464, -9.45417230043045, -42.58106925632865, -2.304247216054773, -10.781535644765663, -22.25295200316752, -37.99204860933223]], [[9.604732088513959, -18.501664081551382, -13.11820828683209, 19.36625746625153, -3.419843480635735, 8.16906074437117, 35.200727004364296, 1.6735991233960459, 46.28405630022753, -21.330027649909162, -33.82700795455267, 36.74259425448772, 11.352221937175681, 8.657337659452876, -17.11473002614027, -68.31803105560931, -69.30361041297546, 21.508619847667042, -5.817895801575338, -2.7725342542330353, -46.471179703572886, 34.49224549240791, 21.57095005056362, -26.825373113364474, -7.557334544850283, 19.957783281850173, -17.446959607192845, -31.58753763363707], [-26.298535552858134, -17.924466979996875, -32.858325817975846, -13.948845421910978, 29.1666823120491, 5.4804049305096045, -37.363189945678165, -33.352010476241745, 18.864803529607695, 25.043472817862458, 13.853366604511338, 27.051972234696063, -5.5324570872618715, -3.6212168206062785, 50.81281610870212, -50.254157654103274, 33.29809113173233, 7.2186394226095985, 22.09755756250873, 6.681683518490041, -23.147931796820146, 25.814266122069572, 7.479870638759612, 25.18782246131585, 20.41405050233215, -6.480375022962206, -14.922996000272633, -4.060469912558955], [21.353041013170888, 14.42206972519123, 42.76687874231581, -12.496307983925178, -22.759167885432554, 15.234352123976498, -60.14418210045666, 13.209658833421257, 49.53293751981258, -41.19788836169591, 42.642134176613865, 29.546523330825227, -41.88013713712842, -35.1147599938403, 30.314199851687928, -60.29415940107624, -5.861429271901888, -23.73624022740258, 20.710133210942725, 27.678751220549522, -39.018690749296724, -36.66649358814994, 22.313127757404626, 22.388425162502624, 29.405882330675908, 21.999070216522433, -10.831713892785034, 8.594331594012035], [19.823783507573875, -11.710631183943113, 17.10992216614494, 26.455949379095618, 2.470114539629006, 10.777054988524153, -0.14877718810942106, -30.414166843316696, 40.20669422591437, 10.565988176726423, -2.111675788102607, -34.723809686304286, -41.282985548374846, -7.824526114184678, 29.303406040808767, -17.066361800202493, 0.1115844135528518, 18.977920848771557, 18.47656462228977, 10.69674237685048, -15.544870911090996, 6.346419744042652, -10.009733795746923, 26.38184894770515, -19.27870622985699, -18.904334509572006, -5.515327843654283, -26.747889671147902]], [[12.879236940523674, 14.237780539846604, 19.066304096346748, 13.32727596367799, -2.7642874416455645, 24.00606499577322, 44.47139779982314, 7.901998282605233, 58.41574498941775, -8.431877966354445, -38.15186993259882, -30.16841183551039, -22.72085827196069, -24.155748642708126, 19.698513908389916, 23.814385130531857, -57.66502985434787, 10.300330304304408, 6.5962950710243184, -10.07960257057254, -40.85229032491041, 26.966222680764098, 19.506642801467056, 43.61650148684234, -26.531352866157185, 2.3652604958693817, -20.672364937612393, 38.63828090973452], [3.734536074797905, 18.47109570153084, -21.95492032438679, 5.580970884327749, -14.313000773968733, -1.492506113657768, 23.022514524247406, -39.9941260289098, -13.993283947707564, 13.314079308175057, -41.17563686148231, -10.921582838725113, 39.42836202458294, -0.1259114632664029, -2.68932804045483, 56.05642692515011, -21.633675846209368, -12.136129140306094, -5.494231500031342, -21.152846553095245, 30.893840141372703, 29.577314166993236, -7.727999140344906, -29.40063003658556, -19.22188657532845, -18.901540742483444, 8.901352103940832, -42.342453462683835], [-28.5665055228061, 9.004692239683353, -43.4571270505698, -18.133261716342787, -15.329594415036869, -14.23903174019097, -28.581907610532184, 42.487230891520404, -0.6075508635490781, -0.5351278880776641, -27.69847484089822, -35.437764710237026, 27.687828195165068, 25.923501560166763, -41.073068804833625, 60.9959951571867, -4.906252817921125, 1.9135722267810096, -9.392293802932544, 17.51387734122751, 6.245550863736378, -40.830245282620425, -12.84891219500947, 48.673728475481965, -15.754705290228525, -6.885039776134564, -15.023024848682606, 28.518743697134006], [-18.43422720832568, 17.887600310972793, -17.164195406539058, -17.05031938315684, 34.75371480366386, -6.411386636785738, 38.094537352169446, -35.66599835554229, 55.586313869982824, -26.48726146135294, 27.690715593116572, -2.3838857019256516, -20.89919272543171, -18.46107930925076, -30.505465052440293, -28.850653101069174, -63.4552005700181, -11.806269202330212, 22.795971737242212, 33.540326443316246, 32.66132818729, 44.31760687004884, 18.968338145683663, 49.42321346700947, 31.13857413310332, -20.153234622864396, -23.51726881046709, -20.888596656903612]], [[31.216038476411434, -15.08843034379933, -18.843325440101932, 1.4020842290008007, 24.958703147290564, 8.07712211954291, 41.234945697254275, 46.189282890599145, 38.903994078458545, -26.46914473543818, -23.762662434382477, 36.91238958714746, -6.432623048282674, -35.17671538311886, -7.777188791452277, 4.730949969445438, 28.850475527807145, -29.007828957005497, 1.68869507948492, -7.226480895306913, 5.095481897734486, 5.93615810792695, -23.330577965884835, 17.721921030904273, -39.088473095200015, 16.651344772855044, 14.279318224877867, -35.57586232301283], [-14.363793210594098, 15.550352585950703, -4.958632709363978, 21.09189757444776, -36.04444012659119, 8.013007969895229, 28.100279317527598, 1.6117808566950504, 37.736439242579436, -39.073599674888, -39.3293687641905, -11.998120800501974, 37.216232042857975, -24.996171878554318, -36.20203680222973, 45.408164245307084, 3.0659252146196576, -12.728513294886303, 0.19496855706075092, -18.093719531675937, 22.902259330433928, 26.40067704841854, 22.61917395616105, -26.914448689868145, -35.94382153618728, -15.95921352745608, 20.678583938887517, 22.54457071678047], [-18.46062583181902, 17.3652380620383, -27.97909086225049, 12.965525015489542, 32.41101756236274, 1.3684918637099759, -45.642127174010376, 10.442180241387414, -18.294976044814074, -34.58491566495374, -44.88212050125959, 12.40524740550883, 50.69451358700233, -14.194093089618539, 21.279662335922673, 44.89944015117384, 19.555046243304822, 9.588339803780915, -9.795630894756036, 38.649580526781826, 0.038300477224070914, -0.7543971881053311, -7.737103726649953, -16.535417829519055, -25.14387886106574, 24.975486195502143, -9.463581871195087, -11.980513289412121], [6.151430708526012, 0.35410237361891467, -21.87006932140952, 27.808320852638058, 22.05277100885346, 22.648593620122544, -20.049839311036294, -26.992638684110723, 55.42058478415487, 19.95598946887318, 36.9425700889574, -38.92480914100597, -4.761005134382676, 28.20459397382213, -9.633388332289373, 36.66175336663563, 15.836630207195244, -15.601134961777191, -8.74534883671687, -47.74667035951257, -29.392176226658012, -18.890175845779446, -13.019294096867858, 3.7302167218502396, 31.74500367762032, 21.353707874983574, 1.0132159471979851, 5.360937242378828]]], "t": [[99999999.0, 10.72187877976884, 7.671631437149172, 14.697622807096282, 13.898333113638927, 11.871223673297642, 14.676841193862284, 7.449168847360935, 13.088572096332985, 8.79835833778041, 5.430950811442745, 7.708023643791872, 11.814314554939248, 12.39451235279742, 6.883830732660825, 9.971286379443017, 14.151697130284145, 7.22704478627077, 7.5005781716260325, 10.613180682733159, 10.940621626551819, 5.28623118566924, 7.476919613177221, 6.909415375935767, 11.039532684097326, 6.248642456295098, 5.485413713419204, 7.756797883682016, 11.75195203144536, 7.445767272542888], [10.72187877976884, 99999999.0, 5.614678090568328, 11.426508257812353, 10.170648658353713, 7.49114491244968, 13.770448142564133, 6.645982253076397, 13.621282509138657, 10.951667930320994, 12.359411403071713, 11.799357108460107, 11.297908318499802, 5.076545452721763, 14.985986729815403, 14.952015956785395, 6.962086895592185, 5.172601638134093, 5.935265666506201, 5.409980121153821, 13.663149469433561, 5.122754539190085, 9.251032344563397, 13.442906867534896, 12.095400761672515, 12.18679287746535, 13.675707119858968, 10.332763482922513, 7.322576555675887, 6.899934666975712], [7.671631437149172, 5.614678090568328, 99999999.0, 6.600731639542618, 12.094566762811784, 14.316825458469484, 9.115505239215452, 7.267216247927873, 5.662883109545799, 14.76237378742954, 10.229459106334886, 6.9948578681971005, 13.671977914574715, 11.090380556006835, 8.004644596151707, 11.1488513553204, 13.311761449659517, 13.858688282687305, 8.19467101831641, 7.31849515007875, 12.81902173021262, 14.737032564162858, 11.53797741408632, 8.445485916999502, 12.234616122440919, 8.413764845174327, 8.230720385246608, 9.959531686422142, 11.295770314030698, 7.570083059977845], [14.697622807096282, 11.426508257812353, 6.600731639542618, 99999999.0, 5.045968866362857, 9.028291493670753, 8.688047506473866, 9.276331004112851, 10.706309086943513, 6.015605482910482, 6.076414698193824, 7.242368259194437, 6.342186770285801, 7.171007930899477, 5.468874512155715, 10.456049068926974, 13.869648976533345, 10.39995427766668, 5.361739626085997, 7.7615751696806425, 13.654359671731347, 7.626314313764397, 14.8687005749155, 14.888833258632989, 12.351175661820537, 5.723998718991358, 8.940593579859247, 6.983960816729495, 8.972071861402517, 10.198285376899129], [13.898333113638927, 10.170648658353713, 12.094566762811784, 5.045968866362857, 99999999.0, 12.738992524072561, 10.759243824905944, 10.565342232017489, 7.94529892111313, 14.548631215383475, 13.573839388218843, 9.681389272595897, 10.35005181196341, 8.175752887872367, 6.167691427948384, 12.111130102036103, 7.179388609053008, 13.103219242256007, 6.194068538394682, 10.475296218498517, 8.236097258870995, 14.595278798382857, 9.681906903173163, 10.638632112971482, 14.267654771023599, 7.7107591112900735, 5.423889267984643, 9.19848227286192, 12.230241269818787, 10.578078335378414], [11.871223673297642, 7.49114491244968, 14.316825458469484, 9.028291493670753, 12.738992524072561, 99999999.0, 6.007089227213735, 9.017191527705876, 8.988984219549867, 11.324865664633093, 9.483344091217262, 7.946348257655282, 12.163836166100097, 11.656775922366627, 7.577174809867708, 11.262798623878304, 12.763317857560537, 9.425002434484995, 12.328648775731532, 6.914805465112915, 11.919944876305461, 14.586114123752417, 8.250714649377946, 12.506698313904057, 6.918684114710995, 10.438546171906708, 5.65358547935845, 9.277544095734072, 11.22162804666625, 14.585091268445003], [14.676841193862284, 13.770448142564133, 9.115505239215452, 8.688047506473866, 10.759243824905944, 6.007089227213735, 99999999.0, 12.135075782663288, 9.419738472958391, 14.643017441107185, 9.84726358680214, 5.422240388751847, 9.276122420334513, 9.461918157753452, 14.065461742929466, 7.037854207709793, 8.550055492928442, 8.403675446426924, 10.948616431217516, 9.325650248731922, 7.673093422367172, 12.283363347421675, 8.362067661914256, 6.272159693898857, 6.202097543499734, 9.954255985310166, 7.270431847193351, 8.064806571261753, 9.868402356151917, 13.40078525092073], [7.449168847360935, 6.645982253076397, 7.267216247927873, 9.276331004112851, 10.565342232017489, 9.017191527705876, 12.135075782663288, 99999999.0, 14.267461283807556, 10.950541945017816, 5.785380588622537, 6.559993856188052, 11.270679971194792, 13.21750922729019, 13.326488724312075, 9.123993975087417, 10.456993043264381, 12.007731029817275, 12.398580518291876, 11.05885898491982, 8.045885879662574, 8.345396660510946, 13.987150891236107, 13.708511723146371, 8.683526008850773, 7.564283229490263, 5.353184216479421, 8.7654225773005, 6.5539825444866935, 8.963722589123062], [13.088572096332985, 13.621282509138657, 5.662883109545799, 10.706309086943513, 7.94529892111313, 8.988984219549867, 9.419738472958391, 14.267461283807556, 99999999.0, 6.8256045215333225, 7.490297098879242, 14.367005456282204, 10.82789788224849, 11.923923910351, 9.467879224682768, 6.029371635256883, 14.600939956820703, 13.361740914691037, 7.3936371463823, 5.109458444597987, 13.042394174116438, 11.65407731199681, 13.694904955200284, 6.795277392021669, 5.658904340417888, 7.4908914612264965, 13.470660921064999, 5.834849153405139, 14.799030359014818, 7.97482552537684], [8.79835833778041, 10.951667930320994, 14.76237378742954, 6.015605482910482, 14.548631215383475, 11.324865664633093, 14.643017441107185, 10.950541945017816, 6.8256045215333225, 99999999.0, 11.025795360705573, 10.5049870187606, 10.801654042225445, 6.485327548572015, 8.151466059532183, 11.665111318269714, 13.112690596384358, 8.521606723592882, 14.973134632929426, 10.95721599699749, 12.32754210758641, 13.922497277262325, 11.464356776620065, 5.732566313596791, 10.459602656733725, 10.125660674768671, 14.379450954519932, 12.974082693357376, 12.310591170839345, 11.729441267792808], [5.430950811442745, 12.359411403071713, 10.229459106334886, 6.076414698193824, 13.573839388218843, 9.483344091217262, 9.84726358680214, 5.785380588622537, 7.490297098879242, 11.025795360705573, 99999999.0, 11.7179145278013, 13.872448989547365, 7.78324482547346, 9.257978882181465, 10.139029952833402, 14.114250739119223, 5.450878894046895, 11.249532811332948, 7.172701042038419, 10.895252304670382, 13.719634988029757, 12.6801001881457, 5.215809346361015, 13.275232165949655, 12.338068891088465, 6.247355673816189, 7.453082588280218, 8.855333360025305, 13.360747321882751], [7.708023643791872, 11.799357108460107, 6.9948578681971005, 7.242368259194437, 9.681389272595897, 7.946348257655282, 5.422240388751847, 6.559993856188052, 14.367005456282204, 10.5049870187606, 11.7179145278013, 99999999.0, 6.314741725203428, 8.372374314699965, 13.979068530363413, 13.658612208388046, 7.707322409740226, 6.542318034862802, 6.641091852397962, 8.850787397725872, 11.954684323843459, 5.891599333951949, 11.54156378679709, 5.827585435477066, 5.870819208556659, 12.51103364832079, 12.228613473823291, 8.090471364143404, 10.702701798736816, 12.099044390948114], [11.814314554939248, 11.297908318499802, 13.671977914574715, 6.342186770285801, 10.35005181196341, 12.163836166100097, 9.276122420334513, 11.270679971194792, 10.82789788224849, 10.801654042225445, 13.872448989547365, 6.314741725203428, 99999999.0, 11.910865582915248, 11.049432019996388, 12.255653687925665, 5.8611466402169725, 8.10193067877982, 13.608910623515728, 14.228366693218394, 8.502327670056921, 9.413348858236311, 6.027533893583255, 10.346412414778595, 10.117110254747216, 8.156884461843191, 14.694839151554937, 8.242793504674225, 14.910311039939229, 9.300247381955886], [12.39451235279742, 5.076545452721763, 11.090380556006835, 7.171007930899477, 8.175752887872367, 11.656775922366627, 9.461918157753452, 13.21750922729019, 11.923923910351, 6.485327548572015, 7.78324482547346, 8.372374314699965, 11.910865582915248, 99999999.0, 12.51877939605242, 9.999632448666256, 9.696252948975637, 14.204192231469543, 12.029371611762992, 9.748759688377968, 10.388752345572291, 12.257617694709586, 12.232232724333716, 11.218761617058668, 6.194650434327601, 11.210979284652005, 6.971549925523125, 9.397388107724797, 13.059567681802095, 5.316980841196397], [6.883830732660825, 14.985986729815403, 8.004644596151707, 5.468874512155715, 6.167691427948384, 7.577174809867708, 14.065461742929466, 13.326488724312075, 9.467879224682768, 8.151466059532183, 9.257978882181465, 13.979068530363413, 11.049432019996388, 12.51877939605242, 99999999.0, 7.003718271151104, 14.144266833036191, 11.265510139296222, 9.65697062273508, 12.300294982512618, 12.863340438871264, 6.487412005694676, 12.355377635412712, 14.089146892120372, 14.032402951497408, 6.449044956809168, 9.676709034896545, 11.82293780707365, 5.864161281360626, 13.469296167707881], [9.971286379443017, 14.952015956785395, 11.1488513553204, 10.456049068926974, 12.111130102036103, 11.262798623878304, 7.037854207709793, 9.123993975087417, 6.029371635256883, 11.665111318269714, 10.139029952833402, 13.658612208388046, 12.255653687925665, 9.999632448666256, 7.003718271151104, 99999999.0, 7.4802690491944634, 9.210168032897476, 10.805912234714603, 13.05467709713503, 14.190008325429547, 7.10042154577348, 8.894081689952689, 11.330912935553364, 10.684957517177663, 13.02025944130561, 9.321367417542849, 12.974892446935716, 9.235568289886125, 5.62914744214633], [14.151697130284145, 6.962086895592185, 13.311761449659517, 13.869648976533345, 7.179388609053008, 12.763317857560537, 8.550055492928442, 10.456993043264381, 14.600939956820703, 13.112690596384358, 14.114250739119223, 7.707322409740226, 5.8611466402169725, 9.696252948975637, 14.144266833036191, 7.4802690491944634, 99999999.0, 9.323764131685138, 13.657496498634957, 12.41482555437635, 5.805821077408451, 13.87697874204554, 6.761724720346337, 8.19344302356691, 9.850396501440027, 7.9759549512448755, 13.446036856014999, 11.39289812563682, 8.73568610246081, 7.669496021173577], [7.22704478627077, 5.172601638134093, 13.858688282687305, 10.39995427766668, 13.103219242256007, 9.425002434484995, 8.403675446426924, 12.007731029817275, 13.361740914691037, 8.521606723592882, 5.450878894046895, 6.542318034862802, 8.10193067877982, 14.204192231469543, 11.265510139296222, 9.210168032897476, 9.323764131685138, 99999999.0, 11.538439598642498, 9.86560705571137, 10.366923593915665, 13.0707648890347, 7.160228251858017, 6.331187500335483, 7.983148988311925, 11.296729050656879, 6.657201781478599, 14.573755925429774, 8.92194680513715, 8.290463780403927], [7.5005781716260325, 5.935265666506201, 8.19467101831641, 5.361739626085997, 6.194068538394682, 12.328648775731532, 10.948616431217516, 12.398580518291876, 7.3936371463823, 14.973134632929426, 11.249532811332948, 6.641091852397962, 13.608910623515728, 12.029371611762992, 9.65697062273508, 10.805912234714603, 13.657496498634957, 11.538439598642498, 99999999.0, 12.654395405492734, 12.861802378558611, 13.841586612279722, 5.074099266725333, 5.897782224220434, 7.496651550343327, 10.978751901229924, 5.907300578090773, 13.97092178815781, 14.684264137361406, 13.592023092601082], [10.613180682733159, 5.409980121153821, 7.31849515007875, 7.7615751696806425, 10.475296218498517, 6.914805465112915, 9.325650248731922, 11.05885898491982, 5.109458444597987, 10.95721599699749, 7.172701042038419, 8.850787397725872, 14.228366693218394, 9.748759688377968, 12.300294982512618, 13.05467709713503, 12.41482555437635, 9.86560705571137, 12.654395405492734, 99999999.0, 12.818246789761366, 9.55932095559908, 7.786712063901007, 7.657252750983533, 5.761885636447356, 10.621243172030953, 6.018595727710771, 7.797898175501425, 10.615315010138017, 6.74501280227493], [10.940621626551819, 13.663149469433561, 12.81902173021262, 13.654359671731347, 8.236097258870995, 11.919944876305461, 7.673093422367172, 8.045885879662574, 13.042394174116438, 12.32754210758641, 10.895252304670382, 11.954684323843459, 8.502327670056921, 10.388752345572291, 12.863340438871264, 14.190008325429547, 5.805821077408451, 10.366923593915665, 12.861802378558611, 12.818246789761366, 99999999.0, 7.833311041761557, 5.855998373664219, 7.652720487969048, 5.792732229543388, 12.094249245572007, 8.453934844654967, 14.251087596831312, 9.619097848454556, 11.749803929570232], [5.28623118566924, 5.122754539190085, 14.737032564162858, 7.626314313764397, 14.595278798382857, 14.586114123752417, 12.283363347421675, 8.345396660510946, 11.65407731199681, 13.922497277262325, 13.719634988029757, 5.891599333951949, 9.413348858236311, 12.257617694709586, 6.487412005694676, 7.10042154577348, 13.87697874204554, 13.0707648890347, 13.841586612279722, 9.55932095559908, 7.833311041761557, 99999999.0, 7.746008066235111, 6.8316344779677065, 7.843200596771128, 8.05934786041109, 9.581260588727066, 13.87322613413765, 10.731278698584031, 13.233433589313695], [7.476919613177221, 9.251032344563397, 11.53797741408632, 14.8687005749155, 9.681906903173163, 8.250714649377946, 8.362067661914256, 13.987150891236107, 13.694904955200284, 11.464356776620065, 12.6801001881457, 11.54156378679709, 6.027533893583255, 12.232232724333716, 12.355377635412712, 8.894081689952689, 6.761724720346337, 7.160228251858017, 5.074099266725333, 7.786712063901007, 5.855998373664219, 7.746008066235111, 99999999.0, 11.89779361337592, 11.546800731730606, 6.741571394000312, 10.09488851970736, 9.424261882534026, 10.919615612249903, 8.831542247519202], [6.909415375935767, 13.442906867534896, 8.445485916999502, 14.888833258632989, 10.638632112971482, 12.506698313904057, 6.272159693898857, 13.708511723146371, 6.795277392021669, 5.732566313596791, 5.215809346361015, 5.827585435477066, 10.346412414778595, 11.218761617058668, 14.089146892120372, 11.330912935553364, 8.19344302356691, 6.331187500335483, 5.897782224220434, 7.657252750983533, 7.652720487969048, 6.8316344779677065, 11.89779361337592, 99999999.0, 5.095165234532006, 13.980735907055902, 13.88925510928006, 12.893570052912402, 12.352002136279822, 14.220886450379828], [11.039532684097326, 12.095400761672515, 12.234616122440919, 12.351175661820537, 14.267654771023599, 6.918684114710995, 6.202097543499734, 8.683526008850773, 5.658904340417888, 10.459602656733725, 13.275232165949655, 5.870819208556659, 10.117110254747216, 6.194650434327601, 14.032402951497408, 10.684957517177663, 9.850396501440027, 7.983148988311925, 7.496651550343327, 5.761885636447356, 5.792732229543388, 7.843200596771128, 11.546800731730606, 5.095165234532006, 99999999.0, 14.114593913349875, 8.50560107382308, 5.236915087519595, 14.866540014515913, 7.726263154066032], [6.248642456295098, 12.18679287746535, 8.413764845174327, 5.723998718991358, 7.7107591112900735, 10.438546171906708, 9.954255985310166, 7.564283229490263, 7.4908914612264965, 10.125660674768671, 12.338068891088465, 12.51103364832079, 8.156884461843191, 11.210979284652005, 6.449044956809168, 13.02025944130561, 7.9759549512448755, 11.296729050656879, 10.978751901229924, 10.621243172030953, 12.094249245572007, 8.05934786041109, 6.741571394000312, 13.980735907055902, 14.114593913349875, 99999999.0, 10.783405509099373, 6.682581389236515, 6.192575120637623, 12.891652461875436], [5.485413713419204, 13.675707119858968, 8.230720385246608, 8.940593579859247, 5.423889267984643, 5.65358547935845, 7.270431847193351, 5.353184216479421, 13.470660921064999, 14.379450954519932, 6.247355673816189, 12.228613473823291, 14.694839151554937, 6.971549925523125, 9.676709034896545, 9.321367417542849, 13.446036856014999, 6.657201781478599, 5.907300578090773, 6.018595727710771, 8.453934844654967, 9.581260588727066, 10.09488851970736, 13.88925510928006, 8.50560107382308, 10.783405509099373, 99999999.0, 12.58571575135657, 14.718169445314553, 5.041424727124558], [7.756797883682016, 10.332763482922513, 9.959531686422142, 6.983960816729495, 9.19848227286192, 9.277544095734072, 8.064806571261753, 8.7654225773005, 5.834849153405139, 12.974082693357376, 7.453082588280218, 8.090471364143404, 8.242793504674225, 9.397388107724797, 11.82293780707365, 12.974892446935716, 11.39289812563682, 14.573755925429774, 13.97092178815781, 7.797898175501425, 14.251087596831312, 13.87322613413765, 9.424261882534026, 12.893570052912402, 5.236915087519595, 6.682581389236515, 12.58571575135657, 99999999.0, 8.164473331775806, 11.31257580177793], [11.75195203144536, 7.322576555675887, 11.295770314030698, 8.972071861402517, 12.230241269818787, 11.22162804666625, 9.868402356151917, 6.5539825444866935, 14.799030359014818, 12.310591170839345, 8.855333360025305, 10.702701798736816, 14.910311039939229, 13.059567681802095, 5.864161281360626, 9.235568289886125, 8.73568610246081, 8.92194680513715, 14.684264137361406, 10.615315010138017, 9.619097848454556, 10.731278698584031, 10.919615612249903, 12.352002136279822, 14.866540014515913, 6.192575120637623, 14.718169445314553, 8.164473331775806, 99999999.0, 9.501909141910119], [7.445767272542888, 6.899934666975712, 7.570083059977845, 10.198285376899129, 10.578078335378414, 14.585091268445003, 13.40078525092073, 8.963722589123062, 7.97482552537684, 11.729441267792808, 13.360747321882751, 12.099044390948114, 9.300247381955886, 5.316980841196397, 13.469296167707881, 5.62914744214633, 7.669496021173577, 8.290463780403927, 13.592023092601082, 6.74501280227493, 11.749803929570232, 13.233433589313695, 8.831542247519202, 14.220886450379828, 7.726263154066032, 12.891652461875436, 5.041424727124558, 11.31257580177793, 9.501909141910119, 99999999.0]], "M": 99999999.0}