{"num_workers": 25, "num_roles": 4, "num_nodes": 30, "w": [[0, 0], [367.2455975372462, 397.90515756182737], [254.0358699372504, 290.3995320778282], [92.02244525618808, 121.24462156957073], [46.65837977227744, 77.33412755764843], [320.34157115753084, 347.01154652699114], [371.1857426311024, 406.35494450316315], [324.85678974037256, 363.0105901103445], [131.11233696469586, 156.68617272492398], [305.88688698916695, 335.22088171633396], [228.46576801935635, 265.788335031958], [83.96042157227258, 120.3153452383105], [120.85437916517934, 150.76670160042724], [202.09124654683146, 240.2173873832725], [324.4015914053482, 359.9357540121802], [133.8051766211461, 166.65935891199499], [147.31291132225644, 178.25546023133901], [199.23661565818782, 230.50632668212344], [329.87468062952445, 358.53597937581196], [410.74338209811344, 436.8372721091714], [177.90211141075014, 209.18245785635693], [113.85005846226267, 145.3256495075069], [316.52289237697636, 343.0300437998177], [226.68299502952178, 252.12625355779736], [315.57466006236984, 347.6785684476275], [213.9623587068482, 252.69490605452788], [220.57431570954637, 250.60637652747536], [98.81171402782897, 130.50044866990305], [328.9849812547508, 367.45802193282657], [0, 450]], "p": [0, 18.33935503669551, 17.371698476844166, 7.878969380375336, 14.223993281355346, 13.103917617481931, 12.69932827143379, 19.956040186225927, 6.803400690122986, 18.866599358630193, 15.188003344102844, 13.163661132190343, 12.87079902390178, 13.076512942358844, 18.6492330270971, 14.697769137561133, 13.455457720345105, 18.930288325966437, 15.154385948969452, 10.535601263811088, 9.397075566394745, 12.498869927672878, 7.49692226158682, 10.42093939264187, 15.214442172442729, 12.304007484114432, 12.54850938618363, 8.091763704638485, 20.55702577736986, 0], "e": [[1, 1, 0, 0], [0, 1, 0, 1], [0, 0, 1, 1], [0, 1, 0, 1], [1, 0, 1, 0], [0, 1, 1, 0], [1, 1, 0, 0], [1, 0, 0, 1], [1, 0, 1, 0], [0, 0, 1, 1], [0, 1, 1, 0], [0, 0, 1, 1], [1, 1, 0, 0], [1, 1, 0, 0], [0, 1, 1, 0], [0, 0, 0, 1], [0, 0, 0, 1], [1, 0, 0, 0], [0, 0, 0, 1], [0, 0, 1, 0], [1, 0, 0, 0], [0, 0, 1, 0], [1, 0, 0, 0], [0, 0, 0, 1], [0, 1, 0, 0]], "d": [[3, 2, 2, 2, 3, 1, 2, 0, 1, 1, 1, 1, 0, 2, 0, 0, 3, 0, 0, 3, 1, 0, 1, 3, 0, 3, 0, 0], [2, 1, 1, 0, 3, 0, 1, 3, 1, 1, 0, 0, 1, 2, 0, 3, 1, 3, 3, 1, 0, 1, 1, 0, 1, 0, 1, 2], [1, 2, 1, 2, 0, 2, 1, 0, 0, 1, 2, 3, 1, 2, 2, 3, 2, 2, 3, 0, 1, 1, 3, 1, 1, 1, 6, 2], [1, 2, 4, 2, 1, 1, 0, 1, 1, 1, 3, 2, 2, 2, 1, 1, 2, 1, 1, 1, 1, 4, 0, 2, 1, 0, 1, 0]], "r": [2874.404199554434, 2629.2293620395308, 708.9386250551586, 1546.6368413696152, 767.9965031761149, 1458.4814688239494, 3486.0953045170077, 1341.8561112604727, 2356.538141494047, 1660.9305356135262, 1788.906839805547, 1827.219409603339, 2325.8674910175455, 3128.0007185747177, 1451.7172526461352, 2190.9528542778326, 2562.470880130061, 1458.1111842060507, 1725.3802869968752, 970.5865159422477, 1502.413676968796, 1124.895855450366, 1905.8301035414388, 978.4977036999765, 1499.2359386509745, 1010.8723204308568, 1243.4698632436518, 1922.279467124461], "b": [[[37.26162901544026, 35.261548010023766, 4.98425450531953, 35.875526790879306, 0.5885342668961657, -13.863964708663014, 49.18868691981906, -17.822843842468572, -43.39543422866532, 4.877055949162241, -20.877724325346623, 6.594760902011542, -29.2753222329521, -32.19601658915571, 17.167966536958996, -31.202014096850707, 16.91139766080778, 2.8333742904312347, 18.885713539424952, -12.272230019630356, 19.922431044145913, -20.483257084146206, 25.881023912859348, 33.73329064325739, -28.078796501554955, 24.623719899015516, -11.60413615824676, 31.394803024874076], [-48.394725646787506, 6.683340044251785, -11.85593063742383, 22.082650473139147, 37.945430137984026, 19.596647026687847, -33.583181105814944, 17.042298883694276, 6.572673966886219, 18.248887067081846, 24.131387101379055, -30.250777189246488, 4.260007399109202, 23.603042950289773, 2.6343083916791947, -17.643936391263445, -34.07212739757181, 0.6769615336178361, 6.466661149502524, -3.2779969243840217, 36.478379882270154, -13.163139068098605, -13.466146544092227, -38.77804787236323, -7.158556417740994, -5.130801593547085, 10.358941649189873, -11.664914558684249], [3.3673066740563637, 46.891332365857096, 4.497438633609005, -5.850439601557277, -23.758240391686037, -36.58532495590778, -16.644301562016167, -2.7944004827681757, 22.22425318078681, -19.039403672841114, 7.989637982872844, 31.73984552402768, -6.639723136753965, 3.0685004693655946, 31.655106796952037, 23.0840318687723, -26.108399137114304, -11.478785775069525, -11.144472573488272, 4.555652191330464, -22.632323746194032, -13.848752589810896, -5.4936522139349275, 34.719435997094486, 3.948731425522178, 26.24199634863447, 4.486686193281414, -41.48118937862701], [14.941152291579275, 44.12269265609409, -2.8835554802498, -14.08714775002493, 30.250814765440232, 28.097162268447576, 17.624933140081275, 13.699399885240116, -9.421243878613192, -7.608002407576721, 36.633344348887846, -25.72606649483688, 16.839737511605193, 41.38967707626312, 6.962657422854756, -31.06097422935894, 33.83152147837642, 17.65756465423186, -6.1138072025315635, -5.746873592644735, -22.506250665760895, 20.367169562779768, 14.846462949060669, -35.72657258916897, 18.296038581607267, -20.618100331724364, -5.884462414277929, 11.877998891491876]], [[3.308487384225055, 51.125442186818425, 17.496408195382937, 35.05331937792756, 21.248841508283817, 37.42864282329945, -38.379701252366154, -0.5408973037900556, -50.87386446750112, 17.980654157927784, 33.92742131768238, -17.4556213332376, -16.603861016653, -22.057644712680254, 6.517846960261482, 6.950604468921664, 2.535408124144821, 42.90571298707083, -17.0347574094213, 16.601374883501645, 2.8577692514850623, 12.401620527968934, -22.847085261075065, 37.81572663491059, -9.971652021553627, -13.802699214567506, -20.850946837792836, -44.467401109643376], [-31.403024716455405, 26.510566416811038, 11.958572655390599, -33.872498337254065, -38.496540781339355, 12.562056104919513, 2.6923443762937036, -16.383701391125584, -31.12444121451977, -34.09735933845183, -10.105364234573049, 19.648475177992385, 13.638769024924624, -41.16914413743484, 24.669183415616484, -29.509816676734918, -37.22431956951177, 24.043036973269377, -26.26965319588386, 17.681196866317993, -28.13348369425053, -1.3714030262069534, 20.70170278385282, 5.532861550079744, -8.474077304977095, -31.82975579859046, -20.009354345831376, 50.930295210477695], [22.74080745975919, 36.89958661101273, 9.347763886803687, -4.51537014827138, 13.302415749400087, -30.515636599187953, -34.54116898359261, 0.9338216197213609, 55.79580943395497, 21.55394691007873, -13.497924620412709, -28.932573237136676, -29.98179173583244, -47.221092192087205, -16.361048295699533, 38.81030009396527, 31.557232018006445, 39.90138462134746, -20.645551928197253, -19.0050226945312, -32.354478091817846, 2.62998782165225, 29.68049153921347, -31.325615530555936, 10.276097378425362, 6.2799508844086285, -18.103826977105676, -34.53538834895006], [35.86339243328586, -16.782329328786744, 1.423375318399757, -39.80435790556273, 25.222739441189734, -30.77607893294424, 46.99595535196916, 11.65879215656797, 43.807222118486834, 2.3774389348628917, 13.18265882325768, -16.418457510019056, -14.537877595927785, -36.60238513448691, 27.1988146466809, -16.60897342230542, -47.46292274596202, -26.566652075212787, 21.39590575780461, 11.872579337594043, -8.136611310452947, -19.410736454498117, -8.296116451950338, -45.6347778093766, 5.326702103921495, -31.18824193525253, -14.890972245087376, 12.631912236695506]], [[-32.4565307025498, -7.5363574731665315, -8.847542799061666, 11.458565473354154, -30.662793367557807, 30.620862402840245, -9.968929540279602, 0.5268843013886056, 9.35206649245285, -44.55515166161689, -31.935859358316115, 25.264246845160763, 12.694383715353684, 49.414305693368085, 7.525980505372694, 27.04531786206756, 39.93570368275742, 29.36048550299019, 10.852790223708105, 18.900362392201593, -33.203848032857586, -5.4495274443278765, 14.495492600041825, -37.203930717619066, -4.640074016380993, 2.0206559331714815, -13.155713296024048, 61.62883481255569], [31.795114944291562, 41.059675055714884, 1.1825716271559594, 1.686979752825641, 9.563738349635631, 11.311109186423513, -19.975888677683407, -18.818707440308966, 24.919437848824106, 20.51301051677105, 6.242969171905452, 25.090697063275222, -24.515572013854804, -1.7357140318452395, -4.847582814460977, -32.16121479402655, -38.27725703508997, 35.86709186903568, -31.521732396839248, 6.331502040168248, 10.377131992032897, 20.840957865027587, -12.405093199083199, 28.989294021249357, 36.081874005016196, 7.892373929045449, 4.172451714465377, -37.04288712603004], [-38.98569082610054, -3.208437934431942, 11.056920871759894, 0.3252864113910814, -37.97682190208117, 21.634457003580476, -14.030515473555566, -11.428409990726841, -31.378083717657532, -24.474671239992155, -38.49936252979296, 2.6960880652073667, 6.659613659997106, 27.390708763933468, 3.4533665793406314, 22.106722586322856, -18.58261510282308, 3.2493034374184377, -18.02562285814316, -24.077282120324384, -13.406456154525873, 16.41814320443282, 29.72133128758366, 31.01589402277956, 33.05860545967729, -24.354995639124226, -18.162575224591414, 32.54962530483327], [21.479864714370787, -6.962251824602503, -18.078242316094943, 36.155937095298675, 24.51963431441603, -25.307934516877467, -4.831126256761068, 11.4002633360916, 46.204445469637605, 0.8815381319143817, 27.161177018564974, 29.27605264886378, 38.503305046189766, 34.402264052544076, -7.356747088080003, -13.27421881343144, -21.670068551661952, 21.772033274061744, 24.371215268613962, 22.164294823440606, -3.33272451880342, 6.038352660264947, -12.578249520923617, -10.915246109265821, -4.721339503306484, 4.280343737521268, -3.9071901195907475, -15.341737707884278]], [[-49.27002155985135, 3.7507366040561556, -13.333695248124208, -18.0714324707435, 12.848861853694544, -13.02159796606715, 39.73763425577993, 16.820419353621524, 46.61325219097067, 37.2235299251127, -31.42714545822098, -16.60751700488286, -24.746044390998094, 23.042316910048015, -34.72442824599451, -0.3088281379629633, -24.803578220669255, -27.128281946049164, 0.26698635663344533, -1.470210741766241, 0.4174205814498612, 14.768458751030233, -20.94738981902255, 15.808758944554986, 35.29985662796531, -2.1630170779554225, 23.513395307980986, -22.55187526618406], [48.48389718522425, 20.993995216311102, 16.25160146746998, 24.12211171911417, -19.361861928152432, 14.67880246009664, 58.72401562977764, 13.717469742808003, 42.40129534577767, -3.4402309509341387, -7.471647414697995, 0.9948688768868439, -33.73974531786738, -2.2224439648572676, 41.5006599476858, 6.04137807563606, -41.710366121048274, -17.1719829239113, -0.00681485290569087, -22.629501449717566, 16.36118546640657, 19.13136953325664, 19.636356386287833, -43.349608482211245, 19.80139410497935, 5.704395719553189, -3.0969455187632446, 22.750998043500324], [-8.50244522164773, 28.877410403555835, -10.917074744203084, 32.10126357411951, 12.049541337452668, -2.042608174679308, 10.215809232256687, 9.743592122446337, -50.04811371997831, -34.881365845538085, 29.057072907787518, -31.11012988259026, -14.96611850261402, -54.53970266353775, -16.292465559328324, -22.763735787020163, -49.92293752931962, 2.3648673971324103, 20.361379819976168, 12.999312978277759, -25.478668745489028, -20.182728605978742, 15.054155333207014, 0.15981834597732986, 4.743943181332981, -0.13858321568946821, -5.783228560161895, 3.4783994732690755], [32.08710228401367, 37.32044941331112, -6.171746403028073, -4.798648451088478, 16.027830844135927, 29.327420774606907, 38.09238751885447, -8.939313772864907, 34.192907723717816, 36.17148338273002, -18.76885833950764, -21.03993526662703, 28.999386680565035, -26.54074902215619, -22.046530443226917, -15.687962361188369, -49.60100403158371, 15.535063904287313, -24.09183227924518, 7.645640374726948, 6.641737373139233, -16.72790124498669, -14.232084228734477, 36.238879831856075, -9.506678954769066, -19.399682600352303, 2.7353932377519232, -41.65240304132276]], [[40.989630943407846, 23.82435631139545, 19.728486920586082, 2.934266655011785, -18.68016213719165, -14.801887175845334, -58.85416968551317, 18.81991694215417, -31.033429814671997, 30.2899772590348, 29.74341447057173, -10.024115809424158, -4.482634847969843, -36.337818295706576, -22.8527657665852, 7.502525687600719, -4.890398838702406, -28.10713787905271, -0.7912111241851542, 0.296282913219529, -34.32668073656941, -21.628783604110843, -5.342871071176136, -16.33835920872612, 22.126790811190922, 2.7663631173198895, -8.36452029916741, -48.14453229753677], [-4.458736766738734, -11.815748119270532, -2.057134580871015, 25.425458684861464, 4.664925984015356, 15.093972368788743, 24.151462306091467, 5.440691149101861, 12.638789642302065, 10.108181775462251, 9.259994787037424, -35.140447704804494, 31.46837544114129, -0.14417692547260466, -33.61651563952675, 28.045471755053885, -45.61458163744496, 12.556659588436409, -5.113183282381554, 27.53279933769516, 32.835396378001505, -13.09977476512119, 2.5787853465167476, -3.1853740298552626, -5.5967702008002504, 25.176364764549312, 6.480256626926683, 46.219999841429114], [-36.0274464963932, 12.785250786879452, 20.769910024925853, 37.55832534839683, 38.61896625073399, 26.880517783522556, -25.886131002730494, 9.750502331279117, 7.318936358493839, 24.46405116144339, 39.17402498583377, -2.677891416785388, 7.164897724739597, 1.10543479727231, 40.90379303383789, -34.83088733428238, -49.02400373995757, 24.2181069652951, -15.581598904548729, -5.609971005380093, -11.379190813715082, -14.411471879845495, -14.710985048562751, -1.6363713871934802, -35.02135079187341, 30.34518078296271, -7.773860979308574, 31.732690083801256], [20.429148241186375, 30.225929684320178, 4.713255930595929, 32.88525086426686, 25.12446705501741, -32.93599864640196, -23.34686683477605, -16.15852074872441, 37.305734159081474, 11.643152704656073, -23.992828271229385, -6.742741254224608, 36.34979925717038, -16.22673185467988, 20.025687828492572, 31.891030955489974, -39.384487950222955, 36.65066864294144, 25.850612916253127, -4.822225594659538, 5.04506629752096, -7.357697219281508, 28.778762570280154, 45.51091441692127, -20.46902976995019, 22.732357067938548, 0.973444597821, -13.4244166461864]], [[19.818604426463025, -40.70621397396871, 16.731772685219596, 10.443060523198259, -15.507635270365025, 18.60701767376073, 23.350064656860056, 15.001655125083214, -15.515172557817154, 13.399723596321566, -31.954027890431778, 20.096341495988426, -33.68704814863043, -40.3471077062173, 29.04536252121782, 26.59605968508113, -42.09307703502082, 22.281052674880858, 20.498559370411986, -13.480763662971869, -11.854428330359504, -21.452598440062133, 24.796991900205995, -7.253394863106914, 22.977001157832404, -25.290556628475755, -7.699695193036307, -3.765406866931151], [19.885026345079915, -7.755707770442625, -23.077242480108815, -37.52399837714324, -37.14884463847269, -8.094972570740419, 27.29056724629287, -16.189745965197833, -40.495001979216106, -26.160714228265803, -22.50734646196635, 26.301741088122384, -15.141043091128537, 38.82943638448517, -42.6662181271147, 5.162183689878636, 50.76997164075613, 37.15787712875264, -20.27955692020682, 9.520178720702592, 24.404252443926993, 1.5539340321990511, 0.822545192798556, -30.37318933492774, -29.296089249756875, -26.44959322167982, -23.594856664476275, -49.15266846250411], [21.247098465363518, -13.567664560138889, -20.679205023216625, 19.300021351824192, -29.674660854751096, 12.470582470875835, 2.765505852369531, 0.5524239094571577, 35.57920482022113, 17.614980353485173, -30.25690969027837, 12.130902026475834, 35.76461538349323, 20.049001980591072, 3.9408470485268787, 35.16442704495041, 46.82848092935308, 24.15667606741914, -7.871519172771623, 22.46383604827366, 24.772549605710296, 10.884967455467512, 26.323143604401064, -22.81078373212901, -30.620438718739415, -4.453621744966129, -1.2778712438323496, 30.008976236322475], [10.695472000032904, 36.441833061760526, 11.549610472054434, -2.3668734973936076, -9.726448172576974, 20.100864335074338, -42.576582071788884, 19.888029847873828, -30.67818274037246, -21.967530879710715, -15.539792082959252, 1.9433559270620964, -0.30343506921982194, -29.775682144794356, -38.67233740365193, 8.583194701052243, 11.374182474271343, -29.447678322038538, -23.72635104319109, 27.900569656619222, -36.0762636716832, -2.6858258346122073, -19.152327651671808, -32.36196655428796, 34.84005892338194, 36.85179214522483, -9.909110320775447, 9.703231231080622]], [[42.025002305505765, 0.6496366607011314, 9.638045665543615, 31.71293679593959, -29.72013052463515, -35.56097885931749, 50.78270487264826, 5.76644582292366, 32.141877308341215, 21.266232525417184, 27.460141147124858, 38.16751345069869, 25.66173333009085, 12.611500172974239, -15.226943496167946, 16.99744399676296, 24.88759994790874, 15.677316591041457, -29.43941373206407, -22.091108990966614, 1.26349487792128, -21.35892711988855, -7.277897570763203, 41.33209885483865, -10.210140721432678, -4.6285591218759965, 21.64916443338457, 15.650293872895968], [-8.923354646256458, 8.444356518916655, -4.333742140345493, -31.074324272330866, 27.603459801545572, -27.510013990938962, 48.86283498852008, 4.046800151842118, 40.433598937413066, 30.78298608083497, 10.642173165875844, -9.950890206254579, -18.02121630162593, 1.007239654742923, 2.769844726631629, -0.8199286477754536, -43.50785765195385, -4.482112461959233, 18.364973018209106, 17.31733669679574, -22.318397422099462, 3.752029712799287, 18.6001004886833, -3.537224959534739, -31.1063635137018, 20.663615156707586, 3.1302060862839762, -49.000344255175214], [21.024994761926965, -32.06597727903869, -4.786874770504216, 36.62802264231773, -9.944236729118739, -36.38107819512104, 43.78787265670345, -5.52165978604754, 34.0881045190851, -0.8317547233102687, -38.94750176582555, 36.307837741920736, -29.69230714320086, -10.249610871964915, -4.636886358528723, -7.539634998912335, 52.84828722561581, -27.817906339549594, 19.50152120804976, 23.20601564240672, -4.872051733005629, -19.455314801694, -9.442382098611485, -29.14592348972216, 3.6581122624077222, 27.183071099490604, -3.117494340722495, -28.57959497828214], [30.48913231120741, -38.52837755437507, -21.056410898683264, -31.8840434563049, -5.967984199934548, 21.926889881540017, 47.167994801912236, -10.578023470295086, -40.97087908870024, -7.843580541977175, 36.42899342691766, -25.963295101926427, 29.06202568337955, 23.147456998138612, -36.70176781221582, 24.66162732965069, -2.1747520907959688, -20.64651405385326, -19.984627737037247, -11.89842076990991, 16.875505798260594, 21.5178401348895, -11.11839266229299, -6.204975130239678, 23.07518601925864, 30.201024623585436, -4.050848607882223, 57.18576025583754]], [[28.380686058732806, 33.29215975689541, 11.443215879749406, -8.390997911185842, 8.613586376574437, -34.95106699667352, -52.90360582107208, 7.173647064160477, 9.553388504689796, -30.458895835123105, 27.22878551567044, 26.371614512069907, 29.627063124868165, 25.381505712657237, 1.2319679095055214, -30.96404458665262, 8.672305766147444, 11.85374315113698, -3.237075668819234, 18.777090930189267, 15.392631004926313, 7.510659304908976, 0.0836466288910608, -27.978490924281903, -9.466806112604553, -23.39191837997114, -11.069725043230195, -47.13239740266897], [-20.10309559058634, -36.952337679578456, -0.14756318394371348, -39.672482942740736, -1.2332586052919943, -26.491797513503546, -18.847771002415026, 14.385376163762702, -28.28752189544427, 17.313641571220693, 9.962167909229848, -32.26057425206825, -3.0500469852360785, 47.88428706539182, -15.520469402168038, -38.203002016517594, -4.03727338793719, -28.59202787164339, 9.945129022522421, -27.52799952093929, 22.347075501012363, -14.304290495236634, -24.103279414386574, -18.365952904904283, -18.558407343596958, 37.249838510704265, -3.4978359547951503, -38.85224785458791], [20.5330433532983, -42.34330073700071, -13.502798533932005, 32.5897960748987, -33.373402367965724, 22.710107138133598, 26.073354281892243, 10.231288236127837, -22.123042057820715, 24.492757082250282, 20.632721449677568, -18.81669245149495, 22.091620541485764, 51.30456078189472, 24.086167314940283, -29.495683178000387, -2.8966524070734656, -2.094704413472535, 26.948147629457452, -17.87095714249827, 15.116842401235711, -15.06210722325225, -31.174899359086684, 28.96895611132653, -34.40626385760733, -36.905181504230406, 16.416130333771836, -23.179051717259266], [-11.816163567126202, -50.836730914195314, 3.45443856230408, 29.65407248244869, -3.7251386390043875, 12.829846988224391, -55.921218265662596, 7.279372323483367, 51.5697012238455, -39.65465247314167, -35.25088397149883, -9.851429446075954, 30.87073472416582, 25.689399866674613, 17.93802792057809, -2.1382864247358566, -44.64868489404399, 41.219919512254855, 10.05521738665692, -11.097605312928314, 25.15553406335759, 17.205544242383016, -29.272213277324994, 40.56447205796802, -17.805923227988767, 9.691375593410667, -16.912442875810886, 47.08698472510611]], [[-36.82851021156463, -37.06481970090372, -8.02824703746723, 1.5377450319836752, -6.6410772517803185, -29.52834769778355, 4.724100985538575, 12.047245142955548, 25.460311863782945, -16.30009410939251, -12.906446551549186, -15.992818587962569, 0.09458559319053687, -32.986594793286876, 29.029339696964527, -8.35200800514358, -50.329941144073054, 8.046546220170104, -26.662364881353525, -22.93026993475235, 24.579697561407446, -22.2120392400453, 22.978432598620852, 45.34084343676144, -20.064147948247715, -25.940249553155702, -14.406243732567157, 22.159769407356098], [-44.45840302063659, -10.089830262455383, 16.92083418495488, -15.84699654985083, 5.236520787434277, -30.182264094541594, -54.57641491373866, -7.92082737875857, -53.44506122165599, 40.772857779962585, 12.404298720105007, -16.520438699771024, -8.081888175045435, -3.6449771310191528, -21.404228607311786, 9.451967254944773, -50.32812508304701, -5.600207147342676, -5.5073798344592175, -25.756155430261924, 25.95403593945969, 18.78937989846376, 22.10404911760072, 6.178615458450099, 18.569230212460184, -11.40690708196593, -11.847883168902364, 24.375522325614824], [10.0852397052135, -50.71594133986354, 11.44134018565207, -30.303650151286924, -17.985509522501225, 26.74346327712735, -5.672207751172399, -7.370713455505359, 16.750118901623498, 10.86495081637057, 17.618247021836336, 23.239295282361024, -22.68308562942479, -46.752525737226996, 5.836820102394237, 29.768162437214315, 34.044937201319826, 41.78400104222454, -28.713082332113427, -2.8849688760764414, 25.822614106685545, 20.56355542044966, 13.276687690085963, -37.701747801276035, 15.3182338013684, -15.074452260397535, -8.38742107878633, -51.03531674976476], [-16.001266378226365, -15.326483528746117, 8.222249746093533, 17.365524637693802, 15.473423619185457, 31.891269856271595, -49.35759128443268, 9.268824013359952, -3.6235479529793837, 25.770396049344498, 2.2270096795227703, -17.647678677090013, -30.900130877266836, -16.78101754597398, -33.52368704168445, -1.3567626540436788, 25.60392139832915, -35.086236780532495, 22.732954340208, 19.25003226205239, -14.57699551957323, -18.766072156763933, 29.642848410636397, 42.0644463514935, -10.063560794018178, 23.04545666292234, -14.189921298018744, 41.36028468605454]], [[30.86225278438904, -43.9747556393744, -6.59323217076083, -40.192759532017526, 0.8850816597893576, 26.189372751004274, -12.567655870711137, -2.072200726412864, 53.774040605986286, -5.348748541886455, 20.97552088891938, 38.272998283870415, 13.407248675888917, -23.476763927027495, 10.649915729956478, -17.720574405738088, 55.59910511626442, 42.125371461749275, -5.225251651753448, -21.924712470251848, 36.23281600748732, 14.62783320069085, 19.772782360801525, -33.63624904524437, -2.659392434229901, -17.44227952107275, -17.174339354067957, -60.15723712356218], [33.052342399398555, -25.72006388020424, 6.961399805826134, 10.184458817367252, -21.667749197789128, 7.555706440602394, -22.865055977729423, -3.6958641442911406, -26.045720669946036, -20.665797768045007, -38.617332053897584, 7.515135636379328, 8.979542419176818, 35.367221203668954, 26.33483596526809, -27.43903587671054, 15.641887450426562, -25.29872255324572, 27.5528775855461, -5.526853673395079, 35.973805857401246, 3.337857610343296, -3.098874924670168, -24.95921282357438, -13.499486091410086, 14.193498348779684, -4.332341042128267, -9.907913314463316], [-6.851799083384541, 21.311278415590028, 14.476318503996794, 20.430685097012272, -19.18818711494166, -34.20521052950259, 59.136171820607636, -19.64035464131803, 29.858063286372673, -13.802944456641011, -10.079199434885762, 26.95694125662914, 21.497554276827096, -33.54469486736332, -2.788023420960172, 11.979943161257962, -26.276262830195414, 31.396873626556864, -21.01788957240154, -8.002879664418705, 15.083790810936298, 9.427420395091428, -0.4022215265392719, -14.691137408301705, 5.988725162609524, 12.752509188029045, -23.353100799181302, 20.225602939264473], [-23.660515931175052, -31.554400327732996, 22.465499586547132, -30.780080610238787, 26.185281700635027, -10.177904290520408, -20.67173520323156, -2.5541000090666186, 19.13627725033644, -22.208626702396728, -28.47609767238861, -11.565293339906829, 21.309055669526145, -26.99347389016425, -6.5779554358974215, -0.3759812825795009, 19.87730606296203, -44.81245721338333, 5.314029455276569, -1.9850433780419436, -26.56594337032823, 22.19700805391134, 15.344345856266044, 18.394775405875354, -25.851994611767594, -12.445442036055585, 1.5456555468584559, -25.327419715188118]], [[0.0035960708342249945, 34.84061862369063, -21.470528972434234, -28.414616658888306, -23.778935575886322, -2.426313906836371, 3.2480759241894614, 1.4523596966833485, -15.467331958380607, -35.00787210960038, -19.661218905112893, 27.86861512232447, -9.391448503798067, 25.43547438790806, -28.285926312245635, -18.708969051637073, 30.794244556435295, -2.85426861693746, 24.907739768622378, 12.367780642941314, -36.97741230008368, 11.835317134598586, 29.42467671809393, -17.832979954840138, -6.99894512807851, -29.859728531056405, 16.528898699030194, 45.49763861172304], [30.838123541655804, 32.567371488765616, -9.090405442644991, 1.8808299209733286, 30.884949321089355, 15.35053639677468, 51.643886472877455, -3.2838320312559492, 5.177295410682748, -21.746979160700942, 1.5634570235644456, -20.248960215537764, -2.637845389500153, 21.166641494890854, 30.348528795575508, 25.31557352508299, 32.17931469726396, -27.870517439016478, -25.458913296704015, 16.552258647060217, 28.061236640134634, -20.93061075695195, -21.884942345393867, 20.598377418919974, 36.6535476512842, 35.87325199070461, 22.30935580787532, -11.227834338525254], [-31.14140370241237, 12.58398733024707, -9.70036706737004, -16.851816261152756, 36.35671917314775, 35.86181262877381, -27.11967581282112, -6.36217495185186, -27.51348632575052, -43.31073911325584, 1.0155282883208518, 21.006551447303845, -15.211868190501523, -27.946335950052656, -31.151310236308714, -33.563347748380465, 21.139841625091428, 21.00855506621433, -17.375232832802478, -28.019184216550173, -9.012145169563066, -16.340521501031425, 15.203686827605306, -32.97447394550038, -19.859007724073408, -35.28787195031456, -13.998681341954342, 28.796978503747297], [-47.36717825689415, -46.656171088281084, -15.821306604529484, -40.63390947789383, -27.57499280763354, 15.124144886849146, -31.585369329333282, 3.9500524946745044, 44.406738259986696, -30.119464167381874, 24.788275605476336, -18.62057976595854, -13.434992508738029, -54.23163065621539, 30.794823896290943, 40.31305719346824, -48.65417344625066, -43.48773416475173, 27.492140021231766, 8.674216337265694, 25.568587955071727, -20.209340529427124, -20.974777649754017, -19.248162108176906, -12.43473506572234, -16.06219913692172, -20.973140474519017, -3.134669131193972]], [[-19.587871384790954, 20.02277802833008, 9.834046145963812, 31.45811829267853, -7.297024940879397, -36.24872715605509, 16.798401405581426, 20.055490617181437, 33.71865179571385, -11.987432003223187, 15.036891593155369, 20.03133348581911, 15.409967784390656, -51.456574266008076, -10.752614297776923, 14.303646836512586, 32.940275511083094, -39.70657125007127, -12.834113845888174, 24.913554809939296, 11.439176355010192, -19.840791001388627, -11.77957730387986, -3.5981797824189004, 1.7007366486303968, 25.150057812855724, 7.481073059660155, -29.387564002007693], [-36.665345216973414, 7.502884708981317, 11.988001431059004, -0.9826095822483286, 25.802083051411426, -11.286953403026114, 50.97100565778556, 3.7712517551513676, 32.33684084922019, 0.42336410256333584, -22.691602554365286, -12.932906044368522, -34.84601035345483, -26.387687936787415, 2.38889020697966, -11.608375681445011, -38.399986657813436, -30.964767057360632, 27.374793227573587, -20.846815843613722, -17.635747899576337, -8.247931983483653, 12.369363318340204, 43.329836440717315, 34.88216663798872, -22.70753414308556, -4.149579913458174, 6.651640740981812], [-36.62019362305128, 11.693911591928854, -3.1867209971401533, -4.552311240604811, -20.052336167325862, -31.485441747837193, -51.6978930640559, 0.6123516646329644, 26.687508950574045, -39.35769594266126, 5.9621513831161606, 23.937206536147738, -7.386995101680056, 50.91783415149317, 33.15347197867674, -7.605308385291005, 45.920653932406864, 14.81685483632993, 26.069888260981184, -7.3899698780807554, -21.354269530841684, -4.214152822353905, -15.978513018507451, 9.75118218142193, -32.93545855777487, 0.11408717510132088, -5.440930891103529, -57.86694923878091], [25.78916941311335, 42.59572916546195, -8.844655594600516, 34.549131036124784, -16.826318898533657, -14.750195667084489, 35.079099950843826, 9.696220236945111, -53.06904331141331, -28.08523713847984, 29.043345955337188, -27.716654657014793, -12.280287618712597, 24.431037557092694, 16.56762524404201, -13.360156217030369, -32.57449071850384, 23.978107148820182, -18.347108315566054, 23.128016377500654, -34.482216568021926, -3.8441801289422193, 24.430588804496207, 40.36416107242271, -29.22702687480513, 29.46022229369476, -2.423215660959396, 27.985985925417786]], [[-0.4895753444790982, -19.626279838031998, -4.323478320708252, -14.567262910549772, -22.707295860756396, -24.706165793600697, 18.50826454287404, -1.0778677642682453, 55.585998977685485, -8.631875520531352, -16.418932606125924, 12.724158416187302, -5.093860958703057, -25.78745201806353, -26.666475026957215, 15.202794056781334, 41.28057882626608, -18.67722283297308, -14.027161144227602, -13.648260806853221, -12.295985302683137, 3.8481583561879433, 7.77257942307305, 32.64292943283361, 26.265671760096037, 18.936666195573615, -17.19255310044126, 41.88496846083382], [-21.996553362100858, -13.191845457748016, -10.890832149480246, 4.584238548967394, -24.804854465373857, -4.22819273497625, -37.40102936663905, -0.7451800131199655, -13.705250178774392, 8.730008182698368, -19.76310563024281, 18.454087313761416, 39.10850906759009, 54.675670789818746, -13.003419510956034, -24.930261743618477, 52.56903778475555, -6.298700806437492, -8.055274882066781, 15.470267038829798, 8.251220086285324, -21.326783271937888, -19.335709648396488, 4.16923795496672, 13.911405180690219, 27.06061064260787, -21.80201237597374, -59.935541437098074], [-10.806622951037433, 47.55425312997677, 23.410027456904825, 19.15962276110837, -33.53435388875056, 26.39414278359415, -30.37842368920575, -5.102106062024931, -15.717474407696885, 4.326499535891537, 32.09174132353144, 35.75903431249661, 3.6459849791895893, 12.8135406776503, 42.19922153950287, -18.54903172781639, -7.1793651543379635, 42.56539614803249, -20.113052671219, -17.70561264705567, -29.118265404812835, -13.091832578721705, 16.649924827415237, -21.00708852363901, 4.221730047742529, 3.686729457690522, -19.883054689607544, -40.62039877589917], [21.76629221296699, -26.64268840801779, 12.817294374131542, 33.97939055174525, 36.673720590566944, -15.516586630820361, -47.288322091546846, 4.1115920841731315, 7.36882394295851, 39.799377559443755, 18.512867176372556, 7.970083087931945, -35.82423345245174, -43.704752716228064, 9.334755826105667, -20.58447883242079, 49.607430687582585, 41.442356249330295, -19.74715263532845, 9.8768897875325, 15.706379848349505, 2.3046865608341878, -15.598244605805437, 2.118354198583409, 34.6167050358654, -27.360756304715775, 6.321176689307326, -36.10865188802454]], [[-25.497300518812157, 43.09675005065617, 7.25234310448649, 13.391661723998014, 4.545875365058047, -22.080707200354553, 6.162724808816818, -10.636065799561683, -25.661789078915252, 4.007548561411145, 1.2867902920842647, 23.657624738015734, -2.9355312083675584, -45.78081024801366, -0.1799602859697909, 2.1299992544299386, 9.749699542376447, 14.165390224959493, 3.782671448775117, 1.461264252112458, 11.621895789881323, 18.537802860142946, -20.826182370169487, -23.43798564795123, -13.200344850461239, -22.74665497130167, 5.572856555177018, 11.317288718997597], [-53.00253447486535, -28.1812440633109, -6.557457829868123, 37.84881860139467, -30.26338558751506, -37.93405411517375, 1.4447339313519996, 10.067337494002578, 27.60951389300053, -39.103005125930025, 2.433745773037466, 8.052686207413991, 0.8581293188940555, 28.568986850180178, 1.7215892630269716, -12.512645653514822, -30.530155474459853, 27.99906456743147, 27.880869387081308, 27.236830650720183, 16.670783553227817, -13.950796837195726, 28.4645349609451, -38.09138856618642, -19.51967184555215, 28.132495141537476, -7.551561495545266, 16.88826783710839], [-51.12750467847848, -45.17461526246231, -2.2767800386983157, 25.771683866176073, -3.571538900466615, 17.524951612289858, -55.269562691088595, -20.21316403393509, 42.376122412636136, -2.486081994714353, -20.07980191241456, -21.037634624894352, 14.94999193404656, 35.50514161934483, 31.97685642079758, -13.487391121061837, 36.58177443397731, 44.22866928308885, -16.737649237013702, 9.060101001943492, 1.6731744681150784, 20.560516197535087, -25.326289390243723, -19.816699591136747, -34.37680423428399, 27.67587920310186, -20.473226080041844, 37.049376521892036], [-48.84776738301108, 48.50972627991732, 3.6904163534604555, 39.617492240345214, -5.451075774819757, 36.78543135279431, -35.140076962209584, -6.206980648777033, 27.66376868436649, -24.764928269471927, -29.007606803475447, 6.818394285023173, 24.998761319590148, 38.90450606105072, 23.93758577682474, -39.14343499412666, -3.781260154508939, 3.1934737328177967, 3.362587237767799, 26.138736219885494, 10.649670149325186, 19.401887977205778, 18.383101523612492, 11.20050889162976, -33.84521736909988, -30.32548251409413, -17.42702924330414, -45.95649556952675]], [[48.189388647177054, -2.034406471595522, 19.14643471762772, -3.1465259042417277, 30.970081724193143, 36.33325180123236, -3.250582097748605, -4.231354205189007, 17.202121174105685, -12.684802288500936, 24.719016025579734, 12.360786430146124, 11.004278367875212, -8.376602847437638, 19.51695837085193, -2.4564376681225966, 17.961628235567463, -19.056749350651792, -25.171712785808143, -7.881849731225867, 28.66419162404866, 7.536390187142402, 7.294273411029742, 24.03524418963494, 18.29130710806887, -23.60813961754221, -18.471275465820217, 32.42574297823337], [40.69212956436194, -30.52107929781884, -17.704174467440907, 4.005068595446017, -20.549878029169474, -17.963135258554907, 59.64127331535991, 10.253583077724823, -47.021111059680784, 36.61969311804597, 20.47134796405899, -38.39666641994324, -11.992844694531101, 54.020794494850556, 20.31783386512868, -34.26633686909118, 19.395216229490398, -38.553373715850455, 7.696537205872812, 1.6176877566656633, 15.729496863366107, 12.582113868778906, 8.124054208870433, -43.58764017357645, -22.819597000952704, -8.283470858566007, -3.684829592724345, -32.37794836094029], [-9.817493424726257, 43.969269984108365, -16.37984182230367, 8.09067592853727, 35.1352581866722, -12.155120893197967, 48.61054297174365, 6.025507857160719, -21.13688947799411, 22.174060468021406, 37.322439232220944, -34.08894885714468, 26.00743543539907, 43.43879402979795, 31.34927160210587, 23.758030990284436, 33.34527446318113, 0.614031305498207, 17.37425800250907, 0.38288144529752294, -2.9049500912239443, -14.187740574261642, -9.530890987340271, -18.751033878095072, -25.439465133524696, -13.38779447960674, 3.1021492336671184, 56.2101968863792], [-26.49888658534868, -5.8325325985806495, -19.648101294768207, -34.677403861071035, -33.38744707814922, -34.034367490421246, 31.223289274798407, 11.856251923041869, -25.898123656962333, 0.012856763397510748, 3.282817408034833, 27.753321081560216, 35.16235287945844, -35.94558224053431, -7.079856396478257, -3.229486315273103, 36.657249523432675, 10.910491657241991, 26.006223397491343, -17.599578330998472, -14.79434418751334, -21.514618119109073, 21.86036090282058, -31.073948489494832, 17.310566111429388, -11.050409176896627, 19.86550058236411, -36.48473994076528]], [[-8.796100528839926, -40.57424036296685, 2.3086880450601566, 12.933989822980644, -0.14324556817023779, -30.794541613083418, 56.933421994174125, 18.147260800096372, 37.26623006690784, 28.645044619068468, 18.88326166436242, 30.152219629183563, -2.507242607289246, -15.0671283841166, -17.519523461260043, 9.959523275591668, -33.0427938660902, 33.6492459793527, 30.917130281676133, -0.6596482767051159, -15.804143668984924, -2.9860116336379057, 1.459799166357732, -29.4226496426991, 7.6220593474382445, -9.43761268518126, 17.640181263490554, -8.399955121405252], [13.340563782679233, -20.881623082555688, 1.620524347420487, -10.019615435869396, 15.86549192030813, 9.26245579382098, -21.0138803553601, 7.330633474818558, -33.33306895237769, 39.88148095030085, -6.340653085269804, -3.225129290439918, 21.46519212087743, -42.90583900010271, 26.403492481285713, -23.154409630492477, -53.42225551960443, 8.143602603247361, 5.465019534600547, 23.998767169456396, 4.84760566892266, 16.453043294553833, 9.378342081879353, -39.515809190717675, -17.644718756851137, -1.0330790234953662, 21.641616702081606, 50.56078499787384], [-46.29438492191386, 48.57111289887437, 13.267616275654857, -7.723396124056578, 1.1166431195837074, -9.035438061054116, -24.137962943247043, 1.7199461896972328, 5.317319164355456, -42.1437319614482, 33.505717229076865, 4.304360702215284, -30.78030634576869, -36.26255033232572, 30.757801214595283, -3.2180132696665718, -55.24659454243821, 9.852832485530445, 12.985468094371878, -24.672251349902744, -23.43047587750771, -13.403381919349284, -19.659103400208558, 6.052449194679362, 1.402771214902567, 19.385527159932806, -20.618417028656875, 53.907331839208084], [-41.96562986540325, 49.48665786847294, 11.19719537084297, 2.206540985263215, 21.62079706639325, -12.591852190807007, 13.916736011410883, -3.5793570369545344, 22.85483143823219, -9.092505097765804, 17.57094150367638, -4.664940691244496, 36.438749281799225, 38.82338096951426, -5.117904124162987, 20.681692439687797, 15.67775327072491, 22.074261860567855, 17.74596460014779, -26.995934384104178, -33.524348058114185, 11.424166871920225, 3.5372361495932165, -26.136371801708545, 5.782668544297616, -27.542929452315295, -11.532620994673813, 18.22008803761814]], [[9.493212450282494, -10.118848198315295, -4.325277285806093, 26.535336916064725, -3.670470294582899, -8.045040427210097, 2.513769021942023, 11.977259147070265, 0.35054362890174473, -2.750605827058512, 11.13076163747308, -15.53035701978619, -28.774601338043873, -15.270942267535425, 33.98495839857444, 17.436176531002126, -18.112452792678358, -24.365130319916048, 19.44147310203827, -22.080718228111515, 21.380824023250405, 8.856181278534443, 26.740700961205224, -32.339192775622344, 34.74883354743483, 11.065680625353359, 19.306492179220143, -19.545640607152638], [-33.01284420303705, -6.118966382905084, -0.059997721251949014, 26.96895238600821, -22.945719795673295, 7.644309495188836, 4.482925718245508, -0.7599741220192827, -47.96509772825827, -24.880910193266757, -3.2229780535650607, -4.036319147549049, -22.092431272809925, -51.48687871871737, 25.894157629959373, 10.272770584736184, -32.29262171594375, -13.989937382174595, -27.319142571330694, -15.39154586840003, -11.99218210392766, 12.917260647260175, -19.165466528714983, -5.576350772184601, -15.669364672728094, 20.6516058499563, -24.118907061712953, -18.038516670646324], [-33.38274978199598, -51.81286857703382, 4.856808021756197, -37.254928944845354, 26.617517692659067, -22.272973696030395, -15.615376767980514, 3.41539556442264, 55.682058855606044, -24.735028259285237, 35.418949976459, 23.36145634609758, -27.01070929974591, 42.43195969911058, -35.52377032230408, 32.8157169286214, 45.17072443971908, 35.88747214436133, 2.12073339505276, -0.23160447303284673, 28.916109120111365, -6.218672356054175, 26.180515595817777, 10.745378634300437, 8.405599253138286, -37.26538380758967, -10.78432250472276, -16.377635491615642], [-43.78378639444205, -40.54585441275012, -11.362045772857638, -4.338973059386274, 14.943746205213403, -8.102116091032148, -40.04696792718671, -6.583847894413724, -11.942621025584934, 20.936357928984677, 24.755076400631886, -5.293543007598822, -23.77588468842402, 32.60426117000413, -40.59933545544629, 8.081336199325076, -32.28393689039484, 17.08775530742269, -6.654426519221945, 5.923681155854919, -10.912827767930972, -21.757707087574715, 19.244381464775625, -14.283013044972284, -28.072887698043953, 16.53507113148341, 23.11405249638488, 4.597836287127107]], [[-45.044224533211455, -33.47697930996991, -16.177959450050356, -25.415021297686813, 29.30377215549049, 1.577029276049326, 54.869095360617756, 1.2392425838751735, -5.710368014501802, 25.735990429832658, 30.416630012481036, 23.419970640775663, 39.12502950669647, -46.52713150518319, 24.539490861110952, 39.53287455296442, 20.139546865060602, 17.268235303234434, -9.086703563447543, 28.061891425550893, 14.674129077835309, 21.44333829963665, -28.460134361725142, 27.722590309328098, -19.5827052645285, 19.422097212255004, -21.07338864664818, 54.821660165192235], [22.200451181843917, 35.23132388722561, 23.170980055329995, 15.313409910951775, -19.60258102881379, -33.53123821974064, -59.70655924941499, -5.241398092519004, 17.68818542103775, -14.086249096931247, 29.839994093035312, 35.46914570454957, -38.46107896951854, 14.657416549211199, 7.126703698039601, -32.02853782140974, 17.469517984513676, 38.51353567779968, 6.136073123925141, -12.417547827761709, -35.071047100038015, 19.898233655924624, 2.366885049670918, 14.44727350996752, -14.185921781859639, 16.433122838347643, 4.9366989161673525, -23.353611550743757], [30.774617090986816, -14.72537040324288, -6.043357001408229, 16.21233946814379, -28.0311771401525, 5.780616166673678, -38.03260387818225, 0.708699511328883, 37.99762093003647, -40.3141855465661, -23.645315150640435, 37.089437832592075, -0.45833973084619095, -13.93611013737304, -22.280367418938656, -38.60035918341395, 22.478571637145546, -11.618641031857827, 8.386905936746244, -14.932655603672993, 18.334289734127125, -8.836712223635798, 15.118509366872765, 45.35433538435876, -12.3334751153018, 33.44825929128191, 21.053685737474083, -43.845525667021455], [12.13575776857674, -29.234377055627114, -16.059375105882626, 4.817056643549362, -13.752547320832635, -17.589393110028336, -9.459204323448066, 6.0215061546587165, 29.496353501893708, -39.26193290295445, -17.90886913249462, -8.726704621960037, 17.022377346485428, -46.576134847131, -9.832660188786079, -2.5052687097992905, 26.81810189357801, -23.704401515162235, -22.523290892017414, -27.163609915198457, 19.815427761266065, -2.3298218131053257, -28.77483173069138, 0.09914553323352723, 29.61307146656704, 21.869496440345273, -0.5414459116047614, 20.26659122955813]], [[-7.398989775566717, -6.135198149828626, 12.645391114009861, 34.30177580877857, -9.952354919266252, -3.4217168482012674, 42.02863687461696, -3.2621696659688655, -16.994849064947648, -38.20185591763478, 10.404580668346547, 34.43105657352253, -7.9069379125848105, -51.430209768342195, 15.40917632490608, 25.38522222353233, -55.12761926737982, 18.29178302651187, -9.975729554523175, 3.356216234380452, -36.04806114049143, -14.492686813890188, 17.564834309330386, 35.95887257139689, -8.193171027508415, 17.832934278851702, -23.94705465313311, -29.849378371290225], [33.456645902983254, -9.633949570370328, -4.562039994533376, 6.124815113692554, -28.422085899272325, 12.369264666468158, -9.678548191537296, -18.67091407264566, -42.05573785166392, -31.43933122552849, -30.14056577854885, -5.939816635621507, 6.708344370432457, -28.64913833184326, 42.72404769670858, -25.901695980187615, -46.07247315766666, 3.397905566839491, -12.276421342798667, 0.8424219849218266, 29.082907588790945, -7.47124535175357, 21.39954793595599, -13.865352699745989, 17.078776474653225, 11.205266316981639, 0.6878858266838539, -34.27126367473578], [-15.472216540885396, 42.56273795189286, 6.001464198638253, 0.8087858047251106, -17.135511968630478, 32.92526899523912, -9.553806611473584, -18.604375895553733, 35.6384836835378, 7.054570334134935, -2.4690815678005236, 2.035551244322001, 9.527286356676532, -6.43084979707137, 15.121986154288795, -31.496350392003993, -1.9253014585562087, -13.138453418072986, -13.607436400945055, -0.15491446927430327, 24.36374055768185, 13.709400837507786, -17.882223629614483, -27.737488715932578, 11.968931063797628, 33.208607094407256, 18.697846868650633, 35.279971534880204], [-20.064638611059806, 48.50120937180971, -17.024487277061898, -25.18930692448465, 1.4318805115457125, -27.577355098694863, -39.618579698121984, 3.6083957787256398, -25.925608847950578, -10.563930249969477, 30.289685884430614, -9.943685922656597, -14.280804572048636, -27.870237265697337, -43.193952166152805, 29.613153150196172, -37.62143732455538, -41.763212332054934, 19.013756563166197, 27.323898605631108, -6.796163894683161, -0.5754413270148052, 22.257982303613794, -38.56305290887174, 31.93257244601975, -25.555174612195014, -2.103998089262744, -6.140070283899596]], [[-45.68940610599082, 9.380313343248444, -1.3579871150966218, 41.16959143394945, 24.90717371570849, -14.145127265033498, 54.48901020383913, -4.670262754851683, -54.369023250917515, 15.001391676508922, 4.032237324351486, -7.069991680360918, 20.11300257342408, 44.084452236313396, 13.130308407807407, -18.821884913862956, 26.09161654521958, -25.278472216229513, 26.329257309463223, -23.283134277684486, -2.0012903965705826, -4.911765509031164, -4.513138365636363, 29.817095604211225, -32.45955288653732, -22.179861460969235, 22.53292942805793, -9.113722905719865], [51.30870682250043, -5.743685768781032, 2.7648121183433747, -23.60439570073727, 15.36134897999645, 12.946907627472749, -56.1236417389647, -5.482465617611655, 54.94976895655226, -27.69685739960168, -30.176516311751662, -4.4385675655564265, 36.59902537333079, 28.812589775532356, 4.955086559576945, 26.35510798471589, -15.682148245321725, 13.904250802561332, -17.900976393216272, 22.400167358680783, 34.95775517119302, -15.095227758920768, 3.935682831723, -44.68513139765867, 27.64985874497293, -4.6210752299569835, 8.005673772624695, 57.52945781256902], [-6.484895476685177, 51.81970408136243, -10.829337496943491, -22.95580002964811, 12.918945617447754, 11.288511295109627, -48.7748350406856, 10.017792223909495, -3.783392999129096, 39.13550520219687, 12.754230710436874, 3.223524671131421, -18.203395661046994, -51.415888977864846, -8.006077245353529, 13.713025554695362, 55.91573390006929, 35.88405938361743, -16.422269459588, -19.265050457457942, -22.50832906788058, 21.275960733653278, -1.3347723740336348, 22.734663171852734, -29.893387578571307, -27.251442355427375, -23.292748325003725, 1.9296023328200023], [-41.12928061571939, 45.41561266727773, 11.841147924436122, -0.9406347230258979, -33.02444512400141, 7.705360812518009, 24.57718927631675, -0.3101584847855213, 34.175678221391706, 40.72606440412097, -10.657595673520905, -25.997598493336344, -5.469877117449787, -22.950137340486766, 36.61929171990958, 37.65831423316935, 45.382784416379664, -2.0827916934500905, -25.746044897459953, -28.132154693374886, 26.205038769823958, 11.344816994103502, -14.857830625665741, 8.188539075534507, 29.807931053726115, 24.954121722750905, 6.215107326272212, 6.668202909143503]], [[38.604089341625816, -49.040127509709734, -11.69580520121087, -42.44464780690755, 33.90198619530389, 18.189643472745583, 21.341019437663434, 16.924689611890276, 6.634182305654836, 36.48396889699795, -2.5132593572645874, -30.266017912561736, -37.92399103991741, 51.86410808704487, 11.884163980631774, 31.494821349718, 17.394505770271458, 32.070943953919446, -5.706803492693308, 13.4758588955055, -4.762980385999831, -4.679931483490282, 29.52228395442386, 0.7519003619141621, -30.362550494943573, -7.93729776444378, 17.290983803050242, -24.39808556275645], [31.790097347553818, 30.915483593681675, 11.957362940102103, 4.08478289206224, 3.675719155454558, -31.917511559044247, -47.35667825275188, -17.872440515708735, 27.67460245328151, -19.33680283325144, -24.378576043457265, 8.324803545723395, -2.034338192254544, -6.624258510599402, 14.087813734064065, -13.068432661425174, -20.676611473126997, 21.177754235743677, -24.243215479656598, -27.04891822316995, 18.176862099307115, 5.267727633978444, -14.647921554875923, 24.22366674037024, 8.80855854157233, 27.30261819629254, 6.437747909310821, -22.157744807855646], [44.247914757612044, -30.076883192545747, 3.9875443106186705, -17.80697142647421, -32.75547477438363, 12.757101177348632, -39.55268302237377, 13.766666958572802, 5.121312044550005, -16.76230839968146, 5.930453778830428, -2.0376606078222887, -1.4756810788353147, 51.76221134670117, -31.761421713876345, -18.954309823235167, 31.62377183037236, 6.215817963379409, -12.59538605378646, 18.043030057546147, 13.635749292202343, -4.125598174459014, 22.626086669064723, 12.52035992241193, 10.911998266616452, -18.276305024781546, 11.657358066901326, -52.76775517694299], [-5.492612815061211, -37.871415970198115, 15.64732337286361, 23.39906328197756, 13.86509300738618, -19.69603951242746, 14.197491319175565, -7.995075142841081, 13.381232097447116, 7.243179717451297, 3.7116772221010743, -0.4212879529071939, 21.560284882872068, -46.743886493115546, 42.78981049904392, -30.895754526101037, 26.655017709078315, -45.00131334239487, -4.574823813631916, -27.419906607874182, -17.58450591367241, 19.571641427644707, 2.3983540719933454, -9.01246943378598, -34.39584879517931, -13.455600036201485, -15.244737273109083, 51.29403069777314]], [[-32.01788626725188, 29.43399565968623, 7.43086052422153, 26.231425642759408, -36.4958944470074, -15.819342761762904, -27.011092867981493, -6.352351905717575, -33.42232156825935, 5.913010477472181, -19.95685524911105, -30.66019396940782, 1.120354369238932, -10.697272825078683, -38.80906337552942, -29.24017357828612, 39.731622545173984, -2.9158527587648533, 23.920740914730246, -7.068269667708783, 1.8127407128198934, 7.537789202087005, -30.899733329337067, -37.49186294115718, -5.892902181655062, -4.185603780672575, 9.407969094655574, -26.89107306521469], [20.13914819272831, 49.76701651987997, 3.907789224112718, -36.48147215402905, 10.766168105222336, -8.257772621660767, -35.39692014794353, -1.6268601969549656, -50.9529471979745, 1.9591276870461707, 35.98350670087849, 15.29579436577157, 23.808382043965732, 40.645927132196306, 20.929992450823228, -28.124716671558968, -35.3505125139941, 25.960141235202393, -0.7822010646788039, -16.404489609841093, -33.406066671656326, -13.737784064153422, 8.511136721069965, -44.9192776863679, 18.319993086861608, 21.2193969411844, -4.9505586269691975, -58.069769063690245], [31.68727575478598, 19.92058816642423, -0.6218955097369613, 30.58261371956943, -35.05967240057907, 27.235769519735296, -38.941628350926166, -14.206880412205857, -31.115041167198676, -2.047250324303384, 14.340211152880029, -5.243678474393886, 9.835961337661946, 50.9866401610044, -17.42524850335307, 36.77019495344198, 25.980195914725755, 43.76718200454682, -6.725044440230883, -20.00231976193866, -29.478728048530886, 13.91355450973733, -29.79345810195505, 35.7561301319429, 7.009711868981008, -0.027480056672050546, 18.483289577531753, 1.2345552124865373], [-41.45008050413254, 20.250724283782166, 0.6224120256273445, 2.7271912654997315, -36.25516668813815, -17.150684448408846, -24.495691882467167, 11.426899547654696, 20.868940755171195, -10.249075775491926, 21.20961535774032, -37.40489106074557, -30.613370138323653, -50.11788863993321, 6.402408233284804, -1.5608567885054272, 9.861038215071256, -10.233797752277892, -18.184460073866735, -26.399650861974372, 0.7948383765120324, -21.22365708305666, 25.620778592078384, 19.190485106928378, 7.0817506257886125, -26.053532995113702, -8.572126339454194, 40.87624086100286]], [[36.47434349997248, 25.268430238997368, 8.900900595632372, 2.986559883835686, -23.53328824768356, 28.574241489059926, -25.15866762208397, 3.0715416614565245, 1.7881347517628412, -28.60747927166664, -16.564640243348006, -30.976913790250318, -15.171974345130788, -15.122283788208799, 8.539144788431253, -36.883039430967635, 48.21203826562044, -7.814991723099338, 4.560393128083068, 7.390483732462191, -22.736875875408604, 15.232565465894154, 7.916447527607197, 5.364550436533118, 24.524986230584815, -37.30181074346294, 19.949226951611244, -24.716396435172584], [-32.5580352713377, -40.93118946092569, 16.378954188284233, 25.325166201332564, 22.23891815570828, -1.0568079675293873, 3.0228480485715625, 19.64590929186409, -14.169748517881008, -17.442657665818942, -33.26442294579137, -37.29409670184765, 14.868858166400647, -47.150365086245536, -6.26210944819711, -18.33289625284721, -22.250971403800992, 16.304398357926846, -14.230993435971246, -0.7857573153716643, 36.80963092204459, 1.9455629815617288, 8.948076235167758, 37.00585729255739, 25.670813261889116, -35.70536851275933, -15.339565031674711, 44.57529917598297], [-52.854606889843986, -42.21880057070171, -1.9507873645267753, 6.064656005009738, 25.17061222964375, 4.965195540767764, 9.54744807196708, -3.307767496579865, -50.60595816099059, -30.583526640532817, 30.675317965374216, -15.614157094373686, 26.59948020831366, 29.083956558920278, -25.94425753228138, 10.977970189787507, 22.8204746147894, -5.756585158721796, -2.4663698355253527, -6.691674661867193, 36.382910885696376, -14.460212210311843, -16.808100907928388, 16.75535154732293, -5.590956011978201, -9.094851678219175, 7.983091297199716, 38.91760319040004], [-12.247943606944935, -0.8266711515552718, 22.21550600316688, 10.848215259650242, 35.89158569755287, -13.506537188701625, 54.14099450125368, -0.5189533964898784, -55.491850166090764, 27.335367088804333, -3.6722762226898134, 1.9880951597634615, 38.89126938584241, -55.631611964612404, -6.287081764138726, -19.82627583215716, 34.103909480728596, 10.364835202936817, 24.820265694239545, 21.86691035914108, 0.6081294125598894, -3.1223599382834832, -25.0692084507065, 38.280751422792335, 14.385829114092521, 15.750076173220723, 20.965776513960208, 11.166025547103986]], [[-4.491085886421923, -10.631565216137677, 7.288342035610902, -25.49928830685807, 29.609575276255956, 36.30173010213189, -41.23144320295488, 15.270520047018044, -53.88482209066938, -13.073093552425517, -17.345879874501716, 21.8042620522664, 14.226058509096054, -8.236401905534027, 38.32264864497171, -26.62448496995831, -6.59585311775934, 36.08764135066109, -18.77071956135056, 12.883537083224994, -4.228273301308362, -2.764567797315324, -6.661025163181379, 31.46428885878703, -3.5777794950910176, -4.755084484342588, -1.2815399584680822, 53.30267363495623], [2.001172007883155, -47.59709903555966, -2.5051195515598383, -30.45961320963592, 27.76759024319051, -9.999960365787743, 11.984596682783947, -15.166237057507065, -2.257234834002634, -36.730726512139135, -1.1622740524690438, -2.3584241431106734, -0.38638725127460616, -8.842714454098816, -30.909251401320795, -39.53893813559468, -19.27347098090754, -19.799362962321172, -17.637925858166952, 9.991197115207827, -4.492494910678, -3.314654067138026, -21.08311986369036, 16.468052321932376, 20.928836896937394, 5.957246059708993, 9.983661711372159, 7.297917774772328], [-9.737678948580522, -41.94627552317617, 8.384503241647268, 11.161038263125942, -7.034062472254444, 30.631022600116808, 52.17967211892682, -17.82072424304428, 7.188047785718503, 4.308335979569382, 11.837412601411453, -5.412023961725403, -37.51024325343106, 11.138734270343251, 22.68855195985849, 22.903668091923866, -3.580569121525964, -23.541926725288725, 17.448261262445673, 20.33700628962352, -28.3938945616078, 9.218424781381138, -26.122658418798444, -36.77539341627607, 14.903529380428461, 2.927332253891796, -3.3443113732610983, 34.06716463965481], [-33.29326477750817, 43.52963220741475, -3.7107169501765305, -27.327854037339378, 32.462005532938655, 22.93062020602648, -8.062297965521141, 0.36234860304829397, -34.06066293936148, -20.04668413443224, -31.752714144896714, -10.440647434643786, 34.37810300118387, 46.35974881913142, -34.75237952304261, -28.54832629588077, 39.62240405542659, 19.791736468608516, 3.940035996312307, 6.281145611853178, 32.34649261101769, -19.745740158405138, -1.5882096137334183, 29.016434976946943, 1.3555829331603853, 11.811516404517482, 18.433631019215827, -41.88671554140922]], [[29.07477124512265, 15.892147021074353, -5.6171620331605885, -26.981876322921703, 34.19366031229886, -24.325171460546834, 54.897037576758635, -0.9416289816037434, 51.07119137081295, 36.51633579615367, -34.538650246553004, 0.38949866142771467, 17.924374597944638, 45.933021902760544, -12.85964465382051, -36.392745725439326, -10.938054070316857, 34.328244468256955, 26.924401112351816, 22.240431192083275, -5.804522150348393, -8.570457450829615, 21.664720702907584, -2.8455592236659975, 32.85717204725401, -14.966256027130068, -3.6540708636605115, 18.577187107098894], [4.987091542896646, 41.359440924109386, 10.41045534897224, 32.57180431712265, 33.785418547905664, -21.390687546196297, -33.287692029349806, 17.243520061330585, -17.75155365869665, -42.20246519823895, -38.6521671406255, -24.087139260873943, 25.701130227131628, 18.370092430441616, 22.817693744781817, 36.273109887747594, -10.422291553326673, -13.479774024390968, 26.917795067448303, -12.623721022585833, -18.886730405349557, 13.68884506853835, 3.181255997616798, -27.454600689652914, 11.852641854825968, -12.570348818178783, 2.4713441766525333, -8.629970676513043], [22.143761741045765, 1.2341155239458337, 9.34256853646055, 6.409813153987222, 25.01009169623126, 30.01008622196829, -55.804610597303544, -0.39412361447526045, 43.52282843020386, -8.65300635228388, 17.377781593570482, 23.946843458845237, 10.511542594641014, 41.153865950802356, 41.947098399219534, -27.330364621754587, -28.614113327731086, -24.388763241919992, 5.263900829366818, -22.884147038003533, -1.9443198247374434, -19.62183187108581, 0.8523059759809933, 16.0508033939787, -31.68864816304539, 25.826023267099828, 17.465535152572897, 3.8823023010120408], [44.74212990372655, -50.03932942891265, -14.917227825166748, -23.981877698714676, -12.371877997317576, -4.8547165242873636, 36.42933787900555, 6.497007979478795, -10.88126453852607, -30.571846247949956, 30.84405899419187, 3.0602934100406816, 2.54926765917603, 26.68839054978334, -11.091463934302178, 29.86589271017039, 10.699921289668527, -7.245129648368478, 4.929930941557018, -12.50052695896165, -30.761071023690654, 1.2160303374714792, 20.52931667665272, 29.580741679204472, 10.113810761905167, -25.02252518050181, -22.55803911973317, 47.21242281858187]]], "t": [[99999999.0, 6.603615820228079, 14.587894222995098, 5.980529890813583, 7.228338805370804, 14.763446464285268, 12.642096578407987, 11.780397385707127, 14.21538020190442, 6.009209944363381, 5.143410692814857, 5.388232780658432, 6.5828561465974165, 14.966082346188275, 12.942136358702946, 8.348416005828732, 5.21691752494971, 8.690557301814835, 11.226481241910045, 8.409624372587574, 10.425943364056351, 11.875046269756242, 6.837707828100501, 12.390054666160601, 6.567091968126981, 13.622268250897966, 6.57403824311849, 9.193656306970809, 12.833664456830478, 9.522404950430854], [6.603615820228079, 99999999.0, 9.22644989441972, 12.896015856916382, 12.881769041440094, 13.663633252678434, 14.198124104493106, 7.408591240454555, 5.987268923986646, 11.609045814338455, 14.507532208750519, 7.036763538725987, 12.461679331653281, 14.475488432560818, 14.20536918266083, 5.726326876026267, 5.7166915517220875, 7.855647250089978, 9.630875442214274, 12.68711634297835, 10.560654722348428, 14.324030174930714, 11.076427532341464, 13.497876928725145, 11.789598094730941, 6.943348337973783, 13.427419939749969, 7.685812317752736, 8.003435286379155, 5.314713768449489], [14.587894222995098, 9.22644989441972, 99999999.0, 9.463311384485948, 5.038513884389967, 11.384227941310185, 12.486937792777386, 5.403629781710615, 9.750079322140227, 9.467761084218537, 5.7272728075862425, 6.834060331013951, 14.938792995717865, 8.230781050638942, 5.858087026737478, 5.712631830395727, 7.947818843368463, 13.697715133734098, 11.21608176491759, 10.960210592258651, 12.622389038635305, 6.148724019848243, 14.939482937523927, 13.270540040929689, 6.947653303040288, 9.880959643236727, 13.629330165174574, 9.947638025695728, 5.052309066622448, 14.372579206222724], [5.980529890813583, 12.896015856916382, 9.463311384485948, 99999999.0, 10.912891152247756, 12.410481663778594, 12.46916372143146, 8.22084405819432, 5.370795875537494, 10.616907148467103, 6.512553162056728, 12.019806340708937, 13.04055583028279, 5.8669693792513575, 10.221726734153336, 8.34253412514064, 9.514402014506654, 11.372631941845137, 11.168815618989978, 9.683209758566836, 7.473565339190685, 5.4130075960770885, 14.495277462838033, 9.38125519848432, 6.56661861443054, 8.60144563216049, 12.365494224090469, 5.298477898542257, 7.188535507030136, 5.431292373291626], [7.228338805370804, 12.881769041440094, 5.038513884389967, 10.912891152247756, 99999999.0, 11.334797428194836, 5.6841718170652715, 11.235072636348239, 11.866203477410266, 10.000973302358084, 8.802709368570724, 7.561765493718901, 7.279885675488757, 11.006224664096916, 13.16715919935559, 9.299715226494895, 7.036529506645737, 9.898813314654369, 11.444300757244585, 7.517578668494825, 14.299103087536691, 11.807432248353518, 8.308942189497031, 14.224248048344338, 13.397009663683871, 8.849986441767445, 10.191877891954185, 13.35544849409467, 5.183651081259529, 10.277000487827191], [14.763446464285268, 13.663633252678434, 11.384227941310185, 12.410481663778594, 11.334797428194836, 99999999.0, 6.428794128104825, 6.992091458603512, 5.345478627722439, 5.682597738665657, 14.820766303145197, 6.392690124067318, 10.276429549602485, 12.311046772109961, 8.563888993412501, 5.421297366496919, 12.88658411771231, 10.995324106224, 8.609012157797853, 10.902009720995888, 9.412264001004072, 8.375944126864017, 6.1290492100491525, 8.941555509450712, 12.055935978877352, 14.563195971277013, 7.164297576198821, 6.105408487971515, 14.335463323945302, 12.652558556293895], [12.642096578407987, 14.198124104493106, 12.486937792777386, 12.46916372143146, 5.6841718170652715, 6.428794128104825, 99999999.0, 13.79918656422792, 10.70958478284749, 10.335904854902033, 14.941644049456702, 8.843927249597652, 6.288914086188676, 5.750435562257348, 14.67517241350946, 7.958241905404659, 6.7556948064237945, 10.513165990912405, 8.910618660497413, 14.452925618789255, 11.379879040968696, 11.165812608601424, 12.863236543043765, 10.824108592639504, 9.327359227608655, 6.324337148153988, 13.780403372911397, 10.951220727186186, 13.66239476537246, 5.789530470568201], [11.780397385707127, 7.408591240454555, 5.403629781710615, 8.22084405819432, 11.235072636348239, 6.992091458603512, 13.79918656422792, 99999999.0, 12.14989374207282, 11.194470554536801, 8.460428051740289, 8.983991214209388, 14.655366870930456, 9.980971902094526, 12.61082870369841, 12.336237688605094, 6.519410504878495, 5.383217787523033, 12.509007371617624, 11.22739744637946, 8.084946664517306, 12.21143586408352, 6.78501635547835, 6.26817085649547, 11.496273423607937, 8.16980940779228, 5.83600671522262, 6.893032499514456, 6.0483477165970125, 6.918676118605686], [14.21538020190442, 5.987268923986646, 9.750079322140227, 5.370795875537494, 11.866203477410266, 5.345478627722439, 10.70958478284749, 12.14989374207282, 99999999.0, 9.665040471391581, 11.221412203010441, 11.296145713493502, 7.509169528988745, 9.377750089362248, 10.686466145953629, 12.221697439851816, 12.485244941639005, 7.457277374566058, 13.450232161134721, 14.121036778742333, 7.004924746848818, 13.012007796422067, 11.351502539662237, 14.508612243013953, 9.733612597040953, 12.634411372131167, 12.446578018587427, 6.914326868288442, 8.570758318319912, 11.445511549998542], [6.009209944363381, 11.609045814338455, 9.467761084218537, 10.616907148467103, 10.000973302358084, 5.682597738665657, 10.335904854902033, 11.194470554536801, 9.665040471391581, 99999999.0, 10.412524175402043, 5.827219674707789, 11.180654772714401, 7.678213580831287, 9.033348840564244, 8.140630711633099, 10.318086769736937, 13.205257584661505, 10.521284312189582, 12.27250357644682, 13.5166546556438, 11.1711346727498, 10.421164107907028, 8.828343502706613, 14.902759784713691, 5.812899087556961, 6.688496723054531, 10.173795878163332, 8.25596521553894, 7.736576645064187], [5.143410692814857, 14.507532208750519, 5.7272728075862425, 6.512553162056728, 8.802709368570724, 14.820766303145197, 14.941644049456702, 8.460428051740289, 11.221412203010441, 10.412524175402043, 99999999.0, 13.929903715357163, 14.274447130917695, 11.484756888517133, 14.869834835985237, 13.17568673167767, 8.24658458676206, 9.747255354837364, 9.257111493680945, 14.204059569926354, 14.099142341849634, 11.75214784390474, 13.570264029807914, 8.528991618710709, 10.480311901498213, 13.600076838177403, 14.024415103761266, 7.839705238130073, 7.392568226523359, 6.422710991347893], [5.388232780658432, 7.036763538725987, 6.834060331013951, 12.019806340708937, 7.561765493718901, 6.392690124067318, 8.843927249597652, 8.983991214209388, 11.296145713493502, 5.827219674707789, 13.929903715357163, 99999999.0, 11.95629022489722, 10.480532381500524, 8.11574435814205, 8.933069456961265, 9.818041207051396, 12.318496314418205, 5.263346576796646, 9.162349044258146, 7.596582375741895, 6.36498447958925, 7.853673219699745, 12.008887313604752, 6.853501928371432, 12.18815799154865, 12.971886662359996, 7.153696441255965, 11.582621587365269, 9.507021889293874], [6.5828561465974165, 12.461679331653281, 14.938792995717865, 13.04055583028279, 7.279885675488757, 10.276429549602485, 6.288914086188676, 14.655366870930456, 7.509169528988745, 11.180654772714401, 14.274447130917695, 11.95629022489722, 99999999.0, 13.812968950556112, 9.274959698648576, 11.335370401383116, 9.752569550752632, 7.705652111946126, 10.875034919727428, 13.41223806280552, 11.873317339950447, 9.668436842746667, 7.586943655760765, 14.34627095055915, 13.343675496620326, 8.091060648779486, 5.38522979366144, 5.522889635825004, 13.696582747420173, 12.983637061556717], [14.966082346188275, 14.475488432560818, 8.230781050638942, 5.8669693792513575, 11.006224664096916, 12.311046772109961, 5.750435562257348, 9.980971902094526, 9.377750089362248, 7.678213580831287, 11.484756888517133, 10.480532381500524, 13.812968950556112, 99999999.0, 6.238690944013374, 14.320104557889783, 7.307842893900471, 7.976126347671277, 5.495687447792818, 11.430422954705424, 13.751422108709967, 11.355089241491234, 12.338523754049481, 12.796911536524927, 14.551752338574458, 9.630433438252961, 9.023001313170699, 5.469722556304043, 6.051102682529028, 12.68477392366071], [12.942136358702946, 14.20536918266083, 5.858087026737478, 10.221726734153336, 13.16715919935559, 8.563888993412501, 14.67517241350946, 12.61082870369841, 10.686466145953629, 9.033348840564244, 14.869834835985237, 8.11574435814205, 9.274959698648576, 6.238690944013374, 99999999.0, 14.584896717590492, 14.83924222953766, 9.032861415681761, 7.584094741252645, 7.2116508231313095, 11.788236509745733, 9.07676493939968, 7.321969996053089, 9.727891274147945, 13.661253535837625, 12.06563835976429, 10.944356822985604, 5.403415893460316, 5.062404336304968, 10.194315038428496], [8.348416005828732, 5.726326876026267, 5.712631830395727, 8.34253412514064, 9.299715226494895, 5.421297366496919, 7.958241905404659, 12.336237688605094, 12.221697439851816, 8.140630711633099, 13.17568673167767, 8.933069456961265, 11.335370401383116, 14.320104557889783, 14.584896717590492, 99999999.0, 12.481557736602657, 8.84334281515019, 7.920072104225218, 12.145804955538402, 9.423584009797157, 9.906754662863626, 10.296301267123845, 10.069290142821794, 8.978898303299879, 8.624960989205032, 9.587979675203526, 8.711201779502451, 10.109450982264867, 14.507426168794424], [5.21691752494971, 5.7166915517220875, 7.947818843368463, 9.514402014506654, 7.036529506645737, 12.88658411771231, 6.7556948064237945, 6.519410504878495, 12.485244941639005, 10.318086769736937, 8.24658458676206, 9.818041207051396, 9.752569550752632, 7.307842893900471, 14.83924222953766, 12.481557736602657, 99999999.0, 8.091294125832373, 14.383135260024298, 12.930952411432612, 5.231863319336268, 9.027687446458188, 12.885415283226434, 10.993662987883381, 6.934555551414475, 5.3767476000433, 10.358807606658928, 13.340189636965045, 14.603572985491457, 8.100858355233093], [8.690557301814835, 7.855647250089978, 13.697715133734098, 11.372631941845137, 9.898813314654369, 10.995324106224, 10.513165990912405, 5.383217787523033, 7.457277374566058, 13.205257584661505, 9.747255354837364, 12.318496314418205, 7.705652111946126, 7.976126347671277, 9.032861415681761, 8.84334281515019, 8.091294125832373, 99999999.0, 8.047211904355482, 10.552457858421473, 10.202729919113871, 6.344326030550066, 9.112283794313132, 8.233577396257846, 8.146984343728175, 11.236339821681057, 7.259800512135942, 11.226088815284033, 14.375937096493008, 12.158829373467087], [11.226481241910045, 9.630875442214274, 11.21608176491759, 11.168815618989978, 11.444300757244585, 8.609012157797853, 8.910618660497413, 12.509007371617624, 13.450232161134721, 10.521284312189582, 9.257111493680945, 5.263346576796646, 10.875034919727428, 5.495687447792818, 7.584094741252645, 7.920072104225218, 14.383135260024298, 8.047211904355482, 99999999.0, 9.336016781289464, 13.84678211473614, 5.500009049584367, 5.418252357729324, 14.20273566604754, 8.639479209596523, 10.670481126787477, 14.459348561898768, 10.161342709220996, 9.86152183015885, 14.356837104654526], [8.409624372587574, 12.68711634297835, 10.960210592258651, 9.683209758566836, 7.517578668494825, 10.902009720995888, 14.452925618789255, 11.22739744637946, 14.121036778742333, 12.27250357644682, 14.204059569926354, 9.162349044258146, 13.41223806280552, 11.430422954705424, 7.2116508231313095, 12.145804955538402, 12.930952411432612, 10.552457858421473, 9.336016781289464, 99999999.0, 10.205438409156153, 11.588266642531277, 7.267223243816297, 10.251449887164428, 14.068844027110789, 6.104121504097215, 6.605430761722523, 5.902767758897162, 12.435794545050813, 13.538070847478016], [10.425943364056351, 10.560654722348428, 12.622389038635305, 7.473565339190685, 14.299103087536691, 9.412264001004072, 11.379879040968696, 8.084946664517306, 7.004924746848818, 13.5166546556438, 14.099142341849634, 7.596582375741895, 11.873317339950447, 13.751422108709967, 11.788236509745733, 9.423584009797157, 5.231863319336268, 10.202729919113871, 13.84678211473614, 10.205438409156153, 99999999.0, 11.220070769138637, 7.5131982643485244, 5.733190934053916, 13.107404281903861, 11.00981861529582, 5.227958144753537, 10.781389144837096, 6.067148090834442, 9.11441361536985], [11.875046269756242, 14.324030174930714, 6.148724019848243, 5.4130075960770885, 11.807432248353518, 8.375944126864017, 11.165812608601424, 12.21143586408352, 13.012007796422067, 11.1711346727498, 11.75214784390474, 6.36498447958925, 9.668436842746667, 11.355089241491234, 9.07676493939968, 9.906754662863626, 9.027687446458188, 6.344326030550066, 5.500009049584367, 11.588266642531277, 11.220070769138637, 99999999.0, 7.741586379470247, 10.738458330243109, 6.505198149907122, 8.592495684625874, 8.171536973895556, 7.614869410783202, 14.781497441717008, 9.581524228411416], [6.837707828100501, 11.076427532341464, 14.939482937523927, 14.495277462838033, 8.308942189497031, 6.1290492100491525, 12.863236543043765, 6.78501635547835, 11.351502539662237, 10.421164107907028, 13.570264029807914, 7.853673219699745, 7.586943655760765, 12.338523754049481, 7.321969996053089, 10.296301267123845, 12.885415283226434, 9.112283794313132, 5.418252357729324, 7.267223243816297, 7.5131982643485244, 7.741586379470247, 99999999.0, 6.380085761482307, 7.527351388534949, 10.16291516505346, 13.989453868231323, 5.181499891343958, 12.998933220199387, 10.479530390887643], [12.390054666160601, 13.497876928725145, 13.270540040929689, 9.38125519848432, 14.224248048344338, 8.941555509450712, 10.824108592639504, 6.26817085649547, 14.508612243013953, 8.828343502706613, 8.528991618710709, 12.008887313604752, 14.34627095055915, 12.796911536524927, 9.727891274147945, 10.069290142821794, 10.993662987883381, 8.233577396257846, 14.20273566604754, 10.251449887164428, 5.733190934053916, 10.738458330243109, 6.380085761482307, 99999999.0, 5.361643640537309, 10.950288489381347, 14.60257305895792, 6.511960088762205, 12.656084384429276, 12.305060800469356], [6.567091968126981, 11.789598094730941, 6.947653303040288, 6.56661861443054, 13.397009663683871, 12.055935978877352, 9.327359227608655, 11.496273423607937, 9.733612597040953, 14.902759784713691, 10.480311901498213, 6.853501928371432, 13.343675496620326, 14.551752338574458, 13.661253535837625, 8.978898303299879, 6.934555551414475, 8.146984343728175, 8.639479209596523, 14.068844027110789, 13.107404281903861, 6.505198149907122, 7.527351388534949, 5.361643640537309, 99999999.0, 11.939163793262566, 14.691401576580867, 10.799444419330392, 8.559051483557415, 13.993492115672545], [13.622268250897966, 6.943348337973783, 9.880959643236727, 8.60144563216049, 8.849986441767445, 14.563195971277013, 6.324337148153988, 8.16980940779228, 12.634411372131167, 5.812899087556961, 13.600076838177403, 12.18815799154865, 8.091060648779486, 9.630433438252961, 12.06563835976429, 8.624960989205032, 5.3767476000433, 11.236339821681057, 10.670481126787477, 6.104121504097215, 11.00981861529582, 8.592495684625874, 10.16291516505346, 10.950288489381347, 11.939163793262566, 99999999.0, 10.279844755824099, 8.796055779474234, 14.344185552976555, 5.184678238730368], [6.57403824311849, 13.427419939749969, 13.629330165174574, 12.365494224090469, 10.191877891954185, 7.164297576198821, 13.780403372911397, 5.83600671522262, 12.446578018587427, 6.688496723054531, 14.024415103761266, 12.971886662359996, 5.38522979366144, 9.023001313170699, 10.944356822985604, 9.587979675203526, 10.358807606658928, 7.259800512135942, 14.459348561898768, 6.605430761722523, 5.227958144753537, 8.171536973895556, 13.989453868231323, 14.60257305895792, 14.691401576580867, 10.279844755824099, 99999999.0, 14.110712966807386, 13.408299066506965, 6.865990950423915], [9.193656306970809, 7.685812317752736, 9.947638025695728, 5.298477898542257, 13.35544849409467, 6.105408487971515, 10.951220727186186, 6.893032499514456, 6.914326868288442, 10.173795878163332, 7.839705238130073, 7.153696441255965, 5.522889635825004, 5.469722556304043, 5.403415893460316, 8.711201779502451, 13.340189636965045, 11.226088815284033, 10.161342709220996, 5.902767758897162, 10.781389144837096, 7.614869410783202, 5.181499891343958, 6.511960088762205, 10.799444419330392, 8.796055779474234, 14.110712966807386, 99999999.0, 9.958774737360514, 11.65414439977185], [12.833664456830478, 8.003435286379155, 5.052309066622448, 7.188535507030136, 5.183651081259529, 14.335463323945302, 13.66239476537246, 6.0483477165970125, 8.570758318319912, 8.25596521553894, 7.392568226523359, 11.582621587365269, 13.696582747420173, 6.051102682529028, 5.062404336304968, 10.109450982264867, 14.603572985491457, 14.375937096493008, 9.86152183015885, 12.435794545050813, 6.067148090834442, 14.781497441717008, 12.998933220199387, 12.656084384429276, 8.559051483557415, 14.344185552976555, 13.408299066506965, 9.958774737360514, 99999999.0, 7.525629699308052], [9.522404950430854, 5.314713768449489, 14.372579206222724, 5.431292373291626, 10.277000487827191, 12.652558556293895, 5.789530470568201, 6.918676118605686, 11.445511549998542, 7.736576645064187, 6.422710991347893, 9.507021889293874, 12.983637061556717, 12.68477392366071, 10.194315038428496, 14.507426168794424, 8.100858355233093, 12.158829373467087, 14.356837104654526, 13.538070847478016, 9.11441361536985, 9.581524228411416, 10.479530390887643, 12.305060800469356, 13.993492115672545, 5.184678238730368, 6.865990950423915, 11.65414439977185, 7.525629699308052, 99999999.0]], "M": 99999999.0}