{"num_workers": 25, "num_roles": 6, "num_nodes": 30, "w": [[0, 0], [4.521477069500223, 37.65862643948719], [4.790671767183098, 30.931625667070524], [44.75977747763056, 73.3117202705792], [13.294158169244367, 50.371653561148335], [7.6760680672659936, 36.58125181718244], [2.6090434845247024, 32.14507047482343], [28.645601767612074, 58.16469606865938], [19.114228897382286, 57.77573063317223], [56.48227074388479, 87.63891578006356], [6.027478938150017, 45.57265876512095], [14.65240550245331, 49.33894148043723], [44.5034026116589, 84.42077419835044], [22.338804858342343, 49.89581204024513], [8.427585326010078, 39.79607006165671], [19.17567856131418, 49.60155843251508], [30.576942659134758, 69.87798468524939], [46.48704899807974, 84.38164748947851], [26.780373088921163, 55.30703889670514], [8.15683354355272, 37.39879292009047], [11.350620734459648, 47.5974691131309], [3.180000066568447, 29.203838826627383], [20.934673888792542, 59.776036375894364], [22.96224631249017, 52.45375105787542], [27.911164133647457, 63.8024889557969], [1.2871065716688235, 35.664641828068696], [1.6731193722536364, 28.81106759522852], [42.876190376629914, 75.89908878153864], [24.391074386443982, 63.46521861202293], [0, 90]], "p": [0, 11.743502377578139, 12.920385421565884, 9.719863180329792, 12.029141209447808, 16.579199563880508, 19.148601849286784, 8.139631413239838, 22.77195577459453, 13.56171605680451, 16.891239205721526, 17.329803159228337, 19.35607078634174, 8.90374736071577, 19.605851576108844, 15.20996348906334, 17.46176168004399, 20.729666599633692, 7.451653076921543, 16.414328817361234, 11.78937798719776, 15.92655937416936, 19.36792545687807, 7.72111026030459, 13.473194820270058, 9.20196922051375, 7.9598328063039885, 10.185992139600556, 17.14426472848805, 0], "e": [[1, 0, 0, 0, 0, 1], [1, 1, 0, 0, 0, 0], [1, 0, 0, 0, 0, 1], [1, 1, 0, 0, 0, 0], [1, 0, 0, 1, 0, 0], [0, 1, 0, 1, 0, 0], [1, 0, 0, 1, 0, 0], [1, 1, 0, 0, 0, 0], [0, 1, 1, 0, 0, 0], [1, 1, 0, 0, 0, 0], [0, 1, 0, 0, 1, 0], [0, 1, 0, 0, 0, 1], [1, 1, 0, 0, 0, 0], [0, 1, 1, 0, 0, 0], [0, 1, 0, 0, 0, 1], [0, 1, 0, 0, 1, 0], [0, 1, 0, 0, 0, 0], [0, 1, 0, 0, 1, 0], [0, 1, 0, 0, 0, 0], [0, 1, 0, 0, 0, 1], [0, 1, 0, 1, 0, 0], [1, 1, 0, 0, 0, 0], [0, 1, 0, 1, 0, 0], [0, 0, 0, 1, 0, 0], [0, 1, 0, 0, 0, 0]], "d": [[1, 0, 2, 0, 1, 0, 0, 0, 1, 1, 2, 1, 0, 1, 0, 2, 1, 3, 1, 2, 1, 1, 0, 0, 0, 1, 0, 0], [2, 0, 0, 1, 0, 1, 1, 0, 0, 1, 0, 1, 3, 1, 1, 1, 1, 2, 2, 2, 2, 1, 2, 0, 0, 1, 0, 1], [0, 1, 2, 0, 1, 1, 0, 0, 0, 1, 0, 1, 1, 0, 0, 1, 2, 0, 2, 0, 2, 1, 0, 1, 2, 2, 1, 0], [0, 0, 0, 1, 3, 0, 2, 3, 0, 1, 0, 1, 0, 4, 1, 0, 0, 2, 1, 0, 0, 1, 1, 0, 0, 2, 1, 0], [1, 0, 1, 0, 0, 1, 1, 0, 2, 2, 1, 1, 3, 1, 1, 1, 1, 1, 0, 0, 0, 0, 0, 1, 1, 2, 0, 0], [0, 2, 3, 2, 0, 0, 0, 0, 1, 0, 0, 0, 1, 0, 0, 2, 2, 0, 2, 0, 1, 0, 2, 2, 3, 0, 1, 2]], "r": [170.33120206751465, 171.72931630374998, 78.00083174449966, 142.6736176156517, 67.1942122744304, 121.52612543763894, 102.1334977250196, 103.24025170881046, 129.52602643874184, 172.28186998978532, 78.38808849814477, 144.67074683736988, 127.13248885231093, 173.45288962124647, 193.3609182886803, 130.6750209382957, 78.67959447829963, 155.77242799851274, 97.43499207665496, 85.0366880083564, 148.5631415902622, 52.14082480758941, 185.48043807864903, 141.35740586221308, 150.66045555851804, 133.4726069621306, 91.35756899964059, 115.3124082619257], "b": [[[2.511470504221114, -2.073569443949962, -0.20450127194702317, 1.8197198247496749, 1.5493641481000813, 1.4537383086566944, 0.8016750754947104, -1.1020998388794097, 0.39598054882394873, 1.774879258943109, 1.3693071190544819, -1.5077573866843876, -0.23558223083503993, 1.8733447242756043, 0.44556398926655927, 2.4120293620106876, 2.6291380320212854, -1.330688980277832, -1.0252339969505238, -2.365912614287436, -2.7250871658308236, -1.2825194356773888, -1.65734967285822, 2.0914002859692076, 1.405601396919848, 1.5273607409910728, -0.6440688540409032, -1.3551059256999334], [2.4594885964022115, 0.15621311311522135, -1.9736415749059877, 0.9764524594809281, -0.44465830147466523, 0.7660898893493662, 0.3039679824733277, 1.2058180534323544, -0.7866930211146324, 2.9724028391461044, 0.16587494780648893, 0.3390358397666291, 0.9645472358982747, 1.7064217393703895, -2.1674775958502877, 2.716804171148871, -2.1299396769268766, 0.4440251228337688, 2.4262607001281467, -1.3702840907708949, -2.61266284591425, -2.0923845788159237, -2.832859665551914, 2.347596598468863, -1.272778845054846, 2.3752071709103477, 2.473276249303675, -1.4107434462775554], [2.153243816328173, 2.5169970619084916, 1.4876636006371902, 0.70588950806615, -0.6663402416434474, 2.724357248575158, -0.5232707894388122, 0.661554444874346, -0.1484230537346285, 2.661937176447144, -1.4635325874394722, 0.6920157721559623, -0.2794431044888963, -0.3340811821061753, 2.870258777589479, -1.3324523498921796, 1.502565555775976, -1.9362502505243195, -1.6419000315852994, -1.8193370698030413, 0.8934876123438622, 2.94899704950617, -0.6110757005926901, -1.2476956351453468, -1.0448049789530494, -1.3872204617043447, -0.9908320123286427, -2.382812183108091], [1.153806528656224, -2.254303247134546, -2.9530373128706957, -1.4109604794011763, -0.9754338669397695, -1.5801970436100943, 2.173713485080599, -2.464389326940154, 0.12266128509874896, 1.2892085049330806, 1.9459943554204724, 2.523374024838188, 2.1955554123154997, -1.1810286097968474, -1.6427964640715056, 2.3021925196472166, 0.6912935899214845, 1.1160842150383052, -1.8477711628261395, 1.6906032973903455, 2.977609714171357, 2.6589569341614467, 2.3546287440948968, -2.172371511300593, -0.5264461743878215, 0.4955277209855784, -2.1055518993415823, 0.40420434649297166], [0.3036719701853019, 0.718759221681327, -0.06152183280152457, 2.4264571143472837, -1.813409688064133, 2.4201551221998656, 1.5928924417050405, -1.8301081333826903, 0.7144505262597391, -2.14734213496181, -1.7107352459611505, 2.9713645275956324, -2.324920781014212, 0.7835426157349596, -2.3374177820521385, 2.8695266520717837, 2.681479275809494, -1.694984692048135, 2.3700998158533073, 1.7369820467835808, 0.26494692259120445, -2.3585504382840874, 0.726229157365271, -1.624912017273705, -0.47748216765371154, 0.11622380358789197, 2.870332635656589, -1.8754758434784515], [1.7608371314353812, 0.7671138430152729, -2.8671252766334847, 2.280148432456918, 2.1876023131215536, 2.1488912984928454, 2.583546336740346, 2.5574856242139514, -0.15312933584082256, -0.9056240067760992, 1.7585969191831632, 0.9417197868523512, -2.7367818769551944, -0.5551850403449503, -0.1905505169355699, -2.6550562249602003, -1.7821061426329925, -0.4209586129733398, -1.9816037391363808, -2.510381597415695, 1.1995610630950448, -1.2443972793941929, 1.7020863154178727, -1.1870493896093628, 2.640133196047163, -0.6759214834160217, -1.0486321255753264, 0.36125955141945054]], [[-2.812172376594443, 1.3916584909135983, 2.6084207743491588, -1.6907826912486408, 2.3433362355628864, 0.6348383907734805, -1.242941233159358, 0.9708036752515121, 1.1961331200264373, -2.8341171753973886, 1.6181458928153454, 2.2765124477768826, -1.1565979647854503, 1.5629664323352657, 0.16232842831411487, 1.8071630420819842, -1.5752596920779889, -1.0502203833710373, -2.4951404877747523, -0.014964508780510144, -2.5012082786515, 1.9041702365147204, -0.12218925008444215, 0.4040197140763362, -0.5771927993705397, -1.7953016120767982, -0.644443226974309, -1.8211517387114078], [-0.7009839178566524, -0.009883587145970374, -2.460252120662129, 0.6477258333993268, 0.4589520255410253, -1.5828788784275891, 0.47125481199922525, -1.82015401972149, -1.5776751131339688, 2.7031818085587904, 2.103459786797453, -0.02059966169440841, 1.7479569896399347, 2.5184686698042302, -0.21484382410674252, -0.8473469081067702, 2.7690234041056545, -1.1830955314733056, 2.4502525134283815, 1.5775569765055248, 0.6124677968987227, -2.9911870939828766, 0.1346128483171336, 2.934403500072653, 0.9587257758680146, -2.769187134516317, 0.7993955081390771, -1.2966673835503053], [1.6896738899952872, 0.8036120820403689, -2.382259786208945, -1.5640141887169836, 0.317470598965957, 0.5865123816420148, -1.4656818107945226, -2.0773791751020454, -1.2808299924666824, 1.865894984607392, 2.639257016714809, 0.6044166938269115, -0.9726957147363793, 0.06375215785586086, 0.11850535498847625, -1.5414746579039484, -0.07368340479887658, 1.5968691259190946, 1.904734421409648, -0.4523781824104427, 1.3626700999867012, 1.8218383910046008, 2.754551329382977, -1.6819995375252668, 2.181973619091324, 2.794103364736925, -0.9012274449013189, -0.22552510816297522], [-1.1561810161142205, -0.33500323378526353, -0.4329482009651735, 1.7058316142060974, 2.0708550358974147, -1.5736254922282602, -2.7612377145260503, 1.7584219640977965, 1.0141332843181141, -2.754349665012301, -0.0027129622773771622, 2.8593244624942713, 0.6788402061165026, -2.673392060344135, -1.995140587166202, 1.0928228713066108, -1.9343587063038643, 2.148751770636837, 0.8298872804479376, 1.4789907187244307, -2.363204821133958, -2.1764310516706917, 1.0354733555640845, 1.4060936761917198, -1.3688709696368464, 2.235071910663792, 0.29191919143091827, 0.7262492109444687], [1.13786249414059, -1.1680140191589303, 0.06668070004198245, -1.3206177861186124, 1.5858650383495956, -0.13587269792163603, 2.6219916928727773, -2.982485019906265, -2.808453489375352, -0.4608525986364551, -2.1822856162017192, -2.194264884007157, -1.0689664470486309, -1.149224398990841, 0.49379991584638816, -2.9133203144223643, 0.05074765429646666, -1.539627534637236, -0.7627195689881647, -2.18591659000948, 1.0286589293013755, 2.9447488386002956, 2.9845846200680874, 0.7015324244884455, 1.7280773412794703, -1.3769870881082171, -1.0982178386040669, 1.9092570057114528], [1.8306212366859134, 1.5930956173136117, 1.4650399044891405, -0.3954627840967362, -2.3165043550409905, 1.1692712260326452, -1.218790025088706, -0.7199615675128381, 2.2204141608368966, 0.1600917954798433, 1.0899876318661317, -1.4875769790705267, -1.030894666034669, 0.2106523350878282, 1.4388299215623075, 1.6586030455650214, 2.837905165930641, 0.5783154331078832, -1.7060233751201994, -0.7139030752585698, 2.2129472731615483, 2.7672927768943385, 2.581299207479324, 0.5480292829295474, -1.4084750861763726, -1.8635209748636412, -2.1895752203788943, 1.774133011519413]], [[0.6552114596425289, -1.8444296237349584, -0.10927947141400551, -2.336272585361767, 0.8047775638363777, -2.7610743153551054, 2.2688113627443087, -1.8527047510350005, 1.8362352018175834, 1.805904518983744, 0.7488411771114567, -0.11919827802539906, -1.6788793631921823, -0.12700905487588976, 0.3640880244731557, 1.5615785782270066, 0.19703776018991714, 0.4871759251132781, -0.4039563533665147, -0.30550811461412364, -1.7407215782717755, 1.882347983961032, -0.18773964094050744, -0.04655217589698335, 2.416055382885154, -0.6144224410693484, 1.381784815212157, -0.40454802690865677], [1.7509351984888148, -1.540189231222186, -2.791562784997369, -1.5623329529270709, -1.1469937642605694, 1.8023482747498054, 1.3588171110018825, -2.878799557193137, 1.0801021989953394, 0.9375689693866884, -2.779796027330194, -0.41801394893373267, -1.9842394505824774, 0.0365244744829889, -2.540095405203312, 2.4770123459014872, 1.217214220179386, -1.0836922777060782, 1.8213345243537615, -2.9779652152029445, -0.4317412285354525, 0.3826497495532628, -1.6690445352254089, 1.178241766398906, 2.0433200040682378, -2.062113018553431, 0.2370898236050536, -1.2132178533803464], [1.0865950392545587, 1.332255544147607, -0.34128394795492456, -1.0116430949498625, 2.2242140864154125, 2.4028509298757212, 0.21442091771802563, -0.45625471968077047, -2.809278986124018, 1.0551214177300468, 0.6439539016591773, -2.3056432230005512, -1.6308164403462373, -0.367821776986621, -2.066911353911721, -1.4143732626120105, 2.4375370527382128, 2.0379021244484488, -0.6859322540786001, 2.6881586874384134, -2.153154191678871, 0.7528609804117505, -2.7759818424800025, -0.1371673679842047, -2.000742792195142, 1.0313117711323754, -1.7696231759093486, 0.5933195206961699], [-0.0014427989920702267, -1.1051592520422808, -1.1363015546888624, -2.9731153992248878, -1.9196418696265003, -1.2722243216712634, 1.6412118749079987, -2.000903419695627, -2.454428440329015, 1.6894332673872698, 1.3393057644024733, -2.479213299498186, -1.5849844162246365, 0.34758861915948014, -2.731297943229781, -2.017556703987092, 1.1678257548985647, 2.537236845236821, 0.44694315046241595, -2.6799218017164526, 0.08977402274408508, 2.7200600672481254, -2.8773243011105167, 1.4390547070850044, -1.325297138549851, -1.7009245095959553, 2.537524274249045, -2.748517778038299], [2.561464213638981, 1.8093690897755037, -0.34564850664829905, 0.6146782123621293, -0.06217062557671671, 0.02465051570003629, 2.4120472602953154, 2.746276808594767, -2.1126016312885643, 2.834726904510098, -1.2291212351301242, -0.5156530710280505, -0.7870285306194607, 2.0527738808635725, 0.6589626609215102, -2.91105564860343, -2.059674237717201, 1.2681807615150333, 2.256893881356401, 2.6528154256938405, -0.6200009629971399, -1.4304825460300796, 1.605835319658139, -0.8551783608173014, 1.437228277121326, 1.394799206092773, 0.653987457145818, 2.2773977574621203], [-1.7532417415167931, -0.24392308885543024, -0.6451354345984832, -0.11697181851651761, -2.358801024678945, -0.39340833143614873, 2.742486853263955, -1.3969612661205602, -1.2212521749203802, 2.3443944038033973, -2.801614591052131, 1.0255818080543406, -2.935905276602011, 1.3851067968381852, -2.612983175782584, -2.5954508690259326, -0.3298524374623222, -1.8933474719989998, -2.5821106699383094, -1.2544463273174267, 1.9841344357901818, -1.1476246282704665, 0.6745778576765082, -0.30469889622534563, -2.5372430328193882, -1.856087754209972, 2.5442128092635086, 0.004331625213012558]], [[-2.922151084618194, 1.3816759636949527, 0.005779323485211041, -1.0897133021395478, -2.6610762246937956, 1.4667544653426603, -1.943124698384646, -0.8073545729216569, -0.03160398976129297, -0.32357166049615405, 0.26106996435626906, -1.5261005405655008, 2.5795504155989004, -1.4312246833212372, -1.8456150229357293, 2.44672008371073, 2.870680620142183, -2.1159723514825926, 1.7460154943357864, -2.087017415904617, -2.1168759311988543, 1.058979387570588, -1.960761204985573, -1.1386612867344499, 1.2375240589131042, 0.3244763009785716, -1.1564221386258005, 1.99327841711351], [-0.14563692132346429, -1.0992246399911136, 1.6801683809785448, -2.1635380207833146, 0.29097352832059986, -2.5920365305856663, -1.5586657859192163, 2.863807565996499, 0.8393069933606156, 2.5389519560080824, -2.184834058271056, -0.05782435392278451, 1.0412700439574598, 1.9690300352109604, -1.8756156881601016, 1.3465257976877743, -0.11196313349966847, -0.3981074400515543, 1.7528133237156585, -0.772182512057153, -0.5652098558795213, -0.9886433323802164, 1.933241847901348, 0.016347978787544015, -1.228282538552013, -2.40596378652955, -2.057294944839053, -2.0580021681825], [-2.858515046585238, -0.1447054743894931, 0.6999602663569213, -1.6081883851114838, 0.2540590657483488, 2.7476760824917603, 0.7134965131766493, -2.2182248994550884, -1.2632009224367537, -1.7193801269368907, -2.1533566223972302, 0.6539226197536738, 1.1145610600342373, 1.9129784090308375, -0.08834996270807771, 1.1835403081090075, -0.5345271143930788, -2.7131530632595338, -1.8380927208271156, -1.3514533033712746, 0.34802984628824696, 1.1532989329364725, -2.6398706554089983, 2.6508297115038673, -0.08788643830373832, -0.04710208931076565, -0.1552989773874751, 1.7255769885499959], [-0.8939401189691507, 0.7414570668278024, -1.8078887201584353, -1.965202383773951, -0.48273079535395436, 2.9926996701934385, -0.4020599790209758, -2.1336617165773513, -0.9775364953587107, 2.2561552749420564, 1.5250264249590906, -2.4678779001329874, 2.7504754441456445, -2.292636697765798, 0.9032344190851118, -1.27599431276899, 0.7604183137428611, -0.5034730147020534, -2.390632058946019, -1.8546839454416955, -1.460805408051078, 2.314118222485435, 1.3550310137775003, -0.5718811444984802, 0.9527618128139856, 2.4623243874240064, -2.446317545779456, -1.878278931967519], [-2.136125269664658, 1.1182941718638215, -1.0275610684693142, 0.06311416807512149, 1.0215604473573894, 1.0159334322333198, 2.9583323895525515, -2.736825909907836, 0.6166823094036111, 0.2250001619157307, -1.0876947568209379, -2.5616963036702747, 2.855758868737917, 2.8953254394911054, 2.3990318029316766, 1.522597726177172, 1.5832738490033842, -2.456289053500082, 1.2910982045605133, -0.3361364942871625, -0.2298105421876384, 1.1478268652719494, 1.0503731865143076, 1.918229101240854, -1.933478741976979, -2.77598625158499, -1.92646068984896, -1.4502506818577254], [0.32954311517053103, 0.9396381274959493, 2.0482037415182965, 1.6997644905385414, 1.150883357396122, 2.267731766716297, 1.8041588063772993, -0.9343041558307821, -2.2971962485683406, -0.9493117056759486, -1.3142085180289926, 2.4675247781672702, 2.537722112819546, 1.7759262019505861, 1.8784720738250655, -2.5652619997675945, -1.870438187560836, -2.8229947081851527, -0.47665693615787985, 1.3146291628559794, -0.17247029403842973, 1.6898584540068997, -1.3965299982245958, 2.7603462844687963, -1.2983317073619756, -2.064861629993666, -0.10239093795650955, -1.2941190938845049]], [[-0.5321797167215889, 2.2267879259869803, -0.6217477239380438, -0.5922908237446736, -0.32038995164276374, 2.715387907220446, 1.4848485622677838, 0.6844058985698203, -2.9239638227409293, 1.731809248762847, -1.7304998869035604, 2.7281426650388756, -0.17487135701533463, -0.5569934093936086, -1.7302984418022285, 0.41650449229947784, -0.6197986193301901, 0.9118116948851149, 2.5222141145917796, -2.0385013292312752, -2.102290643634337, 0.07827087834097934, 1.1991199001107438, 0.41606798991156246, -0.9031751595614681, 0.6020119042876999, 1.7129898161761048, -0.5119700755071595], [2.0080108203322364, -0.4876603296154469, -1.287521083941313, 0.46233282341764026, 2.92107192762181, -0.04354452374017992, -2.2876433934516998, 1.8229110619058542, -1.969152535534784, -0.8087241682178345, 0.9001601634430871, -2.5079615692712593, -2.1273073001237743, 0.5670977431351671, 1.0108407139123328, -1.5520819903564178, 1.4655430470021056, -0.7052251059406234, 0.436023717956866, -2.9900032194357093, 2.7170939173729947, 0.8178206279286697, -2.736255096674305, -2.646050939216061, 1.4377897246842668, -0.12702767475158172, 1.5308203168744452, -0.4692932534672285], [-1.173344076853092, -1.1089737246634146, 1.1107111324465038, 2.2593950169186465, 2.7077215577890597, 1.6182272195823524, -2.054027697692896, -1.17915169679444, -2.9583403826171413, 0.4946375195393413, 0.2576435408170106, 1.1748775161020477, -1.9836937700985906, 2.1626268615218356, 2.9208168324056416, -1.779411460224755, -0.5436509292804756, -0.8077120750686282, 0.6939369964724866, 1.6179057506622625, -2.330004979107796, 0.5101437514836737, 1.0331698105417146, -2.6391792014203985, -1.4352708618031491, 2.307752010105621, 1.7346929145086891, 0.5196027943279997], [0.8501333517838576, -2.6880959486589013, -2.2127921495410163, -1.5300135700576003, 2.496179878499648, 2.4386255553327736, 2.5252061809080955, -2.436714822915475, 2.437248747751779, -2.4930324434547133, 2.2242962381993774, -0.7372921048672505, 1.768776129436243, 1.6906953651292245, -2.998920594536912, -1.2720948257790248, 1.0156460098630582, -2.5014152187064864, -1.341952330012462, 0.6670520143724854, -0.522706979912138, 2.1374589270230384, -1.7556792573975961, 1.1892671339736367, -2.7136099212963023, -2.7434106492807575, 2.1833390635808003, -2.547204484718221], [2.3735697022524764, 1.1821234342716478, -0.49839466631680285, 0.8611009166106216, -0.11057935555046594, -1.207621570572629, -1.1445052745525, -2.1841039673894262, -1.4993686594996012, 0.3409394731033073, -0.8180395671203256, -2.6509152581815933, -2.0160735921182447, -1.9974087872188624, -1.1522982237051225, -2.533265607693478, -1.642362336032139, 0.6321734115547173, 0.6322473725135707, 2.9873675761548206, -1.4462579443939017, 0.7038416867612041, -1.5582034391887134, 1.744429291298883, 1.0725304576907178, -1.0393189308078141, 1.789313212168552, -1.0324069568320247], [-0.9300894735546175, -0.5235324924733078, 2.4869626927013355, 0.6396817033557265, 2.6006288793216994, 0.7496344594751978, -1.798210429109667, 1.7711019659994607, 1.6338528994794004, 1.284258026277353, -2.4342000457466213, 0.4928900445041178, -0.09311383378079396, 2.7497205120028934, 2.093516291316016, -0.1436184845455859, 0.3571772526790098, -1.3766694109177964, -2.477689185418011, -1.2245048980907107, -0.7441198793398867, -0.9818843139070603, 2.218700818993529, 1.7139776624059841, 1.5284295840689888, 0.6371159138769782, 0.831014506190829, 0.427356670637999]], [[0.2086443911170126, 2.201524385914655, -1.6099754961576367, -0.7255838765287521, 0.49945439278682713, 1.4916773249420245, 2.2095353922688004, 0.6030414091052783, -2.7996843285054362, -2.5445854414212064, -2.8250010896054647, -2.776538262994295, 2.126594265041885, -2.786103618511805, -0.7404371321092826, 1.733040017676796, 2.8717353534768604, -2.9869697599718332, -0.9612965800218141, 2.5360766437198405, -2.72714590245438, 1.1108470230139318, 0.3403617373479224, 0.08339710858029203, -0.9583361200517233, -1.1252109302298898, -1.1322129360596727, -1.4314540603394026], [0.9763389536969211, 2.5630501951523144, 0.39025341221016685, -2.130577353585652, -2.3717303230830917, 2.3443701455097106, 1.8394360650289387, -2.459242446573829, 0.4878688302495364, 2.194855277961639, 0.09881425948821532, 1.3882161315503572, -1.3441688627176627, -2.2541233572865864, 0.0542035989133991, 1.682685029292717, 0.25212247861185055, -0.27336665690714224, 0.7781120181563947, -1.523141463635396, 2.7377221496447657, 2.0043800159338376, -2.581664105354572, 2.5661531266836413, -1.9580852411439535, 0.28550097451356926, -1.9275025924320606, 2.5540797848572234], [0.5087513344771688, -1.024835702725661, 2.8521147143418046, -2.735231102530623, -1.837536655961108, 0.7991457891419511, 1.7763396447072708, 1.0797295314123474, -2.080589359870122, -1.6215640565323763, -1.131891323522235, -2.2385390601346433, -2.5632031794164196, 1.2293451937508006, 1.6928582271643045, -1.303368837240648, 2.3863741176441318, -1.0994404894306344, -1.6341384270436463, -1.5333500528031458, -0.5102669191800091, 0.8497185631802111, 0.7576580517021183, 2.190082386291582, 2.056937510743145, -2.621342273869077, -0.4540457319297655, -0.7103493499071609], [-0.7852889776715086, 1.3865008085116433, -2.8362776627391377, -1.7665849658652415, 1.2167266506322925, 1.958291114207091, 2.617491429644737, 0.28507196887987885, 2.053266771211687, 0.1794339602977142, -1.1755020547580028, 1.7249331837238975, -1.2706376543955922, 0.4525283623173664, -0.18555253970018892, -0.4152724006460602, -0.7560939142761738, 0.07921370629924596, 1.40732102530359, -0.5591595447732045, -1.3818999643624328, 2.6005006142255294, 1.1637749865818154, 2.0532221782287943, 0.35938300725014205, 0.1116283654069532, -0.6838734324379852, -0.24487020376793112], [-1.1949878839684303, 1.8566317044151042, -2.9403851811158175, 2.9161788022839907, 0.27847023759103395, 2.6094667647426837, 0.9230134141819115, 1.925092171837746, 1.3567415423245626, 0.9963116318654768, -2.9991854737435286, -0.7274229574646398, -0.7729506531071775, -2.7560725389865444, 1.1678649244181925, 0.05045595245776413, 0.2638052238614046, -0.8770547355526324, 1.9963673667411577, -0.08034149727275386, -2.861469327909721, -2.2321255690467536, 1.4224257271723753, 1.9866133438087479, -0.35629170107431296, 1.669330719519551, 0.4928980779691656, 2.2097176614804788], [2.8422370928132175, 0.5346588506695902, 2.4446244878193726, -1.4566113457580592, 0.9711977804982972, 2.016987134199251, -0.5591130287902875, -0.9874203439995952, 2.292216958071444, -0.2986780954681514, 2.0228804641597318, -1.0255650223172674, 0.8820661224330646, -1.606113633379932, -0.3453696418285612, -0.9104119862942128, -2.3764399899570026, -0.6612148685212387, 0.3577578616416113, -2.785033280660784, -0.5366323218299218, -2.1947477471982433, 1.1649438317102225, -1.173802655152292, -2.2488355042822894, -1.1225317603318508, -2.1513089731611252, -0.3370131872276483]], [[1.859086797616449, -0.502265923272418, -0.6792235153521329, -0.4197267740747117, 2.0687942447909666, -0.15080145940012368, 1.1227847114120646, 0.33087014527320147, -2.35709686588564, 0.511097127740797, 1.9142907538901248, -2.1090325423102056, 0.49015432509914847, -2.8885713771226693, -2.9672539827859237, 0.17352746521845752, 1.2406432186266239, 0.9027823265285542, -2.7365892254828466, -0.6474072946081462, -1.17682111171644, -1.8584970802143392, 1.8423264406282023, -0.6429263360676494, 0.6690270082864549, 0.48354263019700916, 0.6023709244673663, -0.43998237796546125], [2.2518247432489664, 2.6090447747765877, 2.510129989244735, 0.5864838199495379, -1.8572606386112036, 1.6372305433161882, -0.7236480914328256, 1.841176550688691, -1.7280048000153414, 2.5165762089054633, 1.1813152842425563, 2.7491062015891847, -1.254994704820578, 0.7868195221921215, -1.3634361194627944, 0.8519670789228897, -2.101438998892947, 2.175193181636941, 1.065301253419375, -1.8545733925169747, -1.848363762005258, 1.94282167399893, -0.006726836389757906, -1.3114443349552092, 0.23682509986350642, -0.5755105323028964, 2.040615772271477, 1.4076126619190479], [-0.6728466305115708, -0.014215888597454818, 0.2300519622343078, 0.6594046016120299, -0.6344147081679088, -1.301540098297048, -2.922839710711205, 0.6779590192554155, 1.7179468192816616, 0.5315033506316102, 0.32086891298394127, 2.3118823470661827, -1.839676139706018, -2.090601870495187, -0.914635494454989, -0.267992369196572, -1.243428539312393, 2.82096306901253, -2.9832085331384794, 0.6131241680584756, -1.0772351922435865, -2.813827529122951, 2.5654777426463538, 0.07342689790098955, 0.19775977158384528, -1.7898931078625127, 1.9356100736048765, 0.564166515257984], [-2.255892504032223, -1.8302839447326706, 1.2224004034633005, 0.021440287332429975, -0.61273331041855, -2.4838135816143447, -1.5331055226920194, 2.4291385867968875, -1.9650357846531028, -0.7186082100881324, 2.4902325489404173, -2.136448928538941, -2.899758693839222, 1.6417494831658566, -2.429592089751835, -1.6360293905577645, -0.5032200145467556, -1.5846125914401459, 1.0791044524171483, 1.0550620019036865, 2.967649650543363, 0.11893512572108866, -1.1860190314573966, -0.9673882404372733, -2.0929669745848414, 1.6313704034176126, -2.3713226476183236, -0.08844951663652267], [-0.014148368061668304, -0.18332717071758076, -1.3122228153983146, -1.52342504239563, 0.33698663881984814, 2.979630508243293, -1.0136805366192898, -0.8993768000802493, 1.9807586022342445, 0.5261183766743818, 0.7979835494769802, -2.898372243928579, -0.6658768906391384, -2.278121868052824, -0.4891419486759032, 2.927873694378114, 1.9430759463760552, -1.5096971406351893, 0.3622670890123669, 2.592625040835041, 2.446635841922749, -2.72580460008228, -2.791527201046553, -0.019817808746041, 2.2152368822901476, 1.377154273383968, -2.8118602991096404, -2.948520020309738], [0.44501322472090665, -0.5969226561246352, 1.299528080507372, -2.869285509012561, 1.4339242820043063, 1.5690772329949558, 2.213992774124077, 1.9594337171530798, 2.885534322321371, 2.4732760900786683, 0.3424289994944121, -2.2477774071383765, -2.8241849898174163, 0.2579536600541963, 2.3427936377699687, -2.5159241431432635, 1.2706026865284805, 0.6311967219866976, -1.6000899519538458, -1.206895562265541, 0.19894139820369272, -1.847807485601465, 1.7007687628091102, 2.604839718807746, 0.33822186563254686, 0.6000638364004578, 1.6513659526632933, -2.3895892248959316]], [[-2.6925015324787642, -2.656760264087602, 1.2012263058677046, 2.9883349891982034, 2.97235575965019, 2.2733824394822157, -0.6609617726579939, 2.8663100626156393, 2.668153934328881, -0.14127159197715145, 1.9388347905706365, 0.7670008050879571, -0.09393790445532435, 2.3182559328510557, 1.6000650320728305, 0.1434853909098477, -0.23403317578196958, 1.5040309027581111, 0.8584563214863601, -2.7483255648282237, -0.08857100083056713, -2.0035008169978443, -1.4982004306260144, 2.5200394786911264, 0.4783641620914336, -0.1552492622670978, -0.9860410527704015, 1.7073124517818608], [-0.3591468043300132, 2.3034146185102866, 1.081039152644962, -0.912143603194731, -1.5756236945811442, -0.7368382791974013, -2.854133245055407, 2.4978077374409784, -1.0478034960402531, -1.5245897025871455, -2.4085191835787167, 0.517849866291729, 0.4204830352096076, -0.6945144452309635, 1.7164187466350302, 0.9721225424926709, -2.207039556108584, -2.000981242031582, -0.833530679084086, -2.904394788594093, 0.9809559295342578, 0.10366922438260495, 1.2497448557324073, -0.8308033304558, 0.1355451699094039, 1.6728174633451562, 0.23109570314974714, -0.6137750126000023], [2.530893584752011, -2.6517252435329617, 0.2893282741256611, 1.7503991940318038, -2.5201766995140886, 1.5656067816557826, -0.2056529885345313, 1.341570031907331, -0.6014641451857088, 0.7266586528163046, -1.8838499294005817, -2.7513939052890217, 2.6535373915797758, -2.7735715536300605, 2.8905648972773994, -0.3296811695806463, -0.6319497685148185, 0.3267375075809351, -0.7055866390579548, -0.19185701470690253, 1.4073664101165484, 2.37835628731166, 2.3158108389621406, 0.16646281302885502, 1.681256269081862, -1.3418487160605304, -0.5608274514906362, 0.6373670480204963], [0.3553879726212603, -1.7034842377168908, 2.7689075120303386, 2.5357076206847857, -2.5858458881178765, 1.9628134562707578, -2.7144237649853125, -0.7254822835651988, 0.024762693105305544, 2.195100883581521, 0.1836532910580968, 2.92213477951414, 1.3394038827224195, -2.704362426342363, 1.1789011055251652, -0.01274069240443687, 2.5528187341025363, 1.312575485083702, -2.480572874115662, -0.6558499046353781, -2.557848421420238, -0.00017159625960339042, -2.644682981272623, -0.9382213219608158, -2.4686540166589857, -2.354851567165883, 0.597056775641783, 1.6341129658104752], [-2.485467969526159, 0.5090703926254276, 2.654909959962149, 0.6999572470550226, 0.980213661244846, 0.7277191710973359, -2.659868384860836, -2.0055654143615307, 0.6021765688552563, -0.023030461930117152, 1.9636649322668074, -1.3667013793982157, -0.9935661967969938, -1.3184792479460914, 2.2076188787853965, 0.5818436337767396, -1.3853161997351886, -2.747571792305553, 1.4382101191189935, 2.6133887669359535, 2.4373108820978544, -2.545050232971076, 2.653187991853444, 2.9746281215377923, 0.9890090502683551, -1.1229936301826566, -2.9162078136685734, -2.3550586313294017], [1.7485435991772533, 0.6880834687556194, 2.636889245874226, -0.9270388581586833, -1.432456476793103, -1.825036279990851, 0.013584007352998917, 1.241145071357983, -0.3923723494033453, -0.03013266375032586, -0.310139451663737, -2.54251664080027, -1.7359781361437212, 0.16246148238008384, -1.6914749999752718, 0.28525327791328703, 2.5303784063268715, 2.3865299435699328, -2.9907812437478323, 0.19776198404573186, -1.4246749004334998, 2.333127693390444, 2.719668076466067, 0.8280507727857103, 0.07153678805385777, -0.9963557628372546, 2.499106781480532, 1.913199664976637]], [[0.9598425283268464, 0.18910306174815705, -0.35115260689780925, -0.7652028664021158, -2.9643005986655524, -2.9622577257964284, -2.146825126512675, -2.2447116657708683, 0.9820418582978512, -0.348282868576689, 0.08639262915782542, -1.4593532750086937, -0.5948209690717121, -0.2210027019147205, 1.1917722977032303, 2.0561312142333508, 1.0178677304890416, -2.407532707321941, -1.0974450006889716, 0.3977640843993182, -2.0224746642634743, 0.4771207833741178, 2.8519029713518265, -2.823663874431314, 0.8299373576813478, 1.4062824564697438, 1.866976310119913, 1.413032411949212], [-1.3138003187821985, 2.1526737504677715, 1.2271913954218174, 1.7354886434222827, 2.0616174249469426, -0.8728693382045307, 1.264355865718696, 1.0603169231526692, 2.378209843596763, 0.3175948318288029, -0.9872124173275401, -0.7753632211121024, 2.161561255868233, -1.5379512566112519, 1.9157898700854963, -1.2128839934700908, 1.1134886803045783, -0.017289369465222304, 2.7408984230519264, 2.9737622144296445, -2.6144659515212174, -2.586437131502349, -1.313439047491171, 1.773768982646227, 2.1993810879776214, -0.05928031953566926, -2.616983659265653, -2.814649207098822], [0.48190565335719127, 0.3931098447478476, 0.7437350463307784, -0.3845744531820614, 1.064506916705911, 2.4512996479528173, -0.9527550019646736, -2.047434623377097, -2.6573639516863485, -2.2844814927212647, -2.690811583019622, 0.23128697651769148, 2.6460299285519895, -1.6455556145529988, 2.2834229303809055, 1.1584345919792725, 0.853059694938922, 1.0335227690287159, 2.718479644713888, 0.7967024724546556, 1.8412371390934696, -1.0663622813252762, 2.4545972717104716, 0.37780562494750125, -0.21797175842071237, -0.5774582102914887, 1.1967171513977481, -2.0646980068757044], [2.0298662761454285, -2.5823503632335028, 1.9461921307402337, -0.35240464914769554, -0.684823890040525, 0.08595319861971795, 2.045724760294358, -0.8465614297395216, -2.6713774335335594, -1.9981335760872583, 2.6065972744832067, -2.6169629481307837, -0.932124953134053, 1.1480546234241924, -2.994677571304851, -0.8905371182673649, -2.3972662835618457, -1.3819733007253485, -0.2282911768136433, -2.789464691166601, 2.4845391719938803, 0.9380372116467441, 2.4318813277430973, 0.462957701878413, 0.17638190193465242, -2.4445566389467377, 0.7515847605718045, 1.2583346227487473], [-1.0400749806336493, 2.855138333120454, -2.1495953290420893, 2.8700086464493966, -1.8841094835096046, -2.242200423615609, 0.5204527868367963, 2.203601397709167, -0.42196396220660937, -1.30420319322419, 1.1109231649812479, -0.5958780676983384, 1.3526725622861386, 2.112205209022199, -1.7869947300358813, -1.6518468744566301, 1.450499627932694, -0.29804798653390474, 0.22128354807614503, -2.225699535407607, -1.0748399206180501, 2.4382007483923704, -1.1354908393637186, 2.350272359777149, 1.46536536489773, 2.576714184255981, 0.029580500118986386, -1.2765753907061346], [0.5163909557831503, -0.4491432026647031, -2.855308857022435, 2.0947957452357446, -0.4438846049742544, -0.783587516829737, -0.050949371689120504, -2.4786826474471297, 0.5068749683245848, -2.733263476647468, 0.5725162153118797, 0.6645299541270688, -2.8677947054565642, -2.053509783595227, 1.8548056440732177, 0.5751700998480689, 1.8749258538040872, 0.5463406598117087, -1.6745900334845838, -1.4830488724237345, 0.5438147471192485, 2.6468314654377894, -1.769002293802435, -0.3194439329180856, 1.7299203037498634, -2.4462886135309017, -2.332159583058859, -2.2907242244261274]], [[0.8108182631205039, 0.8472202652085423, 1.5361876940917067, -1.20793655219949, 2.6079630123044613, -0.8225135884658012, 0.861300223351285, 2.940123751095798, -2.74970861150715, 1.4031777330030648, -2.032720700298876, -1.2765712521619519, -2.527100570744735, 0.5566787328431921, 2.0237717395610773, -0.1441015862871451, -1.4030282491752184, 1.2864216071223273, 2.5023528786234026, -2.7013250267763897, -0.5429709874616613, -0.37485886990713313, -0.45962735683248557, -1.6673429566427944, 2.9227714577029076, -2.4782250685070286, -1.9073162142557079, 0.9971592913109992], [-0.34802467823186367, 0.11523150033899521, 2.925290127183592, 0.7174126937569305, -1.0042981776318989, 0.019383133777901573, 0.6576826058499692, -2.129177629917102, -0.7472359080996744, -0.329293295648625, 0.1734968133621475, -2.329488038136116, -1.1246662422126006, 2.0987723911580183, 1.3149478680721245, 0.38743029453506983, -2.9348109163992593, -0.4945650322032442, 1.2436804598521194, 2.858979017602026, 0.014417950872962493, 2.7942398726316418, 2.9387992101434257, 0.7668158669039826, -0.041563854885628526, 2.0587383527234824, -0.5045122425298616, -1.1695131159356034], [2.37362009114684, -0.24236793401743295, 1.0798211728594937, 0.6236128645493428, 2.421187969829914, 1.9041857949088445, 2.5502558193217606, -1.916289567730206, 1.6336268298887893, -1.7861553571306306, -2.6435386778752976, 0.6131012480981131, -0.866770858000451, -0.6915091029136118, 0.7761713228032732, -1.7390747699492457, -1.8477775680873902, 2.8890513326841134, 2.8239237301284277, -1.264237053792465, -1.8053202895223706, -1.930324712137369, 2.767913717944486, -1.4413252112592514, 0.5495609781924848, 1.114679539689626, 2.4733860366632445, 0.4253693077962253], [1.6181301137588449, -1.6067954315920856, 1.4363818078887816, 2.8241716677921342, -1.1432026137959603, 0.9040467507785568, -1.0530801946404835, -0.8271557655340542, -0.06353585051043398, 2.497795301475527, -0.9238207373996703, -2.858663710108601, -1.651339163329408, 0.5259736581432151, -0.9165921706089124, -0.9436888289417209, -1.8424745312813495, -1.94710430928348, 2.491345748805946, -0.3995937344212077, 2.745663642215728, 1.0007055009316002, -0.10238574877329842, 1.5523949011488245, 2.8249267137228564, -1.747548814215735, -2.221738041583377, -2.2900996017184685], [0.6799218841434076, 2.2683105219478783, -2.5864675545175393, 0.952953497184005, 0.504452823823768, -1.1059314095490205, 0.6802318249983603, -1.5778075196619332, -1.7469713089267662, 1.0623973483802267, -2.120379487802733, -0.07761344275148563, -1.1372479624274856, 1.7707195315832394, -0.08312487054412099, -1.576423634598681, -0.42081356909510426, -1.0721550427194761, -2.035709317343701, 0.2753746834036037, -2.503977811029774, -1.4330258338354376, 2.458422349263648, -1.9524950202900984, -0.05778241422327213, -1.4260675478157963, -0.803381794456655, 0.6106016526747862], [-0.8794504086273354, 1.8791718453296493, 2.490545403791833, 2.5149298292638775, 1.834724714585196, -1.2104968310797577, -1.6475320827996793, 0.20264433014694294, -0.07184406305260271, 2.2016405922690643, -0.3855520269612702, 2.073499482115219, -2.1557107939098556, -1.0871450297116536, 0.22630038437472244, 1.1417469487297982, 1.6959423008527876, -2.976546077107036, 0.9979596011952765, -1.8043495414489956, 1.0577102899588695, 2.0669372486375375, -0.6808799449787339, -1.2923292159119373, 1.738372788357407, -0.6066566393531918, 1.720545468600065, -1.4771751347191941]], [[-0.2257632224049715, -2.2774827017275117, -0.26977271854864515, -0.8202021804471356, -0.04605108467798136, -1.1189728615939722, -0.2735169284897405, -0.9374186311444159, -0.3426817648282414, -2.818414650548753, 0.11006549881815575, 0.0161805586321222, -0.003459762123951826, -2.3311192122519238, -0.8603777119942517, 1.5887129474590358, -0.1769151422155968, -2.523973231961299, -2.623600891741262, -1.5501147377083542, -1.7731930569638612, 0.2862574935691802, 2.8624131673738837, -1.8736791803653952, -1.3552254561570176, -0.05165867820907799, 2.72297066911659, 1.0467254230702414], [2.676229279943918, 2.038273429911107, 1.4772965591158949, -2.1380165034534215, -0.535025871209601, 0.23326398629379952, 2.963013557688173, -1.5314109016476918, -2.295898418703797, 1.6400927526332287, -1.5322136643570297, 0.22331701434733242, 0.35557451650740735, -1.6788654353521457, 0.7192161305152291, -1.1744920333725948, 0.9801160212488456, 0.6900345248923827, 1.556477315383317, -0.32121321743954745, -2.9671713554198513, -1.8461365902969962, -1.484673171120437, -1.332361083913404, -2.791380968780919, 2.2241223877128515, 0.16146991698806534, -1.777445520477339], [-2.802127920034063, -1.350113233738924, -0.3697064936396517, -2.9549869253275514, 2.1590427144094217, 2.7196196329658004, -1.4720103533422233, 2.380343834462985, -0.9721908237363657, 0.8958167149127925, 2.160593902195595, 2.2880719513663905, 0.87849510340377, 0.28198436245406366, -1.9148781606927683, -2.972324662642815, 1.695105839117728, -1.8749305552859021, -2.860969717418008, 2.916479488024912, 2.4323337911545213, -2.2047144033993016, -2.1484377314474457, 1.4372011815376364, -0.8022282799112368, 0.9495750025690244, 2.9125068356203174, -1.3253273021369385], [2.193782343156486, 2.728059265090552, -1.9226166568927325, -1.6213611248459507, 0.6277668131916201, -2.8367039354724994, 1.170117423987472, -2.172775148775337, -1.4876077411113993, -0.8587139626454872, 0.9420709646030083, 2.5709254936610098, 1.628142406267723, 0.19555456576197106, 0.2810648252368222, 2.08735541952702, 1.9340342871793972, 0.7022480685982435, -0.9674382865025084, -1.8484613426262002, 0.0748758846680504, -2.6781830064268313, -1.5620934292860036, -2.123991085427763, -0.8288513086622942, 2.297368899803976, -1.435840080301594, 2.1734191524065993], [2.1672957450669736, 2.2284600408962545, -0.03150192592794543, 0.6264524083077898, 1.5238282756534751, 0.9887726234859979, 2.600726429975728, 0.056408229879612914, 0.5809777706726154, 2.7231369401757073, -2.462133399700625, 0.32412600834392347, -2.723245236727595, -1.4689289493159192, -0.4251519219610218, -0.4310068335973982, 1.1156350671699373, 2.3871925207289006, 0.8229165538908867, -0.1162310370240931, 1.957109432690297, 1.5304625648982082, 1.7702276081288035, 2.273746383295242, 1.9293657360662309, -1.9225165152015578, -1.432583551099122, 1.2686462990619285], [1.4731804820175833, 0.4359318171037945, -0.49787038890690116, 2.570919218142775, -1.229611707765018, 0.6366515392068646, 1.9544412176286023, 0.5037467737300654, 2.1150353252675664, 0.7370311356358421, 0.6315779838777642, -0.6998291874840326, 2.3863187522104257, -0.5573832074083893, -0.7097926726061985, -1.3129221933985369, -2.23744208378951, 1.2881541052268197, -0.9165579651956381, 0.8010974500085766, -2.3744301582994742, -2.9391651827659686, 2.468092996078882, -2.1007156591415974, 0.5801815951670664, -2.520075722483946, -1.2969145882910809, -1.4905077903040775]], [[-1.1979433056516273, -0.6470609203777036, 2.5150422419901775, -0.6016543287801097, -0.8652686532966793, 0.9453559988395912, 0.8537895828114443, 2.7971408667545976, -1.575040757804575, 2.9867001872424908, -0.010950054485766358, 2.7322466957016367, -1.6178546581127915, 0.6243966129554614, -2.1681821601128863, 2.3570761816075185, 2.4313394343198524, 0.7216353162434541, -0.3299026491529329, 2.981280259186307, -1.347203897785286, 2.491894947050363, 0.9009576113626885, -2.3083966307398467, -1.6368071742166703, -1.6299219391016804, 2.9017626159585985, -0.7859762045833119], [2.516901875331337, -2.2390072108777748, -0.799343951847225, -0.7309898593348012, 2.228630300006766, -0.018054303191267884, -0.9285531154587923, 2.452285285532536, -0.7416341211110504, -0.7575783454172575, -2.6635213372503994, 0.2610870908041978, 0.5299552902062277, -2.8111553646293412, 2.8401726419895637, -1.5717133668364804, 0.2376535313394328, 2.425221401547497, -1.7628783428200143, -2.9651016121904337, 0.20772102352860866, -0.3106916438715346, 1.2617044678454725, -2.8294574259260505, 1.9614315684145858, -1.9421513289782177, 1.8167469860635457, 0.9476128712821792], [-1.596893645578966, 0.5180048413581693, 1.6426562418758257, -2.2308886522918145, 2.672338976150975, -0.002370346324284789, -1.9793898806234458, -1.203236493475772, -1.2342129312135413, 1.0188148824539063, 1.2324893567137067, -0.4091515750981425, 1.8140420791863194, 0.7003063215810115, -1.9405394632745523, -0.3212635298514894, -1.6037763620407226, 2.743795107965701, 1.5978971221987397, -1.3205623159819384, 2.559597654429771, 2.882759702066818, -0.5194861237032216, 1.2909851840972486, -0.020612471227272167, 1.6767850076849022, -2.582251517681972, -1.3366065449271602], [-2.204211496558108, -0.27618227070549306, -2.05214348406262, -1.4007555315532587, -1.0845436548936052, -0.8020781062481479, 0.9714669793554016, 0.3462769640615231, -2.789488153913756, 1.8991921535264842, -0.3086762516627015, 2.1248416495551083, 2.400766186855119, 0.5033176204037253, 0.9870570758437078, -1.1242488649288627, -1.2215256279745665, -1.452761933204969, 2.1270810493768915, 0.6628140852312603, -0.7979481898600431, 2.055752614801584, 2.030378754816632, 0.7789948363985646, 2.4812523015351102, 1.4872934558706792, -1.644442146118284, 0.04977123283453411], [0.3039724904658119, 2.2930485561201834, 0.9786373902106069, -1.1370552353261683, -2.40962988878161, -0.31622454301724545, -2.2942076656459, -2.7147456883928385, -0.03578514493094653, 0.8329085494000346, -1.0506872304953092, -1.3914728922312736, -0.025534052501528848, -2.271268421586649, 0.49580226945817074, -2.187851829920265, -0.9432854634943721, 2.0348209331795575, 1.7218857999206367, -2.5054975213079445, 0.09662430002147726, 2.0561139391523024, 0.7964143635252268, -2.934003929209652, -2.9119727516804366, -2.614413193333747, -2.2685989771619344, -0.9510955740814655], [-2.534331251882647, -1.4993924567704704, 2.7789729408231993, -2.384553236803203, 2.2995716361126206, -0.2978948113830451, 0.7807707711959329, -1.357436368812498, 2.8030636599864414, -0.04567274046398673, -0.7372464470480011, -0.5544557044917435, -1.179184768606317, -2.9973612026873617, 0.04559680624460816, -1.975720128218197, 1.5879157284078733, 0.28696728607941857, -0.2617141888312, 2.321187841669774, -0.32834445097025533, -0.19946536456764852, 0.9429433660727256, -2.222794433045914, 1.3004504173858207, -0.2472445555709779, 0.9038969049920702, -2.9097786726151385]], [[-1.9867998293802633, -0.03695033828620087, 1.8307842826380387, -2.7602867018500152, 0.23831587866286874, -1.7784338390336205, 2.6523659410271154, 0.20164017954536595, -1.8620366879594532, 1.8454945301735943, 2.654018383443037, 1.4932711569434094, -2.2527470502712843, -0.9473735609296288, 1.6072282293045763, 2.261200892970642, 0.6806083957431142, -1.8064054708308492, -1.514776612045161, 1.6663357846078855, 0.6032503790689621, -0.6581426399777, -1.5882184150633705, 0.2560892484553836, -0.5984680668933477, 1.6171949161381498, -1.0116659550923268, -0.19720758893973667], [1.0748765187442633, -1.991294874825048, -1.1041484752412647, 2.35700749360514, -1.2609725497652784, -1.7096875931490356, 1.0756892074116617, 2.7264968247902557, 0.004945621991430116, -2.1702220404018133, 1.0357526773709207, -2.133579937190755, -1.3933849246942587, 0.6467173083894275, 1.0455331799907777, 2.493592534399629, -1.6109956121891957, -1.8755695208030163, 0.45029651844591356, -2.3234637404124467, 2.8826015480002685, -0.9497943969557014, 0.3994824257455942, -1.0653609584756139, 1.2619217777402412, 0.8208812819819826, -2.264488480712058, -0.48363734233937894], [-1.0892519982953708, -2.7493272078219437, 0.5650317160254357, -1.9560745835837101, -1.3825720877067829, 2.725426126369131, -0.7437015244809748, -1.655837477507674, 0.9707498260078733, 1.6493532796688841, 2.689464823505432, -1.307510802688571, -0.23046065455681397, 0.6309324870536597, -0.7518447769609762, 0.6358881206225435, -0.2679176498218725, 2.85498997730359, 2.045931401710634, -2.184448417801173, -0.24655514371441178, -2.8864510756895854, 1.1058449248882605, 1.7115170978459187, -2.4382351085821607, -1.9351614544458222, -2.97056855109372, 0.36130157434649535], [1.4563257021548157, 1.9973783026714091, 2.0748814320196374, 0.5044546471232003, -1.1635248268788525, 2.2897485589939937, -0.8068108009395725, -0.8469168276674086, -0.5755904586593736, -2.3396811214635402, 0.2260739386120374, -2.7817331327667696, -0.15424847513995577, -0.3575393342324258, -0.9306808023557114, 2.3247328638992384, -2.27600763411061, 0.8982804547802083, -0.876099309251479, 1.6831536338092565, 0.12386435172148857, -1.6206445085148804, 2.7945192419642897, -2.0131323977349034, 0.4293850324540225, -1.4265020588267598, 2.7755562530131774, 2.166424061258412], [2.0858614839578475, -2.208668438590794, 2.082535571448136, 1.7245636650555562, 2.7617264690121193, 2.3639916271864667, 1.526330478013282, -2.251542989227393, 0.2656007685229813, 1.7406860093213359, -2.697877792202359, -2.345748324084017, 2.6241367671652363, 1.7049539344984384, -2.179022919032037, 2.4617642910005735, -0.24515408283323126, 2.1719295038734767, 1.2377028260945444, -0.8129513078723329, 2.9222056887462333, -0.49822208216123, -0.3975688202073906, 2.1142673818023026, 1.2238924077888909, -2.272856759749558, 0.39818879668769824, -1.879576646628237], [-0.16393088311640636, -2.7287041462194876, 2.0883926741419927, -0.9838728959768579, 0.7554381383117352, 1.3421751729720537, -2.0336880640303, 1.450003918549081, 0.308957977374579, -2.585167466468664, -2.537140492013892, 2.9028098115517915, 0.25468537561054383, 1.1916223747967365, 0.33007886646482465, -1.1137721367863915, -2.0737868217848656, -1.5157110494457, -1.9027359583187868, 2.2186338070036173, -0.5569624174924899, 1.8356570321795935, -2.9619857824158315, -1.1092053089104583, 2.2312194720925493, 1.5024462131965848, -2.176676604995379, -2.31186565626407]], [[-0.136904075929424, 1.8434158053253187, -2.277127846282126, 0.06674000058404905, 1.522281090810539, 1.7840487329656272, -1.0751371464064357, 2.7208156358065443, -0.09864032737304873, -2.476334868198588, -2.084080653804243, -1.3254470500051498, 0.3931036261685099, -1.9908996289548233, -2.6537040208704354, 1.456747530356929, 2.384752720964209, -2.9489895888652526, -1.0740601802721692, -0.5609448757590494, -2.914793585368723, 0.9757218791837721, -2.25112831862811, 2.825837334652472, -1.5507881250804187, -0.2388622640424991, -1.8696583186870401, -2.5084392083608265], [-1.652843373760541, -1.76977078637241, -1.4081152501962113, 0.5183310158678243, -0.7902839602154614, 0.8678673324644404, 2.2390712962193273, -0.1287632624325883, -1.861468141521666, 0.7147304677504236, -0.3035735293056545, -2.198265271151953, -2.5164794569872413, -2.719532883466419, 1.850391716842589, -1.4304697289003454, -1.1955458364917304, -2.3397518487438873, 1.0095136114711583, -2.930235321436109, -1.3076592619399252, 2.6830732732552516, -0.4056939264672472, 2.5596255288252108, -0.969239039227789, -1.232042117587615, 1.0959829723629593, 1.7949471383749804], [-0.4816698312609726, 0.8094914639113822, 1.1507974885630832, -2.4798458151728555, 1.447180876205195, 0.3886141523575892, -1.8179318864834952, 2.1656308798260975, 2.3216890825821475, -0.5942935599641528, -0.46202983233230466, 2.2286310223698766, 2.940320380686746, -1.7968213695835613, 0.4740372648433677, 1.7274660007016287, 2.411686635669403, -1.9638382665822258, 1.2782602294595833, 2.9130496996143487, -1.5354077933938297, -0.8519640432444571, -0.23675661182868524, -2.5489883225107492, -0.6816927432683126, -2.1039936555421628, -1.0522937808689372, -0.36355165483642526], [0.6678042368494239, 0.29264724938869957, -0.41667325016370427, 1.7562061256904808, 0.054626180006377645, -1.1873038271673035, 0.5535971222710718, 2.291926269739439, -2.3151595647161063, 1.9935040940820592, -0.33088776936789444, 0.6805914229352377, -0.42824574347043587, 2.147951983773061, -0.7062996704575708, -1.5816551639214464, -0.8509023253055474, 1.167936070892213, -0.1284176159241195, -2.652391873365882, -1.6958261304371458, 0.4364420800529212, 0.4100676642526526, 2.4143538698447253, -2.4933955231208342, -0.3434364137241106, -2.4619401369858798, -1.8632398006605373], [-2.0851711289374535, 2.187440679748179, -0.7833260986701172, 1.0339852855938396, 1.949965325548872, -0.25145992795681327, -1.852553125321036, -2.6444138328135245, 2.0401477095853187, -0.3798890373061927, 2.3565889260068795, 1.446993159894765, 0.10234547343557487, 2.2578268654543754, 2.0488584767377223, -0.16570708457761185, 2.995535294799674, -0.5234030512332444, -2.3254974606730627, -0.47538475148584824, 1.8570243699168554, 0.835860107180018, 1.4378117200726468, -0.8471310000759553, -1.0346810612868615, -2.623336241911603, -0.2038364111608506, 2.7983370736478044], [-0.4856547322382525, -0.6041797318168438, 1.9309804510962243, -2.968457813713064, 1.7476521232721574, 0.2859399757622487, -0.8572980066271612, 0.8495343147346301, -2.6529581958643917, -2.4077749995885487, 1.7235759204568506, 0.5455796453186528, 2.2754473399579878, -0.6725794735227293, -0.535663202212803, 0.6453222394149849, 2.4564744201022943, 2.116888998283309, 0.21126649095061723, 1.8409809115880948, 1.3820602039690968, 2.995692862642601, 1.5605235939363737, -2.1183667402003015, 1.416993979864622, 2.055532922990494, 1.3839225594404816, -2.462332492377863]], [[-1.8979059361221267, 1.5937639154965586, -2.6299118378357162, 0.8422037729435905, -0.8877011878033199, 0.6121142420437136, -2.121704334793595, 0.05526764050307387, 2.3401640619720823, 2.0426067492328714, 1.1393690037185529, -1.7330436299036103, 0.04460690377722898, 0.9100779110700645, -0.3304816973554372, 1.414058928641988, -2.269069282592211, 1.4694188592814124, -0.7106947799429304, 2.467973411538696, -0.005517622319038296, -0.8367062859919585, -0.8823411734378324, 1.0792090008628703, -0.442318766535994, -0.6123227277545222, -1.2442718949213412, 0.9031058718489051], [-0.162008003762943, -1.8690742900869135, -2.0732069016589025, 2.322962053998576, -2.3546541240081185, -2.7586441235242907, 2.869893193870767, -1.6134117725777521, 0.7648871640799961, 2.4046933235929284, -1.3221262961947127, -1.5257740465720744, -0.24733648369576056, -1.3379030772748748, -0.8101088623215627, 2.2228810302628084, -2.582089963933572, 2.2984763347389334, -1.5031399465690916, -2.1874818716546547, 2.414519345159065, 1.738870488578562, 2.2933254356376995, -2.4567452652726467, -0.8736705114237786, 1.843977415893285, 0.16969988120032786, -0.7433570113732397], [2.1834755524907887, 2.3290996212962645, 1.2680685665059164, -1.6100652345314586, 2.743452833379145, -0.7318033862299984, 2.9360983446670623, 0.17793256608214314, 0.5226930308927225, 1.168890612206301, 1.3637211200772832, 1.3252652490500774, -0.8851251813661305, 2.4957829593663963, 0.4852952531467061, 2.815117377630533, 2.99897397636924, -1.5517240715783602, -1.276063334921087, 0.8981953557236868, 1.2374367344694956, 1.2827962846660776, -0.45287386846156075, -1.9948874083802233, 2.669180831437928, -0.20217528844520416, 2.6565066292003108, 1.26990978301584], [2.256512337426572, -0.8579227761093167, 2.64366480337452, -1.338781904590004, -2.352644874313766, 0.17400565696332126, 0.9056918712193189, -0.04729247118134339, 1.9232713736334004, -0.34765168310735195, 1.6903296129997019, 0.6182259661257388, -1.0478592992563558, 2.621171108954023, 1.672565533568246, 0.22144651795586778, -1.6031448098757133, -1.9816144999124123, 2.2467445099121823, -0.055586707786244194, -0.9807747495472929, -1.5600593149452155, 2.862917276748167, 2.7208220659768516, -2.86118492016553, -1.8508746117427821, -0.12888039963042974, -1.6268743144293636], [2.511558542554745, 2.178640176922997, -0.9705643227319687, -1.486893101051978, -0.8884830474928487, -0.3704042147766584, 0.8753519827780734, -2.99063978970375, -2.2031020328294972, -1.625640782023497, 0.7944000130692572, -2.976285739485906, 0.6154396000045814, -0.650205182588028, 2.8570475052184374, -2.472743485542679, -1.4489955794703213, 0.9667844302067863, -2.413751302470413, 1.9791539768237687, 2.190262015871159, -1.3400791715055105, 1.5944970880334859, 0.008290906497662398, 1.1278748620905557, 2.499498100160597, -2.371451739949838, -1.3375701705224032], [1.1191380314891148, -0.0776296459437793, 0.1689290568046964, 2.9797236863295975, 2.459292322379617, -1.888870478318174, -2.3456612388822773, 2.2858587942889503, 2.6657742177946515, 1.218209703852267, -1.852688750381158, -2.9523770321714418, -2.047241157403168, -1.9749584447163815, -2.9583674826755093, -1.1852242832145472, -2.6411204022642902, 0.05849389833129193, -0.0752568693708584, -0.10003596933049508, 0.11371432161137829, 2.268785475926868, -0.5409423456513274, -2.9410662128909912, -0.13787618817808234, 2.5626659689226052, -0.8593570123990437, 2.183208304293485]], [[2.315183068787471, -0.7288900155726101, -1.1867647854370749, 2.0404498979231596, -0.15729221487898348, 0.9951288645771941, -1.0636078889805476, 1.4283541550093712, 0.560505354383884, 2.298479591736439, 2.394786006491704, 0.5237053763392865, -1.0896072880069865, 2.6203585125562467, 2.4266320442876452, -0.9020190233760434, 0.7203076312146344, -0.9018598433530336, 1.8995417912006163, -0.6400210841786551, 1.430458878486533, 2.970128555402189, -2.9105305580233187, 1.5175754580258856, -1.0413363410011975, 1.3351800976286414, 0.3044167105427893, -2.690425756289228], [-2.0707415725230787, -1.5136240657822095, 1.6190474072021992, 1.8652956939289478, -0.14825913102034116, 2.6730234911220148, -1.8106947337831905, 2.8835524320391865, 0.5747567772886626, 0.5346165880764628, 2.2239729990682635, -1.4163071232616231, 0.20062174894403162, 0.1325521056175143, -0.07101432499859284, 0.880730462878542, 1.7343320696056637, 1.2194472169145207, -1.4159120736264958, 1.3443098171051577, 1.986511220474517, 1.7593726118446487, 2.892146621347548, -2.1434468548880403, 0.15907888123781078, 2.083994621482532, 1.5697904389539303, -1.8709521293912188], [-0.7903664574196778, -2.40461937047676, 0.5962931761255916, 0.7222447429442553, 2.880338274408503, -0.7921032458178701, -0.9322951706725227, -0.0005282992015653853, -1.6778408628689416, 1.0660849200415203, 0.5268990046022539, -1.412865379258336, -1.6521176173246457, -2.026555292276118, -0.8297436647320948, -2.160114627085898, -2.810147126786637, 2.8874464803887125, -1.123930038174296, -0.5824132279349326, 2.823124150426967, -0.4492472304994113, -2.288876958000242, -1.820423777218758, 1.4159998851688762, 1.2638310646834139, -0.9731667765504897, 2.6135107341492496], [1.1567421644940197, 1.9016567448737192, 1.466737410583157, 0.19595149036556592, -2.0853599860128265, 0.8558633588479063, -0.4266242314674682, 0.29137414105717774, 0.9338589967713533, 2.1195380031738713, -0.633211470192359, -1.950806030340424, 2.423847476388774, 1.757458996627312, 1.5490970686355077, -0.21601836240454464, 1.683608094662823, 0.9451308767534368, -1.2382480499367963, -0.10407720176296387, -1.3285938956513996, -0.5710695380955588, 0.6049146782140875, 0.8973921578438322, -0.975499117464139, 1.1878000584404838, -2.5909240191052207, -1.9686052051260525], [2.294606460298361, 1.4088236441836823, -2.461137822710821, -1.1666965709454085, -1.5969976086628617, 1.704301062548355, -0.6771194749207412, -1.1412717493253686, 1.4944988504658436, -1.9470990826793892, -2.9102966630075677, -1.3105032352506603, -0.5419982083124792, 1.6325701593429738, 1.619247285129501, -1.9387987202131378, -0.24272261469783762, 0.3647694386985889, -0.7275922017567416, -0.03330219991209038, -0.11718178200952822, -0.563856997025427, 0.5401526295004642, 2.710611051597974, -1.0009728086811638, 2.426800866086957, -2.856774787905304, -0.6235450964243112], [-1.4344080033128184, 1.317415379373652, 0.4202602733490175, -1.7051829002195005, -1.7237800025479397, 0.9390540514862415, 1.6459474484920609, -1.4076239436936333, 0.5240237409350987, 0.3737379226547297, 1.5308235274803703, -2.6034548388047343, -2.913336972728831, -1.3781814165053423, -0.2741183834483234, 1.4428849136137236, 1.82640388028046, -0.63744848718855, 0.6399229388218606, 1.1210610616494225, -1.1610862229864547, 1.3637678131925455, -0.2981504096754808, 2.608849544482024, -2.8316033326897374, -0.9965696898996872, 1.9479679872782611, -0.7007394676941079]], [[-2.931335923005676, 0.9307221032628448, 0.12353599690698847, 0.32414316359899686, 2.1685009362920944, 1.4649138345920738, 2.1253158236995837, 0.4482928292142443, 1.1334093083021761, -1.3836881942170276, -2.147668208662388, -1.9458644755392698, 0.2954854787844301, -0.5782100820328462, 2.9185031755985413, 2.4574247288804667, 2.1064125166133003, -2.318350572384139, 2.4851023889661974, -0.15754513777186752, -0.2391435602354628, -2.813022908464906, -2.584149245139839, 1.8673465207176898, 1.7574610295071773, -2.6813423025797354, 1.1090210596970742, -0.6145031990061742], [-2.3963228471559903, 0.9916493710053338, 0.5971783893168094, -2.3362501483163323, 2.2574935464390684, 0.48552257419755396, -1.9328266288104416, 1.922940905393637, 1.0238976103219652, -2.764701053476702, -0.003188765467131649, 1.6455504750510377, 0.20068662777127866, 1.1648058298403203, 1.142834218844495, 2.3966238236831083, 2.690646779049631, -2.379982937368011, -0.7850897851290766, 1.650216226013729, 2.365343056569068, -0.016662618923310113, -1.7315283460691164, -0.6916778022962253, 0.2786865653651196, 0.08390438162925395, 0.20456435065266643, -2.52157932193718], [-1.2764508832140362, 1.7241013502023748, -1.3758977955299299, -1.411162654193408, -1.325693869839009, 0.6980417614192524, -2.6439646215964885, 1.525750497112913, -1.9187321800522275, -2.46802124360155, -0.3962702577085473, 0.2875573174466566, -2.554559720201916, 0.360333218173146, 1.3654255904608723, 2.7106010457439584, 0.8490555100995723, 1.004165549218567, 2.506133565169364, -1.809017089465129, 0.6299093014143353, -0.35502475343162265, -1.3346907832966683, 0.42026831252128716, 0.06220334589085352, -0.7227047622608405, 1.3132668771411495, -0.812981181446963], [2.075511970630296, -2.3541671507645967, -1.091492401434413, -1.0672576380508432, -2.4097198780239126, 2.8060340398052457, 2.4417867827415147, 1.3173494983362337, -0.3688260199014448, 2.1895688050739235, -2.743748458109078, 1.0512955151732672, 2.467594650890784, 2.849681431483372, 1.6269726319131133, -0.6338403114630045, -2.59529999603715, -2.2860123829904566, -0.8853314460600119, 0.4813094536692706, -1.3538334313202922, 1.897348307117392, -1.6792657900620271, -2.0961791174959625, -0.6189692548133836, 2.1200542992630265, 0.16245993987229213, -2.1195402614333996], [-0.18831095870555759, -2.8628589596651173, 1.1321107822802734, -0.6511525432453555, -2.3727618868921874, 1.6626198445654703, 1.7219806840691714, 0.7017109172734193, -0.1153052884717729, -0.07405238079185583, -1.1130507490886048, 1.7944031254350623, -0.8860943952761366, 1.9681415217506073, 1.3679696878931713, 2.8909986576827684, 1.1794819870639017, 1.0911521499755095, 2.9009892106873707, 2.5972253287725957, -2.038565074947906, -2.6606691355702843, -1.889529093991134, -0.3974247815187666, -2.5888527596925974, -1.3553872818111632, -2.373050706367222, -2.0115065560829724], [1.888631545997173, -1.889053257310215, 1.1346723299330863, -2.6702025464056307, -1.6874133316190407, -2.610459742506454, 0.10558779238407956, -2.9009024888691473, -1.9656400273402044, -1.3251073756159972, 0.23762417117539325, -2.5493334662317357, 0.25484794208239414, -1.3596935687800142, 0.8412532121282643, -0.340148167552055, -0.12101684252993739, -2.975996262693503, 1.3577238651422912, 2.8024204102797103, -2.7336291888258053, -2.8898075020252847, 2.633129191380748, -1.6871889998942058, -2.9523457843327297, 0.6441802670190926, -1.902006353444844, 0.48355776155333263]], [[-2.2337439527759164, -0.9461041725834454, -1.3016070267177815, -0.9637006409748334, 1.7096316010733688, -2.7576513967318705, -2.48080953610631, 1.078654091714263, 2.543052939646069, 2.4489724600354545, 2.087309746664248, -1.6673744813204214, 0.2820271803260237, -1.839033299080752, 0.34855997921554716, 1.9685222801667877, 1.1949825172520425, -0.37549755187508316, 2.587662091391854, 1.2002518833781721, 0.7454831351122744, 2.1809556647424886, 0.7254922896988258, 0.9858826786717909, 1.919287644420696, 0.13370450404979906, -2.227757145930532, 0.1253878715565926], [2.531064320986114, 1.9727082415855497, -1.9928535984714488, 0.05152151342786615, 1.7792699003538122, 0.7735093018648858, -0.9269688720914244, 1.2672984214255916, -0.7588554915748742, -1.411019077883999, 0.7101798074973242, 0.8983262762760393, -2.3656045266158863, 2.1890965236464615, -0.6428708260947702, -0.8579834336351038, 1.7412808759888234, -0.435580916925137, 0.899814388782878, -1.7799648614875374, -1.614528870375473, -2.7518650495799415, 2.101239483867011, 0.8884072354611847, -2.860850341017315, 0.3321779585241136, -0.964460437184949, 2.399362102287026], [-2.418788928275471, 2.305621720961163, -2.664063074731522, -1.3040369592345518, 1.4578460695699285, -0.6002039199510358, -1.2039679534667862, 2.238035708021825, 0.22981897071891222, 2.8277638038701083, -0.7838899412993996, 2.977565096387803, -2.0110567144938987, -1.2782478166771163, -0.2809419063654368, -0.3940015663202443, 2.10925282921409, -2.273563353504318, -2.227925818248269, -1.5126371967202406, -0.29066625845070426, -0.06121079686324027, -2.605965959852294, -0.5359140526013766, -0.6146118896293427, -2.8216344579464154, -1.5529917855507467, 2.440410014196627], [-0.2873861115049179, 0.15232983022735258, -1.4998201921636485, 0.2647113075967438, 0.9828545803600868, 2.354871790163801, 2.688936285454056, 1.192942833544354, 1.6982443900828166, 1.7411525362068687, -0.20965761768618751, -1.5310580405654983, -2.8984665365561413, -2.391566310730905, 0.9321762131303988, -0.4076799575965655, 0.7419611324889317, -0.3626038386907169, 2.432864712035327, 2.874545866257474, -0.7988819413881236, 0.3907575899501854, 1.1698829051348962, -0.0665855746163615, -0.9335684131939543, 1.3339469033878242, -1.605183844979467, 0.17914427364593966], [1.1089833891295795, -0.15859209683539444, 0.13105552143998178, -1.5650159820467968, -1.910145855784497, 1.5318514724138055, 0.7953290128546282, -2.883337882508649, -0.4937587491390927, -1.2195442280913849, -1.5799527889350897, 2.366848250503626, -2.9855940315812672, 1.773707267287488, -2.4020041967741292, 1.3949181702198326, 1.931142638316155, -2.949796466460384, -2.9716704427659657, 2.2849500942154357, 1.6043010716960824, 0.5108382803550375, -0.29247477807774214, 0.4907823349903424, -0.9744168602327656, -0.0028598446400898148, -0.38848797225812737, -1.1111833002614795], [-1.317667570587093, 0.922709327813874, 1.9825984347040055, 2.6962973463305806, 2.2891530897245858, 2.6251413914254913, 0.6850500324837876, 1.2666382059019226, -1.7013379515175617, 0.9207733792875725, -1.2736014501012174, 2.841680889415609, -2.337155923078093, -2.6726034207814138, -2.691618753642861, 1.6505234898216, -2.9426086269443466, -2.8259466836744553, -1.5921239224830976, 0.9332734260224838, -0.6620533031888316, -0.8559933318912423, -2.0402625030185213, -0.5750011724275783, 1.4735442827146112, 1.5438973606093853, 1.1809315273287853, -1.5064667872405513]], [[1.3591433346479098, 1.1835387200901009, 2.465004728932308, 2.986547414037383, -0.19727855788492654, 2.7404025218139365, 0.9890865504976887, -0.04893166830022011, -0.11826996031311676, 0.819555299736844, -2.700568793455959, 1.566065142353489, -2.933385724977027, 0.20001529968141618, 0.008351333279520645, 2.030273848972733, 1.0854493641000111, -2.5989053499171124, -0.7641110244949418, 0.08375711092969595, 1.1378805009277313, -2.5821947776104484, -0.2379932096631645, 2.586541599176722, -2.8360115114783393, -2.9155019645284432, 0.6502543645465151, 1.7815193265263733], [1.0880649720273166, 2.676943740142847, -1.8004679086783308, -1.1790925420773553, -2.935096045998692, 1.2585941965946192, 0.8600098067299067, -0.5074807937133752, 2.425200219283454, -2.169037665008088, -1.365506487513769, -2.901089630089833, 1.0324931134230155, 2.1259480241612447, -2.6458839781587407, -0.6256516724887629, 0.7998135029983517, 0.6696898621925378, 2.023580386689952, -0.4953171757831427, 0.6313334678614559, 2.52953809140421, 2.1279191539454256, 2.269597062996633, 0.28578143705840375, 2.703786380763252, -0.31902800530755737, -1.6205496758994593], [2.130985293067135, -1.6098674762020764, 1.0759051063249423, 0.8115203894276015, 2.28475568142073, -1.9704965640496805, 2.1253267433745124, -2.9211611662785337, -1.9279040755844388, 2.447859671541692, 0.4502349904133971, -2.3759741595420034, 0.7217107691895395, 2.4715942513692086, -2.9841319244324502, 1.2021301662729655, -2.122308394301701, 1.4914927824781588, 0.3547283256421636, -2.058850448922051, 2.089686972180724, -1.458073906819968, 0.09915055507635895, 1.099149236458655, -2.001383763518035, 2.09153232346706, -1.7102992288397625, -2.702279227946483], [-1.7059781926266175, -1.7521184130090164, -1.100028030607001, -2.531698488213851, -2.402104702308664, 0.09464469743115611, 1.4009721223035516, 0.5399089362099971, 2.275039760747841, -0.6255695797535439, -2.0134186993431467, -0.6477567096052113, -1.270733331078759, 1.0121909320693092, -2.2324162840272557, -1.3249022497067096, 1.7307816862321923, -1.7399312978655128, -2.416500834062151, 1.0357245062164164, 1.391439636882783, -2.9145570538128274, -2.780867190288621, -2.951988177400574, 1.2604827874090079, 1.8125872813181836, 0.3925335236900622, 0.38400613137026784], [-1.9665764100209437, 0.42332974468350937, -2.828226900975847, 2.4804520457935197, -1.9517058346491147, -1.2140193779405704, -2.817725803884512, 1.0471946086537294, -1.2421308188276097, -0.40340678842116784, 2.938022463039733, 1.3646911787166562, 1.3047566400896091, 2.7000993409718603, -0.05980240261194014, 2.8207723683197283, 2.4103225250461966, -2.1214046744366293, -0.08000033027865161, 2.831575038426525, 1.7551231126753226, -2.414558888440137, 1.28628310960542, -0.4942234429484347, 1.9041006668865563, -2.0994239744109136, 2.1883934272828673, -2.5701508072062196], [0.5346675835680164, 0.07747999991587395, 1.2162290404629346, -2.371662541683966, 0.5736865762246159, -2.2628406198706204, -2.1185537706377007, 2.6408467756096723, 1.4844113667629237, -1.3372306702612586, -0.897858144003433, 1.5574011463697852, -2.3850747525955174, 1.7293707460886667, 1.5205733860304962, 2.063423736170467, -0.5727845452134765, 1.1159294711779522, -2.112115684716704, 0.5780153068190952, -1.2752789920916052, -1.1049799583387716, 2.7137444932899655, -0.913492652154722, 2.954497440505895, 1.8038141532663392, -2.510661180400403, 1.177293694908621]], [[0.6190148417659884, 2.495708974027, -2.1155859664591032, -1.2113490869260184, 0.5403322384681237, 0.17200459097603238, -2.9218287974852473, 0.05272302309100718, 2.1621920936120587, 0.02648286031292102, -0.6684539720276303, 2.807744392430914, 0.27980646823387545, -2.3653309338313897, 1.262863851553762, -0.1263203184909587, -0.2458501135362896, -0.5032965784242762, -2.2366592028979326, 0.30902896842772964, -2.3808555840170107, -1.0318829170391577, 2.0217594710564954, 0.8524544394749523, -2.5322873505922727, 1.839454085459705, -1.6733468552090975, 0.5290119717182864], [-0.32671757897588805, 0.025411309986217212, -2.373148202017016, -2.836384495364479, -2.888189541851583, -0.2201446007647201, -1.1881162393130333, -0.4919006708318596, 0.056956229311125206, -2.4245382114124396, 2.2398680190686555, -0.2356951151831823, 0.03413008307298515, -2.8710070407421835, -0.6088342595233147, -0.17295867213582072, -1.4080509226921925, 1.2481668297748483, 2.393027214001524, -2.7871870366388762, 2.891534308007243, 2.7933591536922, 0.18011862468823825, 2.876897730989594, 0.2553572778973976, 1.123627818722511, 1.1379349463605104, -1.4119082942222254], [-1.2776388217410324, 2.0510700538984796, 1.0434054869017775, 1.4927039448080084, -0.2686884235321574, -0.43063666164104575, 1.5832591689814208, 0.6319261509428662, -1.7175568051086456, 2.2257669965858593, -0.8110985308157117, -1.672504417251012, -0.06683938636476672, 0.9601102598301994, -0.30247321947244377, -1.5947884158168375, 1.8354706926605626, 2.6706250596657046, 2.920252310734387, -2.503324426878265, -1.7474656371156874, -2.125187769581281, 1.821191224284302, -2.9482148757039006, -2.4786067412393202, 1.8591823816063764, -2.974677112585445, -1.071789191841519], [0.09984876290937716, 0.32430071691697115, -1.1009882071936439, 2.200557140877014, -0.550972091271035, 1.3910959703568269, -0.4741753369919941, 1.8300813407788974, 0.9636919282227758, 2.7239038714307338, 0.1487663990733279, -1.1372512940266075, -0.4136157574365189, 2.942411367077052, -1.0378729562976308, 2.184003886135635, -1.7138239569332223, -2.798674899752383, -0.25681430790600857, 1.5706256499451543, -0.017847897055672135, -1.7312275621763311, 2.5937491830971133, 1.768029682439459, -1.937074641698021, 0.9728079688915479, 0.7678482157839834, 0.74037525472247], [2.7601069316221984, -2.8897897608897165, -0.7335769826201508, 0.2961517445215005, -0.39143331746122945, 1.6833857546770021, -0.34469460328671264, -0.5230170663964557, 0.6148809873392143, -0.8901891025095097, -0.186506276465364, -1.163381586032096, 2.1596714571957305, -2.982430346204654, -2.356982439280306, -1.0358501675587137, 2.199429814740661, 2.825551539244257, 1.0873075159972405, 0.3922120457011298, 2.9606174671020504, -1.5444866753231692, -1.4583308984047607, 2.1108282852052964, -1.2868010383379471, -2.243049708672583, 2.146566378612791, 2.500214518170079], [0.05033122849557703, -0.42790510963606465, -2.1649125966731644, -0.5771594475563959, 2.9188755963547255, 0.5137619615264177, -2.902984894411346, 1.25327233800477, -1.5784234468977394, -2.2367674723292694, 1.0925057518652448, -2.0374953437543963, 2.2173810552387945, -1.8802363652647995, -1.8028808824841536, -2.205014091301793, -0.9068834184498917, 1.482553910285727, -1.7374245388084244, 0.8418517818409397, 0.990675987614579, 2.102559452124299, -1.691207149961302, -0.5026381312860515, -2.5503555944489134, 1.5267152912392383, -2.196179352010767, -2.9339855055478425]], [[2.5149200163371592, 0.7830977531588093, 2.4337481997640955, -0.7748187186840836, -2.6431620001460603, 1.3370661657034608, 1.9688272858411846, -1.0603322447876484, -2.6875038231472077, -2.7670203287105393, 0.7012220322742335, -2.4911602259913606, 2.995113219166977, 1.5423836040230974, -1.106741042924595, 2.825268334626629, -0.2143888765984734, 0.3207663301950143, -0.6432253860954908, 1.4626414617882535, -0.19661146599756174, -0.10711849709753007, -1.979480841467929, 1.971698354358999, 0.09816070154330969, 1.6661262293081416, -0.5818203229254992, -2.3318347486085336], [-2.5640581434595617, 2.2563150403737913, -1.4622977376316082, 0.885721154928599, 2.6110482722845747, -2.0630650310997285, 1.7465664454401617, -2.3504733120053514, -1.6438854255445083, -1.2905625322488021, 0.06790762557990604, 0.3534967814225842, -0.22261261260404464, 2.127158943174771, -1.5443879202392388, -0.5560389170681432, 0.4621739458775056, -1.7066156415747986, 0.16805770496314842, -0.9385954767358697, -0.482795904891435, 1.265972691238967, -1.4904666060446061, -0.3334799999928495, 0.3491952565422656, 1.65824179310097, 1.2264036232607936, 1.8674104085397936], [0.5736379164280501, -0.4329524161451337, -1.8962577781437118, 1.95817804300684, 0.6410263761809873, 2.0357034494431776, -2.656244338627089, -1.0585853656883768, 2.317184928856462, -1.573865961509499, -1.400185042914247, 2.3306539492861242, 0.9536928786469856, -2.3135568410196687, 1.2719351341121055, -1.4836451116847529, -1.6632563667600722, -1.3075479533036325, -0.4876293351212757, -0.28573647629415166, -2.8982245087377008, -1.317551391610302, 1.1317930798245834, 2.8410965516830267, 0.15558759425323476, 2.581941017993671, -2.7074870551843047, 1.0184844487847053], [1.67993751086654, 1.4658729613294792, 2.7787553948972885, -1.5541792742933451, -1.6864215654543198, -0.09197989484209312, 1.8785327293959302, 0.6520431290101634, 1.4346081695984818, -0.844258804273962, 2.1217598032745597, 2.0986340668492254, 0.6592981326153304, -0.5601486231033395, -1.8893270508110582, 1.9953879776424355, -2.8100324131637486, -2.850410197347257, 2.2598306160641943, 2.1640159595174797, -1.766269902457457, -1.1214861548117072, 1.4074784688766817, 0.9521763160678107, -0.17998688468706892, -0.24641916366695815, 1.0322448659510952, -2.083799669280994], [1.1123355980746457, 0.6459266574678733, 0.3604284736883847, -0.8181854635398613, -1.3668549303622728, -1.2081996719588226, -1.6930327741989435, 0.4799394698045889, -1.6865371249472405, 2.4024441971982142, 1.6535959775399185, 2.511258935640873, -1.6680908521372781, -1.2886709350556607, 1.2465017399320946, -0.18001034594398702, -1.2709550303228172, 2.2239880453840506, -1.0255013691387733, -2.039425574445599, -2.949863784940587, -2.9517500742274168, -1.9594428512737454, 1.511845838114935, 0.8478763257874435, -0.7065001197232732, 2.6788468893436495, 2.848924161123489], [-2.8521052254083457, -1.2216306642492871, -0.2767411992552482, 1.7863473238773278, 0.8150836914710986, -0.4210085567558868, 0.3676589025341279, -2.9185325917564033, -2.250911314703275, 1.9571450889225481, 2.409230299099292, 0.6118016434571856, -1.526385290076611, 0.3558143200039501, 1.032035482748852, 2.554053840106733, 2.8658821283803286, -0.9503209820151763, 2.4235828533282486, 0.6465466869149372, 1.114822139760009, 2.1006132837993983, 0.6176881056839187, 0.5599755084221631, 1.5193475303639445, -1.5567349417857885, 2.6249836938608073, -1.6881718859965673]], [[1.2969280336028675, -0.43757214328156735, 1.6864645218283965, -1.5091096302811902, 2.0293251626608404, -2.676972629699655, 1.8867216870313968, -2.7997463986429656, -1.2573083929631812, -1.5512606693839723, -2.596525038944568, -1.7475431633876402, 1.9544838293199804, -2.552046070573099, -0.0330008251334859, 1.3568857156627736, -0.9778642396660149, 0.6660685673712106, -1.9010124057535716, 1.1301358432949202, 1.4037885652828574, -0.3129323034451721, -1.7006922625493397, 0.09214104893707731, 1.8988785714074838, 1.9207620542627968, 2.7191980097740664, 1.7445170520241238], [1.6669745972780472, -0.9203149903943695, 1.8239447743396067, 0.9937810487600505, -0.9297249629927777, 1.2244288046038374, -2.1003513726786016, 0.26594641807687314, 2.088465918460832, 0.2275006273306337, 0.5231118174661873, 0.6990610552555876, 2.7198008344734568, -1.383824797871264, -2.6774957229921466, 0.320935179159874, 2.452280654735719, 2.5979651620139848, 1.581944674465067, -0.0810959123554591, -2.7449386765277, -1.1430023198024575, -2.056460616062468, 0.9191212416906938, -1.1421454783453417, -2.333448432590499, 1.7800246041760346, 2.6897180841594093], [-0.7622734532656681, -0.37014766465543225, 2.781082347003074, -2.7645334806896886, -2.64750567638339, -0.1591873705740392, -0.8449319704923997, 0.2286501271003507, -0.46996103527577304, 1.7371257718651973, 2.2611062274832516, 0.7638622852239929, -2.4773101854948703, -1.6828050015896243, 1.6886244452277284, -0.6350293452224625, 0.48126370790248574, -1.0138765869796698, -2.3854001258694284, -0.002853106669788552, 1.5023721385586644, -1.2077691176579173, -1.7741952696066727, 1.5867311575926628, -0.9159695543890973, 2.093071542880513, 2.4876574286587507, -1.3395293212359702], [-1.0173455675751197, -0.5261814614156286, 1.0115835947476812, -1.9942600662803385, 2.204095021590727, -2.677949445978862, 2.7901482973039293, -0.2666897753471016, -1.5677696009453683, 2.7850731715757027, 0.18148644414656268, 0.17488796195635148, 2.7571438924001743, 1.2635730866688348, -1.8675567779955646, 2.281370954474305, -0.41710850288986645, 2.8069074398487395, 0.6911360286102157, 0.5207181695758241, -2.66158630372402, 0.3786998626527667, 0.3231478229667726, 1.3857976269182863, 0.14129280431142632, 2.35505430966424, 0.4361359664256401, 2.972336960313477], [1.420707794335013, -1.4292466199170346, 2.359752222713027, 0.9908945442487482, 2.235373981558782, 1.8945520492805201, 1.9030942100615427, 2.500112317318912, -1.582108761798958, 1.4259891642741112, -1.609271397146886, 0.7568947542154105, -1.8723676343662126, 2.352387850106213, 2.75828642297377, 2.4904000896262017, 0.12716819336851426, 1.9278510540017209, 2.515080121383333, 0.27034293252298713, -2.2559379610765236, 2.972716437326973, -0.7428150464113035, -0.1711810433973291, -1.328748314314891, -1.8308553383124393, -2.757727978000902, -1.9803428462596127], [-1.3809595215999446, 0.19438437353096294, 2.374623506023691, 1.7753669748050367, 2.4385600342271925, 1.2021133384135805, -0.861408987359229, -2.5480514157807628, -0.8493782697349777, 2.1868089870020704, -2.606581592890395, 1.757431387744778, 1.9067310976860101, 0.8364006533147785, -2.3091898108211364, -1.0570661568028275, 0.5504854704400088, 2.7735890030409793, 2.4492162849279424, 0.03213005317538009, 0.9549413358335301, -0.30913261941415726, 1.1952715681543413, -1.5842909889209398, -1.1841785303890378, -2.1655535839987383, -0.1564804833447102, -0.8704465419524992]], [[-2.615092220165885, 2.6393911020222705, -0.4926190351360118, 1.6985039238006339, 2.0911417240584793, -2.426769033033624, -1.7327369971808386, 1.9192350005655552, -1.7995579258878713, -2.0497090992150877, 0.5888085001257686, 0.579120090457713, 1.052256663375311, 1.1937244544466878, -2.0806464585982143, -2.153808949389777, 0.04473901150438131, -0.38170336543340877, 0.24212650599345142, -0.19390122765032736, -2.6095213160134674, -2.9740389844575352, 0.816848468669674, 0.5976611145354838, -1.6071562186405963, -0.9166403390841751, -2.5317191758893776, 2.1753788491627226], [0.0014851127637145467, 0.8622691480019151, -1.429544459452588, -1.9626617110692777, -0.8545047144885274, -1.438110004063613, -0.7111135637534183, 0.6244276459378559, -2.0541535225482193, -0.11384109953231114, -1.9567702323117093, -2.9519357543376454, 1.919249145819153, 0.7095507371657988, 1.8847144252096175, 0.23779505408686585, -2.8379219892585796, -2.1958238392340275, -2.706385650565588, -0.9912920977849451, -1.9290573487044447, 2.7536709298733983, -2.9665827212917133, 0.3063283709042146, -1.9551342891439287, 2.1606482787930874, 2.936441025410846, 2.1817282582713027], [-2.4122494473658964, -1.231352030293512, 2.8088018357535525, -2.7899133683115576, -0.3480113232256272, 1.9799678752918481, -2.370513994924509, -2.158611532113264, 0.46733492987280556, -0.17090779381937615, -1.4961089031044101, -2.5286294957830746, -1.9694920131991183, -1.3566055901305383, 0.7494514888110841, 2.1883465933590385, 0.34189078001132645, -0.7760160936819696, -1.1994328152557139, 1.0787150544763655, 0.07743025005903847, 0.6379971373167734, 1.0096954710794819, -2.8907841949294166, 1.6665963334765932, -0.06677081275953523, 2.9711095456825616, -2.2653549137685327], [1.4045549580431622, -2.458722114183736, 2.344892969648215, 2.6274930074351683, 2.1304940143128555, 2.1817023413515813, -2.4244941382310907, 2.23822930774055, 1.8253873213597718, 2.7908871756965326, -2.7512597212704932, -1.0572588111996004, -1.577412749282859, 2.5365342727213847, -2.935547369566571, 2.555191719124638, -2.9389001706369373, -0.4039341956107898, -0.6468714163408169, 1.1863932832016966, 1.0951681831053355, -2.738743520440006, -1.6513622775519041, 2.749209982492249, 0.5535742795422114, 0.30078335205651463, 2.5343041864477858, -0.3978344724258527], [0.07409736674806577, -2.260739466189186, 1.873989375148045, 0.3701004234384584, -2.590158395765918, -2.948952879621129, 1.2335681877299463, 2.1332527763465734, 0.2587894458150042, 0.9360551635244931, 0.5091749868103372, -2.3298876166056393, 1.1246998896691682, -2.9656633553345815, 1.5078779847562966, 2.8297805391627406, -2.049243419506099, -1.8211653026955417, -2.815812364942637, -2.1675503210517615, 1.7210710452520335, 0.11886015792627136, -2.766878410708414, -2.2025803431486812, -0.4653079060541434, -2.1714021321489527, -1.1922917158127764, 2.3602652757468823], [-0.03207823862507375, -2.8662067562784155, 1.3728313058066082, -1.4482583521553773, -2.3962734832208494, 1.2785380370549744, -1.2179626240628072, -1.3612397476013969, 1.978493323256549, 1.3070459763320548, -0.4414112554928158, 0.8418874624512744, -1.1094808276788504, -2.950833853901031, -1.1070757328037848, -0.8533699697133574, 1.8737828043047493, 1.543024670568629, 2.6188450415627873, 0.935628786397313, -2.318345826916217, -0.18762704636567573, 0.26292218706927706, 0.39360936550946724, 1.2442676090006408, -1.3675577502759966, 0.7662810359578742, 0.5778000837116695]], [[1.8502839111977316, 0.1310683125640848, -2.729355100257931, 0.5821572428927517, 2.862869848564322, -1.0289710022108607, -0.9879179703379548, 0.8513813728761281, -0.394462966599038, 1.6181452093130462, 2.4152892672723363, 2.6947460326811594, 1.1336842860532368, -0.470127126352585, -0.9401662178568468, -1.2690449326372044, -0.5586551664878456, -1.7803695044950718, 2.047988372753389, -0.9341344146507002, -1.6157624044352779, -0.7256158079198762, 1.358864972267198, 2.9614219409969227, 0.25043600995509685, -2.9327434050308803, 2.7102141657721495, 1.0706850105862298], [0.6974807466941169, -2.341933365207574, -0.22649808462259902, -2.723537860902593, -0.8606808762566924, -1.2355101945510811, 2.211016625463058, -0.5087765095512458, 0.5246537680826995, -2.483038557618114, -0.7109024680839795, -2.1294304543543023, -1.240134385305928, 0.9446861820404537, -0.17331533071295624, -2.237548893728027, 2.9072267199618462, 2.515609178101653, -1.3795380783857698, -2.4579886939521605, -2.5304520711368124, -0.6119488230322094, -2.779768866746953, 1.1977012906748756, -0.030675423916991296, -0.01853894602394135, 0.16659450183891655, 0.4207952182395194], [0.6144176844511837, 1.37497227796048, 0.9517079340048618, 2.927649182627775, -0.7202554542544211, 1.6111680220833549, -2.1526627095683812, 1.4308214974072442, 0.33315798994989887, 0.6034969129010008, 1.3359252594503648, -1.5535925477191876, -1.6863183948380835, 1.9567205566807813, 1.2794542385895076, 0.896139815318822, 1.8810267391523912, -1.492746673315871, 0.6191472067758408, 1.0450681810446234, -1.0516518256196998, 1.425611638597207, -0.32915884887595404, -2.134805298020299, -2.463388426507623, -2.0757275467721374, -2.7528549609694286, 0.8274164115630498], [-1.707020841391214, 0.2786018519163429, 2.5223710351616813, -1.6632709105233965, 2.5998205638035596, -0.9094051121118101, -2.908207614631994, -0.16930606849761798, 1.0435389943389275, -0.2910497320282248, -1.1154565853448728, -2.8839247609862158, -2.6019760154167524, 1.8832705350927075, -1.5199664096622438, 1.6106187943540116, -0.6737596672478485, -1.633677844324212, 0.6063357211232709, 0.8274864542011788, -2.3139953104870354, 0.7026479790191287, 1.5717172181434016, 2.7685683786074717, 0.00944555901046229, 0.028161221698185912, 1.757991305593281, 2.215917992785827], [-1.2869700739909953, 2.9143907540408156, 1.1860866433370507, -0.5710304025362261, -1.3704605785200885, 0.655602532678127, -1.568122159843129, 0.6447448917245104, 0.6326935003638834, -1.1112023759335234, -1.4849741027455308, 0.488797388045759, 1.8291123814140633, 2.751623037837648, -0.9943056826786254, -0.018069762985794213, -0.24952245364068837, -0.05343051698000778, -0.8473836002239135, 0.060378433676177234, 1.200770502356006, -2.9323969597000876, -0.22261024683649477, -0.3196698688174271, -1.8384482654251213, 1.313420809930439, -0.9815781190860524, 2.608993115410975], [-1.6066935734082521, 1.4289386182034738, 0.7435612431589291, -2.9445313519421332, -1.6109984485307107, 1.1223925727262447, 0.5835796770351007, -0.22064383954180933, -2.299360647268113, 2.2091737445244792, -0.5807151673278454, 1.7013233360521083, -0.9752753714872062, 0.5651162906286, -2.1352277312679764, -0.8955532607966417, 1.0248981912992026, 1.9438893582994474, 2.185689282855229, 2.4834995479280515, 1.7411760521141346, 1.8889903439946316, 2.618814033822537, -2.6039095096193856, 2.4425117764741078, -1.3828330047480042, 1.851209241547732, -1.0072335567643795]], [[-1.1829921636925094, -0.7521793728712352, 2.3443469391335663, 1.7095199631222755, -0.35777010015137956, -0.7014866889724511, -0.9590545616847646, 1.0849285518654774, 1.8020224606332214, -0.9304922611754973, -2.6532164110486898, 0.589922826610505, -2.8955148710639405, 0.3892306660458864, 2.795452916664777, -0.04946463219393005, 0.5933739357317243, 1.6368134393395657, 0.6364138203636913, 2.5379651472950133, -1.6416386060817572, -0.3625771517201133, 0.5186566596083777, 1.7074418714900421, -2.156764561547094, -2.0033577781079233, 2.6736511766750812, -0.3343159963751132], [-0.20644241567613264, 1.6151820264985153, 0.8481177695681383, -2.540969228031709, -0.21565237636588597, 2.0394260469095995, 0.5282515381148096, 1.5925028460449617, -1.8261363990957975, 1.036256415530719, 1.162771579971733, -0.46477730128076544, -1.4161745005277455, 1.8197583398938022, 2.2312243946094927, 1.031900484799685, -0.526512683006914, -2.8968875698686594, -0.5451720719817477, 1.3009554456129298, 0.033192703499689724, 2.673493558942285, -1.5861891138947413, 2.531083921713712, 0.674037629575805, 2.3610809548541205, -2.4175090848117837, 2.414805698007137], [-0.7719662267224523, 2.0018770600542304, -1.3763815954368308, 2.2072271379107384, 0.9212566229141879, -1.3532344396556741, 1.7324183280553038, 2.5914499548409253, -0.5209227021620229, 0.0665147619836679, 2.0983966348997143, -1.0611932666874655, 2.3884895372516093, -1.7490568645678184, -2.467448550937092, -1.1548122848120383, -0.4381331352579192, -2.6669018525919825, 1.5724160525746704, -2.496014040793566, 0.3792971131737475, 1.543865556224688, 0.3362356972142564, -2.128306359001253, -1.1898511234993467, -2.736518264869626, -2.4282351039270176, 1.4506590514204731], [2.1747569119303236, -2.322043711293537, 2.4335340318146077, -2.2398259033770698, -1.3723751736329952, -2.4348216512085203, 0.749335072059437, -0.4618116037151001, 2.4410690751487376, -0.46213053540098503, -1.8463751380089246, -1.0793798352866932, -2.3985351153682393, 0.19506399522715157, -0.6085227353571554, 1.2810804255132409, 2.375489071707059, -2.2155557145991374, 2.054281905223842, 1.0182963341998628, -0.14975644135618627, 2.5882069068987015, 1.3242874314526496, 2.2100200429424293, 1.0216297094807354, 0.9211888050471089, -1.3120911087486629, -2.0982418436041677], [-2.3027917345576583, 2.851349385004289, -0.1394548357668981, 1.9600354580754882, -2.648851137102316, 1.4718479263007467, -1.704949507146896, 2.055335021879027, -1.9283186763965148, -1.2347439458342528, 1.376533730831314, 2.282237301095364, -0.4748638748280305, -2.9353494182421196, 0.4640894026175033, 2.6360964540407155, 0.7466437399239263, -0.2883497161170667, 1.4647198093640714, 1.9523400506333557, 2.415389196485096, -2.7637800533273875, -1.365999752242341, -2.4359500946580726, -1.2631058919743186, 2.6375409285354907, 0.07264906587364361, 2.9129150673152413], [-2.002510398159674, 2.9876620013710475, 2.394887621385421, 1.4404283474693393, 0.538983487946826, 2.1535023048031254, -1.9735774729265345, 1.672737544731584, 2.1490410825583055, -0.2516048778548243, -0.2224705207850768, 1.2147522715113173, 2.9287967628466394, -2.8835407115936564, 2.5032178345811387, -1.180662594753567, -2.4475928577349837, -2.724281961608568, -2.0844712560414282, -1.1624693261597028, -1.4014878028692275, 1.6978149491716215, -0.7400709687070468, 1.845327308033471, -1.5408936350516678, 2.710244545807086, 1.3398880277219503, 0.29176436459263844]]], "t": [[99999999.0, 12.911194263482365, 7.831454083283641, 13.60797899800206, 11.76316883516709, 8.754775457882415, 5.424469734268857, 5.532038524219312, 11.966459087017045, 13.273886126715356, 14.758868845733573, 6.590094195196677, 13.844838361003113, 14.227357521735307, 12.705902163326787, 12.293721399998404, 12.841865890590618, 13.52487524958359, 9.115728975203849, 8.544988087565176, 10.298002203321651, 13.963028184138844, 7.214811290843748, 9.587003204479956, 12.953414072745689, 7.62826785406279, 9.391728317102327, 7.915967853988035, 11.027854912726507, 9.529033294009453], [12.911194263482365, 99999999.0, 8.50934558733108, 12.498641007467565, 6.161708417157138, 13.440544323091384, 6.919083643545728, 9.464982369578134, 7.3921364813302395, 11.974517197044154, 9.582887285116275, 8.491749989270499, 6.361407517277838, 11.279770878392625, 6.3534680078990355, 13.966557476909568, 11.82880095942485, 11.77569593379644, 14.582618141515587, 13.837101360440359, 5.344594675626398, 10.821662833984906, 14.976980578234905, 9.693743884189578, 7.597900885927237, 10.215295902307513, 14.349669362615163, 5.26983352472876, 9.43424700327882, 8.119632668257173], [7.831454083283641, 8.50934558733108, 99999999.0, 7.699620041122158, 10.028719735534386, 8.281591289280621, 9.252244321963037, 8.097588734225495, 5.275043406694715, 8.71356160049924, 13.458684891747554, 14.700857931450722, 14.09256306245413, 9.828510399547783, 12.737527687545432, 14.44515199425847, 12.794739154272179, 12.52045544604249, 6.35948723436393, 9.081674536231125, 6.844456024098816, 5.507418088381143, 5.377006640799506, 6.200432510521176, 10.435552607640648, 13.507405777653222, 8.250542504126575, 6.396611767554019, 13.669212868271094, 5.026301209935811], [13.60797899800206, 12.498641007467565, 7.699620041122158, 99999999.0, 12.72895060770074, 11.747725826898876, 7.23174650313709, 8.8446981899903, 7.464831565927161, 8.620404322326879, 11.137483672641162, 8.244919036562797, 13.830719567711537, 6.91848330877, 8.47731689493085, 6.205850292539835, 11.637869418480166, 9.958591566277601, 11.409376356294889, 5.929677605826963, 8.776980550230338, 9.057132824228535, 13.660807505104858, 9.397737903533155, 10.964616583006809, 6.836859585308242, 8.841370336545095, 13.19429370557476, 7.350673323751535, 11.18333484606592], [11.76316883516709, 6.161708417157138, 10.028719735534386, 12.72895060770074, 99999999.0, 10.804020368382684, 6.744695177254021, 7.618795647899363, 10.506538735220818, 8.891305590273118, 14.080966177037219, 7.427368278645494, 12.255275276662331, 11.0187881112295, 14.895092931309167, 7.122681130113847, 8.391683777563243, 9.900748770701057, 5.190273459988526, 11.35439069777608, 10.711595548188214, 10.311029163314508, 10.233729788524908, 6.103131751455564, 5.847814050565057, 6.336348174713495, 6.648704164249244, 13.889587969744944, 13.684591947398982, 11.82477268281248], [8.754775457882415, 13.440544323091384, 8.281591289280621, 11.747725826898876, 10.804020368382684, 99999999.0, 8.339179757562224, 13.857628370935021, 9.903666033112929, 5.346319994953289, 9.50029952562674, 14.091276026277836, 7.568719323903446, 10.454154711126824, 5.76425059178069, 5.82099691663211, 8.774537385426129, 8.582706466063625, 12.45440303722845, 11.691296391872923, 14.464236927396444, 11.047438632154112, 12.218333767815414, 11.288479240070762, 11.372711136424897, 13.679866835878437, 11.261593267253094, 5.26323196708611, 13.44481092578856, 5.371339471774213], [5.424469734268857, 6.919083643545728, 9.252244321963037, 7.23174650313709, 6.744695177254021, 8.339179757562224, 99999999.0, 13.971353424332841, 12.004405249709581, 6.001472508140255, 13.30173721832851, 14.867009671112537, 8.237364520855545, 14.95962310862618, 5.793910862105369, 10.861428296313651, 11.263126842017623, 6.592741381327061, 8.182425805595951, 12.983651170558378, 12.769968445727944, 11.712724796265334, 7.8994243916578135, 13.496822546226955, 5.541118263502892, 9.345020726022911, 9.138997126686256, 5.319094265064395, 6.0557780877396885, 14.321317622070858], [5.532038524219312, 9.464982369578134, 8.097588734225495, 8.8446981899903, 7.618795647899363, 13.857628370935021, 13.971353424332841, 99999999.0, 9.839547792665172, 6.045207950068104, 8.440262098060792, 5.731776762606265, 13.309829243290233, 5.4539890595156155, 9.56455087420741, 12.453964557965726, 14.122348114338964, 12.816593476654026, 5.833125551871189, 10.906043069094574, 9.049235795067384, 13.674252790353341, 5.290370703224305, 9.298433976804871, 9.22244320352339, 8.979049222728966, 7.836921703410711, 12.766993838317589, 11.070866800962555, 11.099726444063855], [11.966459087017045, 7.3921364813302395, 5.275043406694715, 7.464831565927161, 10.506538735220818, 9.903666033112929, 12.004405249709581, 9.839547792665172, 99999999.0, 14.682162795746866, 14.638707384742789, 12.49349863610043, 7.144038509597808, 9.237964478614815, 6.908986085586806, 13.29919198461099, 10.25413235768738, 12.523958742711029, 5.500655038325619, 14.001974467406164, 12.961191362975162, 13.394771950904897, 10.329702279360141, 12.717011428099664, 9.49264891235358, 6.5252131232316675, 7.175205584195355, 9.554878399939088, 9.181643441710438, 8.607444267268319], [13.273886126715356, 11.974517197044154, 8.71356160049924, 8.620404322326879, 8.891305590273118, 5.346319994953289, 6.001472508140255, 6.045207950068104, 14.682162795746866, 99999999.0, 9.852166717476113, 14.76264743113604, 13.156862155306499, 13.496399597547642, 6.342406549346861, 9.932271474694325, 6.943188420425117, 7.456354142132109, 14.577490153887084, 11.249825186908785, 9.786264097190188, 8.59998313472472, 10.175499580298455, 8.777413299166405, 11.585691921984989, 9.633379008413154, 5.955057241872272, 10.734254926160972, 14.281305507753913, 11.190259867627562], [14.758868845733573, 9.582887285116275, 13.458684891747554, 11.137483672641162, 14.080966177037219, 9.50029952562674, 13.30173721832851, 8.440262098060792, 14.638707384742789, 9.852166717476113, 99999999.0, 11.858907907808387, 12.184639803924409, 10.062882137194762, 11.228508961168078, 8.10446615672376, 9.929677125571999, 8.272820304706485, 11.804646360180598, 8.908535471018347, 9.298854903527381, 12.746973925995782, 10.105681229607521, 10.453556743363809, 5.362029084484368, 12.065913380692034, 11.920720867867715, 7.4423351169339895, 13.111537751381752, 10.378408907789217], [6.590094195196677, 8.491749989270499, 14.700857931450722, 8.244919036562797, 7.427368278645494, 14.091276026277836, 14.867009671112537, 5.731776762606265, 12.49349863610043, 14.76264743113604, 11.858907907808387, 99999999.0, 9.40002622934057, 5.095177166934514, 8.993013973535035, 7.8132857442569845, 13.440912056963455, 11.860807833031517, 8.074280490864663, 14.446805202252392, 5.13518388710348, 8.703604440282547, 6.799358477009198, 14.756505571894701, 5.797027267255838, 14.058033223705623, 7.648249294500983, 9.44137900605142, 5.162629217628018, 12.426681080607391], [13.844838361003113, 6.361407517277838, 14.09256306245413, 13.830719567711537, 12.255275276662331, 7.568719323903446, 8.237364520855545, 13.309829243290233, 7.144038509597808, 13.156862155306499, 12.184639803924409, 9.40002622934057, 99999999.0, 8.781405972982014, 14.407927640403212, 10.386146533080776, 6.182241366426569, 7.833111442209898, 7.94451212785652, 7.7737552968422206, 5.044169186212395, 5.504781773351971, 13.778605765411303, 14.191958595061735, 9.07496573160196, 5.946538265065961, 13.896861742137208, 11.10657969490406, 8.773472993113373, 7.111786589458532], [14.227357521735307, 11.279770878392625, 9.828510399547783, 6.91848330877, 11.0187881112295, 10.454154711126824, 14.95962310862618, 5.4539890595156155, 9.237964478614815, 13.496399597547642, 10.062882137194762, 5.095177166934514, 8.781405972982014, 99999999.0, 12.805672721951225, 7.900762417569292, 13.030705783225878, 11.8453356157286, 6.6277235796262985, 11.085374884098457, 6.975032209266956, 13.805684209208334, 12.362461296284902, 6.749690420676842, 10.416677001366992, 5.268342669075494, 7.12278286166379, 11.367025930995666, 10.583570867984996, 10.022477959966178], [12.705902163326787, 6.3534680078990355, 12.737527687545432, 8.47731689493085, 14.895092931309167, 5.76425059178069, 5.793910862105369, 9.56455087420741, 6.908986085586806, 6.342406549346861, 11.228508961168078, 8.993013973535035, 14.407927640403212, 12.805672721951225, 99999999.0, 12.042890582659487, 7.194700858731381, 11.886951559084078, 8.580353510970173, 10.49094052034075, 9.641808945909393, 5.374833169729952, 11.386309126915428, 11.93723811649215, 12.05597706191516, 13.488914727748863, 10.793716819581807, 7.616327726517053, 14.515557405364634, 11.962304594696448], [12.293721399998404, 13.966557476909568, 14.44515199425847, 6.205850292539835, 7.122681130113847, 5.82099691663211, 10.861428296313651, 12.453964557965726, 13.29919198461099, 9.932271474694325, 8.10446615672376, 7.8132857442569845, 10.386146533080776, 7.900762417569292, 12.042890582659487, 99999999.0, 10.758569160707243, 11.677026235411322, 9.026830921081597, 7.242691104275584, 5.034877437731655, 13.021508845155067, 7.144047189302228, 13.354050652352871, 11.890829079519143, 7.871318254290217, 8.311357646486695, 13.659483091134073, 14.511227688490472, 11.318801133321646], [12.841865890590618, 11.82880095942485, 12.794739154272179, 11.637869418480166, 8.391683777563243, 8.774537385426129, 11.263126842017623, 14.122348114338964, 10.25413235768738, 6.943188420425117, 9.929677125571999, 13.440912056963455, 6.182241366426569, 13.030705783225878, 7.194700858731381, 10.758569160707243, 99999999.0, 5.779953597930751, 14.155818351611341, 10.105004722884264, 6.668041113543523, 5.2467053316426355, 7.807979420107438, 11.858147562559, 14.580875557978079, 7.574525276051033, 9.509786365923425, 8.064577281833403, 9.82328500426858, 12.832535337806256], [13.52487524958359, 11.77569593379644, 12.52045544604249, 9.958591566277601, 9.900748770701057, 8.582706466063625, 6.592741381327061, 12.816593476654026, 12.523958742711029, 7.456354142132109, 8.272820304706485, 11.860807833031517, 7.833111442209898, 11.8453356157286, 11.886951559084078, 11.677026235411322, 5.779953597930751, 99999999.0, 9.892722463682375, 9.987437808354034, 7.634176474835961, 9.221051988053173, 14.263710646313955, 13.14035106959638, 9.262182916001946, 5.01409123172417, 11.504443245972695, 13.45324425799279, 12.186557697988754, 7.703242766841645], [9.115728975203849, 14.582618141515587, 6.35948723436393, 11.409376356294889, 5.190273459988526, 12.45440303722845, 8.182425805595951, 5.833125551871189, 5.500655038325619, 14.577490153887084, 11.804646360180598, 8.074280490864663, 7.94451212785652, 6.6277235796262985, 8.580353510970173, 9.026830921081597, 14.155818351611341, 9.892722463682375, 99999999.0, 9.833811158234713, 5.317210559748977, 5.424189292861864, 6.5298608781028635, 10.602783441092443, 10.289292232472038, 