{"num_workers": 25, "num_roles": 6, "num_nodes": 30, "w": [[0, 0], [10.001213737224145, 44.20735885811838], [23.504366854640786, 55.642624543260894], [40.28536017337344, 75.63910844969934], [17.0732232800102, 52.20187471117825], [17.151566111343936, 51.020807480240066], [12.617552476839764, 38.23811728980419], [17.475586499132667, 43.93481468479387], [42.09627391383516, 80.06423565180863], [0.2391705000756722, 25.633640342311487], [58.624791358945615, 86.80853246684693], [9.0145833539877, 48.666496828276294], [53.31927535643815, 82.65817537627325], [42.85977673685055, 81.99107627447947], [4.857239895739883, 39.16972019384019], [12.617639869314523, 40.98942474197153], [18.916029268504186, 56.68949281893812], [47.7116943918219, 83.67770989244164], [11.818362798707714, 46.476388094054826], [38.88961521966656, 76.13009952698124], [40.302745599741236, 73.03525636321908], [42.49061220015061, 67.6518382136599], [55.131911496978034, 83.91850940278148], [37.34600883697978, 73.25114414699311], [46.80541461949391, 80.85868445683153], [44.453077598964306, 78.40020360723068], [47.31863724934148, 82.14965906361853], [17.19437357170938, 46.81246409843406], [53.967090035869404, 82.14332689529522], [0, 90]], "p": [0, 19.651141921268074, 14.235248371734889, 22.1361393278568, 15.108369915624523, 17.241175208661545, 7.586774038481832, 11.605003956236965, 21.329028703522617, 14.71841919722474, 18.080576520505968, 15.32223645980476, 10.691990738931299, 15.42123515963902, 21.22364784915139, 14.999339292311523, 20.653440651516178, 9.995487929836896, 16.926957770945016, 11.13299100517781, 18.57197698378138, 15.981859890125595, 9.741758232066088, 13.810607648148894, 18.075624939026177, 21.186673567037957, 20.085036468788587, 9.036709045805946, 11.396284122147323, 0], "e": [[0, 1, 1, 0, 0, 0], [1, 0, 0, 1, 0, 0], [0, 0, 0, 1, 0, 1], [0, 1, 0, 1, 0, 0], [0, 1, 0, 0, 1, 0], [1, 1, 0, 0, 0, 0], [1, 1, 0, 0, 0, 0], [1, 0, 0, 1, 0, 0], [1, 0, 1, 0, 0, 0], [0, 1, 0, 0, 1, 0], [1, 1, 0, 0, 0, 0], [0, 1, 0, 0, 0, 1], [0, 1, 0, 0, 1, 0], [1, 1, 0, 0, 0, 0], [1, 1, 0, 0, 0, 0], [0, 1, 0, 1, 0, 0], [1, 1, 0, 0, 0, 0], [0, 1, 0, 0, 0, 1], [0, 1, 0, 0, 0, 0], [1, 1, 0, 0, 0, 0], [0, 1, 0, 0, 0, 1], [0, 1, 0, 0, 0, 0], [0, 1, 0, 1, 0, 0], [0, 1, 0, 0, 0, 0], [0, 0, 0, 0, 0, 1]], "d": [[0, 0, 3, 0, 2, 1, 0, 1, 1, 0, 0, 1, 1, 0, 0, 1, 0, 1, 2, 1, 0, 0, 1, 0, 0, 1, 1, 1], [2, 1, 0, 3, 0, 0, 0, 0, 0, 0, 0, 0, 0, 0, 1, 1, 1, 0, 2, 3, 3, 0, 1, 0, 1, 0, 0, 1], [0, 0, 1, 1, 2, 1, 1, 0, 1, 1, 1, 0, 1, 3, 2, 2, 0, 1, 0, 1, 0, 1, 0, 1, 2, 1, 6, 0], [1, 1, 0, 1, 2, 0, 1, 3, 0, 1, 2, 1, 2, 1, 0, 0, 1, 1, 2, 1, 1, 1, 2, 2, 2, 3, 0, 1], [2, 2, 1, 1, 0, 1, 1, 3, 0, 0, 2, 0, 0, 1, 0, 0, 4, 1, 0, 0, 0, 0, 1, 0, 0, 2, 0, 2], [2, 2, 1, 1, 1, 1, 0, 1, 2, 1, 1, 1, 0, 0, 1, 0, 1, 2, 0, 1, 1, 2, 1, 1, 3, 0, 1, 1]], "r": [73.2571846025604, 193.58153486569634, 50.13272404465613, 72.02427472636805, 161.3761197024038, 71.3414954118046, 163.19851398077918, 92.91922445889415, 199.47805996707595, 161.6658143998078, 92.74231678806566, 158.39868904461102, 126.74496053960146, 171.18775610985148, 88.11070093277092, 120.33250118016905, 104.00146947957047, 78.6195583191361, 50.350046161170035, 187.31438021042445, 66.39516143809794, 79.02986018010563, 99.596394090329, 73.4718260470332, 67.92146250097457, 74.33688345019662, 110.72866446084183, 57.16203018676176], "b": [[[-2.9180799309556402, -0.7450656603354755, -1.501749951696531, -1.4585526372506887, 2.005749300103128, -2.450322377835435, -1.6256796712060946, -0.1600333806732559, -1.6770960399108352, 0.5789665907336041, 0.6073737429038424, 0.11153960479408331, -2.2261052667008725, -1.8764407431904007, -1.9354884122761036, 2.082860209668775, 1.483470206485432, -1.2883645333623306, 2.2850404842192864, 0.24282200552716837, -2.8121812967216346, 1.1269270909860971, -2.8874640526544058, -0.25865185727209283, -0.30326947528728, -2.3694103478354434, -0.7063136824348333, 2.7704112101227567], [0.6706313339894998, 1.822623541657867, -1.0254058409147782, 2.426338329716782, -2.1154961050719017, -0.1498474830137786, -2.9037024074464934, 1.5823750753506838, 0.9187363297339042, 2.9239210943792804, -1.972679948970751, 1.0905502707864887, 1.732463581163783, 2.157803807917883, 2.134929142278339, -2.816726145785033, 0.6864976081447098, 2.085336054647583, -1.266130659713713, 0.8815089585075859, -0.29857678088513406, -1.8848867235990083, 2.9732586170588746, 2.519949747415545, 2.253488289303438, -2.895217697558299, 1.764983692426238, -2.391344360228497], [2.8709175786245904, 2.6201535353441816, 0.2631462033372558, 1.3603916388741073, 1.1792295628514218, 2.4543661110473707, 0.08289136021705001, -2.491834160544757, 1.5547539398690038, -2.7151701790583846, 1.4978267226244704, 1.0828792931885305, -0.32251055328907574, -0.8038214417555336, -0.5295989217013863, 2.8468973482882465, 2.2049199366983414, -2.3920694894964614, -0.8728219067924332, 2.451909472942779, 2.899849869230347, -1.5112543065022932, -0.703424850935142, 0.6048693150859634, 2.2692269662130995, 1.5928645772714844, 0.05181139061366569, 2.726783734887686], [1.1675154397065244, 0.294701923756576, 0.5553965804527827, -2.060935639953814, -1.3392273242102095, -2.028118159514188, -1.0310355200387693, 1.372621617877745, -0.3491356481402046, 1.0813168715207597, -1.8321935236944176, -1.4195969952039942, 0.810303390092125, 2.816352461528573, 1.1151347474744302, 2.8799596158877607, -2.684304100635628, -0.45400986483385575, -2.554145971434018, -1.1009338982216277, 0.7805434389230759, -0.46857529232956807, 1.896224416362183, -2.2809779156502907, -2.417259401775095, 0.447693932706537, -2.722332907696014, -0.8639725198068868], [1.7836098257773854, -0.20319697327468234, 1.3045861143603927, 2.121986242569003, -2.3837515163657317, -2.09424625493544, -1.7492370260542938, -1.2487956596405692, -1.832116917880909, -2.5768753009726098, -0.3663291002761513, 0.5014450633146321, -2.8070286629655956, -1.3446349964020088, -2.200014757034521, -1.1645504045437678, -2.394078592457613, 1.7346261930103752, -1.7185845311023844, 2.1947290979518588, 2.107491510633615, -0.6208140206942119, -0.1647952977167586, -1.5245793209935814, 0.17351674085414004, 0.30434035323760256, 1.2887520496144518, 2.9920086937281853], [0.5043183831555642, -0.3638178044069953, 1.796007234200327, -2.684780498892244, -0.5386081957956845, 0.49540974192829257, -1.2511748560589842, -1.5808182406046791, -2.706742480737767, -0.37756791187284167, -2.5159034291979143, 1.7033906126595735, 0.566911578914925, -1.5493848512594086, -0.5699559161751608, 0.47820219421391297, 0.32428520392440774, -1.0339726709963886, -0.3824176464886859, 2.5881269626049157, -1.0203624666350408, -0.20185626873963747, -2.9923906886193095, 1.9320184123460962, 2.2565139270116292, 1.3569876048152514, -0.7012748670743534, -0.2939029512665754]], [[1.9527942232592306, 1.3045696480814915, -2.3139617204197958, -2.6928644925571295, 2.064541047895551, 0.15738893330161696, 1.396950960656687, -2.200844010029116, -1.7875170716592113, -1.1808728955987018, -2.0120964923723594, -0.7792501342538798, 1.089415273941178, 0.6727888545368739, 1.4135000577866865, 2.685844722855064, 1.8260849580459144, -0.17528526498771102, -1.3481556055343384, -0.3602633076727386, 2.247371442159112, -2.465942872544446, 0.35126741029634, 1.0953676821605525, -0.5123863593343505, 0.5108041842608562, -2.1295806143649223, -0.4614466885856636], [-0.8368357826871726, -2.600233062485586, -0.04070741035744074, -1.8309295450397483, 2.895624570088331, -0.6672529282970618, -2.8943255901480676, 1.7181753530237458, -2.751694743945854, -2.527419777326762, 1.2123943042060716, 2.116006890520005, 0.4173062282861917, 2.8353020929166632, 0.0731994168940302, 2.451624192338703, -2.5768233750869807, -1.9911393705188862, -0.11187953050488453, 2.2824255493078365, -0.7282431585697191, -2.47434981097741, -0.9346031538572319, -2.035600416120123, -1.0186333849172977, 1.6637130291897382, 0.3298298613102677, -1.3044001461155252], [2.6831209017676674, 2.624394416154227, -0.8359802343650404, 0.7443881744606928, 1.384176986603805, 2.4468824495087356, -2.8193342872595366, -2.5658277593498724, -0.15200173975591103, -2.332559555496651, -2.7127153388810843, -0.5716294123409531, 1.0619853238875123, -1.773541397824457, 1.6732957345246957, -0.32871107910867003, 2.6764963270347284, 1.179806115040705, 1.3769850285762981, 1.7207085220382412, -1.0990706678086044, -1.7315177474896437, -0.5400066761569131, -0.8186029413082507, -0.9805964591601599, -1.229644170035527, 0.2601915225955702, 1.6119205413668043], [-2.3439314857763023, -2.1110420593873362, -1.3611338324351314, -1.2198248456938172, -0.9243755149169024, -0.15046973699483868, 2.8071944914985094, 1.7760158293734927, 1.307698905986511, 0.2615572354863902, 1.7940097251114508, -1.569091212236012, 2.794023236423718, 0.15443428167617146, -0.47892342041935176, -1.5904388759541, 1.0979459943963388, 0.7830956689961193, -1.0755086704609953, 1.4483245645289822, -0.6092636155659008, 2.0097829426050007, 2.1825232705270095, -1.4092664203811165, -0.209201347600942, 1.0057462348578525, 0.3912772314515216, -1.8513088176442274], [-1.348572954221927, -0.1460087485018171, 0.9973020039219227, -0.6195833774872002, -1.4487372471064555, -2.5944745499382718, 2.665140772869189, 1.3111708470919083, 0.901234965446438, 1.5698662619962755, -2.618155382807038, 2.59721955300431, -2.8050276943203585, -2.424733803488703, 0.9704552335813403, -1.0699383406436513, 0.20627423891356855, -0.8664403810268526, 1.5003796516605954, -2.830011604466808, -1.1720783950277562, -2.43669073951982, 0.7712385433756928, 1.396156220357879, 2.583461786773504, 0.2791722309555835, 1.4117216504772285, 0.4980410121877137], [-2.599881785956647, 1.326802185725163, 1.058283757642207, -2.8257218602991174, 2.6948236138599064, 0.06978175933715569, 0.9920380840463077, -0.9955640938025168, -0.3677255153688641, -0.12208550652076067, 0.0299630637562025, -1.7374971131641408, -0.07148612560001766, 0.9516586447658573, -0.706754319238275, 1.7393190744490514, -2.811694290717054, 2.479434803922307, -2.453187029668567, -2.8152455858196426, -0.1686111918252049, -2.551599932119856, 2.087576117672282, -1.7921412483799228, -2.273815363743539, -1.3825313367944756, 0.4647789437305341, 2.2233446833012227]], [[2.4824861893971253, -1.3352250577555007, 0.9738540291585727, -1.4332042825642985, -1.979233282013186, -2.2147683259383033, -0.6820983414143766, -1.6818996953969045, -2.495671668780905, 2.827012471565012, 2.425103776682688, -1.5099232664316695, -2.222029348857922, -2.5884333915389246, 1.5234604622059624, -2.115825762127783, 0.06194619999523443, 0.5971213213377822, 1.8008155678147322, 1.3484022538112086, 1.426756397794474, 2.8153250004086274, -2.333847995527098, -2.316277867037861, 1.1076039798845816, -2.785594590386821, 2.6983122904342567, -2.7333581123558126], [0.15365395783874458, -1.8583707922696542, 2.799194642242967, -2.3917526296214513, 1.2487217778077122, -0.4395487635797668, -0.5224357140047298, 2.977601159547711, -1.2670731525723167, -1.0648197625771214, -0.16092545674759506, 0.3308963146278989, 0.10808140530783916, -1.995786800369534, -1.8278238310246915, 1.4201550324334047, -1.3817885892844473, -0.8265689385635024, 2.520710448847807, -2.341052319033786, -2.3067959199799724, -1.634221988598286, -0.28957636766215433, -0.6958397495741369, -0.7216667551618747, 1.2425247611951278, -2.3738669942425075, -0.8755432715698541], [-1.8922433066759374, 2.5085689878732387, 2.9071733485244122, 1.957034390615763, 1.2742769968504186, -1.1044501869476906, -0.0636584850654649, 2.5166178824630165, 0.5986413877608294, -0.06406942158790585, -2.0189254048656213, -0.9236461608804163, -2.7814980765820936, 0.7200722014030561, -0.21462574357066, 0.41930617146439664, -0.7835842109891065, -2.3231835128206306, -0.16925542877695143, -1.5033636462481808, 2.494571233264794, 1.2305365424753774, -0.5932529733151579, 0.709006677955637, -0.1871683167812419, -0.18139122569635102, -2.6809943136429935, 2.81716268425334], [-0.6302408845257332, -2.7452534266237265, -2.2738767663633004, 2.102910433949404, 0.8327564673820209, 2.20132546212014, 0.17424104941302065, 1.2043511905384268, 1.9093331200805412, 1.7730601553408691, -2.091678852866502, -0.7070343921336444, -2.92013052855562, -2.992957125576653, 2.683034159804536, 1.1876245321243282, -2.8056428262179205, 2.1847282516948763, 2.7385508473550697, -1.522278619555999, -2.784222722841187, 0.3012352348753513, 2.7498321932991345, 1.6602024962899842, -2.2022406276649917, -1.348487051055612, -0.7532343465433922, 2.2236309183929883], [1.024599283623317, 1.5665690695594998, -0.7695832473431827, 2.1725586337058047, 0.6786695275150705, -0.977058407282799, -2.0744179338657753, 0.19306000944354507, -1.3255283103232023, 2.6022606018192196, 0.09491188613811996, -0.7498480911507395, -0.2196822372788958, -2.320491650426676, -1.049796286681527, 2.6988150748534077, -2.075864922778548, 1.4453916221507477, 1.4160532245112805, 1.372961535315664, -1.0086244194688958, 1.4631312170325028, 2.351699526310691, -2.4649820622577434, -1.2608013420575788, -2.81269187421767, 0.4707804702545131, 2.9400948786872485], [-2.079074472602768, 1.9556712147883646, -1.8884255033956785, -1.487569005803482, -0.8950748390170356, 2.114572453655372, 2.4578627870311616, 1.672677286792597, 2.2526436004280654, 2.721715656822301, -1.2728381395338548, -1.0739035261804573, 2.109989280241189, -2.3954686467622466, -1.3159379797687176, 2.8523780726788894, 0.05350013040085333, -2.7885657764965153, -0.5363700088031038, 2.3520533378748754, 2.873498121830332, -0.152900416678321, 2.60443612973794, 0.7294204304418246, -2.817122771189624, -1.3178066398812662, 0.41633382176935063, 1.0046386951041981]], [[1.955128336918687, 1.2105147080687182, 1.2164658220701625, -1.1639898828518012, 1.0457214001158626, 0.6245994319235963, 1.197659544995635, 1.9138604736423304, -2.478432460142521, 1.6267984729087663, 0.46754410642041444, 0.19884577938398795, 2.9303976886986476, -1.9436718259117507, 1.5477772122896223, -0.42325237975721963, -0.560725454833582, -1.5769517037748224, -1.4261352287604476, -0.40713686958025885, -2.77542188972833, 1.8186779097526085, 2.789605856075985, -0.25373311149684596, -1.8061567355750483, -0.7412215275289729, 1.5943601305342083, 2.0750644176070834], [0.1850192971353346, 2.705798953777423, 2.2251925274790763, 0.6527846409118747, -0.1406690781857014, 2.2198253200182396, -0.801409710924168, 2.5935855316668324, -2.991446798216507, 1.68121172775162, 2.5342530364337854, 1.3979961416854803, 1.8892333182487802, 0.7043539689164322, -2.490998913363004, 2.734727834969801, -1.2106209484836716, -2.1780390651053683, -0.38876045344018895, -1.1706286315709011, 0.64041555592551, -0.6330516931986656, -0.2814369404625934, 0.37761758702601167, 0.49878760323766036, 1.4109119447624927, -2.1706574081014613, -0.7872083348491414], [1.7397509657378238, 0.5516419997631328, -1.3687729714782504, 2.193184798445965, -0.6632531944768383, -0.952980656301532, -0.6686252094463905, 2.3193401629668813, -1.5005586988252617, 1.2497411610001503, -0.7279719385554424, -0.1694940668969087, 2.0663494477064592, 1.605256540295092, -0.5066790223199167, 0.791407617151382, -2.7855433825616718, 1.550365445883612, 0.6663739813580971, 2.627115902143717, 1.5232861607021615, 0.5467919184783545, -2.265589924360995, 0.2448514859651869, -2.6821483614879673, -0.49048853020275285, -0.16974829163866456, -1.8987329854535167], [-0.7241119200526533, -1.7911739040920587, 1.5331570086404298, -2.012147095843397, -2.748652297851227, -0.012349659196926766, -1.9170626568669602, -0.28595157043749886, -0.4354332805577683, 1.5138434709819029, 1.4869766464967302, -1.288222514607547, 1.2890664028900094, -0.9456832945161731, 2.954286341126976, 1.716458566907482, 1.7113624831004959, 0.357835911311005, 1.2949895920892143, 0.31948732004171365, -0.2362980326411348, -0.22124199104371822, 1.8055315744739762, -0.26266330699385243, -0.3207864494075068, 0.7205008200540459, -1.4470803083871056, 2.5353429105694687], [-0.5795190732552937, -1.0170980601790993, -1.0922697991946004, 2.6045170950343532, -2.7341703030155555, -0.7832946869893638, 2.429463159812899, -2.5292806589072017, -0.41515822046859263, 2.720158240417268, 0.6749350369992051, -1.1921175406493996, 2.138823350061518, -0.7330957736757711, -0.17474796635920997, -2.1306839300304317, -0.9242472192199629, -1.9534031977224415, 0.2043875870911167, -1.8797348565257006, 1.4550736717470567, -2.670018099794918, 0.8938906000734157, 2.9811174240436555, -2.640957669096279, -2.3466877130936603, 0.15524835288262473, -0.508459027802652], [-0.8713412994051151, 1.9172851137521736, -0.433482724751034, 0.8710921717697158, -2.031472784367064, 2.1184626801426045, -1.1505569120578483, -2.673292899798441, -1.6022369566317756, 1.5031661854903406, 1.616878994453911, -0.7709281241525545, 2.837641606132271, -0.1530616967095777, -0.5437401565872881, 2.063508668439745, 1.8697416689844752, -1.5066097677533241, 2.845545962929477, -0.43837894740708894, -2.2176955257048228, -0.7156983286391947, -0.020360907501139724, -2.775365718731549, 2.1499581020187044, 1.4332380360259034, -1.223083955231592, -2.069173696836117]], [[1.010334864355693, -0.38311978645319744, 1.8252036339751871, -2.6168364887408484, -2.898711377347364, 1.2977336797561447, -0.9547465407667168, 1.7762518928481752, 2.5757727385670917, -1.026283073708198, -1.409520468324035, 1.6146751083752324, 1.275277111051599, -2.05764358094957, -2.84696711397455, -0.4145141707661608, 1.0425964944636625, 1.2099611086086446, -0.24929569301285515, 0.04270055635082848, 2.7825439044021607, -1.8691214287469988, 1.6551687952949896, 2.4018551155594876, 0.2563079916029092, -1.1998719010809349, -2.4206932013542577, -1.3036936393430791], [-0.5188777825196622, 0.6297023163027813, 2.1590942907404393, 0.615723690052707, -1.2469210417693528, 2.2276704027674334, -0.48548515657718205, 1.2070586508775492, 0.49302582389948224, -1.9338582206790134, -0.9986860811827709, 0.8491058146407946, 0.5522729206452723, 2.5186250193794466, 2.6940115650588714, 2.683829943897525, -1.0036493425460817, 2.853171529896681, -2.157794643472897, -1.9564310572974275, -0.3092895662315933, -0.7269093325925726, 2.6995514963479934, -0.7263567985447481, 1.6813977730657435, 2.034581187831674, 1.5479542314505306, 1.230062063182003], [-1.2237968389910971, -1.261126768502405, -0.7470169820125347, 0.9181761779623989, 0.4961058031305736, -2.397077684836702, -0.22429272475177608, -1.8359916741617561, -2.26468426233138, -2.7778779425531432, -1.7925860166001577, 0.2953531814937085, 2.613802852745608, 0.6912450938109949, -0.33653587295460063, -0.31510324602429796, 1.7715880006211187, -0.17187912221760104, 1.2376405426487587, 1.2310402505918763, -2.117213598311957, -2.244401479223991, 2.3815670722980267, -2.963705234741748, 0.6759053077555386, -1.3190129843945488, -2.054596818382712, 0.43119115803662167], [-0.5786204531375381, 2.1718872255058894, -0.27773155137014527, -1.0924280091593708, -2.0114706331909025, 1.6483800070522552, 2.0027662181334698, 0.45189064801003553, 1.7648122138734808, 1.1473931387474519, 2.7301098438783065, 2.586334996466425, -1.9626491850642405, 2.0183855522331715, 0.44927570278349904, -1.6511019889801166, 2.5510514305693244, -0.787736524233285, 0.21960273278819908, 2.7430563849955227, -2.562424090221627, 2.6815026557144526, -0.450918622567948, 0.570286983996513, 0.5556123563049535, -1.6612456679056127, -0.05663662818230364, -1.9250043088638389], [1.4249021029749205, -2.3384930518270193, 2.6385118193264026, -0.1040208310866717, -0.41567256682389875, -1.4142770537503198, 1.1533865087341022, -0.025504809604147916, -1.3412934448367886, 2.0715111121732495, 0.1876697834519474, 1.4997952401461934, -0.99650801035496, 1.8655895356999688, 2.725720834107914, 2.3213796074990514, 0.01163243887528509, -1.4115303126002663, 0.26006904563143873, -1.1987915500936, -0.40792776127259067, 0.60528893623498, -0.07451518814070468, -0.9494143573408489, -1.7751063756037553, 1.9074070626880264, -1.3745779993743366, -0.6182090257089943], [-0.9574760735456911, -0.7876875354161683, 2.7499128989965147, 2.6404262723700924, -0.02812418537294814, -1.9442132768955906, -1.470216143089094, 1.1902999676652, -0.12602451347474153, -1.5868808835395178, -1.491970756391231, -0.3716059457679135, -2.4665457166059643, 2.498026283494375, -2.369915409334207, -0.2982832228954728, -2.801726914023317, -2.315347670248939, -2.2504656189825347, -2.0664037004375433, 2.9021802561063392, -0.945695723688325, 1.618644962578557, 1.5270334199184212, 2.1919429511520647, 2.7076732247487723, -0.7036859334438419, 1.7512156530779226]], [[2.9792098634593804, -2.3331608491474984, -2.2203000208063797, -2.498483025806503, 1.1530496781531845, -0.20385057747534852, -2.292743151279301, 0.9045921791246769, 2.4850809197930506, 0.9056702403124066, 2.3991028496071163, 2.710131952328778, -2.7738783518290804, 1.1472489468156875, -0.5620526004920454, -2.1313531580159024, -1.1203558184987243, -1.0555449636044547, -2.7099649615985184, 0.7451333988886599, 0.9570780956400906, 2.292393752235963, 0.3040251096960631, 0.9388153156143471, -1.63919069970387, -1.0642754635205844, -2.689976695763108, -2.3827597669165197], [2.066628190496126, 1.9839550825921402, -1.633310552866911, -0.39862233961685156, 0.894266586587281, -1.9715176752344348, 2.4989703276783937, 1.987542050211923, 2.3969189232209844, -2.233842487987741, -2.229306609501665, 1.8583539272194596, -1.0552006983551248, -2.6215345674589563, -0.98335726054112, 0.27361914010553434, 2.7869228571170286, 0.44419658034961795, -2.75799016078657, -1.4177511600587684, -1.4195365696594788, -1.3324159299509635, -0.8649771379314206, -1.9733190371842655, -2.2052109892138887, -1.0377968440248824, 0.9938526128520295, 1.1087558400599322], [1.6400600669228345, -1.8762731504384005, 1.0108748678301769, 1.1717560179152091, 2.591921058610426, -1.779752214652407, 2.3129601392367665, -2.968508435741487, -1.3109573194939255, -2.7938415108410144, 2.3568777499827602, 2.6482049109320522, 2.0390334308954285, -0.3958932915386715, 2.25202483056085, -0.757836285669331, 0.47592979461289175, -0.28698059994141945, 0.697621902607735, 0.2515687237966455, 2.471881746174657, 1.5443175386119252, -0.5034937423758263, -1.4975547305572139, -0.1185003780556344, -0.2530383241849581, -0.9105476823162988, 2.5346527424720717], [1.0616375711992792, 1.052336844147816, 2.666814001174421, -1.4942383787230509, 2.4783419385065706, 1.04030946326524, 2.390163092845423, -1.0288680079137884, -2.347051713474994, 2.57098837500392, -1.3758995529466167, -0.6722801364253339, -0.05609852172759311, -1.023209251944701, 0.4099751328101613, 0.2664009132186007, 1.2557293593044037, 2.5322803568739216, 1.5786635987813478, -2.8867835690707295, 1.7349719705502977, -0.06697994246326999, -2.187006798982213, 0.21379491678192064, 2.1812904509737834, 2.5567677849683736, -2.699693892730295, 2.0603953214041226], [2.870996782844929, -2.207695922181183, 0.675935873606401, 1.1562419838938123, -2.73708865234494, -1.641798783099941, -0.16136848950444982, 2.2337601749656866, -2.240319391583378, 2.0900001285847534, -0.5857089852360193, 2.3691992633003114, -2.049834417020738, 1.3225192785646627, 1.3342748247318221, 1.4599462289330312, 1.4396074269844528, 2.4617046060151297, 1.2207761743825136, -1.823534092934633, 1.8552834553393653, 1.496920565622367, 2.602621420960342, -0.5549127871997035, -1.9599473366806772, 0.049620593309184, 2.834070916483096, -2.444096693786385], [-2.2533462541279468, -0.4222536914589545, 0.17624389210655966, -2.333678634173765, -0.9303588016579081, 0.2795769542301261, -2.9756463079746407, 1.627628983216935, -2.96713642719418, 2.640621520208261, -2.7957130555121577, 2.489971311107877, -2.9794821862908445, -0.9927955072552264, 2.805312726286191, -2.023069920978747, -2.1953089494433997, 0.34660102171585105, 0.4861429368727954, -1.6829908101538618, -1.0920249441705407, 0.2143439683382864, 1.6637243000793411, -0.9025557736969985, -0.5077305165813994, -0.25376301282092184, -1.4165798993781362, -2.8123602674230606]], [[-1.6757397284349445, 0.12453572780141497, 1.1191659662129165, 1.073816788806841, -2.348980202207104, 1.3636814791962202, 2.4337268633257763, -0.024754963750907244, -1.4745896629701274, 1.3382754199171085, 0.8660081769829806, -2.1540900849000018, 2.230809356142272, 0.16838123106414393, -0.15154622684621977, -0.869879166649385, -2.115827619994155, -0.7356832948734695, -2.17649491740908, 0.8745698956841084, 0.20125422181045316, 0.3228454787407866, -0.23592892565317047, 1.2365318579083135, -2.1932143087317324, 2.833830172872628, 1.8278186650496195, 2.1011520175737326], [2.596987021603243, 0.23044552850390154, 1.1947119716941428, -2.0183543365397156, 2.0608402503079786, -1.577973368571132, 1.4631117797646613, 1.5654531902149715, 0.07003987781896637, 1.679553036718076, 1.2195652507490387, -0.6710512948544514, -1.5572628039000436, 2.2646268440076254, 2.808435097969455, -2.769338632540582, -1.2868998041927304, 0.5520424425528558, 2.8389464973571705, 2.301111201229004, 2.0076981849095077, 2.9742002895773716, -2.248594991751512, 0.6170862265467258, 0.8674647727875451, -0.06680577132919474, -1.3306659180096714, 0.7811927186189238], [-2.541834614416442, 2.7983173366328264, -2.3741960762506555, 0.5801542939940574, 0.9175758808857406, -2.976469896996239, -0.9358498664166341, -2.0130338934227057, -2.3242050652456294, -2.2816584021887496, 2.717859818738071, 0.4130252052736494, 2.9723190939716124, 0.1826457982776568, 1.8709197701677391, 1.6339264041341046, 2.19314205285767, -2.877149096211729, 0.612798594328142, 1.6624638050438243, -0.503523836843649, -1.5066245363517503, 2.7862536440325423, 1.6432854400035133, -1.593038463478987, 1.3391007976793565, -1.1498672482719843, -0.8043914088043538], [2.0794596811313593, 1.5994732531016984, 0.7893175556325138, 1.6941823462372616, -2.4520464686427994, 1.262193362371547, -2.647633929510721, -1.7556349578327657, -1.197476965020211, -0.305071589454478, 2.9173495351992607, -2.420392048985404, -0.6603695537973024, -1.472093405758852, -0.7238999083832995, -0.8186831489255324, 1.9915836559974274, 1.533141594020555, -1.0404473332186672, -1.5030767453026865, -0.9525175714613034, 2.649560342027095, -2.4875038429008143, 1.728109527565242, -2.684311899734644, -0.35814081560385436, 0.7595215734423393, 1.2235619373396753], [-1.6613764008785272, -1.5147889260546923, -0.8193840608330776, -1.9263536726854324, -2.8330021154977354, 2.756597982352787, -2.4327288392773454, 2.7315572549348506, -0.6525188260071473, -2.037710649133036, -1.3895740636091571, -0.2967403574291305, -1.4742013687799842, 0.7477447066709297, -0.9553888126575316, -2.2961061742727993, -1.0421286055816705, -0.1782006978814028, 0.5353726309500537, 1.0460625689807515, 2.392312171626612, 0.9043231728783598, -0.9315445047738793, -2.6803734581891394, 1.6664668050029467, -0.3980522824814585, 0.23691442246880845, 1.3172789801138993], [0.2589273567420207, 2.82657364700209, -2.3966747262773183, -0.08045422473073005, -1.001791245051682, -2.135497621618292, -0.408989155986204, 2.0186610897056667, 2.064997717744321, 2.386288108052259, 2.900837232428813, 1.683791457718769, 0.8588854341528922, -2.1498792887275346, 1.214007614852184, 0.2955014409332475, 0.07840592483132447, 2.9575781037638746, 1.4856901978057966, -1.430852355820412, 1.7231650741768387, 0.47113734777114047, -2.202068901255074, -2.6800833728414037, 1.1031022429988884, 1.9959963906838976, -0.1652303362313976, 0.8442378561651402]], [[-2.7208539049446574, -0.05227225977976513, 0.4934461716290288, 1.2895170367950213, 1.085411123195521, -1.6867564678268192, 0.8775143879945579, -1.5851610106156249, 2.321032728342309, -1.5011481191878588, -2.2610794425550074, 2.0055948581777345, 0.9130005542013864, -0.31353422519068186, -2.365467926543179, -1.275265087880307, 2.318464743721581, -0.8329454132301848, -0.4279078936660312, 1.7824514014222723, 2.859399300651516, 0.5368202578039925, -2.076838146684232, -1.2177418240166717, 2.277679430927951, 2.5696791563539794, -1.0470419916923972, -0.2375117014228021], [0.14004960936569066, -2.770106124862404, -2.0440177820819163, 1.8785171658716404, -2.124462606565297, -1.3982300873338742, -2.8172032803966385, 0.3217896176343906, 0.029780090500752365, -2.86738310309413, 1.4637869736628506, -0.5430260793259523, 1.3682087313726488, -1.687638006028421, -2.912479030073026, 1.217335145930332, 0.15856399444778901, -1.4957440190631983, 2.0178555904761346, -0.09450496445594148, 1.3740815661860593, 2.7052030090742223, 1.9291908862343075, -1.7339131453775314, -1.2059210326192986, 2.885214641285634, -2.9696418175255275, 2.916358170739427], [0.9641465216895924, 1.3995068818490868, -0.07442982684624733, -1.6704748856598877, 2.317261295535462, 1.6199618019015336, -1.3900692209353318, -0.08001014479518087, -2.227425019314466, -2.525731413593241, -2.257410498934581, 2.5468455173711284, -1.012346004702789, 0.10922784834947752, 0.47612428853825284, -2.887709009031261, -0.532737152182643, -1.581010256525127, 0.40043383729943205, -1.3597254399403644, 2.9119853235550686, 2.816428100082648, -2.941349706284381, 0.5196323636814055, -2.344290703198074, 0.2804921752053886, 2.223899251658449, 2.89599257421495], [-0.12255539490494893, -0.08489715142167498, -1.9345843527028201, -0.026042032525098957, -1.0272807626153435, 1.171356856169571, 1.759540300546199, 1.8005199355132797, 2.069006251373813, 0.74663660679796, 1.2556800356735494, -1.78376162407607, -1.3232249584431537, 2.660251342636945, 2.662524662465506, -0.8129806260099217, -1.0291560363027572, 1.814546660650075, -1.2135798645793294, -1.9153626420679317, 0.07308736647461211, 2.5190950328794663, -2.0047794743241227, -2.8846768550792365, 1.0599528126121687, -2.7087976954194506, -2.4943166273365573, 1.209821466437777], [0.6120998221836129, 2.1735605514326792, -0.2175835170412701, -0.3162560152942753, -0.054259369238759625, -2.211820445791483, 0.227440284283432, 0.14351872953178768, -0.18408782526397838, -1.3073625160344484, 0.44566979235253523, 1.487010252270319, -1.8846089494717346, 2.7937770178266073, -1.1884790077184553, -0.03684237445869787, -1.930744622775434, -0.05407926482218439, -0.6250275112161114, -2.517534591872713, -1.1283179093017932, 2.614389080332666, -0.2643166907735215, 1.526906410779362, -0.39747782104818885, 2.2997005189377777, 0.9700351189891689, 1.2131746369955243], [-0.09735253315820991, -1.015707201224129, -1.5392748317064704, 1.2493627482355256, 1.9596484185562897, 0.36848278458819816, -1.300094272706468, 2.3722188323713898, -0.3671266637591235, 2.2903187889791035, -1.2886716841059538, -2.0095747919829883, -2.360795152961269, 0.5177725729952387, 2.2361280308679046, 1.2007303431231993, 0.23931422998239515, -0.20632251234786025, -1.536678520401524, 2.6332523610656597, 0.8867966892674968, 0.9834657409960199, 2.647972037996224, 2.395523332564255, 1.639191102741953, 1.598118316778157, -1.7207711433378319, -1.03438067667223]], [[2.70204656867298, 0.0018616162241760215, -0.935807024358617, 1.1211043430528669, -0.7194464273833265, -2.482097661532064, 0.8009746224352918, 1.9107538134892206, -1.9972876544059015, 2.968738830168456, -0.6659563187771269, -1.4751483681542332, -2.9625378719019566, -1.800935814182747, 0.7465381742988413, 0.14269082338966754, 0.5236412330919453, -0.6025212060725105, 1.1075686578980433, 1.5783594662337421, -1.1717754901692365, 1.888135250807279, 1.6742075119428161, -2.270270199890136, -1.178684399013947, 0.7741661133542523, 2.894074437449408, -1.2891603330572468], [0.5284017715570064, -1.9907616008653946, -0.4818836747756019, -0.45945849513711057, 1.1984255086182731, 2.6483709575393775, 2.6309179851262634, 2.0119642789924894, -1.8387573047394863, -2.928691839521454, 2.1591178124471186, 2.889839357556265, -1.5956995049137954, 2.3543993438581117, 0.4005892095662942, -2.27751507366923, -2.887010177448526, -0.9994488545064186, 2.0772184859820992, 1.892587124533053, 1.5382378258728426, 1.0023390797188965, 2.480878967364805, -1.0277089394374763, 0.21221133054555796, 0.685049585123489, -1.6418776232447503, -0.8855980847383891], [-2.2304877437447272, -2.1131675087314843, 0.2683506230094084, -2.8369290776002676, -1.3964845318268078, 0.004888491093193892, 1.6111049924879515, -0.5251233629523715, 2.0716317543967246, 0.059342106459291166, 0.5654320705152527, 1.2741097502188081, -0.6382925621826718, 2.492440613421514, -1.5356541897434033, 0.4100320334936298, 0.7367469122912373, -2.9929349146350206, 2.1420036998442473, 0.24569280938994265, -0.008915614579939835, -2.6589860555875537, -2.6672041164941316, 0.6008675839301474, -0.18602196334615506, -1.67685301234956, -2.18376553200165, 0.7068633354360352], [2.4135550845794516, 2.190965516898082, 0.3050074098061568, -0.700115824561979, -0.46215911987499325, 0.14581507943279792, -0.11131431428857663, 0.5152312270097346, -2.935789444603306, -2.8245874264198214, 1.694028157054495, -2.112411368703449, 0.07499589938234408, -0.10287710018098117, -2.0558194976010964, 0.8413211756133601, -2.6431057500260726, 0.9161893479409438, -1.7485523224287403, 0.2246508346267726, -1.3192997037621064, 2.2276487174960886, -0.49203628379546416, 2.247809737785361, -0.4994008507367891, -2.8468648923109563, -0.8170603011348327, 1.1576072320089708], [-1.8163558786185208, 2.9906902850978234, -0.014341347313343356, 1.346167236713594, -2.590146949357883, 1.176820410589186, -0.1650646652321095, -1.5005095653113123, 1.557788237517399, -2.6097637474852076, 0.6438701485930949, -2.8203918605596945, 2.1732710560365263, -0.250408319110373, -2.592383146147868, 1.2587979834170975, 2.8187074312083835, 1.0359094034639256, 2.764261108777756, 2.7876680722561478, 2.9498330115871187, -2.4953277498501234, -0.02361739843585564, 1.5093003912466134, 2.611114541437006, 0.6966511279796666, 2.9117635899589347, 2.9660819408418444], [-2.4796342051510294, 2.3466599410737103, -0.4426036043113273, -2.149088447407918, 1.0495031179717644, -1.594076877601715, -1.5546652466554172, 0.5363056301311775, 2.3903533564125903, -2.9327229995850574, -1.113693803433987, 1.0048491140420026, -0.8669313645044827, 2.2261297970434164, -2.519204903828749, -1.8490503039313126, 2.0182227627878664, -1.2874446228121688, -0.7083368786606297, 0.8545225738376017, -1.4304045681423907, 2.916576952540823, 0.2942911591645947, -1.5188355172894148, 0.2517761078488614, 0.07157372447321286, -0.2870219686943587, -1.6956667360698228]], [[-2.6512084589780756, 2.2963487373459124, -2.0395790951044788, 2.9796837718723035, -2.0069797643297167, -2.81993554579394, 0.0928470818815077, 0.4357757762733385, 2.6998113762736766, 2.148812338206392, -2.742730017620759, -0.5127933584509927, -1.8030309825976674, -2.7739364253310903, -2.7724609166424288, -2.0281285949512684, 0.4881188121675972, 2.438974932754637, -1.379029506986692, -0.15571876071646518, 2.026933756243455, -0.08010512702849093, -2.5843859377463367, -0.19616452674175022, 2.91362794689437, -0.2549224455800436, 2.9322131228583395, -0.3957085815943868], [2.326088485698488, 2.598215821157492, 0.012990610645804423, 0.5028294445102084, 2.951038213650616, 2.4391631594750898, -1.1941039093393573, 2.6927699877107587, 2.317246033693764, 1.559308598375745, -1.8318147942937428, -0.055670228814604705, 0.06514425204439789, -1.7744763437678872, -0.031189543998346725, -2.43609009744925, 2.825908258903918, 1.427405275884662, 1.5891269376457693, -1.4419023704589848, 2.661642356967926, -0.5617666794596126, -0.9474798986557857, 1.5648907131130798, -2.027025682188266, -1.8200672974677072, 0.67215350147218, -1.4766695816965918], [2.101216519812131, -2.3062478434756866, 1.8606461713125038, -2.8592041040153044, -0.34794262595078207, -2.8378210498768945, -2.716566188446376, -2.866054560895676, 1.754124137300896, 1.7864921114706291, 2.9619636392226587, 2.425008238827588, 0.5157253899468741, -2.0217699830242726, 2.042083382042878, -2.9441223889048347, -2.4148234853714117, 2.7069343113411595, 0.5225300759221865, -1.2315328181858345, 0.7992245117096202, 0.8774182138127213, 1.9162709186281806, -0.666751155217292, 0.8232370344066173, 0.02563726529603949, 2.699010919485387, 0.010186921173001462], [2.065540790267473, -1.3921399797762954, 2.91837575542222, 2.869220258918814, 0.10458379394041417, -0.4944577014290319, -0.9699048019392786, -2.9117051320776977, 2.885442553584057, -1.5382876325097619, -2.7966182459044617, -0.23707407949232007, 2.0908074366567684, -0.013007552109467468, -0.6810847922120518, 2.061714440681511, 0.4747161408206817, -2.424414306235189, -1.235664970537264, -2.144880195896228, -1.185744022750333, -0.5996105302709509, -0.857980073992572, 1.4539466446456721, -0.47125288937967724, 2.2853086065277575, 0.39789671088112666, -2.168311751409984], [2.645722572987818, -1.7633509152947433, -2.2023919411140973, -0.3843911165824774, -2.844234578628271, 0.017692919170618993, 0.16350453691983535, -0.8641288643060037, -0.38316842684540653, 0.899466256253544, 0.3229368488092983, -0.2642930594180113, -2.1625887400345754, -1.0925201061034044, 0.7170510432635684, 0.9348168257684737, -2.1686463256706157, -0.5634753674390489, -1.5651256227433659, 2.2149314755899567, -1.6826946359656745, -1.5066848098223176, 2.8673564371797866, -1.971184879126161, -0.6561054171081091, 2.5940153248615063, -2.8041227488781617, 1.106034572762975], [-2.3920832712815336, 1.3933258133432869, 2.935182579810407, 1.131133686196912, 2.2161729679077435, 1.8284936902416735, -1.9281859649370343, 0.4571506499407896, -0.7557844356747268, 2.4511955185834635, -1.4349704817658056, 2.4499594725263156, -2.2952593682104574, -0.814779073360008, -0.3671335941554794, 2.576012378949324, -2.7406504574152692, -2.952064135692736, 1.084296011657738, 1.0461434350156216, 0.6150158449861358, 2.4127781115826687, -2.56588151906168, -1.0727807430679508, 2.5999982075735897, 1.4259056384193372, 2.9703249026794634, 1.7359840751970133]], [[-0.33222366563723416, 0.15909020021252962, 0.2628667420528408, -1.6367775141063259, 1.273179359631568, -1.5169925426469377, 0.7652048609657496, 0.5752774319266218, 0.7799859591523961, -2.7113040699980804, -1.3323436266246393, -1.9281150694315907, -0.7020825657663745, 1.7535831206086385, -1.945288218165048, -1.2130213411364823, 1.7241133007023182, 2.5703370838348585, -0.8929261322515458, -2.182040841424611, 0.4982775221879674, -1.7024989542219329, -0.7546219956241735, 0.867870767301457, 2.4717046510548517, -2.34978456235683, -2.196159804469109, 0.6903094541597605], [-0.45368678068320367, -0.8168065786571344, 0.7157703890881506, -1.4020422200534755, 1.8505481344546153, 1.432318888795221, 1.8784497307633439, -0.12833528771696479, 2.1730701871789737, -0.5935680803416812, 1.9425703437826902, -2.2936717256189327, -0.9959422408241507, -2.456357636834691, 0.981631854465375, 2.3135508528408764, -0.13075455784530243, -0.8956363886721057, 1.6013235352951973, -2.515508422893566, -1.2424844063819762, 2.6231616673237195, 0.2028395732116186, 1.6280932553636545, 2.83469231284859, 2.6776944858199574, 2.3464181217780524, 2.1112446238504345], [-2.906367141108962, -0.6702992478333956, 2.408458905159806, -0.2757128249165408, 1.207375755694338, 0.19141114908489598, 1.6331586570949428, 0.4826291225377597, -1.7353543851161446, 0.1021669287499356, -0.9090838299863311, -1.0461664224712632, -2.051542264009954, -2.388101273913245, -1.601912929552973, 0.12737410350608203, -2.7920336856072607, -1.8565054760768986, 2.8603988338907556, -1.1765669039352722, -0.2861579700278418, 1.7769734410288809, 0.10057651357645003, 1.8977536368909504, 1.0320576602271663, 1.3425996429948448, -0.8870875162930401, -0.8221075862009437], [0.2689134056104181, 0.41672766651902204, -2.146124930833653, -2.1535968184998953, -0.08427185199735643, -1.091632736971791, 1.871669803040434, 1.6698419209754167, 1.4127380906754894, -1.0002050972093883, -1.2675670812393243, -0.543571028509322, -2.742137132797563, 2.303555016387209, 2.8068029504312815, -1.9520026848982293, 0.8400334392979225, -0.454936359557887, 2.4881093539258163, 1.696997501529756, 0.7775497892502727, -2.650595175522275, 1.7532859824542975, 1.3952383804591362, -2.8645023601059902, -0.47259479740254307, -1.060236666134056, -2.453055053625027], [-0.0526322710817424, -1.4493288563970508, -1.6345495632195983, -2.7169929006492755, -1.0486962647863454, -2.4957025504242205, -1.614090389225344, 1.2748614970516101, -1.1676673590061275, 0.3929905516633809, 0.2329121822541551, -0.3915259975603078, -2.771449907776339, -0.5791161591754013, -2.751882440732543, -2.502748603843922, 1.5637723633579643, -1.0857940822403067, 1.6926660886676457, 0.6162960087666502, 0.8066151528122334, 0.9985053951101506, -0.7202139078683292, 1.748731627735073, -1.0216575837097452, 2.386713486664833, 2.6462299566417444, 0.22547063123278166], [0.2737183321595289, -2.806198416336928, 1.958000172537231, 1.103704788909, -2.0548142095186632, 2.203905644186765, 0.9579559680460106, 1.1566944512222488, -0.5390209479441568, 2.7510242051863214, -0.8568238005161133, -2.6567814857722762, 1.754183914754571, -1.1054892078031053, -1.955022562786519, -0.1009750521586783, -0.32159652158908436, -0.9897382801135537, -1.9580465495829384, -1.2861299929354568, 1.0332447962363185, -0.04351043296254309, -1.0767413756368267, -0.4590689695589196, -1.4056344055153898, 0.8637019744204881, -1.0252643200933977, -0.7142680533291008]], [[0.03738928132202268, 2.8449445091002694, 0.18286882340735122, -1.4523345928969689, 0.291248562643073, 2.9383412479364175, 0.320092638714085, 0.05481571906941962, 0.8013158648764076, -1.6448122790999622, -1.8965794737491672, 2.658243730409187, -0.0558811607429055, 0.831407157730113, 2.0652794861096897, -0.7596646199274759, -2.5601016671905894, 1.6817796358128767, 0.1577187475805899, 1.1352694932828369, 0.21418760568862183, -0.9395092782518963, 2.328859214197892, -1.6539287520325112, -2.308229291878651, -1.9282715367191325, 1.233315033678835, -0.9377794544857023], [0.5815642191081332, 2.884605498496094, 2.0463172668608234, -1.786007107443349, -1.7020276353690122, 0.4926450938604212, -1.450750106561596, 1.878804624220547, -2.409567671774198, -1.3373484435418985, -1.6974938361826264, 2.4463016021326647, 0.27374650644676946, 0.13861879955543355, 2.3223791465026737, 1.28982130052239, -1.7108238762213008, 2.421142560005796, -1.8090894573014524, -1.896039571188924, 2.538155506303074, -2.846866389069236, 1.1446557446957302, 0.8158203251918685, 2.160514993176216, 0.021315868905974256, 0.26018935192270476, 0.49719684985305657], [-2.865429698229808, 1.9500303483398085, -0.11827879655244633, 0.41019456179869174, 2.2369189226476474, -0.8089513602707665, -0.30619368470565345, -0.008667680299205394, 1.9411089510219854, 1.0731899530712887, 2.5565990337167177, -2.9334880082240944, -1.9556322978881537, 2.1822920923290177, 2.0157651441070126, -1.2939378183004466, -1.8713701619025422, 2.2091534254509924, -2.578805674245372, 0.07058099365468529, -2.399981896465004, 2.9014903101635765, -1.055238389648803, 0.24076505315395247, 2.1549561122262846, -0.59415280596125, -2.179009528579712, -0.1902668256794371], [-1.1599392840521368, 1.468348452408856, 0.12151046619645989, 0.7747768964474, -1.7303311040421818, 0.26600997061219367, 2.313860016830228, -0.7424947101779957, 1.088456574077668, -1.7619931407332738, 0.7861642826377282, -1.43724650967033, 1.3106627859188311, -0.5522205773039826, 1.3071389072472437, 1.6426136567179483, -1.3702824082422531, -2.788058035821371, 1.1177441003925548, -2.7741402039215703, 2.0504574436091945, 2.5613441010107296, -0.577723554025908, 2.172777166515379, 2.0517367048995414, 2.3089146228279445, -0.6850706858621254, -0.47707180095845914], [0.020539050352575305, -1.1962114465842826, -1.3801448160358722, -2.7245478474395894, -2.975853810500573, 2.3815804235901874, -0.6504572323858295, 2.4257711482367057, -2.2928604936109274, 1.9524967210122117, 1.2398777957391554, -2.7099889246175124, -1.2091236012019568, 2.4044391145464576, 1.0928658171420143, -1.398703186328038, 1.820780828259629, 1.6449848364158521, -1.7516815823371021, -2.9235448079214015, 0.0014948368113412158, 1.4692046075646576, 2.1035183741890275, -0.6530645220995726, 0.02922690583337406, -2.6277211631946438, 2.2634052310707062, -0.18608615357179392], [1.9205551338720843, -0.4509779954509767, 0.2813991720909712, -2.783218283202423, 2.103619499166415, -0.3458092609034411, -0.6568438487785073, 0.09881148476235779, -0.9501731390430255, -1.5403619704260056, -0.3271546637234244, -1.2633826992911785, 1.7625668061605966, -0.33625262351375884, -2.7353165234975902, -1.6116526603153487, 0.12632917084938455, 1.4061199636202257, 2.6323391795736075, 1.5419116374217703, 2.034859346496427, 1.019979089050583, 2.017702234544334, -2.755001314627477, 0.8867391654024024, 1.474011589345353, 2.8546796481877497, -2.922404763669082]], [[0.11418867835416968, 2.8335796189479607, 0.8542640831169082, 0.5582735279137347, -1.2140527110735302, -2.282934746346284, 2.986861020447426, -2.1191804149030773, -2.575563499702545, 1.040171173384672, -2.8676128069882134, -1.3086241538727836, -0.678571850770461, 1.2632380012407367, -1.8710708046751854, -0.9302814419904335, 0.9487060668733971, 2.9676803319197136, -2.7636850207907178, 1.6176518011906982, -0.8075461345257651, 0.07247082489270795, -0.5615143057764431, -2.019215912547348, -2.7051428386750276, -1.9377118002529632, -1.2135275983485228, -2.502803100065876], [-1.4600529955070112, 2.344046281107113, -0.1816764131705284, -2.388103028333891, -0.6935079533030715, -1.6397644068996382, 2.498645756121409, -0.6624344669432327, -2.523812119292204, -1.8270843743042027, 2.620652096060427, 1.7457180164248571, -0.4233367015413565, -1.9646173368378381, -0.9331776820656028, -0.5315119130087247, 2.8456521262515597, -1.202166093834662, 0.2353175208027336, -2.219710004174747, -1.3518489877565696, -1.6317843884920618, -2.079092226766387, 1.4194657012469936, 0.1534126745159412, 2.5693746684133334, 2.947667449410594, -2.8151995993378733], [-0.2589382624835679, 2.3897281466365916, 0.39863896111999875, -2.2403309537425695, -2.6802323764029268, -2.8104436652092204, -1.4269976652765202, -2.894169284102725, -2.0594831401105784, -1.085499696126574, -0.4985790250526394, 0.16989459363379655, -0.6332186140250258, -0.5331045724964487, 1.2791296233925191, 1.7867674645214766, 0.5059619412306011, -0.6059536981240043, -1.9702138921588115, -0.9481991515153436, -2.4447042003217803, 2.210353107582927, 0.7203749083296014, 2.2290627975748087, -1.1768250705170527, -1.8309960056679997, 2.8844733632308683, -0.7799680692706463], [1.0954608367934044, -2.8848588888465114, 0.6979197186306925, -0.08740442884381316, -0.6846623596573638, -1.849335346423557, 1.8467873086758164, -0.7982961705700902, 0.14914191716711045, 0.422735396146118, 2.7357589956740522, -1.0080859361420387, 1.350082050842043, 2.3449498565996834, -2.5317106225067705, 2.173076692647161, -1.6585682674651847, -2.1572637874368974, 2.912243597253756, 0.16730530262265209, 0.23359852928269387, -0.2806487364402086, 2.6948368894696832, -1.459413026075971, -1.4850243434137838, -1.355780542528661, 2.263651553433048, -0.9728046331533284], [1.8695440624699282, -2.5858358066852904, -2.25624525608283, 1.8174805191203598, 0.9191165966166785, 0.6042484331312128, 1.3607503546558322, 2.4924264208609674, 0.8809824174234739, -2.6981435428507923, 0.7944194637997724, -1.6682074225090209, 1.4417202419844521, -0.4905390326700818, 0.15732946257359526, -1.4143291027999654, 2.525368569663934, 2.7041302367651356, -1.7656530417597065, -1.2470635449165919, 1.0052138379465188, 1.1108001297951535, -2.564363375951044, 1.9523932086758453, 0.8297444191181551, 0.5448171532514192, -0.4552510513583212, -1.146079529228521], [-1.339432948219669, 2.0082769823318296, 0.6573005518506463, 2.140941130640364, -1.8421212027209892, 2.1040021407320744, 1.6634445417938304, 0.5412022592973975, -0.3138212326713763, -2.107212998875224, -1.761566808471285, 1.0108649180277105, 2.9676092345587737, -0.32161097736170285, -0.6918871703340121, 1.1337757141776361, -0.1615310499111393, -1.3361731680030564, -0.6001571854757337, 1.0714951018865913, 2.280073946982431, -2.113396010483079, 1.2265198221809, 1.508965885906865, -2.5925605903058995, 2.97421872198911, 0.18992502549814017, -1.0700825466794672]], [[2.66462803834722, -2.0427385629201487, -2.8163549904703222, -0.2614621421006822, 1.8981283747746556, -2.317326130657395, -2.427350951917782, 0.6031159138567466, 1.3005786769080263, -1.607478637467368, 1.8252016770107744, -0.23701227586831308, 1.331879555855239, 1.121381043193332, -1.6654439347872767, -1.2295267453882266, -2.183322304307864, -1.5909084267474771, 0.4438182913351123, 2.0833064625371502, -0.7607714843870332, 0.6110354304099577, -1.9309346468020998, -2.4376526990503633, -1.3294017814264198, -0.2708590139629994, 0.9326623531823053, 1.0976987450012254], [-0.11220739905623578, -0.7159029364598011, 2.643495888369178, 0.7923844519245162, 0.16930088813652855, -2.2681714535203845, 2.5622140129039153, 1.6752679905303243, 0.8199581705930754, -0.6786923420541573, 2.146125268387383, -1.3336923530793336, 1.9027209266189677, 0.4102243188632473, -2.3448310926622087, 1.1022315349678564, -0.6808687712513288, 1.0230527028904, -1.202810376618037, -0.044456929459793404, 0.6769137501666238, -1.6558470039124158, -2.8270381029910174, -1.572909610936035, 0.4274851711219938, 0.8554368754359736, -1.586972173859825, 0.3409082475044194], [-2.701335140892023, -2.851368777648336, -1.7376743977013107, 1.8543329288864197, -2.9672330179899022, 0.16054167358482596, 1.8712251094473737, 1.5340287083300943, 2.357806243220078, 2.063083726732735, 1.444086693820748, -0.9072038158919646, -1.5546748186965316, 0.9952580399765165, 0.764592822601073, -1.849563013559567, -1.4737796129240874, -2.5396588997232388, -1.6920058333029362, 1.30900119278866, 1.0421532267152376, 2.8470204725980537, -1.2738113030871752, 2.7113112141996556, -1.865118508027619, -1.4228036576383507, 1.9663274508268254, 0.5204167831816031], [0.8842478356031624, 1.2830789961626934, 1.2924829688791544, -1.3529212803564592, 0.3635865326464782, -1.5179997626450064, 1.0647639290422433, 2.205242523451843, -2.717184438179271, 2.5462529788436186, 2.08250374367835, -1.9614456834161058, 0.49320657319846095, 1.7328653758815467, 2.487095184884848, -2.0278788207391547, -1.526884573810344, 2.2525942591792827, 2.5379807464874222, -1.72560237945695, -1.3966244940953494, -1.6893255355322752, -2.7299520975038307, 1.593717742400801, -2.9450702663369572, -1.691403726640896, 2.5726438549414006, 2.566182697450154], [1.129076519836314, 0.8808984875984396, 2.246745212889807, -2.1942619342691647, 2.368269147878663, 2.7588558896934217, -2.397654285129006, 2.969636673382155, -2.412295432583106, -1.3335810856040502, -2.3247394574984344, 2.967380822959834, -0.7847030020303221, 0.38860058769183947, 2.9737097144220375, 1.6594645372793995, 2.667859298239941, -1.7586012581324884, 0.4531798115943646, 2.768910942922343, 1.2194369114701278, 2.0204754077017437, -1.3208980557466894, 1.5204247223528915, -1.512024042707351, -2.403673384658589, -0.04619231977892735, -1.8111600375738095], [-2.4758156775593756, -2.129432055996765, -2.6706439630056282, 0.8598762200736858, -0.5711546873575504, 0.4867067550983517, 0.500884077490801, 2.5785726903554282, -2.162694893608956, 2.0003151514131394, -1.0277160327003148, -2.8828325301992646, -0.06697403905072541, -1.8292906246564962, 1.6380276238609204, 0.5068437624394129, -1.1278116382044012, -1.1978590444730468, 1.4402133079134973, -0.7224446127656332, 0.5803535727471565, -1.9660377802989932, -2.5143091430104327, -2.212203660275497, -2.6208996204386956, 2.431250466327884, 1.354024948972004, -1.3102347911663814]], [[-1.8672917902994375, 1.2619128980507774, -1.0078205565122726, -2.6290884714297644, -0.22037068018285133, -1.4154885678624594, -1.1980304878430468, -0.8553367132222847, -2.1231269150629517, -1.6794120952834384, -1.2597346144306716, 1.7803431690753388, -2.212239615996322, -2.826323038923335, 0.8947857235184578, 2.737150622535692, 1.0191037643759957, -1.442504462928144, -0.1495002405789423, 2.3843202944728326, 2.9497269443040928, 1.3919971900005184, 2.6711310223806635, 2.2249127830182625, -0.7256691157474977, 0.3212987883074989, 0.05293031499468359, 1.7435170854072544], [-2.614524814911519, -0.7631821284152465, 1.8064774847698768, 2.017046523585927, -1.1411384735907808, 1.8884161916579654, 2.051010798385331, 1.082764927981195, 2.2238384607805415, 2.2505610273909777, -0.991968062693088, -2.0572507229437917, -2.4245202072649024, 1.1172556681930441, -2.2034497810125364, -2.1654101073496346, -0.006528851844866512, 0.7843763456717596, -2.480771453246801, 1.2522104733516919, 0.06495356671992969, -0.45309301600690555, 0.06044017334468155, -0.6628361686739854, 1.2546919668235281, -1.7944697399764393, 2.935162488988773, 1.371508532618515], [-0.382846348508604, 1.6931614313570478, 1.5450766491983527, -0.8869851884309803, -1.7701489243580337, 0.45111336063931384, -0.38958998245890797, -0.882828949592346, 0.2033362106891996, -2.045577750695804, -2.931745460107611, -2.7446465236288162, -1.642791590644138, -0.7349386161606084, 1.209067286656789, 0.5255688716067097, 1.8067346299015057, 2.2978917170298754, -1.315083537881799, -0.07538412802606764, 1.4278637687561524, 0.9173117044230903, -2.561693811904175, -2.88872714229789, 0.9176321763536865, -1.051246264551741, -2.4737815581800904, 1.6043266427204772], [-1.9782284422998586, -0.9999322246195645, -0.9511839852984272, -0.8067800887903633, -0.7684801477268763, -2.747977310561682, -0.9258324647673568, 0.9876781165570607, -1.0771702746904828, -0.6528491777004599, -2.8072295535497362, -1.6734508011682903, 2.6215776328268126, 1.4574631059604402, 1.6318797677871935, -2.590259063376557, -1.743943944834701, -0.8590444725985513, 2.098127793202467, 2.860564024373625, 2.3777983439922066, -1.676180553384612, 0.48814654136099866, -2.7814837160414676, 1.2249072572234452, -1.2089958085635835, 2.4618782616699075, 1.3238735441934937], [-1.175972332397061, 2.7116259516115653, -2.10052396379822, -0.3074038511979027, -0.45222388684677384, -1.2798417257903805, 2.121168345908849, -1.3038990412155265, 2.267954561368155, 1.0860299178740815, -0.9615611598322564, 1.5191181347185818, 1.8654206129073039, -0.8359751846525816, 1.9335870644907889, 2.80504346835812, 0.8406446350827359, -2.270662365785432, 1.51304354941374, 1.3730364272656796, 2.6654230192844635, -0.5701562082825822, 0.9680667165733317, 0.10928618960968883, 1.7808038468851892, -2.593786209870797, -2.0347079730954594, 0.3718231743097329], [2.734548280760505, -1.2907853210766476, 2.383268859384229, 2.9092155019287906, 2.2019552046388604, -0.4151742421373381, -1.2663924006279648, -1.5521471020240334, 1.439023812210893, 1.1509128897910035, -1.5610144800510668, 1.6916873444859988, -0.24084673326068806, 2.3526184463795943, -2.875422674704467, 1.2461178957452352, 2.4312900311624883, -2.717547008403484, 0.3553683105240415, 2.545303060072424, -1.6939878720504127, 0.5933204494535893, 0.8703358016028879, -1.8022476584578961, -2.6303467206526916, 0.9546328065438003, 0.5768913880067954, -2.5926204490487788]], [[0.659461263733712, -0.04452851652844503, 1.2794265368783027, 2.1553765802545897, -2.8512718855451205, -1.5832981959107382, 2.640277070022881, -0.9981979495233588, 1.5379168893345936, -2.1916597171501406, 0.03601254134377285, -1.088484984919284, 1.088357631773543, -2.979137877895539, 1.428010682247633, 0.05127829883941182, -2.3646801991982596, -0.9489604808861136, -2.99877197132131, 2.4271516433726177, -0.07798184948800291, -1.8176038250373499, 2.585885864718408, -0.24926644206710202, -1.9595729352067295, 0.6349418354087542, 1.2207845992639275, 2.9787544555776577], [-2.3900332040554373, 1.2504183945712795, 2.4365920289784313, -0.18406084183724403, 1.8372418390245526, -1.9547234034286955, -2.1587311506319704, 1.8305522876502494, -0.27959662453645384, 0.15805766712120484, -0.9328564130753603, 0.3596547875712828, -0.826075975942794, -0.8894389992361504, 2.840566161155862, -0.13550978743051267, 0.304015695481465, 0.4088057132076388, 2.7131677182051916, 0.7594572945296187, 0.2984224858945774, -2.147546103708529, 1.048141167263, 1.7796392867835369, -0.44848102027129677, -0.35612115856560944, -2.252769632375733, 2.2193476783111254], [-2.3442793424554607, -1.487820115728052, -1.676599689938518, -2.6163290098079477, 0.4819138465205164, 1.605837336092188, -0.014073922543292205, -1.5074263118451492, 2.2266069874180676, -1.519406567230755, 2.9357681761869765, 2.5592507205101205, 0.016635770235454928, 1.4492013549103646, 0.45613553159588927, 2.959136076335951, -0.09415633903063281, -0.38894903001443826, -2.3767191926598024, 0.37453031054541075, 0.3596025291089431, -0.6508862006845653, 0.24169063298755677, 0.882052276524528, 1.7785175596634257, 0.044517246524569565, 2.8921908425310985, 2.257318861094781], [0.9014145827422464, 0.41081157184023187, -2.8267948141699124, 1.8086089942063053, 2.7923532888612552, 2.968030866060924, -2.2004512041712383, 0.62168098062735, 0.5741814401429468, -1.3677492650744698, 2.082302163225764, 2.653513962880286, -2.991883333168284, 2.9739326913502566, -1.7857524202771096, -0.7962863522463195, 0.9684111944435987, 2.6544938283464177, 2.9245436581095063, 2.7716357524372235, -1.739722852038178, -0.8274003810535451, -1.5584682219564263, -1.1731170977310377, 2.887871120212422, 1.6932893275534067, -0.3999790705751214, -0.22481444186031574], [2.6718064088003253, 0.08866374576047331, -2.0634951682186635, 2.1583128404839087, 0.22588648864379257, -2.235663618417153, -0.2415480111869841, 0.32543774734649267, 0.9063376253087161, 2.733625562852935, -1.8543226631846286, -0.7161178812298745, -1.3383571966868213, -2.822311468161275, -2.504301627290416, -0.8218926039994336, 0.66883757285368, -2.9448821854157172, -1.670539968463213, 0.8783608270823287, 2.163455147212618, 0.44124443963926563, -2.1124501579865913, 1.5677077738482748, -2.251947787466812, -1.9674054861262924, 1.5259795342484592, 1.4969947517259818], [1.3210697106785023, 1.414026822620114, -2.7283600594763273, -2.347424052717117, -1.7397924601785217, -1.4764234780319345, -0.37353589098273243, -1.3609819484819063, -0.8241576965127573, -0.4505293985729111, -1.7526140867831468, -2.99126506119447, 0.1717087970334612, -1.371814035074937, 2.5706222604381965, 0.9566890124744001, -0.6933744918516931, -1.0346375178753964, -0.7553452868484296, -0.5317226861220412, 1.3426068747729207, 1.0927910681747752, -0.8124289682085557, -0.2303665482156947, 1.1127429962499829, 0.3860162633301254, 1.9745061746290284, 0.42776684344620897]], [[-1.9466738641232, 2.7130497634210933, 0.2933038538860706, -1.6525256634969994, -1.816037309028751, 0.5584271422677518, -2.4812426174947113, 2.006041302064358, 2.2226519318620674, 1.8376298538797533, 1.7794534632987355, -1.6586770856305133, -1.8216058824258157, -1.5819232328672443, 0.42141550298461805, 2.5610904895778077, 1.743119609018505, -0.9545496485433311, 2.8728320313666362, 0.017706722187142532, 0.49149716820852385, 0.42078048499780696, 0.9184097300766578, 1.9501737715062193, 1.9093743388241453, 0.08587731284973277, -0.19584620281348109, 2.1581207348927585], [1.8178368693917415, -1.4711972349042328, 1.8238266178129017, -2.807509711665298, -1.210348387581796, 2.671659015649375, 0.7749357103611763, -2.6417971652072207, 1.2646078676108203, -1.2456557464724043, -1.3498413913401852, 1.1578493985262517, -2.3210783694211417, 2.410935817622155, 2.6016439412171763, -2.7711817155197926, -1.1071496182496856, 2.427008749673446, -2.9875222165069477, 2.516156681207349, 2.5805612732448493, 1.7211597868044182, -2.285850160865296, -0.5569950189021484, 1.4298938689309129, -0.29391894028198795, 0.20593342125251368, -1.976566308669187], [1.488811134311403, -0.9071551299538387, -2.9402402298714407, 1.4533048077656119, -0.6519019685788927, -1.986660345969238, 0.2888848689276404, -1.1082825544207886, -0.29824589820495184, 1.3704711259841469, 2.515738359320107, 2.801873696777883, -2.473075404017136, -0.12222952329822956, 0.9590153265309063, -2.2083179674020066, 0.5278146631497451, -0.35065903976328094, 2.1291258981899954, -1.926980205241352, -1.816606629481868, -1.6039653118832888, -2.6352190468955925, -2.707571670178923, 2.5071739259236683, 1.578607998726537, 0.8785213934536951, 0.8713294643828684], [1.749521757425125, 2.4934139310043903, 2.222798707901493, -2.6602362344479378, 0.3316549856566047, -1.6847345014670896, 2.6447311336356805, -0.3142443814250311, 0.9029974341364602, 0.45717280037919217, -1.499214650413238, 1.7312993013884643, 0.3142494329775545, 1.1130298599761073, -2.2921328470917377, -1.4734421674173814, 2.695904589588891, 0.25197257294564857, 1.7911079290864276, -1.9710076641933907, 0.6324449506781278, 2.049860837931809, -2.2602661282351426, 0.0284866031209825, -2.94231119996532, 1.645525902297372, 1.5801796537193606, -1.7463706791379832], [-1.8193466824000617, 1.3644789293609056, 0.22783907824469463, -0.8204511139350448, -2.8988026526370634, -1.9203812554821864, 2.545960568803242, 0.47993253841126293, -2.6890398914994424, 0.8693885499700427, -2.978999189048174, -2.828411233512324, -0.8254191427074398, 2.7333100679309963, -0.5391695005340766, 0.956823567688633, 1.7446039597841496, 2.7298278280406745, -1.3043886446870483, -1.1504768170783828, -2.6610552848789895, -0.3528622809373765, 0.04140831357182373, 1.8412740325680659, 2.2146344811950778, -1.2174022151766486, -1.606567740705296, 2.095820465521485], [1.3756169346344356, 0.817837999437697, 1.1994956577338067, 1.208908113448901, 2.9100032967433265, -2.32769685057401, -0.27520610267386303, 2.476652181593688, 1.0744505313154011, -0.9183279865309508, -2.8551738622219505, 0.7141146817917483, -1.3914734413719752, -1.4708662144874343, 0.7754648923328089, 1.1071545564297463, 1.8072468574475211, -1.1515273183414088, -1.6424528885922847, 0.5799701069548768, 1.1130308250227667, -0.18104692655674803, -1.9444392587000932, -2.553096846148561, -2.1042235051754914, -2.6476983652497035, 2.41402129722203, -0.04195086666039316]], [[0.6771574443718174, -1.8200766247165858, -2.8450625580718407, 2.6176409080965266, 0.1969557326434721, -1.980773061501585, 0.3355774397252764, -2.3161488139437827, 2.4224295595515617, 2.0995693004193745, 2.567769070439102, 0.9920645956197323, 0.2979672366181023, -2.096244011142489, -2.2420186974208542, 2.4699602627155013, -1.7464296158551984, 0.4617196731833113, 2.0413265038273494, -0.18177991987010245, 0.3901308798269021, -0.6593965630676504, 0.954317676622634, 1.0466448564988902, -0.7846147195170623, 2.615752298091853, -0.5028045340225447, 1.2928184756025374], [2.3058487708437116, 0.6014783831235575, 1.0607401858226364, -2.2583439198791386, -2.8844520014963124, -1.3873088516304324, 2.675415686447069, 0.7211055065312322, 0.7220825656170557, -0.7697843567270146, 2.934702013647925, -0.24883087926823366, 2.4572657676665255, 0.6550277509512568, -0.8426853596666684, -1.9881208462530646, -2.2459638473345533, 2.476961390220077, -2.7450614279903434, -1.2580914340702072, 0.12489196815200199, -0.71422671643559, 1.011613381730088, 2.2163633956914905, 0.2483762939993368, -1.5524613972016164, -2.1604702334009644, -1.7543210307523749], [-2.6814692824260327, -1.7150031752376131, -2.8287890743063873, 0.5404998572443276, -0.15453810231801945, -2.9490912438813224, 1.3887638449422566, -2.3224943857335525, -1.6380506380807853, 2.0134059623732696, -1.4676248906670757, -2.6441232285287555, -0.35408355137711567, -0.45087094658211413, 0.26167245824479224, -1.6801354009430765, -0.22594774396967088, 1.640562369301593, 2.7773984801557354, 1.9694051643794719, -1.8072079817371833, -1.619670229883291, 2.6321654761680495, 1.340875030149232, 1.0457422834907497, 2.9165057672834642, 2.161008559489666, -2.600833951544173], [0.4809685023175527, -0.03537619306813866, -1.993390663448495, 0.8559306913111007, 1.2760130419295264, -2.4045479495998436, 2.6233934302493127, -1.4147324340862035, -0.596884906173389, -2.9568559790966256, -1.6006366892215471, 2.1059394638776894, 2.6492057980739157, -2.306478812352462, 2.133497693212303, 0.28154157217587406, -2.6085568583547367, -0.16093449190717202, 2.599033341423257, 1.2478031885248377, 1.3274196102863387, -2.097432541143017, -0.3160090157604145, 2.300067312193165, -0.04888517293832351, 2.127106344508083, -2.86900225493448, 1.5756276996949214], [-1.4119301377887084, -2.608850885044884, 2.3850303181953194, -0.8716420040473483, 0.42033533983509663, 0.7820177126048407, -2.3025529488059306, 0.8748166654241456, -1.6882549790384251, -0.9685393052407614, 0.18787822224861284, 1.6422839930680455, 0.1384187647685864, -0.310323812580823, -0.21368394711509353, 1.4665074165195406, -2.757682889580206, -2.8033517445251217, -2.9052317295771237, 0.38528961597680045, -0.8382494493134782, 2.7356788510810155, 0.5074430090668867, 0.3217335900890905, 0.7999533426515342, -0.3144029103965704, -1.6307572198161568, -1.093407412280654], [-2.568054858988357, -0.4141602578013517, 1.1840582833358626, 2.835825502489045, -0.1494118809821523, 2.1763398356904293, -0.1737104086679051, 2.7121915272555936, -1.6467875039186095, -1.8767594974945003, -1.4483048032735832, -1.284146312242706, -0.7290935230380415, 1.756717467111864, 2.443390598884145, -1.0958595835430327, -0.6310299978553369, 1.9873726223134902, -1.7085986498078682, -2.6491275796939897, -2.099486458837845, -0.07115525789799637, 1.7280636582932116, 2.2704876534487504, -1.6144351153322034, 2.171307551578346, -2.6286969737478376, -0.061285538696606245]], [[-2.2998762536096056, 1.9716894186725966, -1.2485384318061579, -2.24669368623515, -1.8724429633299626, 2.223676071665235, -1.4279672309827296, 2.5387919436928392, -0.17677400226568007, -1.7499748100475012, 2.066193269663854, 2.783838206707837, -0.3673383893147184, -1.971173543351125, -1.648752227129995, 2.730277265143396, -0.684966168897521, -1.1155806899430476, -0.7051713581417531, 0.012968524605441178, -0.0004388085695028465, -1.7587687704833388, -2.21859677422363, -0.9953647900224416, 2.451451087751135, 2.846990466522887, -0.6472727196435493, 2.189023289505121], [0.9573495433397352, -2.572137921719783, -2.5051949200014443, -0.5751207592492147, -1.9727579014912295, 0.02662273014549843, 1.6909488972530449, 0.9632678766233083, 0.09625888292358376, 1.8273506868616387, -0.8015536451151073, -1.4492427540827924, 1.9516417138589421, -2.45792590630826, -2.093034005030245, -0.7682471538558611, 0.06205154235304455, 2.153624296327333, 2.774279469534018, 0.12456181776545705, -0.6712144302206076, 0.8549867961395847, -2.231097551699696, -2.7204779880811145, 2.872069660878852, 1.4103377070290932, -1.3375433817016822, 1.0210292208312], [0.5078042887707706, 0.4175431676504169, -1.6058395581432594, -1.5123841134307925, 2.147793363606646, 1.0181288573485432, 0.15660203573968, 0.11866154339215829, -1.141663908911517, -2.0211460326339488, -0.09144263608890402, 1.8361186460535084, -0.5787293826317708, -2.387087059584564, -1.3235649582239626, -0.6300056139603525, -1.5514410375053103, -2.7798402778115037, 0.1935638930345558, 2.5435616405604256, -1.0439779811012893, 2.378274179725846, -1.3575356136599608, -1.3426525454598972, 1.581047151355219, -2.808052719992509, -2.4115605260868964, 2.4656480420687066], [-1.4242611360066861, 1.9755259059355748, 0.0774470796619724, -1.5648535433399706, -0.913513575530561, 0.22214390473448997, -1.1977503850988638, -0.05529908384784843, 0.08206542096523872, 0.18811917112782606, -1.010100123128185, -1.7023566365662492, 2.1998603236020102, -0.11198496424654936, -2.8094301014634815, -0.5096326593323415, -1.9587471665240292, 1.2279212017997692, 2.89290084493551, 0.6658602579255852, 0.11185373385687392, 2.6234304621418563, -2.0861543794444968, -0.35038938482206916, 1.8654345303906705, 1.5805878756879155, 1.7968379847584224, -0.016906706035956454], [-0.7698612729626761, 1.7571110106717889, 2.404509290963267, 0.9871198335151643, -1.5717678214375461, 2.1882629614388582, 2.445036455650766, -2.2444728795628013, 0.6659808902034392, 2.6584354027924384, -1.5258042303388217, -0.020509846702010393, 2.00324589273018, -2.1219184181952766, 2.101727860874875, -2.1822824773015332, 0.5220777659460691, -0.6306833579045081, -1.5687319703753102, -2.7365897989666053, -2.346426304960147, 1.0286535941623445, 2.7985596034210714, -1.3009464519045748, 0.19342345096292846, 0.4523452260301788, 0.7300969352610478, -1.5987253960536685], [-1.0735875740800134, -0.20318067065070355, -2.9831612180752396, 2.529135464236367, 0.3271131362547206, 2.865430388934877, -2.876993002478203, -0.3433913971483955, 2.7254280232068444, -1.6178049717137157, 0.8640293154462313, -2.418104507395182, 2.8586730164985985, -1.270435399242871, -0.3630985742999133, 1.261724971211648, 2.3087929478384552, -1.6337892854031255, 2.115508213242175, 1.76165293622023, 1.2945901896063443, -1.234542727950012, -2.9965865793596507, -2.5000767669945887, -1.9964332222305652, 2.690938437445501, 1.0999419390751672, -2.62786767191102]], [[-2.7604490191350775, -0.6993707964923477, -0.7731475889223862, -1.6970743484468453, 2.9898012500992834, 0.5129559186108192, 0.8462620405433343, 0.16117292180740161, 0.35245241829088103, -2.445125985538594, 1.6805310641089504, 1.0846127055558057, 1.7488198845891798, 1.4286506307807043, 0.6081089045383323, -2.649073336664709, 0.3605459033814582, 0.5919513655698534, 0.8610763895640599, 2.973101605875354, 1.5128973526769842, 0.44295430478429054, -0.38189157801732687, 2.3403430319879988, 2.7897972855393753, -0.30128431250984455, 1.091312651093963, -2.2512282204215928], [-2.769079237348296, 1.1715867001227025, -1.1180826518568587, 2.0423917735202597, 0.6005568330801854, 1.0004274289060202, -1.7023966698793078, -0.38121217803477503, 0.4546684163876358, -2.7374294965539168, -0.3462956973157296, -2.5992467184012362, -1.1314192248321029, 1.4646243880450829, -0.430916930122919, 2.2056963409489887, 0.46709064386556465, 2.694635741040294, 0.6822732936403728, -2.392263027972181, -1.569213474903642, 2.984512817628726, 0.7028779075208198, 0.3831712768433029, 1.6020337775893392, 0.07861888884142765, -0.19305883110070177, 0.3496494007957871], [-1.1226944582613103, -2.761571153606689, 0.21765541832506852, 2.2788703799334797, -0.04183974073362062, -0.11080854507587112, 0.6976974645299601, 0.19860698952070077, -0.316907029105459, -1.428809360438572, -1.3287132468230687, -1.1667025731770049, -2.7481924075913176, 2.967654488624893, 1.1119813928603302, -2.1959834713523088, -2.9145787831897034, -0.0708745706040399, -0.1988954069023845, -0.6846149085261564, 2.8990761591010683, 1.6323716154270063, 1.0649936910527193, 0.20164762683871107, -2.109455431749666, 2.2658153488608486, 0.3886879877059384, -2.1676762227555217], [1.0628410412166476, 0.3053943325482984, -0.6397491409515936, 2.3028637278655255, -0.010527771377763173, -0.5620441729971355, 1.659077635384131, -1.7199294588351257, -2.854038979284918, -0.506096114736073, 0.02385277884521031, -1.2833964052077433, 1.5187849466552024, 0.3187100235668696, 1.8134598080495978, -1.0096860126118663, 2.1126809410463228, -2.7431190226198456, -0.1699245765475661, -1.1908156396376444, 2.6952439154061594, 0.02106181141051433, 0.7282742849720294, -2.5978336991241573, -2.6139454506065323, -2.571843932469095, 0.5825610831674028, -2.3506498074810382], [-1.110229926760456, 2.710703348384431, 1.480244301845584, 1.3927327032826335, 2.4220933155763387, -0.08204543750607574, 2.5680188394217645, -2.620669592785849, 0.8576899364587183, 1.493337984548873, -0.23699290570909692, 2.342083568741071, -1.2246092970313804, 1.275339188486809, 2.4032201976605077, -2.0963327593825305, 0.9304957173043418, 1.0720406832824443, -1.242887466142248, 0.5789581060066693, 0.17992761536369617, 1.8108255057259788, 2.1233384280680117, 1.2448084021822226, -1.9450043438259292, -2.2432755935810853, 1.3505884062464162, -1.7759455153391506], [1.2313596243025913, 0.34006437109850296, 2.3271226367613327, -1.530819864000569, -0.9544014839250154, 0.9185301856915324, -1.8473571704005813, 0.7759021465974896, 1.0239531209865254, -2.1073962326218236, 2.6470087092844174, -1.2053096327868373, -1.367628814611612, 1.9914048581217676, -0.461763685239172, -0.5348629830680256, 1.502946857503522, 1.1592791297764702, 2.300552018386477, -1.1678239471146346, -0.3375405008037573, 0.40544392612814883, 2.4106225822307206, 0.18997362700048148, 2.3556835497283455, 0.22655560955867493, 1.277018081792626, 1.5261042899455761]], [[2.011643913573061, -1.4013547740666985, -0.1986231462776349, -1.148641594967555, -0.4175219793060041, 1.3924234039766095, 1.816619253794176, -2.6912859527055404, 2.3059838957418, -2.2563779767973475, -1.9078270439606606, 0.5424613455510414, -2.954542424001967, -1.105875578739746, 0.841816869374366, -2.533837669650578, -0.17310692315123077, -1.0011828354521066, 0.35192595969748997, -2.420859896546074, 0.4991527102429636, -1.3920045154269722, -0.3352526551035906, -0.7822218072489235, -0.07345358379467992, -1.5119983085520157, -2.198144143636992, 1.7417515281538076], [-0.653582369182355, 0.16635397920373984, -0.48008581064986, 2.3673147480604575, 0.4536348414177489, 0.611063622040017, -2.7313840474058484, -2.4745218479127455, -0.8068829140530669, -0.9278487804950317, -0.6453246910681134, -2.554574695911957, 2.962142901067099, 1.2075265057491746, -1.4659217043276096, -2.244242953688171, -1.4397745441108174, 1.8129428605424973, 0.03457482382418808, 2.017033422421358, 1.7040118467585668, 0.43220025741094403, -0.32830174520590294, 0.03295447414142849, -0.17991705850626438, -2.0225885589724673, 0.6519311337758893, -0.3814669691151318], [2.139687159784935, -1.0674979749067965, 0.20535823298092826, 1.1489766368570358, 1.4612775833730343, -1.6882963493831158, -2.4519797515550104, -1.663278297981998, 0.5930464360458645, -0.10442484490750825, 2.9554989395019398, 2.5117008645182253, 1.915499854640231, -2.739589490143957, -0.16276340703613812, 2.606839332708711, -1.1473526033223729, 2.777838444218742, -1.9020666405472741, 1.4505940682235687, -1.8298302196269045, 2.4206958630773237, -0.08971595204473637, 2.8532540268896716, -0.8161252974167574, -1.8598842259781183, 1.4096767319842058, 0.09105595847447923], [0.1862332215661362, 1.8243507840277244, 1.4904642274261617, -1.0165405332026836, 1.867535410077335, -1.462836116319432, 1.2397321359617184, 1.90419919647724, -1.7484706945137016, -2.489738008731679, 2.8111856719185297, 2.9885606082150744, 1.975365519605993, 2.70489917527527, 2.87583924950896, -1.7494757962106484, -1.524019633002571, -1.8421492726654674, 2.228427582100662, 2.3935977582485695, 0.6857566328695075, 0.005329225669012061, -0.015173973322141432, 1.7823989066040706, -2.6191245946930968, 2.8428042429055145, -2.7829881588172647, -2.9792339238810466], [1.9893428821934878, 0.8780477102543038, 0.9110680767861039, -1.2491250895563302, -0.8143301061764854, -2.0014354153012603, -0.5730469608452644, 0.8538252243717719, -2.022376532173987, 0.42419856393887034, -2.6336059310927533, 0.671401355451585, 1.13553607741885, 2.2861200261897663, 1.911037225200059, 2.1769698292486392, 2.9813565048115036, -0.21398096772853892, -1.3401095881879133, -2.2280998064814854, -1.8373634983570473, -2.2936629144190457, -0.331364024868098, -2.273015372314576, -2.838618447081463, -0.7429648225917429, 0.18654546985298204, 1.5348954281542326], [-2.9337239600558647, 2.9675397438673716, -2.062852786682196, -0.6819525741698769, 2.5156971089181415, -1.1435687371187222, -1.0403769717816531, -2.3156575928329772, -1.4945516482934667, 2.414027766721029, -2.3688140513596956, 0.5435659813952562, 0.5179900337600776, -0.1011321373651266, 2.9587805817314283, 2.5367573147730784, -0.03315057729137916, -1.2792358423576329, -1.2497861352682416, 1.513157920835476, 1.1586749879583813, 1.4350381889802613, 1.4738507242735803, 2.317483853324413, 0.27562921612832536, 2.987434632235475, -0.26624176160848645, -2.290337853389848]], [[0.13165313264544087, -0.38939290593918896, -2.0877347358989207, -2.0705607570273425, 0.3616302416914916, 2.25370853579252, 1.9926097719041875, 1.6605300979900042, -2.144943398810014, 2.827081863693306, 2.548329539082122, 0.9457230115950539, -2.85815469993552, 1.1530643099982454, 0.6909950650187282, -0.37140464124220873, 0.38410686807006034, -1.5420114166400467, -1.4904412609417363, 1.1554144612926152, -1.8403073025284071, 2.740442080594401, 2.7358248321105716, -1.0355142725900517, -0.8749495936280858, 1.7591801392555704, -2.7760098031346367, 1.875287928648957], [-1.7172011831677498, -0.2222082447432716, 0.5391307974795532, 0.435094725848304, -0.8537223967140575, -1.9086246671549323, -1.4046753396057612, -2.423289764898307, 1.2081025333037703, -0.6270852440313992, -0.4027613795376288, -0.8541234546482546, -1.8381526547582023, 2.783748274630028, -2.506959114760082, 2.0777791957997414, 1.6164056549352726, 0.6701894311309475, 1.6866944757741447, -0.15100961331536844, -0.4272304122875319, -2.9934673842910504, 1.9333491888997427, -1.790371157280348, -1.3334655818780732, -0.7569296079431251, 2.9601765943846843, -2.7587993806504647], [-2.6463093537325193, 1.3708620803557388, -2.1235911929015554, -2.5565010361986094, 0.2930493019678275, -1.5414126232369338, 1.859495077713948, 1.1505268017334087, -0.2152382494120606, -0.3249865487437509, -0.48503145564058814, 0.9544355458613687, 2.5467763584021483, 2.382993541894111, 0.9552010202050218, -2.7776204175871557, -1.4015477319649015, 0.05296234629744134, 1.2394204098636301, -0.9486685868479698, -2.2733049044277314, -1.704774136383333, 1.3923244878354568, -1.4295950561864086, -1.631722754523698, 0.4176264023817682, 0.518164096296756, -1.015665920814264], [1.903037502928969, -2.198582532291658, -2.6581747430005676, 2.4419364461257267, -2.8051067171221318, -1.0183373503567092, 1.8968703020867297, -0.6777203024517906, -1.2360008973456609, -2.017563345392254, -0.2757838440816611, 2.47012196089232, 0.48283382227036586, 1.3378372658385382, 1.4924260198956922, 1.9630594843641784, 1.9497354639871425, 1.1718507639762956, 1.3092482523467384, -2.6437159673699773, 2.4453242636210035, -0.14071087997442122, -1.725059505944928, 2.4336605700394314, 0.8142951234673719, -1.8387483104434716, 1.5064682742795252, 2.296208328800394], [-2.107605461528223, -0.0005279133091846688, 2.3631370192215027, -0.7164504503802558, 1.5873798275666466, 1.8314150219541032, -2.674219755902068, -2.6573011929990953, -0.6575254512499669, -2.78169808413792, 1.5415833585931633, 1.3939644235561373, -1.5251394544572765, -0.41130632032479086, 1.4121058601864949, 2.1263913615815007, 2.7474720461655817, -1.3954289798104975, 2.8988146712189007, -2.3326512159048773, -2.44752972762259, 2.325341056467508, -2.318089200591693, 2.2246057837750515, 0.2694437268732819, -2.6218880995935923, 1.1044565096055168, -2.5946277196717347], [-0.9131509052190276, 1.3520943137503147, -0.8040782858948687, -1.8792951195028778, 0.9476981404909806, -2.3814505573241203, 0.7982704791237216, -2.8786318533237303, 1.914622804312038, -1.661142419779915, 1.4349680787060182, -2.9506737627452586, 0.2136352429579671, 2.785336549915745, 0.307552365885579, 2.5620632336924, 0.31316251930895733, 0.31585011116101036, -0.4039722776042094, -2.0373762271899842, 0.9549691176620856, 1.2586909893655926, 0.27706836959746095, 1.551490849819233, -2.9307818145310636, -0.578087689435562, 2.0804602131579832, 0.8510919838674731]], [[0.7493130112109059, -0.23070483153315635, 2.033978389671474, 2.6141071970605676, -0.48686976165827645, 2.764876241711155, -1.9296384660393717, 1.767451879697644, -1.2540855981444896, 1.1018378370923827, 0.4736189117970535, 2.754366443739162, -2.8436290402538456, 2.320179134929356, -0.2140441389733354, -0.08703683906309934, 0.8396960993300464, -1.3724489935252082, 2.1543969606059337, -0.43036390124603185, -1.3840266031730453, 2.2365899710616635, -2.7910663895332326, 0.2098157347472207, -2.6324669066679762, -1.6606871353242356, 0.5941051978822003, 1.3556557138261374], [2.644745634099924, -1.6745551330781476, 1.4678238797177343, 0.36338168714601604, 0.8859613835070865, -0.6831084540857919, -0.1842484863124092, -1.3622382205426533, 1.8533026773511843, -0.70388157465809, -1.8730654509051319, -1.9911688486372872, -0.13383520870119536, 2.5115897448998776, -1.839419304464832, -0.9739486601732721, -1.4414610902432192, 0.9488984274609367, -0.8900169827756361, -0.4489304849449809, 1.425897125829863, -0.8220754810464355, 0.902195719096043, -0.005041070885947629, 0.025038592591888786, -2.612431525405791, 2.574685517538893, 2.5878058421508765], [-0.1376876966235283, 0.9586158901060666, -0.46364410789331867, 0.6569520927292678, -0.8961761360487479, -2.2683790661572294, -2.3958740883366456, -2.422160103063953, -2.250466133984759, -2.433904857076941, -2.426271606832636, 1.80121782393776, -0.31520808205833806, -2.443986545235707, 2.0000888303055735, 2.1228961144940666, -0.795144477848464, 2.0291073288259334, -0.043450066086397676, 0.9513956729422288, -2.9308190839529855, 1.175539745916197, -0.04576406135563316, 2.581590709600037, -2.1898674296973475, -1.5828797558842638, 0.7875214685696652, 1.1053582781375582], [0.5758085000871933, 2.5682672027508255, -2.564984031689378, 0.05534701118047458, 1.990035121052136, -1.7745088534941655, -0.0013835390678931248, 1.7840030688921154, -0.19696976111996722, -1.7670817605477174, 1.0547085173101003, -2.4053213435002867, 2.123655878417077, 1.733580303452202, 1.78972778158702, -2.582930929258911, -1.3800183652021736, -1.217653455515302, 2.7056407964929594, -1.1436901095917429, 0.9171600667211792, -0.5226556635829569, -1.7187811692042758, -0.8539562651216768, 0.7701243552947874, -1.8049781397197524, -0.3470764774751851, -2.9254836732833978], [0.845032975903238, -1.8195886751545713, -2.311332190813294, 2.408062066255173, 2.2695200944504066, -0.5632596047694962, 2.7249415605090554, -0.6246519801633101, 0.2204436128420717, 1.041702179797988, 0.95775662837959, 1.9291778567117674, -2.8528296070819854, -1.7483410945575428, 0.21559783726889004, -1.4162280985372968, 2.4008202570932644, -2.560904512597906, 0.3807382568682982, -1.9967224885583574, -0.09608630762542614, -1.1457633095169153, 1.7226050868818108, -2.918911352866491, -2.6129855980020835, -1.2458187769128153, -1.8139925270942918, 0.9643668169861384], [1.49433288954741, 2.6262375026987463, -2.897747781023834, -2.2971408740988393, 0.4320965156647074, 2.9656485501316574, -0.015597901115776303, -2.876031268040678, -2.4936958116286667, -2.4299281414956972, 0.7516719492784141, 1.5554182369561795, -2.826702696592452, -1.9484119990836952, 1.0747193514932887, 1.6256904455760282, 2.347816512723088, -2.9706044184885094, 0.03633475272932829, 2.552187558143433, -1.2511929186703847, 0.5909436785861382, -1.4617197927404049, -1.0592429975329434, 2.115882785644387, 1.5794116145257737, -2.9565414335067013, -1.7167342648426593]], [[-0.7095014051903932, 0.07623787718393027, 2.842276648442958, -0.7012459596697553, -0.5284563478689739, 0.6591405592379909, 1.0829622829865908, 1.354955991393985, 1.0117868252372615, 2.488500619055465, -2.20747468474669, 2.0077812449190686, 1.1539905774335129, -0.6726704263814072, -0.6698091192349791, -2.4485481209683995, 0.5482795484355787, -2.4717677090134855, -1.6859946926836358, -0.7985886072890667, -2.4981885572031306, -1.564585168332041, 2.154215227865021, 0.04049056369178938, 0.6754612672781608, 0.916905470298147, 0.4016333629164057, -1.6217099325539739], [-1.7162473361059158, 0.25267545414264525, 0.5481699815041026, 2.631986145970222, 0.4615742624340049, 1.517951302791971, 1.3138453596135626, 1.8710146212301657, -1.5839907299125005, -1.485984949453124, 0.7271431207555441, 0.6823008568324802, -2.119531885065843, -1.937486067141217, -1.6799800999410668, 1.3756863939255668, -2.2059281173905605, -0.5483309994969678, -2.755224454662618, 1.2746054304556882, 0.3648721485632018, -2.821409046430097, -1.98110847761468, 2.0545897196679865, 2.994707331113614, 1.2791660455463543, 2.821466982336392, -1.2744501681184024], [0.5149179184785009, -2.0122705004080736, -2.6687647090097757, 1.7308379852111697, -1.7944354680604695, 0.0533230211729121, 2.7626633211152782, -2.649570785341205, 1.0774199758174996, 1.1316486660137564, 0.31879699040727116, 2.6736661164527264, 0.765014460831777, -0.4342140059631121, -2.072783245021448, -0.7270669275155202, -0.041778364702097726, 2.132262963255763, -1.3611389059051349, -1.3775234049166356, 0.4817318774505668, -2.7662364073330887, -2.9905002203881588, -2.489692982977358, -1.0396904148888173, 1.5163551945281277, 1.957362596559296, -0.0612513309892142], [-0.9079175710587464, 2.695683031412626, 0.6429322348548814, -1.7217796688947875, 1.9758771881196706, 1.3071281258245016, 2.2225712434834213, -0.20225932898007848, -2.1341872463284988, -1.8152352657761013, -0.9795078167839231, 1.898900016548513, -1.8385368298701976, 1.602918502455469, 2.5743233936545096, 1.9049450723925343, 2.2974200226630215, -2.283701132038529, 1.0032268723347197, 1.746113060655043, -1.1673737189891624, 1.2690144584769154, 1.9863224656958165, 0.43770195329528994, -1.1517866154657128, -1.7623362448502682, -0.22064922621958516, 0.5068789457447189], [-0.5758744402807867, -0.8022218285253668, 1.3508317743203095, -0.39678325418522586, -2.881034019846415, -0.5898472889399096, 2.3049922426961675, -1.2996248500137528, 0.835225003017011, 1.7889754743850617, -1.7882625934440168, -0.994435398466786, 2.820627116714773, -0.4377172687073223, 0.030439804395828052, -1.779065679660375, 2.30141487275307, -2.3000583378103756, -0.7685623130475685, 0.8938227721841239, 0.4914293099726432, 2.9882014527032386, -0.19198267002934966, -1.9548601266034387, 1.673128018602653, 2.726848520991372, -2.1389160851068154, -1.3983458725589313], [0.40188443537748864, -2.5601159210350355, -1.5054928006187076, -1.8347751683385254, 0.031326822829736756, -0.7240147392237235, 2.342915640757388, -1.9042683882003095, 0.7253954306185948, -2.657182002109123, -1.3399055050566948, -0.5320445256577049, -1.4884608897242253, -0.6539800588528983, -1.946770932523399, 0.6911625806385624, 0.7487420721498346, 1.4889273778917644, 1.8215223350125402, 1.2018278805107965, -2.002198651618661, -0.3641619584365783, -0.20253946584561655, -1.7457645239609079, 0.07410018253749673, 0.29214630681160303, -2.698533864449958, 0.7362718519490716]], [[2.334368939042406, 1.1345538871379963, -0.3623841863981201, 1.1198945945338759, -1.4881403005962521, 1.4774378587226558, 2.179663833409501, -0.7096448976436669, -2.2779024494363282, -0.8712298090130428, -1.3647906875176483, 2.522235906072618, -2.476999957957621, 2.638021147133557, 1.4594123506647616, -0.15650009510874074, 0.09957174242236544, 1.6753777123823728, -1.6818614354496229, 0.8976158722686227, -2.452781505636695, 2.814600488356323, -1.0159744065258294, -0.18703884157315853, -1.2261222275670505, -2.251851448222528, -1.1661787951935607, -2.8168358540151317], [2.836293703360793, 0.9031405975488025, 2.682101417450558, -1.720937696904309, 2.9687858807860676, -2.943987282415206, 0.37841483257278696, -0.5283274061508805, -0.6540044948686248, -0.4703879672074951, -0.20716762878691597, -0.6159284195980144, 2.676172808784843, -0.789074442771847, 1.3088765546475578, -0.4853097598842786, -0.046994039483279515, 0.49115193836165716, 2.9430810274143484, -1.1931047159684915, 1.7228639377030586, -1.4804023055040698, 1.1186571189832346, 0.44138899350008653, 0.8979494411785014, 1.4172572280310032, 0.559320026582927, 1.0437959991664325], [-0.5705330192152989, 2.783801410951532, 1.0599199580740528, -0.004659790083688442, -1.4333002949299611, 1.6841798276852193, 2.0037721493708753, 1.4086402553355661, 0.4850419542433366, 0.5493894286587473, 2.281668418303183, -2.425338949100704, 2.1934168934576155, -1.032888566464978, 0.0342942945667537, 1.5507888430310555, -2.820682242783789, 0.43165261138944455, 1.9955030573478147, -2.971501549738062, 0.14219563455381223, -0.6637249687006319, 1.8375050150154513, 1.6277796962071038, -1.0254424488749594, -1.1272706601484088, -2.144127930394469, 0.9652670437522675], [-0.03461158852289348, -0.5330904046630223, -1.7669999626177806, -1.461442805909496, 2.4546764398198757, -2.7956397943738853, 1.650469265185956, -0.7750995191393253, -2.0949815508473177, -1.1437431888301455, -2.0949240518819012, 1.0622346272242567, 0.28472448935696226, -1.4863627250562612, -0.8208110712335586, -1.1386698295021391, 2.015166469812997, 1.037019927755404, -0.5551744001685917, 0.7805713029812953, -0.337760034921363, -0.8898544256686898, -1.4070581457521447, -2.602346698851221, -1.9392776157612244, -0.9514339329532664, 0.0823944988262788, -1.8751161453867409], [-1.0416836511982634, 1.4229799243178753, -2.7009651729529622, 0.15973327983065477, -2.347360469657122, 0.5946994772072554, 2.6178186264048264, 0.6050730842145757, 0.41274430123972783, -1.240283986919034, 0.7329039879342503, -1.6056948399615398, 0.0026681630018199343, -2.6374735572188825, -1.697732991539647, 1.7344420308049493, -0.08375043562532092, -1.0350012741447996, -1.375665307823363, 0.18203897274009595, -1.0082543604117615, 0.5578228339871836, -1.9634587819719016, -0.3686381375120824, 2.9538802228613603, -0.5711217162077258, -0.9168636759752378, -0.09023407291389374], [2.645624783734286, 0.9936801504450021, 1.610721217051232, -0.9934070450684565, 2.096231039308531, -1.6403461212924817, 1.967029747780881, -2.026352391953237, 2.381326143337967, -2.268201387902732, -0.5833937209388567, -1.6605241273786486, 1.1567525851918399, -2.9541621191065697, 2.4425657505752127, 1.9566469481851838, 1.7843215652497477, 0.6071836301606259, -0.22416162487441138, -2.014359904027272, -2.6749081277434374, -1.372508842305398, 2.991921344739346, -1.2903464216335603, -0.050492876062351755, 1.4684518764957417, -0.7819737227628263, -0.15815686361801173]]], "t": [[99999999.0, 12.081867756278747, 9.79736069372617, 14.82673242820995, 8.907228902493564, 11.841623245461093, 14.748162156667918, 5.65762501330359, 10.496429942364305, 8.350472595585115, 10.898298692803587, 5.891863273483392, 8.542872988273835, 6.664407208826864, 14.621997197465626, 6.417754947743867, 10.604695623890686, 7.169804577127321, 5.688881099192256, 14.029601888357028, 12.385747754020752, 7.581351264168456, 8.6618832898735, 14.926658072378018, 12.457920383601753, 8.98061970552299, 5.072069912895647, 9.879387738373282, 12.34610391555244, 9.268053357834148], [12.081867756278747, 99999999.0, 6.719559086552489, 8.313916648419914, 9.326427723205107, 7.573271815838551, 13.679023198647307, 7.692755724413623, 13.315552895232356, 10.717138849050261, 14.093631719343536, 10.391668026363725, 11.593590628540639, 10.211760903874914, 11.48833031003203, 12.634507678187772, 6.517363246321941, 14.341672856235718, 11.540118167468584, 8.259088906092229, 10.017279894063675, 12.450206267791714, 5.838983294251671, 14.744065675737883, 11.791227618864525, 11.425805868054182, 7.284203486954256, 10.707817445616039, 8.528371797823926, 11.735308410605501], [9.79736069372617, 6.719559086552489, 99999999.0, 13.109702749454431, 11.934073889173861, 10.786059282299561, 14.733693831821068, 5.706043230635923, 6.350215178594559, 5.941217787778332, 7.795147303785146, 8.796406723911478, 11.559909464904111, 8.115051083229815, 6.4226406831273675, 12.364495566515522, 10.342683438407388, 6.876233839259859, 9.016315396206334, 8.124738834311325, 8.44978797512032, 14.591973057374357, 10.729341835382925, 9.400953998542878, 6.593674058028407, 11.451357290405472, 6.780179387557333, 8.676843380335178, 10.784599972356528, 6.2128950650845125], [14.82673242820995, 8.313916648419914, 13.109702749454431, 99999999.0, 8.302024748519269, 8.004079146129294, 10.349478955317522, 5.787203227685341, 13.826291169912322, 12.177920413827628, 7.396622260024989, 13.552895931292968, 6.722425475705526, 7.153229313530069, 8.457347900615716, 10.223286377673892, 6.895308752448637, 9.145860845850347, 8.248026094721096, 13.951768798864153, 8.83755088840162, 7.537987352698377, 12.687767924176704, 7.031578863080296, 13.583731659530919, 5.980842637985911, 14.617081886979639, 6.168021757499577, 10.413666712822351, 10.789072070327364], [8.907228902493564, 9.326427723205107, 11.934073889173861, 8.302024748519269, 99999999.0, 12.900333131573662, 6.4230867098876, 6.802961907062946, 7.210359912141664, 12.26674393089467, 6.632430933935351, 7.928265337662008, 10.703372678734892, 10.179058346605133, 13.66198319601216, 7.645483287670958, 12.953409852194131, 14.599220279067882, 7.807404767643126, 11.123453129267237, 5.363314084611965, 13.701182645316685, 13.403052536654718, 11.446029260734639, 9.861993056835544, 13.7741056264739, 5.166495007802114, 11.062584652681222, 14.845723218325844, 11.410651696464992], [11.841623245461093, 7.573271815838551, 10.786059282299561, 8.004079146129294, 12.900333131573662, 99999999.0, 8.623932316072173, 14.399585088296766, 6.991377260607647, 6.168711534726898, 11.39191427556576, 10.730686350505678, 12.563726007593955, 10.710643667754374, 14.210607001848073, 7.057724308089153, 10.875004161316319, 7.16968492655532, 14.125034507863433, 10.057872302773122, 8.983261504320339, 5.810361055919156, 9.027786478005565, 6.264769762985855, 10.495878278182087, 14.511328586172679, 13.77236974808108, 9.217108415941793, 9.377488901621497, 10.459329199706094], [14.748162156667918, 13.679023198647307, 14.733693831821068, 10.349478955317522, 6.4230867098876, 8.623932316072173, 99999999.0, 5.631168215150115, 13.564665033092261, 14.222155487526807, 12.006993335007634, 14.315416083352648, 12.367967628319837, 8.06044105550806, 10.764819346410409, 10.010626333499246, 9.637800034850624, 13.047277058561797, 11.59564505196002, 5.963940918913593, 8.275044583388024, 9.108608059441353, 13.213330993521254, 7.09759425301308, 10.577320529781193, 13.676726095674907, 12.01599059645484, 14.96991012875609, 5.262345455969354, 11.924876995748468], [5.65762501330359, 7.692755724413623, 5.706043230635923, 5.787203227685341, 6.802961907062946, 14.399585088296766, 5.631168215150115, 99999999.0, 14.810091170131, 11.94641330959163, 12.831038932581516, 12.297561517561537, 11.011492691508405, 6.99857876584387, 12.592161770785953, 7.350892051105642, 7.26949662403846, 11.016021245506042, 14.733443871244509, 8.070000274322556, 8.926763816885995, 7.013004793512811, 10.976948607286305, 11.471360198124952, 8.03374716543399, 9.2800221665072, 12.847816671163597, 13.018373510449996, 12.496337936629255, 9.913639181412695], [10.496429942364305, 13.315552895232356, 6.350215178594559, 13.826291169912322, 7.210359912141664, 6.991377260607647, 13.564665033092261, 14.810091170131, 99999999.0, 11.093573755840772, 13.203322234359755, 10.78922262783687, 7.891422461597476, 9.102835866423199, 12.928784807639545, 10.524799454089969, 10.305244224134578, 13.366467438287579, 10.342374216437923, 7.353622676642463, 12.244298091072261, 12.51362269177588, 7.442790841329887, 5.313053289662894, 12.397629613873356, 13.208769746959018, 13.009940767515113, 12.190249750460467, 6.643922427892903, 7.05357290235149], [8.350472595585115, 10.717138849050261, 5.941217787778332, 12.177920413827628, 12.26674393089467, 6.168711534726898, 14.222155487526807, 11.94641330959163, 11.093573755840772, 99999999.0, 14.906967746306744, 7.534664360730908, 14.695605464480936, 13.231455760628636, 5.37610199413206, 12.442489934259342, 10.725256858637252, 9.372425833104419, 12.981887104371364, 14.679216432603319, 6.188862897381849, 10.885866474769756, 10.950774034434023, 12.732076130370697, 13.490702132001926, 12.8486023456089, 14.149228329992475, 7.572696217737654, 6.214694360645728, 13.908060451432254], [10.898298692803587, 14.093631719343536, 7.795147303785146, 7.396622260024989, 6.632430933935351, 11.39191427556576, 12.006993335007634, 12.831038932581516, 13.203322234359755, 14.906967746306744, 99999999.0, 12.311898582108512, 13.339923785591587, 6.6746767351534135, 5.289556829009054, 7.080472529396877, 8.275692706503516, 8.121586982868862, 13.111677915895225, 9.544609858594956, 9.993536200316445, 5.498990774109188, 6.5573866012459705, 9.365202386932928, 12.797415792476244, 5.266565853616515, 14.638073972546122, 5.089439124779914, 11.307438847005574, 5.510310019280884], [5.891863273483392, 10.391668026363725, 8.796406723911478, 13.552895931292968, 7.928265337662008, 10.730686350505678, 14.315416083352648, 12.297561517561537, 10.78922262783687, 7.534664360730908, 12.311898582108512, 99999999.0, 6.947971741020305, 10.35328670194147, 9.318729188231625, 14.36625189028206, 5.379344643812244, 10.706786287627825, 10.85191995321998, 5.375390371428041, 6.960070689111191, 9.329731307425279, 8.997932924671638, 9.16378165605371, 7.7464775633057155, 9.994774381865911, 6.8559704400598935, 6.677799142615276, 7.546403755799775, 5.8408745588407465], [8.542872988273835, 11.593590628540639, 11.559909464904111, 6.722425475705526, 10.703372678734892, 12.563726007593955, 12.367967628319837, 11.011492691508405, 7.891422461597476, 14.695605464480936, 13.339923785591587, 6.947971741020305, 99999999.0, 5.027148538894227, 12.119842774447406, 5.959870631071716, 7.1936102868975516, 7.015442355131575, 5.543681579847699, 6.005893416140063, 13.689640680712852, 12.410883764275152, 10.61074436990781, 9.378959049336164, 9.66931908836885, 9.889737668824836, 9.218796000691583, 7.540889596181991, 12.39386912791695, 7.2603180469269315], [6.664407208826864, 10.211760903874914, 8.115051083229815, 7.153229313530069, 10.179058346605133, 10.710643667754374, 8.06044105550806, 6.99857876584387, 9.102835866423199, 13.231455760628636, 6.6746767351534135, 10.35328670194147, 5.027148538894227, 99999999.0, 8.912891168365622, 14.169075829760274, 6.327213816700561, 13.536071439008845, 8.195404597880197, 8.790327535626583, 7.753944704945797, 5.926023292909043, 9.55307097665045, 10.739124214657949, 10.440268135310193, 7.349799867896801, 13.636146413006482, 14.234173879377183, 13.665997976374305, 7.565408695404793], [14.621997197465626, 11.48833031003203, 6.4226406831273675, 8.457347900615716, 13.66198319601216, 14.210607001848073, 10.764819346410409, 12.592161770785953, 12.928784807639545, 5.37610199413206, 5.289556829009054, 9.318729188231625, 12.119842774447406, 8.912891168365622, 99999999.0, 5.317894853114295, 5.90428003613577, 8.629043128456521, 12.179784337580086, 12.811693556817293, 6.203957870088943, 9.99302457280642, 8.386013033213493, 11.75926466938888, 6.594578517700979, 8.859552939994499, 8.084232314259022, 12.739843658167729, 10.185925491420146, 7.807851230154709], [6.417754947743867, 12.634507678187772, 12.364495566515522, 10.223286377673892, 7.645483287670958, 7.057724308089153, 10.010626333499246, 7.350892051105642, 10.524799454089969, 12.442489934259342, 7.080472529396877, 14.36625189028206, 5.959870631071716, 14.169075829760274, 5.317894853114295, 99999999.0, 8.2327094813351, 8.74763081740738, 11.36353470232315, 13.034436894768195, 13.045466047262405, 12.76892280890031, 5.0120638524373735, 10.209058973169299, 9.667376833795087, 14.338013788191613, 10.259534791124336, 11.680375842083198, 14.518545024539602, 14.296362529900426], [10.604695623890686, 6.517363246321941, 10.342683438407388, 6.895308752448637, 12.953409852194131, 10.875004161316319, 9.637800034850624, 7.26949662403846, 10.305244224134578, 10.725256858637252, 8.275692706503516, 5.379344643812244, 7.1936102868975516, 6.327213816700561, 5.90428003613577, 8.2327094813351, 99999999.0, 14.441546709385676, 11.389219713549938, 8.838301553719745, 14.307911646324774, 13.112224172404146, 10.670546497365402, 12.119043528598251, 13.260607392439752, 13.280741241284652, 14.261359102057241, 11.245390358384686, 6.668803799074943, 10.854642047039114], [7.169804577127321, 14.341672856235718, 6.876233839259859, 9.145860845850347, 14.599220279067882, 7.16968492655532, 13.047277058561797, 11.016021245506042, 13.366467438287579, 9.372425833104419, 8.121586982868862, 10.706786287627825, 7.015442355131575, 13.536071439008845, 8.629043128456521, 8.74763081740738, 14.441546709385676, 99999999.0, 12.442383842062634, 11.532576733721733, 11.071541539149507, 9.20626987213085, 5.338708116269082, 13.091967227604089, 10.208519916541352, 10.45132764804615, 5.801680978952923, 7.283371932429102, 14.721151315808985, 7.743738508786455], [5.688881099192256, 11.540118167468584, 9.016315396206334, 8.248026094721096, 7.807404767643126, 14.125034507863433, 11.59564505196002, 14.733443871244509, 10.342374216437923, 12.981887104371364, 13.111677915895225, 10.85191995321998, 5.543681579847699, 8.195404597880197, 12.179784337580086, 11.36353470232315, 11.389219713549938, 12.442383842062634, 99999999.0, 14.635502565750418, 9.688811105915892, 8.756877784090321, 12.592795724142926, 7.536290787277422, 13.04518404000768, 