{"num_workers": 25, "num_roles": 6, "num_nodes": 30, "w": [[0, 0], [13.898632554492455, 41.73019278269845], [30.27269149815198, 62.25102911981609], [49.43402064155796, 86.79306216902424], [53.41092127136802, 83.88683438693425], [13.711037514394011, 42.44751850268037], [35.07970666820514, 69.28910808195606], [17.292056444994103, 53.79409766803661], [21.152578026776716, 56.470529024873606], [37.999285671637324, 69.02038315409432], [46.44722950937111, 80.35254014839651], [33.92354979830991, 66.72757732478033], [9.59678571246216, 38.8303170098312], [50.5261122719622, 77.66328617354989], [22.73233399274744, 53.964114180067924], [25.283744846489178, 57.14505798355289], [61.374863694947756, 88.42406417639134], [12.12259380237727, 40.55700827902696], [59.5253353056722, 84.59454553049913], [30.294762854541624, 62.53622614251312], [34.081326384220404, 64.10224959927034], [22.75868998909813, 55.63817402876356], [53.20510418579774, 83.53375220019947], [32.09582954266718, 70.7270070019808], [61.341202233573284, 89.50538205110132], [3.799996417391804, 36.5387635572263], [23.99402298097799, 60.46927056410661], [10.03782046926736, 46.63107871248384], [4.733496144094882, 34.87928000463012], [0, 90]], "p": [0, 8.68485759713087, 17.199637893093648, 12.923751280281882, 12.093305512411801, 11.821494296937002, 9.51416373886296, 12.715446414849765, 20.757304784483065, 8.150710270409052, 9.477488509550732, 20.38855676885973, 11.086644817212335, 12.93673093193616, 11.829270058251623, 20.35235110106952, 9.627390345410927, 8.974841232619548, 11.42639119554233, 13.857380136042831, 10.063114825034155, 13.624090367017631, 12.492795791467811, 24.183271131114715, 12.987027953609573, 13.219737968412975, 18.72973864921618, 18.413988206225774, 14.628350263077051, 0], "e": [[1, 1, 0, 0, 0, 0], [1, 1, 0, 0, 0, 0], [1, 1, 0, 0, 0, 0], [0, 1, 0, 1, 0, 0], [1, 0, 0, 0, 0, 1], [1, 0, 0, 1, 0, 0], [1, 1, 0, 0, 0, 0], [1, 0, 0, 0, 1, 0], [0, 1, 0, 1, 0, 0], [1, 1, 0, 0, 0, 0], [0, 1, 1, 0, 0, 0], [1, 1, 0, 0, 0, 0], [0, 1, 0, 1, 0, 0], [0, 1, 0, 1, 0, 0], [0, 1, 0, 0, 0, 1], [0, 1, 0, 0, 1, 0], [0, 1, 0, 1, 0, 0], [0, 1, 0, 0, 1, 0], [1, 1, 0, 0, 0, 0], [0, 1, 1, 0, 0, 0], [0, 1, 0, 0, 0, 0], [0, 1, 0, 0, 0, 1], [0, 0, 0, 0, 0, 1], [0, 0, 0, 0, 0, 1], [0, 1, 0, 0, 0, 0]], "d": [[0, 0, 1, 0, 0, 1, 0, 0, 0, 0, 1, 1, 1, 1, 1, 3, 1, 2, 1, 0, 1, 2, 1, 0, 1, 0, 2, 3], [1, 1, 5, 2, 1, 2, 2, 0, 0, 3, 2, 0, 3, 1, 0, 1, 0, 0, 0, 0, 1, 0, 0, 1, 1, 0, 1, 1], [0, 1, 0, 0, 1, 2, 1, 2, 1, 0, 1, 1, 1, 0, 2, 2, 0, 1, 0, 1, 2, 2, 0, 0, 1, 1, 0, 0], [4, 0, 0, 0, 1, 0, 0, 2, 0, 0, 1, 0, 0, 0, 1, 0, 0, 2, 2, 1, 1, 0, 0, 1, 0, 1, 1, 0], [0, 1, 2, 0, 0, 0, 0, 0, 2, 1, 0, 0, 0, 0, 1, 1, 2, 0, 0, 1, 0, 1, 1, 1, 1, 0, 1, 2], [1, 1, 0, 2, 1, 1, 1, 3, 0, 0, 0, 1, 1, 2, 0, 1, 1, 1, 1, 1, 1, 1, 1, 2, 2, 2, 2, 2]], "r": [148.4667170170314, 175.8240119772907, 107.69411430035396, 144.24925602928772, 64.42514926179965, 111.89680012171335, 170.3733954395919, 132.0568852068883, 187.81570489693468, 76.94255298730606, 103.23087309665794, 79.0065465914708, 93.0008176037339, 185.3179743238733, 63.642466091441285, 122.30723445830309, 117.36888186656584, 83.90957210490808, 99.36522455862735, 159.40835310168762, 133.86049537781022, 196.09390104444535, 109.0462326058074, 185.1935342387765, 143.0881987157244, 66.82621031952877, 135.37684180875397, 139.13085367630288], "b": [[[-1.6266127243894635, 1.7959887695702434, -2.091195398389064, 1.59520618223236, -1.3796414125638947, 2.0151123243960267, 2.1939035860325085, 2.739108695042993, 2.9642814938979827, -0.3334997513234139, 1.0743501321325706, -1.0374247103494676, 0.18846924281246036, -2.042830428198998, 0.5950273801766457, -2.6169292216736038, 2.654202476321153, 2.078929472367432, -1.9227975301326188, 2.6206274055595404, 0.9866510130048902, -0.7870110429351236, 2.436080694771305, -1.6922665351061175, 1.3969643201592117, -2.5380155495249763, 0.6311967668708576, -0.9324379854748566], [-1.6558306915863565, -2.142268629914807, 1.2961887946274224, 1.4334003484703342, -0.4313453775472076, -1.992080871693491, -1.2327124441338468, -2.483634777875776, 2.3522218675523874, 2.464522960471106, 1.2650291888675191, -2.1857096331437926, -0.5588313559940876, -2.840845331384174, 2.0927668000072623, 1.3547609913789351, -0.759895659569259, -1.4440717744220912, 1.9047236157365361, -2.0239758827983447, 1.0856768189903354, 1.2600020992314889, 0.16735399516110316, 2.77099241026517, -0.9847278927285577, -0.24404411945035287, -2.6423420845240604, 2.268818129660092], [1.4999457159229177, -2.3667771780823554, 2.624350069890321, -0.9758516109124447, -1.0946168729384038, -2.737756502611487, -0.5039959009945867, 2.70168050005515, -2.804506526520658, -2.377509420343017, 1.416796289645057, -1.6225045920907128, 1.5747613184252192, 2.1259489759397425, 1.6809060548584265, -1.4791071977316463, -0.09823147316075165, -0.1904732590775291, -2.6402064271615737, 2.4269980999391016, -1.772584666484462, 0.8498310566904221, 1.8039782746134811, 0.036864707313935874, -0.01218974858110844, 0.5028035708412535, -0.33194046691128154, 0.030542736131269788], [-0.43559368248311614, -2.6759337158102867, 2.545365358965581, -0.31530373201821504, -1.350233773679096, -0.07566273042202099, -2.657517881823804, -0.2789424590892171, -0.828828564094874, -0.8438654451015424, 1.2227088787854106, 1.7085849167888352, 2.770198486362129, 2.785485965738136, 0.3100488328894806, -0.4738103176006403, -1.8726404556278753, 2.901842716702266, -1.3279990768571315, -1.9194853118928592, -2.253166840968683, -0.41694753211631896, -1.667929707495982, 0.6361636505419721, -0.29150039588194065, 1.1015462297394922, -2.5706447680679085, 2.5664108434522577], [-0.6889953172284056, 0.5242569064773579, -1.9226106609346658, -0.2412524584499427, 1.1359100955979207, -2.240578194510811, 1.0417151277910124, -1.2060730531688586, 2.343608354350925, 2.8361088186281567, -0.6450374358643005, -2.3101028557426897, 0.8434761256661503, -0.5398386857666537, -0.8615006473640041, 1.7052372151271689, -1.9283464957310068, -1.207821675127669, -0.6867823276401905, -1.2801854482360004, -0.8595855666620897, -0.5983927356091026, -0.3060932869586166, 1.9462075065558242, -1.9802970987218913, 1.1814554887254634, 0.9242714566603083, 0.30767570164226754], [0.725312743166473, -1.6491435271853803, 0.26325034641015455, -0.47162052390409626, -2.8011253388881663, -2.8000573273566545, 2.4967876564110636, -1.0174577059395273, 2.1549745086127423, -0.05413032403442841, -1.6026874705256153, -1.4826255695659618, -1.0397492404525568, 1.6736123271083265, -0.5944963741359315, -2.1493229686338955, 1.0631177690392066, -0.6672633887131054, 2.1448413669122246, 2.2596730943921317, 1.303963536771854, 1.8165365473487265, 0.9825960472577293, 0.10544869347218544, 1.8964139561392148, -0.3981332528455255, -0.9819966688782644, 1.0216925942960122]], [[0.7765444182056758, -0.8426216536456881, -2.1479955416673837, 1.6599426972629026, 0.9956556303610613, -2.0637048182330693, 0.3317748977762154, -1.557878721774887, -2.758883323743653, -0.4385065593902713, 1.6425903428068507, -2.640964653357085, 0.2140639538669964, 1.3462058195938216, 2.7408051499992974, -0.9483893481226735, 1.1161644273424063, 2.7387466846420683, -2.2672981019251752, -2.339420806392398, 1.891936042716841, 1.8135826111091102, -0.3624718963076452, 1.698467198971298, -0.528760197550497, -2.229796842377764, -1.585928080499255, 0.0037267537756831004], [1.466434635399998, 0.002453963622480515, 1.5655514553213923, -2.755357897003122, -2.3408503122623125, 0.9499201959063859, -2.7297540035997843, -1.195445941427673, -1.252278802790898, 1.1144401144699545, 2.333826294302175, 1.654784376167303, 2.435516713948961, -1.0817995761841037, -0.8448725245829434, -1.5144194134034312, -1.2379897457431672, 2.553321118167487, 2.5308583353245764, -2.835199896502946, -1.4036314419600449, -1.5134332350021096, 2.4203401211725186, -0.3938906402500768, 0.3567990411082409, 2.3912448825022867, -1.0528340682708976, -2.7237052517828175], [-1.1717228268553028, 2.194976232178629, 0.44564821336410265, 0.030947065705785093, 0.6320118589406838, -1.8496276896454753, -1.5892140363592018, -2.8813191190378644, -0.8765788350574226, 0.37394855111408853, 2.6480147096416395, 2.5619540244492045, 1.7416475668321931, -2.691448857852916, -2.0510543978456477, 2.0594984195316055, -1.3288427637697422, 2.519732699450394, 0.6641034384643301, 1.2438164389056254, 0.5718516644515512, 0.8231006497161815, -0.5425750898964932, 1.2563877854835876, -1.019939986375503, 2.4959205933623547, -2.075950856933964, 1.4815169530741619], [-1.8425974346206646, -1.9304073728785742, -2.987094653018266, 1.0534715466057145, -2.7994060317780667, -1.3418994695615503, -0.38408291761155766, -0.8098478668735143, -1.0484021685591074, -2.1456408917129433, -1.7627471858835648, 0.4808498117253728, 2.101855835681662, 0.7288421209703317, 0.5553064780060883, 1.800532148056993, 1.7476166726245896, -1.9192533517468515, -1.8815845727285736, -2.9526016779992807, -1.938614821700715, -1.1709775960100197, 1.2164533079976891, 1.1578591918681918, -2.5506750155424625, -2.4591598799745418, 0.8195234497093091, 0.10057803678348076], [0.9673418132944063, 1.2939612350395073, 1.6038932847119582, 1.2145876224082386, -2.9439469995849965, 0.9721982177554818, -1.682091403494232, -0.022178658080891367, -0.3336598632497245, 0.20825290203093427, 2.698791718541891, 1.4457750777322333, 2.1387761769638676, -1.524029292703026, -2.908538440802851, 2.844533999159669, -0.5379840237386682, 0.9682569242725405, -0.16847272642606637, -2.250507523309347, -0.09480088634408368, 0.42590522265487696, -1.3228226431672194, 2.7133993032668338, -0.1409491270242027, -2.104747751858697, 1.002977090316321, 0.9639548467683383], [-0.1903391861028947, 0.8524815062087825, 0.817455700249984, 0.2718090528639099, 2.4693172892954998, 2.275317267229056, -0.5476849760819453, -2.014730788534811, -2.0129765648105757, 0.7865868938008376, -1.0262548836672012, 2.5506145612546263, 0.29239151294949206, 2.4034743583040576, 1.9600499574264294, 2.9796840244854907, -2.715797152402335, -1.7507583306636523, -1.9191758172113262, 1.2946128372192813, -1.4280139580263427, -0.13366848975365553, 1.504490573969318, 2.586596936131513, -1.2684139784510629, -0.3040200625980578, 2.082322017843241, -0.453434785110999]], [[-0.7442166371306449, -0.1562215475200146, -1.26576181156709, -0.7455322459048972, 2.5230813142460207, -0.6218532897001947, -1.3167974218270757, -1.8993744954091454, 0.3803515211981572, 1.421955086465963, -2.730199733043113, 0.32097701991741845, 0.0960953394494517, 0.5270104528500079, -1.871154857537603, -0.19201020985804007, -0.06626287725964186, 0.05471212499967626, 0.3893099906686386, -0.6170245660372098, 2.6206919988106403, 2.1425360551908943, 2.591230096346475, -2.06271903583502, 1.579132654181885, -2.431067662752666, -1.9825304382573994, 0.5792479319359183], [-2.1538009950057777, 1.8434091367729142, 1.115631923607875, 1.2034211016257972, 0.5019889420956778, -2.277937214876225, 1.0850909902148853, -2.4309862496785812, -2.6349209609048403, 0.9381656219618613, -1.0088099403602664, -2.335091477700078, -1.585903796030745, 0.7449375417705077, 1.4217144579411407, 1.0168618766083348, 1.3720237726651883, 0.8737821238248809, -1.9740495197800443, -1.3864932277111228, -2.823715458635817, -1.8859309780951419, 0.4255319712453276, 2.8160113954511115, 0.8723464051418404, 0.05899532121589601, 0.2591461153460286, 2.8143158225243408], [-2.1470939085044662, -2.167188606685287, -2.9950232659330474, -0.6385263876484375, 1.3584910830993095, 0.045436698886117455, 0.35685490678537146, -0.26902616791130685, 1.5104219567195045, 2.6653219599660343, 2.6866261073355675, 1.1630193497584997, 0.0428904356833657, 1.5137101268696425, -0.20641119943560593, -2.4127277507257032, -1.6229222134518337, -1.412767090515911, 2.302680135391137, 2.0620928985599445, -2.031223488006262, 0.4760558939034678, -1.1697831917254042, 2.6135850260597175, 1.5680774773699007, 2.413527173121615, -2.0595483535323833, 2.3649736744911793], [0.5103898789169383, -1.908995332293704, -0.5016315272582279, -2.811767297412202, 2.366077397318122, -1.6020954689190523, 1.1317623945183266, -2.8782316217727764, -0.5260128099724319, -2.896521740008642, -0.48397649508957397, -0.7893589353123907, 1.3277580980087738, -1.7284198130959068, 0.933467023463149, -1.1900338915302298, -2.466962684130813, -2.711077662404163, -2.248015395588534, 0.5091507192891238, -1.4590372507962215, -0.8576001321468905, -1.9651527836967662, 2.5732972721862835, 2.8629346249943417, -0.9940996238421755, -1.345848666834091, 2.7645411653747463], [2.731038358421668, -0.8172157376364142, -1.2002619299096988, -1.065433773395319, -0.2229998586926465, -2.1284548737362696, -2.908643816232786, -1.5623217122273978, -2.1712977984955146, -0.3632790609845973, -2.1068083151225636, 1.521820308446781, -0.783033053782785, 0.5025426374189443, 2.7702762145270787, -0.9581752037676692, 0.039409359953277434, -1.590659828739827, -1.3359355567881253, -1.0086530763485184, 2.567668349874534, 0.18968531083661322, 0.04469514727523238, 1.7836365011210003, 1.3698946593751158, -2.477056356241839, 0.34398434589503113, -2.2712634793412705], [1.6441161226921945, 1.939898486923, -0.4672795012132238, 0.5833533072309791, 0.777362936996544, 2.4995177526173924, 2.260230932170421, -1.6453997748567206, 1.119036178478681, -0.9866627853911654, 1.738265034972299, -1.7563376199663479, 2.240516642944998, -1.9308161584407266, -0.6502653443974626, -2.4602091661424472, -2.6435612044125003, -1.6743562125800615, -0.8966493349625848, -1.4137364173773725, -1.0196826839971513, 0.19195442139780905, -0.24514954470111672, 0.7857280863068015, -0.051030254201745784, 2.826678741816206, -0.463904052293886, -2.9194633679539095]], [[-1.1438733429521115, -0.9946670109184632, 2.441358022447738, 0.2393253494487313, -2.1126436289533546, -2.5371869169890977, 1.1150113114120659, -0.7605234539323185, 0.6304446480528725, -0.30483431250670234, -2.7796760547198756, -1.400529104899183, 2.853243217227015, 2.0270013015546358, -1.078321723785938, 0.7151007156638443, 0.36678525871015477, -2.276152155013593, 2.735770436914126, -1.4487425412206172, 0.8127503935910911, -0.9430328027698796, -2.212608872637434, -1.7854701298399571, -1.1471661865498257, 0.0783832946746239, 1.649074254085403, -2.643107890465756], [-1.2602004474681396, -0.0012200243165780833, -0.2097097516719595, 0.6934121738763985, 0.10331556554321564, -1.306166817224177, 1.7933276346432798, -2.2702366854204117, 1.5262310270472934, 2.796352811154515, 0.18667303074376296, -0.13607910003324886, 2.8129705251382564, -2.7632603526727264, -1.3577739086315166, 2.666346112508359, -0.9951227839606123, -2.530669589386023, -0.6788834670406505, 0.39514725708149445, -2.640757556377648, 0.9329867756058157, -0.03048413971556041, 2.6385575347714276, -0.8813155570501716, 2.0092097291737216, 0.37014812023808297, 2.267910037808843], [-0.205987972586279, -1.8225496443135678, -1.0822088419526448, 1.7169046256485068, 0.6818762482178311, -1.2006834823437442, -1.034129005126105, 0.8435643385131129, 2.4695074448956067, 0.6837913269454075, 2.7430988182116627, 2.967232476616621, -0.573084383146897, -2.151407416558502, -2.151789310075265, 2.6759431540297998, -1.8035661565505057, 1.1370197186683626, 1.2240146502545874, -1.904667890725285, -2.4694482197874854, -2.9464711437100624, 0.49240048958682525, -0.021361017579258235, 0.05364923665299948, 1.5714318739942446, -2.105653161455347, 1.433310303104129], [-1.6394197877379155, 2.5456547724343785, -0.8980139055216263, -1.3950528262101072, 0.7978711071213214, 1.2434271732288709, 1.5245705017268678, -0.8154393683470147, 0.43939940160377944, -1.0752398374180638, -0.37216155793951256, -2.0639723995628767, 2.846565896986669, -2.7516677274550316, 0.6534647773302424, 0.3852230252216984, -1.8803396203596958, 2.607207939622892, 1.365084360146633, 2.8841993013279197, 1.2993875546135039, -1.8816091566862565, -0.12517364724367486, 0.09682103787581386, -2.9053797840933298, 2.626563657357673, 2.9723227295279644, 1.586706123557133], [-0.5177417410111893, 1.5683535828986237, 1.8415534795547615, -0.5432400840938976, 0.26009522333750557, 0.7043852400620039, -0.11061120320054219, -2.433204521595852, 1.0033646187497673, 2.4995641711795535, 0.5650234812980623, 1.6230440975965221, 2.5840900733395085, 0.20499080365580058, 2.030847319207509, -0.026578853326170382, 1.8601086739758346, -1.8867760801938775, -2.9157321831910474, 2.053629605994143, 0.15596536914916515, 2.9188545812804314, 0.033740122434605, -2.1688423556016527, -2.632053799153206, -2.290861433886943, -2.161150560779422, -2.717323124827873], [1.8110301894243683, -0.1479301880896844, -2.9740184562288094, 0.6303361770808724, 2.520614977466577, 1.4437782471609326, 1.6725238537492633, 1.2990323567762587, -0.9775198169293398, -0.2791607947465029, -1.0370010436561972, -2.684881505380833, -0.06941873763831286, 0.14783527936117213, 2.217131967840171, 2.222628182887833, -2.5788702521212556, 2.3031588423515412, 1.8257938540115397, 1.9604950193123614, 0.03231223038591713, 1.136369451116468, 1.707526258692269, -2.741793146576141, 0.30615145890554807, 0.25587021409347344, -0.28575182454854264, -2.3303734715243496]], [[-1.1281009986416577, -2.0203522735700936, -0.17689099286913468, 2.89633318405078, -0.19292264520702762, 1.9850595336006815, -1.9246465047231502, 2.1492106113220997, 1.4617890543837397, -1.319458280293144, -2.5074233029214854, 1.5142359962495133, 0.7285922879253821, -2.004104751612558, -0.5353048914877547, 2.920337455383285, -2.0171898385707125, -1.361305369057855, -1.6507841553301752, 2.5365864144810946, -1.1305287795153116, -0.40219921494465094, -1.8770792700437235, -0.4837031302660568, -2.950927699145816, 2.333269447683426, 2.747017888274293, 1.3540464079082195], [-1.525571749739816, -2.875117977971702, -2.7109810094932625, 1.1771704875459346, -1.242873893722384, -0.6162125235059257, 1.4184923202813922, -2.287765309936944, -2.342354160381162, 1.0488890958381347, -0.25670540724842406, 0.45512171366126974, 1.1200574054626626, -2.3423841965046828, 1.4926922646019616, 2.5679880317968378, 2.5713346135452886, -2.209667365520051, -0.020586091202865475, -0.05528075765397222, -2.923329187515612, 1.0596913263490668, -1.4477814323682836, 0.5245150863035786, -2.0409723559550765, -1.692794820812859, -1.1145147952658496, 2.0044520190642885], [2.472808445260805, -2.2702933091711635, -2.4090714193149285, 0.5006737601758351, 0.12264528227942506, -2.3807445762243447, 2.195026527551394, -0.4520631113285516, 1.060873692377104, 1.791420740927605, -2.383239062208433, -1.7361078001253496, 2.6850575373303425, -1.8367953442237417, 0.6804914013399017, 1.7432650865209922, 1.8071047626680903, -0.10278756964340374, 1.9883189985041785, -0.2401281026608597, -0.22147589432882153, 1.1503805354323502, 1.1066954180262503, -0.36068813294685853, 2.91397648545154, -1.6500678050932336, 0.5689285119147032, -0.2959032340281893], [-0.40757419322721633, 0.21940301633653503, 1.9084801297491545, -1.0264283964299443, 1.9208165262435557, -0.6278422581655483, -2.30078933227641, 2.7339374297757093, 1.6467276259866273, -1.752033267058979, -2.615240636729683, 1.844155360195396, 2.5272252466539094, -1.1257798858392936, 2.3094302903823936, 0.55937860481811, 1.9175950320189212, -1.6769757254112148, -0.07922869827576218, -0.17339051956742413, 0.6549364633962798, -1.5104704634516917, -0.7600387277721228, -0.5410187990222255, -1.0318698024838047, -2.251414886243017, 1.7888475976951224, 0.24254399739790822], [-2.9071125143398264, -2.485856765185385, -2.7779651264386516, 1.2938298053362853, 0.573931993636533, 1.1657558692325987, -2.652054019612261, 0.822670757729441, -2.973883674084206, 1.1688218792814737, 0.2589028419963979, 0.9615857159054841, 0.18960168099095398, 0.8948930346459596, -0.4946087143715112, -1.506448365024478, -0.48046963338269943, 2.9740920093557373, 1.0253476213181223, -1.2484880519794455, -1.028783759595159, -2.2372411143229103, 1.5476377681590874, -0.3949121028409426, -1.3547147738332062, -0.2154061496935853, -0.17343347269352005, -1.43486572410698], [-2.884429661637597, -1.9155299005982056, -1.4310731662802267, -1.8840111586952621, 1.9033497584147145, 2.739681847977275, 2.4341865430567458, 2.301350257208652, 2.1558078664966835, -1.5951028246070051, -2.5282849994564387, -2.441735839548068, -1.9522715635574601, 1.9539271065935004, 2.9466863745892216, -1.177866320000696, 0.5692023723481201, -0.062346493099579625, 2.9639136681563096, -0.4545181813102319, 2.1524290854598505, 2.2865491718763398, -0.37116414814974075, -2.3575021081769894, 1.1271221833909406, -2.0108236246675113, 2.9113125934356363, 1.7165238906098432]], [[1.7255191202382312, -1.3841877111769416, -0.5134473808645268, 2.741753742817653, -2.3433274806473547, 0.6730421483115334, -1.771340603649287, -0.5345778983016509, -2.9333260185985357, 1.0236065063561792, -2.7880863950909083, -2.6446980278909047, -0.6407454124648844, 2.354660589662233, 1.7497020262807155, -0.7905534834045849, -0.6178434801135033, -0.3116485519069503, 0.3322548833628769, 1.600919128553091, 2.368055421486533, 2.4065856395677976, 1.9416338337165389, 0.15363112269962187, -0.41065266241272935, -1.2263903075425329, 0.8742337412978722, 1.9083579805485735], [0.8913585874460583, -0.3202513275385921, -2.0020482022062103, 0.9333915786407219, 2.921633285900059, -1.868727323186849, 1.0424097311210856, -1.455018736963619, -2.366416991258626, -2.386598687226625, 0.7329292551580142, -2.7336525495704525, 0.2762188764335676, -2.79077877142491, -1.243287200102509, 0.4567798734143729, -1.90715574763416, 0.9307841759807527, 0.07091126205760734, -2.62780319901563, -2.5006814433545568, 2.7881542503488985, 2.716937768656571, -1.315386891991934, 0.5995614419895849, -0.4351236321153751, 2.4219909148325556, -0.8763422327821191], [2.1475208824368046, -2.186194854186046, -0.10497459488995409, 0.3305423199816504, -1.627806279336819, 0.7239599612631822, -1.4556901968621407, 2.8195794654491095, 1.1554423042823139, 2.3131695205676817, 0.8548654077519915, 2.8528668991499035, 1.5854367617792136, -0.8577485637708069, -1.2217323756639678, -1.4974171840144317, 0.4700551353230882, -1.1040085578489545, -0.6689199090197957, 2.8281834553846013, 0.19971100250164486, 2.332529980585967, -1.9119316041718448, 1.5678204909514442, 0.49128412050139936, -1.4498093022996867, 0.5710692770629553, 2.3152194905239094], [-2.1206177250220284, -1.7490335265305716, -2.2629530288959865, 2.0669882716537114, 1.8306432828104793, -2.9502634236703553, -2.082752324471781, -2.718155110972957, -2.932566649373563, 2.4574659910723247, 2.175251977445546, 0.7922273216543294, -2.2981661312737365, 2.706643868482997, 2.248218142965862, 1.571591627424298, -1.7364257938195595, 2.1816368603623655, -2.830823115721416, -1.3590031695556208, -0.004158874144530422, -2.4901882134888944, 2.97613839055621, 2.1876810933480666, 0.40886695057387445, 2.082750806112622, 2.4527361189213224, 0.48004133343653255], [-2.8869222938403616, 0.35295729620004757, 2.325814465230671, 0.6863819145437748, 2.4893781439377705, 2.3567123546430917, -1.2572438035492899, -1.2230091040273592, -1.1782499583220187, 2.000606436371595, -1.2245274890589748, -2.034475327306562, 0.8588509373608497, 2.6150444258173406, -2.664560879965131, -1.7895760164381982, 2.8332929968324123, -1.1969513474873608, 1.6906723459596877, -1.9171908365121901, 1.8014725333847794, -2.619076945464113, 1.7787896385502373, -2.2929635751121484, 0.6599849045705435, 0.11813507074182183, 0.4311898281911102, -2.5378439504103643], [-2.274734177116958, 2.300507437937026, 1.8739666358532059, -1.292567753685277, 1.679505252808081, 0.41230233778432934, -0.9361399067899336, -2.42672146723379, 0.22389944660027084, -2.9683672588866434, 0.007509115293072188, -1.0341455866986646, 1.5992977506482697, -1.2214188856621202, -1.57226504024388, -1.5125575633911756, 0.9880423299375432, 2.75440867415106, 0.30867697482115286, -2.541932930197027, -1.089658108983335, 0.7965824989387253, -2.357531097835518, 1.5117114725541176, -2.457689843510078, 0.5083887935698055, 0.7632446745318404, -1.2592409976208268]], [[-0.1136739710686725, -1.2019554832863628, 2.3343594511209886, 0.5306829864031455, -1.6383714021810385, 1.4435016736185915, 1.8505289043325766, -1.196781990791962, -0.8856674255405244, -1.8504650391839026, -0.2683094101136687, -2.0040422546504857, 1.746983993364922, 1.0843147850966037, 1.4791234376318183, 1.4021537947373552, -2.56984408903446, -0.6171768773990589, 1.6543247871494504, 0.33062127445816625, 2.4467914350255553, 2.4378968155785303, -2.158376098733985, -0.17429500928082042, -0.42327959665227866, 1.97725207738314, -0.41304205788955484, -1.641879853587093], [2.6839520724739714, -1.9166521022145355, -2.2123532786569604, 2.7492685613473, -1.4824183782266784, -0.9006655949020379, 0.19171628038819932, 1.744108854909431, -2.4098826052782614, -0.003410089416274964, 2.5498560672264663, -2.284315544781431, 0.6038493617206431, -1.9175934770673706, 0.4831099311962932, 2.633000280313075, -0.42089140018451987, -0.3175776282636438, -0.5332151955880411, -1.4023847925035087, 2.3284299900006467, 0.29887361057490924, -0.9271509536503286, 0.5132703456912937, -0.676602382009651, -2.8835889375706873, -1.9999630971232158, 1.967326325142091], [1.9486266557948522, -1.1589509573984837, -2.4787940471024545, -1.5375776888967603, 0.6536156697049083, 1.5301269180534138, -2.705504074202867, 2.482953612602417, 1.4056360081271873, 0.10686462242930705, 0.8854479332918821, -2.169841041136241, -2.6460497591538163, 1.7114349202803512, 0.8182732862890401, 2.6016118760383415, -2.7724187811103986, -0.985854797795243, -1.057863816546757, -2.6007533529330757, 2.395896200348913, -1.3883233343667511, -2.4658158036831894, -2.3300588277411673, -0.014434576253361975, 2.6623567939785318, 0.9870283558796205, -1.1294934109294144], [2.7029443466757668, 2.629293609408716, -2.878908571953822, 2.526120788318451, -0.9582863032568243, -0.153007149881907, -0.01724486926793256, -0.21709762300883995, 1.1573880082213073, -2.4228458571542886, -1.8870441089633252, 0.056158239023291756, -1.4108316622479433, 0.0738335546632447, 0.8700625847911345, 2.191081558774851, 1.6609614370042163, -0.03222989720719038, -0.5258356425674, -0.11687927538172005, -0.9060733066095432, 0.1639716772581008, 1.0144897882011943, -1.3171775021071714, -2.612656230136813, 1.4025591619559155, 2.6602956652961076, 0.8674727780270026], [0.28489240376588487, -1.5296042086224886, -0.9906858399596272, -2.646840668664794, -0.439907533216644, 2.108862289974277, 0.21933853860246355, -0.05212021175279302, -1.1022409070845116, -0.572162824832005, -1.1106299171673937, 1.27307023802104, 1.0373503078648776, -2.054651022261482, -2.3418726898662574, 0.1269501510175055, -2.876767110861884, 1.1037490008466477, 2.491411773263567, -0.5918428409370007, 1.9554221088372392, 2.1541033951309814, -2.7466212929083405, 0.7364945580210724, 0.34746079221911064, 2.7108382010006604, -1.7744416174613602, -2.550473970991275], [-0.300855458029865, -2.0524404182605034, 2.611582188984368, 1.0712713392946611, -1.9863061567014204, 0.7591282697070336, -1.7079863357108362, -1.269494800344069, -0.7026935316780039, -1.0576593688712292, 1.2597326962288307, 0.4196016610753297, -2.993071395069641, -2.9310754225050983, -0.3955850362011386, -2.501232821795978, 2.2568615472976177, -0.4181106697017314, 1.7150662568982016, 2.686107481949003, 1.49994981422358, -1.6043675850934709, 2.4408193320988225, 2.0130206070558607, 2.542663578018219, 0.8862484458171771, -1.6058903375678732, 1.4212509794706918]], [[0.8834901866248606, 1.5534848125690353, -2.420433699412875, -0.29414023477345186, 1.1323491652021334, 1.2332940504295538, -0.30674259876017285, 0.4207533894557498, 2.6328648138020396, 1.213141888629286, -0.7495005617494108, 1.0739416206154253, 1.0582313099824399, 2.1569084243135688, -1.829247621509977, -0.5115280657320449, 2.817066921777343, 1.1966625411610412, -1.0585678774097336, -1.2227345933592704, 1.2278661620834912, 2.6187615286149413, -1.079207383805151, -1.0935909081184512, 1.7617077272602444, -1.9900460183732966, -1.55057287532215, 1.0004004229254484], [1.7832850178136015, -0.7285278905882353, -2.1824565569848478, -2.5894814072498633, -0.5937110468142346, 0.0016033607435481656, 1.6870550754426024, -0.7309517216452166, -2.9549740939436036, 0.4176122902246471, 1.7400610756089296, -2.8069366955879635, 1.050773691591365, 1.842824273713541, -1.295766329297894, 0.05468962920197473, 1.7701549914913919, -0.4142078787887664, -0.2403075912584307, 1.0838570838472652, 1.3345560667347218, 2.5556900239020655, 2.577484493368762, 2.2330681324142247, -0.4518581329701039, -0.3274021257652535, 0.40232215322648823, 1.1266404417902818], [-0.2422270756079552, -0.15825825349701272, -0.013310527615286727, 1.1176240935773754, 2.532511557303441, -2.431763866225418, 0.7406744288465088, -1.3535435805746838, -0.29553853204934466, 1.0914977508159298, -2.955512972542459, -0.3814222141819532, -0.07945802797475476, 1.797003243018894, -1.0538689744701253, 0.6092975503734088, -0.14496495739077186, -0.4102123198904035, -2.0597227699339253, -0.7500045810349318, 1.8276164139872257, 0.46176433803507777, 1.6489473912611414, -0.11944609814310603, -2.798411124611625, 1.4785277117706341, 0.3879336994403415, -2.93796557218733], [-1.1899297528229955, 2.5085443508030973, 2.8167727782536875, 0.3820591654757859, -1.4371079276712804, -0.5403302194021751, 2.6098368686216205, 1.3883439555674064, 1.3595756840470354, 0.9186366406417248, -1.2388616860015083, -0.3326985866619414, -1.8953338806497222, 2.47947436556127, 2.6640399457723607, 0.19682558837191877, 1.3079101368587, 2.0806981894301178, 0.21097145067409961, -1.512173127506411, 2.063155440534672, -1.6382946608122462, -2.0678589719575813, -0.9552395218792737, -2.4542623746557912, 1.1132356842621727, 0.581634512377152, 2.3417106721118106], [-2.680955865094201, 0.8111836321439752, -2.6365486286270152, 1.1760926456008187, -2.227314180409608, 2.4627427976369587, -0.3692700809310514, 0.892674798197584, -1.8320230051959716, 2.275514756319657, -1.1327242802752282, -2.9192702314747287, -0.708129465599014, 2.0205696937244886, 1.7418274505668139, -0.05723015553839472, 2.540365441811468, 1.30489690201499, -2.2666676048329037, -0.3072268277214407, 2.995067029461059, 0.9174248379547838, 2.456114492802711, -1.5244383814044593, -0.9630677891472939, -0.08088970129230155, 1.717748063272822, 1.5663804237802754], [0.4580052892719313, 2.334313565283839, -0.690256691645811, -1.3460629937574873, -1.3744132559076048, -0.9561465315228475, 0.2189113960707907, -2.5750095912902973, 1.2022859477483578, 0.48604332916992554, -2.5249297978207137, 2.7106915577112574, -0.3599824541872163, 1.1144144297679386, 0.2154035494373412, -0.704961758147288, -0.3437852679683595, 1.1044182101672622, 1.157956085118525, -2.5946248999050967, -1.2163230731833565, -1.0755264431715406, 1.8903111546721068, -0.5812106296182389, -0.5484605915547838, -0.858487318207227, -1.3929069602011652, -2.1118838207198656]], [[0.36093360179311595, 0.4548390330462162, 2.588863903738112, 2.3152857057870593, 2.2616546011685754, -1.9447032471803802, -2.492494537271294, -1.1195592590029793, 2.2046279097924035, -2.855135050682401, -0.9245633783935272, -2.437088972076247, 1.073248407670607, 0.6651674975142159, 0.3241446514559163, -0.5160902673767298, 0.2044877231996125, -1.3645707121952562, -2.797131227757795, -1.3977860630871022, 0.471651590490477, 0.9904984449090235, -0.9873065922769086, 2.917799268641877, -1.8361650330491395, 1.0408266843025942, -1.3616577916307855, -1.418573125048125], [-2.691358965166157, 0.9409988206897268, 0.4205869035795562, 0.6333353372053185, 1.6271855998189295, -0.39752155742081596, -1.7346543765885594, 2.3415553975806063, 0.08598210706555687, 2.513458175102466, 1.4845003271342652, 1.9580174590508514, 1.4903129362992162, -2.487324833805583, -1.787371822950464, 1.0065505921953788, 0.020613969047420078, -1.4149226713389569, 0.34141579960125235, -1.0286340551787596, 2.6454791916064604, -0.18464419978430868, -0.9140000148253558, -0.35135436092332606, 1.9201636153199528, -0.22185216172366262, -1.9038027822290393, -1.4140839327648465], [-1.2073548586670606, 2.999712610127893, -0.19566829844275446, 0.4125693509934294, -0.46893487602080697, -2.8621424917754243, -2.6891124531346997, -1.2829913501169008, -0.8896535690366552, 1.0428527365274167, -2.9493207680243057, -2.4380096412106504, 0.2794094700193268, -1.1695008648150347, -1.3898986163792295, 2.842473838641947, 1.1841949102340816, -2.0859999925574932, -0.20451684113598034, 1.5358440342627713, -1.0752912599621927, -0.26610344385736084, -0.39431222198892746, 1.3742282529550494, 2.6599077951924173, -2.0228344970748706, 0.16858436638447527, -0.8020862695950166], [2.569408977493385, -0.18987002951611043, -1.5073138630904328, 0.7286952471202532, -0.35194093997027753, 1.1944697699042308, -1.4411149586481367, 0.513992416389268, -1.5005135313862648, 2.882841855090893, -2.8560192456984845, -0.7464156954174341, 2.5569600116577273, -0.19147191779640949, 0.5502603099311836, -1.8355052927978883, 2.8501830014718044, 1.836700031208025, -2.0383876169885564, -2.8143291563975947, -2.828707423925576, -2.0881752377413942, 2.2946220392860637, -1.5503300408651566, 1.518493092442906, -0.7783346590322067, -1.9584372712413294, -1.1615293520078542], [0.4590788514409141, -0.7612899331641394, -0.8955524189993547, -0.7449676830677383, 1.531570005259372, 2.6967290770788894, -2.0528134515247176, -2.433434751686612, 2.2138531932161323, -1.7410636711266472, -2.135631329687455, -2.129390927958535, -0.4834291244910016, 1.6843875823877221, 0.1010798562098012, 0.21376419839965166, -0.644039976254259, -1.021375907236188, 1.794577199426084, 2.30431193670508, -2.544371633929128, 0.4249122811819759, -2.0757531391371034, 1.3950449151064381, 1.2482306685273317, -1.3888279533086887, -0.1886838365857404, -1.0496828747245666], [-2.109822409513381, -2.385097888500572, -2.4574800406544117, 2.7147021521860113, 0.4794177170677445, 1.2395859891725873, -0.4200485668675418, 2.0841556258022127, -2.555099576741153, 1.1029020311424906, 1.8469507011399617, -0.539193680511127, 2.4950972162941687, -0.061968906492527065, 1.1664660390069468, -0.6395710894375606, -0.22854921958486685, -2.2468754350323614, -1.5672924587149795, 1.5680800483507777, -1.8471101761886488, -1.2002965394725538, -0.5454454652001637, -1.8965009154121604, -0.821864421219507, -2.2739149324951535, 2.77883219691965, 0.8144892617288133]], [[-2.626720640397335, -0.8018795065621283, -2.736373196849626, 0.6910023194904937, -1.5101227684766503, 1.5263771658697287, 1.662006004392655, -2.4303882906880734, -1.1445327813406498, -2.5241758893067807, 2.5202757560300926, -2.388276110844835, -0.7128114625000768, -0.6811026283660366, -1.7075004236867808, -2.9308395210778113, 2.702403908642119, -1.7736470405356313, -2.2231722624246926, 0.9525608530432974, 2.7283305033776752, 0.2022414590951067, 2.8848634667461255, 2.9746509492633972, -2.621696461753378, 2.8265734803336064, -2.741243841594387, -2.220435275464956], [-1.1405010002024198, 0.6142085618476885, -0.3489724520504933, 1.5131548539738962, -1.9153702204391636, 2.728800985497923, 1.650500720036483, 0.6061046501335148, 0.19611481999883518, 0.04171430962232714, 2.1852690372176804, 2.0316119670779145, 2.298680145787367, 2.7272281281585933, -0.4167165837268798, 2.235288345261119, -0.8033280969429555, -1.2658488507022645, 1.0022078923688271, -2.6558212697361014, -1.2182303078702845, -1.902328627131391, 0.35151867274480875, 0.039669766770332515, -2.2103186405868245, -2.0340155342980824, -2.7977452285535414, 2.773388257688781], [1.942819538832567, -1.3443194089243495, 1.8788350035406278, -1.6510375773798598, -1.1689472201878317, -2.732211312608479, -1.218783014567751, -1.979212720892009, -2.453253537191472, 0.27955580284852743, 2.919184181903164, -2.337415150223718, 2.2726171287351242, -0.7448513117564515, -2.0032425908784424, 1.6756651434451966, 0.4263665450315024, 2.4605675648598098, 0.1967770061107137, -2.267345124407104, -2.735550663938403, -2.79147413483107, 2.420132873109253, 0.6822010361053978, 2.363494486181028, -0.13967824869204737, 2.494253260163304, -2.2027064042967917], [1.242182077676759, -0.6850406900695196, -2.8162683104033195, 0.2286509688238807, -1.6370216827749597, 2.9652801366532735, -1.7973475173778217, -1.85112803928222, 1.6185478003678604, 2.086825582653047, -1.2083519770058562, 1.3932801715221972, -2.6043539259882325, 1.2050256690096521, 2.93718821929148, -1.576752830481868, -1.0498644848895131, 1.8142820034758227, -2.294213799892014, 0.8883842559715691, 2.8698633668949203, 1.4304252286165067, 1.137110024422868, -2.2173052901932016, 0.9821163342069363, 1.2586379734253583, 2.6839965376698114, -2.876137828254526], [-0.4212357446246817, -2.191570415484384, -1.126276314007424, -2.114529754576262, 0.5391755394411737, -0.2561963948422341, -0.7549800199596826, 2.622145031362928, -0.9320916366076437, -1.7772053094944662, -1.261292488731733, 0.28907830214320285, -2.254949174991486, 2.990737317995805, 0.43038766257891403, -0.2997122793196718, 2.8862220417146798, -0.3995770419086999, -2.9407225322041946, -0.14464398656310395, -2.631570466753997, -2.97964200427381, 0.8985298459779334, -0.12850216508423618, -2.0697312071935636, 1.2623773435066283, -1.581134897155052, -1.7629627796829732], [-1.2643429744086196, 2.9109448836114993, 0.4396336856997798, -2.711082320617896, -1.984703322827461, -2.9275939741579813, 0.12243530650150491, 0.8938810819879182, -2.071181020853232, -0.01375855792994507, -1.1278083461663724, -0.40450711987316046, 2.860734368408851, -2.3129509454413277, -1.14272133120121, 0.14403359598610388, -2.704982078696929, 0.11563791287357539, 0.9659274644760094, -0.0829412339587523, -2.5558336899965695, 0.4037105039354483, 0.252379351469866, 1.8353745769100467, 1.840362855851203, 0.5414077337722936, 1.3795849478672295, -1.1627995735352303]], [[0.7575935084874441, -2.5802568943524653, 1.3994284362076268, 0.7116564222328705, -1.6917243329904688, -1.792519101734837, 2.0354758233057204, -1.811508445624684, -1.7048689561871524, 2.4535074099494185, -2.9464865405112404, 0.3540955766571612, 1.5044970142242633, -2.515794538460518, -2.9360900570284176, -1.5933465770828323, 1.069526064922698, 0.16798357126340324, -0.18409022709658984, -2.6031852585466777, -1.0826479261709212, 1.5788932444573494, -2.624227080407705, 1.665611093272104, 0.64927145190719, 2.364358623396334, 0.06440640504469419, 1.192149430784239], [1.6346990190484068, -0.55888685957117, 2.682873673329664, -2.685052126434404, 0.7191838572815206, -1.8197715917473005, 0.46183496723823936, 0.2663590781766212, -2.8691662732678704, -2.7483900581185616, -0.7658291216989861, -2.8361814468389626, -0.9347542822541293, -1.945545318775186, 2.9036434554764705, 1.0905244238401703, -2.684628888134865, -0.3226255522214925, -2.3248006695095667, -0.2405270595470821, 2.489323024533647, -1.0561594377652306, -1.0195088300403299, 1.2615549664822616, 0.009294335818892385, 0.9702264377407648, 0.7031524732458503, 0.2552691114899881], [-2.832477770853513, 1.355825039298316, 1.8709262628323557, 1.7110734903266298, 1.7917386809397966, -2.6478715396935826, -2.827178727940134, -0.3652384078906765, 2.1886328863831093, -0.1897256620924681, 2.753749984732762, 0.9571889629230697, 2.4177225069058386, -1.642398585945608, -0.44782313528620543, 2.5143763963460826, -0.9146926547662968, -1.6524864393492689, 2.4232722232725212, 1.0402312903872302, -1.8425683172987564, 1.9897707006593066, 1.6161693456982, 2.6820979020790228, 1.7721359057178692, 0.47651180208519417, 2.339337100884486, 2.71407657145446], [2.790352613132275, -0.2973282937290147, -1.9319263024883944, -2.1061308832490484, -0.1369624529697413, 0.6676701045525655, -2.507789154456198, -2.2745674094559174, -1.8459274446585916, 1.3138563270678256, -0.43284048618632553, -1.7315245503861418, -2.613864245191122, 2.473407417577527, -2.249646490420672, 1.3521671109852953, 1.3272069704211367, -1.6887847977493902, 0.540278159649533, 2.829759059787535, 1.3756728870090225, 1.8624587465391862, -1.6786231961423979, 0.9631937443085272, -0.34358017747543235, -1.0038857551432865, 1.7517068452350575, 1.8929552586244558], [-1.0941751008500715, -2.7432922213644866, -2.3137395711333095, -2.7530746735380496, -2.154536673584545, -1.2145958990162602, -0.04106677893833677, -0.5958308386316467, 1.476654795720017, -2.6729607162489897, 1.1694565709784692, -1.7275598704276998, -1.8560979618325146, 1.3347426299797664, -0.24063688901120361, 2.245917603261388, 2.8648175383553154, 1.5151556584852415, -0.936009253622859, -2.5339172681595437, -2.270573262326506, -0.9031354225434214, -2.231326501037029, -1.3446483541897787, -2.504467433715578, 0.21569439695561332, -1.4531167682531265, 1.7894723700827928], [-1.4171786679749268, 0.26750773279764006, 1.5881099277168271, -0.14210005882810783, -1.5515879654573979, -2.52512611456339, 0.789478165015725, -1.4040698549918236, 2.742844264197039, -0.4781049309358645, -1.4848601994296495, 0.1888312028619774, -0.7808644691474766, 1.590931045562603, -1.832226409839031, -2.984168502116692, -2.1407417591539124, 0.4777903658054279, -1.1844143610953537, -2.6871910675942288, -2.9485410692068346, 2.85237510726812, 2.4663962725045767, 2.967717110512716, -1.2897480514026347, 1.3808287306481324, -2.2557759849203385, 1.3291525830486783]], [[2.8795705932500395, 2.7117867241457896, -0.2009388827339098, -0.46387086235553365, -1.2990998080110734, 0.3681498224703881, -1.9060268599376013, 1.921226794579848, -1.2483467767288075, -2.6556577637014573, 1.4266025878210744, -0.04273238585505501, 1.0185405412074147, 2.2244959211691446, -2.6321148637706226, -2.55649067104581, 0.4333533904530542, 2.452452959230337, 1.7213315742703639, 0.31571347417592577, 2.5597676669949854, 2.1642770046638775, 2.516276227940482, 2.035073616331948, 1.641745523201159, 1.9317961308964318, -0.4097361230116938, 0.15219642906273112], [-2.689375511800713, -2.2608983366068225, -2.032723411856172, 0.6446307271524501, -0.8396633018210804, 2.8078201413931883, 0.20125733711720706, 2.6344020828832093, 2.376784975233365, -0.2983899695758767, -0.18589893430167237, 2.5484314294880113, -2.7257841035341235, 0.26313952392615425, 2.9891288430856076, -2.060788145287737, -2.3847086452531396, 1.7135579612671892, -0.3113011197645674, -1.153927403644906, 1.0022993766300017, -0.9284665102448821, 2.9084488251362526, 1.782783158768643, -0.20903606401500685, 1.49205570123143, -0.6913039538069512, -0.33473898145368697], [2.037077462878586, -0.08729286222900257, -0.45325696811513616, 1.122392725439978, 1.2466704291441966, -1.089753337079479, -2.2042728876141866, 0.8201364275984666, -2.160015014333095, 2.5145644743679405, 0.08571862962508581, 1.8287716847250595, -0.6852394723819817, 1.732341169072237, -1.6186663919347315, 1.0768012523380097, 2.20745123605134, 2.918687196852593, -1.345311126438399, -0.2864019376412781, 0.5194991973925855, -2.293854343534281, -2.5641961740459207, 1.9886194979290819, -1.7019509777148338, 1.7636472914759338, -1.171982730792576, -2.868694887610385], [1.654516659088907, -1.318359160665023, -1.2194758119553197, -0.2766394862973396, -0.4579262037714624, 1.8734632984722044, -0.6498812721925917, -0.2613887758721658, -1.6823434428118564, 1.567984752030883, 2.2591575555580103, 2.200266399833395, -0.4437068184575246, -1.532584662873012, -0.6249748935914079, 0.7150956240846735, 0.5825494151304706, -1.7760420841805407, 2.05709967021979, 2.20983914278845, -1.3199750343182792, -1.7727064172628217, 2.347967488214186, -0.7275396882983154, 0.5406746686899853, 1.4507596455710274, -2.267521673717847, 2.6254801582230067], [-2.770518074221912, 0.9852999765262571, 0.2839127943987312, -1.4951232023916932, -2.184535328019529, -2.4976021148106398, -1.835450352848697, -1.0239576172348683, -0.36355971374125096, -0.2636267801718657, -2.9333244285986897, 2.3064866902713703, -1.359642095316115, 0.34302954876253455, -1.2280043440611055, 1.8791585580405021, 2.4009077417115954, 0.6447583057027741, -1.4300472190554208, -1.151184241066072, -2.8078876874677907, -0.777096921798512, -1.2778363089453675, 1.517959026026765, 1.873879627099166, -0.6748134567263371, -1.2480865372693541, 0.5674681016891725], [2.4959974683513515, -1.484470499800601, 1.9627505805854604, 2.6652184901172555, 0.24307195667979453, 1.6788118339921132, -0.262994442097777, -1.507868368914475, -2.2005543381830543, 0.04457273417156804, -0.1652223519399234, 1.259324883437409, 2.6605053046466374, 0.9566003905134401, 1.975113086608447, -2.4339541853985915, -2.466167024032929, 1.8984248227164766, -0.6641139321574512, 1.2726237570228438, -1.232339978571768, 1.4983331666762574, 1.8726990266263908, 1.9962653891834288, 1.038974318172297, -1.2977223690738722, -0.31634506430726006, -0.8732653077610717]], [[2.84529987218092, 2.9938182127537853, -2.4973087746003966, -2.6168988670525417, 1.7647426517747222, -2.005323277647185, 1.119458708512326, -1.6515506680393635, 1.4701587165554075, -0.8952384046707751, 0.9558893357522744, 1.8163789526412142, -2.4693118147278224, -2.781041665086797, 1.6918968678108666, 0.0275762266854227, 0.022851976389553386, 1.5691922339305844, -1.7624324203668489, -1.3787188691720655, -2.740146759598203, -0.8350164350893401, -0.9497827478053198, -0.18768384525792126, -1.418491685809906, 0.1609980469693557, -1.5713061927997725, 2.332905693289092], [-2.948455447575836, -0.26480567848436687, -1.1832604299834875, -0.13069270612728445, -0.13036781805227893, 2.1789248452579066, -0.5686340999729937, -1.0367310703688108, 2.9805985805208, 2.468190861821796, -0.6101290922942684, -1.5085889098732954, -1.4477756956857506, -2.288609367547953, -1.215624589792433, -0.18979410466150837, -1.7641238059666389, -0.46741771815596334, -1.5932301858441207, 0.6071923379376272, 2.194428009983403, 2.58081576528702, 0.04678807728126344, -1.8958107060786946, 1.8389210722231137, -1.1821348989507616, 1.8620392608438916, 1.376340635533909], [2.7393179099904295, 1.5360824962723445, -0.28215991461770473, -2.164211905708041, 0.07223781954390418, -2.6888504561303197, 2.2081333014862548, -1.8384666140895638, -2.648924084373049, 0.901234798828515, 0.48436484750346587, 0.6409816798580459, 1.2320544402144638, -1.0583240120082678, -1.2152300085284249, -2.7400956057255943, -1.027733026516028, 2.04111475089287, 2.2073541383262327, -0.6470021598374425, -1.9826235946780915, -2.0045511859695155, 0.1438790030360968, 1.7175975719412717, -0.9024583909466593, 0.5398434949159134, 0.9301058371809203, 0.651998358697309], [1.958117434238667, -1.7716043823451462, 0.7822731833280177, 2.8755009559985947, 1.0905995653727913, 1.080974111049965, -2.481712202417448, 0.21847031334255274, 1.930723659065813, -0.8268571428613369, -1.6230018303169604, -0.0008375725006333212, 1.6110099604168449, -1.33339493580804, -0.342319550799421, 2.3821187081308235, 1.8354091910593162, 1.336502774011481, 0.5623115687985134, -1.0602248014434328, -1.9476064521145813, -2.1696494431866835, -2.6961055255370754, -2.4176758809341115, 1.5715513559497687, 2.1221852225944806, -2.239798200188997, 1.7752839739963981], [-0.2029603910871165, -2.5549805054000085, -2.6455524319152817, 2.9786712871272307, 2.1049591214047494, 2.920150935624193, -0.5859156188336074, -0.11331241155068073, 1.1031224138120272, -2.110488450780374, 2.0726817346080857, -0.40759720139473465, -2.923937166602528, 2.253102807559026, 0.3138147350783651, 2.0851004224355814, -0.1637712172938568, -0.11832224309944595, 1.7859394562918238, 2.855736230491619, -2.7749325864014853, 1.8688681921328447, 2.4507770815703314, -0.8867850587031572, -2.1992571020845286, 1.682930735476372, -0.38383445125010374, 2.464525207709003], [-2.4320511474522633, 1.1570556557199003, 0.5543619104369704, -0.2992337596433452, -2.959122749928671, -1.0539740609697894, -2.4428369817980364, 0.1437969758616875, -2.648072590257965, -0.10184351144919734, 0.6041534251934024, 2.52941028666472, 0.03714290323036007, -0.9355968929112644, -1.1169065054988871, 0.30741094016834847, -2.623677492772946, 2.9627154600255796, 0.008329620508249036, -1.4153680496431584, 1.8992981640495055, 0.4216517091182368, 2.6057987181562448, -1.6004439471339602, 2.711658213759562, -1.139136183137835, -2.874062828109527, 1.974027346521872]], [[-1.783218378684074, 2.247218936715755, -1.9960948989444147, 0.17584381202354438, 0.6027186421195472, 2.669960782846143, 1.5737088513390756, 0.6962876248537784, 2.7748900902904, -2.3596289525080314, 1.8575167378272752, -0.7333341407988665, 2.80999399647897, 1.0151237232481254, 1.3752203568222665, 0.13946402717667095, 2.61399576768555, 2.9504109715823583, 1.280743691309743, 1.6320962692514902, -2.042851508574041, -2.0286833261454587, -0.9680742123079615, 0.2926362705491208, 2.438056997871908, 1.4320372257958631, -1.6352064259325325, 1.2577381240877], [1.4974551656513402, -0.7519424764766272, -0.29877078519033295, -2.627176226836281, 0.5901904619011176, 0.006363106424431386, 1.382277562973627, 1.1624790839399841, -2.7265927195531847, -1.960140397490925, -0.13396183178285348, 0.6815348404197099, 2.0756830011473033, -1.2879756275226397, -0.7408942949639838, 0.6697261278514692, 1.6244938213888265, 1.5240916979536827, -0.5221124946701865, 1.9609143830664824, -0.11165172498648968, -1.1079314091040742, -1.9383625879569142, 0.6280156276341229, 0.13700598225846772, -2.4220609325406968, -2.133405461331238, 0.07573061152679106], [0.10316732045171673, -1.2507020005285003, 1.7405679413236212, -0.28100383386706884, -0.444398040624705, 2.764027765497155, -2.2073562198248764, 2.539467869293194, -1.031432203910731, 2.588097828262571, 1.9291481576222989, -0.565385161241617, 1.2343153126172286, -0.8344500929325829, 1.976212853262556, -1.878818411409915, 0.28419522841045985, 0.6531144963451254, 0.9929818654934914, -1.6755952936546172, -2.9782309490179, 2.0367534778802128, 1.9971131023381679, 2.151641950397128, -2.052587044171357, -1.8256239679978952, 2.7715872492025397, -2.476448662667244], [2.5676910867367706, 2.1095211145570243, 1.4096020278934676, 2.860969719994407, 1.0306780286372383, -1.9519868145167216, 2.8345407756167225, 0.977781525150875, -0.2992107412566285, -1.088009179358672, 0.8737549195202936, 1.7870533604929495, 1.2215736405868851, 1.8580136764034618, 1.0394356441661206, 2.9144542251541594, -1.485859342418843, -2.7448994402965985, -2.4531780917558335, 0.17679059257637153, -2.671737094281253, -2.470282206141226, -0.9877515557949557, -2.3571714862114623, 1.704680599588011, 2.010284402210697, -0.21982872623396865, -2.0314146183575406], [0.7150436891528273, 0.2772055704500618, 1.1985882500101814, 0.08027596402818293, -1.9487214011518346, 1.7488973087695783, 2.565647250792046, 2.182287470119457, -2.447437895695941, 1.1771976468338323, 2.1673921218424974, 2.056226415301361, 1.9343828632225186, 1.6029932018097375, -2.4164412435240266, 0.8479409263153084, -2.582869243185847, -0.05528770651534742, -2.5046359760741774, 1.0047566201581049, 1.2448028636878465, 1.2642220984753765, -2.900752321753078, -2.194201672432617, 1.4231085213689614, -2.095527739351681, -0.2592308019888856, -1.2813633146306445], [1.9640010309764158, -1.1996105838981723, -1.4675854030114557, -1.0486660896460822, 1.4073182048111725, -1.8659133938435526, -0.4208887502619425, -0.8774903527562761, -1.4894115246275814, 0.6152335383211218, 0.9893759461541123, -0.03659431350714337, -1.1134097083506247, 2.2473695784001846, -0.18527651038569992, 2.9867972918984025, -0.845551672591375, 1.6770015759101895, -2.250572881780018, -1.0409264785092405, -1.1100739818974599, 0.49226757215702666, -0.6187729922351606, 1.4241152179549257, 2.0213773660391743, -2.0490019419424446, 1.9892352302508982, -0.4734679446946557]], [[-0.34575440229149024, 0.07658454225486455, 1.2856001720909447, 2.3053172420808927, 1.2716441729466785, 2.10250224481291, 1.2833018080883907, -1.088301748418907, 1.831309961163111, 1.0534912229658842, -2.808308903501931, -0.3092141443997254, 1.049255488199198, -0.38585424188196793, -0.00500789727733153, -1.8147616556372037, 1.486114029350727, -2.3447304071213444, 1.3064460547461696, 1.2727404268258944, 0.3323597511146441, -0.46857655115432184, 1.1587358149659481, -0.6794346696913474, -2.284429641891477, 0.4711911631526853, 2.6433382651335435, 0.09833586777801884], [0.5052250653620405, -2.5857551102728387, 1.252428749515163, -2.2050847204050186, 0.660380060924207, 0.9046983348395852, 1.2424189083994497, 2.601342630141332, 0.41166572876891827, -1.7228924772357952, -1.5869961371503103, -0.9595523350669675, 2.383423137277804, 2.3992240885320975, -1.9479498871109708, 0.32413013059239315, 1.2237168494745179, -2.628137959027236, 1.5145753217517184, 0.4222612707542024, 2.008010123348746, -0.5905625491944195, -1.1430641951010196, -2.1656368824131276, -1.6034769850400121, 2.3107562213518236, 1.6226033294213718, -1.6449606609886462], [-2.502403560839465, -0.16795388232881026, -0.09979408104837617, -0.7063867439394764, -2.6891927004298593, 0.30035321097464207, -2.9195236067521977, 2.111472284904437, 0.16483939652793778, 0.692962383907374, 1.2806412967225356, 1.1294484390133661, 2.2860232920331978, -2.8556241513928686, -0.6818242380695296, -2.8955300317628483, -0.06329098611340811, -2.069847093310215, 1.3383878985414404, -2.06768357460811, -1.901567969143043, -0.5748611347960848, 0.6998824424053467, -2.176779484765663, 1.640718218527982, -2.8451763818867963, 2.007864644525183, -1.425189691936748], [-2.8790276171836333, 0.2062857683484003, 2.7364314154970124, 2.6564291223393948, 0.63716612333574, -2.864644407318523, -0.6623135498851922, 1.2651054692160608, 2.7195257794100387, 2.6154051168877874, -0.5451735496900776, -2.211488527512649, 1.5769830046157658, 0.9950342584652079, 1.9870701787306535, 1.027605991440094, -1.6120705095337746, -1.4085729790147994, -0.5082409148055516, -2.9196526448822, 0.15966592522378686, 0.9097014631937954, -0.9726153123048782, 0.558547653612302, 2.6478861122527144, -1.1411158624995754, 2.947996207756672, -1.1945559074831926], [-1.3103931370250153, 1.7572186521818018, -0.3017236480887173, 2.5718199092089504, -0.05992446522849093, -0.4264129275578954, -2.3695858409177055, -1.5498637399522508, -0.45979236472800666, 1.9426296635602487, -0.3885146255979852, 1.2532645149356867, -2.8862369563230486, -1.5516045273200698, 1.2904085995207115, -2.8411527128327307, -0.927380577205144, -1.0749504267215513, 1.1531893952637668, 1.5773362380065414, -0.17608170507115517, 2.019657662267485, 1.029190055038578, -1.6329749792017147, 2.2610351751483293, 2.28494331005831, 2.76476826817714, 1.7430932462848503], [0.7395873968216842, -1.7491914405332392, -2.2305183088637, -1.2235832461994882, -0.713274607919617, 0.5190775449347789, 2.675531064131655, -1.004741695852111, 1.9669288948073023, 2.4943049405588313, -0.5336082557832018, -1.8322029186389892, 0.9062860033816391, 2.612035488679865, -2.67970714823968, -2.295086421531167, -2.4478296016733374, -0.6044916210185987, 0.6567289140155994, -1.28524082972164, 0.9729180820979071, -0.8533619149494136, -2.450332896441171, 0.29975461302287565, -2.3075378734616754, 1.7797932329992143, -0.14798240004433527, 2.307413033372282]], [[-1.754158728744349, -0.6560530927563599, -2.7695041552065085, -0.8647708163348291, -0.976874358388804, 1.8049010708331945, -2.1189150566362756, -2.687915121003197, -2.4501791108524458, 1.1297371890024044, -0.8613112745806548, 2.4782070919908046, -1.8948077305320004, -2.721029241410588, -0.3509189631310474, -2.822056070158972, 0.5376205508649656, 2.4644374840565604, -2.5004944596201533, -1.6197841239887338, 1.107450033224465, -1.9619267252224761, -0.9763803630965269, -0.24674184867609217, 1.1877411358647416, 2.2097868851336715, 2.8773826966793017, 1.9895924938809593], [-0.2993084356614988, -2.4828835083718466, -1.435447033234409, -0.47742296900817216, -0.5041422991262312, -1.6328262239553246, 0.2916177374672335, 1.114727753720146, -1.192521570786281, -2.590846012198437, -2.5632951816264296, -2.106204657089053, -2.196225636896986, -1.5015472388144646, -2.4189881769991057, -1.8647833161871332, 0.7896791367065257, 1.2742427751668695, -2.848218092239542, -1.484894553622021, -2.7236358592014884, 0.4089803223978472, 1.69970533731943, -1.6733650607220494, 0.13075400310125174, 1.2181949600481632, -0.7613055312452053, 2.6417404828278412], [2.424938219597374, -1.771664994870032, -0.24182405673929974, -0.6715076023906414, -2.095628603001928, 0.18853195388431665, 2.553485984778435, -0.13621776407341635, 1.473767509865266, -0.10080626783034852, 1.2444044555049318, -0.43135659128236714, 2.866775468141168, -0.3037110232662892, -0.8410954970521924, -0.7429335986496834, -2.2108419958795515, -1.274155932252559, -0.8555352469850757, 0.39833442291342447, 2.3478292931884797, -2.396175735128725, -0.8969640581748513, 2.480118729294869, 1.39490817521426, 2.5735473405989744, -1.6741622309167878, -1.2827490879853551], [0.8133967454469095, 1.8710829140087135, -2.4306623273702606, 1.478419091845165, 1.9089989780088112, 2.820709719133432, -0.6003691922721659, -0.6790583541782347, 1.7358255039230066, -2.3818684062658644, 2.7207424461770398, -1.5053826214464885, 1.8411589999969769, -1.2930121402961565, -1.0138577488693388, 1.5683540662877338, -1.2274495832968717, 2.223158872546244, -0.7303898165758542, -1.0482969705300802, -2.925009339602016, 1.3548433645157436, 1.0388119235757145, 1.881355435981325, 0.27737489817466887, 2.9131435757570383, 0.5946663877195908, -0.0005966236827044114], [0.5609859036608418, 0.9252573258669075, -0.03237849428877215, 0.4457698370976546, -1.7689595806548029, 0.6308373578291446, -0.5587702934333443, -1.2609942099072544, -1.3332483080193018, 1.472448942557027, 1.166581938430749, -0.7058351858544354, 2.198188431683663, -2.5613313502722486, 1.4112768667150357, -2.909360292459363, -0.7855221148118403, -1.6306177822108894, -0.7644265758185296, 2.910295580628641, -2.9294615821596652, -1.5206697836985215, -0.2607285238162129, -1.0743070649201578, 1.06180166597734, 1.1145568449559793, -1.3919678261668669, -1.7684789586944938], [-1.6457228829893067, 0.34847350829199275, 1.2597879984269458, -1.9752890912069847, -0.4861019892037288, -2.293545338116016, 1.0128381525202492, -0.11050656090310707, 1.2790594557201, -2.127123479150586, -1.6595547645739461, 2.412796568698501, -1.95156935845444, -1.9440089540354561, 1.5510428479136973, -1.351717925359635, 1.4856486038824226, 1.6691151895626675, -1.9154582758970216, 0.9056466864385673, -2.559571645454435, 0.6056980623652377, 0.005337324404720345, -2.7830636167942537, 1.730840164994639, -0.7298767408501003, -2.2239179830321283, 0.443955382287049]], [[1.2814924502750022, 0.48314590100861476, -2.4202303279512383, 0.06491662404534315, -2.850165290016071, -2.199017351674098, 1.3001528421404007, -1.3449039447037467, 0.25204893085637803, -1.2845879430791014, -2.2810718832005143, 1.4685895893912297, 1.9611752916560992, 0.535719735770396, 1.4762569721061887, -0.766899745356219, -1.420054279434432, 2.4087797597529477, 1.0094828280617278, 1.9162410107322678, -1.0719263266523806, 1.4541080721725939, -1.8422552573418245, -2.8501996170463717, -1.1341402547525763, -0.9274054034766994, 2.4612727290170495, -0.15664697493881174], [0.9949116202794048, -1.8695755147971074, -1.0633219707455976, -0.05456442231634551, -0.8543188495612881, -0.10953534188658454, 1.0349753176335206, 1.2964446448995108, 1.0732469961243067, 0.8930086917300732, 2.3867998561191532, 2.2094958913342246, 2.56500434245259, 0.3748588483645361, -1.7822367264007042, 1.0894467299603274, 1.695429366094812, -0.3387691529048298, -2.7203300019403702, -0.2774957516407399, 0.043702881334974464, 0.5245827309693034, 1.4317055307523257, -0.013998006251126682, -2.404239258927414, 1.2381650840417633, 1.8613264432352423, 2.051868324100009], [1.2115385364188942, -2.906350387228697, 2.0038131636237058, -0.7021622623089527, 0.14194741296749225, 2.7703686154278673, 0.8801392221955058, -0.7193787161494569, -1.5928495208419988, 2.8314984608517904, -0.625456691090116, -2.715730620533961, -2.8964382979483614, -2.609919035764724, 2.1006498417774866, 0.0909912275040261, 0.25092345029010943, -1.2460715547156254, -1.6038517558471113, 2.939295821327443, 1.470047555837855, -0.83243890440116, 0.1935854455175896, 0.9946595595427032, 1.3826608191255616, 0.6276055885351424, -0.09405795619944968, 2.167287379547483], [-0.1598102368736214, 0.08025875541824856, -0.4904329274411321, -1.3590304571899583, 0.5533427675717904, 1.0552018170750816, 2.7131575183793935, 1.3710389359905824, 1.4417780398654205, -1.5453372151237443, 2.498466183908281, 1.9170974613890497, 1.1687232167029737, -1.088967266305391, 1.5273904977725286, 0.21842486997385802, -1.6259795073191858, -0.589453255744528, 2.456406623430337, -1.0613804244686138, 1.6628994404414223, -1.1913725029906959, -1.8394523170821904, 0.9699105906415912, -1.64441140284783, -0.5742592635130954, -0.31929851572764356, 0.6955247760417649], [-0.1075989409565139, 0.9544579202537875, 0.23940531287227174, -2.775442041404829, -1.5528926618776497, 0.8262349542365728, 2.9358306226750717, -1.9200563408268456, 2.708948627340413, 1.8734814524443912, 1.9203868490099003, -2.977019601658437, 2.670688027107312, -2.218963278643236, -2.0962412797264447, -0.9336628324325367, 1.192746988539466, 0.2395043216693864, -0.8696375419793831, 0.7759241149750813, -1.7774146037075673, 2.977150669996023, -2.3428865590840555, -2.354431195533458, -0.00995477589636895, 1.2410326342319467, 0.26039212319461225, -0.5078603964067558], [2.0165558028759785, -1.4177889734399274, 2.5207718289420056, 1.2134799370399882, -0.060955358886777056, 2.5400032250814784, -2.6383364069689788, 2.283325772723664, 2.89389174305936, 1.8432638117429487, 2.699041826724038, 0.5184403276702301, -1.8594521407296276, -1.7838230379592217, 1.7511988255489426, 1.88075032688789, -0.16629894891654384, -0.6787026230081059, -0.34481296031953157, -2.9482679676085337, -2.672304605090548, -2.2686337756526083, 1.9900037420864898, 0.04960094883984523, 1.6550261140202824, 1.313922646944909, -1.3443097959554986, -1.0256339024217762]], [[-2.7470020305535785, -1.2273471364158413, -1.1379501475142464, -0.17080457911002167, 2.6823995457267635, 2.490236632934222, 2.332756816730333, 0.35972346916448616, 2.095552165898333, -0.6887647766476288, -2.7939176068811578, -0.2984717063407656, -2.4162360711479116, 0.01710762668362209, 0.9315706465042188, -1.9300257927314486, 2.8020368932382347, -2.18764877562751, -0.43688306468179317, 0.24162921687967298, -0.010876473700248468, -1.5580807814600321, -0.8118836634303088, -2.362611258658685, -0.8683547528819542, -0.4218610267556344, 1.9861283606787916, 1.200147282900982], [-2.558221607163302, -2.2074005524693714, 0.4965357465863076, 0.21028574604671846, -1.4513445460785086, 0.1274614480107248, 2.621043666776976, 0.8322665496836246, 2.3247771405956534, -1.2034688025827731, 0.09685039562889308, -1.284121684817213, -1.4260565176900428, 1.2182416716266733, 2.8905816250140033, 0.42182739184940754, 0.5175330382487338, 1.5222861848880411, -0.22623771819011962, -2.262268637942544, 1.7031537669799341, -1.0327831033179813, 0.7266933715497368, 2.666254856975115, 0.9095403752405229, 2.516624200507003, -2.269398771840962, 1.397348341590651], [-0.848544973221812, 0.6478550410592705, 1.4389247255879507, -2.8352735250935437, -2.5934702247542805, 0.8549791621737874, -2.948727605430725, 1.5740346051828933, -1.9876897143016838, -0.6111628616862186, 1.127665340819302, -1.4635510480037348, -1.615434883902921, 0.4579569425521228, 0.7413425002563279, -0.7589308450459189, -2.2835935841190214, -1.621314696456926, 1.6840480685789627, 0.3163997455111085, 2.2022087950084437, -1.5563723953495496, 1.0927847329847644, -0.4900204023488559, 2.899899221679105, -2.7522244603010466, -0.01665624923681719, -2.5790138812805328], [-2.274727184440297, -1.729466207941572, -1.3857486573282312, -0.13142594760434, -2.615347928276544, -2.511074870555251, 1.6288545630324034, 1.2057210206702331, -2.2457169864077944, -2.7121696535885382, 1.6666061320294174, 0.4932404104283066, 1.500048802145984, -0.2479576618895356, 0.6302760137191648, 1.3737764008146325, -2.4925058765640475, 1.3610879632765638, 0.38364187404355565, -1.9935037782425717, -0.4727109496890112, 0.04992505834701966, 1.6747802916352725, 1.4308582106311194, 1.0984735992860832, -0.9812353740402138, -1.4477642239085637, 1.5546532732196159], [-1.933110067038685, 0.038625729102207185, 2.1742200801644715, 1.3741885815147423, 2.506587829088099, -2.4584468775594734, -2.602583112045515, -2.753263505056543, 2.2932285664213614, -1.4327489695112434, 0.7663232695273572, -2.1877923623608058, 0.45896565637957254, -1.1486375069032246, -1.3483341254249739, 0.05341474165993798, -1.9622161600042205, 1.456315433593387, 1.8084094995476407, -0.5086133385782099, 2.020763895584752, 1.197309538897671, -1.307284907183983, 0.014123695616086174, -1.594316237399312, -2.0794664362883504, -2.813314093156414, 1.8538626496411537], [1.175111937964294, 1.313952316008045, 1.897474499222775, 0.8730154957660141, -2.4355317561274195, -2.7040439259535978, -0.7857486733245596, 1.8345010153732062, -0.09555032276186903, 1.377961805938435, 1.5953783736834142, 1.156776318666192, -1.2416252175515454, 2.0409897871921157, -0.19991698677360104, 2.7382371484693753, -2.965160941034053, 2.5431296109219312, -0.24493723690766167, 1.374650868573701, -1.140545909484563, -0.02474711899065163, -2.909666454685552, 0.06844072430198622, -0.7603066116279913, -2.6212601156579067, -2.8753543937571067, -2.7982605235938225]], [[-2.6010342493588077, -2.9381076330878164, 0.5080917274037913, -1.0042364425051096, -0.5585903487574635, 1.2335018443877521, 0.7388102190424153, 1.080870547542954, 2.7614281444435136, 2.7432156707733863, 1.1277849194389074, -0.827895466955078, 0.5417661322248621, 0.40470307078156376, -2.7975806977667297, 1.2183156870616987, -2.3489259797876536, -2.516908702680722, -0.5108144557621777, -0.872585669496126, 0.8393506548697682, -1.706562924422312, -1.1047338503495343, 2.371736188131008, -0.2723088144625496, -0.8291366614453297, 2.75703986618754, 1.8405080766921476], [-0.21916223245658317, 0.14405923676600896, 0.9820027411156298, 2.5657788556739938, 1.7156595523834106, 2.28687412009927, -2.970283044699883, -0.6566702868039336, 0.009708148342166822, -2.769399739452256, 2.7125245451943885, -0.9090955111560466, -1.5252339201956502, -0.3406030531308568, -0.6414069758371812, -1.7328826717283934, 1.766900100128427, -0.060705603950299114, -2.99280966419623, 1.580984752228792, 2.9835375902226744, 1.3756301603450591, -0.974187286545702, 0.1549764650587271, 1.8620427128549606, -0.19405288595681203, -0.1866948756777651, 1.1854696633890205], [-1.8683182141807364, 0.10040320668584046, 0.08990762175117029, -1.6583125497688027, 1.9764505541351394, 2.8840280458013243, -1.685021861639922, 0.45853692341416874, -1.2389368536394043, 2.6275604118389317, -2.525866175725794, 0.5280390382292088, 0.02066721963970819, -0.9588980203575259, -0.7422435197412973, -0.8888958987900484, -0.47982203583234107, 2.0245699803568584, 1.2136862687255423, -2.364327478505567, -2.5198703545191883, -0.49146544359427047, -2.360402932653549, -1.176383230879377, 2.18646680260128, -1.07598367339261, -1.4384707488027284, 2.821912184831927], [0.8133631883027297, 1.2022361643771449, 2.3890623580721133, -0.573370899285397, -1.8479028956724401, 0.31680124469004767, -0.038262108871945255, 0.2912303510763361, 2.4625842577468715, 0.022853922837948293, -2.489531540182602, -2.0076431322670985, 0.7587366395452162, -1.7500194035693604, -0.41415446293863756, 2.9929547410686324, 2.786467411275675, -2.0926595439694307, -1.7250510617607755, -2.400291891015602, -0.10035569028065128, -2.044263803878427, 2.3211714649068913, 1.3629120713774432, 2.1604332524481817, -2.066501704884805, 1.710565519923044, 2.021066592044912], [1.79697289997232, 1.7352278269956685, 0.827142848593684, 2.0174032203123797, 2.5465477169336443, 1.1926872950906917, 0.7003721622390531, -0.4082736006451335, 0.030544889724577473, -2.895110278391261, 2.3157983249604586, 2.4713705536988897, -1.0418504047236727, -1.0011658657189553, -0.044661274091047254, -1.119038136068214, -2.481826149183998, -1.442610279366064, 0.1939057510459814, 0.7188997734483267, 2.2289438374377184, -2.6068558316141317, -2.9204939926781357, 0.8704773594260047, 0.9881044801010099, 2.009622510494837, 0.2789313477069557, 2.4404431751219544], [-2.0666075182268537, -1.7499097527975187, -1.5155960478435169, -0.8436652756621594, 2.836925937623776, 0.40172940221615594, 0.9904579173421473, -1.6303877209949735, 0.05815084700287798, -0.2495486078547997, -1.3345561700146118, -2.2301281436268514, 2.0196261550335315, -0.011019589178987488, 1.2245997102082455, 1.382020873444814, -1.9189756147122647, 0.8404976577419294, -0.5504503462742742, -0.18628828430111977, 0.4477784814326653, -1.654830950649018, -0.8950728538673891, 0.057573483498583045, -1.1977035538835075, -2.5459106509990668, -0.25263077382167154, 1.310415710611771]], [[-2.288765279195884, -0.44131974984133215, 0.7658282175297906, 0.5863215848993173, -0.3173494695389518, -0.08428698500186194, 2.832846815431359, -0.5930732700311134, -1.152118131908894, -0.2659668560603743, -0.058841606477813, -0.02663043952051325, 0.06685140502657738, -2.237455043869469, -2.6541379683761765, -2.7458153572572455, 0.3346501081356754, -2.678759404594558, 0.5717824633910471, -1.7719916504402997, 2.344819489648928, -2.6393844977768826, -0.24020744597057853, -2.814113357463736, 0.9048109404266507, -0.5996341674594481, 1.9679222324314596, -2.6509173295606736], [-0.4398498318957964, 1.4623582793282424, -0.22086065887441508, 0.15692659456121572, -2.9433429644139597, -2.022426160161314, 2.5734639671117803, -1.8350872886746348, 1.2772611355535561, 0.05347196099514484, 1.1284960023693493, 1.62566803093073, -2.385608929449516, 1.2744896705777418, 0.01267556989748897, -0.6723624456689263, 2.446393727551321, 2.1674262882361166, 1.9078275393514392, 0.9372141667824905, 0.4914022639015778, -2.7958310701165745, 0.9711807010133064, -1.1252645609326006, 1.2024199418469301, -2.985131743037175, -2.5457961539724288, 1.4778695220423899], [-2.2704695796735805, -1.9311409883768431, -0.7351811693207386, 2.5224424825200966, 2.833625760353436, 0.745984558678007, 2.6078761789958724, -0.9759320887020824, 2.2549645329365244, -2.8969432657578436, -2.8788814596623533, 1.9110658701825844, -1.2837940506516092, -1.0008129500949547, 0.8991847349661617, 0.6341721291960813, -0.03803189795505313, -0.03225889829540751, -1.1010435916494015, 1.398912049346662, 1.2447515616481635, -0.16857954796711416, -2.877674899602455, 2.6664896372708506, -2.0784726325780842, 1.0436965428194993, -1.893537407336168, -1.3609188134421568], [1.5876830550374557, 0.11370329227890075, -1.6025333872411704, 0.9282045297630921, 1.6811537105794079, -1.0318616898542905, 1.4883250812468205, 1.116678953686594, 2.0179375423798795, 1.2030860909495376, -2.6905054899693797, 1.6131870559508519, -2.8073017651467023, 2.606960120303385, -2.0980695773340003, -0.679684660944333, 1.9429634224163816, 1.5161691703920166, -2.040107568212619, 0.7923803157517169, 1.1031952573339296, 1.0655409668695643, 0.5725632882408576, -1.8184817621126546, 0.40547555445308703, -1.7847473876849753, -0.04168399329875294, -2.181317986620805], [2.8089441931255417, 2.2726116589628473, 1.043747694271774, -2.9003694884513287, -2.886893771746305, 2.736935598737608, -2.347112809844999, -2.8474530884814095, -2.9746183201339766, 2.2594154443498136, 2.1778919664562943, -0.5028364906838125, 0.053976847794509286, 0.5974944257462709, -0.9424447728253105, -2.6290429298089775, -1.776536742187408, -1.2011707464147514, 1.1771303922094996, 0.7902067777970165, -0.8030896449971259, -2.55199724407984, 1.9751873654020393, -0.7039005490220522, 1.9671061887906047, -0.5546874286332639, -0.7090896146186667, 2.7271231273583547], [-2.9495987773290544, 0.6369172974268551, -1.2119814585042796, -1.4094144142856198, -2.999254676775288, 2.261133825759523, -0.18772937271129653, -0.26957829257443944, 2.860932242001611, -2.406582021329693, 0.7233216792881776, 1.658736421749822, -2.358861177103214, -0.2175223591218547, 2.915738113859411, -2.5625381914356535, -0.521570333333436, 2.929979530308681, 0.9398947717885058, -0.7066115442984287, 1.7182080141274394, 2.883833689596348, 2.479951541946166, 2.483437457891058, 0.8998229101219675, 0.8297261625822481, 1.1317697717675257, -2.3991817826959023]], [[0.8774872405698559, 2.433904083866924, -1.8368599294553445, -0.729671823821997, -2.141029862372293, 1.2864040031699346, -1.565974939008847, 1.7427163098002847, 2.2252252511440265, 1.519732389766327, 1.1413237233982079, -0.614794286238447, -1.3050806290092973, -2.456198397820631, -2.773447082951123, 0.02494232428774712, -2.8783527764532133, 0.5689416446668512, -0.1125261156211188, -1.8231273168266098, 0.5351814332353477, 2.4414462487255584, 0.6916028171609976, -1.4991919661039197, 2.651889610516627, -1.0588455316731484, -2.371769894985996, 1.0390137841530844], [-1.1735297340414457, 1.4684718853834688, 2.173570099183978, 0.8324535365736523, 2.3105992984928596, 1.1449488947586586, 1.2731064781987715, 2.338219381384839, 0.5976387131175884, 0.8831780206865387, -2.456340359572713, 1.7738118929080962, 2.8967336797850907, 1.6197794977834832, -2.9605561560022515, 1.5396541816824056, -2.405858473191322, -1.55313151257286, -2.8098811011545592, -0.7851055804759266, -0.7869880229111579, 1.0518447096720678, -0.8511568233220324, 1.0977422093379978, -1.5539581726947167, 2.091631496863874, -2.5442202901885898, -2.325334240356951], [1.4619728615467542, -2.38853999322312, 0.8108808404960515, 2.25570675450735, 0.6325166020312514, -0.9906229237691839, 0.9844249799862093, -2.3596261982249755, 1.3228628276162206, -0.8915282468815047, -0.10401404249495627, -0.9768439219954201, -0.43635868280272305, -1.1472423669394929, 1.7726920364861467, -2.220618888288635, -2.7225625124772432, -0.8574538055868755, -2.6778615330624964, -2.379352519870146, 2.0836905459478388, -0.4958874286188446, -0.8275391937596273, -0.535708419102118, 1.1162120620931573, 2.9169350786656105, 1.6836653268121538, 0.8391072734448999], [-0.9406665525176203, -1.5142580915196664, -2.366049508783517, 1.3373144892477073, 1.76237621137137, 1.0175093203768162, 2.8738538832709244, -2.167868965258463, -0.17581792319037604, -1.7079776843675385, -1.2313678079937795, -0.38677241894736536, 0.49099325285037354, 0.3302274600553954, -2.4607464903346, -2.1392564789505357, -2.9438370426617864, -1.4099418225091471, -2.023711812324647, 1.2019537768709334, -2.113052464368769, 0.8448643258192541, 0.3613903014186679, -2.91126776966657, 2.584674646544517, -0.06539209132828017, 1.1462758214126918, 2.5356849542580457], [-0.16123323724058558, -0.46682104501033983, -2.898303816583338, -2.2367955149653005, 1.0345531673408033, -1.5886489220247215, -1.913302984059929, -0.9647084545906388, -1.6449651842878301, 0.4619567585630042, -0.839250214688481, 2.3380568874752203, -0.7895597995530097, -0.8400822962768073, -0.15238688351325624, 1.5452419737954877, 0.15524324315685778, 1.9264787636213079, 0.008808478456938218, -1.488939106868163, -1.3387981864746072, -2.5523851268836557, -0.3103313776407801, 2.976080565199659, -0.8472782112562243, -2.361663042761476, -0.9803920906180821, -1.5300029967551347], [-1.8217237635089738, 2.4976688218198833, 0.6900052407311899, 0.8230303934868552, -1.0386359838848214, -2.4497299241162382, 1.521614310626509, -2.685757581127612, -0.292280245876273, -0.9342637936083831, 0.13400551070848676, 2.897623994119204, -2.5380185730648717, 1.2213201458091447, -1.3530494970753566, 1.755961707972192, -1.4376133981001569, -1.3084404084323966, 0.7836698519710534, 1.7106813160340408, -2.777415930397802, -0.7069337427902358, 0.5187289848325749, 2.5896570062857105, 1.020996814662289, -2.568424566860131, 2.445860703902902, -0.31582605525697893]], [[-2.3042881998465856, -2.3969301297923016, 1.3607940072800853, 1.6179452058876223, 1.8779733411531687, -1.4396452135627065, 0.2436614991559316, -1.1972949166200424, 1.2871799964619468, 1.2174067440487475, 2.4571625664116663, -1.7318159084069409, 1.1743911765822137, 0.5172651138993603, -2.973667179241952, 2.6104662841444046, 0.6153655200712489, 1.8887370200876106, 2.837988041350328, -2.3363132633020536, -1.147543986138463, 0.7338591327934609, -0.7132414606152162, -2.4712352718346566, -1.4431838452830394, 0.09400896927434088, 1.2589967905041277, 0.6149781162724701], [-2.629478990948561, 0.7110140277125803, -0.9631127454648714, 0.503019866292822, -1.7727590265363706, -1.5938953353305836, -1.0810655986438584, 2.7019236280738284, -2.9936745909883102, -0.846165798637406, 1.0194688688533455, -2.3058733767804505, -0.24181987867331856, 2.8615129824632195, 2.174117967980144, -2.15708938770533, 0.6342581506453024, 0.3866788863269668, -1.7106145419613246, 2.5571910443101906, -2.4607364909179035, 1.248334057297697, -0.10945378434482667, -2.0325825278697778, -2.7985199819783535, -2.0950874213080937, 2.644833436267149, 0.026069669067630308], [1.4169644488048352, -1.5914540224489009, -0.2519167763178012, 0.7945723435479657, 2.118527431075295, 2.341585806697327, -1.3772134895312356, -1.8382647007110802, -2.0845983654732274, 2.2790007765065736, 1.909254642270465, 1.6080578565027697, -0.13751256739885154, -1.5456757449730008, 0.33024732368282983, -0.21400441595409747, -1.3154536378525246, -0.6873265028600386, -2.2407900874370226, 0.9559320393020103, -1.129776236465855, 1.3905884816927125, 1.037472671294223, 1.564849703557968, 0.7435208255114922, 0.6451503908842735, 0.24420338993965185, 1.8938556547503351], [-1.4613712872573887, 2.2841018931131742, -2.777854769594242, 2.060294601857917, 0.9842840418396932, -0.9125043560037231, -1.8036431952652832, -1.9542514227675707, -0.9354919006475169, 1.1826271478144177, -1.0382006488371676, -0.7767162677633941, -1.4320334794579928, -0.4324399323460688, -0.23874049798430974, -2.703920007776869, 1.3848366253214088, 0.8296597054149366, -1.9347148938469825, 1.4312831853692787, 0.15065596976528894, 1.482779002671517, 2.3180769141139628, 2.5258389445857894, -1.50902320570148, -1.914169456354654, 0.5236570049862888, -0.1473649684251912], [-0.24914259609816325, 0.5840859833223084, 0.14539953834239716, -2.02905765211933, -0.6380644976050811, 0.9216795773281881, -2.1513953702506763, -0.7106908518314272, 1.8646696696385403, -1.9003756162787278, -1.7546948718854276, -1.8144259743985574, 0.6543759272259204, -1.0814601511100084, -1.5529656524101818, -2.8010083931693917, 0.26366286970330943, 1.7419283916748878, -0.954836680285565, 2.9469271286818994, 1.1307416776473014, 0.8879355975316914, 1.4368120522869532, 2.301672776672664, -1.9570610835946414, 1.049907436520245, -1.0664801339369019, 1.8300440663251756], [1.354344012497653, -2.050715898398125, 0.5617186429336649, -0.31498001041593193, -0.6750222964407504, -1.4081600105130423, 2.267285286611875, -2.159507207722033, -2.7407740573757318, 0.02274674163111312, -1.462804010929578, -1.3793576397711713, 2.012332928498286, 0.7057933508337939, -0.30221616583365307, -2.878417871675581, -2.0228918455026084, -1.133229997673515, -1.654948478124894, -0.7095393413385196, 2.057916063476557, 0.36823442121762273, -1.7903174005917109, 2.889899024193755, -0.630027887660483, -1.872160674786195, 2.166771712365347, -2.9462005027610916]], [[-2.000122090268993, 0.08534394476726703, 1.8748026506823505, 1.8958624077018111, -0.2878804837449893, 0.021701575377505833, 0.6735125954242758, -2.9902169463125707, -1.175965705760874, -2.126640829729462, -1.8567171790878296, -2.44534343781834, -0.5227472223918781, 2.2123108474275366, 2.0822816226424337, -1.4799250209483268, 2.0788454642370464, 1.6385265183466569, -1.5860389585613475, -0.18839744249160884, -2.6045438806936843, 2.7475967707420974, 0.7332530832215629, 1.5436911730696412, 2.2755168683332503, -2.540565813108173, -2.1908922260834434, -2.31839297882078], [-1.8136438886537927, -2.2741377520439023, -1.1701872345567559, -0.14452179012398858, -0.28859666575644294, -1.1580903168564987, 0.7459522302339288, 2.86545305101554, -0.3045703459044007, -2.7914600225671418, -1.9052299290096766, 1.6538138324704823, 0.8696104329069367, 2.330565837987873, 1.8859054817090488, -1.8190203305736075, -1.3952625688740634, 1.973106766152462, 0.4050297782246268, -2.0091096415126506, 0.35445857546732906, -2.7674669468755324, -1.592719942156332, 2.083959378068654, 1.7810135234893343, 0.5656459920566448, 0.4109342232128732, 0.3728469942682704], [0.7125827255171706, 1.492183055190325, 2.2608518655523175, -0.03127394959042018, -1.819506765635897, 1.6072868111068752, -2.6786540513656854, 2.6760215901310778, 1.0993691399642564, 2.4319708545877345, -2.848446563085485, -0.5030809886931338, -2.879111756749791, 1.3729225140687618, -0.434802885952946, -1.3124824761815723, -2.7415972816889616, -1.689354803572294, 1.6771976272116262, -0.9186392019071263, -1.4250869412749576, -2.1593567725039398, -1.9395481295778068, 1.0259171491513932, 2.6911312858859606, 1.4331030682357273, 1.7166052212765868, -2.9108246546771026], [1.998625232499208, -1.4129417841154246, 1.6867723405900632, 0.5886454526891756, 2.6672740698338204, -0.09172845915750649, -0.5395519402578781, 1.2980423538651822, -1.2531111488435283, 1.661946217556439, 0.5345639143898877, -1.9596443596164221, 2.9447983346806534, -1.9061130053946131, -0.12248764100955345, -2.7278210307939923, 1.5380409981219412, -1.8580590056965254, 0.2986584427496286, 1.5849602887063536, 1.6181487977385984, -2.7651277493719366, 2.5256026025240237, 0.8367194828785176, 1.2790108589865437, 1.7412168168197848, 1.8150453264764144, -2.33578181338589], [-1.5971428588949184, -1.3005727500729585, 2.401189340621306, 2.0573159346075283, 2.0362476988139804, -2.8890537183269336, -2.668932663812769, -2.2422676795118157, -0.5147483231174457, -2.149881689394544, 2.756655006895982, -0.867087209198333, -0.24533867280617105, 0.2076797478907899, 2.207896855867965, 0.7933658091076188, 0.7402085023353182, -2.194489693359067, 0.5251134097669281, -1.8864500872506265, -2.2186138265888635, -1.1899220441201661, 0.8572564967012788, 2.1303852890669726, 0.3044601029938878, -0.026203120893657506, -0.9678377927664981, -1.9059950984465281], [-0.18101318883596118, 1.8479796858967008, -0.6937124274415316, 0.7424868839803054, 1.4088747544994211, -0.24791863840896422, -1.5478865372997808, -0.9127539016875525, 1.2822884916291608, -2.9330714861838327, 1.0210389271805962, 2.114063176551741, -2.5691563993606534, 2.675100492662412, -1.9770344105901314, -0.4090429991620419, 2.5752328701812655, 0.6230298449822387, 2.071768997398923, -0.6502699648500156, 1.4562955119069514, -0.9799928913506561, 1.5819783512695862, 0.9221452810505877, 1.4271368491441212, 2.623739976266444, 2.0883956233142547, -1.8875940845632162]], [[-0.06819102636490726, -2.958781873874057, -2.024440714711785, 0.472018385505935, -2.390541068919167, 1.6481498591491235, -0.45448177598736716, 1.310330231280063, -0.12630100054991633, 2.4117116138505166, -0.9875378532283641, 1.62446934207557, 1.087231092289069, 1.8828573651603975, -2.48783286957762, -2.844114600154478, 0.6422762263771151, 0.8595559503703472, 1.0718770890598748, -0.9775156521600783, 0.5741824326820195, 2.986639859736769, -1.6094730230662304, 1.3943793104665154, -0.9304876474836918, 0.2767407487128386, 1.3267639788922034, 2.7642075812295976], [-0.470164026879762, 0.5953461618657192, -2.251783449177759, -0.15369054967735352, 1.553052357559623, 1.7475824814883048, 0.7794088239252499, -0.04288101993728333, 1.0539024220837483, 1.118144149294812, 2.073625592207393, -2.296391610297083, 1.3689602853461107, -1.009839851805385, 0.4118566817790761, -0.0162735511547476, 0.21781070346088027, -2.4333080209002347, 0.8247460189884999, 2.69006599575929, 0.5314200414510566, -1.3322477484363306, -0.9832147050882707, -2.515179325399852, 1.437102031672847, 1.1407689428683794, -0.14786027751982633, -0.9176318761954665], [1.2280918525530087, -2.661351258311875, 2.735858094420525, 1.0932838781817775, -0.11959368026433026, 0.9912141845201123, -0.8543114328953525, 2.320654839797088, 0.7162160193825144, -0.5954809542197443, 2.8010460904106838, 1.476052540770807, 0.5553749101276964, -1.1993190534097224, -2.3761361523220117, 0.38395324283950316, -2.6260070597437037, 1.060185130464208, 2.0683002140535702, -2.675690236154624, 1.0164519136909718, -2.7689613762904672, -2.0390054554257038, 0.8586765658729685, -2.962190423278045, -2.801561664529485, -0.011736369858592166, 2.9160385310378754], [0.48253925243219076, 0.27124487835090694, -1.4685022689677425, 1.2554702545074514, 2.5461169260141636, 1.8235691499456843, 1.722681948547315, 1.7391859435786685, -2.7046150253267487, 0.7945756734086613, 0.6095495734066505, 1.272010042151245, -0.9955700974552939, 0.9243600061285848, 1.4962566254437073, -1.1261820341595319, -1.7858133606174509, -2.1129147705379667, -0.8916762319277858, 1.2273426822459435, 1.0669669805694344, -1.8382782593928315, 0.2674563402863619, 2.217905122171464, 0.3937488758758665, -1.908090180310259, -2.1795743970121353, 1.692832939879465], [1.4844395182923344, -1.8167317561332934, -2.8739139245182197, 1.9399404900907848, -1.7693663999737916, -0.20095367856397406, 0.1372494768091812, 1.233596821241445, 0.7399712451883973, -0.3346890560520519, -1.0531622115240382, -1.2377016565260572, -0.7393792360544733, -1.2365330517284785, 1.450694051575156, -2.82958059284942, 2.8415706921022386, 0.29367691700127363, 1.6094044668273941, -1.9242408173818484, 2.7775415567840067, -2.94400227282299, 0.6835982780226839, -0.7671215864105214, -1.965308410927194, -0.9698316589250493, 1.9932150766849164, 0.07582069792976176], [1.100175160679714, 0.3208663155225562, -2.4696579478792535, -0.25025840989768566, -2.2353708397485788, -2.803046618297138, 2.541177307924822, 0.3389305123814914, -0.13667239025993183, 1.2542804521203585, 0.7524643810716523, 1.5360605834839518, 2.636606199273415, 2.998187752145996, -2.2465877916060055, 2.4613905355694374, -1.5159225657827147, -1.0766076486535465, -1.1935705073720806, 2.3467959992097365, 2.6596702173851163, -0.7313763261801989, 1.7409862897466715, 2.415262865489318, 2.487303933290537, 0.2992605386998455, -2.581078988556939, -1.6574745603186212]], [[0.35955346643502173, -1.2988048797180312, 0.22029569818137684, 0.1487238161086326, 0.7033309682492019, -0.7475933501919494, -1.3525540154733684, 0.05149604224871851, -2.3229320310314794, -1.441151186182469, 1.7420929733645805, -1.5905301954809876, -0.7686777861831056, 0.7564504325177284, -2.072237681281389, -2.4075868793863817, -2.2775289218346515, -0.2382171739306198, -2.3346614901481986, 2.3725653137676677, 1.2291595425426554, -2.696278815367486, 2.400297643924274, 2.1401079481388026, -2.585754093436655, -2.496566661495902, -1.365567012550672, 0.5282658332782759], [-1.5533815833765772, 0.4826911873254076, -2.4838142643459267, 1.9840554566428947, 0.8250033539245059, -0.7051286654186253, -0.6111124753504433, -1.7245287820445356, -2.358228692441533, -2.5478683276338128, 0.3279999763490835, -1.8289668462009716, 2.843981520577522, 2.4497418319751585, -1.6370021600750644, -2.08943865717837, -1.4129702013352392, 1.471865987572019, 2.955486637472079, 0.866899751930748, 1.509916328735999, -2.1252338703388847, -2.646978854622276, 1.8429228081683942, -2.4392207430746975, 1.8685727015485183, 2.8642663374158737, 2.1264093056064626], [-1.8439846801633188, 2.167240038980692, -1.0943102398972062, 0.6593358733530206, -1.6834685160272456, -2.1426172656221065, -0.22349761309770022, -2.9466436874959827, -1.0539038817446136, -2.03334342067352, 2.8001964432444657, 2.1271693774991416, 2.061965656380992, 1.0650682428319387, 2.8911360508621256, -1.7247883392776229, 2.7007122956969765, -1.1051881005060094, 1.9352849499920879, -1.5438201064224395, -2.261874172883102, 0.1572859279503045, 2.4141097775441143, 0.7197172899063178, 2.630752159923568, 0.945094613678549, 2.6093443262160774, -1.7377878443092678], [2.0694700093614857, 2.201479559057578, 2.8473491549204564, -0.5019333069023642, 0.9463141926298277, -1.808563353568163, -1.5466807890474434, -0.255846143986167, -1.087583205182508, 1.216558303951767, 0.2456669116583008, 2.503530189469479, 1.8419535752789136, -2.042000420119374, 1.753413052651668, -0.6502337081903882, -0.3075708973742981, 2.7651877305600783, -0.36524910530353516, -0.34975545391271856, -2.0016597165552175, 1.2000912832645971, -1.8208768463479943, 2.8323524892684766, 1.3639457825928814, 2.8656913211380397, 1.6000891585954307, -1.978606030731329], [-0.5091204571085175, -0.7804593869003553, -0.1695206005314578, -0.7071572659342165, -0.7427443082375458, 2.9734330586480846, 1.0097817892757144, -0.23224839641500994, -2.3984063515003826, -0.6173489979342892, 1.8786592565685307, -1.0903172544166313, 2.688846668026036, -0.16817714366658887, 0.5461099933991234, -0.8560568708326355, -1.877108264619617, -2.85393030793794, 2.76453791847141, -1.970898076193161, -0.055891466768837716, 2.6815080558741338, 0.3723418546058994, -2.111098704224581, 0.09454719719163762, -2.7953560210151274, 2.663848307642266, 1.6169309831414456], [0.9176753973672973, -1.6134861113522443, 0.350006216207313, -0.7879392900698052, 1.8590015277853498, -2.370949047857809, -1.1832793644851713, 1.0440875414277446, 2.020770754036345, -0.6247568529877334, -1.3910344260461798, 0.5060704057489707, 1.4716823744500385, 0.5064055238444185, -2.5845017868871762, 0.30341159899418724, 2.1827333765154853, -2.496355091572962, -1.2044055295043337, -1.2155827327652127, -2.7602853690082467, -0.17416771496481864, -2.8047357221407037, -0.9679094479455435, 0.6012074992709868, 0.09702149308285701, 2.5596489764571846, -1.8157301982542178]]], "t": [[99999999.0, 14.4036790399934, 6.889333675586383, 8.039792546735994, 8.805215905346557, 5.038373385476226, 9.945789785313393, 7.2346121142809245, 12.458620875192773, 12.234908758499913, 13.456721138640912, 7.594166549500811, 6.401646831632783, 10.390826044330908, 11.698285622433161, 13.605801204106218, 13.086062209313875, 8.792208753525273, 14.907034343229085, 12.389660637207914, 7.9898229650871215, 10.143379254659246, 5.998385184584844, 6.545879856840138, 7.055224817081341, 11.411320660439708, 12.986990919411742, 9.81714015216029, 10.098659625614307, 13.024468983597554], [14.4036790399934, 99999999.0, 14.356311709792886, 11.505638772823614, 8.50122314925567, 14.7067058014826, 11.21330576923728, 14.86124979607756, 14.534690090593486, 11.856529253073111, 11.230534861299075, 9.426212581624199, 8.854258217676637, 12.728936860155407, 12.368971526353969, 14.66634214181784, 10.7363978514826, 8.1959458556264, 11.30836396021884, 10.856725575401555, 13.42398311228237, 6.893600957757879, 8.811622113333868, 7.935176944563844, 7.889683036421572, 5.8128527606970595, 5.654322663003298, 11.93032265545935, 12.165407954795189, 11.673389602450076], [6.889333675586383, 14.356311709792886, 99999999.0, 6.5935572982625, 8.310408346618214, 6.50624644449722, 14.336124854875994, 10.206622475690649, 5.8089597683559155, 13.82327961187829, 6.199876713634151, 11.271128877435466, 14.341111827763358, 8.813555885261865, 8.005570191170747, 8.426600590600053, 12.39159124707215, 10.896438297873647, 5.124924865704729, 7.635262354136052, 5.363222086314287, 12.955113351977943, 13.323311899622446, 12.353319234891389, 12.407340150651095, 11.62921448348046, 5.747439973312338, 9.989807762075174, 12.092898368173497, 14.102790128202775], [8.039792546735994, 11.505638772823614, 6.5935572982625, 99999999.0, 12.78430506490777, 14.068495237570904, 7.859327324807074, 5.810366180892105, 7.943329016048065, 8.026412018500782, 5.940457635450855, 12.536613395065519, 5.105163046161212, 11.106697930113008, 13.457922987919913, 10.607140194330203, 7.368806083836744, 5.0329063073630795, 8.995942419838295, 8.792179444800553, 12.876812363701724, 11.813700991230526, 13.042597244074264, 5.49775511705089, 9.454653089469272, 9.074427849778747, 11.164363247003672, 6.180740236773929, 9.800892447634165, 6.741858075032194], [8.805215905346557, 8.50122314925567, 8.310408346618214, 12.78430506490777, 99999999.0, 12.684828487443667, 14.456328368114809, 13.922013738447456, 11.62945879581379, 9.65876514753222, 11.88419277172331, 7.6951841015001445, 8.346807545022973, 13.242899698994288, 14.354177569315503, 14.582200808828672, 9.206805747943868, 13.386975865214906, 9.101484331222657, 6.921098229304464, 12.34853276761468, 14.311531571548796, 8.048975228431072, 5.664059974011451, 14.636097437178519, 6.803075956686309, 9.86031606862199, 5.6681839867610595, 9.619148587999387, 6.959103113791994], [5.038373385476226, 14.7067058014826, 6.50624644449722, 14.068495237570904, 12.684828487443667, 99999999.0, 13.175794655759045, 5.599248026432323, 14.158603835571931, 7.56016750149235, 11.924497976639016, 8.144279741386402, 11.234415219716263, 13.477356210086771, 10.950829628482134, 7.967250661232878, 5.056650917715656, 8.495066250890446, 11.993263949977973, 11.75387587306128, 11.422332280057264, 5.403822593111918, 11.839194564454901, 12.581491229576912, 7.079232758144239, 8.09456078520741, 8.465622985396848, 5.682751548134869, 12.612962540119394, 7.066099747564614], [9.945789785313393, 11.21330576923728, 14.336124854875994, 7.859327324807074, 14.456328368114809, 13.175794655759045, 99999999.0, 6.163520046241068, 13.386319052326005, 7.712906951070911, 5.515228788038594, 7.491225814495181, 7.025665973504179, 9.892383683076762, 5.968507460960687, 7.978454719656366, 13.366799539431199, 9.352291261168352, 6.341674619103708, 10.509476160522203, 5.165297175985662, 14.168517341905906, 14.151775055123537, 8.299643535836907, 5.726873150517502, 8.319401321046346, 9.60816693994395, 12.686844777537775, 13.058144171169241, 12.519619923904717], [7.2346121142809245, 14.86124979607756, 10.206622475690649, 5.810366180892105, 13.922013738447456, 5.599248026432323, 6.163520046241068, 99999999.0, 13.215640396102087, 12.663644692084475, 12.55261290817798, 13.204726600889368, 8.607507213048388, 14.99394355808932, 10.69441461165585, 11.150097548168471, 9.613805906118891, 12.173349293785174, 7.62763088908486, 14.004945683219109, 13.894104836394543, 11.410980850483062, 10.804260277592876, 5.517252494596487, 13.30007461072002, 10.09336258296928, 7.989497185108836, 13.744163945265882, 9.064518980053045, 8.179259033232952], [12.458620875192773, 14.534690090593486, 5.8089597683559155, 7.943329016048065, 11.62945879581379, 14.158603835571931, 13.386319052326005, 13.215640396102087, 99999999.0, 13.554342844811444, 12.33654059985595, 14.95073042515719, 5.609176283415182, 9.91331436773985, 10.710083187192334, 13.672804097122441, 14.259248115606804, 8.36840218863179, 6.775556940968684, 13.27341080794116, 9.329029556677256, 12.20795084792716, 9.206186261229545, 5.432674914272983, 9.185795085115384, 6.989818753980596, 13.699610040540577, 14.041719828317305, 12.472449901007309, 11.022200187816702], [12.234908758499913, 11.856529253073111, 13.82327961187829, 8.026412018500782, 9.65876514753222, 7.56016750149235, 7.712906951070911, 12.663644692084475, 13.554342844811444, 99999999.0, 6.149580604611051, 5.277773491710947, 6.324259726196386, 11.827077232036238, 10.528748800241148, 7.07956366865591, 8.692540935107278, 13.220865922448024, 12.08992702844117, 7.673111279679228, 6.7638148217849805, 11.553437572567077, 10.133092835740271, 12.926978369774018, 8.12743056942022, 13.07630849607706, 14.624953848387735, 9.125840426090761, 13.836217684592814, 11.823701996344864], [13.456721138640912, 11.230534861299075, 6.199876713634151, 5.940457635450855, 11.88419277172331, 11.924497976639016, 5.515228788038594, 12.55261290817798, 12.33654059985595, 6.149580604611051, 99999999.0, 10.55586117780491, 11.947372207672963, 11.475853184109699, 8.811805118497652, 14.992742943021891, 11.310163746828408, 13.54806819030837, 11.895586197952555, 8.56363925235667, 6.619750910238813, 6.103602768831077, 11.028142677720757, 14.997037243860511, 5.09451418811202, 6.225100030968904, 8.41601434754122, 5.4023843055663185, 5.441526399701312, 14.890707270011282], [7.594166549500811, 9.426212581624199, 11.271128877435466, 12.536613395065519, 7.6951841015001445, 8.144279741386402, 7.491225814495181, 13.204726600889368, 14.95073042515719, 5.277773491710947, 10.55586117780491, 99999999.0, 13.961891261337737, 10.42930375688292, 7.823890203197056, 9.865291807120837, 12.023449190949016, 6.319881933355286, 10.251708004986764, 8.37979904082473, 13.057083973715885, 6.805696621991926, 7.3325728653855835, 12.304485270255181, 5.295190618875352, 13.298337708083439, 11.997280977189263, 10.63568188630078, 7.691012205434711, 12.208413760862227], [6.401646831632783, 8.854258217676637, 14.341111827763358, 5.105163046161212, 8.346807545022973, 11.234415219716263, 7.025665973504179, 8.607507213048388, 5.609176283415182, 6.324259726196386, 11.947372207672963, 13.961891261337737, 99999999.0, 10.521055511768836, 10.562315600644661, 13.542971400794517, 13.638506146799756, 6.903368298897551, 8.155282772428993, 10.399112829912077, 9.156540485899058, 9.064519879942207, 10.500529796688005, 11.74320894538667, 7.739137623492555, 5.7486909817837, 6.755919306124449, 13.18560991604804, 8.731984979461156, 9.743238826421376], [10.390826044330908, 12.728936860155407, 8.813555885261865, 11.106697930113008, 13.242899698994288, 13.477356210086771, 9.892383683076762, 14.99394355808932, 9.91331436773985, 11.827077232036238, 11.475853184109699, 10.42930375688292, 10.521055511768836, 99999999.0, 8.232161408834392, 10.4849629687434, 8.078130519110113, 13.448552463573325, 9.064286997269555, 5.232983643375974, 11.589592270066653, 12.28149656891414, 8.591120493052198, 8.356166545174016, 13.192600768277773, 6.382755089988058, 13.079613018388155, 10.546904112509262, 9.155115905240953, 6.955479849458241], [11.698285622433161, 12.368971526353969, 8.005570191170747, 13.457922987919913, 14.354177569315503, 10.950829628482134, 5.968507460960687, 10.69441461165585, 10.710083187192334, 10.528748800241148, 8.811805118497652, 7.823890203197056, 10.562315600644661, 8.232161408834392, 99999999.0, 6.057751727960078, 12.176651707232539, 8.0397706127333, 13.243302170648185, 6.205499039533066, 7.279483303631763, 7.085648897099457, 13.330891643707057, 14.583820431670581, 9.377218630107425, 11.0693124421903, 14.341373752610503, 13.127107679117671, 8.910476530687353, 12.926348002842776], [13.605801204106218, 14.66634214181784, 8.426600590600053, 10.607140194330203, 14.582200808828672, 7.967250661232878, 7.978454719656366, 11.150097548168471, 13.672804097122441, 7.07956366865591, 14.992742943021891, 9.865291807120837, 13.542971400794517, 10.4849629687434, 6.057751727960078, 99999999.0, 13.714263010857406, 6.860325647667791, 7.8468948363601445, 8.679138869828638, 12.966195707360871, 14.21500424744956, 9.242764611482508, 14.38074602000805, 13.077310031031017, 5.9735010020059995, 13.389102011478343, 6.848822336865021, 12.093746540011116, 6.845017204481875], [13.086062209313875, 10.7363978514826, 12.39159124707215, 7.368806083836744, 9.206805747943868, 5.056650917715656, 13.366799539431199, 9.613805906118891, 14.259248115606804, 8.692540935107278, 11.310163746828408, 12.023449190949016, 13.638506146799756, 8.078130519110113, 12.176651707232539, 13.714263010857406, 99999999.0, 9.272398636671578, 5.023694050974282, 8.972701211596197, 13.968737942933874, 10.783818612391086, 7.036410518799984, 5.933890988585782, 12.62411265431366, 6.004392065515333, 13.592442430423226, 6.036817363243224, 11.771980867591186, 8.562693816788991], [8.792208753525273, 8.1959458556264, 10.896438297873647, 5.0329063073630795, 13.386975865214906, 8.495066250890446, 9.352291261168352, 12.173349293785174, 8.36840218863179, 13.220865922448024, 13.54806819030837, 6.319881933355286, 6.903368298897551, 13.448552463573325, 8.0397706127333, 6.860325647667791, 9.272398636671578, 99999999.0, 9.104464250814095, 6.24294867059212, 10.81276422689701, 5.835686737527899, 13.38298299683416, 7.004588667513048, 11.508372243578483, 12.101427922950663, 7.414632334204149, 10.881104224502586, 12.188562934403429, 8.729192361244513], [14.907034343229085, 11.30836396021884, 5.124924865704729, 8.995942419838295, 9.101484331222657, 11.993263949977973, 6.341674619103708, 7.62763088908486, 6.775556940968684, 12.08992702844117, 11.895586197952555, 10.251708004986764, 8.155282772428993, 9.064286997269555, 13.243302170648185, 7.8468948363601445, 5.023694050974282, 9.104464250814095, 99999999.0, 10.817649470811208, 7.332915782838906, 8.60490450467929, 9.821836490822676, 7.041844468865392, 8.846339055047231, 