{"num_workers": 25, "num_roles": 6, "num_nodes": 30, "w": [[0, 0], [35.2646028158888, 61.67324246872691], [47.35934530266032, 82.22098727929426], [49.683370455570035, 77.17429611944922], [34.32192082963308, 71.02872332126316], [3.5995386483598937, 34.12762161074116], [43.59243906612128, 75.9982385871364], [51.7740064984291, 86.418605168981], [41.15647744341043, 72.45997641745095], [6.296713796737517, 45.701054523329276], [25.31370483904662, 60.93927926201603], [7.890978185422345, 40.915297657266265], [26.99431243535674, 60.00889976127885], [57.1222272519881, 85.46504811155245], [51.65150442846522, 78.82981337927437], [38.16156092638848, 69.08585633072289], [1.9960647868985906, 32.645959737544494], [5.067455943561676, 40.03351535715051], [43.24079850552698, 78.81147337360414], [45.09713411111977, 70.85380116069143], [30.3091290154278, 68.27579597218929], [44.60751984685406, 78.52829078983268], [56.74269299341481, 85.11694024621447], [42.42072676254415, 81.59594404997577], [11.832143910087304, 50.87959121343351], [12.539467392738155, 51.031991938078015], [8.013467888992107, 43.87850652328002], [22.763497619793114, 60.06459803359766], [36.831434268391526, 74.09919061203283], [0, 90]], "p": [0, 10.227790611420552, 18.90624148140419, 8.097726678468574, 18.609851024394157, 11.711354665606084, 13.952472165411816, 18.277781324697237, 12.403633587557058, 16.302791285743908, 13.6844161316223, 19.969553402359274, 11.721341841737893, 9.126419135659683, 13.25962534818821, 14.644051920904143, 9.381671731972363, 10.118450201265329, 19.223407003413953, 14.632216281940353, 15.068033793144002, 9.21676161244093, 14.924644835126243, 12.327059458151142, 12.855979071445573, 11.247430914511764, 11.601571444211306, 11.370827036787766, 14.186047810478913, 0], "e": [[1, 1, 0, 0, 0, 0], [0, 1, 0, 0, 0, 1], [0, 1, 0, 1, 0, 0], [0, 1, 0, 1, 0, 0], [1, 0, 0, 0, 0, 1], [1, 1, 0, 0, 0, 0], [1, 0, 0, 1, 0, 0], [0, 1, 0, 1, 0, 0], [1, 1, 0, 0, 0, 0], [1, 0, 0, 0, 1, 0], [0, 1, 0, 1, 0, 0], [0, 1, 0, 0, 0, 1], [0, 1, 0, 0, 1, 0], [0, 1, 0, 0, 0, 1], [0, 1, 0, 1, 0, 0], [1, 1, 0, 0, 0, 0], [0, 1, 0, 0, 0, 0], [0, 1, 0, 0, 1, 0], [1, 1, 0, 0, 0, 0], [0, 1, 0, 0, 0, 0], [1, 1, 0, 0, 0, 0], [0, 1, 0, 0, 0, 1], [1, 1, 0, 0, 0, 0], [0, 0, 1, 0, 0, 0], [0, 0, 1, 0, 0, 0]], "d": [[1, 2, 0, 1, 0, 0, 2, 0, 1, 1, 1, 2, 0, 3, 1, 0, 0, 1, 0, 2, 0, 0, 0, 1, 1, 1, 1, 0], [0, 0, 0, 1, 2, 3, 0, 0, 2, 2, 0, 1, 0, 0, 0, 1, 2, 0, 0, 2, 0, 0, 2, 0, 1, 0, 0, 1], [2, 0, 0, 0, 0, 0, 1, 2, 1, 1, 1, 0, 2, 0, 1, 0, 3, 2, 0, 1, 2, 2, 1, 2, 2, 1, 2, 0], [1, 1, 0, 2, 1, 1, 0, 3, 2, 0, 3, 1, 0, 0, 1, 4, 0, 2, 1, 1, 2, 0, 2, 0, 2, 1, 1, 1], [1, 3, 4, 1, 0, 0, 2, 1, 0, 0, 0, 1, 0, 1, 2, 0, 1, 0, 2, 0, 1, 1, 1, 1, 1, 2, 1, 0], [1, 0, 1, 0, 0, 2, 0, 2, 1, 0, 1, 1, 1, 0, 0, 1, 2, 0, 3, 1, 1, 0, 0, 3, 1, 1, 0, 1]], "r": [101.32386461309571, 50.90955843909899, 95.37006300495563, 178.10130789549075, 170.2981694493081, 173.3136067711794, 117.84469817905651, 77.07424774850716, 117.31816870553716, 167.83320825581188, 118.7330257021481, 89.22283397198359, 176.63659412423388, 115.540836802909, 118.46348193404563, 144.093259576304, 166.0625757492204, 75.6943947775298, 140.90269253230207, 100.67199286715243, 69.27670263368996, 165.1507250593109, 129.16625394738733, 70.61839741951172, 113.19981682380327, 189.68616880635915, 190.50903496747458, 96.13873587800154], "b": [[[-0.6963131170798293, 2.4459549327596077, 2.366025033367734, 0.3973789356389301, -0.4619381795365083, 1.2635332992760784, -1.6080619765920698, -2.5115677668002885, 1.4125045403191407, -2.347221103835188, -2.878366891896067, -2.433184482567631, -1.2954671210444384, 2.2914912774400165, -2.2134528895361285, -1.6213676027232726, 1.6017798834662518, 1.3304683647027904, -1.957031216267703, -0.7547423833788094, -2.6859360081852888, 0.6464974861751811, -2.5315948558729557, -2.2793693798995918, 2.8878034209595604, -1.562800068312231, 1.6323438248216338, -2.595077607057413], [1.5482570834640441, 0.3918813129588563, 0.5726531182204706, 0.3855099988321511, 2.2258422586244873, 2.6281081810067093, 0.13058035521611266, 2.55684380595088, 2.408046285925974, 1.2255397576538432, -1.8212809859303598, 1.5590558638515946, -1.2825375528612812, -2.33168787500377, -2.712289401306582, -2.063830304153884, -2.7595963077250474, 2.4335255488152567, 2.6878060570741207, 0.7040507909520013, -1.6167263438918484, 1.926421299378542, 2.1255314627074107, -1.7008464545745996, -0.9435769825839353, -0.5105735993279241, 1.9334410867130059, -2.2137790066700016], [-1.9697298956403708, -1.1350561730015958, -0.8680854956695541, 2.864693779270448, -0.3946395577990458, -2.0824818703013124, -2.606228835545444, -1.842338604687551, 0.3957067957166869, -1.269769367626946, 1.4519499494910377, 1.6573873163703325, -2.9959027932504694, -0.1904929893026388, -2.9201212647554318, -0.34747310493424965, 2.3753458244445627, 0.33272803983730626, 1.6963659907381032, -0.9983871370805084, 0.7677687119863714, -1.8740837607835872, 1.3179656947344887, -2.863659472534076, -2.603681769601299, 0.548406422241877, -0.22790461481612123, 0.9327728335002234], [-2.3168831597428357, -0.4997372707979011, 0.10271079230176205, 1.3822811597053963, 0.1523484689261272, -0.09799245758191688, 0.00468836479585466, 0.56673382636927, -2.4488439565515674, -0.05943181742871184, 1.4541047561685208, -0.05121008996532295, -0.07073808979436524, 0.6930001378977044, 2.386474631021038, 0.6506836015251429, 1.7697639383544894, -0.6712299155530221, -0.15208334610450258, 0.8018902813960089, -0.1410656320350867, -0.2821797275885194, 1.6052829651589002, 2.8464292017683146, 2.805469508557845, 1.0069010251808006, -1.2865740899124587, 1.665227522257421], [0.8172279610382791, 2.637224052506559, -0.22963831604060037, 0.8514581213860395, 0.12830698941186025, 1.0211624467211449, 1.599584090245676, 2.758978106472986, 0.607584348497836, -0.06258594081568303, 1.8294653760766302, -2.7271452160161784, -0.6733920298819527, 2.9010657578300583, -0.9464056767506905, 0.16511341970586502, -2.417226542433828, -2.111902870418529, -2.3728643166585073, 1.1933859515360847, 1.689345359322921, -1.3346667899249935, -1.861003207820532, -1.304850564161085, 0.8543075502995983, 1.8121959243577672, 2.284965072443307, -1.3682334022118363], [0.45938076094105407, 1.4334477054473718, -0.8151973352524449, -1.8315547033639048, -2.132924644078313, 1.2010456626467736, 2.3272435964124245, 2.681135594589617, -2.320888235040397, 0.08739214793022532, 2.039780677488544, -2.620651672864753, -2.503107399534875, 2.6982337767840914, -2.3633141145098735, 0.9633335283533739, 0.5932216760791587, -1.7439511108133308, 2.7872027642867367, 2.0902554067614076, -0.3004402422723276, -0.020967179343256426, -1.9842604952548921, 1.5003430577154147, -1.5695050128366208, 2.218780545936145, 0.10361671176133758, -0.9078912874203757]], [[2.8463243599808807, -1.589746783234729, -1.9391708992836116, 2.9601011687987917, -0.3405047607483853, 0.6374009951327535, -2.8465153082157917, 1.2596807454275316, -1.8041798122670385, -2.7469487226458384, 0.4109700483499408, -1.8736181547496218, 0.2338688196127805, -2.613013043001316, -1.0040393685165674, -2.5137767273565004, 0.03735688228194345, 1.2773976425792384, 2.0671472558365984, 0.7783173567095707, -1.199734139502293, -2.019534910951505, 2.6612706291551484, -0.9154737982444221, -2.357189218544365, 2.9535691375630906, -0.19586929939561326, 2.641780603187039], [1.5516656886288933, -2.6879762625465853, 1.399746396174165, 1.6552534406704638, 1.2166166161060037, -2.752185389119868, -1.1829842031960793, -1.6970387069367334, -1.8439926779361409, -1.2724119205856383, -2.8227283711254616, -2.8786049266321716, -1.9035260476399345, 1.7902851670343871, 0.5624074766732621, 2.687475137674121, -2.8044064555660224, 1.354648334117453, 2.3726060375528126, 0.6300149182104695, 0.5037006225086897, 2.5210952074485515, -1.9420735048439735, -1.5998884380384362, 2.0687298038061, -2.6149291098099052, -2.7289041245473955, -2.2164775923218736], [2.397401218596749, 1.9226556209640062, -1.5792969977334532, -1.4488225575580012, 0.7406518512892122, -1.5995195288929192, 0.9820256232881617, 2.9855849247015467, -2.6020266505473266, 2.3819834570618745, 2.4360465605903503, 1.9485233830887392, -0.5822894996148102, -0.5944100721274994, -0.4275746862962091, 2.3348250579263787, 0.6388078280704295, 1.9391706101016428, -1.6572692965607716, 1.9184719292493257, -1.7847137578633812, -0.21027120517345121, 1.8397469120011047, -0.8910258602028431, -1.8571389439491934, -0.43230959865097773, -2.550807643397992, -0.7482834377833978], [2.0271866731498367, 1.8508321464082629, 2.9588474543508685, -2.9395953972594953, -1.8339685153588796, 1.1370799746840055, 0.004273326267851818, 0.8168336635012468, -0.6914067580625187, -2.34621611259381, -2.3346489464188793, -2.560835449093384, -1.7383772512477644, 1.166129326302964, -1.0285268711031466, -1.4538434949972197, -1.304570579028623, 2.2930005068656243, 1.397310340844788, 2.083976860246569, 1.3452250629702123, 0.8070346212194472, 2.10284804487776, -2.1863436992056298, -2.8791856147408366, 1.4294157852263085, 2.141786816373064, 0.3145931514682596], [-2.767669966119863, -0.41779130315792834, -1.2387660327577286, -2.556006651858973, 1.5589766162714618, -1.7608613106864177, 0.14864955648357991, 0.9198970633401444, -1.8621761304357902, 2.998210706933085, -2.2928237365865716, 2.254554673118445, -2.642335009457452, 2.866989040046221, -1.585916230390347, -0.18100691356329657, 2.0737339372607906, -2.0171386627320262, -0.5402111049836646, -2.0045682045123736, 2.67036059521819, -0.4666103956404699, 1.5384893461670819, 0.999096239725012, 2.262783532376388, -1.0048764563444914, 2.0684928284053727, 0.8040378656108063], [-2.4339904012494715, 1.549797794095002, 2.7438994358946713, 1.7683875680686718, -0.8680136853680498, 0.7456563008345549, 0.9589306036626555, 0.2894183004498059, -2.628296577951072, -2.168841102716736, -1.571994574650898, -1.5472277960453868, 2.225786537710124, -1.3280404462607756, 1.023486617230419, 2.191836950113971, 2.8517430913660258, 1.7898987951091918, 2.92595236643477, -1.4687257639083455, -1.9998638286025003, 0.752110345662671, -1.001603809836007, -1.3348000261206145, -0.5531944334096384, -1.2266004389991585, 1.534378087138542, 2.9680686331529476]], [[1.15804300240368, -1.8845350007342951, -2.351901179191609, -1.3394896315540366, 1.8027887559903348, 2.6329555464933474, 1.3743312101232306, 2.9938116910795074, 2.6514908951049865, 0.39407492104092157, -0.9862329818511055, 2.1730759404866262, -2.819353090228478, -2.918203309506974, -1.0119148881614122, -1.0427417189182437, -2.9799561940921877, -0.3698322422294269, -0.5983582315685547, -1.8226255664489284, -2.521698828828513, 0.31699833139861067, -0.7650403489514037, -1.506504452885479, -1.3418762648565061, 1.5642119627734976, 0.6384579696853856, 2.7030950548853774], [-2.952816014233583, 1.310619491936425, -0.48826829062391264, 2.8550650573241754, 0.7651522258131158, -2.76830255058781, -2.780657815999839, 2.5957209872107736, 0.6176211756114349, 0.178632080324995, -1.7227125284458742, 0.4995633820199057, -1.5903337639612523, -1.35003123934762, -0.05656330884892924, -2.564452492441676, 0.08215844876196332, -0.9477872444643562, -2.254399794902475, -1.9139699695551928, -0.9851341019056479, 0.9407899659242975, 2.8405634927880286, -0.7854179308351794, -1.0922024395493475, 0.6885253784482877, -2.7870377336486625, 2.9359064442715432], [-2.1660330184268726, 2.5702910148465623, 1.8368533573141619, -2.609111775003748, -0.6887808659836052, -2.299790913348686, -0.12135932429321272, -0.7734074863430935, -0.3288595888957895, 0.5199537384963966, -2.1705480571397375, 0.7247312925026805, 1.1001760480950953, 2.8787547953891695, -1.1551735190251804, -1.642737613813664, -2.1958875546577428, 0.6077583891999971, -2.0213563127142367, 1.658372649176484, -2.0295050546589724, -2.2517476861251384, -1.342991574565051, 2.6655867994352604, 2.5516688746723197, -1.5202772411580687, -0.014148100262263874, 1.730057703127449], [-0.8953559999587748, 1.133601408183015, -2.309299543150787, 0.17734696115651127, -0.5570040574414303, -0.5324222764533846, 2.455102335944919, -0.09868255118829294, 2.177275401848509, -0.30727521087224385, -2.2749199523284593, 1.2917746101417906, -0.22557781338137417, 0.06406529750119283, 2.5988807539767933, 0.5749489781069448, 1.5766266079376496, -1.8340871429241545, 0.5645083395543384, -2.3435044364621618, 2.9742395723740724, -0.40147651129619977, 0.256797218940763, -1.7948483280203804, 1.492645633653619, -1.7549291178627469, -2.203292462055733, 0.18977426070985182], [-1.5885746796116782, 1.6773711564959939, 0.5384664762747482, 1.7338319645338647, -2.7015306076016854, -1.394267678460251, 1.6308668130224824, 1.0091096495757057, 0.20116705488232123, -2.7048863917570074, -2.557036338280609, -0.3595251675048452, 2.6592377029790804, 1.7795339807683392, -1.6672699175356347, -1.808258319129098, 0.5860416734975109, -1.4670888433689167, 1.5966096186455454, 2.3049232917553617, -2.037779519145767, -2.0896059143311, 0.34290552999362944, 0.23695871023765536, 2.2814693377047544, 2.9832350283937155, 1.9686182905770773, -1.3369741395615806], [0.850522426082915, 2.9029762085863737, 0.1421345536335954, -2.0348125799547896, 2.6945725874975333, 2.81522275861185, 2.6524959643883275, 1.2766632863162553, -2.446853154650289, 1.6530029687264527, -1.8195022717028106, -2.7504109957083998, -2.211301306258725, -1.2638153067301148, -2.3953519287422633, 2.765942446004403, -0.617815642527396, 1.5079119246777388, -1.8363526117018054, -1.7909753461749325, 1.5807608054483664, 0.09745899009612513, -0.9083492590062998, -0.04830129321163179, -1.7489694761899637, 1.7908971511352387, -0.926786515698482, 0.8255668175563988]], [[-0.33308025468871927, -1.5761645963311324, 1.3069064225788836, -0.8106083711863268, 1.214673586026482, -1.8750881841390237, 2.6023894992420757, 1.7909760909977281, -1.1963723122221703, -2.3456321943805234, -2.9316613101377778, 1.2956706559616045, -1.8494443892554968, -2.5286928224765193, -2.111011457105959, 1.6150824886058128, -1.4046728126125465, -2.8601928617331556, 2.247961465029153, 2.098088835251265, 2.1759868543337166, -0.6652078018710466, 1.2149825548475217, -1.064217480719725, -1.7966048178854992, -2.293218542356668, 0.5367506220403557, -2.5921208314357784], [-2.544887897144521, -2.8724275170020936, 0.6350857552829776, 2.5457706318759383, 2.660931646669889, 2.4958614575015066, 0.4329310841118037, -0.5338965496879244, 1.5335527396032749, -1.4226131113532663, -1.5578216768965074, 2.872520165418118, -1.7510029606372237, -2.2440776107597866, -2.2985404971597667, 2.681501968144234, 1.8175138054092894, -0.09086135855339217, 0.2605788817326822, 1.7934493774557039, -0.5592374978397121, -2.968589916546755, 1.8937410544931161, -0.7058016092883115, 2.259500987745941, -0.13111015551170624, -2.2647827327385883, -2.1629813968024285], [-2.377145066874209, -1.0362176443257443, 0.6601118436355806, 1.3944792211878783, -0.021213826388121415, 1.1424625699864253, -2.0638657490138943, 0.35372011270170045, -1.479096757396017, 2.0967008733359123, -0.6628668818011558, -2.3921007812697868, -0.7711348888830365, -2.1213198327018197, 2.1793088342504294, -2.3898354171057825, -0.6607627176898294, 0.7451116150010422, -0.7489983698801792, 0.4441745063544813, -0.46872231496316497, -1.242233910316849, 0.933820885435126, 0.6684513509797401, 1.236002024600344, -0.7217607946819706, -1.5823104191061907, 1.4876934007585927], [2.747093354945985, 0.6477839446248757, 2.4865996452792363, 2.593242179094034, -0.9932099367278764, 2.7414127659327203, -2.530476031170231, -0.17837243901342736, -1.4332216432756724, 0.9838455998092468, -0.32685515284768485, 0.9275518169112287, -1.016057155353063, -2.865653367567062, 1.7490730906322076, -1.694033938242527, -0.29851241816138785, 0.6291526398633995, 2.8127365392231045, 1.5530923936131753, 0.06668988784785856, 2.4821173161521504, 1.4317604742345829, 1.2891680335478366, -1.9963211125122944, -1.6109774799621932, 0.17382381385260137, -1.5584192736975442], [-1.2542608771873556, -1.5946972435166014, 1.987280362371738, 2.7010518393585112, -0.985595866668517, 1.6887661711708102, -1.155386714477655, 2.4919771693911485, -1.9835219596835956, 1.026542043730597, 2.959820155042004, 1.320107484487612, 2.0636067196814274, -1.9770624447113458, -2.84890055103388, 2.735416054800731, 0.5138759922769172, -2.9050716250439996, -1.011525685405142, -0.4373879424217817, -1.4205812946162395, 2.2863477352396764, -2.836130438867941, 2.0629969765623706, -0.15363300182816397, 2.0196772560960987, -1.8135080203203413, 0.7715464887198129], [-0.7550770937853333, -0.2759195172996902, 1.7770660067095596, -1.4643507235512965, -2.2713241168294864, 2.0937044708047567, -2.5032922485393927, -1.4078720085072904, 1.6629322270120515, 0.9679829937378868, 2.956241517444523, 2.444637093227879, 0.24059241964312994, 0.5588961490748892, -1.5332076647274704, -1.8578107046646413, -1.1403661673020478, -0.5815888561597209, 0.3324504326448867, -1.0621917580292743, -0.9362760821626614, 0.8203832232067834, 1.268839112903649, 1.429789574806323, 1.7989475983956034, 2.500250265244203, 2.250870980449145, -2.7923707486244167]], [[-0.6542803753090642, -2.148423859976683, 2.4127206198027675, -2.606677577427299, 0.041317869202691426, -1.1327484157857077, -2.6538289450228274, -0.2528825247449449, -0.5070920385976283, -0.4098249897215709, -1.3822816822168553, -1.206447506229847, -0.039684401528791824, 0.9653523126077372, 0.913222144473556, 1.0587370221850474, 0.49964362682957386, 0.5695741948952668, -1.6253686827003426, 0.8515198621613531, -1.2919573894404501, -1.734547646179819, 0.15267459685659368, 0.2742892905715779, -2.6572124277887594, -1.144687141876466, -2.105557710739925, -2.425892128626058], [-0.3822984891213359, 0.7824444334060079, 0.26457528279345244, -2.8049024520483705, 0.9693795531101186, -1.298979777865051, -2.088686615419398, -2.6164812313933834, 2.874261301445623, 1.3204363862414432, -1.7664429625415117, 2.632934318491259, 1.0267064160981123, -2.444327734588333, 2.2548812604622412, 0.49876597625522834, -2.4817680848544503, 1.3411896257314888, 1.2066712678871054, -0.549886667046132, 2.0419868105648646, 1.480947629530359, 1.8295614096857165, 0.3376623553956719, 0.3286166742652936, 2.101796956280637, 1.050265500413901, -0.43869332882454604], [-0.9538356229949558, 0.3359159502630966, 2.6608964117526934, -2.476846266013257, 0.2770981753388835, -0.6943250627451634, -2.087051064172858, -2.4116324638388886, 1.5981713494684682, 2.666921680409918, -2.7431914802622392, -1.7038193550979, 0.35670769402333224, -0.8643201185446383, -0.4217971920962924, 0.6885252907412487, -1.3902976087065742, -0.16456381894748162, -0.9950892339899995, 1.5850965946058153, 2.4541385343056827, 0.558365003057657, -2.059085812945777, 1.1778514855338242, 0.10675295485864167, 1.232885478529723, 1.940107915774453, -2.34592200170836], [-1.209861433732611, 1.6304669234922393, 1.7898715362049522, -0.42058299502870167, -1.6639285700993356, -1.781613817496556, 2.382639656344237, -2.834862064665952, 0.4180066276560832, 1.2906162078930876, 1.2173980889728826, 1.1852230076750097, 0.7958282444460494, -1.411297250823839, -0.8384914486398816, 2.7043688665393653, 1.848195771607485, 0.1224809937348521, -2.1268058694096927, 2.220887834366443, -0.8482439307099203, 2.766396564417085, 1.5502085571147912, 1.19679875802173, 0.7142888053004404, 0.7821160662164521, -1.8757010029230345, -0.3487336466282511], [2.463705607554269, -1.384214725690703, -2.7008635891881045, -2.5412874840761073, -1.9599871831675133, 2.3693880080063145, -1.571359611298056, 2.806331790103365, 0.7974095692454739, 2.2893880074489372, -0.9446918089600107, -2.223732845066575, 0.35679187743191854, -2.6276335623767575, 2.228815606278342, 0.9728560356506337, 1.9002489956003537, -0.015125312602405128, 1.230940749551312, -1.0745843276797027, 2.0840603866977023, 2.1176150172859325, 0.42743162486933484, -1.8610591702820476, -2.6881210735970997, 0.5117303384633587, 2.914656158040649, -2.96029148812362], [-1.4670913862673178, 0.3924424141069318, 2.3530155111508826, 2.3100611099075454, 2.7343041147470455, 2.037816353794172, 0.16116302406327332, 1.7993143944788512, 2.4853163553704753, 0.1775355731699486, -2.5436271723859933, 1.5919078741131747, -0.14697047150342524, -0.3996756106121504, 0.319330140017156, 1.7384248976019823, -2.6650474560876853, -0.4185111881687069, -0.08457089267122253, -1.7850990469634362, -1.3755535172652265, -0.6102847130457629, 0.5559260359669729, 1.523318682656421, 1.1188069204813704, -0.5804366508786902, -1.2201141281262304, -2.7637803308880597]], [[-2.494963040378178, 1.8545838095309648, -0.7056343051362592, 0.5373761064756417, -1.03650079974837, -1.6478477737499118, 2.0992714612370182, -2.3880634004306733, 1.306014282938377, 2.0146288588377512, -0.41086175177378514, 2.1379084583429826, -2.600601079283045, -0.10301332170847743, -1.0020579355159636, -0.29983350471705084, -0.6056362495275502, -0.7428604847806914, 2.4613514037129516, 2.0273271554849552, 2.9219947908744484, -2.9786585414711784, -2.37282670734701, 0.027743351000705907, -2.2744871909562505, 1.1457022157645342, -2.322606359950329, -2.6163088156189183], [1.3389827199597457, -2.0582823107515864, 0.21083803013682623, -0.7206750309517771, -2.8345658553424, 1.142679774573173, 0.31148131764410003, -2.5834514185941164, -2.0045062834967418, -1.1011748404194603, -0.9959114089684955, -0.969193535077352, -1.6000745868755601, -2.8603729721778284, -0.18927557127472205, 1.9407388611860048, -0.8687572912724928, -2.347040750139314, -1.8411363567618362, -0.1369883761067543, 1.8854003803355646, 1.5493957995365886, 1.7624980710200395, 0.4101406344224876, -1.973502496998228, 0.23838670419869645, 2.389566130282228, 0.9711964679399303], [2.7106100664221744, -2.279428267691182, -2.416134996141081, 1.6511859449301252, -0.010147731415708794, 2.6704892372905595, -0.5082431374994663, 2.707226745506122, -0.24250824060035026, -0.6360552876727352, 1.4451836794890145, -1.1674131076120478, -0.47262792037009493, -2.088485034788374, -0.9346532994298418, 2.09639254834991, -2.974268324623673, 1.3428511938177694, 0.09453938140129381, 1.127451160279361, -0.7948390754472903, -1.7950489034410668, -0.7176574071842938, 0.7388518921368092, 0.4339748749969954, 0.07285486363130733, 2.192806505058641, 1.5034142418080396], [-0.2776576194533207, 2.4147339884486847, -0.8164702568517326, -0.9285153374664139, 1.5860309005253068, -0.7936062334485694, -0.9770065478602423, 1.065852702434138, -0.3867811337553011, -1.758154262143448, 1.7462407860009534, 0.5440734740361757, 1.2982902426145895, -2.4133841354734527, 0.29149673907542084, 0.03196526019867152, -1.742616897816841, 1.5237719553829985, 0.3059511871715168, 1.1805635039712268, -0.07354301306677424, 0.10332585038721387, 0.3978954032574613, -0.4840232913943132, -2.670707335136126, 1.5628890405013758, -1.2646226887676366, 1.0539339068814844], [2.9939929503730482, -0.9190530923033831, -0.31178274133914563, 0.2470794195560937, -2.769862281122714, -0.8618022634225024, 0.3655044278860422, 0.20642909862418612, -2.0320881620850577, 0.34012303654524656, 1.7018173746982797, 0.22918535455136224, -2.1924461577526477, -0.2472575209878496, -1.6748436797057218, 2.0062123966347203, -1.8961916510033683, 0.2786670576017798, 1.8429278683674415, 2.1202993441286386, 1.5060311908257429, 2.109262321536, -2.8291333462712944, 1.754178881767129, 0.4256064526472456, 2.0426698963792678, -0.3047202620809939, -2.5418118757760046], [1.1201876658692367, 0.6697575670678679, -1.8593531219850252, 2.4819024040084594, -2.5578920230081197, 2.565820810413303, 1.9258291120458129, -2.563752222384805, -0.15082860892153116, -1.1203732125464139, -1.4982069193201617, -1.8629839463521856, -0.20611202259714023, 0.11611873633914449, -1.87145963311061, 0.6071585070009324, -1.5537546818528705, 0.33716717088108084, 2.8496502512057402, -2.639229697358043, -1.851999069871545, -1.519383590334239, -0.3669995856469157, -1.5438645803649889, -1.6981512156029122, 0.6383142445773782, -1.0160741522420507, 2.2775372381674615]], [[-1.163199095667395, -2.7914886632555254, 1.8605847281545005, 2.9352646837710124, 0.35835716025019826, 0.3951327470223793, -1.2315756390032058, -1.0432917966049111, -2.4457418385213554, 1.6467791831574248, -0.8904467347411931, 1.4035672432701256, 1.6534998514553063, 0.21293376957854537, -1.0353784922441802, 2.9011171235470004, 1.273802072028154, 0.881458314323492, -2.305597132832707, 2.9468980935084774, -1.5262999435785962, -1.635902878470539, -2.9159689274818974, -0.03267455878819314, 0.6936315275879004, 0.7855669100052927, 1.171016327544394, 2.4178806722131494], [1.2683140336091574, -0.053662104055704596, 0.5850513793909249, -1.622412338802403, -0.7602236011514001, 2.3604017144738316, -1.592732694342124, 1.1607670093464693, -1.7361665284301215, -0.09431016663123959, -1.6775743105858532, 1.9112374278455313, 0.2624903921843793, -0.28598640679511744, -0.38671628535864944, 2.0702533802367524, -0.43629191339263595, 2.559363838749518, 1.262817959008082, -2.6543813210493976, 2.189158631055289, 0.571157232468031, -1.0438557221482931, -0.15344582334227663, 2.4152794235741597, -0.7394338585340927, -2.62344544347709, -1.2707639669384114], [0.3486112453087271, 2.2196549312154508, -0.17519399644540545, -1.363519218830732, 1.673632887276919, 0.5025071908519938, 2.7837244766203986, 1.0052375997091252, -0.7802494753287759, 0.271352983703947, 1.2640082928996845, -1.6098787696386516, -2.41362360393527, -0.8060931127645103, 1.7286006141428825, 0.08886953657519925, -2.5889030075255075, -1.5082301678225378, -1.1816248846281299, -1.5483450314044227, -0.6319510695113646, -0.16217456711717926, 2.442296490241418, 1.0233246869377908, -0.6796366601975095, -2.1949089645439006, -0.07813565735943939, 1.3775911224316282], [-1.8497935670400774, 2.819304854006935, -0.48889420322862076, -1.9519699757406022, 1.009356744506758, 0.8354926834113909, -0.1920547573817264, 0.19417228249279805, -2.2925738368097157, -0.15703238948047504, -2.1955160260489457, -2.8955080875641075, 2.7948986777263913, 1.031991899776627, 1.0645764600706542, -0.9692201076086295, -2.796788793932352, -2.65717129197954, -2.8316823650358676, -1.4347990043711125, 2.439151005020399, -0.5989860757389946, 0.04832520285966346, 0.5828467011346978, 1.271057814244413, 0.41200895301628826, -2.633834268771821, -2.988296928648542], [1.3666244271851316, 1.497199205221353, -1.3778272378350989, -0.004731838926766763, 2.1527647636960525, 1.1114168227160564, -0.7952288662611298, 0.27925413313161496, 1.292567722851162, -2.1741482070579785, 0.0009631036928170467, 1.8197358393131084, -0.8301225414551592, -0.8760739470718324, -0.7921871763317387, 2.253898588326166, -2.344190331594225, 0.7493979319664552, 0.9017232049617214, -1.5883153907595005, -1.394870200970846, -0.6244878748004901, 0.42179253954379403, -1.326828762706371, 1.3097037751271694, -1.4930979125692125, -2.6481252056312288, 2.1552955205518662], [-2.134585217809609, 2.937644857007415, 2.899426879464807, 1.3095041784676829, -2.4780573888058663, -0.3616467836730015, 1.3194422087887903, -1.4846552226963574, 0.5474911331946029, -2.7642455448699, 2.7117564354318153, 2.913340366261002, 2.040181847178797, 1.2824852251084584, 0.6411342849348722, -1.7430337811549252, 1.552484736377009, -0.38971043582019416, -1.4877856632114084, -1.1831822391592035, -1.1021834882551365, 0.6272173994334196, 1.4178051575181891, 2.4318333681242787, -1.7056625577744626, -2.71255075573823, 2.2716142405232294, -0.19609233887390598]], [[0.7538852017685169, -1.7352210723358164, 1.628464028236067, -2.791037012030891, 0.050233423110453757, -2.566692185916951, 1.617488454973131, 2.2025373282280087, -2.3882062984914065, 0.17322901616781738, -2.7894113112251984, 2.0107287490940706, -0.22184535915930548, 1.2859703947918888, 0.397886568875645, -1.20024366041372, 1.1530182471894266, 0.22706755089272423, 0.3668171507735263, 1.8450086960852463, 1.1527170179853998, -1.0441406503140371, 2.308633326316988, -0.7061114465121685, -2.260015938984014, 0.5950476847836335, -1.989433334222042, -2.4729641128231505], [-1.1870648743262509, 0.42601118050705544, -2.1149175614749707, -1.5188532531452974, 0.3286825095510699, 1.4711340215879742, 2.9735046400634264, -2.7277112886894628, -1.2781823351238693, -1.00281305264374, -0.9743317055136762, 2.6926278315836294, 1.87509575875836, 2.7420414793671917, 2.1399265684689572, -2.8061640274250017, 0.9803024351629182, 1.3572816872263083, -1.2073126269038161, -0.9096103201912191, 0.5474663394942159, 0.4779870514203495, 0.8563453451411775, 2.240803332983604, 2.485059480111291, 2.5186546812396164, -2.7555441887742007, -2.3437597402509533], [-1.0325596044852103, 1.654158564540201, 1.3927334835383052, 0.782145020705995, 2.7866528549854195, 2.186528185718923, 1.628108247088945, 2.997916621777957, 0.3130251646546478, 0.7281485086321293, -1.1033158089627966, 0.17350620060065935, -0.7177584057299407, 1.845826058229731, -2.6754113855010484, -0.9472800784589328, -1.4891626632074015, 0.30954758491580403, 2.283548794410587, 1.2995764337884648, 0.640674604262232, 2.40443757075876, -0.845396833067702, -0.3171366024875173, -2.5632294307769263, -1.0348389701521885, 0.804297865364946, 1.500604862597248], [1.9941985609480941, 1.829518480109714, -2.6933205954606874, -0.7570626939341261, 1.5539000862950072, 0.7963836960596193, -2.7374822578792513, -1.9460054204997446, -1.4898752265500523, -2.6446750433565454, -0.05391398980389983, 0.698983323209533, 0.5279592443423162, -1.964359007904267, -1.573702561744286, -0.49316532074585506, -2.7672083024393204, -2.698444005818458, 1.2001059033382449, -1.1628118460418633, -2.80715629421302, 2.086177132603421, 0.2110619000095113, 1.0559218378658155, -0.7634631204435918, -1.369185851534695, 1.3462692132640761, -1.1125088464441892], [0.3121641495177081, 2.6068145714742093, -0.0863732073568908, 1.1586520832651939, -0.6915087698037174, 2.152357009086746, -0.8024068064830185, 1.7879036164357132, -2.5335559055503047, 0.9849855296907348, 2.086736826300508, 0.9662419739260857, 1.2132049938886036, 2.692849714070661, 0.46919332603180885, 1.582249973312055, 0.6240469886541176, 1.6720784410561533, 1.8447830154113962, -1.863899300709272, -2.210787680360328, -2.447326868248962, -2.701888064752697, 2.0508565217861747, -2.8941570658558557, 0.23199701212650226, 1.9463981401756412, -2.409248286839879], [0.419776609640536, 2.0031085826698956, -0.29304566353047656, 1.429775767386503, 0.415158974801642, -1.6924196381307557, 1.798013566110681, -1.3484846969558875, -2.0443353591245583, -1.3969523614704649, -2.519565458234826, -0.17921987505375014, 2.177723408729464, 2.4460016521629715, 2.6274947596758658, -1.131278329602457, -2.888051015289846, -1.4810207979559855, 1.823550796069144, 2.097120134701732, -2.2528123201858206, 2.667650928807796, -0.15913348848054998, -0.7981140876807613, 2.6435013335424635, 2.9486948569178866, -1.2884729523630079, 1.4037499349144724]], [[-0.40487446043668207, 1.2551696921746087, -2.0526968839270525, 0.4506423814610807, 1.4389267995877884, 2.943965935164341, -1.7745155061724285, 1.9809357712922875, 0.24398719656044499, -2.6054798153207113, -1.4856638744670325, 0.7251412193081412, 2.90207814215547, -2.3874352248645643, -2.5084500576511397, 0.5542334730688596, -2.055355364431447, 0.05926622862907127, 1.1655765447965738, -2.0485192747802228, -1.4555856754338656, -1.948682359986887, 0.9657323473229349, 0.38854129946820226, -2.5212174346317155, 2.819446792613131, 1.4731362067592526, -0.14548489787082097], [-2.5833183096014993, -2.5565954054216586, 2.9186834764740635, 1.2784201420197192, -0.35503302491366195, 2.792563904733668, 1.8175111389114624, 1.6525623882589553, 2.959163284646845, 1.9498681470881927, 1.258407714039281, 0.8039291386291909, 2.414808660232885, -2.642644343407179, 1.492387185419382, 0.31222357711321624, 1.0035830383108975, 2.3368073292105267, 2.523580609747464, -2.531086963680713, 1.951500499773366, 1.4347263354125168, -1.254948736717596, 1.658137248076315, 2.8984061472389016, 2.209360913722337, 1.2457213991709013, 0.7514663107089499], [2.3997882535980546, -2.775331391025748, 2.715233652162972, 0.759667829972055, -0.42888974771929167, 0.3746686019154346, 2.402911012431101, -0.036844121942417374, -1.267752952239153, -1.8716383566010344, -0.9752074681072345, 0.29367491555830494, -1.6845486279317856, 1.4123956831053057, 1.2026802821617384, -1.1625212449568576, -2.4694226308269274, -0.25311244061394866, 1.1788922903621764, 0.5350126101655754, -1.774694677660075, 1.8174083682704358, -2.8572648676426367, 1.4202393135054336, -2.928559790373305, -0.19463517114791706, -1.8110657383344004, -1.511848098178899], [2.895799183514799, -2.8909401229431735, -1.6670944051288665, 1.0982286725879868, -1.467562652528698, -1.3690289624375527, 2.807428628096728, -0.8015736184181832, 1.7415438143200381, 0.6424811166648676, -1.6785483098243419, 0.6426180310201586, -0.7641826080422822, -2.539352749508809, -0.24018499964806228, -2.4019820120380113, 1.1395547773058725, -2.1250103484586105, 0.5388061533121258, 1.6576890315175357, -0.5817939503946126, -2.2865421378314195, 2.297752816222067, 2.9917585658863306, 1.6053137029453453, 2.594199981670659, -2.9039271366410255, -0.8494165223370276], [-0.6007459925383016, 1.3427078057144364, 2.9526663971598293, -1.4931424347601259, -0.3764221205348437, -0.05549101124840394, 1.0619262095065753, 1.1670901531813103, 2.676993417247429, -2.8995206001092235, -0.7003135237121656, -1.518689032185422, -1.630623985351364, 0.7222151431286874, -0.20729917395806963, -0.5096137789441624, 0.9010906414983544, -0.4062996327317778, -1.0937236822892824, -0.49772919463460763, 2.209326404042957, -2.884898487781909, -1.804376583656074, -1.8983330244722163, -2.966622896333064, -0.7288535007988983, 0.8110766172242672, 2.275419715175129], [1.47158818528104, 0.2971665403659527, -0.7509721051883664, 1.8109422538510067, -2.9168683517401446, -2.6061660530554454, -0.7825534056157704, 2.302679109689876, 1.690032680569713, -1.6233810837128164, 0.4857865945268873, 1.6527122592956607, 2.3532229214786966, -2.6581633056117258, 0.23973005115150814, -1.4661467199929255, -2.971510858860719, -2.2288404690194605, 0.906718883655171, -2.916571290139605, 1.045482114941632, 2.6316831368368847, -0.889212917226347, -0.9548972357096233, 1.0697254697660696, -1.5561129024637985, 0.6969718453113698, -1.2125450967583387]], [[0.9169555317680027, -2.9377989343365982, -0.25485499781088095, -0.6975587379480386, 0.3216453845387166, -1.3899422308019649, 0.42153814259521827, -0.3133884847102224, -1.0017091064716703, -2.6306240823650677, 2.9332318784485345, -0.39417131665262684, -0.2893139094977304, -2.2264984791963176, 0.7548920876437166, 0.22621644262109442, 2.1952461269968984, 2.230532918752595, 0.7463857009003387, 2.007698089365002, 1.5805537439911772, -2.823247829012794, -1.7171022891215497, -0.2391759813373442, -2.97524718911069, -1.6614906352933008, 1.9855652204427958, -0.13578794929030424], [0.38136642635918605, 0.6622985593938724, -1.2310534820877614, 1.0972217279134844, 0.09301649627883712, 1.1686354767070224, 1.6072700330887075, -1.7041102539102277, 2.006829721045902, 2.190025343242466, -1.7784823081158356, -1.032712561122357, 1.390732451773241, 0.9850439827259714, -2.941672966041118, -0.2070486912883167, -1.2499249893306663, 0.014352340004150754, -2.103345097702529, -0.8777929604936832, -1.8965752822636173, 0.7960477410453866, 0.054190818393887064, 1.381975809018754, 2.3667440105073627, -2.9080205153495884, 1.778812885965305, 1.6779923486474075], [2.5180094760753864, -2.569638747641747, -0.26279339440899374, -1.0153377056920427, -2.3447782866518367, 1.2530462925163812, 0.5080960434859403, -0.6825457516756614, 0.059021361365283465, -0.9218533073887789, 0.7434259522757691, 1.639874587762021, 2.8271619338483296, -0.30232251352621287, 0.9481478639685577, -2.959432915568093, 1.6640525081539392, -1.9013105493884233, 0.01801004740271228, 1.2715774856331716, -2.1975909992668266, 0.5602975182787864, 0.8735369285643975, 2.3375027929613603, 0.966498199892952, -2.961752373359024, 1.8053046379593187, -0.9031070531854217], [-2.5670518287561572, 2.6837623232938244, 1.5131924113813442, -1.7570858843493393, -0.3631259338559074, 1.4253751590762844, -1.0487555332538518, 0.6052699974906348, 2.9668635032669313, 0.6785559937795709, -1.0228106847468985, -2.1309359153332217, -1.8419250596295844, 2.020911248064907, -2.306774387907854, -0.5331183972763904, -1.6620325155357387, -0.6446179289759821, -2.232975180937286, 0.5267626325901289, 0.36927618952191654, -2.7229689151731686, 0.8764683880891999, 1.5955966948220723, 1.4499428685428422, -1.241740897290135, 1.2709522475203974, -0.5681604130662143], [-0.260307436729335, 0.3856659729563008, -0.8585355974364095, 1.3395988318301741, -1.655398131587409, 0.12011198274569113, 1.2234857317615742, 0.016038614973457932, 1.0456197724117144, 2.54743351745173, 2.725210825873888, -2.5024775808510156, 1.1031085242654184, 1.5234998599432403, -1.1916666977803554, -0.013767937443192935, 0.17556402384003267, -2.416611588151809, -2.12932852135733, 0.3191413106793015, -2.1975008883105414, 2.0970244061498997, -1.434122692078762, -0.9280411559916084, 1.7918778016250627, 0.11419809765709754, -1.8831894367465838, 1.324225674428197], [1.647179726673409, 2.266918897895568, -0.6480971526831842, 0.8520818845723905, -2.0742491639479033, 1.6947091366608706, -1.4953985115458819, 1.5780438407402464, 1.227800012692775, -1.9809320971529079, -2.5455529198125957, 0.7758014840521774, -0.2921812627267517, -0.2418349922541876, -1.9929353412790296, 1.820960146741447, -0.5386697384397481, 2.68827768624889, 2.325956758310439, 0.9338607627572548, 0.9393624872904898, 0.5188186825846395, 2.587535223282014, -1.4826114707287315, -1.0055178053388771, -1.2242449610719253, -1.1135784668189417, -0.7476539530805866]], [[0.17546010736008189, -2.4910255282565377, 0.8563445811653723, -2.721722657959091, -0.12913358682307052, -2.330020719314731, -2.2600934090308358, -1.3230401513622605, -2.3659734514856603, 2.314546384725576, -1.5805460797289956, -2.7361474615417904, -1.2055545698473187, 0.9783700856430952, 1.9916695969465827, -1.9382802315328325, -2.7221096585348015, 0.595925290819225, -0.658466500298037, 2.892355352034576, 2.13100181794083, -0.9641261589026251, 2.1212944655348345, -2.183894977712766, -1.167628250337568, -1.5889836403807136, 0.20369716496554346, 2.9977932979868376], [-0.8202360359872847, 2.911083027115012, -2.9376479247385485, -1.48698608216124, -0.3686120274326652, 0.6626748514114915, 2.9936551929450728, -1.9352095570915968, 0.8610383099631642, -2.507902252742028, 1.1670413150955188, 0.16852914869110958, 2.6951594332774063, -1.914377152629305, -2.6761895611283197, 2.3974016173023323, 1.1681003308816713, -0.6515708870326979, -1.0576350823724918, 1.664954958856776, -1.30347968194138, 2.0262482391043806, 1.1544141225131384, -1.2076288481793669, -2.941117380297168, 2.1012518974100303, 1.5534272212103009, 0.6673746590458496], [0.40427316931986823, 1.1248793362357405, 0.7517609524243829, 2.3642663145893827, -0.925947697039673, -2.745872780350312, 0.672236748668122, -1.1571051383448494, -1.1319965643156076, 2.6617917214696654, 0.79337653795739, 2.807361832696035, -1.2990748714031661, 1.8171022884738433, -1.1977988860012827, 2.4821102945008056, 0.7383265195455397, -2.988307065276395, 2.3573622972958317, -1.1859525371565025, -2.9591890899060767, -1.80079738819233, -0.32537876100109653, -0.8650875357084447, 2.335184867096669, 1.6027281675013798, 0.20283409832359656, 1.7450610917640992], [-2.8868692923037402, 0.008093077157239392, -2.417449724780484, 2.784925524820549, -2.4312354068646993, -2.864493403013589, 2.7280875858631752, -2.1025321183742713, 2.385809207964467, 2.004376711807118, -1.2769012090824954, -1.9742550587470054, 1.5896774361883876, -0.7254841536491892, -2.797646363988363, 2.5364314639267143, -0.36712723926993895, 0.06278599621073289, -1.8854648796867812, -0.13754031635942043, -0.27420681645997647, -1.4325066569168239, 2.5595655863240463, 1.9511833891181656, -2.1372653195528977, -0.10969611777721511, 2.9735046395736227, -0.2991427667658133], [-0.23139577642544218, -0.20379236838879988, 1.82165991565227, -0.9959873658636638, -2.4342021700101273, -1.280019303562255, 2.883054756401159, 1.8490662526938095, -2.91669850558406, -2.640964278619143, 1.1034595702470273, 0.43740061607505254, 0.24382023174170575, -0.8090909790070455, -0.8456220600791209, -2.977583841579147, -0.426883717872216, 2.944229825192414, 2.398919567990803, 2.533587990127133, 0.914238942695802, 0.6230274940073008, -2.3146696204701946, 0.09767055115165313, 1.0274267099216736, 1.7546737290323131, 1.4005140561905183, -2.630104994822985], [2.4202815106870315, 2.958728222394445, 1.2389473350531457, -2.203712932838085, 0.33622343432442525, 2.723036671069435, -2.820115680789358, 1.4176723168512027, -1.7835349262713318, -0.2638261499907304, 1.0473070403614537, 0.9718862821345811, -1.1505470492030674, 0.008989926424363581, 2.8339280221417056, -0.2312010518373082, 2.6710131656798684, -1.5531013055398224, 2.984570609242728, 2.603737609106771, -2.5974154557490183, 0.9020390541990793, -0.4917741883901763, -1.154985271451274, 2.6195545157835927, 2.4749140835820223, -2.6025286784945525, 1.2041808599998234]], [[1.087936135694358, -0.13241154091822915, 1.1208724143160946, -2.3571200835434545, -2.250583602327226, -1.3932172955452218, -1.9948912554859979, 0.5100136684590488, 0.18338683502789177, 0.2623400496830057, -2.8749574813465193, 2.271972740869362, 0.9890867415612048, -1.7079253499679599, -0.23688613445555795, 1.9866243264227101, 2.5946693861437122, 1.514519887048487, -1.43041400548093, -0.4669784912469783, -2.6762720832594216, 2.5065981199549805, -2.1469632822211433, 2.455312143887207, 0.9980954096824033, -2.1955844318903166, 2.1909807749610737, -2.094032773341932], [-1.1097009075681297, -0.9360981362097762, 2.9646394199971056, 1.6114545281935637, 2.1445510804757504, 1.184963638638294, -1.2418788294123455, -2.994251312577937, 0.9101162377815557, -2.334114473238102, 2.242402721686884, 1.7944698176281895, 0.9407651067167468, 1.716077942450025, 2.987876176653515, 0.5520176806121921, 0.8038267831302859, -1.9711918118303537, 0.10870140685591156, 1.3597030556760332, 1.5891121134296133, -0.0394459923555619, 2.4712753808591827, -1.8753345073918712, 0.4408306383510512, -1.443333612120354, 0.9731574874838271, 1.2414457361051712], [-2.044529195526918, 0.36121391238089107, -2.6261047131447386, -2.736286920538247, 0.01630605620902248, -1.1831082975280622, 2.4772954722284144, 2.4513517307466817, -1.4736889961615938, -0.6515401382590733, -1.7935480474584908, -1.4990440996313308, -2.079378363011509, -0.3505440487690894, -0.17568012658529808, -0.44331853320100434, -2.487469511166104, 1.4105422632001936, 1.2428765853780686, 0.6564070664879686, 0.5537169009307839, -0.8680369019727725, -1.2409645098280686, -0.15488012369087034, -0.6486015149538722, -2.3048413744877942, 0.8294366938885513, 1.1546415654417919], [-2.432787166379754, 2.1024100939571806, 1.2848592502723069, 2.0812169897581407, -0.27686237776084877, 1.8017384717180693, 1.9224391448078357, -2.5453614860340226, 1.2560766405427692, 0.22064063896665242, 1.9189561002656728, -1.8283884449830925, -0.01808097919957241, 2.116942426176415, -0.8699504757656511, 2.2648165288511075, -2.4420042517888505, -0.9261077360287109, 2.1362499332658755, 1.4889371716623199, 2.365494935380526, -1.9837402886012978, -0.20717827581009685, -1.8611354395885993, -0.06035805901981295, 2.711092081118392, 1.5746647803975176, -2.373125122366598], [0.6003468632832387, -2.9247603787663614, 1.8791721749964951, 2.356172670169853, 2.7997394293228934, 2.770082170704887, 2.9948659104298514, -1.2298204277061984, 0.7525074363821385, 0.4729897171040296, 1.8529706371622963, -2.1251460525269876, -2.80375069717393, 1.9847904828140912, -0.7631051038120562, 1.5713816653173698, -0.5564887094863709, -1.7205131553590918, 2.6646910170538707, 0.6314538528035172, 2.5061305717099644, -1.4601483163210738, -2.979874499808548, 1.5323867098560218, -1.1518338584199195, -2.0303714373529607, 2.9914542637651325, -0.7836353558150861], [0.9999685490720478, -1.1464895623211464, -1.9522290394866915, 2.0633674946222733, 1.1010220479759703, 1.22355887718102, -0.5537958742806426, -2.3695272795118445, 2.217443314874054, 2.437940893550321, 1.1654596296594084, 2.2810995564641123, 0.6745068500377318, -0.3701910445359675, 2.915512393908142, 2.4326851848838977, 1.4490281935631426, -2.699643077743592, 0.44145393667947275, 0.24605510752413906, -2.4570699492508723, 1.1988826838195887, -2.8426979196862137, 0.7480070788891031, 0.23271331923062366, -1.6661729051613183, -0.2627828991725423, -1.272383464030508]], [[-0.8632904303772229, 0.9715921023658356, 1.0227519792554087, -0.5784291975169085, -1.5913882463038855, 0.39516514764976796, 0.8482878472880837, -0.9861359554482787, 0.8863317871862821, -2.94922015852595, 2.6064251609188887, -2.519986126649779, 1.5999349126092444, 0.13405586218617138, 0.982770274682558, -1.1946529827964099, 0.15797682274524938, -0.11997407869603638, -2.1425278065766635, -0.9887822822013468, 0.5920354023518355, -2.7230555570964072, 2.103068619572751, 1.039575501720817, 0.25885282076057425, -0.6804368759721435, -2.7200056565209305, -2.6082244115581674], [-1.0749722773015993, 1.4766816622882146, 0.024851323778182888, 2.3451660712127715, 2.9916132330132132, -2.0421524228545263, 2.787464293319899, 1.6998615552032899, -2.701365922079308, -0.9248272359299543, 0.08079175535952299, 2.205084027526742, -0.500548873788587, -1.2188650270687473, -0.029426785109825104, 0.22348890403681398, 0.047609831776807, 1.4119386913741465, -1.7655782319950775, 2.2818252740214904, -1.898972036469419, -1.6340400136159938, -1.3257747761690666, 1.5408120741707068, 0.2595887079838164, 1.6684697413133733, 1.0124369799093698, 1.1014806705478382], [0.10281550311977261, 0.0709001984548916, 1.504641107896962, 0.045446315953006966, -2.5297519691048946, -1.9584173604953015, -0.46168225831761456, -0.9935159837785945, 2.404337113840784, -2.4480943113781732, -2.766660887571205, 1.7577994725064734, -0.9247166288176829, 0.0997663673271143, 0.42534752428232103, 2.773064242654165, -1.1837260263602698, -0.660096046676538, -1.1861862768587013, 2.6918948515582413, 1.935354604219894, 2.091208909987361, 2.7646429442225484, -0.9537120279971338, -2.9858076033187837, -1.3579711004433073, 2.07603254050711, 1.3234979990185431], [2.20391906036848, 0.31435388115442153, -1.2644531801462573, -0.57051177927704, -0.3812524228137639, 2.888857462202404, -2.165117435756342, 0.46010516015734915, -2.093958965954073, 1.3159056648759888, -1.6992534093664802, -2.794508648068862, -2.7889862322259837, 2.1044615671160187, -1.1358654935995571, 1.8434157312273758, -1.8147807991374834, -2.228330458180187, -2.0131630993824503, -1.6539610495067083, 2.2903840508796574, -1.2482386483841241, -2.183689065273337, 1.1644684119247302, 0.3529010863784223, -0.621556221074778, -1.9934163349074736, -2.09283429710931], [-2.5705639100174134, -1.180225117357112, -1.4281800028488576, 2.7958143496481185, -0.48087632705841354, 1.9254355385443915, -2.636598514696117, 0.7532446661219954, -1.3481735306208882, 0.5801688361165955, 1.1358156014449268, 0.17161685661662585, -1.2362616827870165, 1.2853802426611285, -2.5024924225146603, -2.904963170396856, -2.8872372367821075, -1.7660987818766278, -0.997246904395686, -0.6996898304737913, 1.1159017116385153, 1.1484235333484918, 2.4908619718945184, -1.4871321106765218, 1.030018156562929, -2.185921136676015, 1.4707462392931836, -1.0380785152015932], [-0.5208787996758697, 2.499460776109559, -0.7474754492825832, 1.5386816762700297, 2.894893922969932, 1.418051871769455, -1.1848619267472429, 1.0136169621852318, -2.978106964882252, 0.01474357718111996, 1.7767295326979582, 0.8780860200995892, 1.8189047021326203, -0.8478606638775279, 1.547864997636303, -2.5134956076124695, -0.5078285161004255, -2.628819668492657, -2.105417217400441, -2.767643390802322, -2.0320368725281233, -2.91888822878479, -0.6704292603640454, 1.098593776552928, -2.4430851736383596, 1.7180886154333521, -1.1800261715731546, 0.8997395182021068]], [[-2.1655607717398624, -0.0393363621156575, 0.9735610874373641, 2.4709591944815905, -1.1921089602512769, 1.318342330676975, 2.7109138602364293, 0.7532527468073917, -0.3858538488136962, 2.1522101274071996, 1.0636674820833507, 2.5345236926455943, 2.8187220725068585, 1.6746830209979686, 1.4958092393803248, 0.9065165861072164, 0.2153806837257921, -1.124333236712854, 0.3966860983343672, -2.9550036917706324, -2.106441455630968, 2.557419774607057, -1.2200012187853675, 0.5582312177854578, 1.524148368426708, 1.2203389896715695, 0.07561767586765544, 1.2849722935146408], [0.443090784699272, 1.0098479338973823, -0.24131744824972845, 1.390540688530364, 1.2219795669232907, -2.952231914067747, 0.32354737289132673, 1.765773149117992, -0.24011489914750062, 1.3590071753871964, -1.7600737772238615, 0.1522299180387563, -2.888304325015865, 2.1807947796513636, 2.150728696486537, 2.643621008814735, 1.0500247698592622, 1.924408741407241, 1.8109119839228542, -2.948005604491562, -2.4151601868623027, 1.6909291697227777, -2.2274759025639925, 1.5438136407036698, -2.7847085573750228, -1.379675128014698, 2.43793709597813, 0.8671480151754798], [-0.21528109896006686, 1.1047939725082552, -1.698103304649327, 0.6404938478127304, 2.760980974565596, 0.15544990517125523, -0.7491205009040174, 0.8576544543182472, 0.34127976347282996, -0.7249951878269929, 0.28143602867958206, 1.3816572236203584, 0.40850247674474094, 2.2554455678511864, 1.1629606067400937, 2.662372767523264, 1.819064657760178, -0.7459828784834821, 0.8348338167916527, -1.103113789539083, 1.4920137515178808, 0.32264766389562105, 1.0052587541940436, 2.4697866549598384, 1.095020891445154, -0.89592189915163, 0.036035517046246746, -1.1727258469205013], [1.1354350918657534, -2.8796794622160355, 0.5808434662490791, 1.9718462852331422, -2.121283122218461, 2.994900633410726, 0.4041975281845738, 1.880728127488295, -2.1128031425336014, 0.12003274197250668, 2.3940152630681935, 1.1688688871863944, 1.9596091452571374, -1.6690897677311425, 1.2131625508196864, -1.050855977961804, -0.5208646584473828, -0.24301233080201268, 1.1720305222674057, 0.9876441514024936, 0.3432652390704849, 0.278721719527363, -0.17269099168469992, -1.8674346594848916, -2.0580896442807264, -2.351830928295855, -1.3019554784118217, 0.7696143596905065], [-0.48839821139260664, -2.9180736880596645, 1.515188457485877, 0.7020573081725958, -0.9294073739904816, 0.5897155967675891, 1.8649151419969483, -1.5731651330502812, -0.207951540912517, 2.152371973046187, -1.7846762215902574, 0.27817255586439504, 0.7289734548960123, 0.1532049701913527, 0.6208333301757922, -1.4593617019943603, -2.9656210758408457, 1.9673256818281342, 1.770323149671957, 1.785871696737007, 1.2312065181899046, -1.152949494983961, -2.571651303773904, -2.266296095434722, 2.6554269852598864, 0.5478736031382545, -2.744117393426313, 2.0152950350882453], [-1.071507320861088, 2.3273629921656536, -2.7062755919685006, -0.834038398204954, -0.9755431310831604, 2.301986430751354, -1.090757737758075, 2.9941370992010974, -2.309158666075878, 2.59362887864984, 0.4817792094624127, -1.4327495782063664, -2.5429821072139536, 0.12613954478450573, -2.103115266804811, -0.3384265241910063, -1.3485567322541039, -1.402303389645874, -0.9159738939903956, 0.013088919424414591, 2.5786450021867866, -2.492357859519518, 0.6025690283853189, -0.3185790692241923, 1.4339684526263632, 1.9556202899528428, 0.9031829327445839, -0.18809170926879748]], [[2.5115907853812995, -2.441059941315177, -2.2006609407001934, 1.933221296264663, -0.3375012888323212, 1.817839923734006, 1.2895220424733465, -2.389047875310634, 2.4308452527652697, 0.8267364231372625, 2.7969570175592935, 1.9246828662521889, 0.5269793620574497, 2.4215701469153217, 1.372081056277791, 0.6925399794361966, -1.4145509179813034, 1.1180255496382507, 0.6270050894336157, -0.01205359361403957, 0.4635766658364666, -2.415546884195245, 2.5208752186195085, -0.458324420343863, 2.0206996140648164, 1.7953911657672803, 1.2436491272923487, 1.089748158249571], [-1.5439960779442676, 2.043373252789875, -1.671729979832371, -0.9770681158902739, -0.3551565572629918, -1.6805765743907544, 0.09399389871389552, -1.6371233332852049, -0.49076051413702704, -2.8387177011767495, 0.61246641618248, -2.3794419986767172, -1.8571122737001549, -1.4260200895051722, -2.0398531681032575, 2.100847338946287, 0.5483743034844921, 2.9020817958042517, -2.771229085740165, 2.9110539964056104, 1.2907217936280038, -2.7104507527265693, 1.7769907294414589, 2.43950393221749, 1.8408876256356352, -0.2534012186547816, 1.349075304934721, -0.6680959059434564], [1.6757370242456169, -0.6562064403160583, -2.6848101585251873, -0.23143757072575877, -1.680347440801203, 0.15040542161397052, 2.746081301249154, 0.9953545966687072, -1.5263550116397673, 0.9119053821133027, 2.2763758526005535, 1.5494010375566258, -2.069907175144936, 1.3992402344500388, 1.3124473395286351, 2.686093889724223, 0.3440765086124462, 0.2939634344486688, 0.8386586616524445, -2.838666112841925, 1.902082564535383, 0.318823967692496, 1.7713388313013088, -2.8274679059282244, -1.8526054563902001, -0.14003113274588141, -1.6065347494223312, 2.6325896387153778], [0.8429285129500892, 2.487694267369423, -0.6244961127389694, -2.364201241859628, -1.8783063066887675, 1.3940148633572331, 2.0253439393787804, -1.0295531606462842, -0.7786506715050674, 0.17417192620827038, 2.57266479289789, -2.0426944326200216, -0.014419655174978452, -1.5558949763090073, -2.7106619808921906, 0.503173010983855, 1.9980808548591842, -0.5962135860348736, 0.39194102836960854, -1.3987548206243292, -0.9246573647542169, -2.906082599664086, 1.3405369028512455, -2.620271258044249, 2.778102289814079, -2.4571331748925003, -1.119109951330906, -1.0176941703747706], [-0.5063814600642735, -2.775092240229137, -1.3091886012593643, 0.9597549989154857, -0.6962329430509326, -0.22776405306337555, 0.7871109957936282, 0.9553174447153916, -1.9735625521396045, 0.6774501262223915, -0.045588655174359616, 2.142478444722288, -1.7760082660806802, 1.9817122572394759, 2.984146309605002, -2.228415484967724, -1.232041194565994, -1.4629237871204361, -1.05967398705071, -2.985400253282626, -1.9620172042009043, 0.8999315435350934, -2.7131188317011747, -1.884933294462292, -0.9411473958777066, 0.758432057178291, 1.904384329957896, 2.091748130236385], [-1.5033357790998298, 1.2144242157809177, -1.4796706585540946, -1.6271719002407592, -0.9018891748143028, 1.023355722897037, -0.8928837706301938, -0.3494136527674687, -2.6616290869642656, 2.344626007808393, 0.08082019670249085, -0.6538437794185112, -2.3737947384056577, 2.0574271567450673, 0.8929016903948317, -0.1705453585165353, 1.2437835473269603, -1.6890782627541379, 1.9497041619889055, 0.35071779256646174, -2.426818313201175, 1.6166675810213285, 1.5604583471595106, -0.7233027346290841, 0.4746929963258486, 0.2997656524527539, 2.707694380874279, 0.4867955110646438]], [[-2.431800880495361, 1.4774476061850583, -1.3915977908682537, 1.5846871537063931, 1.2536412336925684, -0.9190061391134576, 1.938786251405376, -2.7409073163274225, 2.2879136183506548, 0.9746435860289724, 2.735546186055677, -0.4132824895018703, 2.420532568073731, 0.24817786972787648, -0.18083203695991656, -2.1413365696055395, -1.7461281053153859, 0.11698776564278202, 0.5629421489614606, 0.021724195970088456, 2.6789829029334493, 0.9627681861160102, 1.7235533320356735, -1.7600136761999199, 1.3969760563189926, 2.4823312591319153, 1.2944042327367136, 0.41643312702622026], [-0.3844384931907934, -0.30563070773702794, -0.11514097201459617, 0.44732978083006447, 2.6608413938673223, -1.4664773330364202, -1.0955254500021516, 1.8127069481751672, 1.3774955633143913, -1.2778144559569646, -0.3709835884581718, 2.702852801957798, -2.357223586166109, 0.8091052106666909, -0.595829654400704, 1.46963711328711, -1.5891459135532569, -1.7809192253707484, 0.5410649742023281, -2.580409515967893, 2.3613789081178833, -1.020105944594878, 1.6489362917418688, -1.135672436145915, 0.8149035625529821, 0.49306042304789344, 2.616388308860804, -2.6754133680596723], [0.018550267525478503, 2.9749356512163487, -2.0316606082497772, -0.2682912422318262, -0.7264866545431996, 1.0761480498973945, 0.8659252353715456, 0.5806865217819923, -0.673971555025024, -2.7139127589829, 2.7708558611061607, 2.486955706891737, -0.6158851012484443, -0.912575092694464, -1.259573371471896, 0.9542174379487172, 0.6073191530822628, 0.13369664283066474, 2.771972422256521, -2.690214348891124, -0.8468466065731528, 1.5290426788030684, -0.35657621908501014, 2.4168102661114634, 2.5393278870922726, 2.7433797351405786, -0.9955021837263685, -2.350004901718773], [2.2137817190804867, 0.9491999598302794, -0.027238536575219907, -2.4892014348684603, 0.6485279784565572, -2.3643533519829543, -0.23096478021847844, -1.137823957210642, 1.654920083760791, -0.4827946448749918, -1.141525813765095, 1.9076824750628418, 2.88959925067528, -1.145513019504906, 0.2812307358835846, -2.2491805726534304, 0.875686251894785, 1.8136920343765937, -1.0336748229142911, 0.6291882535396427, -2.43135253039972, -1.804495628597954, -1.0734523711451016, -2.0605608928918784, 2.8176429858682326, 0.12445095870029377, 2.3593675843540467, -1.2002770477001024], [1.9635996098028992, 0.2854347697030768, -1.256413318321593, 1.0811631807121858, 1.9211872549305893, 1.763981821279243, 0.38721636936012516, -0.7554150317569, -2.331008182970228, -2.3716736231019446, 2.4704031943484948, 1.9897062832925219, 0.1007285022271871, 1.4472827634313807, -1.7786375314616012, 2.7642639462608747, 1.8363420126856305, 2.294806423522015, 1.967837491939882, -2.685572944982826, -1.6160717588037123, 0.67801486952213, 0.8889381331103126, -1.4581995808034605, 0.9418763349828438, 2.5820018826676456, -0.3978019082930704, -2.4011130145065045], [-2.0178449156623057, -0.04475944547008881, -1.2016171649857317, -1.4972177699076903, -2.4025681516743767, 0.6650596515298055, -0.42094986513649335, -1.0302724409298551, 0.9367719191309671, -2.9524553058244813, 1.4852300871359772, -2.8939541888567097, -1.9184155772444895, 0.25714768665439225, 0.6110851071593619, 1.5313021787791632, 2.9284382971358607, 1.007716085029342, -0.8513870994607977, 0.866810108402702, 0.31560743925936485, -1.5917957292912186, -0.2909666203893213, -1.6635055347071392, 1.897923000538654, 0.755145022290943, 0.49003442106253825, -2.6473252590014456]], [[0.7037659064524373, 1.6260415376392778, 1.0118896159833657, -2.667512639413801, -0.7491885255824764, -2.6434679332002027, -1.01680878676943, -2.055034800402156, -2.6239290951656917, 1.177390494393789, -0.14346615721693157, -1.9007562422490798, 2.3269216538469975, -2.7460968132292933, 1.8805405213731685, 1.1516232002664495, -0.9027110875226625, 0.8186141844172523, 2.01942760634339, -2.6414672839363655, 1.5165384645213278, -2.031079512263169, -2.4662734559128645, -1.8551842345331095, -1.3653499816560781, -2.990251078572272, -0.4531003604692132, -2.122424675757482], [2.331315876744089, 1.6166279514763735, -1.835844013138508, -2.2542753760457614, 2.9478421939408577, 1.9445580268292488, 2.0268008531916397, 2.9076422761634806, -2.5000508669126233, -1.4681710806857995, -0.40210679806367233, -0.890730064700541, -0.5377881254523529, -2.0734483391010077, -0.8023509258312456, -0.10221025047317589, -1.734657912780901, -1.3535112718367301, 1.3550202372469382, 0.5612249309076107, -1.6991873995033626, 2.670403636169116, -2.480531756643827, 1.262249881596623, 0.8768229059379791, 1.8300924354817623, 0.8809806143711114, -2.0985442341872282], [-0.4504280060918546, -2.9806106589970818, -1.1507987731054226, -2.1469283957122856, 0.006479547407061581, 1.1271086515155417, -0.7560787186576698, -2.0720661025369935, 1.892281625843112, 1.4335722962202162, -1.157288176327255, 2.0191384152942193, -0.5798037875094506, -2.8654112075048643, 1.773847903191629, -2.403569421270192, -2.3910790568405904, -2.7931716277813163, -0.12696036161872293, -2.7530848472290312, 1.64200989580997, -2.7420790865192552, -1.7577528487951137, -1.7870204012980146, 2.194692501036897, -0.13413442899497863, 0.6342738112488537, 2.3808060306092615], [-2.9146345916344307, 1.1639217237658919, -1.854230552470579, -0.7839377548441249, -0.7351603986461104, -2.8246425441387712, -0.9245996589406826, -1.0701191875892855, -2.956894612146953, 1.7759133274285297, -2.2682828899347056, -1.0751576679190655, -1.933228353119571, 0.09678700976018417, -1.785745030097875, -2.4650698487802614, 2.695454115475888, -2.4416814725918288, -2.535488217606992, 1.712738078414687, -1.3076472704487705, 1.3976403666279902, 0.7192468805032974, 1.0088986778743685, 1.5995717866747965, -0.6409707153347326, -2.9866784505311, 2.3514458386660646], [1.9776488445760965, -0.24011847302834077, -1.6689942548384709, 2.844131104250285, -0.17483680083794306, -1.3070596770252847, 2.2991699909507393, 0.6014066614013176, 1.6623192760933154, -1.756445390736182, -0.9184070847040942, -1.0501731382800426, -0.2377198092275261, -1.3675157266354538, 1.4131486626746552, -1.3017679792832864, -0.3542128277365144, -1.5390825186086066, 0.990613561265449, -1.624507978226483, -2.6798931640215846, 1.4328541334858764, -2.1778461559289104, -2.6096324744306423, -1.1477187243619877, 1.0975313821318453, 2.4562258916505044, 1.8808335019104225], [-0.26507951624056325, 0.09803309757346979, -0.6121515923985852, 2.4359292891996915, 2.8480996471750437, -2.976192307232926, -1.0442489940123054, -2.3933099308236647, 0.2764711674957887, -0.9968135662306383, -1.608103157334288, 1.0426186943228384, 1.4153175157250164, 2.97446483010392, 0.31025125796800523, 0.3748097210767929, 0.6244076972230355, 0.02836414026837364, 2.3537252831160815, 0.35751969215356727, 0.9856598427825514, -1.740030239386551, -2.8630777632594495, 2.957845812380783, 2.725029134078011, -0.7702856185461782, 0.8790866665569075, 1.0743697454660577]], [[1.3879881284411537, 1.2535248725868495, 0.4739067837244253, 2.5738259821942933, 0.8866808342464552, -2.8678484732222334, 0.1350014475353296, 0.030625696352634346, -0.8707511684818616, 2.133771150159907, -2.945214633157561, -2.574449082250339, 2.8007749814307337, 0.510499750239001, 0.2150207793568093, -0.35642012614507257, -1.920106795410177, -0.06911165528017538, -0.5080718054715856, 1.1435824516614588, 2.691210355510348, 0.7748277685270661, -2.2657474557140542, 0.014200284333613755, -0.9240911570843933, 1.828207545394985, 0.45128240188200586, -1.298332121492083], [-0.8898490289425096, -2.955185221584995, -2.2942345821802492, 1.5535691052788918, -2.9324464820961262, 1.5419729345033586, 2.9602387906965957, 1.590138872751421, -2.375349700189355, 2.60210449986658, 1.3180780698796326, -0.7411404086365132, 2.7126288474505262, 1.3067810293970439, 1.9458889681107596, -2.4111797294704616, 2.285331952765545, 1.3432524937089871, -1.9573222298385535, 0.28331769909281546, 0.5150505433351986, 0.23135443468680172, -1.1360637232137119, -1.3121714117161145, -2.608246570618258, 1.1120047963573425, -0.8703315949031047, 0.4178133275057889], [1.691752998172686, -0.5889439346524665, 2.300878032460105, -0.46289330404975537, 2.518530460025259, -0.1368110901788313, -2.9025070822587704, -1.740797460009808, 0.9988487449056693, 0.7669307417623252, -2.477731875570296, -0.10914145621878468, -1.0967538636881289, -0.5952644536230727, -2.5338962555830244, 2.8452160056192852, -1.364005225839945, 0.6581712596852394, -0.44845439965900535, -0.16180136875031614, -0.9889720296934468, 1.2337662073704658, -1.9130537552141198, -2.2642216426451425, -1.4755625060998807, -1.298321530570137, 1.6258044185642113, 2.1181293932890597], [-2.983944875564877, 0.11683316189380655, 2.900437205275212, 2.53999143967462, 2.5498772749543495, -1.7421462454017806, 2.7572370483625956, 2.7677591521125455, -0.8414400352709563, 1.5726964262934766, -0.5007894027604936, 2.7701954703839675, -0.351120594032027, 1.9750901958339142, 1.5780804327307614, -0.11683939753525685, 0.4391387112413323, 1.3572749196931948, -1.7783460180064714, 2.5260694002973594, -0.22512977419784574, 0.3284122438695629, -1.8092673912611108, 2.7193165963238153, 2.4566034928145584, 2.0276288816309096, 1.5221847936532074, 1.9324289576330083], [1.6096128016679803, 0.2755786228794985, 0.8684882939576744, -0.07648901747255099, 0.23857329764085033, 2.3005847944369773, -2.363458545980575, -1.5455307438572183, -0.47038613456557243, -1.8084440450765287, 0.9530487343116438, 0.543106430356179, 0.2238529294260969, 2.461957598529164, 2.084607176875693, 2.575846168272209, 0.6380434376166724, -2.0282347110897128, 0.08334642789240032, -0.6353958537184354, -1.9967872762693921, -2.6567971008424873, 2.458515229373565, 2.420423327753359, -0.7397579502698468, -0.5912368811744173, -2.0831058270966825, 2.482063133412116], [0.6159792216925748, -0.3279505552586559, 2.6013513862293234, 2.6397488606876998, -2.1648918913597175, -0.9613970054962158, 0.02688051743888753, 1.7733730447201026, 0.45683997114526687, 1.5541113078628843, -1.386149365237603, -1.1762561737488482, 0.9812198236533907, 0.6062851847724033, 2.351695630460185, -2.50982396678475, -2.7746663616426988, -1.7195633190958943, -0.42056392326508796, -0.8752692260247041, -1.4275813031270428, -1.1754931498520735, -2.7757253685513605, 1.1576856018580663, -0.1320338930584759, -1.712967216154734, -1.1409136628344128, 2.652146248309151]], [[0.9834709452264558, -1.520455004173866, -2.4025161335317016, -0.6870511100188086, -0.21688556611441534, 2.2464836551236393, -1.933319565203808, -1.1422633181718864, -0.16692527593876516, -0.9108328661026563, 1.501440329942901, -2.3806355740027785, 2.6660360637195826, 2.313447515761979, 2.885677902556891, -2.904926681223074, 1.2093836236782796, -0.794701029087828, 0.5309738591189461, -1.7441621262850162, 2.154598641984945, -1.0769789086084667, 1.776593742697501, -0.014038015329031595, -2.354872364174823, 0.9148571906961953, -2.6462988005249444, 2.587718948176141], [2.6633092853959592, 0.5058024068064464, -2.366167332378017, 1.1034472449908561, -2.2300685839332077, -2.910304895132896, 2.9692330556879725, -1.757562450206601, -0.901171306309763, 0.020929730520530487, 1.4214893411164153, -1.3853925273477063, 1.5532224810927708, -2.895447615215177, -0.9516744518483495, -2.0685696891801157, 0.24975692597082855, 0.7609189404263352, -1.6167010340118706, 0.2831683638915785, 1.9614059333665477, -0.7513638508479419, 1.6667840655288684, 0.31753295990221186, 1.7323068934695804, -0.6195796526054238, 0.6490572871209421, 1.3640735951505523], [2.130795632294653, -2.22715528984644, 1.3105393293749366, 1.6076998567411849, -1.6045294985601537, 2.579456030262582, -2.4422411420163046, -0.6003358092820266, -0.08003330106908191, 1.5831375003799897, -0.7690487811707767, -2.9747070580070942, 1.8476915039443487, 1.5010370861903954, -1.5320588080097484, 0.07681249585900707, 1.807176468896043, 2.300067697771473, 1.2571247872755515, -1.5523886242144747, 0.4364874699757282, -0.3489613603233357, -1.6694037603642726, 2.248110983575156, -0.12098928641816764, -0.8094156092172535, 2.7645535661278844, -0.709113692791072], [-0.3809778780051678, -2.6041373582692016, 0.6655503201280428, -1.561484079972547, 2.23057800627081, 2.3623398259779576, -0.2569921563279083, 2.860338682523211, -2.7472315599513735, -2.4078746026319315, 2.1207206679552586, -0.5634922204441333, 2.8021097912181627, 2.0192321526836965, 1.2916187860507264, 1.7846405626781667, -0.10489281317734189, -2.844354047856937, 2.532128460074425, -2.973541891088007, 1.804759515470237, 1.1162190459121453, 2.6981819510629155, 1.317120296619379, 0.054303862690542104, -0.8453026112045503, 1.6571286763308937, 0.31083683344862356], [-1.109078136179826, -2.8015142495033785, 0.3995914806970884, 2.106674999683989, -1.832484163183737, -2.157275779719642, -2.6755205978837284, 2.039388990500095, 1.9131902922947752, -0.051257477869763424, -2.3686645791942116, -2.7438590754544605, 2.298703858500626, 2.4229765696595287, -2.0643516135601923, 1.4696206992266418, 1.3474278105839872, -2.5998627760355397, -1.4024252763642278, 2.3494470117861885, -0.20744125686588344, -0.14647900323757312, 2.4707758874964627, -2.006519932625845, -1.2699241586479848, -2.824221093958257, 0.1933596279918981, 1.5787346814836045], [-0.058548557290253544, -0.5239996644266838, -0.09901127029034873, 0.8638300151575016, 2.8174064366871887, -0.03820483700486976, -2.7599816260505357, -2.4714772485890917, 0.5830112188355399, -1.7032879504521234, -1.9176184522829383, 2.8036245927212793, -1.3626984269391043, -0.4091765389452888, -0.3518858750589371, 0.9410118223424364, 0.788559570320591, -2.1590362455188963, 2.9664581734284408, 1.1392985546644416, -2.3206750178029516, -0.4720382804568577, -2.896123668633672, 0.9524956915830898, -0.3415413310858195, 2.4725825714068597, -1.0569221573565064, -2.61640514435203]], [[2.1703659465954557, -1.2889618935885996, -2.587056559127342, -0.24377993883055415, -2.4332146521292133, 2.2178447489594477, -2.4917575465316064, 1.586950950515476, 1.7323004929592063, 1.4695579082482064, -0.8265275782167247, 1.3229547459598932, -1.2346872430035607, 1.9167943446170108, 0.5579480973901472, -1.7915152788682804, -1.970655527186736, -2.695126819306501, 2.9252957446889454, 2.593788238028214, -1.8008630985356053, -0.28377125716273266, 2.944702465090251, 0.250152489853273, -0.04005481141865941, -0.43989303564038584, 1.8043494346591684, 1.8761575698014648], [1.3766688691432005, -1.973015806420846, -1.36676309695435, 2.636827275334361, -0.8953687195933107, -1.5385409783652715, -1.323365539963292, -2.908711465188347, 1.9401610748734743, 0.7360422962908917, -2.9336387939740396, 0.11890909295746344, -1.9518583127938838, 0.05275576156024675, 0.10566912028932185, 1.13434975293662, -2.6860626873549815, 2.9156435579312543, -1.0955201161439125, -1.5728862486139548, -2.3801078468055823, -1.2447306213818943, 0.3160158318974182, -0.7371203426731272, -1.0978142585475437, 2.2431937991333175, -0.17914836617509877, -1.0457971078737283], [1.383719859141598, -1.8247859780353182, -0.05722859264567415, -0.0924871411580428, 0.08997190910443642, -2.689137766247231, -0.44645801244977434, -2.8165125549931096, -1.81017892646171, 2.575902056561169, 1.9348167321498106, -2.24739843629502, 1.3399794226999369, 2.3568393401903354, -0.825105675872825, -0.6326206754937487, 2.8275596513748793, 1.755875793456351, 0.20106142956541184, -2.3868924242545813, -0.12211084569927655, 0.4889163891280148, 0.1645805546379142, 2.6539157839107936, 1.108700751172221, 1.0590314391475228, 2.1742867077645895, -0.015827371240328958], [1.1093004157237978, -2.6453327849193373, -0.4447300252265203, 1.6100300284962055, 0.7106516207976936, 0.18472717360558866, 1.966026876104185, 1.9840816256780833, -0.6285340934217505, 1.5724136576859813, 2.3820442762042218, -0.9611000520429069, 1.5675483290703287, 1.7130422138568537, 0.09439855413416431, 1.1861199464302077, 0.7760939329097445, -0.13738698981548403, 2.124346134467973, 0.6026396071182574, -2.7444896618035743, -1.4834539638398332, 2.780299077312918, 1.156748714495273, 0.5185189373937424, -1.814122450689634, 2.684988069061868, -1.7501372016425876], [-0.38755979052451917, 2.444100383590049, 0.014154702267292762, 1.6245976185342466, -0.691379942227198, -2.3416451034376218, -0.13060202943696453, -1.6400872464563514, -1.1536088750153048, -1.4803588815261104, 1.710913007423219, 2.3838299441291024, 0.5797226805732967, -0.2521517555712429, 2.719506245722462, -2.2601201635811297, 0.8107966571103469, -1.8743175577501119, -0.9168342937849765, 0.055106583544672016, -0.7257032488096549, 1.934169414840138, -2.0944348733105485, -1.0380178651201335, 2.408210985693276, -1.0411576524595756, 0.9705347717337922, 1.4618117106878827], [-0.5783324916831738, 1.4333211891717559, -0.7143526644725076, -0.6521200660777615, -2.899110747697356, 2.6125193668876285, 1.1282525644780534, 1.3473675012028545, 1.391068944017519, 2.0637086880487416, 1.9010509425965934, -0.8185787980414814, -1.7554358906450445, -0.8702050356869497, 1.5919009307448677, 2.031163103657855, -2.2971380414046294, 1.6644089947964673, -1.7587175651646356, -0.6354295380666102, -0.6779673563391135, 0.45598685561223196, 2.3077462879299935, -1.8190075664443612, 1.9887179371160482, -1.2747358940121434, 1.304143437539727, -2.2919918973959064]], [[2.704975638129472, 1.2293209508527045, -0.26591411556523337, -1.2145239021808254, 1.7604476086870662, 1.8721360918104626, -2.463603366033225, -1.6476396164378873, 1.4913750755551973, 2.0127664134547434, 1.6782274384694134, 1.2845121177686334, 2.7733442516799123, 1.528474961935923, 2.7813917538936037, -0.9335936862942456, 0.3673644328244374, -2.4199404543709067, -0.45183491335360104, 2.5842482167936414, 1.7352432631240218, -0.39078578966193733, -1.028533912136357, 1.9814147884723914, 2.2841001523121562, -1.341100072747353, 1.0754209846358576, -1.390174843678187], [0.6740166437125694, -2.0574415941177686, -2.340959657607045, -1.1140547486259267, -0.47591624931766896, -2.883876561955554, 2.603072496980369, -1.1722657174339242, -2.4582190084683013, 0.23187099384388965, 2.406098844582867, 2.0911104086772196, -2.682235197982397, 0.8491862790671796, 0.9332051434224811, -0.6430342301134622, 1.5161561992003714, -2.1776976247054995, 1.3625610039357872, 2.1042252548793776, 1.1935695093748135, 2.352271554417471, -2.567166894125527, -0.6215529679326082, -2.748431010111924, -0.5485638582169923, 0.03439968103417801, 0.23953393817033763], [-2.561061059773209, 2.894068827918522, -0.5333812504131785, 2.199217852145958, -2.3237305967993613, -1.2321372787667884, -2.105779952594179, -1.4483586894421598, 1.9953801741819461, -2.346443397236998, -0.11202809404165137, -1.8678882640306758, -1.9987454069094348, -2.3487982515991366, 2.538575942734009, 1.9315775713320553, 1.1481978846113252, -1.2755801232400001, 0.6899888442309448, 1.8097515042138168, -1.148130878274227, -0.4763807976136656, 2.3634373575477383, 0.8290234812803376, -2.2043235395604235, -0.9838076714473876, -2.2317424362629987, 2.863730852533946], [-0.4159815369986424, -1.5732067865592705, 1.6413583661353819, -0.9203603738528883, -2.56758588977445, -2.920929570533899, 2.606970765723524, 1.987324399492194, 1.6119510236723533, -0.90409033501507, 2.7769324936947797, -0.3498537118832532, 1.9005483476918394, 0.4861386124963998, 0.36180706623785364, -0.8528918313336926, -2.164505990462321, -2.7999301114386688, -1.8552115113073928, -2.7722084529221362, 1.6854426229998793, -2.2263249635321065, -1.0853994869050725, -0.7057227452560482, 0.6102661176447581, 1.2529774317038633, -0.37109149450748147, 1.4721080261663548], [-0.2904891939937375, 2.0645129433337157, -1.442004950262764, -0.23074375611835718, 1.26654400996346, -0.7776402438024013, -0.5133400841607543, -2.03739853339924, -2.5569272733642503, 2.625758478717482, 1.6767261757497032, 1.9827655101293953, 2.476661013560543, -2.291333508899394, -2.3776242593925128, -2.569944295037695, 2.4567480687604792, -1.938312023413003, -0.8795408089470054, -0.6793477206257634, 1.1562661791786573, -2.309350388007096, 1.6300074320418867, -2.624506735104039, -2.400703309698314, -1.229119330879136, -2.5214532282447593, -2.1617109412706226], [0.2718624063477155, -1.0905279987843568, -0.7570419134800916, 1.7097514244733674, 2.4223885719539933, -1.3548558139153775, -0.26480945605287864, -0.8300373024057031, -1.910970942573892, 0.50760961036762, 2.388786545694635, -1.737006463514778, 2.3957895671248615, 1.6871079692693858, -0.44780706047900765, -1.4733344352325803, -0.9155755926010407, 1.212134957596172, -2.102131805158032, -2.312187337091362, 0.239370890416299, 2.9004431655438, -1.905549081765663, -0.8305493514672682, 0.440619172534614, 2.6915312916986727, 2.5588440523775633, -2.5290435849491697]], [[0.1883107939491735, 1.0163233075342593, 1.4711196183093112, -1.2629781997014717, 2.1609533026942644, 0.34658508335485916, 2.185777137516256, 2.010106028001805, 2.531808891743869, 1.980581813264279, 1.8995625957464561, -2.518405878400171, -2.81472307272157, -1.128187243726133, -1.355863359446049, -0.40086590247788667, -0.09142398043814381, 2.6839570733220324, 0.22562963735909047, -1.6715880604354474, -1.628249342832238, 0.7869737553752465, 0.809642401943008, -2.0042740903624963, 2.4600361019986625, 0.9966788102712751, 0.3004305917274843, 0.54048140062197], [0.7197564105405698, 2.629350289438184, 2.5650352081258703, -1.3156445528522778, -2.5146181426318597, -1.6444875847607041, -1.7360343637246445, -2.9846028650295997, -0.41396937690582547, 1.1598955603864152, -0.2503394305884141, -1.1297066078250693, 1.9983379834010755, 1.8993556525528321, -2.200474169745414, -2.865628698248615, -0.14176369011753476, 1.8284701163401493, 2.2013026110654765, -2.6977114499379926, -0.472275667448641, 0.7248962412616038, 0.9473167422010036, 0.7307791314029477, -0.06821668543145165, -2.541788609776761, 1.3607674608259277, -1.2257049278181658], [1.4472278176827427, -0.6976623765509542, 1.285673757632761, -1.9385994935245847, -0.1544212546005408, 2.6254091180305448, 0.41497022080158796, 1.3260603212115107, 2.8842074458947176, -2.368981522333465, 2.2783272837262007, -1.8695449233573207, 2.1153474226900135, 0.36461463309056175, -2.200441772507985, -2.7140607392926603, -0.9745911045281916, 1.067789635773309, 2.3248740359060145, 0.05423091208793274, -0.5753350680300291, -0.10024950486583828, -0.6386688907924323, 1.8578229000013957, -2.8244919891920723, 1.0113389218685374, -0.36659330556588543, 1.9057175346316146], [2.5036972513903635, 0.30691892040993807, -0.9622799044870995, 2.6426912316870945, 2.8028765185596844, -2.095659266125391, 2.388595995876991, -1.5357300064369712, -2.420416737266229, -0.7838342102372469, 2.035890787817925, 1.9699330163559763, -1.4601855492997207, 0.5794491077498405, 0.8238995429550462, 0.40689142880061624, -2.664727541929074, 2.8191973882086696, 2.0557411294300785, 1.9895368331798284, -0.7090185796552415, 1.003507440774288, -2.7680086320510586, -2.504582501071626, 1.832565104979862, 0.3650952483630472, 1.407503521661594, -2.2404087532144303], [0.8273412201404007, 1.9128580108771311, 2.4531895916827366, -2.144001604126554, -1.8670910113880574, -1.307480964856268, -0.32935535720004827, 1.0343191482667384, -1.7752624927598433, 1.9343943380586284, 1.8873471069150032, 1.6719466155106737, 2.929897302210625, -1.9411981862958991, 2.576986260848102, 1.9449798825179112, 1.5261520497036463, -2.8322684514379337, 2.7366905754702966, -1.4763772037956484, -2.587572438160625, -1.0764553694717356, -2.3059252874112266, -2.7278699739319947, -1.4950266780901262, -1.849294531919232, 0.6939168105071198, -2.05574032696589], [2.565349834350368, 0.9007723638576901, 0.2900277024963889, 0.14506836620096175, 0.5828165563851515, 0.10840216048114026, -0.9938164915735728, 1.2047416312403003, -0.3703733101310771, 1.2054525058344154, 1.8585683491927698, 0.662327408334777, 0.18440684818541042, 1.59798368577429, 1.9317751437978226, 0.5832814968965829, 0.10181670319007585, -0.850083805504974, -1.8445042316991345, -2.3676340878203446, -0.0289583091315726, -0.7844239774915658, 1.4278342549143321, 0.5107364924849627, 0.7815823722716195, -2.4574510337453486, 0.00324628496815782, -1.020608565920601]], [[-1.5279525060301247, 1.264019659766869, -1.8458661230160984, 1.1976468106974556, 2.5169521554313796, 0.6634845663756419, -1.9481571983430273, -2.211248831221388, -1.5900207895505978, -0.4709832485346612, 1.9343521953615461, 0.8809164289239622, 2.87765299600996, -1.7809558923934405, 1.4351338846344106, 1.7984268107061228, -1.3501648734188074, -1.5809619890288344, 2.504994854789908, 2.495711666117934, 1.540425506293765, -1.593416596859906, -0.8304055807612443, 0.42740004561719225, -0.9730132416694941, -2.58509040133565, 2.0091666875279577, -2.0672537110522367], [1.5184798663022523, 1.5433572048730744, -2.8100243396098135, -0.29657876080482115, -2.8722564860701665, 0.5412103145158924, 2.452485086220264, 1.080486007919836, -0.4206653488707133, 2.830860240126804, -0.3727474302279772, -1.9200505224585132, 0.18873320205014732, 2.295599861807127, 0.854815714707954, -1.5700162917705096, 1.1597981198578138, 2.968768442356965, 0.8310434619905687, 1.8992776670049132, -2.2724664739387923, -1.3303864199424096, 1.1896003225057, 0.20337219820923114, 1.0988626492274722, 2.635579672475423, -2.5628306581499936, -2.5068158467044284], [2.4172859451863538, 2.8528908713409313, -0.3098048727078915, 2.4042522083140847, -0.1156240493558709, 0.8046886780333398, -0.8071123476196016, 0.00013110097821478206, 2.8006440298887147, 0.645003537468972, -1.7489348972501062, 1.1787468357254687, 2.1741584312016142, 0.1643605532292849, 0.011858048893615969, -2.1110261367636003, -0.5948911241852377, 0.9178716845388033, 1.7671453491088327, -1.407367061653853, 2.9243902572310896, 0.17689034261532788, -0.4230651763741218, -0.762792818735428, -0.03157889551571813, 0.015543579200367752, 2.077630802582961, -2.5707764607772443], [-1.3585245858225814, 1.4039025408343448, -0.7817816261650465, 1.3880441052332353, 1.3463875916313945, -1.774661372420251, -0.10704239996559206, 0.260197666257751, -2.5849721071693033, 2.5031610101944253, -1.5106984271622281, -2.055270905856723, -0.9868043058691858, -1.924564506392512, 2.960404301817878, 1.2784187270865495, -2.195318878136722, 2.0133665703793007, -2.2339122948169967, 1.4294823270883708, -0.08504337240217241, 0.1671371566507065, 1.3913951206888262, 0.5179141372258167, 0.05387221749730031, 0.18911003064560816, -2.938019193261889, -1.8678401775645894], [-2.517177076083649, -0.571824990380001, -1.7872028038982013, -2.0892887062063688, -1.2433878930514972, 0.5326844221106222, 2.3456118203308103, 2.0749403333529663, 2.701489379736069, -2.1541748966742666, 0.6335916754025952, 1.3979022568602488, -2.2426445904278576, 1.6906060779506946, 0.4850274896378899, -2.3517600239513845, 2.019336941527012, -2.3277438068955947, 2.6596624638863986, -1.2992070656704795, -2.874197101516401, 2.1159457145801532, 2.858843864051418, 0.7058883661694639, 1.4141386209607045, 1.0462611926366634, -2.27638619289378, -2.764054263176012], [1.5831313693836435, 2.0648236824838353, -2.905335998218061, 0.45923075285095205, -1.5662859122514983, -2.8367274840830365, -1.6437234611470832, 1.5740450097608925, -0.9346824201686141, -2.288204951796918, 2.325904343070567, -2.4920185667341634, 1.4026634108357996, 2.7682804109655335, 1.1190161808184778, 2.030038834312541, -1.757701959123611, 2.6689965697239826, 2.7497987478343484, -2.2538029545301, 0.8546875494039847, 1.6934637898216618, 2.7121834187907394, 1.6192721945296809, 0.18123303131088608, 2.3405210459970585, -0.32369417313591065, -1.4055258819739485]], [[0.765433094786891, -1.2361223561164698, -1.430215836292904, -2.525136287952817, -2.1066437111502934, 0.4052852105123623, -2.2168058742682155, -2.70146360989329, 1.5288328417143857, -1.0015252699764416, 0.8091374719065572, -2.658022562715739, -2.615678209542302, 1.7821516167024054, -0.005842660098177355, 1.804186411543399, 1.1602137883460175, 1.3238391306917432, 0.8941086712432735, 0.47314402083609863, 2.7265385679223346, 2.6211201340149373, 2.5467839422284726, -2.847510326030803, -0.5180244010322701, 0.02964984487618194, 0.12068433725975725, -2.120470946741057], [-2.4992426235835596, 2.8466765509934095, 1.352907996590651, 0.8519003581198241, 0.9934233974075766, -0.5188205234267071, 0.7950485312286872, 1.4334910541181225, -0.1001043940962063, -0.5366306977383344, -2.5865966714271402, -2.0777132015748463, 1.9957993499054902, 2.0552241664498805, -2.0323541208381957, 0.23584988269983542, -2.894058273914913, -0.06888362416710736, -0.13677220658204448, 2.848022024187851, 2.603124168786688, 0.27186205958569687, -2.206468095604503, -0.4600989985766657, -0.1925656779669236, 2.160450543184268, -0.7054862158531843, 0.5083558030326376], [1.497002032579224, -0.4448484131983079, -2.2514157003864628, -1.0910555973964378, -1.7383214747035538, -0.8116169845749779, -2.0609471112983764, -1.1840967456618698, 1.2575715850454268, 1.3918668026356702, -0.7339633448267975, 1.600436618537164, 1.040428661432668, -0.4239816997675465, -1.913600746456234, 0.004396556456960354, -1.4172280045477532, -2.402349590069722, -0.7608835187771046, -1.2110361406131873, 1.751172744923461, -2.7518360403421616, -2.9704537483202604, -2.625712875745413, -0.9872692427059868, -0.6557547575779745, -2.7391796791860337, 0.5935488850951174], [-2.3657930932605566, 0.21878252069800475, 0.26364497137352805, -0.6213701538102248, -2.8721151166617225, 0.04912357407411427, 1.4434689792564814, 1.3709084411169705, -0.48729988670305335, 1.0136384158748646, 1.5755117007426893, 1.9122569853942037, -2.1729511555268193, 0.7397709071431682, -1.2700772657628199, 2.548619480491496, 1.2211335126776408, 2.279129782621248, -1.1676567118308694, 0.40172737176122997, -2.118403887798955, 2.4966526738403756, 2.9050858821781578, 2.6801091569036615, 1.8089598281673025, -0.10992005007927741, -2.197060718024052, -2.7347911275613166], [-2.230521274305282, 2.9329913974174886, 2.017293711554097, -0.5703928978202244, -0.07366921876912302, -0.232233078321344, 2.212197963827137, -1.714671434214887, 1.314037427364119, 0.3983212311664994, -2.7025631846473432, 1.6283480716507048, -2.218186567041281, 0.18495280986368812, -2.7995028120910046, -1.3315643789285134, 2.082366651035179, -1.2373992754847738, 1.7201465247450134, -0.652572786560131, 2.4422864077360025, 1.0950803373568352, -2.7764138845727517, 1.2036235108039666, 2.3034402900930413, -0.710177616927159, -0.1746933310639065, 2.845700228272051], [0.09522909535695234, -0.9217881588938082, -0.2110268576979779, 1.4186002461741962, 2.9831930745604316, -2.054939207799605, 2.7339259550432615, -2.9469679653164307, -0.5928366946451398, -1.1172816068865126, -0.2516939727918177, -1.3327077881744045, 1.303542865618934, -1.3708747846292402, -1.8970607836236706, 2.719564689998495, -1.5786246905746935, 0.41443728993684203, 0.01515781283158013, -0.08119492991841692, 0.8044751827878946, 0.5987136345223685, 1.619279407473936, 2.96049003252162, 1.9121868426467916, -2.2818714877758453, 1.9423574659020622, -1.999791726900524]], [[-1.1974435757335475, -1.4931010143075067, -2.1390812647203745, 0.12166326234875502, 1.898602302630506, -0.2238227534306345, 1.5260287983425496, -0.4933324500574461, -1.2952865281012693, -2.8935287662847777, -1.7120056902510457, -2.0138930698630904, 1.5542671793516751, 1.2516935180857285, -2.9363518238080046, -0.6399398468130624, -1.3392412022845859, -0.31320513382858506, 1.1726627051499143, 2.494540761040297, -1.4862097739808515, 1.672974076547698, 0.1924617734937799, 1.9897763764216476, 1.8700843874426258, 2.1996979280942863, -2.30373987980812, 0.0891661896568765], [-0.4576360820217964, -1.0845061869095958, 1.3301725312119697, -0.20252691131663214, -1.0977816935090492, 2.7147045744072917, -1.2693004502109393, -2.923416387579924, 0.5363810218870961, -0.09146816299872818, -0.7105263916199887, 0.2397467790039487, 1.3758903514600611, -1.0211902816438276, -2.2504823922256048, -1.234149873175462, -2.3924450975675082, -1.0236121735497394, 2.837455777018522, 2.8554168192282026, -0.08284865931855556, 1.9217192065353537, 2.620676989282864, 0.42846685506500304, 0.06332094696735258, -0.9748379812301851, 2.8959826940982634, -2.029233424718819], [-0.8877002172904005, 0.4176981434510285, 1.085280445448901, -2.9466004294204735, 2.2144240547393235, -1.5509255475443278, 1.5994926384213901, -1.9698477809686985, 1.5887493066337512, -1.8597240088782552, -2.9654474631147876, 0.543035622623874, -0.7287614704363068, -2.803646091449739, 1.8585622654448741, -2.361992379701836, -1.6709625789029154, -2.1955371763388696, 1.49341215437612, 1.1051439814829704, 2.355511108417791, 0.41079833640452357, -2.2538416755474167, -1.9403922256655632, 0.5093639342124914, -2.3687878116131884, 2.336703984123835, -1.9669048583485393], [1.077223008973653, 2.2506999185451573, 1.8486299996835758, 2.3518323782084476, -1.9372447767185021, 0.8149392425342068, -2.0741279721461714, -1.3057293159657544, -1.143477399386484, 1.1926910011473781, 0.890176976274395, 1.0881060215943021, 1.7711756545116701, -1.8288536565701674, 1.032402404483265, -2.7618210533792027, -2.9270192436292417, -1.3352063043131084, -2.785090575586817, -2.546998700695629, 0.09061696042075162, -2.494891835142649, -1.9508268204433712, -1.1158702496777426, 1.590047531359371, 1.9224273087055446, 0.8968016571360558, 2.5476114864579884], [0.3420518107424373, 0.5271185640930751, -0.5743196741435126, -2.4694925589551673, 2.2655436176735435, -1.6459077825706006, -1.5320324883828278, -1.797133038097994, 0.5632231792986557, -0.7383948535537677, 0.2136236092864099, -1.4990675683351604, -0.4350662570473496, 2.0699058081657693, 2.751707577851306, -0.2370572902138539, 2.342749838926256, -0.06001366992018253, -1.2761317933143652, 0.48431528077730945, 1.0074090992845512, -0.6949071997223086, -0.40651331979046246, 2.8367515519631077, -2.4045421051907505, 1.718611094125012, 2.598787903802627, -1.2643691160929649], [-0.4206079851100042, 1.5937900570803345, 0.40287936481482634, 1.4400416470730857, 0.6803235194854143, 1.4820367063935826, -2.1164337347845072, -1.1386041924812853, -0.3959877949420818, -2.1719769061904826, 0.46717442466596326, -0.5881323363025439, 0.8896512523881195, -1.2019164060631649, -2.3102121752300473, 2.573582216069636, 1.2173542471856678, 2.9724297715362837, 2.211418784528699, 2.3864373256102454, -0.846541554411631, 1.559006719130685, -2.807195238875524, -2.5447433269108606, 2.204305882804169, -0.6381464379768165, 0.5610407838676004, 1.428309922942482]]], "t": [[99999999.0, 11.29165159170687, 6.527471016636516, 7.195736002764875, 13.440202982743786, 12.003072091534648, 7.724977131965506, 7.627356270139785, 6.285192425875831, 10.162044990666883, 10.347539287254984, 10.805719535767935, 6.477170963890185, 9.535014959953582, 6.807186155314827, 11.28979193967098, 14.118061907019568, 9.093819856388235, 6.8097490303990424, 5.977374053822986, 10.441851211939195, 13.975865043582093, 12.01111442585834, 7.100850423431162, 7.27510340283195, 13.516781668690555, 7.910755726502251, 8.630268656685098, 6.124615054681551, 5.456442828246742], [11.29165159170687, 99999999.0, 9.706934946410454, 12.138583145382693, 12.684225781807111, 9.70344221949686, 7.119382663920783, 5.782644183076194, 13.22312988344573, 9.058599453308847, 12.220650648944996, 6.638884359639069, 8.816315129309068, 14.698814984120968, 6.091436726575383, 8.872115996004037, 5.693406695925514, 13.52733130778389, 11.742426480392227, 9.90571918043974, 13.527732377089565, 9.08400383080972, 5.662053335293655, 12.51789742744867, 14.183164457198584, 8.38899613627694, 8.986131834611832, 9.48493837672223, 14.1224056332128, 12.81411659266454], [6.527471016636516, 9.706934946410454, 99999999.0, 8.26825264560743, 12.618204621657691, 9.385042867851672, 8.705281381383507, 6.417329351565877, 6.860924731237016, 12.360784105842146, 6.434838443972294, 6.878965910886286, 8.979950378352477, 14.406329658681832, 12.313819186568612, 9.025399565801234, 14.898511831613627, 5.978365897512534, 12.12889647406696, 14.929086071354817, 10.894022629188429, 10.930505511323002, 13.029595399740847, 5.798753272012056, 9.53035446343434, 11.092831535940972, 6.021394199120299, 14.833064821863182, 12.562986176363225, 14.929906593384578], [7.195736002764875, 12.138583145382693, 8.26825264560743, 99999999.0, 10.172801139566099, 8.882236865581355, 9.289159903544247, 6.178759322070174, 12.10754353408965, 9.227649660942022, 5.69521153947983, 12.636682473863644, 12.41952016642636, 8.47891661689971, 5.000122303711665, 12.610049163596079, 8.032412587719556, 12.727081746147721, 8.356735190618274, 6.083400885594493, 11.031538431653836, 10.609955403123186, 8.730265198042481, 14.228778304988435, 5.567963849154549, 7.206799133966506, 13.311060972786775, 12.078230240640693, 7.770875961724472, 5.163272364823641], [13.440202982743786, 12.684225781807111, 12.618204621657691, 10.172801139566099, 99999999.0, 6.594511439462835, 6.864320894545925, 12.234370020980869, 13.869173473469589, 7.68084830412379, 8.793666194881581, 8.129457745534552, 7.237146173760623, 8.68077780423398, 9.143903233991024, 10.827985488676841, 5.041243595358933, 5.826137806790953, 6.93436144360405, 6.865407613202708, 5.582536131367288, 13.568584237202625, 13.49056590247642, 14.13312199202749, 10.582315979686506, 12.140475171951458, 12.994903214647888, 14.972061643677675, 6.438176482578246, 12.391398797439734], [12.003072091534648, 9.70344221949686, 9.385042867851672, 8.882236865581355, 6.594511439462835, 99999999.0, 5.467170761927274, 12.360611168822171, 9.84706285189155, 13.148288036070156, 8.773868949502905, 13.898508156994167, 11.755400852634978, 7.348686573476984, 7.2583716998889605, 8.011550438454409, 7.067050712850014, 13.930616478261074, 10.738416287900021, 11.432865727554063, 12.844292406568233, 11.439753675803571, 12.8834361425324, 7.404035852147263, 12.167279846448215, 10.443543797301178, 5.018505901416512, 11.102351102452808, 9.130875013530876, 13.78707200379991], [7.724977131965506, 7.119382663920783, 8.705281381383507, 9.289159903544247, 6.864320894545925, 5.467170761927274, 99999999.0, 14.398769575145101, 8.144066234181413, 11.767581723641463, 10.367024612522908, 12.701427946047072, 7.464219149501653, 14.335716438252549, 6.4315833597867424, 13.58788159784855, 5.691873093353779, 12.002795400436526, 13.569803301325084, 5.006235322880065, 10.452766972294668, 5.691301217384419, 5.959279853976756, 12.036292783998398, 7.981048012821869, 13.168733035408513, 7.2083662559717085, 5.836306592536866, 8.427853830328178, 7.949940216493068], [7.627356270139785, 5.782644183076194, 6.417329351565877, 6.178759322070174, 12.234370020980869, 12.360611168822171, 14.398769575145101, 99999999.0, 6.442046593209706, 7.994063608537375, 9.812571120379783, 13.70400450879037, 12.3538472618059, 7.7207714011345026, 13.157821920659638, 5.158328436455326, 12.970077715867264, 7.008363896882615, 9.929035936819439, 11.683127180466169, 6.249439118262891, 12.713912920726418, 14.686349885624507, 10.950829292586869, 14.660535749432407, 13.255968300237564, 8.111285236471842, 14.337795694656853, 13.282786970795716, 14.849807047876896], [6.285192425875831, 13.22312988344573, 6.860924731237016, 12.10754353408965, 13.869173473469589, 9.84706285189155, 8.144066234181413, 6.442046593209706, 99999999.0, 10.482690112396792, 6.7305660607516105, 8.15354701776759, 14.83998038075254, 9.295325566588026, 12.301376176743807, 5.7833265905982865, 11.132200723389179, 8.404265161495118, 8.248794022773076, 5.685160835121091, 9.747105956951664, 14.228056563908947, 6.6611105571503675, 13.232214061249739, 12.505177163060281, 13.937404054390415, 5.229124951310178, 6.3682457368202385, 11.422216008994948, 10.927546812544083], [10.162044990666883, 9.058599453308847, 12.360784105842146, 9.227649660942022, 7.68084830412379, 13.148288036070156, 11.767581723641463, 7.994063608537375, 10.482690112396792, 99999999.0, 11.525871670944998, 8.388320712335329, 9.784345097838596, 13.709007467879204, 10.668435117974758, 13.633435419377388, 10.553088610257792, 12.878713755820836, 14.13365013371838, 10.151670755820668, 10.739081706166166, 8.804873419845563, 8.26485817168031, 14.999616251754238, 12.68192730987338, 12.102893801762008, 11.641663815005273, 7.990196506566462, 10.335022158967409, 6.496327144070316], [10.347539287254984, 12.220650648944996, 6.434838443972294, 5.69521153947983, 8.793666194881581, 8.773868949502905, 10.367024612522908, 9.812571120379783, 6.7305660607516105, 11.525871670944998, 99999999.0, 8.966665967769057, 7.389680876826691, 14.066509990644006, 6.643270517927075, 9.981935015043103, 12.877716725907877, 9.194249015839883, 10.320864821544474, 7.583947044981222, 8.370433621093314, 14.66812987055868, 8.52863311230384, 10.174451430808357, 9.525159068667, 6.409641084747564, 6.809618251837924, 9.870568494380649, 8.930297981589092, 12.542988026323496], [10.805719535767935, 6.638884359639069, 6.878965910886286, 12.636682473863644, 8.129457745534552, 13.898508156994167, 12.701427946047072, 13.70400450879037, 8.15354701776759, 8.388320712335329, 8.966665967769057, 99999999.0, 9.302079333219043, 6.547698581851397, 14.256082973971013, 5.164948441184364, 9.312450181253174, 13.691338416376684, 7.0113819677061535, 5.370777082739658, 11.081025274335444, 8.983004867389935, 11.503399130672683, 11.718118309824911, 7.05480082753728, 5.582555219589857, 14.86336028241357, 8.069915229741863, 9.488899780698375, 6.308315538273095], [6.477170963890185, 8.816315129309068, 8.979950378352477, 12.41952016642636, 7.237146173760623, 11.755400852634978, 7.464219149501653, 12.3538472618059, 14.83998038075254, 9.784345097838596, 7.389680876826691, 9.302079333219043, 99999999.0, 14.375921272970828, 7.001202064497437, 10.189801889037318, 14.808250487620555, 14.99899307874169, 13.756292571963101, 10.320463224779362, 7.426559028132585, 7.203732662108088, 8.807805795188653, 9.49861026438752, 6.373442481606584, 10.7923227739533, 5.023101684652648, 8.51167458165969, 7.158357729930844, 7.8745248588204095], [9.535014959953582, 14.698814984120968, 14.406329658681832, 8.47891661689971, 8.68077780423398, 7.348686573476984, 14.335716438252549, 7.7207714011345026, 9.295325566588026, 13.709007467879204, 14.066509990644006, 6.547698581851397, 14.375921272970828, 99999999.0, 14.326600519941099, 9.349632598586764, 10.387400132183613, 7.220110710055261, 11.830681539170007, 6.853218380395878, 5.907031067041543, 12.89972502516182, 12.855262475875982, 9.138859076646446, 13.200470280243719, 6.456463682975311, 11.404851679204182, 7.471001055618833, 12.153839826208552, 8.212380125443902], [6.807186155314827, 6.091436726575383, 12.313819186568612, 5.000122303711665, 9.143903233991024, 7.2583716998889605, 6.4315833597867424, 13.157821920659638, 12.301376176743807, 10.668435117974758, 6.643270517927075, 14.256082973971013, 7.001202064497437, 14.326600519941099, 99999999.0, 14.351731880338884, 11.626531949574792, 13.681328258808342, 12.738378779831006, 6.977424562846616, 12.557917247304998, 14.875553208466387, 9.550133636830557, 5.898720851440054, 11.996851643160344, 6.607299795049525, 12.635511307225208, 11.646807954464762, 7.043660526663799, 14.684342459521043], [11.28979193967098, 8.872115996004037, 9.025399565801234, 12.610049163596079, 10.827985488676841, 8.011550438454409, 13.58788159784855, 5.158328436455326, 5.7833265905982865, 13.633435419377388, 9.981935015043103, 5.164948441184364, 10.189801889037318, 9.349632598586764, 14.351731880338884, 99999999.0, 8.534271885996665, 13.60767553814121, 9.37309666143376, 11.613248503873766, 6.916827007002436, 9.72141687703399, 13.58357666237515, 14.997055930273934, 12.308527692505397, 14.066495739008536, 7.307889685096747, 7.853717627175554, 5.586849546633817, 11.143088483597513], [14.118061907019568, 5.693406695925514, 14.898511831613627, 8.032412587719556, 5.041243595358933, 7.067050712850014, 5.691873093353779, 12.970077715867264, 11.132200723389179, 10.553088610257792, 12.877716725907877, 9.312450181253174, 14.808250487620555, 10.387400132183613, 11.626531949574792, 8.534271885996665, 99999999.0, 9.163766228390191, 9.264907391091525, 7.089394907588096, 9.711722680773475, 10.85683962390421, 5.970345487457678, 6.388578007387301, 12.342859045125207, 11.18447739942893, 11.420915025851574, 9.00474140625138, 11.581509550812829, 5.244037904906664], [9.093819856388235, 13.52733130778389, 5.978365897512534, 12.727081746147721, 5.826137806790953, 13.930616478261074, 12.002795400436526, 7.008363896882615, 8.404265161495118, 12.878713755820836, 9.194249015839883, 13.691338416376684, 14.99899307874169, 7.220110710055261, 13.681328258808342, 13.60767553814121, 9.163766228390191, 99999999.0, 10.095087643788661, 5.613245210226326, 8.633706318508704, 13.601069911636403, 14.897421052906822, 7.994098309191812, 13.36988300719058, 8.934274207192235, 14.204792742348658, 10.201061263480625, 10.08428049905869, 14.929068732138791], [6.8097490303990424, 11.742426480392227, 12.12889647406696, 8.356735190618274, 6.93436144360405, 10.738416287900021, 13.569803301325084, 9.929035936819439, 8.248794022773076, 14.13365013371838, 10.320864821544474, 7.0113819677061535, 13.756292571963101, 11.830681539170007, 12.738378779831006, 9.37309666143376, 9.264907391091525, 10.095087643788661, 99999999.0, 9.540458811421662, 14.294682798824649, 13.19662704458674, 11.11053271399648, 8.12794858348898, 13.078542255643379, 7.783560109366753, 5.099041601173058, 10.539625007943304, 