{"num_workers": 25, "num_roles": 6, "num_nodes": 30, "w": [[0, 0], [27.552159056067286, 59.49484406452929], [16.481518074944837, 53.684987038769606], [15.980551736985914, 41.8270488101412], [46.58218560070388, 74.77113263128955], [50.77807149201525, 89.68159750347132], [30.053572399138872, 65.62154709154314], [35.572788564773774, 62.994561442616714], [23.174689516151563, 56.43184825533231], [23.61260096897659, 61.36757290884002], [54.082716030075886, 88.13434493022709], [31.357989726594425, 67.11198850453621], [56.37873453805341, 83.72678518503166], [7.0296918539855024, 39.28602168337442], [0.11589400549521353, 38.37331040785168], [3.7627267576646473, 41.20974846289911], [13.389323179771635, 51.86670789502698], [39.07340208420404, 65.78024551480144], [45.66744769736761, 74.27237016785685], [27.971950622930148, 61.5008880018388], [42.725883323778625, 75.00396134441004], [52.38020828213738, 88.2508262532086], [11.226497766172356, 45.434059054327356], [24.531856632537107, 63.92390109360828], [36.312371736748695, 68.70087134233157], [19.92261998736656, 58.97446980656394], [22.231748839160755, 59.26402239861291], [41.85167185065577, 79.22002282247263], [10.657499144403682, 41.01286932684367], [0, 90]], "p": [0, 8.162735397807825, 11.915685837399492, 7.9994432294248865, 14.204805101332248, 25.15269514609709, 18.76703107655232, 10.978330390321691, 19.023168968270237, 19.408038026378538, 20.035641918734374, 20.089573332573405, 9.285527672601756, 16.61007163851131, 12.130608455383728, 11.871022528475773, 23.21162771640236, 12.073282468150106, 14.431553335954355, 13.911076318882204, 10.565433857801867, 9.163064714083706, 14.4794082877732, 14.169880301861403, 19.234896999923084, 24.28821830775178, 19.403214304735545, 14.38749253850777, 19.222608859736308, 0], "e": [[1, 0, 0, 1, 0, 0], [0, 1, 0, 1, 0, 0], [0, 1, 0, 0, 0, 1], [1, 0, 0, 0, 0, 1], [1, 0, 0, 0, 0, 1], [0, 1, 0, 0, 1, 0], [1, 1, 0, 0, 0, 0], [1, 1, 0, 0, 0, 0], [1, 1, 0, 0, 0, 0], [0, 1, 1, 0, 0, 0], [1, 0, 0, 0, 0, 1], [0, 1, 0, 1, 0, 0], [0, 1, 0, 0, 0, 1], [1, 1, 0, 0, 0, 0], [0, 1, 0, 0, 1, 0], [0, 1, 0, 1, 0, 0], [0, 1, 0, 0, 0, 0], [0, 1, 0, 1, 0, 0], [0, 1, 0, 0, 1, 0], [1, 1, 0, 0, 0, 0], [0, 1, 1, 0, 0, 0], [0, 1, 0, 0, 0, 0], [0, 1, 0, 0, 0, 0], [1, 1, 0, 0, 0, 0], [0, 0, 0, 1, 0, 0]], "d": [[1, 0, 1, 0, 1, 0, 0, 1, 0, 2, 2, 1, 0, 0, 2, 1, 0, 1, 3, 2, 0, 3, 1, 2, 2, 0, 1, 2], [1, 1, 0, 1, 0, 1, 0, 0, 1, 0, 1, 0, 1, 0, 0, 0, 1, 1, 1, 1, 1, 0, 1, 1, 1, 1, 1, 1], [0, 0, 2, 2, 0, 1, 2, 0, 1, 1, 1, 1, 1, 1, 2, 1, 0, 0, 1, 0, 0, 0, 2, 1, 1, 0, 1, 0], [1, 3, 0, 0, 1, 0, 1, 0, 0, 1, 1, 0, 0, 1, 1, 0, 2, 1, 1, 1, 2, 1, 0, 0, 2, 1, 0, 0], [2, 0, 0, 0, 0, 0, 0, 1, 1, 0, 1, 1, 3, 0, 0, 1, 1, 1, 1, 0, 2, 1, 0, 0, 2, 0, 0, 3], [1, 1, 0, 0, 2, 1, 3, 1, 0, 1, 2, 0, 0, 4, 0, 1, 1, 3, 1, 4, 3, 2, 0, 2, 0, 1, 0, 1]], "r": [1323.1903707355411, 849.6822452356978, 1344.713163730288, 1773.2715331848947, 4842.654427867841, 3038.3497745031514, 1907.313188497515, 3490.8886619960795, 2680.606965455374, 3067.990069598948, 2818.3945606712646, 736.4436174922765, 1116.0489320042666, 1451.596800622044, 2017.110265828026, 1425.9604713657377, 1652.6020863014792, 1281.4651385925465, 1786.3047468581096, 1995.6673754592152, 771.6917327200348, 2771.7009752761905, 2071.3325802044837, 3576.786691802139, 2749.171790210642, 1593.5955290347563, 2805.3212703823224, 3289.0201977978827], "b": [[[21.403650288715472, 14.971192003553059, -4.281164386821442, -5.8459338589430185, -8.993713743630478, -12.11284870383464, -3.8801042648467687, -12.322021766343958, -24.65727572933303, -39.13267093679322, -34.53616811943456, 18.359489618519554, -49.81244611171265, -14.22004477968076, -26.80386940218117, 27.885554010720853, 15.359851246415067, -38.36634783569962, 2.4394550444742222, 24.689677429453287, -24.714543778455337, -17.80314822545845, 34.38262015793524, -23.75060065302919, -56.616277992895654, -11.201444894452026, -6.813265891298459, 41.99302431627599], [-16.289071587257226, -30.07400704727612, 6.392445889208661, 25.73583305027973, -41.30401149822132, -51.947662963081704, -29.652960659137534, -22.06879874671506, 44.870721089547715, -24.68821707644699, 58.75037913884491, 4.964098129783605, 40.20247488370836, 31.13104216374156, 31.489884341529173, -59.18888433639715, -15.914972887771432, 17.24690706118473, -34.313795723117245, -31.247440981466227, 12.565435199241003, 13.876695341885807, 30.438959205715626, -9.250346620563015, -67.92586696234754, 35.87834214315667, 8.402424072580548, 20.032452113220074], [4.9294487211378115, -21.759794991337742, -5.367651580840393, 36.22345804889647, -35.63831094492306, 12.379486548133563, -31.322517569471074, 35.81609936791597, 9.676706151103192, -57.80327623288219, -27.739346387037774, -13.33246769165314, 5.1824824463588035, 27.565643902066665, 24.212896565952892, 7.971187096209254, 9.581999391586358, -3.9616456233502744, -1.0516124260167077, 20.93776227350647, -18.354014450496724, -38.079663540943585, -40.28813381659403, 36.4054981761766, -10.765749610630477, 7.654840983889672, -6.782787492211538, 44.89107822192414], [21.068558451920918, -5.460955368798752, -20.73851530636599, 20.980759934269667, -52.1186843614064, -45.81761603579045, -20.897306126840505, -2.6851034420133684, 45.61249245657062, 31.908324025665184, -30.642747816566313, -17.19289767254713, 1.2669955329993838, 19.74829757882569, 3.451063237187298, 19.341463680612772, 1.7399666091920165, -20.167437081416953, 8.721975255689005, -25.781541808325567, -2.0693958674726147, 3.2209091424683085, -40.4567435869217, 44.58670885483009, 44.393548748367685, 53.873091531347384, -0.838747810563815, 22.384959732305862], [20.518761052227063, 7.725983521701413, 10.174423049088473, 40.78074880711308, 8.10021958691896, -36.54712935742604, -16.362099746138494, 54.86620583243904, 1.0501953675367377, 8.389046832835978, -2.686268822439017, 18.53169082323386, 18.261121266468862, 10.869140765855489, -27.033711621804372, -65.01763310740691, 13.786470680152641, 2.505026942263923, 27.12788256733531, 22.969032201150373, -14.323461328391891, 33.516422336340376, -3.2207178775820373, 34.48807778194172, 55.766760395815986, -42.875343040201535, 40.56135410330052, -48.92692829470328], [-6.976572036966435, -6.644778007109253, -22.7135707923072, 11.761239897851775, -59.9551655758606, -50.70134481245078, -27.958582426109736, -40.990098969555206, 15.558374705354383, -40.25303778017945, -56.403703784605604, 13.650671518590299, -16.246062631657246, -3.3533384869897276, -2.8845978336147, -62.0920002061691, 8.356578527128429, 39.93398052303977, -21.035022863666015, -10.3109266607895, -14.55757187676711, -19.191270860360806, -30.248420352261395, -31.319803093349847, -26.40971643117311, 32.196015765706, 20.63900449744634, 20.40978201721842]], [[8.194508311235635, 3.3831920282553636, -4.5846994756942, -17.92211965054921, 55.65027189790017, -11.300241081574494, 14.780333346622157, -27.469277947400595, 14.437027406939636, -2.796114226449359, 53.95858320100386, -9.756862414661574, -16.594375167542395, 19.257141824612752, -2.0606873104634698, -48.23581647356691, 19.839307834630386, 27.69453904696479, -38.816248536310226, -17.320713868871643, -8.384628692336632, 39.043264210452165, 12.597341144213638, 42.889478392742994, 55.32107395178869, -5.227982106042483, 23.702846160298545, 18.349038290004547], [4.377694718108745, -19.30472080787545, -15.997141995528514, 3.1945107775640578, -38.13736503645529, -6.611721209660906, -7.092263765801734, -33.572897007436666, -9.483239972633744, 24.138851448570676, -10.188524833231977, -14.672526303260508, 4.283864666707968, 2.3301894242740615, -17.57936519043063, 29.09336205398469, -20.795351927867816, -6.399681088166077, -11.028725230703483, -2.5197985522189037, -8.740860288866411, -15.026153604923346, 6.974912915114093, 35.3211770162673, -24.30114961513899, 52.665352856989024, -29.453869283926814, 43.564105186746055], [10.446086851107648, 19.441039004625207, -4.39748976973209, 22.343073886282603, -74.44604802338925, -21.32495012333739, 30.675949826109058, 43.99441061238449, 57.33195426856594, 46.73090719735554, -59.33518215942703, -13.38064292362336, -27.119245805940217, 13.932107964466766, -6.726980113720745, -5.845955709852593, -6.9680268235527825, -23.292210651846954, 22.65298439569947, 16.716621221391023, 1.627684463301479, -37.21402227492562, 21.89505881070185, -10.912610206157138, 44.772554757953934, -36.671325313476515, 7.201369702900773, 44.43753960244548], [-13.369999436745992, -4.803040029248588, 21.37073131693686, -37.04085012946218, 40.65016602687242, -54.13852400286691, 29.40945722291868, 26.968586722219243, -5.553582118344057, -30.880840272408186, 14.57038646517709, -9.766841988422856, -9.901924208076924, 16.38763888984832, -9.600194948463917, 57.94939593135131, -1.3569274093257286, -23.983047186910923, -14.265518851852015, -6.262993596432298, -10.598573208101556, 25.275902579207255, -25.1613800426196, 2.030037807754317, 36.91087462961498, -0.5450150829995665, 39.47023425399129, 25.891325325883624], [22.497478697814078, 11.728303730357316, -17.298309165535116, -0.14141544797431485, -70.5665420040643, 0.3649228860247936, 7.7201124531578165, 56.76672267097647, 17.60231370347646, -0.236837209084794, -1.376567954356714, 21.347993391382854, -29.961821688860084, -28.43322102277702, 13.173337207292358, -63.90032911373792, 35.71763571847579, 6.066169499574175, -36.727345258616815, 23.9402559737562, 26.405254068092457, -0.0428458201152134, 28.98615399764409, 18.828088707303348, 6.828035912688345, -57.92695255530256, 1.744133286931131, -41.57300697599092], [9.97439560729293, 24.543063313127035, 16.432314911151327, -20.808848714945306, 43.636963040517706, -11.893589212519624, 4.257802389732409, 56.934485732679846, -50.60214794204564, -24.86637572572055, 22.453540103791962, -15.763607048109119, -2.047200199150868, 21.20697004395251, 4.905564375826394, 38.916809091502614, -8.746970623622254, 9.460910193088672, 15.47011639698253, -9.851717297205461, -5.228692532380202, 8.56879791483719, 31.288776615697778, 6.2110952021178365, -9.838101098372267, -34.267098241549604, 30.926159290974336, 7.548966718913462]], [[-18.392542940621308, -20.461511482095396, -4.053781498740199, 30.049920756062118, -52.78940400851918, 41.115071612489274, 12.995659612645726, -37.067069411359775, 56.399713539037734, -37.5277905443878, -16.85819867675892, 1.3516380617983959, -23.962767580825385, 6.197170071058535, 15.679444355277056, 65.46061750543672, -16.324171656345907, -7.226956950284858, 4.570935466815465, 5.218163711659545, 8.343237781202355, 15.09199727440621, 21.007640546224433, 39.52475061763175, 21.168371997230256, -47.28238822594641, 40.365844032870946, -14.697777213900924], [6.868082392230413, 9.055933185661544, 14.414112449096468, -12.169840169414332, -14.47853758485276, 39.70199843819173, 0.9750827770157019, -3.199098685201848, 57.86541585161989, -31.26908086488374, -55.47496120438312, -12.016010861088521, -7.4535539672447415, -24.015679471224054, -13.902768353057395, 47.98455332509234, -13.380971782361518, 31.774337833477496, 8.013364217910128, 6.785382143935812, 9.960847080543735, 43.133621749342794, -39.14530368101073, -19.733802213887323, -37.89021590726965, 30.5293355382262, -42.80081453521796, -46.79975754137525], [6.441686596520063, 6.042003620253316, -18.669391817256603, -3.4079843492210893, -26.665944071651445, -45.7865980119755, 25.40879361724862, -53.033787202812675, -2.0658291265256548, -21.641092526190413, 37.435701786547725, 0.8529561719329348, -2.7908740945151256, 20.179694523699546, 11.193326139866171, 54.11194940166786, -24.378957794444332, 1.2190679162485845, -23.282096004946716, -4.020192104084206, -1.91774117688542, 28.960056794015983, 22.825241777409826, -54.5588121997825, -40.44464615708792, -29.287439849793056, 35.533950890747484, -18.92718911657229], [20.18715021475629, -15.542318328830438, 2.5781089999482427, 3.304661873756279, -35.19762587508759, 11.087234201881827, 1.967815679634812, 22.932327731862493, 13.74992866811108, 20.26068062140106, 5.125675073524132, 9.942281644259877, -38.73268163619608, -31.823231299554696, -19.635893887963025, 66.71544197570434, 3.5302650051668314, -25.40990444092886, 32.60274094825731, 1.3281560028013843, -1.2641120226033289, 21.207559899810356, -2.5936471479886984, 39.20641338252057, 6.642876684615764, -32.41082352896688, -28.668699727435893, -12.202103118661382], [16.10252322143439, 12.899532624401411, 18.620832633704048, 30.75730922741621, 38.18543086651735, 54.915627970829476, 18.8028758543454, 50.8065040762973, -54.93865731869045, 30.359547041849982, 42.764866300245885, -12.064466559867155, 10.972234904492526, -5.06719221588964, -17.661304993556385, -15.07761496355501, -35.97897934732105, 26.40081648056233, -2.475822060087057, 28.7144066379042, -27.154342557283904, 33.847206602937064, -34.17468311424719, 11.60761123444393, -56.04802626469418, 35.6918385235243, -41.93485627860902, -30.260537301202096], [-12.089590885521824, -28.743226914678342, -9.151270878295255, 24.268207517377263, -65.10572609395612, 18.955793503542605, 28.34982890969038, -10.738957565962545, -37.640146495291674, 39.771885853491035, -41.647488404944596, 10.767389830250401, 18.517151774392296, -13.811346508853267, -25.32946266624017, 59.156446412342596, -29.551498660130463, 41.7791004841256, -11.727267246107683, 17.747677829626692, -6.697935500006975, 16.358187474961827, 20.841653319606458, 33.62525211579982, 19.48190676464645, 21.18642593915474, 14.50032028152621, -29.641779112842478]], [[-23.951950741942284, -21.365237602660518, 16.528510372612004, -34.19468415970421, 36.32103531956707, 41.1804585735866, 2.6903633214135585, -21.9818162795123, -17.26598533002652, 44.921300322827484, -11.631753438174126, -14.528272597757812, -1.598089928644946, -16.269589716670122, 2.3446533771800646, 4.2944749278151715, -9.685611584510516, 12.094901038531212, 1.1943482378303936, 30.651841835303678, 16.230647886919897, -15.937907238099308, 26.63087090178846, -28.1530047249959, 15.321721682327768, -54.562446885425544, 9.136913657950352, 31.377646786505448], [23.71547304966239, 27.79203358299897, -8.952280091004484, -33.58773303289037, -64.02507947998913, 49.79464622694383, -17.454977162286472, -2.186393775547023, 15.072577346000974, -23.810829306106452, 22.377116092395237, -15.684423191720313, 46.11747948075721, -4.675620442945301, 3.3742052121283694, -4.007185957998443, 26.691738538191625, -4.753047144290371, -0.5335806598048772, -23.24832248733161, -17.06574587213399, -33.20458915507627, -39.21318014490208, 51.06803556723037, -11.594765533153508, -25.258004831210204, 12.490113148135942, 32.24524916302811], [9.457194704815088, 24.651880352068613, -3.6368655051048395, 40.58779789154654, -70.8984723724549, -9.479947112935857, 8.88018897393995, -39.44009914212035, 35.884673203087864, 38.652953383171365, -17.065629804678466, 24.400911390935494, 48.82042947937222, -35.60665696827093, -32.18632889547234, 53.48217906256745, 0.057753661889620354, 3.494321140976815, 1.8406516759880858, -26.08950992806736, 3.6375561323673917, -4.700251313277505, -9.626091834700484, -50.81590678767616, 51.204972671795055, 40.846672025060826, -35.93154514681894, -20.69018286967572], [-22.93525567583698, 3.056534492461107, -1.6168981678186685, -39.3993220800677, 56.92090999389525, 53.43720631504291, -13.163934823012442, 5.431057116153636, 6.549765094434358, 24.29601400502699, -14.350103653737827, 16.390679096878195, -11.574624431121043, 34.657057158326346, 10.903445594058354, -32.91415012436521, 30.0409272413354, 3.5868241770137628, 28.33234545090395, -6.40017893336819, -17.244173505612423, -31.0756725662136, -10.382524647393799, 25.2769069189714, -71.34053861325569, 23.09325894238157, 16.43795235764451, 55.53455185365366], [-19.253623977641798, 4.641602377268235, 18.337272314618446, -18.36257596983321, -49.54385122438645, -26.792634701966826, 7.279773394711034, -44.7832120670147, -0.9534672480776363, 43.351805948032755, -43.11612155144464, 26.210330752663594, 16.068825976123193, -6.892139452044867, -22.23669225059376, 12.333184093309224, 27.603397169267154, 3.943824484827176, -9.752763413707308, 21.672395781867294, 1.0419374352741824, -35.80173505171285, 18.953503703832624, -36.14912096208535, 29.643236849243355, 36.41085938347225, 14.904340797909073, 55.119429154793444], [-23.19388122914101, 9.896615752373293, -14.982684506585851, 22.58740901861749, -24.84268803273725, -2.5407982190838547, 3.289254987469694, 46.43640936595307, -30.426460331241262, 22.32015481595027, 5.176513418433718, 6.774977355877986, 6.568489001891953, 18.89703940049013, -27.67522344423504, 30.862406066762095, -2.1772439058581816, 22.090534616452018, -37.81370517203268, -3.3878484434738905, -12.519750370051883, -23.855982097979997, 31.05545384391121, 13.672832755223506, -26.11798195074593, 56.3744932997803, -37.839804150743184, 50.920571783626116]], [[-24.306877212936854, 20.865616456206777, 16.121309071142523, 19.16899041783328, 36.83234788562359, -29.60804829917717, -31.415680949636617, -37.632479953721784, -28.03716840455755, -6.183830317537482, -5.940856053147627, 11.31510762054058, -15.350836474891452, -30.5924874293545, 9.809309714501092, 60.010129052914756, 7.790902789353392, -11.506102083548534, 0.7485238310960272, 9.736015081515482, -14.39713538785126, 42.685078638816066, 26.689777387625462, -18.20785971444332, 55.45091387273286, 36.063102988185555, -16.36614559470779, 43.65858902487683], [17.40830825584786, 6.827066145788888, -20.50471126034526, 32.20899023227789, 32.73216705581123, -48.94349490424216, 32.515607895238794, -7.686916733186192, -12.516259141743243, -55.5679388529092, -35.045942616411054, -25.445529064115135, 43.79567543640763, -7.327804080351649, 21.832990776572426, -67.27473371702966, -1.0933071083095285, 36.27060197473171, 11.359004256751794, -25.21631508105734, -17.580320783665282, -13.617158766811654, -41.23615741574561, 7.671363590272653, 40.47821015418782, -31.54219673262573, 5.9065899298355635, 16.627360092755993], [1.8355045756194226, -27.181872766997245, 1.6225360807500724, -35.195983295561014, -11.275834326562407, 28.12509119538646, -10.419105679469293, 47.604784429109614, 35.47201194382825, -10.381591227150961, -56.47599255132081, -25.29094872535365, 45.96099306221283, -1.7906279819500834, -34.43243524690003, -32.43833652575022, 32.445554864071866, -30.72143980102628, 3.0547274652640857, -25.1782479344975, 8.052924389520816, -31.543635533322576, 0.4456490908224809, -51.36553489831015, 66.13503765507662, -14.878950512876456, 39.289727069821396, 12.260932311955383], [-21.114573142343108, 24.39314795238426, -10.083821072932889, -26.90917473996033, -71.20817226342615, -51.45779740521991, 28.48358324403767, 20.558243483419034, -6.7011386114146925, -24.45135723176929, 7.581883970292269, 19.87412524960728, 47.056486162064715, -28.20981211746591, 10.636847482552277, 23.44147341780195, 8.16650209506074, 30.370807734474425, -6.691086849362693, -18.163635486246484, -19.208861221265227, 8.791653067090728, -27.4787921068617, 0.027158428495200112, 53.5549991057203, -22.809298986485622, -18.553007926592276, 56.70118561040096], [12.58746791959709, 24.355357394230634, -0.03261386751171516, 5.759564108130357, 38.28674300409584, 4.695823183425345, -22.429209669873472, -5.959239369985875, 22.590482113427395, -15.252961090750789, 46.28560257987997, -7.41391389294913, 18.24699943551465, -26.041782356580836, -22.941719156231937, -1.8089059768723048, 9.293330524201549, 4.961292724082925, 28.17289548757344, -1.9660446352129846, 18.55370185192524, -13.216311443498, 7.833390452582612, -8.314936857100012, -46.25662562133337, 36.30135533525533, 0.1858755340567832, 43.317584945175945], [-24.11209735696204, -9.502587584401555, -4.04953739634665, -14.774457970493337, -32.48680212188582, -33.46092288667043, 31.408826046429688, -7.600131388292163, 16.361568035439745, 13.10185204473697, 33.230207698979164, -4.528877628811678, -29.427737782807874, -4.826201703235967, 6.53728275232198, -60.981700320891285, -9.196774374971575, -38.14815159866359, 31.85010597891388, -23.658255675040614, -27.160064154222297, -25.866641335677148, 42.027471269433185, 17.05786026468432, -49.66723941925504, -39.82620409294827, 8.269349462275803, -41.66194606614498]], [[-15.913134802975295, -17.844234048203557, -7.507535880952255, 17.8543607912692, 2.9107305525575993, -43.428788687893714, -0.21544322347363898, -0.5528576461060307, -52.180187381276035, 5.261560372057086, -42.386317085666136, 14.273225958657548, -49.429528974287415, 16.49531657061395, 11.404152811027934, 12.658665251619176, 3.305419170396759, -1.8494693677874825, 22.391177005716134, -18.455539930157983, -21.58607904752124, 36.96934774814597, 2.281153773996262, -46.671996022963114, 45.67903449970171, -40.7947947849105, -16.825761258448907, 37.422355833087686], [2.827337446736021, 27.795642570066782, -1.7424897819736853, 4.118588682076861, 2.860073531027689, 1.295603911426234, 18.077786585838396, -36.01867849801309, -20.94432015896333, -56.237449101506684, 45.23511059624354, -19.831167655199447, 21.82500723405227, 16.176498770071284, -9.159295755917247, -41.1973859970521, 11.001688531832274, 10.294763404789233, 28.715639176234042, 25.173867083654514, 18.431003888739063, -2.819957220136355, -40.09494647874892, 49.78838748604057, 8.55250047672806, -26.890476433445837, -41.282138174476174, -2.7895947694586676], [21.32845945394088, 27.03700713797788, 13.937321126340384, -10.621500252224997, 32.845939498959304, -36.25136417779841, 8.208864653151437, 40.90992487892542, 51.75982146613334, 37.95017146179582, 24.10844278567346, 14.98550055010902, -28.817471460115353, 26.53162241855371, -8.343015830723234, -54.035251252587564, 9.575905179086224, -33.803890405813895, -4.015794731319432, -5.819404775161321, 8.902125719141587, 11.22154863763673, 4.068653250606428, 26.330079043978973, 40.97697913661858, -19.86625369563019, -3.6524058228610343, -5.031830262800327], [-0.9875663668062432, -15.549571310638994, -12.748770444681876, -33.05477482437652, -1.6223784415242186, 11.473525679128649, -31.260037097917618, 46.08682058962508, 1.39333910153974, -59.042797606601006, 28.146952573706944, 9.262363782678133, -23.113393369943545, -2.363245532491639, 3.0972658596950446, 58.509710508781815, 29.270988232748767, -30.49655856429188, -2.719622875574016, 15.410392150143569, -22.837119444122848, 4.810245657668486, 15.750648762963246, 1.321144442752624, 26.979686419795712, 9.552626142024128, -17.30157859178632, -44.84612749832802], [16.2054116509205, -1.7108883654547042, 17.92455338896137, -26.015168794191826, -28.921271581048785, -8.82875348551419, 17.253445983511206, -35.68350252893859, 27.65742378892721, 48.70142646518832, -42.51922470439637, 5.113558472421985, 17.379094681748647, -31.08996931272076, -12.5880641746958, 49.380498783254566, -3.4395553162435437, 35.12694908781031, -35.133577966330265, -13.813859490416636, 21.456301156444816, -7.963904665738369, -16.877666448197733, 40.01404258281604, 0.2011093098115814, -31.48236154214418, 21.370715713472592, -26.315146755157677], [-10.051990662413328, -2.1487950950049997, -13.014883509941155, -1.9514188666956171, 61.4848939439663, -33.223459137169414, 0.4500622575916085, -45.312538263848616, -45.03530413621409, -9.696108540552286, -2.3199372966105227, 25.018253892247845, -2.604892800650937, 17.243945566038025, 15.572480868279015, 59.88677234044526, -7.036242265995937, -14.560291819538588, 12.403565555269694, -25.380867421720325, -18.257903460378675, 3.553507741056261, 2.051479759983814, -4.706852485016098, -6.073789530624995, 18.595742335494606, 24.6981524459214, -23.918182572291993]], [[1.677250033079022, 31.497242134169085, -9.617126903243607, 33.86367505324303, 27.730489442668574, -29.705919501737256, 27.90309144064239, -25.72684468997736, 26.16312946505313, -51.40809604779283, -49.74807465915889, 6.165221113360781, -5.4709722280950075, -21.225454191994274, 28.472730874303057, 37.37079019553978, 11.806236560454805, 42.1627488965501, 11.288797393040763, -29.480479640731456, -21.713206161648518, -34.27013887260925, -23.838491208848733, 2.1154300430349187, -6.776936680071384, 54.66885635093376, -6.495858725143269, 43.68199794214652], [20.698878584977695, -8.796286283471792, 3.9869449047763252, -32.309733244162075, -30.999529752239436, 43.89370884995738, 3.4225140134796392, -28.507741979975822, -51.01632976749953, 30.652390041630287, -20.88681086130032, 0.3145149568090079, -17.871788919270713, -11.492717627644904, -3.559214263328824, 58.1774362877733, -0.8237864550125777, -5.0491320427676465, -3.0083575479839864, -25.047739686960696, -21.593097945986518, 19.951731000802656, 40.831793411808874, -10.26418404911828, 30.6485674898372, -47.13173427266567, 12.80254098176344, 18.616820603032238], [-12.514920714341924, -35.18147763030891, 20.50297129799276, 29.447441053155607, -1.7773021141523937, -0.23243036620158633, 28.96646728537634, -35.67308829850936, -2.1821517505632113, 56.849715372789994, 41.44770852612695, -1.2423208274951794, 32.552508677930554, 10.756553516891518, -18.48305274533179, 34.11997322291973, -2.302194708639843, 33.58725798984578, -15.629596725991577, 24.103674872794276, 21.030934139990144, 16.60580995502447, -31.73779634144361, -39.361379358363756, -50.30419280761674, -21.91296153645454, 28.093590879854666, 7.805166729969809], [13.746477168942057, 11.270048202248807, -11.791804751749822, 6.23289516484563, -7.05608734481886, -15.149760776087081, -23.809445377342268, -5.363805386688754, 51.56148642175512, 32.46117075582197, -9.675379106003394, 14.54097139213985, -34.007695119586806, -17.093221720778686, -23.471567786688585, 5.5494904909081555, 16.208089877059056, 6.589159834394268, -21.673791462093266, 10.842242243754859, 16.171373740212292, -37.167925168186365, -3.7904735399038123, 36.168677012804466, 47.702824493028324, 25.30758901337999, -39.1628733039233, 3.746800744367567], [-4.429217376078757, -34.689780765713614, 10.230195695282973, -38.820819347761685, 70.99238668722234, 28.114713819616735, 8.305595159828925, -19.733668762209696, -1.9671401294910276, -27.00192672337448, -40.01586796096953, -15.49319249484314, 17.142153252393218, 2.8525947665678983, -22.768083563005664, 51.63085818742935, -13.257154681846858, -40.806683591953686, -29.746512109671688, 1.1216285014118639, 17.54326267933838, -0.2592835614501495, -3.477116329852766, -33.86424552106622, 70.07469060401276, -37.56090299933805, -24.38821168493021, -25.036560505099082], [-17.361984884153074, -13.194439106800258, -15.787270292023692, -1.7175058839037374, -66.03247353582655, 33.38705030816719, 2.0747605435540626, 5.979349596665038, -54.92942911424595, -41.64827995567722, 15.585882429245574, 8.701003988855772, -31.01035109675676, 31.95319220490565, 0.014180929113444856, 24.030618460903355, -14.772209063288251, -40.266818514674036, -41.07715731430233, 6.6816126718643725, -14.664477115923605, 34.111761164996594, -35.955892590039944, 27.930770635571733, -36.073301893979824, -24.91760911346107, 39.440484722315794, -5.2322163350599675]], [[22.791231221123855, -27.34207536514143, -18.060176420174084, -22.140611779458556, 33.523203926075006, -44.030136652065465, 0.4064838215597191, -37.05191016377887, 13.440424856436833, 10.8994642463407, -46.67119872041995, -1.9972017219988156, -40.056702120861665, -31.059585536577764, 25.59135849042919, -68.71305756805467, 13.765456403572031, -37.79680839673231, -20.61463806126482, -19.283181675494742, 19.416653720805105, 39.1842261614435, 18.7826816746576, 1.4291295811302234, 32.96530249656052, 44.889038270995535, 36.89536543998741, 35.27232626388733], [-12.341591956378087, -25.225232817560137, -7.020791521566026, 10.485437229033264, 12.200857984700633, -37.78532323616371, -18.19633395377714, -8.464787757610411, -33.15427354981392, 35.509783659846946, 39.083082248809774, -15.310474225208027, -35.9154332094197, 21.521017055441742, -23.926347035721886, 7.490675192544688, -22.592089175770834, -24.63581398332132, -15.226798323013194, 13.70148837102908, -20.31528533677724, 22.17949313500064, -14.252220090312454, -56.88138221021028, 10.483962367082414, -34.15107951606723, 14.080855253260042, -56.14109162924226], [22.00427160027808, 3.637892981483817, -15.330860767887284, 1.7795310822430437, 35.481241107967435, -39.65750391518285, -23.980115494006764, -13.43537333683902, -18.412904210114867, 43.978819339578656, 40.15234886384389, -1.0443973841051426, 10.895757786574672, -31.906451652727537, 2.2894214427389263, 53.05207986548522, -24.25806877775927, 25.608038800040447, -32.93493796853167, -2.8790628805421825, 18.020172159650492, 19.496034191960224, 6.690371833337733, 40.290405481139885, 62.859606065499015, -27.174448636240815, 42.61656272537034, -29.932953142128817], [-7.862849181223135, 23.69693865775577, 2.590688563216267, -32.20801334156534, 43.09944200703509, 9.277174026277432, 9.221717256651301, -13.93616972094707, 43.8769805794633, 17.25843156745697, -42.00934216028682, -16.667915617465802, -9.496859592705961, 22.52765710011499, 22.300371566290735, 58.33180272326355, -17.46090785578476, 20.51738040261185, 39.72182467888851, -0.6618842517190118, 1.9456007057684583, -22.15317722122112, -29.009744221584956, 42.39138798799996, 0.6900504734024101, 17.187846806167, 22.916868641815633, -13.197684831504672], [1.612522698987797, -22.308227982068434, 12.845733497080904, -12.130914860907362, 53.206575413415344, 19.005478006552835, 1.9808554466864337, -33.70760925012636, -30.20549399572694, -38.49087048179435, -15.807154975199172, -19.21292884553186, 6.939238741637833, -30.439047211087757, 17.586854559592254, -63.827434256564636, 18.82149540027828, 30.53976124010771, -36.12249340862945, 26.5278628714787, -24.777979740545497, 0.7488415560836109, -30.260022502703155, 39.068890130238245, 64.47354760612842, -43.01161012054541, -24.749768610231264, 3.9665043413439687], [3.987175320308902, -27.606992107893223, 14.071886578995677, 40.642170824285394, -10.63952298275507, -23.693214888245446, -4.217406297828226, -29.65579204810602, 7.378445499217032, -21.60667897786256, -40.27690695469341, -1.8641520827074385, 25.271853328577258, -30.709321559984637, -3.358992193568337, 4.882411786722166, 19.293328570418225, -0.8215232153240548, -39.16023036362687, 21.428996912665728, 21.722525058218775, 28.282896674893752, -2.6642130971627953, 14.129386592206806, 55.88106353823902, 41.186936768447126, -42.44652835047776, 22.670026130571173]], [[24.47987535024715, -23.495804800004993, 2.4497946806418693, 40.8162870788978, 66.3734417783839, 22.36347564641334, -28.094953225326943, 15.929416161311378, 15.346679247049375, 2.3629539644686526, 4.017965222629877, 4.056588798425703, -37.52228871038837, 32.33398612778113, -4.835765935463276, 17.22137309638914, 15.321704630077008, -2.321964311321723, -11.840553284859158, 22.751103570073287, -13.087601712277692, 24.897062747033104, -1.584255779097585, 7.497322913737011, 44.19756078260152, 0.22806293850136578, -7.096934028605414, -39.285006092933955], [19.941192617069927, -12.210147289492433, 19.019817739818212, -39.00962881586873, 29.712581908425154, -20.2669000328803, 1.1257595353235994, -15.96101633429351, -2.417803224822838, -5.9168661781841285, -29.06432282172793, -6.105091153281948, 44.44413742058969, -20.503536343996252, 6.265369146364176, -34.68057380166309, -12.368530414901594, 30.901146000108536, -9.26387278628225, 2.655161570233329, -19.476662444883868, 26.904022473400026, -1.9412718872096562, 47.43382629656369, -7.465520813650443, 32.253948418133476, -0.32696473155652367, -16.489666719933563], [-17.04708984698837, -29.105648875224812, 4.036173973140368, 13.602141673824887, 27.825336673871554, -45.750409681312135, 26.303285317743896, 19.487472457262506, -52.06613564546968, -2.057416813970471, -26.42865169822313, -13.224134598144351, -3.466770903948849, -18.51983319781407, 0.9827918907129596, -58.97844178074119, 30.766468287345912, -29.205083607862786, 33.57146088781607, 19.04120019338739, -20.965411496561735, 17.886980145402514, -38.347066886837624, 5.049059234499464, 41.28025684721658, 29.61158732277039, 6.473138240881842, 27.730741362611187], [12.307198155251028, -18.881137601907778, 17.38823666512743, 32.822076134334026, -17.143329195330228, -12.770721408282773, -15.118909516422956, 12.60342924014126, -45.88754469019208, 9.509844682161228, -15.993770395490142, 5.106162611275184, 5.5035108220556035, 18.26240510368807, 27.414817618701306, 67.72054759339348, -27.806907163653815, 32.13935925860913, 17.573417467014536, 16.36029973561962, 4.153923024068147, -21.978843686415225, -7.661737310629828, -25.08826772117032, -33.549967730096995, 18.337178871182964, -41.79918078036301, 5.793320319629968], [6.253745931091605, -22.59337259510147, -23.605590767919082, 16.41852444441278, 42.88273582247746, -4.325935593282612, -24.07604003885933, 22.751573375203666, 46.42584123917672, -5.555994194749329, 14.107819667484488, 7.111764996135955, 34.5722047750656, -7.360433988733608, -5.251206780848548, 5.900741676271211, 13.067180938560558, -9.687604174299139, -24.847967648970194, 0.5817328260726458, 2.259197220468109, 5.349302526944763, -13.92585144362533, -11.378434085600839, -13.669930540255493, -51.39473928423777, 40.085112296965455, -3.203242864875296], [8.481404457855403, -26.398253618445846, 19.21731953386997, -3.7329860352218676, -37.896641728984875, -32.14953332432442, 3.7450336493034606, -9.659112432930492, 20.166271153147488, 19.83416860397751, -10.514522972459284, 14.682075605680705, -10.012888352707684, -18.94295536184316, 17.708015462665063, 31.23390947434491, -29.843031393300727, 8.294907906047724, 6.679135894320212, 18.36351841290204, -4.966671807134289, 33.43952055973638, 41.238890868853, -8.688753444939309, -1.579395564909898, -32.61186459976074, 13.25409528206696, 39.363782372785174]], [[0.15618033299669898, -12.919672101693635, -5.078275339032966, 24.105385910001754, 73.42752738153679, 29.760617969963192, -27.437975641791702, 43.98696341036708, 17.830909435488017, 22.688238017933667, 18.17981145015228, -7.534480176134164, 45.90617186657329, -11.371709885363291, 23.843900207557787, 47.83174418779198, -21.550702737834325, -16.949473583900946, 25.52141735275546, 23.58785834909329, -0.5076901932794472, 34.02465814781008, 13.588367173525704, 27.126085243764102, -15.2396731474435, -26.838863442569323, 34.756910525940064, 0.5462198790208735], [8.929756954339927, -17.6007839375835, -0.08176899779535957, 18.687627600262463, -46.97589825385435, 35.53520572976844, -20.301481601763797, 33.798207023030926, -54.70878347440243, -24.167274540879706, -23.606096815910767, -13.786790758904255, -27.677252315352373, 28.269718877921306, -33.24558019360588, 38.30116131453178, 1.7177295518614377, 33.77174371076575, -5.573321880029176, -11.949685205067865, 15.053143763760227, -16.38228451639708, 35.28816228331206, 42.09730581732591, -33.05792081376949, 26.812365742324307, 13.04663483098417, -17.356470388470836], [8.845706367342364, -15.986186809636948, 14.953217471322848, -41.95092561590327, 21.150482071106715, -1.1000624453132146, -17.144654541584472, 3.638264722678644, -35.4153373955836, -41.946600317994346, 17.859587962560163, 12.85204990677924, 40.171580916554554, 4.456734287366278, 34.40598700682405, 31.22056732694278, 19.06653462536027, -24.98796874717403, 34.452434728458, -19.532680009621878, -11.567453302944159, -11.47802140642706, 40.19914569127375, 18.502480050708847, -10.018136922737575, 46.56306147050462, -17.30288004592797, -2.4941348702477333], [-9.55573118368919, -32.195963198790345, -2.9104589851172915, -5.322352639213397, -59.46338134821392, -52.58464529563406, 28.553495565802972, -57.007688042277, 2.0755301907680246, -53.919880013860315, 30.77210026567939, 20.950875153532753, -18.30260896719101, -10.024499282654986, 0.37068526810010666, 50.38531535083286, 26.848271241996443, 8.164898081083898, -3.4785245327694194, 22.981291955081662, -12.43607134568497, -5.386508980626014, 22.44264267378789, -24.77889123521122, -29.867528456969087, 15.76863761736999, -24.307108937937272, -53.64234512654055], [-5.7781270628230175, -29.264025593408526, -20.638079881567464, -35.1402542924404, 39.62621164833714, -5.434252052636914, -9.655749815441512, -8.416487031900946, 35.34621275126362, -7.744567182778451, -31.475182481053327, 7.683773085880894, 36.84387082491531, 26.35300216785698, -32.82716793576027, 52.30211150266251, -11.494156589774352, 34.96953002494839, -31.576554542022954, -19.047079102596104, -0.031423499287719175, -15.857259792544095, 12.896654051173657, -56.331790013547035, 51.92553100689549, -24.234741538015186, -21.88617693511547, 40.382172052530436], [-16.304673817622934, -32.89060581788612, 22.16460115619162, 40.85962669594004, -30.959582952211555, -38.14585509918708, 30.47072693869454, 2.1575618074248513, -9.397504288347328, -42.040074300581296, -48.66291340147754, -23.168720866646733, -5.993836687889139, -21.577984941913535, -31.73676511671257, -27.25861944417175, -15.998315977686831, -32.69204728853467, 20.95494581547321, -0.6634948086899888, -2.263367472319685, -22.862288163955274, 13.723288649338198, 27.485229999386902, -72.66178193721467, -42.05948333628626, -33.641743536690115, 25.475689280152217]], [[-2.1348567935883, -12.466309696690344, -2.3444661187399305, -37.287338921724036, -47.77237506812671, -42.79237567658945, 30.276498907138997, 13.500176533999037, -29.53065164251597, -22.256681102474584, 0.005388920620488797, 20.014768954339754, 0.33647393335645726, 11.664897381350062, 2.1094911846197637, 0.6834365975303192, -31.14926734892553, 1.6852107415599624, 15.769429522173905, 29.028819996444398, 6.16395049383595, 9.72276602540486, -18.996981937451775, -47.72476110499881, -60.39586631882666, 32.09353155690663, -1.1791264128918904, -53.677703827025525], [-21.58360647317108, 22.66364228430163, -7.4345743430018505, 35.05684996386412, 32.706395022470524, -17.471404866636053, 11.44165479251908, 56.774940125186546, -45.813207712960505, 22.769914859152216, 3.1283793366255686, -27.457749284094806, -19.530551154627496, -24.428801937137255, -4.29641542274735, 2.692981682495401, -16.126966551235192, -23.940636984327664, -38.70913309756971, 29.43577069043047, 19.793831713290633, 13.065582471300207, -5.66684877887739, -21.84561101430174, 35.75788465589838, 28.46699597577938, 9.12542244998408, 3.334775706512653], [12.402675118284824, 1.2517666552389863, -16.79065170489065, -11.691053176028841, -32.05997937451103, -53.81535965464917, 1.8292373898825252, -30.286812192380232, -45.50685153602412, -51.41304825068997, 11.568516366363296, -1.2821138209167307, -28.997484526958132, 34.73960577806758, 7.1107031477948786, 41.43116620812723, 9.720884939857367, 32.57475797520643, -6.263365005178201, 12.664200662290952, 15.523159494706977, -39.53779018751727, -30.554175175384536, 7.715829621517796, -57.368720920834875, 0.45935664182643415, -30.054918171615718, 0.28156527626328093], [0.008212193727644056, 6.570951020226251, -12.827838927793952, 28.647828157936367, 59.99033467495857, 28.10142624356622, 25.62048402332521, -19.221185440120955, -13.904616784166738, 53.30788612365985, 36.8921724210937, -3.274685004413585, -8.541200655871142, 31.369207712662707, 21.62808098367502, -17.51671406398836, 29.34990975074668, -25.607384301427, -3.482096996739945, 25.021412457777892, 26.087962389919497, 38.470139275361426, -23.323262435306493, 42.96417685726867, 5.678555248880327, 43.69357537681635, 35.577755962234306, 55.81246541814998], [3.485803988589934, 26.611000580108822, 10.600279209553946, -20.665238483436276, 48.86286212241817, -0.8923615794742351, 16.75988395605393, -36.82224579433589, -54.84932949713725, 28.383240423539096, 10.841205166437867, -7.033298826198452, -15.805105183804914, 2.416006447738745, -10.129628692537096, -51.84261314820987, -30.879743030733177, -15.484225940487885, 14.162556467194175, 21.368081166280586, -1.6620369543883178, 16.92220287564161, -6.016767910163496, -54.48728039832156, -55.71533382424311, 39.564001114401066, -18.63125677766821, -17.036145062357722], [4.033039942359788, 2.4594621549311797, -17.317689527869174, -37.19340403097577, 24.122612972049946, -35.30172070445659, 6.653811111421686, 14.198793002503997, 28.204981515646125, 58.261656433304374, -8.654615063637582, 19.40608286026962, -45.66935292200768, 35.35882443811835, 14.079274907502548, 14.533964627852226, -29.364511686250026, 23.615781028300415, 12.172146410527208, -25.705197377914043, -18.06285535273105, 0.2588742086867213, 16.472909947426167, 37.881197159524966, 67.87649189806706, -27.69576466275163, -35.65164595325042, 47.898794461823826]], [[15.645832748900583, 30.495209995706247, 2.3027993145105263, -30.12633579500484, -51.54054646649521, -18.490871760510352, -26.986540352891677, -16.896977978782992, 17.411384199549197, 49.04030299506927, 16.094453231837953, 26.69756057071272, -3.5792568632027444, 23.544338304479293, 30.587013854615268, 23.274550283170793, 33.505868250762845, -20.900975576440043, -33.84838134851079, -8.6716460353381, -26.67623605079301, 3.4552794381763197, -29.539230245594702, -45.56394160292915, 28.0606996775736, 2.0280370089663986, -9.27957290243521, 41.38940886245361], [21.355804129016292, -27.08988800430209, 18.81238999594104, 24.623738156808052, 63.41363280590837, -48.970709087879484, 28.152326202278104, -56.22075159919456, 44.17221283276217, -59.38509872286906, 10.175628481221109, 14.016085623053836, -9.637360030521913, 14.018826519892622, 25.019857574602245, -21.951897751787016, -11.90889091203335, 6.480680408120481, -1.0377332202734793, -5.550153421189229, -25.025768128984623, 18.113711214404024, -17.7224919963591, 18.00465606216917, -47.199166591696674, -22.09837796930537, -11.154280438972915, 26.378994364576698], [16.93951443454258, -16.458371133141124, -5.794371376565833, 23.29719412531689, 5.446259753401995, -8.937145415087949, 31.07199640916312, 26.125958640172207, 41.632722453260364, -6.1376408941590155, 17.162333848117225, 21.63912727403914, 16.835638392075353, -29.21863197813595, -6.078243590751436, 17.55101589437665, 33.334183345319765, -19.62427843983026, -3.390213627626021, -3.09215726110635, -6.715211080460607, 8.552811274576264, 11.664498889313471, 29.88363519495417, -31.872068814487374, 5.612788661662583, -1.9781192306116258, 10.557095264521948], [22.589915805560256, 11.30239560824188, 13.534835315750003, -11.002556457277255, 35.40130992568953, -18.099843404429418, 12.86425882152823, 39.04355443759977, -42.78081948342284, -48.625009192497856, 51.62012481599715, 0.5240183403987937, 8.369714471751513, 2.0593343208070074, 18.126446136068324, 48.2708746520721, 10.694003859526639, -27.39152589901292, 24.489919263808854, 7.209436969855037, 24.80623476594718, -32.15093833881419, -18.3286461755603, 23.77329186075922, -41.290244511701545, 44.73396752666258, -36.100901440617825, -30.577634233200747], [18.68486259927718, -26.111418608188014, 13.935658906642832, 18.918768087323198, -53.00037418300503, -25.465484745380337, -12.65473300571383, 45.30137164913708, 19.34213723107555, -29.776745458136347, 42.21913816409497, 1.161670363207274, 45.83961853636769, -20.307256249237405, 2.311302890459747, 7.292724884567608, 28.61990249279997, -23.871093919727006, -17.192952620459675, -3.9350081481304304, -27.44704945112827, -15.590262194427067, -12.870909086819783, -13.167352361146555, -8.480066320548769, 50.83855877319399, -28.111502128261154, -53.12134676374934], [17.92848339153174, 17.020053666372956, -13.760295357695188, 19.215921387422732, -2.067571870109373, -45.91496064798806, 5.291416570955075, 24.962062214503867, 30.6444480665479, -55.59226886862843, -29.125485783391007, 24.998568646229224, 37.073788014076264, -19.065994106825865, -22.67487637512823, 4.954007892852348, 22.606581483323687, -40.62531481318194, -18.691944406306675, 31.18994557643928, -19.90062112839119, -30.858971867223204, 12.130297023460837, 0.752348867123902, 5.849074778851675, 35.23648227999245, -27.48143892867509, -44.14086089352537]], [[11.490184634695504, 1.9324236507956156, 17.21830976756538, -40.8595586493667, -54.60835361657431, -45.635119764257546, 0.36565646463972135, -24.629864682413302, 11.9341381033708, 4.981937032540418, -22.282537294066394, -24.12987199648615, -6.81931500420181, 22.806513340616156, 22.476962687611458, 7.938262220827521, 14.10268368000679, -30.511999960418176, 16.90488058580437, 16.357676731994555, -26.733468536348067, 22.751801134698272, 36.652325944913244, -27.870476974819137, 49.552499013093836, 2.6904761159929, -37.371893623761345, 34.18989839441187], [-3.141763706475177, -28.04857879653231, 13.671399693863188, -3.01018678256197, -3.453339757120744, -52.98001191227491, -17.072858549027597, -36.267625961063324, -23.973922402554052, -41.212173161614864, 49.52382214096339, -19.50485156771265, -19.606807267156817, 11.062145209332696, -18.73676038047572, 38.02201142324532, -3.980371485403572, -16.113724191351317, -39.32376542524835, 24.993182679965372, -23.27928096643238, 24.59995254220092, 11.622195017906183, 35.61515183133258, -34.92009712563122, 26.99839625411317, -21.281730625702735, -32.08835707033561], [-21.256845834309587, -33.69886396635016, 23.430451054376466, -28.90041045169474, -33.992533914127826, -32.05539992257249, -27.001713739082305, 44.637698014235646, -37.47557741274555, 47.36756845875309, -31.52882176213418, 4.898759155525923, -38.20214064001667, -20.423526259648522, -25.592738427555613, 61.12703476085075, 10.183280400129696, -22.60255955912239, 2.9254180338427207, -21.02742571850184, -18.974059186272342, 15.644925046232288, 23.539231432966318, -45.47554652487417, 64.98100701254523, 22.16303318249107, -5.628546987352001, 16.56698955040146], [-21.631923583625973, 35.12069232907258, -20.933661752821088, -10.509094408011887, 17.010983125723047, -14.626509254363404, 14.311064098183305, 36.2587116892279, 55.62667056844237, -34.86295546014935, -9.70577841553674, 7.211665727737429, 33.62543974766888, 34.47316889186767, -30.030236861685406, -37.15598589007751, -6.569497268655452, -38.017005797947554, -0.3365660591545612, -11.112879943694141, -3.1416252548877543, -43.23144139424905, -23.482805972499825, -8.062504035133154, -37.028117058591086, 32.447522278517695, 20.83615144921938, -51.81054563771643], [3.2133267184974397, -19.097615424425072, -11.361488816450072, -36.441382446473405, -54.88537783594207, 10.47204344902468, -17.71473282929128, -50.175287852617345, 18.61617233582008, 50.350839738413576, 3.6629347965859558, 8.94542738770236, -45.50585507054764, 11.627315912017938, -27.085065737653817, -60.06132088376078, 9.93693182683977, -33.33667876784369, -35.16740843692961, -26.131188549637788, -21.632532820955586, -37.04204426627636, -10.542390777478394, -18.697289448893795, -39.63681429754846, -25.49252778119358, 34.437688191255376, 8.281655674342261], [22.922136018269924, -32.19795652543489, 4.138585400033331, -34.18236408083395, -18.168547626468357, -29.351456440062965, 13.096173535327756, 23.521405014724095, 56.24073259660989, -16.21175057259018, -55.62252423299663, -7.460263690781162, 5.3795399896420255, -9.814041674845557, 5.639196170303879, -6.143218968072292, 23.61588149798313, -21.629171282369736, 5.594373588530099, -24.442537588590785, -15.503541764394734, 0.7714946836573474, -2.3422033470990167, -34.47630957171889, -62.83992462704001, -28.63991158618684, -8.692312226511484, 10.452505187969566]], [[9.683811720664385, -24.743023687277894, 9.058584637162248, -7.038586475781245, -61.63146196574477, 14.128128727892602, -3.146573274941397, 10.444120514800826, -34.7666558275961, 36.379344858552464, 53.434993324848364, 21.476788890596804, 3.5918892980744515, -29.670153255426758, 27.43549128000225, -14.254918573236116, -20.98691102849, 35.63070075190402, -33.09562083958684, -7.81008179614598, 11.101965609186463, -39.76326886584782, -6.31722412986255, -8.66735918904489, 31.88056010374195, 20.708681481701554, -34.928364094745504, 47.201957222646485], [4.324386744548105, -7.958321950906179, -2.047154899254971, 13.401708070351916, -14.813387186241997, -46.587662807819406, 22.900709603717303, 43.10173340358109, -20.261033830800606, -25.54454397489183, 4.284965418753306, -24.212629533476797, 23.743793196721413, -4.23868379089274, 26.40468543376383, -25.815033598943305, -31.116503492356692, 26.56965253129348, 5.25016223642779, 20.051078426474742, -5.5739881276763565, -6.719458838274222, 6.437750157025564, 23.69673165012178, -14.468290731734635, 10.971281996700194, 38.92071441381428, 37.66158778291723], [0.6338080402096854, -12.045020329047912, -1.378667753645233, 24.398043508516096, -28.88181536497945, -39.20737670215736, 7.577945835983749, 43.2636162842384, -45.3218736923028, 46.16159191799348, 42.08381502351082, 8.364782832677488, -47.6091778559523, -3.325533429776249, 7.015887945389951, 1.3058570012007973, -35.10737593376106, -37.25386705388726, -18.793844205401147, 6.632403455157365, 4.892848599272413, 16.789430261921645, 10.353262323345053, -16.200286830896193, -2.0303763114610223, 19.950063429577444, 8.93938148276219, 52.248164950976594], [-3.7589851391224522, 8.17912269871231, -19.665301732408217, 19.34091198357166, -31.331635192284505, 8.029157675601578, 10.369113674212588, 47.253265607891805, -41.27472278603622, -55.55745184115506, 22.045629243331014, -21.34757426808493, -23.173377612760106, -14.728423879783406, -14.996739649300611, 45.103528001316086, 33.735954170044316, 13.528142596084463, -32.7021498820511, -28.650142901692544, -4.649803794767467, -23.38653369039104, -14.315289843772305, 18.60706762226132, -26.378323865558418, 51.1555602725732, 26.508390857018565, -23.455725409811762], [14.693879471919518, -32.20907808018331, 23.945255287585198, -30.900362142082155, -30.53044645592726, 29.693264861615376, 1.893406293841661, 52.896428016428445, 30.565527987970935, 9.449763904349915, 58.34662060121678, -16.735411231600423, 8.1736760868051, 34.56639261624958, 27.489544844278214, -54.03504513290738, 6.401186813847494, -25.36676954711587, -25.27303715717824, -4.782811417764508, 20.942795174810524, 3.601150618084928, 21.34563574499216, -33.564661048405895, -22.708982364716935, -4.390968381930335, 13.99318995356602, 55.90101481229914], [8.922477547009539, 33.39731926613852, -0.9643426630453928, -30.766821497642706, 53.976015207517335, -4.835450130495563, 10.238853035980641, 1.343629078534084, 22.310622807991205, -7.070339706952722, -19.107630780499594, -6.332149291047585, 33.53852030571613, 31.760098765642468, 10.188475572597582, -6.603085813741952, -8.089720114755647, 10.152591625697845, -26.45981899086369, 5.725474803290483, 24.711923122621553, 38.8368676702003, 32.07558733422689, 37.91998374033636, -67.05929644123631, -37.26287749019603, -18.750249547885677, -49.58964018219183]], [[9.359745898647578, 35.21430530047603, -7.261059509257594, -18.347944232134676, 34.07202394975254, -40.21976820595636, -25.060962106682872, 7.305482972727839, 2.168761742667312, 58.1521609872092, -15.542992071810403, -3.9058065423909287, -16.379686163631355, -20.56327813897378, -29.97900953294809, 56.70763200534128, -28.217767768511415, 32.665545596840246, -34.184648208009484, 16.252126424056524, 11.800165470522305, -29.743570641954776, -26.158792723909432, 40.85269818941239, 70.27867790920021, -32.16716081509695, -9.78492425837349, -12.09139167209869], [-12.284493844041185, -26.498762624224952, 3.0549775507725525, -33.783932093525756, 55.33413280956608, -4.394427317484782, -6.228889275375422, 42.577785354264996, -30.186941795743113, 41.392130372692044, -51.48972233611537, -25.79897408952202, 39.85158068371342, 36.33733089794891, 34.17234931828722, 60.332595794341664, -2.8433210657847825, 37.45867144835721, 0.21520916098463416, -8.640042680979176, 21.234276123240324, -12.39838496825293, 22.447213842486985, 2.702455585417928, 29.172934471576678, -16.755337510207553, 32.61427088489331, 53.64023569559248], [-14.907210555966225, 18.78569355738657, -13.76326380182719, -28.86582057610079, -64.79852989343993, 13.029318794692148, 26.01152988112911, 33.22742818761294, 24.383474154824533, -41.974106720567654, 30.27398030763876, -4.538960401080356, 21.35494185131955, -20.586655749237877, -14.80364040459777, 65.6005917018451, 14.642686732130839, -9.21851964718375, 14.464278186415452, -9.152750547761096, -4.060608757471476, -33.91241157099931, 12.129513572463335, 0.949557477251572, -71.42357638036877, -45.225120711722695, -2.700551139907415, -12.202511301091867], [15.982211141385942, 2.4009599962133037, -6.910882998697498, 9.123728662000648, 8.976719767336068, 16.85977081589805, -0.31610452925798127, -13.495219591598493, 32.067806041581115, -29.752134796091703, -33.73576439445996, 9.245574298130157, 40.893866298715295, 26.674136582104595, -24.26652315390565, 13.417113509821153, -7.802920526017671, -15.121851715316973, -37.04735654769458, -0.41481790979380856, 18.5890510961682, 33.701455121644564, 1.5158955844813609, 39.36043414988522, -58.02036758810357, -44.08800323354298, 22.117621234699698, -23.33783375093138], [22.833161710584925, 15.206865941572591, -9.579096594425344, 22.805638243012055, -51.4174101941398, 14.624943374498597, 14.91259687203021, -56.8021520686679, 1.1439547292636656, -36.90238857631369, -10.170262407031716, -3.69876741352552, 10.196702059925967, -0.6637832091185956, -3.6455660795866702, -11.591418109876507, -2.7369204333418224, 23.626249102143163, -1.536386137621454, 7.752966894718867, -10.175080099321974, 5.420550012597783, 38.16689665350352, -33.313189169095224, -11.360041113566176, 57.52834541710852, -5.836572966152286, -37.43228809739639], [-11.875990966158671, 6.012966843733744, 21.721139677358398, -21.420626287341676, 37.58416166575747, 30.645389767504213, 17.28244187259254, -30.634971115980115, -37.20817036121328, 48.86925082851677, -58.479963407456374, -13.232668754794991, 15.29681709764672, 0.3179909698669093, 34.889427178927285, -24.540531429498117, -20.0980835357642, -10.648528338026232, -34.02588848027484, -22.409284286905283, -9.769911181400564, 3.672833003271751, -31.690935921656564, 55.90132682004997, -57.4462755011194, -11.14892526549801, -12.616779847462865, -53.84145770980367]], [[-5.776102973312254, 35.53448643571039, 21.70276148808869, 5.872047926168572, 42.13894278141949, -9.462297898236425, -24.54507098015251, 28.416442431568385, 20.78952823467877, -38.99497898333327, 27.94462416446474, -19.867710151389783, -41.841171771608025, -9.147920002328403, -26.9200376357202, -26.218979225100554, -18.37571366878574, 24.649831446938368, 37.510797628871366, 2.2442369817828163, 8.957080162395743, 0.2599230996983937, -20.955652640065946, 1.4619465409298014, 16.76805501305698, -42.87745112439416, 13.355812986980345, 55.02260800387709], [10.63825803341956, -19.22036854636378, 12.309276685947129, 36.724800180092004, 5.547835139551679, 54.87702934622624, -18.070707474375368, -31.268151614291295, -4.664708673725624, 21.464473516188168, -39.97181122785511, -16.49767569506305, 2.7142070069697306, -28.70806268616316, 4.741266315242894, 66.67650933489908, -28.481484768185567, 37.66975713488565, -10.114494642054732, 21.244265890433358, -9.9630374048493, -29.31417110196547, 21.615078432009927, 25.39481523774908, -47.28292683245259, -23.174127042650426, 14.971612707480872, 16.204896586586358], [16.126665629721526, 21.646404525467325, -18.886356050662176, 14.66545392339469, -61.69470840462297, -38.95322653159338, -17.595916001405232, -48.75089669192843, 32.33933480047905, 31.759742478640124, 26.85355458783518, -9.223770398084076, -10.559179787127064, 31.758054504344532, -6.541755216312741, 24.6473794142653, 3.9878549560630163, 42.37020098557536, 2.7962560745091474, 27.77367303237185, 25.610935357006664, 40.528410701684805, -14.598510798475482, 26.016926048184263, 19.972696264411724, 45.17185034554744, 18.291946660170588, 21.27038894708646], [-10.860540739192288, -4.944881276040941, 0.4884519141749992, -27.39096232375284, -71.4536350898239, 26.347090017596006, 12.99370797178043, -40.67743417765706, 33.68472531703573, 51.910437576372644, -6.502756338806983, -12.745982674675146, -30.579791953050997, -10.379249346762213, 27.948166927206067, 23.751219055454563, -24.403897486283007, 36.48244422774394, -1.7222150517151285, 12.095163774623636, 11.423571821553862, 1.5212151899013018, -9.156915644033614, 57.56110270221657, 52.21662389821188, 46.58794018927524, 31.47500114827522, 51.811681679661625], [-14.721560427606452, -15.837743610520517, 12.21333404969224, -34.97115512695804, 66.6211607466929, 52.35094308748377, 30.680034166908, -36.50885095684738, -55.94789131006798, 47.41342421170158, -51.87517439470571, 13.708604450459255, -43.47044411872548, 2.5907396114118546, 2.4412668798252284, 44.720471208790826, -9.033251344181014, -13.582557230736763, -21.001191791263068, -16.813808431645224, -4.794962776595305, 26.039165445979826, -17.379158733528666, 42.6288259492915, -19.67522067115558, -26.336945877502984, -34.970096165843906, 57.58529998746267], [-8.569213025120108, -7.71146963899856, -21.754614718340086, 14.521921580992505, 16.042768694492025, 21.493101128098083, 26.30538398944552, 25.592427538019447, -3.402045800970015, 32.435462989048865, 31.277692474294494, -0.31253087309925187, -22.076420683217844, 2.9882720854506197, 28.828645967284395, 57.41557376606455, -33.802309972906606, 29.55597097934826, -7.105343576255872, 27.071584106566412, 0.9125811390207854, -23.10608523580621, -36.02921503184011, -2.681254491945255, -19.88310632133033, 7.54341271341349, -27.934826750723666, 25.27740582424559]], [[17.420020867203757, 26.894658941096832, -4.67678465038186, -4.290449355857324, 55.84010581996478, -20.304568608348664, -21.674994032195475, 19.119613531322177, -50.34346266275806, 33.3334436572587, 17.906396469219366, 17.712554020298377, 19.220115269959862, 22.778793536593007, 19.490661573739263, 24.28181892019385, -12.166512880581633, 24.492218605858834, -16.233988838629944, 18.702302025948295, -13.418572514596649, 26.211324182186388, 21.12650723025088, -36.93692915108813, 8.766447076867655, -22.45444401377643, -26.251932950041766, 18.694315446053224], [7.039789684155377, -28.837226939299622, -10.495657151831823, 12.17431595654945, 4.55438292342717, 36.91459280409617, 17.36863872598302, 40.7620084442547, 31.31135808008102, 15.800271904181194, 42.24854507461202, -8.219314809230497, -4.329343518733023, -17.495417710194385, -19.49740600874554, 25.051112566821523, -17.99664951476707, -6.431670297823899, -24.21465292690666, 3.8543049978502126, 23.582783238878562, 24.714341972535735, 29.577918699468757, -44.77783116884632, -38.64258885220675, -35.40256028648071, 26.243040403141904, 17.95821630637116], [3.9831661529063482, -21.65525655069482, -20.321614909669158, 29.648671272861687, 50.58165399558438, -40.74358397217563, -27.208500089186643, -8.070944841906675, -32.56820636121973, 50.60141830233916, -38.50646192117423, -0.48058980124358486, -19.92032447184343, -10.900100587600036, -21.360393390868545, 47.09549342875179, -28.110378410109053, 27.274334164136786, 26.747302387287515, 27.062243531910546, -0.8120144965696003, 20.31102472422179, -27.774189393808694, 13.770845193475374, -49.261596947550316, 23.1542336605485, -20.124660016655877, -2.7106784284559806], [-2.854601827794892, -30.61470134723455, -10.330116726317184, 29.665145223630446, -18.065079589734548, -21.929874435198457, -13.171889114073618, -36.23088745517948, 55.04998133665687, -13.396347076515704, 52.98304214008402, -13.515364272474065, -26.466706377738983, 8.612250285574548, -8.691321543732041, 19.87090587231635, -20.880662910342124, -10.519399240795469, -32.718359231455814, 29.745748058619654, 10.193925204040767, -12.368884001752903, -30.473802574111705, 12.581658767298983, 59.81147653208274, -52.34936297392745, -31.557639059850587, 40.90035839748269], [18.45215888810758, 30.56348371631626, 18.05563706524711, 10.831162105093139, -69.77553451659024, 12.970991399492625, 19.116672736011243, 14.938688337159936, 29.746190369258215, 3.5114152049290523, -58.64473644920878, 5.888192496521632, 7.091884693590021, -12.90030222589586, -6.083390497487922, 41.30076623746678, -0.860842664586627, 3.360945590485018, 20.19460842579443, -27.963363289681542, 13.538733890131077, 39.940081579554764, 25.742359566881706, -8.090658067248311, 28.318725007474896, -41.92941315719458, 39.531356962068536, -28.494434636447977], [14.621479465668443, -21.460499457470277, -11.347991731518228, 7.0915383880905, 13.951910811298204, -18.38384834186881, -4.237545099977441, -8.864682687345086, 2.795819837330136, -52.79115370829296, 47.672692046278954, 12.42462598652352, -36.60288174940675, -4.315451718161689, -21.256639596261028, 3.6585040196798198, 33.22902142614842, -37.80298704743365, 32.10683544329608, -28.04380745908051, -1.281876312015527, 41.60245333487403, -26.337711780814647, 12.852196220202568, -8.49033209489964, -49.902188509725136, -20.416805591467977, -44.647611839358795]], [[-8.955932898923901, -21.042540493625253, 16.9792636109615, 5.768083219211949, 26.576227174968295, 45.72200562740258, 4.847688193065025, 1.298970610553741, -7.3545300442779, 1.6000912180343196, 0.012822800167972565, 13.873687005666678, -25.419249875013296, -25.91957293718012, -31.566241280103192, 30.566444886829615, -4.219568777371288, 42.89141263198321, -33.66548720352366, 10.41503691160864, 5.735128505429489, -6.619496579957472, 38.98108051736012, 19.898831581418488, -15.833005641433111, -39.327039636951135, -33.754527066209846, 7.309618791079754], [-5.083793708649334, 6.779126147390535, 11.52017944900006, -28.31279057365566, 35.99367647637602, -47.54179517685875, -19.792375762833277, -49.8307262543272, -44.095614633568246, 56.359128593838875, -20.33712984174282, -5.345473855473157, 24.444535406596408, -23.868583538921264, -35.37540042950343, 67.62441539640676, -12.395565063413446, 35.68397548847237, 28.31309807269821, 18.055847189421367, 8.74045384119666, -33.908546021109444, -35.68680430442729, -20.09394718313242, 44.80097960686409, 37.19993958630078, 18.033757000241813, 39.524715054655864], [-12.798769214154444, 1.4182060150651612, 19.09921579648743, 42.172536753625046, -24.400618145524444, -5.4756497626490495, -32.42178177441183, -54.547735191716576, -49.143602178072165, 40.633748999490976, -7.4569676252584625, 5.025972110731977, 37.04750656577718, 35.17744871127508, -29.19624292042496, -43.79081690187338, 12.80641089095478, 27.853849405483114, -29.535272640092945, -12.752947638000887, -23.081295100983695, 42.767875279885956, -9.257594937539508, 28.82816865265434, 35.03199299320389, -45.189522179672615, -6.359444628722598, 55.01971719974306], [15.913366251689599, -33.894291264528974, 13.004699804849647, 21.52792039640414, -62.220603740699815, -8.149322657925932, 11.505450228011068, -55.652823786677786, 36.36125674026039, 22.48511224722341, 34.939042328882266, -14.17049035321513, -35.57748669632573, 10.651799183277914, 19.900223702111667, -27.578276549057843, 0.5006166595593262, 18.093980969498173, 35.03261579422817, 17.770825740766732, 26.500127325078807, -1.6983595640112117, 11.068335699748022, 35.491173541852525, -58.28340610657773, -57.398744993566716, 22.21244311367225, -11.714583415037227], [-15.75303294787302, 1.6657295583444736, -13.60042819585218, 9.827932362727202, -27.399762139624304, -11.006492217329917, -19.29840340115209, 21.93159665193111, -55.35697651925592, -23.895606622286397, 8.685890686854531, 13.933531712318459, 12.45572178705858, 32.379813192605454, -15.837417805463646, -16.92650546298289, 15.25202129737707, -40.11704772455344, -3.206399498011105, -15.459804621766082, 27.224371076555837, 4.063409607994712, 36.109943178079256, -16.302352557372792, 18.02840868294289, -0.006006158900665541, 39.53313474056046, -52.880929738505834], [-12.960044802713323, 19.217361410038702, 0.23987932791968325, -40.31006146312478, -21.51703707351034, -46.501283349721206, -26.42908259684344, 2.677629157597245, -53.732778680289734, 32.62262147933727, -23.154309528907522, 5.802799388432065, -38.792947310103024, -11.660787358045209, 27.666045679899582, 14.332857586262763, 0.12901817868256105, 19.485433520353233, -12.682333841356627, 21.061270302039308, 19.792896487364384, 43.07890825577972, 7.886693592438932, -36.67138397114959, 62.899781057174806, -2.7248127019054826, -22.070517737057493, -24.098292818138134]], [[-12.598166348483062, -29.207865262084713, 23.464622700693397, -42.47995265758492, -41.1454998605493, -10.794408306053668, 2.877109869567575, 17.881763523595104, 51.17414108905637, 9.803958234646759, 54.47427615395179, 24.57459891098591, 14.39654418599016, 22.514127658553512, 7.272763106369682, 5.697650277970958, -30.391047148965917, 40.57856533265116, -5.007970419238456, 16.401093360786646, 14.420640249083029, 10.26026109309997, 11.106331903540623, -25.350702090592392, 31.26626202937483, 37.373493139911496, -41.15172209313727, -9.881348171492476], [15.888958706481038, -14.0771062984544, 20.64558699280779, -32.618455804639005, 21.9826743249566, -31.13108695082526, -21.25315268298822, -6.952022063097436, 41.62518785391442, 38.365516058803045, 9.733391423087449, -22.47682530829915, -35.96340858210086, 35.31568294356941, -18.938936287136602, 49.31641991734233, -23.691595129848302, 0.6907364523608477, 14.336224516131168, 5.255879238456385, 2.1552944069276756, -10.090187406834351, 10.841406167920798, 39.522168473001194, -71.49454113928422, 14.39982417780065, 27.037397232010427, -36.13754937292612], [-5.364703233244251, 6.062877740811564, 9.160995325419472, -7.261595342261707, -68.71000525679996, 30.441209446373684, 29.908314678713253, -50.70970581351983, -35.75471461990176, 36.47456759279531, 32.21652246146746, 25.152102900416107, -2.8151768714237266, -18.54443306674167, -16.962786376224713, -54.89670348035868, -16.614790663172606, -26.50354054021928, -33.310446080095474, -31.362507939884487, 9.583455400210138, 31.949106359162684, 29.586016867623613, -28.955496248159296, 19.29154370565376, -56.514729990021785, 39.1963054532938, -29.28786004618999], [-3.4161442711917074, 4.484133717362493, -10.778723064565295, 42.21808532778172, 62.99105824641765, -55.831922948689225, -12.605548918258695, 9.511017668822708, 37.498446752373425, 13.595842640521631, -32.612357405722285, 11.137392199132407, -40.802403206123586, 28.341606432145575, 33.35734148968339, -62.09068400558875, 19.60651113451521, -5.2529053945043165, -6.8735701596251415, -5.491714680097479, 13.607067946040376, 15.004557487292235, -19.075036474331196, -53.98175396595588, 34.741836306585604, 50.523591271979825, -12.632719905131388, 5.063257413481073], [-10.26653798159149, -25.264491652830554, 4.8259933637366075, -24.289273777519185, -65.20650373554139, 35.78086826330214, 3.997690417002662, -23.13265992699071, 41.2456475547532, -39.87537936125361, -58.00705291067339, -8.67419799011914, -38.03041382750832, 17.749563392447623, 32.31927948968943, -47.43010786034819, 3.1596671418239373, 40.96139293126048, 9.762781209992642, 16.14903569411555, 17.36802220026399, 32.26596268486342, -27.648706014822498, 53.35720834553054, 15.475694055002734, 0.07883211123353583, -1.9114323510902478, 12.250588653860403], [-10.0580875276328, -23.68924112483683, -6.337784582483717, 37.55433936940993, 50.90912863133615, -54.74872080080733, 10.554826874751605, -50.175494419093596, 45.42408286284823, 27.096229654202066, -27.926357127041634, -12.356010638391815, 43.1429881069369, -7.610020840989801, -25.974567273752758, -21.306936737264376, 9.806309406358242, 35.8252380640798, 37.42061531575882, 26.70490373883847, -13.815228577017788, -2.093596346296603, 38.51917953484603, 5.139751262409595, 38.197598897297496, -34.64752927158721, 4.76043695353163, -51.53954582696964]], [[-7.704972001591993, 32.317531072368745, 21.307792199398264, -9.479955110993549, -67.76331592618314, 12.290938150198835, 23.119915177125613, -19.76045159777461, 10.986756997974723, -59.604871805630395, -36.429063315536794, 0.23086816750649677, -47.906967595183474, 11.4618917245542, 5.678291787840556, -60.89660353527165, 31.845443997573618, 11.68873248654489, -15.638444588532796, 26.57341535655875, 14.927517676967431, 12.848178183391154, 23.499475825512448, -17.620916173866075, 43.559262591660286, 29.177220258209758, -38.049806466419454, -53.508017571336765], [-16.188360400683667, 9.945091493569638, -14.501748381459143, 26.61605926161504, 43.774344681525115, 44.41329502986997, 26.30918282610405, 43.62464799769896, 54.591191410669516, -23.512069862659672, -50.860548791547245, -22.87469203566977, 4.5675351436409635, 18.49974848338354, 6.172738773315764, 9.544789468262266, 23.144020393857105, 25.174224270814566, -25.42925152832066, -17.652740217120513, 24.914916063007926, -18.151735612236585, -11.109072858059323, -17.31330263961781, -3.884603391489288, -6.242620755875897, 9.514070193723414, 12.177311522495417], [17.80070572427043, -25.85551482015695, -10.706528942080524, 34.37040632698359, -52.93440961295663, 23.463899328024144, -29.908404462321315, -40.487392995176535, -34.24835164870768, 20.66281845906014, 33.511418298883754, -3.191030681349036, 23.862973826543506, -14.251137544033396, 11.23487080431253, 29.495898239786257, -7.719206154940808, 27.520167775188398, 35.828317962204636, 31.395467037244227, 19.22596011088127, -13.320781720964874, -32.65821290985113, 10.137518140572134, 0.29361323114730176, -19.154025556866003, -1.8337695881704255, 27.09125080465075], [-18.664163410765465, 12.327451086956383, 6.7577747803714265, 23.268465000674308, 69.96245506146482, 40.73489961334359, 12.881243745253053, -12.850750266917863, 23.691745418449702, 52.81802678472233, 1.2922209558363802, 14.486509551340967, -16.446153627101875, -30.186515157560347, 32.054577329528925, -58.78863387591899, -25.641940102901053, -29.662482502342197, 34.33942106407169, 12.686810639057375, 5.813101268722537, -31.26730021377335, 18.07380834584087, -29.524114882164408, -62.54185189908939, -57.209370512404476, -32.85864427291412, -9.541048540248305], [20.77245896725004, 14.532054414864787, -16.80176201275277, -30.468843457539503, 13.55265223956879, -44.435372934630195, -3.294415869752326, -24.036926569253975, -32.976995578314515, 40.64459727940215, -1.7323708857311562, 23.409489543665423, 31.95602790504418, 6.738493490180394, -27.9343191370845, 0.47119611177273707, -28.472641221842473, -35.61901355836156, 11.296397289976385, -20.70519796083541, -19.48363475754316, 31.414274107436, -7.366207620402273, -7.0373748385262385, -49.15337893447299, -2.052438534814285, -28.535795111181677, -25.173681622378087], [-12.79308830123456, -17.834971441146447, -16.97745588778073, 3.713737199427158, -3.4014099046804493, 35.273241120335136, 14.2541571700479, -53.14456506575699, 44.346063504011596, -12.45695263011692, -34.76752154450366, 14.347761917042245, 38.750423017966526, -23.179669711091698, -23.93909079714627, 56.669160618324064, -4.104198935441123, -28.160321435756934, -32.405466687055025, 12.77673327224683, -10.184086302922752, 15.13752898143858, -14.281543477103758, -35.87396868029775, 38.11691313985759, 9.79467917022016, 39.95390637834203, -44.390946523403336]], [[18.801549882291514, 25.86784827149526, -15.76056737256804, 37.85635438227823, 15.422305142223282, 21.244959830503557, 3.6678933461798158, -24.098021114524112, 28.646424123539283, 34.81397062164461, -40.28003460059021, -16.599325178574187, 45.7679170045385, -26.286655187028103, 14.826410199839588, 36.3893169732685, -20.106640654643055, 2.0186671852827223, -20.25956168329816, -11.652210744384652, -23.15588823806237, -18.223162383574067, 9.937827283012382, -38.825470097612076, 38.00832028024425, 17.693345174197937, -36.45068403151556, 41.6737261668025], [8.540810816659576, -31.79980108472115, 18.070332599525365, -7.9139737038930225, 4.510867573340581, -6.630725466983161, 2.64554666419146, 35.837441231291294, 48.88685705500722, -58.4917710903572, 55.22580979866276, 6.603079377802831, -12.625477623721254, -21.764498285354176, -2.1024634242268863, 47.310262384833926, 0.794558104927019, 20.177106929140784, -36.53222503549442, 12.029106248184691, 18.938942203694147, -29.91549653891255, 19.63868661518145, 18.989658374537864, -7.136890363089648, 52.498662379858075, 11.180450651545963, -55.471122677360576], [-9.42644197605424, -22.79456292304147, -18.58916509956492, -6.703117806840624, 18.816610162276092, 38.57435518206948, -28.173152572681488, 50.73585991110791, 34.08725386395988, -57.30458080954143, 15.881235435022365, -15.233305111939048, 8.452558835397488, 9.861067442225307, 16.627355805330286, -47.18900849045415, -8.722842061153528, 16.964194757512356, -22.540264902753936, -9.75157346651972, -22.02493095674485, 26.782756458516076, 0.5380856294558835, 25.929264609780866, 4.9360155050057655, -4.277324443637125, -20.62124052445857, 46.799508810061916], [4.039921158973875, -12.428869604328428, -18.36667566251464, 14.310987081964438, -66.70499416692502, -10.317357307149726, 3.5545658044713924, 21.66921111966824, -56.00145398306664, -32.38123458675446, -0.6386742095504845, -2.314475264981981, -10.821170188894614, 35.358654948605306, -10.454941632912574, 21.88918106161339, 33.13491715512545, -5.9611001878300005, 15.882974525814516, 8.189668576800528, -4.461113195501798, 38.677298791588484, 31.379784418512276, 1.9533757260417948, -63.27291190280301, 51.39873264540274, -2.3612241256772872, 40.820674018172106], [18.76928660760431, -24.65293126634499, 20.06233149801079, 42.17957491329373, 31.68855375473474, -16.501238783858778, -27.724668071628745, -28.61940563638032, -31.21809830693749, 36.229584131507835, 6.315906395798334, 4.0096451652968215, 27.173682704035095, -30.80007768623905, -27.494601557508553, -40.923819967135124, 24.92195305975932, 4.784558977475684, -13.847108102688841, 28.571308129000975, -25.560477957481726, -17.377636813570337, -28.12211032663528, 26.121648903541573, 4.7770051069189945, 15.508166127376734, -12.3527321618366, -51.098282463400615], [15.897597406938067, -19.21067269179869, 21.033295936984704, -36.12753182888908, -42.87092289910572, 54.18564103330903, 25.675468392382506, 56.958381557679125, -20.618259772577773, -12.33599886565066, -48.833318012413514, -20.04462429242637, -40.42105926962774, -30.27795918425367, 4.1056542157813665, -42.4076681630629, 27.70061730627796, -14.043167084666026, -8.926764466437783, -22.44881292453355, -17.32028843098359, 20.569773545206047, 30.7123327576206, -52.80868886578438, -6.096458523407087, 21.12758004606421, -36.89779738650016, 8.387763241921053]], [[-23.416046749823593, -4.710129166259425, 15.938823188994657, -16.580883511483766, -50.21655642136108, 19.431481931235172, 29.546466770678084, -35.380017512512815, -53.75387702231922, -23.078217540931906, 4.7345453866302325, -4.983421328925029, 25.429789009974815, -6.915203474953409, 27.406640684502975, 65.51014797512653, -34.41958250579176, 31.85538154115307, 35.2712784651223, 18.612785990373574, 8.328957682563198, -24.115040698102696, -33.09685492009468, -34.71457910494418, -14.869972426886005, 52.388465860580695, -12.818266059611839, -12.798038004472032], [8.158490710879457, 34.15963583395293, 2.186078096081149, -1.1242942208202713, 13.930689425707177, -17.273933185109847, 21.54969608687704, 4.443174257647771, -10.001118112185488, -55.42135870108282, -51.382887492665255, -14.523012626147015, -20.057978359771734, 30.53158691967869, -0.6757253950028563, 24.871365127854823, 34.744984559701095, 28.76310567079263, -14.368607151814265, -25.863336658796772, -23.149656330543742, -33.261838617712094, -15.205612276968525, -15.4813636440669, 37.782198772815114, 46.06398934841791, -22.3147732642131, -40.47173806754597], [22.238423474154683, -34.8571151989779, 12.266796646842662, -41.89138446691659, 32.98948186477202, 54.041967442602996, -31.793699940969063, 22.14220037185443, -24.79693524023411, 6.496565286811544, 57.48457087353796, 13.465703487689948, -30.587676229573074, -2.7019658374071716, -20.131858626214832, 33.887849904827824, 12.627158295016178, -39.11391254596446, -38.76722958652312, -2.9676836878579524, 3.975576620436315, -29.387181466831585, -10.459739470043067, 1.3464297152375404, -39.31534209468548, 26.254998584415837, -5.985256696093784, -48.04729757934907], [-24.45475002444453, -1.346605877823213, 19.179844648878163, 9.038940112482438, 71.15939282018213, 50.782801078271916, 14.193907819046139, 21.784524823510964, 38.06314243635665, -39.50069447335309, 18.19800173566603, -7.182212637653201, 20.13453480577408, 14.543213188851734, 22.471796663668187, -16.36057061941612, 24.940471609740428, 12.315458268775446, -7.524427747001699, 22.831822037363942, -19.41217542016358, 41.148733767072905, 41.851242788685596, 38.747234794309364, -57.6396716190709, -27.24123420793956, 29.189102865605054, 42.42100959430065], [0.1740528264039821, -10.831830788034287, -20.018537620346425, -22.3773004201386, -33.36611192274591, -15.205518413930546, -12.974744815860808, -55.44100723970064, -16.252119158367343, 38.14651972542367, -40.10497791697435, 4.05880792268484, -24.64997185017828, -25.49296169037381, -15.418592021475957, 9.689972357166328, -34.93447296365391, -6.693093095125231, 38.10793388549876, 10.31001534864375, 17.532693057626137, -5.428077370381726, -5.145519473417141, -18.650314460596512, 67.83714941333596, 45.31309067540733, 31.249472237759598, 23.6346942238273], [8.635762750094834, 15.908147877490036, 0.7518775008093473, 39.756854330717616, 5.541471843851551, 9.167363203229076, -20.01859847337834, -1.7314295458979008, 1.3983992857694314, 19.917064414748673, -14.246667696281536, 24.26996181975692, -39.62306154805849, -1.6715316509820126, 21.893097954031475, -13.634378290854732, 29.40807106780318, -16.683904779297322, 30.270626381721573, -17.183418019566698, 3.502190055514086, -3.723912467988709, 41.11522064606878, -5.257258343531174, -41.15853176399337, 28.765781485356793, 27.22490380340364, -0.10996607555967876]], [[-18.863842511823023, -28.617373203590393, -13.850199847331663, 12.479656957323188, -72.5339241853637, -3.331758957370381, -32.005369495392415, 51.98466150703836, 13.244762981110279, -14.191105358379136, -54.45172586881852, -20.480402854082623, -8.12190850287493, -29.179384534839397, 28.4158007175945, -13.632171725003584, 35.25199427158481, -12.376241479286694, -34.93906190121322, 11.938507272651737, 16.827943458653753, 7.128527866189393, 13.078773036605083, -46.742438765782275, -24.23564556255826, 52.981314231665394, -17.298084984497276, 11.978572892169417], [-15.61434777728448, 25.404673710122797, 1.7188999864938592, 37.966698020415436, 37.832466897695745, 6.275799455130123, 3.310672871609783, 31.302792001316675, 29.46178097642606, -24.853804235159483, -24.203640294729368, -0.8031627369942355, -15.360949067952225, 4.5143030439673915, -33.69768224408265, -25.86058784578277, 11.292581561899327, 39.927259406391165, 20.436043849321972, 19.841158456972668, 17.589659499946098, -14.919334653657936, -39.43260271044781, -12.836742839515567, -54.97089480904087, 29.88492660217719, 19.575360812723186, -19.717698755271595], [9.73029761947975, -24.398277358247, -12.39198641734326, -20.173697954535527, -33.282525067660345, 43.16416836541986, -27.906988715969792, -52.96199099792132, 47.04029030036805, -23.514327736946647, 27.50112851729199, -0.36579395951583094, -45.620078685739706, 2.1672435022713357, -27.48932555207356, 30.25396193532854, 30.713401337878853, 21.293010431838496, -26.438388031275146, -9.061191246229752, -11.013639565367313, 29.581066633151604, 25.686884061739953, 24.03388983926032, -28.173464903797615, -33.12785587980883, 35.30031191183139, -42.94367613124085], [23.13240613814346, 35.191606548844426, -12.871436065545048, -22.13891672717503, -50.94036415879582, 42.09843897719415, 14.664367491998876, 19.547499940880915, -32.93996274492919, 56.79758964098696, -14.735005698269768, -0.47787680051584336, -12.952499343619353, -32.51984401879088, -21.648583293559888, -19.14639974207111, 11.073464552641997, -0.7223257985514434, -19.1420413518735, -6.867620889331421, -27.389824423231886, -3.2355220995466722, 12.09265231419765, 9.925139029910444, -55.414495536942425, 3.038983471875345, 22.387532642677005, -33.83591994907551], [-7.095915584396216, -16.063057180298067, -22.606942290205208, -21.887541915074944, 70.99146607924555, -18.562708530167537, -23.31472050612961, 47.003281461388, -31.25438896085746, -22.57933807897329, 49.392314601312464, 1.7615486631386221, -13.59684263411456, -23.14935779119012, 16.933838464930798, 1.9262611896288042, -13.409549137429806, -41.611324511787146, -19.729282591891778, 1.0900536670807501, -12.166773093100764, -42.16445643954814, -22.682807229277394, 6.312040231361341, 31.60436274029864, 55.246342519339656, 1.6035630709856856, 35.33632848066272], [17.325501703908564, 29.678609494477367, 19.53144589629212, 42.10486553770914, -6.133579078657329, 46.00231021209926, -27.17858133283954, 54.90085175866225, 41.888218628873766, 12.637265578518516, 58.29597176369007, -1.7557424959077126, 47.766036693389445, -27.26371250449698, 21.66967628427508, 16.438662464437257, -21.573052958382505, 26.494140818481554, -34.380145017495344, -5.1588150103879915, 16.187185889316357, 0.718159232943355, 0.20925501874805705, -31.937910901733012, 68.2987195500907, 2.7541093544697155, -2.3324142917431514, 28.884035356629813]], [[4.911331972654651, -5.5517723120947995, 2.7707586723112008, -29.773940105226032, -11.848621953977675, 39.81672456529709, -5.298151242240693, 9.090243772518063, -49.900442011039424, -13.648582202634246, 16.059083275649108, -22.525796720518056, -30.506469484072163, -10.3235222423147, 4.862951600876734, -66.98687564500226, 21.78161844038903, 34.59537373040009, -35.389143285617045, -3.4733004445989955, -8.053498633742036, 27.95375719272488, 0.5450510182628016, -50.75327950293074, -13.328187720120889, 24.83324833792504, -31.242787343942933, -39.67547922184022], [-0.7476229820595759, -12.850476730665992, 6.957893192656469, 40.53655467955966, -68.02179424234565, 7.800960871773134, -2.581425912253469, 51.92514333442162, -39.60189274461624, 25.834276791774624, -43.71070499122617, -16.401538452065722, -27.929259982624917, 30.555689227790875, 30.112976504739756, 38.2581147938244, -27.074089161271782, 19.7673888531362, -34.16236818180792, 9.442200746608805, -19.17520647507194, -28.247024589154947, -34.38056149178553, 22.35688066023008, 8.56295580956105, -16.844439921104023, 18.312461763315493, 36.60367167503194], [7.345767829003798, -23.36818555279904, -2.1462246601151107, -4.465449566502144, 65.44030843257087, 22.391179583250732, -14.663921169332431, 41.003216740202234, -1.4292052364080625, -32.898580139171486, -24.689670333387582, 0.3860419953907103, -22.47090480387993, -29.41684284122821, -25.268362744277265, -42.76797588689568, 11.51544085620209, 37.96639155083379, 3.5329187326278713, 26.802503825697208, -19.931995133710323, 17.38341619817075, -4.5370856080702096, -46.608153066480604, -22.42434153468301, 45.73740439757435, -37.0291071635529, -38.17397503404968], [-12.299186459502156, 12.860410000983507, -9.910127712714091, -2.937901675878231, 59.652803033148224, -50.3314128411406, -32.61016090892847, -9.465976214678312, -42.87788889144411, -19.732425443813614, 0.3944174336192327, 14.030913613756736, -48.56377765029216, 25.811528611491724, 7.727485502148386, -43.309258689989534, -16.834816634890707, -26.309109702622123, 7.578190094921486, 9.031652159912314, -18.936941386474714, -40.79949288104967, 12.361802064273828, -11.288516564379371, 64.88833296436755, -5.580558325295445, 23.898271524696224, -54.083365720390354], [-22.70391107507481, -25.675712154610384, 8.077889609394008, -26.55862981450725, -19.349414875333537, 9.183788379874146, -32.31560018916305, 51.602439897624095, -17.92118978479363, -45.995021496076966, -11.856904009087804, 11.37864865659301, 30.738487007847986, -5.995311057861542, 5.123623108926237, 62.7445402227584, 20.56283908959873, -19.959790550081852, 6.289440861530325, 4.470794239281763, -23.392180440013643, 16.844354815574405, -12.816441762329891, 17.176722977102408, 69.35090812985236, -57.62837714269746, -6.084073288213704, 31.34649628986603], [-8.917125756976544, -34.32309034666836, -18.22746092408576, 39.01618223849491, -18.687455589561985, 23.204905939484437, 6.272703277355579, 12.942659430214972, -42.51403902541483, -49.90339963665366, 17.295537576486222, 0.42523505269684203, 8.073813751757305, 35.36193084671887, 22.45828567621286, 14.497854144121407, -31.404973143845933, 7.081025632084528, -24.102377300587314, 30.354475142086592, -13.296455115637466, -2.763143902926634, 39.19336656799616, -12.921223260635472, -11.632857931777899, 21.52715643669328, -21.54025545405982, 10.228946094990844]], [[3.4166472102640792, 31.822547544612227, 2.9874840962229747, 39.21385022381557, -30.975921152814948, -25.361659268821434, 19.177656662488157, -26.986606329049465, 36.710655497292144, 16.992972088019936, 45.55627855249627, -26.832820980016386, -0.5650945150759152, 35.306179594838824, -11.975657617232372, 3.697721498375808, 19.7431844135949, -6.077266003821844, 24.09753795448091, 12.071199833112752, -6.735764682091204, -23.92518534904754, -1.9803088965030475, -16.083695320476043, -5.7748052596319, 13.30364445234972, 0.11255862941857468, -34.95160446255585], [4.676311165854507, 4.464677129625466, 13.865253603109831, 34.72411537874706, 34.623216468766174, 20.51098657675336, -6.381242763248803, -36.32193982591683, 40.237483257834434, 6.893758607796055, -57.074987854108656, -8.909430454587456, 4.177394307274265, 30.07483320402605, 2.962330474875159, 41.24464239297815, 17.85016412721651, 1.8371121712055958, -17.668713393127323, -29.27357445298875, 6.310841103940504, 27.00384414093653, 39.196007064261444, 27.969021910904324, -45.6324835446684, -14.645510641081579, 36.24025471477238, -28.30057651717909], [16.497977165186803, -12.344590525433246, -21.528399000942493, 36.75968179714641, -17.484515456903434, -30.475307214444648, 1.440802335790476, 13.51548865702622, -11.984750404381106, 17.927644655910587, 9.990083003789712, 0.7257150198441692, 32.57139861807667, -29.38497673807382, -0.9624960882652631, 15.597528868699461, -24.411696548793994, 2.887649294019223, 40.43353985386179, -25.076728161719764, 26.85952317839162, 21.178764634240252, 16.029741409604984, 21.709637381720793, 11.948211321723345, -53.119385443740526, 10.877567680322855, 0.1329469139601597], [10.254278478452916, -15.79674781720039, -18.859990896407616, -1.9239431577668273, -42.92958848002592, 21.98550986384097, -14.827296458560552, 46.22247703527023, -36.14730585379663, -58.689149093774155, 17.057219692983825, -22.906415017965035, -38.39287220999349, -19.89840707375769, -3.593979402756849, -20.050273660394765, -9.2884375363717, -26.704119351931865, -16.72401462783412, 4.826842218622038, -23.672808482437965, -25.243911910943854, 14.16012203962329, 55.819713384839595, -10.368691223320894, 26.003943770431285, 14.24475711380179, -20.645131529232856], [-4.602921955844744, 12.131458204207776, -17.7720642693514, 10.419508849310455, 59.73277873810605, -47.81910865048744, -4.06761686064549, 54.81109913232209, 48.23177740993431, 28.51863782962492, 45.32630448511286, 14.008023413032173, -42.00485422848529, 31.32044759128127, 9.527242602259017, -0.23125666180945173, -24.649341410353376, 27.455386105299905, -3.5988094363517664, 1.5268691054605041, -7.089139404210664, 6.4306063227781145, 5.3856705871084625, -54.445738869405275, -12.58440085958725, 32.538224103144934, 5.16884547533337, -36.47519421412], [17.35297830443571, 4.501964302401648, -18.79807168058726, -25.197378732951115, -9.191423578838673, -48.78735298252665, -27.14828948996557, 50.117400603256776, 4.004521219812577, 31.66752161583336, -6.870927110135381, -5.05164926345449, 33.321634280660874, 24.55015148132916, -23.357428903520557, 11.056109607347638, -9.714114465384457, -2.7232709786517044, -21.713466799554897, 5.4260365248163565, 24.92056111434896, -3.304678974718148, 1.707477530872849, -3.0652374802090763, 26.741671245277036, 22.716680561996544, 15.446397648128826, 49.52315011344534]]], "t": [[99999999.0, 6.208440105928186, 8.078554333080296, 14.424201800736622, 10.05100887357155, 5.911590271796587, 10.83085389190234, 14.718034436375603, 7.704439237705828, 5.576686049557852, 10.259193788241014, 14.467068761275538, 12.061084250949555, 5.263268681787937, 13.25095910802432, 5.567725789885545, 12.593764585606316, 14.41834709739374, 13.121011947001099, 9.694482112632265, 8.260789106899281, 7.244874377141789, 8.695151122397727, 11.83796078340291, 7.84366305700126, 10.971490416545219, 11.05779346990975, 5.874982947002092, 13.67916371894879, 7.34806259605997], [6.208440105928186, 99999999.0, 9.299084777318523, 8.123008793900786, 11.702562408355313, 6.728960768199995, 7.911949709768626, 10.998307269605426, 9.598625372952691, 12.488785495205528, 7.0647208384717874, 7.6310803488376235, 6.6603424717745385, 14.2918517091437, 5.320601883484295, 12.98202655645069, 11.708466853351027, 8.645299993218126, 8.447302392452883, 8.515446283974514, 14.156377780615205, 14.148665798043767, 12.374837811794823, 13.976635948298021, 7.010179036495801, 10.593659611855927, 14.539016158897564, 7.062175311423589, 11.115546359266514, 14.356210035673328], [8.078554333080296, 9.299084777318523, 99999999.0, 12.127054759373669, 9.939279706228367, 10.507532324562488, 9.26971070227026, 14.277009466784884, 14.860309366432618, 8.919808012360232, 5.3011861682443175, 13.946218521521459, 13.642267495871335, 10.366771428586325, 6.901953863005351, 11.679186667412875, 10.076835672650288, 6.197794590115148, 8.963948926059683, 6.7129554281655315, 14.348999514577947, 10.980232381336432, 13.036265214372275, 12.899299853452915, 6.516025836177647, 13.100560568937968, 6.613049727041917, 6.120690146413429, 9.096847213317492, 10.132811966641512], [14.424201800736622, 8.123008793900786, 12.127054759373669, 99999999.0, 5.762224746218808, 13.688873606481625, 6.382497445506963, 5.660405722394758, 12.926162679599308, 9.558979579709984, 12.467926849830096, 14.667918606131849, 8.666600015441528, 6.5654488582757935, 13.310859556161406, 8.927553665858616, 8.911732445349637, 5.9571205245313, 7.902241241424038, 9.457790920431066, 10.535237646340708, 11.594926926157859, 9.752491543384949, 11.619989733284708, 12.09508185469245, 7.008861929931445, 6.084375739996616, 10.704339120986234, 6.423642215552558, 9.605204359022421], [10.05100887357155, 11.702562408355313, 9.939279706228367, 5.762224746218808, 99999999.0, 8.057985678176113, 11.101471849115805, 7.878368606463287, 5.089401129054898, 6.243867734808491, 6.893065644966798, 11.443748414659606, 12.75653602719492, 7.527349214922355, 13.205413845628742, 10.944876169287294, 9.077255829721604, 9.36323227857543, 6.714260315047831, 14.925832198610692, 12.973656884769422, 9.635755558234154, 9.402896638932623, 12.117702017826065, 14.417453812126213, 14.674825255039918, 8.375288310109607, 6.344440217091457, 11.28783985174434, 5.097260516562745], [5.911590271796587, 6.728960768199995, 10.507532324562488, 13.688873606481625, 8.057985678176113, 99999999.0, 7.3079909555334766, 9.600321268056984, 10.802500027955427, 8.388867721208683, 12.669391458006475, 13.027465574866275, 7.3603768909101035, 9.923396697773086, 7.876195697742898, 5.303300180000683, 12.688207230722902, 14.371095782890732, 6.5754904473954765, 8.461944056220386, 10.017174985548955, 6.114887216881112, 13.179929052203413, 5.775052972918201, 5.071894635313125, 10.02848434982024, 13.365546243354219, 8.707252706250422, 6.597790086803602, 13.78371131023268], [10.83085389190234, 7.911949709768626, 9.26971070227026, 6.382497445506963, 11.101471849115805, 7.3079909555334766, 99999999.0, 13.513882180466934, 11.641159410023928, 5.315857208636556, 13.702573872156853, 5.829692110171169, 6.095169123287095, 8.704364669571937, 12.324250964721514, 8.996234085205451, 8.621112885740718, 12.150072804158828, 12.636355947277796, 8.278562868433994, 5.985965202257553, 8.938721627188768, 12.595026375507052, 9.94472498032053, 10.264949630103633, 13.560342328322303, 6.1369629774468155, 12.166836198237217, 9.80603612942645, 6.803006580678587], [14.718034436375603, 10.998307269605426, 14.277009466784884, 5.660405722394758, 7.878368606463287, 9.600321268056984, 13.513882180466934, 99999999.0, 12.735581949002066, 9.967086694462331, 9.005748166756502, 14.669630185578017, 10.04421480734677, 12.032595046034071, 8.319626290879214, 8.524892791713803, 10.94603337920935, 14.539003509735915, 10.874580263267223, 6.1784769692944455, 13.723841541033108, 14.865735943163335, 11.087536612586863, 7.665656374757152, 11.47534438987122, 6.0890954094273795, 6.185514430509851, 8.733009137178358, 10.049289850085648, 13.637845146541492], [7.704439237705828, 9.598625372952691, 14.860309366432618, 12.926162679599308, 5.089401129054898, 10.802500027955427, 11.641159410023928, 12.735581949002066, 99999999.0, 12.545030854652843, 9.233622321422846, 7.830231834615615, 7.933184310554923, 8.617680441682083, 7.778498569719052, 12.941870412837467, 13.441130332368235, 9.313433199606205, 8.234398089457759, 5.888007214532209, 10.141732540579522, 12.44903214629755, 10.576270955326653, 11.194670780956402, 5.497367420811505, 10.158531531960978, 12.441064552538188, 9.939576293396698, 6.5045541209760955, 10.850165632636491], [5.576686049557852, 12.488785495205528, 8.919808012360232, 9.558979579709984, 6.243867734808491, 8.388867721208683, 5.315857208636556, 9.967086694462331, 12.545030854652843, 99999999.0, 12.512986020405963, 12.91692902112425, 5.27842821970038, 9.799854728424478, 10.182197892583478, 11.347290698520842, 13.502560134496093, 10.596176360353667, 13.348185365392942, 7.059245707090886, 12.987902234121291, 7.562816880689144, 6.960707550275595, 13.246903788166183, 10.679155792143241, 8.769409752844016, 9.519362222681355, 14.790899214502494, 14.227575625651582, 12.75480572029931], [10.259193788241014, 7.0647208384717874, 5.3011861682443175, 12.467926849830096, 6.893065644966798, 12.669391458006475, 13.702573872156853, 9.005748166756502, 9.233622321422846, 12.512986020405963, 99999999.0, 10.573031222461372, 10.964396664260097, 14.416518070658507, 12.490033548794658, 5.26942644316819, 8.889001354476829, 10.305052330546939, 5.987222712938492, 5.70316555019747, 14.43061910042901, 13.154294625272613, 8.661380367244583, 10.017073565516323, 13.716764887214639, 9.387622230015122, 13.421564463006572, 11.4673156164877, 9.317398681499256, 6.206810218144296], [14.467068761275538, 7.6310803488376235, 13.946218521521459, 14.667918606131849, 11.443748414659606, 13.027465574866275, 5.829692110171169, 14.669630185578017, 7.830231834615615, 12.91692902112425, 10.573031222461372, 99999999.0, 9.680550669861976, 14.71152144245493, 9.214668357940141, 13.95436801417485, 11.670029705177406, 8.571277861162537, 13.54446347818994, 5.878094785918742, 9.636537913146974, 7.441376964524825, 6.125862842609918, 13.561355901836622, 14.961306719245975, 7.5580130048293, 11.104453512482472, 13.150801482522086, 9.670619713822866, 9.680960504008299], [12.061084250949555, 6.6603424717745385, 13.642267495871335, 8.666600015441528, 12.75653602719492, 7.3603768909101035, 6.095169123287095, 10.04421480734677, 7.933184310554923, 5.27842821970038, 10.964396664260097, 9.680550669861976, 99999999.0, 12.318226911274976, 5.112320275437479, 8.896173348125506, 11.098671589454954, 6.887905579756667, 13.183752341448633, 8.774581229849126, 14.988814761555254, 9.150466766562214, 8.623717495944389, 5.301521711908496, 8.051126388390628, 11.583105823621418, 9.526923691389673, 12.84001155293182, 10.265494582801029, 11.380767851273529], [5.263268681787937, 14.2918517091437, 10.366771428586325, 6.5654488582757935, 7.527349214922355, 9.923396697773086, 8.704364669571937, 12.032595046034071, 8.617680441682083, 9.799854728424478, 14.416518070658507, 14.71152144245493, 12.318226911274976, 99999999.0, 9.131994326706067, 7.264957351472589, 7.944260388185431, 5.906129649351975, 7.082281516639744, 12.862083237040528, 9.49095738157995, 8.465534576023703, 9.638840204890702, 7.565133937152, 10.385497971412711, 11.587517540053009, 11.89803971827074, 14.466434529160447, 13.158549577673718, 10.384132601432317], [13.25095910802432, 5.320601883484295, 6.901953863005351, 13.310859556161406, 13.205413845628742, 7.876195697742898, 12.324250964721514, 8.319626290879214, 7.778498569719052, 10.182197892583478, 12.490033548794658, 9.214668357940141, 5.112320275437479, 9.131994326706067, 99999999.0, 14.986104017472133, 11.197742095824795, 6.095170123320876, 12.422469635262024, 5.28840574061363, 7.065504796750739, 14.866176967884961, 7.707639522341333, 9.489676333425528, 5.939374680581997, 9.954326460116585, 6.634487705170229, 13.243612488858279, 8.404392852952789, 14.39836476591932], [5.567725789885545, 12.98202655645069, 11.679186667412875, 8.927553665858616, 10.944876169287294, 5.303300180000683, 8.996234085205451, 8.524892791713803, 12.941870412837467, 11.347290698520842, 5.26942644316819, 13.95436801417485, 8.896173348125506, 7.264957351472589, 14.986104017472133, 99999999.0, 11.760163309264666, 10.927877712718292, 12.901516858910433, 7.193429307087895, 13.00618805485842, 13.902146618514434, 12.459760992219088, 9.460193662748232, 7.546376784591484, 8.21793753698778, 14.593505849575429, 7.451289971200447, 11.72068276023386, 12.994998709093407], [12.593764585606316, 11.708466853351027, 10.076835672650288, 8.911732445349637, 9.077255829721604, 12.688207230722902, 8.621112885740718, 10.94603337920935, 13.441130332368235, 13.502560134496093, 8.889001354476829, 11.670029705177406, 11.098671589454954, 7.944260388185431, 11.197742095824795, 11.760163309264666, 99999999.0, 9.020815250870092, 12.549509352783424, 5.38206460733544, 6.720869823666296, 9.859962441488918, 9.577013551391106, 10.003430610099873, 5.901470509508815, 5.831236869310182, 9.120362475465589, 6.338857749515064, 11.291128550046244, 10.370970105664766], [14.41834709739374, 8.645299993218126, 6.197794590115148, 5.9571205245313, 9.36323227857543, 14.371095782890732, 12.150072804158828, 14.539003509735915, 9.313433199606205, 10.596176360353667, 10.305052330546939, 8.571277861162537, 6.887905579756667, 5.906129649351975, 6.095170123320876, 10.927877712718292, 9.020815250870092, 99999999.0, 12.664846032226027, 7.9486972031444845, 7.919646501158853, 6.821571453650824, 10.189145967176257, 5.949961922286887, 8.910264314661436, 11.302236310645418, 6.037756581572038, 7.68648805229695, 8.327211624526434, 6.322586209702063], [13.121011947001099, 8.447302392452883, 8.963948926059683, 7.902241241424038, 6.714260315047831, 6.5754904473954765, 12.636355947277796, 10.874580263267223, 8.234398089457759, 13.348185365392942, 5.987222712938492, 13.54446347818994, 13.183752341448633, 7.082281516639744, 12.422469635262024, 12.901516858910433, 12.549509352783424, 12.664846032226027, 99999999.0, 6.837421585452468, 12.583092594533625, 7.481102484817491, 10.720766143191641, 14.366632881793652, 13.793609464096837, 14.789805925478158, 5.3988470819164105, 13.908679986408114, 9.505257444043131, 12.821511811035064], [9.694482112632265, 8.515446283974514, 6.7129554281655315, 9.457790920431066, 14.925832198610692, 8.461944056220386, 8.278562868433994, 6.1784769692944455, 5.888007214532209, 7.059245707090886, 5.70316555019747, 5.878094785918742, 8.774581229849126, 12.862083237040528, 5.28840574061363, 7.193429307087895, 5.38206460733544, 7.9486972031444845, 6.837421585452468, 99999999.0, 10.306045763241498, 10.343034923220888, 8.376025097730897, 6.52157823946863, 6.939365803365338, 9.566161146967321, 5.010366763500812, 13.835165847651092, 13.024495673576656, 14.03577352984233], [8.260789106899281, 14.156377780615205, 14.348999514577947, 10.535237646340708, 12.973656884769422, 10.017174985548955, 5.985965202257553, 13.723841541033108, 10.141732540579522, 12.987902234121291, 14.43061910042901, 9.636537913146974, 14.988814761555254, 9.49095738157995, 7.065504796750739, 13.00618805485842, 6.720869823666296, 7.919646501158853, 12.583092594533625, 10.306045763241498, 99999999.0, 9.666246771158542, 9.267113156243663, 12.21428051691812, 5.678014262357785, 6.0267154815451915, 12.408202466030525, 12.366856612993194, 9.908242115344137, 13.572254950013837], [7.244874377141789, 14.148665798043767, 10.980232381336432, 11.594926926157859, 9.635755558234154, 6.114887216881112, 8.938721627188768, 14.865735943163335, 12.44903214629755, 7.562816880689144, 13.154294625272613, 7.441376964524825, 9.150466766562214, 8.465534576023703, 14.866176967884961, 13.902146618514434, 9.859962441488918, 6.821571453650824, 7.481102484817491, 10.343034923220888, 